1512 128
344 -0.098349236 0.033876568 -0.016141627 0.045684647 0.027200807 0.09718892 -0.049492 0.09523941 0.08760911 0.091809995 -0.04265519 0.08835946 0.04788233 -0.00043394323 0.020157006 -0.089007914 0.030039437 0.048631065 -0.003708003 -0.011918674 0.020855987 -0.004574378 0.03746013 -0.01767471 0.07302404 0.04022429 -0.08683843 0.09874639 -0.047582053 -0.09309023 0.045833945 0.081279576 -0.09458672 0.006459484 0.004668637 -0.002416201 0.033416897 0.04392435 0.06551265 0.061877128 -0.041176245 0.0016023936 -0.10327298 -0.008825615 -0.09885121 -0.014089166 -0.024969205 0.077806905 -0.07772936 0.027788453 0.10119486 -0.015453073 0.064352505 -0.02207195 0.07412426 -0.00049054157 -0.031415675 0.05633798 -0.05009041 -0.098681375 0.08060997 -0.044545796 0.050959468 -0.06453911 0.027557477 0.02947238 0.019374873 0.004944383 -0.09614199 0.068943575 -0.040289566 0.01247947 0.08579573 0.0025895126 -0.011294148 -0.07510791 0.077916816 -0.046857554 -0.042956363 0.039281078 -0.05179629 -0.0045485646 -4.1042455e-05 0.038756657 0.027465291 0.07409389 0.08296527 0.0039687417 -0.077424146 0.015287437 -0.06214338 -0.05671273 0.03198042 0.008284085 0.0676375 -0.08178309 -0.03616897 0.0063077547 0.08344506 0.0006656954 -0.048434574 -0.08690564 0.04683409 -0.0062439376 0.007840609 0.049527057 0.08124078 0.10146296 0.034049284 0.07393189 -0.05642595 0.026597666 0.057958525 0.082775466 -0.06794288 0.094719104 -0.02824112 0.021679074 -0.01926931 0.0706176 0.06365242 -0.018845804 -0.009303243 -0.037980877 -0.09508878 -0.094247654 0.08467328 0.08334503
345 -0.0045733238 0.059747737 0.10334273 0.006469487 -0.072360836 0.07050443 -0.09923189 0.082576945 0.06573341 0.053622216 -0.0026809387 0.043154497 -0.030807637 -0.088010736 0.008238686 -0.03229232 -0.029256001 -0.00065757614 -0.05857363 -0.009280548 0.010423508 0.02278665 0.0044788048 -0.08833158 0.033342957 0.06444263 -0.040600307 -0.0034402572 -0.014081679 -0.04092194 0.09371663 0.03385446 -0.012797473 0.03924851 -0.005609488 -0.0333424 -0.05181545 0.03871016 -0.0049856286 0.07063548 -0.032983538 0.10304874 -0.03565686 0.08864743 -0.02890809 -0.029364057 -0.0767688 0.09249517 -0.05095333 0.09763 0.014011906 -0.030555772 0.065009475 0.01629439 0.029582214 -2.462417e-06 -0.018300923 0.09892322 -0.038786888 -0.010206066 0.059417784 -0.058425087 0.09863145 -0.030652715 0.07413588 0.083227165 0.061354354 0.098169334 -0.020935543 0.055713568 -0.020164274 0.02664543 0.05586046 0.045560632 -0.0119229965 -0.025558304 0.100756496 -0.081257686 -0.08294815 0.07951405 -0.076790534 -0.06551695 -0.04126595 0.04739719 -0.082548015 0.050649643 -0.004712088 -0.005278183 -0.09475969 -0.054826178 -0.056691296 -0.04408595 0.0021716272 -0.06724267 -0.020122789 -0.017924536 -0.10061148 0.05460238 0.09738577 -0.02674264 -0.098652266 -0.0661328 0.101397924 0.07739439 0.07852585 -0.007003965 0.023641167 0.02967009 0.09377048 0.047554977 -0.033230707 0.031580843 0.0026330743 0.09201996 -0.02512671 0.005274279 -0.061623573 0.06913461 -0.024186427 0.012395816 0.085279174 -0.027522314 -0.0060815196 0.014632907 0.0071250284 0.009342186 0.03224746 0.05721472
346 -0.010366345 0.059971534 0.06794738 0.017498288 0.017703928 0.07617433 -0.009162369 0.03423876 0.04865204 0.0666298 -0.05907528 0.090032004 0.06502323 -0.07219279 0.008605598 -0.032174937 -0.020295825 0.0648379 -0.058027484 -0.084750205 0.027938168 0.10262205 0.043193623 -0.050081685 0.01667431 0.08252733 -0.008560786 -0.016837712 -0.026817925 -0.08140741 -0.0051840646 0.057718776 0.0031403173 0.020906562 -0.047095407 -0.018561058 -0.08039638 0.06999522 -0.015946873 -0.02354304 -0.072007924 0.04584688 -0.012286886 0.033535324 0.008345615 -0.0024996484 -0.03788122 0.039544314 0.013972162 0.05021281 0.0050301272 -0.042057928 0.033229616 0.09078965 0.07403273 -0.076265804 0.079767555 0.08139267 -0.034297407 -0.015333501 0.059404742 -0.045250144 -0.031444173 0.005102802 0.04895572 0.013425834 0.07899472 0.07873837 -0.10295187 -0.059215587 -0.03451024 0.090187676 0.076555476 0.010266351 -0.05497885 0.033027217 0.024376746 0.036102727 -0.08380814 0.05624138 -0.06831686 -0.020059008 -0.047243185 0.049715172 -0.06665959 0.048255444 0.063525155 0.027876414 -0.023803348 -0.020510312 -0.07123242 -9.79146e-05 0.018559769 -0.03302382 -0.018055946 -0.060102865 -0.06888592 0.08026233 0.014957036 -0.018737774 -0.03792765 -0.05107159 0.049428247 0.0062419046 0.03742204 0.029035414 0.05017645 -0.0017077457 0.054295767 0.09906428 0.012190799 -0.10097275 0.07000141 -0.010558552 0.008321251 0.057460725 -0.08212231 0.08851307 -0.07329767 0.10269993 0.10011954 -0.06499157 -0.10339868 0.011233911 -0.030703215 0.0039742775 0.07546387 0.09702749
347 -0.040280774 -0.013617117 0.074661635 0.0945855 -0.09886241 0.025298629 -0.008101003 0.040287066 0.0055565154 0.035753272 0.003009406 0.04307866 0.09261424 -0.08898926 0.096260525 -0.051623654 0.07106213 -0.007864281 -0.073058 -0.0786828 0.0073161675 0.011479276 0.08907461 -0.05998104 0.0778291 -0.0014034947 -0.0073969923 0.04791651 -0.058318745 -0.05896702 0.0897483 0.039398618 -0.054123107 0.0183005 -0.050542347 -0.082374506 -0.019072797 0.05703571 0.07127689 0.081021205 -0.055253796 -0.014652592 -0.066730976 0.074280284 -0.105709285 -0.090743996 -0.0042123813 0.086024344 -0.104048245 0.050073702 0.04690765 -0.049122207 0.067548804 0.056015633 0.07810849 -0.03432013 -0.018110882 0.08551482 -0.067210644 -0.06784165 -0.0013052179 0.0005536424 0.056633517 -0.033913884 0.036329165 0.06444888 -0.0005314071 0.013551554 -0.02094634 -0.003211835 -0.03466922 0.082759924 -0.00847734 0.10327062 -0.071975246 0.034239795 0.048297733 -0.053657874 0.01395309 0.0056248717 -0.03849145 -0.07911539 -0.04606596 0.03170343 -0.09194679 0.08932087 0.051094055 0.09252762 -0.003989513 -0.027429549 -0.027903693 -0.08598864 0.09885949 -0.03215152 0.083320946 -0.082560174 -0.008277272 0.034606762 0.08997339 -0.0022042897 0.0053788787 -0.10237313 0.064190656 0.06779961 0.032133296 -0.0035398807 0.001374023 -0.0014328007 0.060039386 0.05941437 -0.086147904 -0.016975462 0.058291133 0.08360496 -0.071004346 0.025890775 -0.06914381 0.047079794 -0.09704044 0.020467844 0.10325297 0.03048187 -0.013747215 -0.09710373 -0.042614304 -0.07733957 0.002037079 0.026194882
340 -0.08888964 0.07912359 0.06610237 -0.0034115994 -0.07132529 0.015269025 -0.06380922 0.021967562 -0.0137662245 0.05978027 -0.05917788 0.009191707 -0.03094038 -0.06539586 0.09819515 -0.08423589 0.0480427 -0.0046847034 0.0145593425 -0.076969825 0.05777635 -0.005152095 0.0810894 -0.0023258561 -0.007906875 -0.0063177226 -0.044671003 0.03861985 -0.0052305227 -0.029390711 0.08885733 0.0695405 -0.042372487 0.057336137 -0.06610871 -0.07354028 -0.08949575 0.06185478 0.03320714 0.026521565 0.039017715 0.05477546 0.031711474 -0.0039149486 -0.051646456 0.0015205704 -0.0252942 -0.013228619 -0.06952417 0.009097168 0.0183953 -0.051672813 0.0043847784 0.07554196 0.058116414 -0.059432123 0.07527448 0.086148515 0.016953578 -0.06531781 0.065074116 -0.053634014 0.08318563 -0.05848941 0.08864464 0.10091739 0.04989972 -0.036101002 0.012178762 -0.054346975 -0.010591051 0.018877845 0.069165856 -0.0043842634 -0.03523342 -0.07147808 -0.009104945 -0.032024324 -0.08629125 0.065914325 -0.07788031 -0.054958023 -0.03827361 0.06796646 -0.029118435 0.052010417 0.011489284 0.06312864 -0.05595383 -0.02867207 -0.044746794 -0.098855905 0.06320426 -0.03042031 -0.02524718 -0.04899823 -0.03202046 0.039623845 -0.009740538 -0.030818652 -0.025545204 -0.030086558 0.09177289 0.039907813 0.029739426 -0.009425486 0.065018855 0.07316297 -0.012795671 0.071798354 0.013285238 -0.022700734 0.103929766 0.08356776 0.06625095 0.052758493 -0.08509482 0.09975225 -0.09768649 0.038075086 0.05010498 -0.09309985 -0.040571474 -0.011721737 -0.09423889 -0.01917807 0.037888028 0.05453313
341 0.00013220496 0.041108143 -0.008910102 0.060214996 -0.033840287 0.0064342413 -0.0065743383 -0.0016605109 0.0002427781 0.0842921 -0.027555259 0.008524653 0.0761762 -0.06801147 0.042264365 0.008155958 0.07820584 0.027612096 -0.02481158 0.027207771 0.014289772 0.056556966 -0.009230771 -0.042693883 0.04809145 0.09935039 0.019494252 0.09995008 -0.044416048 -0.0816153 0.08472801 0.069937505 -0.04456073 0.03674148 -0.0639332 -0.056027666 -0.055948604 0.00749577 -0.008562848 -0.012591532 -0.04573292 0.097079195 -0.014645597 0.09145586 -0.05609779 0.0015529608 0.01694734 0.0834986 -0.006174134 0.039923005 0.094769545 -0.0575698 0.08687727 0.00545974 0.054909296 -0.04482001 0.034441642 -0.00022516213 -0.06646262 0.0032980992 -0.012251798 -0.1000901 0.04166272 -0.05177836 0.04767159 0.017833954 0.045836445 0.02491229 -0.07031639 -0.050430555 -0.029821707 0.0709387 -0.015766084 -0.011289499 -0.03342198 -0.038244713 0.05837679 -0.031341422 -0.066657245 0.043033663 -0.09993339 -0.013528801 -0.056272976 0.023159947 -0.09345718 -0.0010582227 0.088552736 0.03812319 -0.025737744 -0.10157576 -0.044226076 -0.062422838 0.069475934 0.0015006326 -0.032852188 -0.0075059785 -0.016987165 0.012514269 0.053055827 -0.052178048 0.019465346 -0.10264703 0.068711 0.0712522 0.015994485 0.053426176 -0.006827851 -0.006154849 0.046285987 0.09203313 -0.10065588 -0.035988636 -0.026689466 0.01188134 -0.049291678 0.06714081 -0.041534826 0.0049179588 -0.07079896 0.09717672 0.0773248 0.027912231 -0.0863357 -0.088504486 -0.09114893 -0.0038510356 0.043394987 0.05927507
342 -0.04747314 0.004380077 0.09063871 0.058850516 -0.03424539 0.051822692 0.015937172 0.014615321 0.06433151 0.02824954 -0.054792758 0.011911993 0.018935693 -0.008045065 0.07761486 -0.0655326 -0.022099502 0.05324596 -0.018979335 -0.006461799 0.041165285 0.03153718 0.09275191 -0.038181733 0.016947854 -0.0076486133 0.0009108698 0.09861773 -0.04788847 -0.029248113 0.02445915 0.031420484 0.0064661624 0.051415734 0.0016537383 -0.06926964 -0.078413 0.02346056 0.099062085 0.0897873 -0.07919762 0.006342981 -0.099822216 0.03560193 -0.06608504 -0.05502816 -0.003225023 0.0609035 -0.021712685 0.04847824 0.083410345 -0.0092977295 0.021613616 0.03147783 0.012380316 -0.080064274 -0.006995159 0.077879265 -0.049416125 -0.036630068 0.10041015 -0.053520277 0.094380274 -0.0968515 0.08637137 0.10056102 -0.0078001134 0.023832414 -0.019115774 -0.04513472 -0.065203466 -0.006563995 0.104605205 -0.015347072 -0.082033195 -0.058943067 0.050434396 -0.08215113 -0.041816354 0.02274191 -0.102156885 0.010542598 -0.051020503 0.025534345 -0.08190787 0.10504739 0.08531266 -0.0017722258 -0.050494634 -0.03327563 -0.06652361 -0.08517188 0.05431539 -0.06423535 0.08924219 -0.020168224 -0.0584586 0.072665356 0.0012277579 0.0013630847 -0.0015353765 -0.09763225 0.04846467 0.050552044 0.013581201 0.045194577 0.059904404 0.06819584 0.056315035 0.08542919 -0.06271409 -0.032739222 0.04217053 0.102677874 -0.008291393 -0.012310595 -0.09621456 0.023881603 -0.084345214 0.026978593 0.00090058893 -0.054297104 -0.05255945 -0.08364834 -0.051730998 -0.06491257 0.0533079 0.055917747
343 -0.092074856 0.0125550805 0.0045596426 0.071038544 -0.065357134 0.06170662 -0.020104341 0.017966297 0.039730355 0.060773093 -0.062151004 0.054509968 0.037649207 -0.1047613 0.095730186 -0.012318808 0.056298282 0.07623817 -0.06405996 -0.09076439 -0.030250354 0.048915785 0.007734726 -0.036125734 0.08883036 0.012337298 -0.08908575 0.017700505 -0.070694014 0.012780249 0.060328223 0.085340455 0.0012063198 0.07680301 -0.025515035 -0.05543141 -0.008943401 0.038860954 0.09252191 0.058040652 0.039491393 -0.0022967318 -0.104205236 0.07126713 -0.01412455 -0.044304237 -0.073624104 0.06482171 -0.049807668 0.060779687 -0.001716393 -0.09795192 0.08997198 0.09782058 0.052078914 -0.022869824 -0.01947111 0.029648421 -0.09063479 -0.006350968 -0.015307814 -0.021787347 0.07148568 -0.036638387 0.0629129 0.07714008 -0.031638 0.06637681 -0.061067708 -0.104030594 -0.084822096 0.09141052 -0.014494712 0.0058925673 -0.06377782 -0.090438105 0.060222533 -0.07884229 0.014875266 0.09050321 -0.023053356 -0.08112444 -0.09439026 0.0677573 -0.08555649 0.080026805 0.048460256 -0.002755859 -0.050326314 -0.10126818 -0.041906543 -0.05064012 0.00014620274 -0.09146087 0.01154726 -0.062299926 -0.050837472 0.080771476 0.028706836 -0.089814246 -0.075850464 -0.07994467 0.07616961 0.067486756 -0.0044319686 0.09625663 0.0112013165 0.08740461 -0.029938187 0.013592755 -0.06102478 -0.10308743 0.045516856 0.08197638 -0.06411801 0.10342628 -0.06281203 0.022701524 -0.052432947 0.036116928 0.044490647 -0.017405007 -0.024455715 -0.100106776 -0.07159897 -0.025226716 0.09778812 0.024998639
348 -0.08261504 0.042065173 0.062717885 0.09190905 -0.03060653 0.06880429 -0.09659986 -0.007365278 0.104459 -0.013759388 -0.06627371 0.04258871 0.048356652 -0.011313834 -0.0028417027 -0.06869682 0.0048413435 -0.038099855 -0.059725314 -0.052908752 0.07236877 0.0011733808 0.031903822 -0.06377608 -0.011645556 0.06763761 0.0045287665 -0.01939109 -0.068325184 -0.05684966 0.027643252 0.05161418 -0.03976143 0.10426883 -0.068993285 -0.081237815 -0.032807454 0.045387283 0.04426261 -0.010573713 0.03746999 0.07301131 -0.07560702 0.06245975 -0.10399963 -0.043061867 0.029954415 0.06881516 -0.058985464 0.10293281 0.053251848 -0.0193449 -0.013332051 0.0468243 0.041285858 -0.030955069 0.08790785 0.014076058 -0.072298594 -0.08475669 0.049238272 0.013595016 0.03130284 -0.06340754 0.0309125 0.023175944 -0.029259425 0.08699099 -0.055291392 0.04701471 4.7300942e-05 0.08679241 0.08218503 0.059710886 -0.0965193 -0.057058334 0.05989623 0.015607021 0.01520756 -0.009251957 -0.013270581 -0.076360434 0.00070845895 0.02352824 0.012038122 0.08572932 0.035298273 0.05020468 -0.093457446 -0.07676652 0.011977696 -0.015872888 0.089483485 -0.011643481 0.0045038583 -0.04433915 -0.015035329 -0.036727354 0.017234065 -0.07396128 -0.09797364 -0.05835521 0.095041655 0.08335127 0.029654788 0.0134329 0.026167389 0.04668339 0.03961524 0.0084431125 -0.039692353 -0.07634703 0.05729969 0.005630332 -0.03269708 -0.0076987855 -0.080314405 -0.015948663 -0.09531271 0.09345232 0.03196309 -0.09550745 -0.026362648 -0.07195135 -0.093147926 0.007845559 0.02815698 0.050401896
349 0.032415517 0.09955613 0.0025701933 0.07660348 -0.035692852 -0.0034002848 -0.0056057153 0.07670392 0.03757099 0.09026819 -0.052705213 0.07389015 0.03447439 -0.02985923 0.088030614 -0.0039837826 -0.00074439216 0.08545515 -0.06234397 -0.0074946415 -0.004576197 -0.012298647 0.08539578 -0.087628946 0.05558338 0.094966106 -0.028034447 0.06134697 -0.010551203 -0.03724125 -0.007658235 0.093793474 -0.017047627 0.0891785 -0.08474401 -0.011604581 -0.025647806 -0.004275807 0.08321169 0.08411697 0.027498018 0.059073217 -0.037983958 -0.011852925 -0.090217605 -0.089478225 -0.055087533 0.06177467 -0.014837478 0.09901987 -0.00067738164 -0.044738725 0.104793325 0.07988522 0.03582751 -0.037137553 -0.014707612 0.03793609 -0.048747443 -0.07927671 0.031341735 0.009172244 0.08416827 -0.015264488 0.06144138 0.02822477 0.045331724 0.09708928 -0.09953678 -0.07190798 -0.06075994 0.1032603 0.089655146 0.036919605 -0.023653038 -0.04911571 0.099488504 -0.03276351 -0.04169507 0.038991068 -0.06272617 -0.03915719 -0.008964589 0.05901019 -0.08037976 -0.010339531 0.016815856 0.017609093 -0.07148438 -0.0009478815 0.013123636 -0.086463846 0.09066649 -0.018949278 0.022056576 0.007919589 -0.057708994 0.07970056 0.033830266 -0.025198951 -0.07629593 0.0022804076 0.052932855 0.01741414 0.10278243 0.0936186 0.05877965 0.027977623 -0.016124893 0.020442702 -0.021990327 -0.08575308 0.10130334 -0.022623423 0.075500235 0.008833496 -0.103700966 -0.0015795836 0.0070902966 0.099874035 -0.015307897 -0.053585485 -0.07429551 -0.033652257 0.014840905 -0.08597087 -0.004791322 0.102417044
298 -0.06563006 0.10238486 0.005516569 0.057771966 -0.07862684 0.0843914 -0.041279197 0.0073985476 0.02908157 0.037421737 0.011284273 0.0020698495 0.036731794 -0.01894612 0.026962819 -0.07527506 -0.03190499 0.015959598 -0.032010354 -0.013752371 0.035282966 0.049756564 0.053241402 -0.009525481 0.07836663 0.040220875 -0.05675538 0.051980607 -0.078463815 -0.042965308 0.09481649 0.04544868 0.0062039364 0.07226682 -0.01657331 -0.026981028 -0.040168226 0.028254414 0.010949319 0.03158466 -0.051840223 0.08198545 -0.09124644 -0.03937041 -0.035164297 -0.029919833 -0.07352638 0.042816825 -0.021560144 0.10556704 0.00048507843 -0.097932346 -0.013219904 0.05899681 0.0077970447 -0.040108826 -0.024169726 0.021980312 -0.0017428333 -0.057519842 0.015551749 -0.0002996605 0.07451928 -0.05478018 0.07938591 0.015993841 -0.0014370577 0.08573103 -0.009295979 0.047468077 -0.04523042 0.0033792732 -0.00885947 0.092308536 -0.013900392 0.024892341 0.078333735 -0.02000376 -0.0103405975 0.011617141 -0.06617199 0.00833228 -0.09092266 0.05429792 -0.020007882 0.052229725 0.045959055 0.041881505 -0.019261558 -0.077409476 -0.07550903 -0.005018132 -0.014727129 -0.039611474 -0.021336118 -0.0054466063 -0.021601692 0.09181411 0.08886813 -0.07031076 -0.034793157 0.0014499752 0.042968675 0.096734524 0.083681256 0.0837935 -0.009036233 0.03946702 0.04942284 0.06367223 -0.041348524 -0.0024045408 0.033626404 0.054314576 0.015013164 0.04134351 0.002684624 0.05789541 -0.05659241 0.10279845 0.091857895 -0.094159715 -0.058264744 -0.0584281 0.009142868 0.015238614 0.09975058 0.00068313535
299 -0.07894002 0.010460029 0.049180955 0.07001915 -0.08661689 0.10203897 -0.0991289 0.041294146 0.05971754 0.012502073 0.004492335 0.050355062 -0.028246881 -0.06747416 0.103257425 -0.10248955 0.08675842 0.009373646 -0.097926065 -0.020866808 0.0034641875 0.08671245 0.08763787 -0.05620395 0.087837845 0.046837404 -0.09055535 0.047005072 -0.023116916 -0.052764732 0.0966857 0.03932835 -0.030319968 0.014931431 -0.07555922 -0.024056397 0.03517706 -0.010075599 0.08448091 0.041916694 0.012999106 0.10233395 -0.015152252 0.018485371 -0.05875824 0.008815547 -0.01098851 0.08334962 0.004780976 0.027202986 0.0143842 -0.086860135 0.06818003 0.07002672 0.086277284 -0.029527025 0.029159654 0.02499825 -0.013746215 -0.06204422 0.065335855 -0.081591085 0.0583283 -0.068100244 0.063839674 0.03929935 0.020140596 0.04705017 -0.09447175 -0.089440845 -0.015798217 0.104312375 0.076865 0.07958052 -0.06368022 0.012812381 0.076997116 -0.09037896 -0.09272956 0.10363931 -0.05069449 -0.011762746 -0.036443394 0.012629781 -0.041198805 0.023385629 0.009553263 0.08935531 0.00044394098 -0.036884896 -0.03378644 -0.016285524 0.026661621 -0.008639101 -0.0072118007 -0.06095055 -0.029610127 0.03125474 0.07618384 0.009996017 -0.06102593 -0.03770162 0.049392357 -0.029252432 0.087088645 0.066392615 -0.0073564267 0.07904826 -0.0019917479 0.029856402 -0.044503648 0.0290078 -0.026278622 -0.002670248 0.058991753 0.09669485 0.0025520092 0.055749286 -0.047525577 0.049684957 0.04550311 -0.014817063 -0.052495003 -0.09267034 -0.072541244 -0.060665898 0.0751343 0.07051703
296 -0.09604659 0.091113076 0.08064227 0.042119443 -0.10277049 0.07384698 -0.0052963924 -0.013269827 -0.012733681 0.02092931 -0.09413302 0.020714965 -0.03714099 -0.037596546 0.013350681 -0.09928603 0.07841365 0.011694961 -0.05072408 -0.101184845 0.05980119 0.039769523 0.051041726 -0.07195958 0.03921745 0.09922952 -0.071139775 0.061850473 -0.0343197 -0.047333065 0.06070265 0.10211633 -0.061479185 0.04866863 -0.03624912 -0.08567206 -0.022929152 0.06952004 0.07538895 0.03212651 -0.0014892174 0.08715329 -0.030037351 0.058878988 -0.096748 -0.052181743 -0.08438462 0.06445464 -0.034325823 0.0023179678 0.014419508 -0.068466626 -0.00030106213 0.024705555 0.0028965129 -0.011011734 -0.0093591865 0.059025675 -0.008054475 -0.08900547 0.09279266 -0.014404583 0.08197221 -0.030183505 0.07150147 0.01709392 0.00031689927 0.078043446 -0.08494999 -0.09689603 -0.05023521 0.08535618 0.09140821 0.10576914 -0.053947203 -0.06835132 0.018479897 -0.04389657 -0.014293342 0.0037933532 -0.04437591 7.080566e-05 0.0081682345 0.10291402 0.03394399 0.0005149413 -0.008340804 0.05074609 -0.025814846 -0.0067919875 0.015104267 -0.029242987 0.015972361 -0.018432088 0.07259154 0.01464487 -0.01004906 0.04569552 0.05108615 -0.04974814 -0.008188163 -0.03592373 0.054307904 -0.028922345 0.06743297 0.086784385 0.10482447 0.070912264 0.040566813 0.05142232 -0.05024182 -0.03932093 -0.0027576303 0.09989082 -0.10162402 -0.01174527 -0.068255745 0.07148941 -0.046166897 0.043604944 0.014013589 -0.046166815 -0.058119558 -0.06670242 -0.094755396 -0.07373148 0.09886581 0.092499234
297 -0.0760719 0.05641196 0.057652265 0.06324876 -0.09263546 0.06654547 -0.10353966 0.10449668 0.06377452 0.04810258 0.0039829873 0.01542991 0.023901567 -0.029117104 0.030654801 -0.09962666 -0.028309412 -0.022473687 -0.07146412 -0.055599827 0.043439887 -0.01072196 0.08830837 -0.01657558 0.100889236 0.0824721 -0.051950574 0.08870514 -0.08911853 -0.09059511 0.028929086 0.03974055 -0.045471378 -0.012384555 -0.038741067 -0.03077159 0.01630381 0.057117436 0.063879065 0.06668308 -0.02801884 0.08819099 -0.009981734 0.08716586 -0.06959999 -0.009946385 -0.07885906 0.09696862 -0.057695 0.103900276 0.028969493 -0.06786059 -0.008692174 -0.026004236 0.087553374 -0.053465396 0.06616217 0.06471206 -0.053959556 -0.0029445058 0.07464393 -0.050664607 0.044272978 -0.0013961988 0.031169172 0.10228299 0.070393905 0.060724 -0.05625345 -0.094169766 0.013096343 0.03912642 0.06512249 -0.011025425 -0.08900849 0.02318808 -0.017054636 -0.061320383 -0.019276813 0.09016976 -0.065988705 -0.023493346 -0.025754135 -0.009251689 -0.008911744 0.05179352 0.0043458873 0.020990886 -0.08677569 0.003382421 -0.01614917 -0.00021074433 -0.014081378 -0.088116795 0.029375814 -0.022528747 -0.013931413 0.043348894 0.0004918901 -0.021510178 0.037301898 -0.06015884 0.04256857 0.09827522 0.0658791 0.079311274 0.049413476 0.09145367 0.101898454 0.09987366 -0.0822193 -0.051706154 0.038732715 -0.002815267 0.071728356 0.089901306 -0.04437272 -0.015718734 -0.011765959 0.038526136 0.036856644 -0.0082957875 -0.043107383 0.00956701 -0.041486755 -0.032783065 0.049144343 0.021631852
294 0.0024581263 0.03754939 0.03759122 0.09011814 -0.06982455 0.019380335 -0.078031175 0.037158195 0.009794459 -0.008548528 -0.05063945 0.06805007 0.04568064 -0.009396674 -0.0031852117 -0.064961806 0.05600933 0.018501505 0.015249732 0.008280637 -0.016163386 -0.013811748 0.07899055 -0.0059655206 -0.0014598295 0.08752206 -0.015465968 0.038945995 -0.10174445 -0.042317934 -0.0022530109 -0.014027577 -0.016720802 -0.010802693 -0.004235561 -0.06631869 -0.06306204 0.09317559 0.07242671 0.020488467 0.037778076 0.069266975 -0.037607722 0.0037659416 -0.027957372 -0.019572314 -0.04376711 0.06905773 -0.038826108 0.09104405 0.023603141 -0.027270898 0.037541427 0.09677998 0.10339646 -0.095649846 0.073726155 0.03663132 0.031728312 -0.081491105 0.07433436 0.008917238 -0.013734459 -0.0137811825 0.013761582 0.10376597 0.057314552 0.098353565 -0.10117228 0.051747974 0.024941694 0.0023008855 0.04088838 0.09578754 -0.07501277 -0.02010044 0.014804994 0.009302747 -0.009727848 0.09436114 -0.10082902 -0.031515285 -0.017842034 -0.005549754 0.0098033 0.038934246 0.010687551 0.019198239 -0.017829694 -0.07912489 -0.039755166 -0.024941225 0.10265702 -0.004835789 0.022729814 -0.08352651 0.01965762 0.090138234 0.104487576 -0.030943759 0.0072411383 -0.005738605 0.020240841 0.047223072 0.019732662 0.0041143 0.061308745 0.10326691 0.06572165 0.0062296083 -0.09784295 -0.01695512 0.10142573 0.07294412 0.0085660685 -0.011114872 -0.09973629 0.072930306 -0.101667985 0.013156233 0.08322711 -0.039804067 -0.03545866 -0.03218236 -0.020766784 -0.057823364 0.07060905 0.015918665
295 -0.08507687 0.044064373 0.0063977595 -0.0024167802 -0.09736173 0.029170865 -0.07434711 0.040491674 0.076868825 0.09868845 -0.0017052386 0.0640902 0.034243435 0.008707522 0.08762556 -0.08824563 0.009638256 0.0074072843 -0.05967042 -0.00485571 0.0019167336 0.040096965 -0.015358003 -0.09002752 0.055765092 0.016424805 -0.0089302575 0.057642676 -0.015366201 0.011390163 0.00044183526 -0.0027678935 0.010509325 0.08132764 0.0063197426 0.0068394355 0.019250523 0.080544785 0.0064384565 0.076650225 0.0080252495 0.034472555 -0.058410067 0.050959963 -0.07382551 -0.090305924 -0.08988287 0.045828074 -0.06466112 -0.014438061 0.100233935 -0.015166812 0.08744563 0.0797842 0.06626375 -0.002213139 -0.039076928 0.029758677 -0.026926968 -0.055466752 0.09816967 -0.08866659 0.0627497 0.0142114945 0.030900564 -0.015868947 0.0659555 0.07514408 -0.06312108 -0.072626315 -0.09489852 0.033743255 0.08763185 -0.014597077 -0.035330594 -0.037526608 0.09238751 0.031613037 -0.06506947 -0.0065285526 -0.07234281 -0.09852225 -0.023991592 0.037729856 -0.00054366887 0.07859371 0.009496934 0.012758736 0.015108429 -0.10274588 -0.03816814 -0.009451042 0.031821556 -0.01523288 0.018847968 -0.06284436 -0.08541084 0.07017501 -0.013664664 0.008748395 -0.06574249 -0.059814848 0.025014091 0.08561597 0.0008702958 0.094437994 0.004175524 0.013304778 0.06505659 -0.011672782 -0.08325842 -0.062473804 0.080575615 0.0733217 -0.09717358 0.003147617 -0.045065437 0.10486123 0.01562358 0.0063002994 0.08670583 -0.0049392823 0.0016656043 -0.052686557 -0.0647611 -0.013683351 -0.0064438647 0.0479463
292 0.033469692 0.031605527 0.07162472 0.08961426 -0.004997216 0.07273193 0.035493094 -0.00080623385 0.012011584 -0.0038664686 -0.007762839 0.042120326 0.08926775 -0.0021039154 0.009545833 -0.09317274 0.045861505 0.0036895163 -0.07259348 -0.006344299 0.07725781 0.034319013 0.06089336 -0.04505933 -0.009255087 0.09965166 -0.042169962 0.08154264 -0.0615942 -0.07146454 0.0050499905 0.06866573 0.009245575 0.09665598 -0.093483925 0.0037927954 0.029989168 0.041233078 0.099851385 0.097408295 -0.02988381 0.0007956419 -0.0021742536 -0.037722703 -0.017965544 -0.0060797837 -0.021167573 0.05462495 -0.08837058 0.023612313 0.10382625 -0.094143555 -0.008028676 0.024136174 0.08637805 -0.080826215 0.08120787 0.015625898 -0.0067223916 -0.07643842 0.074154206 0.001480788 0.0946535 -0.030322783 0.08594088 0.052674532 0.10178195 0.077775694 -0.06140183 -0.06905251 0.025028545 0.03597537 0.03212628 0.08858238 -0.05864863 0.025548384 0.067714624 -0.02280611 0.0026513804 0.03924688 -0.031549383 -0.08428972 -0.085475236 0.06096358 -0.0699825 0.062636845 0.07260576 0.012052051 -0.0885965 0.0068262285 -0.004810877 -0.07068957 0.016864782 -0.03171696 0.08506456 -0.016201105 -0.061923068 -0.0077551287 -0.012742429 -0.054824695 -0.017597504 -0.0818576 0.043224577 -0.007663739 0.031895008 -0.038266473 0.044374913 0.0027426975 0.013671785 0.029138107 -0.026635792 -0.019935425 0.046826944 -0.026646588 -0.06097456 0.028194845 -0.026349816 0.01557917 -0.061832238 0.0122545855 0.075483456 -0.020467242 -0.09753318 -0.073211335 0.01281944 -0.10521156 0.009165661 -0.013074417
293 -0.043475844 0.057369806 -0.026455715 0.100846015 -0.060707897 0.03700356 0.0070395004 -0.0007951064 0.09312999 0.08417087 -0.077629514 0.024632707 0.08680946 -0.064942636 0.04748334 0.0031281514 0.07787277 0.100061975 -0.056409188 -0.042579405 0.010437405 0.07510099 0.07764025 -0.085337035 0.08331705 0.004452016 -0.1014191 0.07728207 -0.09012579 -0.08710254 0.041007224 0.022925742 -0.08554675 0.100774474 -0.091939524 -0.072341405 -0.07845904 0.017905233 0.088353485 0.010483425 0.03633042 0.007789896 -0.043861277 0.06224131 -0.09707286 -0.060099915 -0.0612799 0.056191236 -0.011961634 0.00750784 -0.00046435744 0.0059742015 -0.01103856 0.039767876 0.018090151 0.00095719006 0.09135762 0.07517264 -0.016786324 -0.0033173067 0.040604647 -0.075189635 0.06211481 0.010635027 0.0836858 0.09273359 0.0725039 0.012577364 -0.021253707 0.07881899 -0.04758007 0.0226041 -0.0071567334 0.06254064 -0.01155867 0.0010349462 0.052630953 -0.037655234 -0.03627525 0.07363403 -0.035715114 -0.09709566 -0.09351146 0.023740955 -0.02059798 0.10339911 -0.010163651 0.03433666 0.0031302925 0.0132208755 -0.028474059 -0.02671691 0.083024316 -0.052047286 0.07452758 -0.07110425 -0.013083014 0.071042605 0.001588461 -0.02387599 -0.090799704 0.012432142 0.0869468 0.039583452 0.068335354 0.054197133 0.103650786 0.029236734 0.078693405 0.022232112 0.0010714438 -0.043927245 -0.011049539 -0.004870572 -0.07863162 -0.005983101 -0.0019183606 0.05785761 -0.006173998 0.04114771 0.04310076 -0.039591394 -0.020852666 -0.002484112 -0.0106066195 0.014298729 0.059596192 0.097913444
290 -0.0004582256 0.094739996 0.05061828 0.04162935 0.009287525 0.0027497243 -0.0011037588 0.02260074 0.045752764 0.093047015 -0.096262455 0.008896667 0.07934223 -0.037422396 -0.0067962455 -0.0068236683 0.002681667 0.0317155 -0.009462094 -0.04962785 0.011671833 0.08762689 0.063993774 -0.021227062 0.102844976 0.0722238 -0.035397157 0.0027190829 -0.011479902 -0.04202318 0.07854374 0.0692812 -0.09850899 0.08350927 -0.032999072 0.011062011 -0.09282167 0.015039977 0.053030778 0.021348828 -0.045785975 0.05872298 -0.06524534 0.098610796 -0.06167708 -0.10210885 -0.07909441 0.047703676 -0.025759421 0.08177587 0.037878208 0.012223445 0.1001968 0.02348824 0.0197109 -0.011587065 -0.0154962 0.076187015 -0.035752073 -0.008587183 0.0575502 -0.042398635 0.060720813 -0.09621559 0.029081903 -0.02357399 0.048267566 0.022849966 -0.011307901 0.0704645 -0.07724524 0.005796627 0.04369703 0.09792379 -0.076888144 -0.06641217 0.05694655 0.0133602545 -0.026760839 -0.006332727 -0.013278419 -0.054869827 -0.091861665 0.09143439 -0.03354492 0.08787665 0.042620637 0.101957574 -0.049753208 -0.054615013 -0.07880576 -0.102489956 -0.01498385 -0.014789621 0.09274026 -0.07511884 -0.0226181 0.08109704 0.021015085 0.0070296954 -0.04943609 -0.053354282 0.08776512 0.085090466 0.021771833 0.04894672 0.067814015 0.07473211 -0.028561704 0.08232988 -0.0056124143 -0.06639193 0.08816742 -0.036420565 0.01087592 0.09864226 -0.063558005 0.020549059 -0.09524283 0.022434294 0.056652907 -0.047878932 -0.048481904 -0.10437503 -0.105037555 -0.08759287 0.09358441 0.051619086
291 -0.08600207 0.056913733 0.081459954 0.10263803 -0.021939775 0.048167825 -0.041825015 0.015503932 0.039101213 0.030171866 -0.00766614 0.061523937 -0.020245332 -0.078488566 0.093245625 0.007927779 0.05502682 0.05969195 -0.013901086 -0.011010514 0.05715143 0.03819779 0.034791004 -0.0034022266 0.064900145 0.06257839 0.007983221 0.0023357878 -0.048257973 -0.039532725 -0.011186574 0.015832767 -0.05394196 0.012725984 -0.08650252 0.004964322 -0.03387312 0.090770274 0.026492652 0.035759583 -0.034572534 0.010172917 -0.036138058 -0.03311719 -0.043615915 -0.03431119 -0.10435542 0.008997719 -0.05378591 -0.00968967 0.017589625 -0.05591772 0.018851964 0.042283 -0.0038830955 -0.030480605 0.045557946 0.021478835 -0.051667854 0.005166495 0.03482721 -0.01658078 0.01662267 -0.10255228 0.012390773 0.0296647 -0.0034235902 0.0036589364 0.0024320148 0.044947434 -0.026948659 0.07517311 0.052878704 0.09105338 -0.040552825 0.034027442 0.0434341 -0.0144652 -0.060927577 -0.010576692 -0.103482395 -0.07138761 -0.020066729 0.090053536 0.019691952 0.027780958 0.10301202 0.008933416 -0.010075347 -0.009554143 -0.07142053 -0.013666467 0.06451764 -0.050868943 0.046089537 -0.069098584 -0.0722383 0.026750244 0.06961785 -0.073851794 0.0144637255 -0.103479244 -0.024332888 0.09456009 0.06557023 0.08671594 0.062386718 0.062154397 0.05590066 0.055184744 -0.095954865 -0.09210995 0.08070094 0.06538135 0.059507843 -0.0057056295 -0.010111703 0.06247238 0.020001192 0.022632863 0.07928357 -0.013071422 -0.07013211 -0.102949135 -0.08126688 -0.08302746 0.02054283 0.047616772
270 -0.07669918 0.04714723 0.09558977 0.084786505 -0.01147484 0.037510235 0.005429768 0.061959013 0.078802586 -0.012130395 -0.07194584 0.027346598 -0.005615549 -0.082918435 0.03158887 -0.005008149 0.046021428 0.10331323 -0.004766127 -0.023803003 0.062027365 0.087393135 0.02997946 0.01454078 0.01983095 0.0860741 -0.055336975 0.060150083 -0.06449468 -0.08331639 0.01087231 0.012084692 0.0010238215 0.054021165 -0.00924156 -0.06920841 0.012362695 0.084890634 0.008929159 0.08245631 -0.046552192 0.04514814 -0.09279804 0.04373932 0.0025236458 -0.0086782705 -0.082074255 0.062337235 -0.105269715 0.061268725 -0.01478711 -0.054411873 -0.00044065807 0.07700458 0.049878225 -0.08382618 0.08297374 0.08663255 -0.052962497 -0.08314353 0.007872244 -0.043842427 0.08308064 -0.052038625 0.05736185 -0.013418278 0.047254294 0.013626616 -0.0133372145 0.023953024 -0.013023311 0.013637299 0.012627525 -0.009045926 -0.0809046 0.038358133 0.059688803 -0.05991733 0.004151117 0.103691235 -0.09644421 -0.0649477 -0.07334703 0.00050454773 0.03235683 0.021771818 0.0007090112 0.07852138 -0.010481779 -0.01501124 -0.030815128 -0.040807165 0.08862406 0.013027165 0.10274216 -0.08403352 -0.022030823 -0.029421369 0.061205942 0.010639045 -0.0045309374 -0.019970885 0.025302367 0.060253967 0.10367163 0.01489816 0.0316448 0.06863016 0.04499545 0.050945386 -0.085755326 -0.101613596 0.07510765 -0.010502735 -0.09415453 0.09386496 -0.081086874 0.046967495 -0.035629533 0.10371392 -0.013634198 -0.041127715 -0.07337625 0.01122968 -0.021162678 -0.00090391934 0.04195083 0.07264687
271 -0.0400221 0.09302242 0.09493714 0.07204613 -0.06886653 -0.005430945 0.008266115 0.0032254374 -0.0025723027 0.063923456 -0.047658402 -0.015344247 0.05731161 -0.037749156 0.052364204 0.0154268555 0.040176563 0.073314875 -0.016476244 0.007162165 0.10338916 0.05086565 0.013235284 -0.0017286092 0.04710281 0.057715565 -0.05898697 0.0116309095 -0.10190046 -0.03114082 -0.00340435 0.020343306 -0.06316842 0.096262775 -0.05888106 -0.011308644 -0.03505643 0.033590496 -0.0039775018 -0.026165858 0.02697555 0.012846917 0.0024338318 -0.04334308 0.012415212 0.0052375942 -0.09175561 0.0007230118 -0.04933209 0.09685854 0.061923694 -0.033981636 0.02186285 0.008958335 0.044749793 -0.10096566 0.00804569 0.030998413 -0.032768898 -0.043097895 0.053799514 -0.027647316 -0.014937272 -0.046344217 0.019395784 0.06498062 -0.0004942501 0.07946436 -0.010467555 -0.05782977 0.026288552 0.036043324 0.096296 0.031840257 -0.09690882 0.00016462896 0.07742066 -0.0037350738 -0.027626242 0.065287724 -0.065970205 -0.090046376 0.0046218233 0.06663042 -0.10205028 0.053213734 0.07868152 -0.0031673638 -0.08659747 -0.012298205 -0.029768389 -0.022188436 0.082621105 -0.008711963 0.08794512 -0.06555073 -0.042157043 0.028721925 -0.011310326 -0.01952681 -0.036926236 -0.026359048 0.041627876 0.016923737 0.030290507 0.0934522 0.06374818 0.04578415 0.0708016 0.09146145 -0.027205342 -0.044320524 0.08568866 0.010435224 -0.0494816 0.015907139 -0.03612464 -0.009516906 -0.071857244 -0.00955028 0.08762323 -0.051042344 -0.033864502 -0.10155334 -0.08856468 -0.06506964 0.069115564 0.07450588
272 -0.044323824 -0.0012632506 -0.032627616 0.028015632 -0.09088025 0.041994877 -0.03472038 -0.015399262 0.03936327 0.010652135 -0.097776145 -0.006502866 0.0760872 -0.09886763 0.032384448 -0.09988989 0.020000298 -0.031177541 -0.041641347 -0.01515707 0.018050568 0.05869919 0.02634005 -0.041853115 0.06451978 0.10330603 -0.07031201 0.052223846 -0.034537718 -0.04055076 0.024135992 0.044348232 -0.064249076 0.053174756 -0.043463483 -0.026196193 -0.059604067 0.042749442 0.091458865 -0.0014505899 -0.094261274 0.03480956 -0.062798224 0.0017152997 0.0018349057 -0.079950996 0.036650926 0.06690356 -0.072443046 0.019159231 0.09289523 -0.097930275 0.07211678 0.07921429 0.0059981095 -0.01941479 0.057839252 0.050994195 -0.03186853 -0.025293162 0.030461226 -0.051725544 0.07290912 -0.059584275 0.08369815 0.052959908 0.07471317 0.04327552 0.013120867 0.011873171 -0.044379886 0.085662045 0.093497954 0.09023631 -0.05238058 -0.03649723 0.086361304 -0.09527362 -0.0902585 0.056821473 -0.064167015 -0.029747184 -0.104234174 0.011572641 -0.053810474 0.04898859 0.10431956 0.02454962 -0.037069798 -0.036993302 -0.048194032 -0.017689154 0.08686329 -0.06640824 0.0032974174 -0.10161595 -0.030251538 -0.013492783 0.0034373915 -0.06072208 -0.028630976 -0.074619316 0.027134566 -0.011119816 0.058763944 0.09373956 0.032224834 0.08924124 0.029153781 0.10209322 -0.03259332 -0.08551842 0.07800385 -0.027671188 -0.06975344 0.051455606 -0.034881536 0.044484247 0.024820028 0.045775235 0.07099514 0.007616761 -0.038805168 -0.052791607 -0.096247606 -0.0692115 0.03719556 0.054684356
273 -0.043829244 0.014946108 0.006192807 -0.015874758 -0.10225803 0.055648386 -0.10007173 0.04642252 0.04691975 -0.00880761 -0.04446114 0.099412575 -0.028704092 -0.033561565 0.07347133 -0.055178735 -0.03514533 0.068868056 -0.02033512 -0.07356812 0.056171212 -0.0013226764 -0.02148107 -0.0019721668 -0.014104572 0.048011474 -0.031466432 0.08188781 -0.06890531 0.010956435 -0.00996514 0.083208404 -0.045148887 0.082082435 -0.04512043 -0.0070349723 -0.016253596 0.0057069818 -0.0070940964 0.03188804 0.044097867 0.011350335 0.008838829 -0.01974165 -0.076017365 -0.032027677 -0.097055346 0.03357363 0.03681054 0.06936706 0.033858716 0.007055402 0.047574475 -0.007703671 0.03354387 0.007139437 0.056626163 0.028544223 -0.03109399 -0.097281754 0.045895196 -0.105672486 -0.012678861 -0.10208533 0.013395316 0.027987594 0.10022859 0.07918316 -0.018820953 0.020121414 0.014446283 0.062109336 0.03701435 0.088488534 0.010027958 0.011574137 0.071642615 -0.041389428 -0.03049863 0.041021854 -0.09477678 -0.059476107 -0.047177423 0.012491869 -0.09253295 0.0802026 0.01206111 0.023445245 0.008854011 -0.06232839 -0.023371458 -0.07748174 0.0576476 -0.067118466 0.06958323 -0.061472286 -0.08291466 0.098208755 0.0015559169 0.009012794 -0.00085870083 0.009059832 0.07888184 0.0045135655 0.055036053 0.09499463 -0.004727084 0.033264883 0.04945066 0.041111436 -0.03716644 0.008155019 -0.03591587 0.019290738 -0.002186305 0.015514852 -0.034760803 0.0049089985 0.0052797664 0.0062250216 0.02376115 0.008866028 0.014172704 -0.02231263 -0.065674655 -0.07927283 0.020498615 0.05680452
274 -0.054818958 -0.015818888 -0.015433816 0.07168055 0.031173296 0.07598322 0.012071084 0.0072676092 0.08750919 -0.010447934 -0.01635114 0.041629776 0.09289647 -0.04427799 0.0028925156 -0.088308066 -0.030375578 -0.008400097 -0.067085825 0.0020719022 0.061896987 0.003949167 0.0040434413 -0.00092204846 0.083062276 0.0019945474 -0.027290791 -0.006005115 -0.010093047 -0.027029745 0.06807596 0.06471118 -0.024512578 0.06539747 -0.063388385 -0.05837404 -0.08130542 0.040839255 0.09874131 0.088792354 -0.045978427 0.011363898 -0.05332369 0.058673803 -0.081856005 -0.031860612 -0.015536264 -0.009149958 -0.0038398374 0.03452732 0.018017896 -0.105055474 0.03266991 0.08525696 0.032407966 -0.06991555 0.047143076 0.057683356 -0.04856018 -0.09523106 0.017287083 0.012215885 0.07738441 -0.10511802 0.08865698 -0.005827848 0.07248118 0.07904033 -0.058921505 -0.1022773 0.011212214 0.020237379 0.044671208 -0.008411525 -0.036988508 0.03575692 0.044928145 0.022041133 -0.045569442 0.09544772 -0.016157487 -0.006405143 -0.04622947 0.0070962794 0.014551953 0.06581546 0.02328534 0.009573531 -0.05762422 -0.049200118 -0.01815791 -0.024638105 0.022013329 -0.058227614 0.08890054 -0.025565555 -0.03825903 0.0010540374 0.03722444 -0.015354891 -0.08428577 0.0024945745 0.015878286 0.07769263 -0.013735773 0.09389221 0.0001126891 0.010073655 -0.02775988 -0.0061225006 0.0011653239 -0.099799976 0.09712444 -0.026056562 -1.1911616e-06 0.064785786 -0.0060251867 0.00274402 -0.0043718405 0.07328381 0.055443577 -0.023358312 -0.101038665 -0.008445807 -0.014367735 -0.06021136 0.096325755 0.012609275
275 -0.010256262 0.030657906 -0.019626439 0.008296596 -0.0055238195 0.088204704 -0.048495248 0.040122524 0.09719193 -0.00094583165 -0.04143442 0.08706379 -0.023090318 0.007205803 0.08769037 -0.09181821 0.02433367 0.014360967 -0.09315198 -0.019784404 -0.013503917 -0.01430637 0.0005097268 -0.017763032 0.06686391 0.06527352 -0.07896001 -0.036469594 -0.09434512 -0.08730722 0.09502494 0.010258967 0.013778889 0.08842987 -0.010196297 -0.013764948 0.02987422 0.10007278 0.043459293 0.04072981 -0.09233782 0.05439176 -0.051387724 0.10156979 -0.020061215 -0.023357753 -0.005759334 -0.0014389157 -0.028168071 0.08409793 0.07561263 -0.10278381 0.032655567 0.0044729887 0.09061968 -0.0031489842 0.057787817 0.014728117 0.003998139 -0.10346518 0.06787419 -0.013295153 0.079944625 -0.09244218 -0.00246624 0.09429644 0.09536952 0.036311843 -0.05253329 -0.085322656 -0.08610479 0.07310096 0.090871885 0.10383866 -0.022144288 0.011616101 -0.029844262 -0.09160902 -0.06584686 0.07814222 -0.006427982 -0.018516146 -0.041812096 0.07242457 0.03345377 0.06684786 0.08998065 0.043688927 -0.09060011 -0.0066581583 -0.082836345 -0.041434642 0.09629559 -0.083399415 0.06834337 -0.07004916 -0.068462566 -0.02736484 -0.011734847 -0.002223758 -0.0821327 -0.08488004 0.010375364 0.0314714 0.09615101 0.10345471 0.096533865 0.013350602 -0.03044548 0.060295545 -0.07428421 -0.07109737 0.06379945 0.020879071 0.068258405 0.011883093 -0.029969163 0.051423322 -0.013180568 0.023803297 0.011147197 0.012074412 -0.104031324 -0.059201702 -0.017675791 -0.08472203 0.041537136 0.04075271
276 -0.043250397 0.042188663 0.048093878 0.041361783 0.022297014 -0.015296596 -0.07729679 0.09568291 0.02424791 0.055220075 -0.101733685 0.054939758 0.033538017 0.0046745203 0.044049267 -0.032564826 0.04618379 0.031189136 -0.097157836 0.030547872 0.05390481 0.04825462 0.010384357 -0.052909996 -0.005646455 -0.008194071 -0.10309556 0.027823692 -0.005799353 -0.025750315 0.064714015 0.008577778 -0.03433635 0.008453859 -0.02009318 -0.04826779 -0.041045107 0.06846154 0.064011805 0.034927897 -0.10006503 0.08576091 -0.09795725 0.036899317 -0.034031007 -0.00965566 -0.010952432 0.065916896 -0.083858795 0.067350276 0.07947743 -0.0569029 0.09974637 0.035324372 0.01904792 -0.002924502 0.0106601715 0.100802064 -0.09043782 -0.06448382 -0.0062092133 0.0018966971 0.087721914 -0.10382142 0.06477996 0.05532574 0.089736156 0.08774013 -0.10497261 -0.08362198 -0.027553946 -0.005723642 0.09766229 -0.015448806 -0.06761078 -0.08578661 0.051409516 0.034015927 -0.07059818 0.10145978 -0.040828776 -0.015318315 -0.013734984 0.02580817 -0.0034221513 0.016195279 -0.0077455863 0.010133083 -0.0067368867 -0.0952564 -0.028855221 -0.061592154 0.06494689 -0.03075603 -0.008974092 -0.10138512 -0.0032155085 -0.019640487 0.007988807 -0.10340376 0.036816243 -0.04408021 -0.004316611 0.04205077 0.03587095 -0.013936644 -0.006354385 0.07277911 0.046904795 0.08934579 -0.049133267 -0.08380381 0.05107062 0.09207298 0.0011862824 0.0046500526 0.006496896 0.040120892 0.03651891 -0.00996421 0.040942658 -0.043751903 -0.045701206 -0.091889545 -0.019512938 -0.038730126 0.03655972 0.03900541
277 -0.053586323 0.02302777 0.017167881 0.10092363 -0.04983526 0.03310731 -0.031224437 -0.010696874 0.08244036 0.056477074 -0.0022450034 0.09135902 0.05847314 -0.020159002 0.076594874 0.013629562 -0.026394643 0.103348024 -0.091446094 -0.03049767 0.10272279 0.028957842 0.090898715 -0.06074769 0.045484606 -0.011518035 0.0071099233 0.08896863 -0.050645724 -0.099524915 0.091138646 0.058885828 -0.09856954 0.044267766 -0.038715843 -0.06645415 -0.019126132 -0.00015717 -0.0016536135 0.045446716 -0.049183913 0.09139394 -0.08649383 0.045180794 -0.024473002 -0.09180725 -0.083446726 0.041570038 -0.091058284 0.04967813 -0.002107771 0.0148880575 -0.006520479 0.07923443 0.027934097 -0.08320375 0.046643607 -0.008223266 -0.060345285 -0.075093806 0.0595725 -0.0125306295 0.07171489 -0.028620582 0.0928949 0.06391453 0.029324941 -0.0047112107 -0.04610137 0.011357893 -0.10067949 0.029547568 0.043398116 0.052267395 -0.076696634 0.02460229 0.0022995044 0.024301404 -0.08336507 0.040128827 -0.09245246 -0.06935318 -0.00759241 -0.004006341 0.025985211 0.016280282 0.024190899 0.031731676 -0.06207062 -0.062172964 -0.041981928 0.009198157 0.026128616 -0.10019493 0.0064408043 -0.0069316085 -0.09768808 0.09702337 0.03754312 -0.10330893 -0.07111354 0.014055697 -0.016366774 0.06620897 0.048672557 0.09272066 0.016296228 -0.008946671 0.014205432 0.07595456 -0.09987326 -0.019847035 0.070022166 0.09531194 0.006096881 0.0045902506 -0.076689236 0.052611098 0.018878657 0.010160159 0.05153176 -0.10060326 -0.07138156 -0.030870138 -0.069380604 -0.006676982 -0.013100234 0.057239078
278 -0.023631081 0.032178827 0.027800972 0.012665276 0.009289451 0.01325934 0.006553826 0.04114093 0.06870118 0.07424069 -0.022845551 0.092914104 0.09661627 -0.09776892 0.018940253 -0.099934876 0.02271808 0.103962645 -0.079469144 -0.028948296 0.002061136 0.02977883 0.056921802 -0.096073754 0.070254035 0.07151132 0.026408408 0.093547665 -0.020168513 -0.051197972 0.090938054 0.0893812 -0.02716105 0.007054664 -0.060376648 0.0139935445 0.00064857677 0.026838284 0.093389444 0.07697805 0.0073307278 -0.00964873 0.0045745503 -0.0004902594 -0.08731165 -0.05338774 -0.016821977 0.066912875 -0.061979793 0.09506472 0.08824618 -0.053203907 0.038689286 0.035511516 0.014020637 -0.039552853 0.050854795 0.049928315 -0.07009314 -0.05522114 0.041175704 -0.07083514 0.00029950868 -0.004364432 0.051798377 0.08860807 0.06274378 -0.03190023 0.0013163127 0.034574848 -0.03575585 0.024456374 0.05546135 0.09361193 -0.032026824 -0.03465938 0.019485015 -0.039735638 -0.09215169 0.06054329 -0.08522755 -0.09754543 -0.086680636 -0.011539677 -0.07129627 0.031926766 0.007916334 0.04419929 0.015441246 -0.08205869 -0.090241455 -0.048038285 0.009440362 -0.08690819 0.095205426 -0.01268083 0.002743694 0.020533727 0.08264318 -0.060525566 -0.03989014 -0.047176126 0.011834348 -0.008897711 -0.011411327 -0.036722794 0.06604486 0.0071561635 0.048835658 0.09244211 0.008965127 -0.055358157 0.07498975 0.082681336 0.018967256 0.037367504 -0.07006838 0.08051185 -0.10346628 0.09184323 0.09111246 -0.02112018 -0.098593526 -0.100738786 -0.0701757 0.0019866768 0.04758496 0.07467064
279 0.0036637792 0.051240586 0.01507885 0.090027496 -0.0456471 0.0843831 0.033271857 0.103556074 0.07353142 0.062348317 -0.039603785 0.081439316 0.01765864 -0.067804106 0.0031156912 -0.054214854 0.10122984 0.04291095 -0.09100214 0.039017707 0.09638499 0.061805278 0.09138197 -0.052130952 -0.011484746 0.0956409 0.01937228 0.05739329 -0.07698798 -0.1006803 0.096036285 -0.0069821486 -0.0035279207 0.10079212 -0.0068401676 -0.0041340524 0.0065229684 0.021315027 0.034156416 0.021446276 -0.058398753 0.047121286 -0.03272153 0.041134648 0.010992062 -0.068884894 -0.0026441896 0.08059862 -0.06387335 0.026433729 0.039593853 -0.0680955 0.029662568 -0.010891897 0.024572738 -0.016685013 -0.0061090356 0.06299813 -0.053611964 0.005226165 0.035341866 -0.015509974 -0.013388694 -0.0034179343 0.101831436 0.00056656916 0.083465464 0.06434589 -0.091770984 -0.09365238 -0.0028713606 0.042143162 0.055093326 -0.0043365955 -0.08584 -0.08183395 -0.035735656 -0.098796934 -0.011092476 0.049958892 -0.008468395 -0.041306816 -0.10018539 0.07669124 -0.07708508 0.00016000774 -0.035181742 0.0132060945 -0.066840775 -0.08192134 0.00995599 0.00091192126 0.08702403 -0.03267931 0.04608997 -0.02639348 -0.0716014 0.012054492 -0.00901905 0.0029794648 -0.09571708 -0.081836455 0.09895049 0.03756703 0.03866614 0.03919995 0.032856934 -0.0017453805 -0.011557247 0.098154955 -0.079069495 -0.041749768 0.10179015 0.059701595 -0.053684454 0.031424 -0.08130941 0.0017631045 -0.016486075 -0.0041051246 0.07658841 -0.054052614 -0.04506172 -0.08626883 -0.04896698 -0.008510006 0.02855963 0.014752811
108 -0.09167282 0.10537722 0.02917279 0.022386767 -0.077921785 0.049077597 -0.09537907 0.09375392 0.057101518 0.057309028 -0.075248465 0.017778937 -0.022824805 0.0029517524 0.099079445 -0.055903547 -0.015106865 0.042400755 -0.019729506 -0.05596315 -0.0017491421 0.06986456 0.071910515 0.006464908 0.07285753 0.048115663 0.004354937 -0.00019872561 -0.036652766 -0.00689984 0.032476142 -0.0030919611 -0.046040744 0.04600396 -0.033920944 -0.04583492 -0.06283134 0.059925076 -0.0042847907 0.020191334 -0.093871705 0.024962194 -0.06794986 0.024895165 -0.09822932 -0.0516434 -0.043209407 0.028560694 -0.100564174 0.018857807 0.052472994 -0.06544925 0.070041224 0.060262572 0.010326343 -0.022083573 0.042826623 0.09479767 -0.025951501 0.007228121 -0.013569412 -0.08189449 0.07319795 -0.058071993 0.06881605 0.079781264 0.06248627 0.072933145 -0.017525485 0.00043391902 -0.08140955 0.06782067 0.039907243 0.04161506 -0.07630683 -0.07128355 0.07080606 -0.0323353 -0.08561239 0.099567875 -0.017781507 0.010154354 0.009442445 0.09798593 -0.09839078 -0.012683974 0.014685345 0.08925378 -0.05259926 -0.0039397134 -0.057102874 0.005808587 0.034218375 0.0042148223 0.04913083 -0.07992445 -0.030403398 0.021378722 0.09395155 -0.040038135 0.019706491 -0.014052341 -0.014416178 0.012358332 0.085017964 -0.035358686 -0.0090866685 0.10079543 0.104117215 0.089874856 -0.09780104 0.019592151 0.040652744 0.06070418 0.0070224283 0.073676884 -0.04823567 0.030309197 0.01661802 0.06722987 0.06848026 -0.045811187 -0.050162878 0.006686249 -0.092414714 0.014216878 0.030604038 0.08457297
109 -0.04310702 0.08567571 0.05704483 0.03911218 -0.04339165 0.06652013 -0.026686978 0.099835396 0.018556282 0.06256482 -0.08341666 0.032690797 0.018641572 -0.07469872 0.011030202 0.008879786 -0.029603284 0.06695889 -0.021416526 -0.06342458 0.010993046 0.04919967 0.0773824 -0.06409718 0.0812397 0.017854955 0.0113328025 -0.019395221 -0.036482245 -0.075263344 -0.0029777344 0.024669787 -0.07362189 0.031675294 -0.020064544 -0.030892994 0.0056048483 0.08535698 -0.01616567 0.054535255 -0.06500174 0.059106387 -0.07347771 -0.03074131 -0.04589489 0.0063256416 -0.055448197 0.041505337 -0.016687091 0.028118018 0.0737365 0.014445929 0.029884074 0.061598778 0.04825746 -0.07754176 -0.0053161914 0.06839965 -0.04993864 -0.0051335627 0.082897566 -0.06383688 0.025718443 -0.07984937 0.054863818 -0.00991709 0.08554477 0.04894446 -0.053133704 -0.069441326 0.0038371598 0.061304655 0.08253953 0.10465647 -0.05797335 -0.055504847 0.07278349 -0.07326353 -0.04476716 -0.0043553533 -0.0681729 -0.09409172 -0.008698166 0.05457015 -0.040478095 0.021298835 0.015846424 0.086630076 -0.070055135 -0.05446652 -0.007111106 -0.0056338394 0.07348647 -0.077643864 0.09594588 -0.038547702 0.021536425 -0.0034280606 0.10348057 -0.0336553 -0.086959176 -0.012695155 0.07978314 0.048485108 0.06677512 0.043642584 0.0012176884 0.061272882 0.013692493 0.029044297 -0.0044274116 -0.0056946613 0.09194797 0.055410836 0.068706445 0.09209342 -0.036423348 0.07060515 -0.02691763 0.0008790307 0.0072415555 -0.03208433 -0.05621147 -0.030489411 -0.07595694 -0.084680945 0.027021289 0.05393578
102 0.030519538 0.024843253 0.077906474 0.034136705 -0.015953973 0.050463628 -0.014690903 0.006550126 0.05254218 0.0794718 -0.03439742 -0.011579861 0.05865307 -0.06760785 0.0052424343 -0.012932538 0.048924234 0.0601483 -0.061684456 -0.0071432246 -0.020311901 0.07803435 0.057014633 -0.0008575432 0.099499896 0.07104237 -0.0013527116 0.046585403 -0.0596332 0.012633063 0.08322284 0.08972184 -0.042254355 0.03619865 -0.0507629 -0.03934245 0.014725383 0.004816832 0.045176186 -0.01280745 -0.030328136 0.032348163 -0.09022495 0.01834837 -0.009761695 -0.094070494 -0.07388719 0.037387107 -0.03638019 0.03738898 0.05733514 -0.09410386 0.054625038 0.075953774 -0.005898145 -0.014771817 0.09074085 0.081942074 -0.031587787 -0.057672698 0.024950955 -0.04995424 0.035983972 -0.0074883914 0.08846838 -0.024177134 0.042601928 0.017017059 -0.04331155 -0.100143306 -0.087220356 0.007797975 0.06895723 -0.0051609175 -0.09544169 -0.09441513 0.024147268 -0.011363699 -0.054681793 0.053137206 -0.017327389 0.020259544 -0.032037772 0.046958227 -0.0040302277 0.016850006 0.08387484 0.04438579 -0.087808676 -0.013494573 -0.041200586 -0.018759008 0.0339955 -0.030098312 0.099032186 -0.06887937 -0.093618445 -0.024851108 0.013802667 -0.07340275 -0.08391548 0.010241941 0.0037541417 0.038012102 0.018206257 0.009738449 0.055365138 0.080127195 0.070141435 -0.011526121 -0.0598427 -0.039590243 0.008848381 0.076754674 -0.08890369 0.08618748 -0.10107227 0.002149011 0.018749954 0.085164785 0.094157755 -0.036674872 -0.030686054 -0.08634147 -0.018972393 -0.026031956 0.079887584 0.023805784
103 0.016726166 0.07735498 0.06589352 0.06365031 0.017910514 -0.0022030948 -0.035454784 0.035210572 -0.0062914817 0.028212808 -0.0773869 0.10158058 0.07642477 -0.07009564 0.07623324 -0.040920302 0.026950698 0.08230507 -0.016302537 0.025005542 -0.023193268 0.049560696 0.10339795 -0.015302917 0.04570148 0.06421743 0.03771225 -0.02434022 -0.05613443 -0.033972625 0.102457054 0.043480013 -0.08106516 0.032279395 -0.010285377 -0.09047452 -0.020123523 0.090955466 -0.006918546 0.0069970107 -0.071284056 0.04608158 -0.04246223 -0.023485478 -0.09275387 -0.06847104 -0.03297247 0.024558958 -0.01289286 -0.00071045384 0.0280555 -0.09138587 0.0057983054 0.030445209 0.016284619 0.010373382 0.100252286 0.09399405 0.012180134 -0.07520044 0.06792318 -0.10562425 -0.025685111 -0.10027672 -0.0027929498 -0.02840843 0.046821456 0.0098283375 -0.04819666 0.07320119 0.034778785 0.049711704 0.033194497 0.03637771 -0.0021196725 -0.09568468 0.08275202 -0.0010048924 -0.05202022 0.08607455 -0.017987572 -0.072621845 -0.052118115 0.028128099 -0.097602785 0.061047014 0.077671185 0.08844843 -0.04169081 0.0040182807 -0.03789485 -0.10080144 0.016565872 -0.08464025 0.09896806 -0.10475966 -0.09964658 0.006897824 -0.00059235096 -0.09332362 -0.095563404 -0.09573418 0.08946073 0.023001391 0.016298167 0.088606626 0.093223065 0.08769202 -0.025346471 0.08671833 -0.027034402 -0.089447066 0.036647744 -0.031839155 -0.041599393 -0.00031457376 -0.05281519 0.057671063 0.03786364 -0.015722599 0.041247826 -0.10436244 -0.05466978 -0.08313866 0.01274975 0.0049357694 0.0062576784 0.062474992
100 0.026191186 0.019043598 0.101016104 -0.015741222 -0.017573748 0.01702983 -0.05944032 0.0691818 0.07363391 0.02366062 -0.029882673 0.039722193 -0.030102113 -0.013305462 0.0535273 -0.007889111 0.035354473 0.0688377 -0.07784383 -0.041615892 -0.0015526414 0.096063234 0.10347292 -0.06903537 0.03907508 0.0977077 0.036031235 0.038106635 -0.0629382 -0.086432286 0.08457753 0.0248666 -0.09505213 -0.015301991 -0.06679568 0.009643465 -0.01739912 -0.00041101035 0.06744026 0.026927091 -0.08739471 0.09077998 -0.03312692 0.09469744 -0.07443707 -0.030718789 -0.02843764 0.02257194 -0.054719627 0.014482281 0.014092851 0.011139439 0.010262707 0.021977875 0.0707087 -0.0649832 0.029166183 0.015455636 -0.031789143 -0.06687303 0.03819983 -0.10408432 0.022558916 -0.10057333 0.10032483 -0.03151995 0.10396355 0.04307669 -0.022586845 -0.05483986 -0.042400043 0.051188737 0.08212749 0.08580267 0.0147424145 0.029936023 0.010580062 -0.052395795 -0.05735181 0.052680112 -0.004691189 -0.10321103 -0.03839723 0.048377804 -0.08061569 0.034612324 0.07403626 0.09879064 -0.09440507 -0.0807762 -0.08667484 -0.069422185 0.10088153 -0.10435722 -0.032885052 -0.0046136472 -0.068789266 0.0711734 0.051689267 0.002634097 -0.0366102 -0.063912734 0.060444493 0.09103192 0.018347695 0.1015841 0.07303399 0.07754359 0.062389914 0.063677035 -0.03360844 -0.07220477 0.06267107 0.020773178 -0.05014895 -0.015787093 -0.036514714 -0.011652764 0.00031765178 0.00038410816 0.019308787 -0.04384806 -0.047371425 -0.03860128 0.0065560844 -0.015366172 0.033986077 0.04073735
101 -0.03716765 0.09738169 0.079111494 0.020169536 0.004434768 0.06431984 -0.050149992 0.025051571 -0.014350965 0.0042127166 0.0043911217 0.042752326 0.003635251 -0.097809434 0.020783396 -0.014118903 0.03237906 -0.008267107 -0.07244086 -0.04535789 -0.024056345 0.100616165 0.0075800866 -0.045423403 0.0076869 0.010182285 -0.05150894 0.041546017 -0.020789698 -0.04196379 0.022017293 0.09024231 -0.070896834 0.083972104 -0.03203864 -0.022522898 -0.048788834 0.016877074 0.10492843 0.0069210697 0.009540718 0.0065785497 -0.02980243 0.05829035 -0.0052896505 -0.009291246 -0.03450526 -0.013679416 -0.040723026 -0.005811273 0.056243047 0.0085701225 0.04030906 0.08160336 0.04689975 -0.0930294 -0.008479821 0.0036506206 -0.017645441 -0.00046440214 0.03689878 -0.035654042 0.065262064 -0.047894895 0.1014972 0.00084075704 0.010055616 -0.0076948265 -0.045978233 0.040023576 -0.0028448664 0.09525239 0.07064588 0.094883956 -0.07903823 -0.00091747195 0.06664852 -0.019512337 -0.04066749 0.032251023 -0.060877383 -0.08899885 -0.074132875 0.013986965 -0.031853065 -0.0036031855 0.026302565 0.019282125 -0.07040433 0.015062655 -0.08367055 -0.08335243 0.08432072 -0.048064306 0.094150774 -0.088560976 -0.037400555 -0.015368387 0.0773124 -0.05275988 -0.024614073 -0.06985903 0.08440534 -0.031206533 0.05760465 0.0018931683 0.044721108 0.09645255 0.038160503 -0.0071201585 0.00044760667 -0.09271945 0.044378866 0.10246793 -0.076799594 -0.0015489282 -0.024390258 0.04514364 -0.092606746 0.033074494 0.047710627 -0.0054186704 0.002357548 -0.07881953 -0.061891288 0.011546231 0.05499988 0.041955315
106 -0.0275741 0.07906044 0.041393172 0.047697183 -0.055626187 0.026187737 -0.06474896 0.03892833 0.048791185 0.047572453 -0.040759526 0.083509825 0.0847772 0.007753753 0.08399801 -0.041132197 0.04588463 0.035927325 -0.0522959 0.0027881814 -0.023479067 0.06719064 0.05489119 -0.07527943 0.014482479 0.043168247 -0.087395236 -0.028460596 -0.009217134 -0.018311828 0.036094263 0.013604976 -0.024008129 0.028450467 -0.07209863 -0.086569466 -0.039584167 -0.0067652147 0.011709862 0.067048416 -0.078826584 0.07029338 -0.03189747 0.00088086165 -0.07529944 -0.066167496 -0.06661339 0.033332914 -0.08952744 0.023864996 0.067506626 -0.053915236 0.081640236 0.0766711 0.10436928 -0.09549718 0.074860305 0.047671236 -0.03631615 -0.07552963 -0.011529705 -0.054617785 0.10169576 -0.034233022 0.022895653 0.066684656 0.023595419 0.05842533 -0.09054625 0.026856823 0.029762842 0.07311907 0.029565845 0.015507588 -0.020331338 -0.05242 -0.006308239 -0.07727396 -0.0012516808 0.09092375 -0.09298538 -0.098992765 0.005461569 0.058099847 -0.03895262 0.08672455 0.058564197 -0.009973838 -0.105054036 -0.06952164 -0.043694526 -0.07978565 0.051639248 -0.04538347 0.022479631 -0.019284695 -0.08256668 0.097480625 0.0645043 -0.030009568 -0.044300847 0.0043298844 0.07381779 0.076477595 0.011572485 -0.0022579636 0.045467228 0.014397548 0.07374065 0.019256664 0.0088543035 0.032801125 0.050750487 0.08502464 -0.10098709 0.089894176 -0.10269603 -0.00028206035 -0.07881124 0.06668217 0.09607618 -0.013364683 -0.04604843 -0.032361746 -0.06921606 0.0021128682 0.044757515 0.09525834
107 -0.0757991 0.07469014 0.047016907 0.05650966 0.037920363 0.05310715 -0.062024523 0.05333183 0.02458322 0.035622425 -0.059679333 0.0040687583 0.06645048 -0.04461048 0.022148244 -0.0274442 -0.017122936 0.061615285 -0.085834645 -0.08124771 0.040764265 0.05183413 0.0045680655 -0.06275091 0.07561757 0.10481634 -0.03232768 -0.0373564 -0.02449945 0.0015222142 0.03653515 0.07978403 -0.061708782 -0.0030748816 0.006994986 -0.093909636 0.0024874154 0.09182311 0.0031908276 0.0380943 -0.04579355 0.014710701 -0.042598248 0.08396146 -0.06884669 -0.09235473 -0.044429902 0.088875495 0.003657776 0.07868954 0.041614763 -0.028808625 -0.015315884 -0.010609755 0.06903286 -0.073664546 0.0851658 0.03601796 -0.07970784 -0.0038418276 0.049801953 -0.05463606 0.046203114 -0.06544784 0.0026193578 0.024435755 -0.009027479 0.07996689 -0.080932476 -0.033552695 -0.01483634 -0.014775363 0.08256442 -0.00057988055 -0.070427485 -0.10151267 0.07971767 -0.04751064 -0.065766335 -0.01080334 -0.04030416 -0.0027722893 -0.05770473 -0.008589766 -0.04231531 0.025116736 -0.0060761822 0.026460273 -0.09934912 -0.07658609 -0.09877374 -0.1049724 0.013411216 -0.013131793 0.09881945 -0.103833586 -0.022600304 0.08813517 0.042311527 0.010211794 -0.017259274 -0.08968971 0.09886881 0.090100944 0.009153787 0.009421254 0.051852487 0.0013490403 -0.030411966 -0.011457418 -0.06704255 -0.0738363 -0.008425169 0.010320828 0.06414733 0.068938754 -0.06442609 0.0023642257 -0.02869771 0.04647327 0.031202735 0.0068069045 -0.05967951 0.0028651701 -0.017923411 -0.079320185 0.02209062 -0.005318935
104 0.027935836 0.076141536 0.04626879 0.036529787 -0.03602903 0.04394018 -0.02093816 0.030366566 0.061092418 0.025352336 -0.105945274 0.084790476 0.02989744 -0.0014473749 -0.004456751 -0.056481387 0.03421706 0.088253684 -0.10239727 -0.07088265 0.032346986 0.09720868 0.06622048 -0.04897613 0.046178643 0.0666108 -0.089408055 0.04738029 -0.06295087 -0.048334666 0.07527326 0.016934594 -0.049583755 0.031266615 -0.038630065 -0.010609786 -0.07316724 0.029110588 0.024261989 -0.0072076423 -0.026266295 0.086507864 0.0020218939 0.06784937 -0.06867273 -0.046858188 -0.10463464 0.03622104 -0.05205906 0.0037350236 0.08001773 -0.09771773 -0.0048658056 -0.034465246 0.034045547 -0.015803806 0.027167078 0.03331247 -0.092822105 0.0016385289 0.05070801 -0.025946053 0.08764135 -0.010814772 -0.0024214536 0.04503932 0.020922262 -0.026899219 -0.014648957 0.0794826 -0.087913945 0.024882294 0.020777669 0.003382355 -0.07468327 0.029551249 0.07303423 -0.09430648 0.002621673 0.06824523 -0.080772996 -0.0464935 -0.05757566 0.09651039 -0.07569795 -0.0036480566 0.054483607 -0.014427746 -0.034475952 -0.097345546 0.013703795 -0.04885176 0.089563675 -0.051640056 0.04414267 -0.0681683 -0.029752813 0.00052829273 0.031080794 -0.023816107 -0.10049468 -0.091255836 0.07513722 -0.018953815 0.028368823 -0.008487556 0.037100453 0.07496141 0.02807096 0.04337903 -0.052672923 -0.013027691 0.082564965 0.10154831 -0.04609483 0.06739457 -0.07330485 0.06973498 -0.101968475 0.007063168 0.05189435 -0.08543363 -0.03345044 0.015974171 -0.06832853 -0.09844482 0.09357685 0.07886702
105 -0.052286446 -0.014294269 0.07068139 0.05307695 -0.0070653846 -0.014984384 -0.06126325 -0.0062515344 0.04512439 0.09883466 -0.033724986 0.07835406 0.06268392 -0.023273516 0.05785161 -0.07061683 0.10156344 0.029514335 -0.03576713 -0.06120889 0.017370207 -0.0016347487 0.059477907 0.0153872715 0.058553882 0.021551656 -0.043123767 0.010093929 -0.07529131 0.0072304197 0.07000889 0.09272537 -0.060173385 0.040630065 -0.08495181 -0.06268511 -0.07512646 0.066659875 0.09827578 -0.011481216 -0.038839195 0.05692988 -0.058054876 0.0890476 -0.05304404 -0.038741946 -0.071369424 0.031946376 -0.06435256 0.096821286 -0.012204829 -0.06511543 0.05535577 0.09301629 0.021971881 0.011475289 -0.001262567 0.033329993 -0.020227619 -0.049862314 0.08942752 -0.05574974 0.04875965 -0.04154121 0.0038944557 0.047793783 -0.0139535945 0.026197303 -0.021161562 0.0396317 -0.09705818 -0.014524252 0.07225262 0.003915268 -0.07836117 0.011339407 0.09403975 0.017075893 -0.013466912 0.05328358 -0.047408987 -0.07776785 -0.08364895 0.061713513 0.017141502 0.078124195 0.044965878 0.02916823 -0.053079274 -0.101948455 0.002566101 0.0047936626 0.030219875 -0.09120219 0.06811327 -0.02008287 -0.0073050354 0.06272222 0.016234469 -0.08785518 -0.089838445 -0.020804446 0.09493885 0.06773601 0.045323 0.019067334 0.073571995 0.049922608 0.054746136 0.038970694 -0.0129259145 -0.05663534 0.09616727 0.040289007 -0.05126905 0.08658828 -0.019172067 0.053779118 -0.08739182 0.08739171 0.097661294 -0.05521815 -0.09705251 -0.0053615356 -0.05639792 -0.06799339 0.002475053 0.029254396
1212 0.012446938 -0.010060393 0.036438346 0.006818125 -0.022126187 0.02201939 -0.07241964 0.084131874 0.07052383 -0.0026636869 0.004206608 0.053874176 0.03504781 -0.043531224 0.022222834 0.0039563347 0.060932837 -0.029236458 -0.087118 -0.011117792 0.08268085 0.06924686 -0.013917662 -0.06276469 0.035259567 0.015980955 -0.06398645 -0.034143157 -0.09518045 -0.06233969 0.10438667 0.05346565 -0.00436481 0.07560158 -0.09550041 -0.103387564 -0.05983085 -0.0022342866 0.07676541 0.008751143 -0.07947979 0.09800032 -0.07445354 -0.014956201 -0.043722603 -0.0040072016 -0.0146219395 0.09278374 -0.05261823 0.019005656 0.08906296 -0.07723388 0.028124804 0.03561943 0.088672966 -0.0062010363 0.044999328 -0.001579578 -0.0022794558 -0.07633275 0.026227836 -0.072261296 0.03294695 -0.08583047 0.08160131 0.019508073 0.094873205 0.090136364 -0.028294029 -0.086238615 -0.008431359 0.0103999255 0.011188801 0.0075771725 0.0063762534 0.0060031572 -0.013722978 -0.09827504 -0.042588767 0.07756569 0.001717885 -0.062250618 -0.054641727 -0.0062764017 0.036053136 0.06565537 0.020800024 0.05853112 -0.09020309 -0.098552436 -0.09066283 -0.08197378 -0.0070300633 -0.0029834043 0.08646702 -0.043155856 -0.101039656 0.08993855 0.068334214 -0.034062892 -0.100660786 -0.052998647 0.008596107 0.072960794 0.07511504 0.09636579 -0.014349368 0.09813063 -0.032308433 -0.0012452686 -0.07390164 -0.05164024 0.05001476 0.08280403 0.038607467 0.10177011 0.035910774 0.07909886 -0.038884543 0.081524335 0.043036647 -0.005042279 -0.037754722 -0.007716269 -0.07417636 -0.0022121975 0.0936443 0.021081561
1213 0.03380796 -0.0018740753 0.035880316 0.004348699 -0.044267297 0.023132954 -0.001996003 0.0011639083 0.03289193 0.01611105 -0.064796805 0.052466903 0.07025063 -0.09137225 0.08452591 -0.039073683 0.039877236 0.00331386 -0.04444171 -0.08328913 -0.03391894 0.023092076 0.08057432 -0.06812273 0.028084755 0.10094792 -0.014488957 0.03999969 0.002590496 -0.095667236 0.02002388 0.10025106 -0.012401522 0.05342084 -0.09899791 -0.085598014 0.020246975 0.013482042 0.020112291 0.085326396 -0.020874757 -0.0068162866 -0.096466765 0.083396755 -0.037042093 0.014110472 -0.044316523 -0.011951918 -0.055460088 0.06754425 -0.009905009 -0.049911935 0.047580313 0.048453078 0.09921574 -0.09787003 0.083167076 0.06396447 -0.045617238 -0.0058133714 0.07503555 -0.000673214 0.055798024 0.0035845907 0.08786738 0.039204773 -0.01231693 0.010477465 -0.041531075 0.056002125 -0.04288557 0.10050824 0.014921785 0.01725012 -0.03886079 0.011546413 -0.036846288 -0.045042336 0.00013857614 -0.0048321905 -0.078841165 -0.07496176 -0.050738804 0.068621404 0.036517747 0.00416011 0.09923527 0.019011483 -0.04781841 -0.058097895 -0.008184329 0.010819554 0.08578049 -0.06573182 0.066734545 -0.09150513 -0.04882823 0.068208724 0.017364124 0.004063135 0.012619528 -0.040799156 0.07244158 0.058669467 0.098919846 0.038588062 -0.025909565 0.05217238 0.014331015 0.06470079 -0.09746632 0.0023667729 0.082306385 0.05196225 -0.07216256 0.028739259 0.011801905 0.08942058 0.022008017 0.051459555 -0.0013377937 -0.089267015 -0.06811892 0.0014467258 -0.022508169 -0.0050724903 0.018987818 0.058384843
1375 -0.07978554 0.0991717 0.0010663569 0.019328669 -0.07125692 0.060460117 -0.031707976 0.011084818 0.023317397 0.06937592 -0.10287473 0.022014327 0.08892945 -0.039758902 0.004598559 -0.06425241 0.08265775 0.03882301 -0.09519639 -0.010906887 0.06398972 0.022394527 0.034446158 0.009602155 0.015153935 0.027054062 -0.025235798 0.03138666 -0.048585102 -0.049956553 0.08685514 0.03368231 -0.10116845 0.017701963 -0.10297142 -0.01796709 -0.08883417 0.060650073 0.04649549 0.07377958 -0.011550156 0.004192543 -0.03377122 0.001801488 -0.08843121 -0.08806278 -0.079341695 0.10370138 -0.066145726 0.10462326 0.04076019 -0.04747655 0.028013773 0.011977914 0.081258744 -0.10188375 0.10011615 0.097058 -0.061292686 -0.007627856 0.057003625 -0.019643422 0.05044516 -0.10061512 0.027114289 0.061766535 0.043243833 0.025397204 -0.0023838663 0.0042711627 0.0038506743 0.03389704 0.020213034 0.06535279 -0.02399991 0.008240676 -0.004125282 -0.05475772 -0.10062994 0.10438063 -0.013279851 -0.0033170488 -0.05928456 0.05940496 0.023209155 0.025529105 0.028946396 0.06417831 -0.085476495 -0.012438072 -0.058281958 -0.05200512 0.03393629 -0.08471281 -0.009499685 -0.035073172 -0.08358027 0.01032423 0.008946997 0.013810179 0.016346868 -0.059690755 0.06471491 0.054005355 0.06983221 0.09536701 0.09947057 0.01390547 0.07160687 0.029799096 -0.06785259 -0.094940275 0.05641351 0.05405799 -0.05816845 0.054743253 -0.021172002 0.08996187 -0.048131116 0.022309553 0.104016155 -0.09339112 -0.032009233 -0.04055576 0.0021146722 -0.04531578 0.022613723 0.07146054
99 -0.035907418 0.068867125 0.010765826 0.07435398 -0.009443769 0.096276306 -0.027950106 0.043967284 0.03722203 -0.00905751 -0.025420427 -0.0053206133 0.08094293 -0.03978658 0.0012185108 -0.037944436 -0.020023072 0.027437307 -0.093115896 -0.07916893 0.09877969 0.0362701 0.0020987866 0.0058632176 -0.012858314 0.014286915 -0.030310418 -0.034316905 0.008731588 -0.053959552 0.045821875 -0.0034497231 -0.08527997 0.08644013 -0.037572034 -0.08145381 0.014794447 0.022084389 0.013723587 0.033125464 -0.09648993 0.059012845 -0.027156178 -0.043545485 -0.003254788 -0.0554186 -0.08177507 0.05094225 -0.096387975 0.04705496 0.047368743 0.0082892785 0.054548353 0.09697503 0.082297966 -0.052399747 0.08847871 0.07554565 -0.041486137 -0.0037572738 -0.00022644922 -0.046504103 0.017387956 -0.10333986 0.02828822 0.05986702 0.018062811 0.028025113 -0.10511296 -0.034378197 -0.049617786 0.093663745 0.03633196 0.04238058 -0.072441764 0.01821198 0.030929282 -0.024246763 -0.0287342 0.03134395 -0.0010000942 -0.020485584 0.00775058 0.056058645 -0.00096997805 0.07906561 0.09116975 0.055171475 -0.053419396 -0.103731416 -0.05357489 -0.09603531 0.077160686 -0.049128048 -0.037156142 -0.057898715 -0.075020224 0.03177599 0.047571417 -0.08824515 -0.034227297 -0.09838337 0.07742883 0.004051759 -0.013656452 -0.025563369 0.03253477 0.04228817 0.062069926 0.099383004 -0.0076780748 -0.045036275 0.059517134 0.0558679 -0.034918156 0.061416134 -0.060043707 0.048028708 -0.021552749 0.072287545 0.070539005 -0.055457707 0.014817068 -0.078841016 -0.05259248 -0.057189085 0.053921297 0.026638007
98 0.035840135 0.040391624 -0.012707679 0.09139062 0.008159771 -0.007391584 0.023243148 0.055730328 0.043231823 -0.010892934 -0.082999155 -0.0067755925 -0.031180937 -0.096859306 0.005349787 -0.088143736 0.03346323 0.09224539 0.030972168 -0.09720294 0.07611795 0.0975858 0.09113979 -0.0072504617 0.07402564 0.08911741 -0.0684309 0.07248367 -0.035804603 -0.07590782 0.07185559 0.0017986326 0.013870003 0.09518457 -0.061895434 0.016290043 0.043940954 0.105259016 -0.00039726868 -0.014194255 0.009578529 0.09140143 -0.041390166 -0.014281188 0.013539398 -0.049050823 -0.09179549 0.08365537 -0.02602013 -0.005322771 0.0005204752 -0.09017593 0.0572496 0.01896868 0.09078673 -0.03877897 0.09791397 0.03306407 -0.041591443 -0.08893592 0.046786383 -0.048384927 0.08323076 -0.040367283 0.081579864 0.090448014 0.06483464 -0.01198133 -0.07511368 -0.011345652 0.034660865 -0.015251236 0.04043117 0.07226678 0.0060236417 -0.050485246 0.09244413 -0.04467044 -0.07948529 0.10210887 -0.060011737 -0.022482619 0.0063202847 0.04920554 -0.05503999 -0.009567533 0.083621696 0.018132236 -0.013628585 -0.09371165 -0.0064681442 0.011419161 0.054638535 -0.09714634 0.02562787 -0.08678708 -0.03175558 -0.007825367 0.007301705 -0.08516244 -0.0057464354 -0.028396118 0.08135075 0.074170604 0.021784663 0.0710932 0.08246918 0.053483233 -0.026306685 0.004282295 -0.0013498198 0.01092576 0.06077883 0.08798364 -0.059344895 0.07621173 -0.03388592 0.0039823167 0.03210888 0.0088791195 0.09273356 -0.049363986 -0.027820759 0.01571082 -0.035377752 -0.064037494 0.08749555 0.07155416
91 -0.095203 0.09769567 0.00017744116 -0.015441533 0.005232054 0.0104010245 -0.008445753 -0.012484977 -0.024021484 0.04101388 -0.032848123 -0.00088905264 0.033475224 -0.0329021 0.0013419958 -0.05927838 0.08611552 0.0741387 -0.049189433 -0.083182536 0.038122512 0.03180321 0.032611262 -0.05183836 0.0881457 0.02553058 -0.069212005 0.040402178 0.013036488 -0.030693008 0.058261305 0.007189703 0.008347689 0.08807794 -0.020745559 -0.03352176 0.00038859155 0.036528144 0.03832715 -0.028070986 -0.030927192 -0.00056258123 0.013365826 -0.0136714075 -0.09900701 -0.096184835 -0.004438821 0.04786402 -0.027874125 0.022603013 0.051755514 -0.01422819 0.005389819 0.08774951 0.06089611 -0.06185833 0.0071807373 0.021463297 -0.0068356497 -0.020796826 0.09021704 -0.031028645 -0.0047576576 -0.07104561 0.010007935 0.031286597 0.09507528 0.101580374 0.0020162081 -0.073825434 0.03218659 0.052536495 0.061317954 0.059250902 -0.0657776 -0.077362634 0.014158067 -0.02089259 -0.0797222 0.091684155 -0.02353954 0.011933905 -0.08062476 -0.0059224125 -0.03263082 -0.0019105496 0.068778925 0.09562432 -0.059787646 -0.011320579 -0.005271109 -0.09598563 0.045358907 -0.09588395 -0.0065252623 -0.049439423 -0.059128147 0.058026865 0.02618374 -0.067587346 -0.06204575 -0.066381626 -0.022629734 -0.009501618 0.044869855 0.03827038 0.0111243855 0.065521866 0.041249607 0.075237736 -0.04436021 -0.0034046443 0.08858653 0.08514381 -0.06793291 0.057753857 0.03168345 0.011582322 0.03796101 0.04380298 0.046690702 -0.081885494 0.003178075 -0.095568515 -0.09502694 -0.09599783 0.08552778 -0.0046058455
90 0.0073287385 0.02182111 0.09481617 0.04669556 -0.034033515 0.049987864 -0.060512803 0.07018573 -0.01663448 0.08342674 -0.09079182 0.01654968 0.0757736 -0.009872572 0.08433417 -0.0953818 0.046082247 0.09556453 -0.0018646885 -0.079713084 -0.0039899806 0.02983347 0.07066447 -0.012743449 -0.0046113655 0.06528063 -0.051193744 -0.0042666662 -0.05444655 0.016498087 0.09427747 0.06375333 0.01883021 0.012979156 -0.018979423 -0.07890541 -0.0953174 0.0052704103 -0.0056144167 0.102703355 -0.028748788 0.00042302907 -0.052025348 -0.030702423 -0.10277886 -0.0660904 -0.04716456 0.04703183 -0.08083339 0.056048255 0.017123707 -0.009007359 0.079190224 -0.007172308 -0.002571051 -0.10070453 0.016387563 0.06137264 0.003423106 0.007939374 0.075365804 -0.059218284 0.0737614 0.011288585 0.06912409 0.04053656 0.080443144 0.06895869 0.01246657 0.021048473 -0.07373365 0.10052347 0.021920286 0.021004822 -0.103052065 -0.022797711 0.008720778 -0.09930976 -0.10260799 0.03821722 -0.076893955 -0.1000698 -0.048976786 0.093252994 0.02150597 0.047643736 0.09505642 0.06904332 -0.10088225 -0.0931691 0.013564256 -0.026225185 0.011574902 -0.02000852 0.0054062363 -0.08419261 -0.012659738 0.032892495 0.04518267 -0.0020222133 -0.037478056 0.0123107135 0.09750545 0.0937659 -0.0007621208 0.06786086 -0.010480209 0.075022325 0.022592667 0.06550554 -0.10007298 -0.09023674 0.07723142 0.056300513 -0.094642624 0.047694307 -0.098619096 0.044058785 -0.02199392 0.033140965 -0.0113067655 0.0053083478 -0.048323184 6.897468e-05 -0.059534583 -0.059324548 0.08037751 0.034708973
93 -0.024197292 0.009041155 0.02892502 0.00855055 -0.02557959 0.038259897 -0.06167659 0.029825453 0.067209244 0.047794648 -0.099013835 0.062178776 -0.02857976 -0.0031390898 0.028053485 0.008873406 0.050351124 0.062209103 -0.027792558 0.01260922 0.024883354 0.096510805 0.0655232 -0.054355912 0.01761236 0.032911316 -0.04836718 0.09361725 -0.05007709 -0.07582222 0.096656196 0.06870541 -0.07930347 0.017302223 -0.0398074 -0.052994028 0.022137245 0.04976452 0.055293493 0.031042362 0.011820838 0.009911654 -0.06319818 -0.02844597 -0.06611474 -0.10222299 -0.04510233 0.064596586 -0.009653048 0.04418888 0.08127629 0.0017347308 0.030945674 0.01811311 0.0132916495 -0.05104447 -0.014755404 0.08099495 -0.10068013 -0.061990865 0.012419384 -0.0010244129 0.1030837 -0.030461587 0.05890822 0.07659122 -0.008541574 0.057088472 -0.07382414 -0.09953699 -0.069472216 0.015432585 0.071377955 0.036233548 -0.028661799 -0.0018503489 0.031163752 0.02629219 0.012646134 0.072814 -0.0053830836 -0.03866764 -0.068529084 0.036952153 -0.05207566 0.08351555 0.020940144 0.049133025 -0.007992137 -0.036711987 0.0065179886 -0.0126548 0.021899134 -0.074867666 0.067280546 -0.06833947 -0.07865226 0.050328963 0.050453 -0.06843314 0.02398451 -0.05454749 0.08617915 -0.016431928 -0.009657923 0.0625432 -0.036323745 -0.0022034328 0.05787261 0.0475415 -0.033087745 0.009326248 0.089448534 -0.016136728 -0.05345707 0.023207407 -0.08670772 0.09375209 -0.0063328454 -0.013862718 -0.0072557097 0.0094466545 -0.08027138 -0.10070433 -0.04505977 -0.04010139 0.038716435 0.008076415
92 -0.09128861 0.020240508 0.06122329 0.102620184 -0.043366794 0.028258342 -0.08529941 0.012304903 0.07896492 0.09970217 -0.037723817 0.0037087249 0.08996113 -0.026441935 0.103154406 -0.056496035 0.008081338 0.07035133 -0.07541526 -0.08322591 0.011959843 0.041735046 0.01797276 -0.0352867 0.073793374 0.052940913 -0.039457813 0.073548235 -0.04258491 -0.018293194 0.0019756984 0.00762288 -0.05977381 0.06653987 -0.055047628 -0.02652982 0.010731914 0.013719083 0.02871336 0.09855625 -0.06253713 0.07218788 -0.036922753 0.026557535 -0.095645584 -0.07838991 -0.057818115 0.074173234 -0.080123946 -0.012307657 0.03915005 -0.05989986 0.08161913 -0.0017816508 -0.013675625 -0.009118853 0.09485321 0.038199835 -0.10222629 0.0134529 0.046956364 -0.088800006 0.06263958 -0.080804415 -0.007381902 0.0783515 0.026165275 -0.03371113 -0.017780146 0.05444912 -0.08419432 -0.007877152 0.01885796 0.020307269 -0.01773249 0.010641234 0.09472111 -0.060552396 0.0099799475 0.10510345 -0.009036682 -0.076929726 -0.03799294 0.07867891 -0.037184414 0.01331814 0.09473807 0.10104703 -0.052318253 -0.011616223 -0.069096096 -0.031224743 0.045803025 -0.05690345 0.07793567 -0.036453873 0.027816173 0.07038206 -0.010508236 -0.08522053 -0.09585024 -0.040164478 0.06984395 0.023056824 0.028448522 -0.038234886 -0.0064762076 0.05801458 0.008792199 0.08921697 -0.023728725 -0.087792836 0.058565073 -0.0024378933 -0.03625524 0.08059864 -0.024330534 0.06957934 0.021534964 0.00843656 0.10207186 -0.025229204 -0.04040248 -0.08749095 -0.03711119 -0.0908356 0.09077741 0.07074827
95 -0.069124155 0.08361462 0.027011923 0.0768889 -0.017907832 0.034621898 0.0029987367 0.040403984 0.030473268 0.020260183 0.0048411433 0.06294875 0.04796571 -0.051764254 -0.011506065 -0.059883762 -0.015045159 0.016486479 -0.09970765 -0.054442894 0.059707753 0.09288087 0.011131332 -0.09419028 0.022816353 0.09287937 0.034531787 0.054270875 -0.069929674 -0.013272129 -0.0004910836 0.09431568 -0.0434649 0.060349092 -0.01904763 0.028425146 -0.096436165 0.009552583 0.08206754 0.03590363 -0.00010732468 0.008999324 -0.07545655 0.0437243 -0.06196033 -0.07407403 -0.008778514 0.06364092 -0.007913651 0.089785375 0.013450697 -0.074555844 0.086253636 0.09789397 0.057332233 -0.07772776 -0.035359144 0.0064832503 -0.031192891 0.00030547474 0.04432714 -0.060280886 0.08655095 -0.07393732 0.07610586 -0.032227892 0.0024843132 0.037325323 -0.028619694 0.07988176 -0.03780297 0.051817726 -0.010255424 0.09574249 -0.04520776 -0.08909903 0.0067422437 0.009178062 -0.030783124 0.017694967 -0.06341119 -0.012431108 -0.1046565 -0.013737856 -0.08222266 0.09210284 0.053999323 0.105089635 0.0016176114 -0.07203029 -0.004180218 -0.017738484 -0.013404644 -0.08379783 0.016402349 -0.047225967 -0.098572396 -0.018063039 0.028799223 -0.09836702 -0.037102506 -0.086748675 0.08154132 0.024222748 0.038257472 0.09914945 -0.021804802 0.0035305861 0.08934824 0.020790005 -0.023029191 -0.029106475 0.0523972 0.09053613 -0.021341007 0.040890716 -0.09004782 0.008417617 0.013045745 0.016240533 0.010288707 0.0018081255 0.0019409098 -0.09369452 -0.046599563 -0.0712087 0.075955786 -0.0005672518
94 -0.06537967 0.07069441 0.022380438 0.01813645 -0.05013352 0.00029985607 -0.0013080463 0.06443662 0.0678352 -0.0041366927 -0.037452407 0.050156925 0.039789367 0.002295644 -0.012003253 0.002877717 0.0953019 0.06247728 -0.032116443 0.029835496 -0.006555914 -0.012280627 0.0041810693 -0.013582443 0.10411842 0.067038506 -0.09817129 0.011482005 -0.044832632 -0.01787411 0.01667776 0.044642862 -0.09474393 0.02554584 0.003170032 -0.07384749 -0.015622951 0.074247696 0.03175594 0.10233113 -0.027056469 0.09535313 -0.07935351 0.082786754 -0.07076051 -0.022025704 0.01475023 0.058316488 -0.00043209922 0.036886487 -0.002689492 -0.07438501 0.09828416 0.068903394 0.10053933 -0.07164142 0.09930664 0.036936548 0.010718364 -0.06382149 0.043047972 0.011578396 0.042328306 -0.06768285 -0.013631247 -0.02954505 0.07134795 0.029844478 -0.03155707 -0.065111704 -0.017435495 0.0042816903 0.086652845 0.09501821 -0.075778395 0.001794273 0.06423262 -0.084814034 -0.090206556 0.042002376 -0.049741384 -0.06022997 -0.060338017 0.092797376 0.037425965 0.07328807 0.023342539 0.048541043 -0.048834212 -0.06639238 -0.08644992 -0.03809549 0.072486565 0.0030760663 0.0911152 -0.0903243 -0.04228463 0.005113573 0.03274642 -0.037447553 -0.07998882 -0.013990767 0.056924634 0.07072946 0.10371048 0.031079281 0.09110932 0.038181607 -0.0032144124 0.009742934 -0.08706011 0.006824026 0.013280794 0.023095988 0.052649893 -0.010481785 -0.097397655 0.09902258 -0.040790938 0.030519575 0.07652584 -0.08390537 -0.0013575982 -0.029092757 0.0010488154 -0.041777648 0.07409419 0.04543853
97 -0.060745224 0.06378338 0.035774052 0.0070478832 -0.07906264 -0.011153418 -0.029911362 0.032937616 0.09656744 0.07836525 -0.06467356 0.031918183 -0.030416753 -0.053872604 0.10343894 -0.0058095697 0.071578674 0.03429383 -0.028821122 -0.068470016 0.018618565 0.10563121 0.034441512 -0.08449638 0.00182686 0.067115135 -0.049803067 0.008181464 -0.060180247 0.0053875176 0.097513266 0.057921246 0.0008645952 0.086156525 -0.08958629 -0.08608449 -0.001953132 0.041392777 0.09231152 -0.014741202 0.028505716 0.0065073185 -0.063500285 0.0899628 -0.02855926 -0.06358401 0.014555952 0.021809533 0.01065543 0.09203499 -0.0105448 -0.058938555 -0.011835212 0.08076416 0.035036527 -0.034483522 0.07048446 0.06253264 -0.010318421 -0.03924304 0.07262635 0.007537217 0.06947451 0.010489069 0.073500976 0.03233921 0.08232461 0.058650553 -0.0765943 -0.010713505 -0.017097477 0.03888768 0.05244125 0.09586712 -0.05609353 0.0358901 0.0022584172 -0.06867777 -0.04469437 0.026991587 0.009498549 0.0044726003 -0.022251422 -0.008300184 0.025166083 -0.0094231 0.060626086 0.06990541 0.007248762 -0.087536566 -0.08749321 -0.014820703 -0.010410092 -0.08287251 -0.0289943 -0.0039829053 -0.10327709 0.0363072 0.0898692 -0.050516978 -0.042481612 -0.002206225 0.041137695 -0.031183744 0.07781053 0.0929655 0.076487094 0.073173515 0.10332792 0.057237983 -0.029398851 -0.044906568 0.013609359 0.10116685 -0.09640867 0.05439042 -0.063456096 0.062988006 0.034845777 -0.0141241895 0.02711222 0.005419568 -0.011792122 -0.021534652 -0.031835023 0.014700736 0.029095618 0.0769789
96 -4.652515e-05 0.09791704 -0.03486343 0.052642178 -0.04808442 0.063765764 -0.087662704 0.026403284 0.104359195 0.0655517 -0.021188468 0.026502457 0.030377295 -0.060637943 -0.0070447484 0.0028522704 0.10347736 0.0125881415 -0.03901663 -0.011999182 0.0896872 0.03338836 0.029250812 -0.017885122 0.048701342 0.058857985 -0.07065497 0.0016205097 -0.09639585 -0.07669882 0.055566665 0.034156356 -0.004214432 -0.014770332 -0.061806925 -0.07049164 -0.022603998 0.08931159 0.04403397 -0.0029534344 0.005305376 0.03293991 -0.023611736 -0.019506149 -0.024479736 -0.0906438 -0.10260475 0.015336701 -0.08903527 0.028076041 -0.011064332 -0.05034881 0.047417015 0.043187544 0.07316489 0.0031303447 0.06561196 0.071722314 -0.041207552 -0.044556618 -0.013242807 -0.082287684 0.093900055 -0.03928776 0.09807817 -0.034253925 0.098410696 0.023655144 -0.09596638 -0.032244302 -0.10305534 0.10380577 -0.0011212071 -0.0015575122 0.0054410957 -0.039402705 0.0324705 -0.08727212 -0.08402843 -0.007434644 -0.06402288 -0.094409555 -0.09279461 0.07249251 -0.07351464 0.055553697 0.00084363576 0.0159389 -0.07580051 -0.09680906 -0.09336826 -0.08297908 0.06529195 -0.0016669855 0.04115708 0.008634372 -0.061028957 0.0725059 0.08672255 -0.0012974087 -0.045541875 0.009369997 0.0727687 0.06745963 0.09617015 -0.036300473 0.07234532 0.10070063 -0.027296726 0.09823036 -0.014303209 -0.09266239 0.100955054 0.063985966 -0.082441986 0.07348761 -0.005499999 0.059394456 0.013984993 0.0013643727 0.045233153 -0.043912083 0.007293245 -0.0831494 -0.0044290507 -0.06002022 0.102101065 0.007353184
559 -0.09895012 0.0954669 -0.011161335 0.084532864 -0.04950811 0.07300224 -0.06531635 0.010969499 0.10387753 0.011070221 -0.058388248 0.036434866 -0.012924339 -0.03584601 0.050347954 -0.025445646 -0.03415388 0.08867782 -0.024956599 0.016485076 -0.008458947 -0.013819152 -0.0023851003 -0.047460485 0.07935129 -0.006861997 -0.0012392066 0.032298565 -0.075843655 -0.042560503 0.07508507 0.035220325 -0.02731476 0.010427305 -0.10184269 -0.074978575 0.0138362525 0.00782916 0.0020630164 0.030848512 -0.06692405 0.055496298 -0.04817194 0.03190341 -0.012175947 -0.030332517 -0.07033544 0.041568406 -0.073031455 0.03960762 0.0736473 -0.068272084 0.09952539 0.03486703 0.02244363 -0.032579284 0.06773852 0.033591054 -0.04815132 -0.09501726 0.022954442 -0.05895284 0.03790382 -0.06704277 0.030117631 -0.0049228817 0.102590136 0.03310598 -0.091072306 -0.06253921 -0.08197174 0.057123065 0.040175304 0.1011912 0.009913093 -0.0852218 0.030692844 0.02604606 0.0026806798 0.017782945 -0.0028008623 -0.076245755 -0.060400076 0.0307943 0.011729312 0.093773596 -0.014249292 -0.0015523396 -0.013508318 -0.034713283 -0.06298729 -0.07385524 0.059835616 -0.012686405 0.09249908 -0.00418422 -0.0533639 0.103086814 0.09580717 -0.02543311 -0.08027475 0.004488647 0.07797475 -0.024361987 0.07603498 0.056535173 0.068780854 0.054651506 -0.036662277 0.050834786 -0.070197456 -0.07912883 0.073433876 0.05594029 0.041698847 0.037294354 -0.07715708 0.04157966 -0.044754814 0.06983686 0.09340608 -0.09816831 0.010417493 -0.0035987264 -0.09808057 -0.07904907 0.016753308 0.032997575
558 -0.05595672 0.025496438 0.0066886917 -0.0056094313 0.01722575 0.090454124 -0.055759802 0.010958762 0.019926902 0.034738313 -0.033498537 0.049399607 -0.018881172 -0.08458355 0.1035313 -0.025737379 0.083393484 0.04921316 0.00217966 -0.044957917 0.06748787 0.015338544 -0.004737816 -0.050009765 0.07555585 0.030747918 -0.047151856 0.07173347 -0.00021460652 0.009556886 -0.00238375 0.090173185 0.015893653 0.05225745 -0.013047561 -0.0034432318 -0.031243496 0.0734364 0.047597595 0.05454351 -0.039530985 0.01255263 -0.059314325 -0.039719053 -0.008563287 -0.09336281 -0.032857776 0.10042177 -0.055390865 0.048707634 0.063417114 0.0017051892 0.034530956 0.089348 0.06072884 -0.083293416 -0.00063811336 0.02242488 -0.04757209 -0.0020746067 0.07628029 -0.10106567 0.02975209 -0.063042104 0.03226381 0.0014281468 -0.014400186 0.06440841 -0.08131534 -0.020604558 -0.096847095 0.07161679 0.08367935 0.064960495 -0.10489388 0.027967958 0.06560054 -0.04327122 -0.10319904 0.039168395 -0.08096572 0.0066150213 -0.0043814722 -0.009197887 -0.007897588 0.0586838 0.018488672 0.10236891 0.009720444 -0.09796975 -0.012580698 -0.052216034 0.08458826 -0.102208234 0.070630044 -0.08865219 -0.043467887 0.015067036 0.022793792 -0.074687086 -0.030208644 -0.08906309 0.033221193 0.09066124 -0.008290562 0.092762396 0.0676678 0.034103867 0.08536727 0.035781063 -0.0025193412 -0.076810546 0.026715402 0.050767217 -0.0748172 0.025061216 -0.019290261 0.028534818 -0.007820119 0.020463903 0.036700547 -0.050202735 -0.041718766 -0.07730458 -0.08651681 -0.09410357 0.050678305 0.06987027
1217 0.024859536 0.043369494 0.0604224 0.092159465 -0.052984152 0.037450098 -0.090825304 0.03581977 -0.011661442 0.0077749137 -0.011616879 0.011501608 0.07634491 0.002274637 0.07259129 -0.009209108 0.07580703 0.07636102 -0.054393105 -0.034060474 0.092268154 0.003161856 0.045661345 -0.05860265 0.06232867 0.03646431 -0.101000376 0.06939347 -0.07529659 -0.04956241 0.07411737 0.0023234393 -0.038301077 0.0016302988 0.008724332 -0.093902275 0.02009272 0.0038443897 0.012189916 0.049932837 0.022799298 0.015812218 -0.017385852 0.040199716 0.013431389 -0.10033615 -0.05813428 -0.000117833726 0.0014099348 0.07029203 0.04986852 -0.08906197 0.007954195 0.060676396 0.015246109 -0.01901144 -0.023544513 0.059898637 -0.073648095 -0.02335101 0.068184 -0.06729424 0.08312914 -0.030197497 0.009864804 0.066185035 0.084875904 0.09600545 -0.021256914 -0.10368004 -0.038200915 0.033369526 0.0400297 0.07083643 -0.050156336 -0.06713208 0.100230716 -0.0464433 -0.093697436 0.07006055 -0.07249226 -0.09196002 0.010982776 0.044976022 -0.046395484 -0.005975618 0.007232165 0.041320078 0.00691761 -0.05897938 -0.06248465 -0.057276823 0.06514986 -0.019076914 0.02743375 -0.0014131991 -0.09318825 0.073905155 -0.0036080396 0.0031006215 -0.0026982743 0.011638641 -0.00036453735 0.003813616 0.07882077 -0.0069702007 0.10342305 0.06690157 -0.017035613 0.08812211 -0.05398537 -0.0627502 0.10155283 0.07263195 -0.0780279 0.01763475 -0.074561924 0.04538499 -0.03936496 0.09328781 0.0012458181 -0.024089228 -0.027744163 -0.076557346 -0.08601924 -0.06938937 0.061623413 0.08144881
555 -0.02614798 0.07320323 -0.032135386 0.072434574 0.033232242 0.10329453 0.0133526595 0.07108622 0.07959412 0.078586236 -0.031227496 0.07800834 0.06399897 -0.0567803 0.10096087 -0.10419475 0.020502614 0.02020631 -0.06925858 -0.06696461 0.026344586 0.10187693 0.08191346 0.010701247 0.059867702 0.10077668 -0.054382205 0.030944746 -0.036695477 -0.0688984 0.05015994 0.035498194 0.026389044 0.08446158 -0.05012894 -0.1028015 0.02053747 0.022570493 0.08020104 0.04254879 -0.013111208 0.03714627 0.0046178093 -0.018450804 -0.029258419 -0.10307142 -0.06898355 0.015774172 -0.05554097 0.100382075 0.010141272 -0.039341863 0.0186962 0.096184395 0.08546153 0.0011625821 0.065480426 0.014557107 0.033313688 -0.04206261 0.013278837 0.0022250954 0.017846469 -0.034280643 0.039156463 0.06349308 0.10312265 -0.023792148 -0.0183421 0.0046838224 -0.020987105 0.088658 0.052932568 0.1033724 -0.087406375 -0.014491655 0.10400526 -0.0181721 -0.016956 0.052716676 -0.067447565 -0.07692606 -0.08776331 0.020763207 -0.016249444 0.04686706 0.05508303 -0.0021200133 -0.07777944 -0.0106780995 -0.012281508 -0.01627608 0.05425255 0.009017816 -0.0299865 -0.020042174 -0.025168587 0.10072943 0.06704892 -0.04844746 -0.06969539 -0.0044594863 0.04921939 0.06444319 0.023723427 0.015610568 -0.0033087684 0.09982094 0.08059258 0.00815545 -0.08368822 -0.08312456 0.084735096 -0.026789509 -0.038954876 0.0831037 -0.0787885 -0.004496351 -0.0791157 -0.0074218754 0.033514842 -0.08728251 -0.0014844052 -0.03694868 0.015213649 -0.03137233 0.036342096 0.0932774
554 -0.10398 0.09188499 0.07942967 0.07486815 -0.085988276 -0.010052294 -0.10318504 0.10434779 0.059786946 0.10521885 -0.09119654 0.005050257 0.034068123 -0.057601396 0.0996538 -0.04252315 0.087910615 -0.022249265 -0.043584824 -0.07529176 0.08312315 0.037746888 0.06984632 -0.048397444 0.07350282 0.015449452 0.034834094 0.07403778 -0.06839344 0.008362973 0.012852973 0.023748958 0.009203607 0.072841085 -0.054520417 0.00047455542 -0.064528346 0.017732833 0.020755218 0.05697839 -0.014896935 0.10135026 -0.02263979 -0.0017143553 -0.10263156 -0.06625315 -0.08117075 0.028699014 0.0001439564 0.054492533 -0.013728941 -0.013986328 0.07043653 0.08053827 0.045329638 -0.075396076 -0.018928595 0.06614889 -0.05824644 -0.061908484 0.09918216 0.013662493 -0.0021987427 -0.10348626 0.030987121 0.09089002 0.10011183 0.087532766 -0.037259977 -0.08729697 -0.06589798 0.05936727 0.05235587 0.06967209 -0.09954261 -0.039223533 0.06400028 0.018680444 -0.0871125 -0.010650751 -0.0060672034 0.011087443 -0.06459914 0.0951739 -0.08040199 0.09358746 0.033064846 0.057154663 -0.08145553 -0.047742307 -0.001615542 -0.09152446 0.068578534 0.0037668077 0.0696418 -0.095235616 -0.09550471 -0.004325047 0.004742739 -0.045517497 0.03461498 0.013184306 0.09540518 0.0014566053 -0.008229158 -0.012589028 -0.032334637 0.072003506 0.071444385 0.04856979 -0.055559568 0.0071286783 0.055225324 0.092191204 0.016391652 0.074218884 -0.085908644 0.039181303 -0.0031691808 0.09206277 0.0932658 -0.037243962 -0.0027511176 -0.0529858 -0.08765408 -0.082477026 0.046803474 0.04096149
557 0.00091605354 0.018265342 0.09203158 0.0058263065 -0.06153481 0.057016872 -0.0615308 0.09424277 0.0354301 0.038797785 -0.04600507 0.07480939 0.07270637 -0.0929809 0.08098927 -0.06745267 0.04766343 0.069585405 -0.08784084 -0.0613811 0.047235843 0.060792983 0.0152206775 -0.10092823 0.05671031 0.034407675 0.011467419 0.022455508 -0.10065801 -0.023521129 -0.0014039343 0.059349075 -0.017265603 0.026484221 -0.036880814 -0.057109423 0.022615742 -0.0079251975 0.030073917 0.011182283 0.03454488 0.05933567 -0.014342882 0.028470932 -0.06872593 -0.07416325 -0.031378232 0.0191463 0.0010545254 0.064989336 0.058503084 -0.09018504 0.028302528 -0.034217604 0.04824633 -0.021300767 0.016011145 -0.0064467434 0.0059056617 -0.0940957 -0.005860393 0.009193277 -0.016507752 0.0032837028 0.04540749 0.08115665 0.05131274 -0.027268395 -0.05721876 -0.0450376 -0.090202466 0.09472245 0.06302862 0.015689481 -0.08716306 0.014638905 0.056861617 -0.059121836 -0.09389517 0.07648511 -0.03113947 -0.095261976 -0.062126033 0.09072904 0.01699616 -0.012503057 0.045657724 0.034153868 -0.05075382 -0.05367557 -0.10210865 0.01356886 -0.0064639766 -0.10147107 0.09635362 -0.003623859 -0.03541801 0.04857458 0.068567365 -0.0040563056 0.017552642 -0.03169992 0.07174582 0.04916004 0.05674776 0.032960292 0.03513905 -0.006827973 0.10060386 0.03257313 0.000611051 -0.045553263 -0.03492563 0.08859265 0.06622705 0.09669257 -0.033693325 0.0697262 -0.029753875 0.013676611 0.045124058 -0.038568214 -0.06880647 -0.08402239 0.013191331 -0.004247983 0.033424795 0.069332756
556 0.01638459 0.06838818 0.0037208023 0.049182802 -0.04441751 0.0075061666 -0.032843173 0.07897792 -6.796047e-05 0.09558268 -0.0647071 -0.015289581 0.010095382 -0.007241926 0.09656448 -0.060387634 0.0053899353 0.097429685 -0.049053904 -0.095098466 -0.0324147 0.07291042 0.047433216 -0.104524955 0.09450957 0.025536984 -0.054818504 0.061396066 -0.094252765 -0.10219977 -0.0019836267 0.07338592 -0.0592198 -0.01035042 -0.07305929 -0.05101973 -0.096085966 0.101577856 0.01725696 0.06344238 -0.07796915 0.08667338 -0.09659486 0.10111279 -0.104045525 -0.044545293 -0.00692378 0.06891409 -0.06516697 0.10377701 0.07446464 -0.0759161 0.035599176 0.101435624 0.08099038 -0.09772374 0.08946888 0.09357366 0.028756943 -0.0601135 0.09474279 -0.090550296 0.03597692 -0.04770999 0.024570607 0.018254694 0.09136452 -0.0025809119 -0.05794335 -0.03188722 -0.056633946 0.029809866 0.05870042 0.08492265 -0.10494458 -0.017943678 0.068843864 -0.090853825 -0.0623367 0.027466634 0.0027241362 -0.017858354 -0.028671665 0.026969638 -0.09524345 0.018591527 0.080434345 0.077512324 -0.035695605 -0.0389266 0.0029417137 -0.07248052 -0.016253445 -0.07830516 -0.0037042648 -0.09861635 -0.07914846 -0.02540426 -0.010389429 -0.08145541 0.010563968 -0.038120277 0.03824366 -0.032647394 0.10348063 0.07423636 0.062342867 0.071545035 0.09588663 0.0406231 -0.04928042 -0.103261806 0.012671175 -0.026851524 0.07478837 0.08084729 -0.091177195 0.050088 0.0040792506 0.019745842 0.06988135 -0.020544 -0.06749845 0.012157003 -0.0050348938 -0.05039206 0.09227286 0.06627003
551 -0.06442011 0.0003218744 0.044823617 0.09860353 -0.10170744 0.08490416 -0.066279724 -0.007461656 0.029686809 0.068972036 -0.05291663 -0.00423391 -0.016972065 0.00692737 0.00023937318 -0.0897219 -0.011599552 0.0931195 0.015407111 -0.013323304 0.0049621677 0.024150908 0.0335772 -0.09822739 0.029976346 0.04724526 -0.08332749 0.0676224 -0.08929683 -0.0718711 -0.010155013 0.051030874 -0.07810905 0.025585841 -0.09159328 -0.02421637 -0.06892166 0.08036716 0.064220764 -0.01666252 -0.06605142 0.101942144 -0.06301179 0.021971341 -0.010490196 -0.058690593 0.029125273 0.09369676 -0.065336294 0.0963091 -0.015954763 -0.07058392 0.052241337 0.09936105 0.089910425 0.0013136715 0.018834975 -0.000675858 -0.09355518 -0.08154257 0.075205445 -0.10132311 0.10355959 -0.07515232 0.020303853 0.009144669 0.05220766 0.057861507 -0.013790406 0.018031778 -0.07205599 0.08544983 0.10022794 0.0076943217 -0.0012545297 0.010010493 0.0846461 0.003459745 -0.0067470605 0.025534455 0.013160313 -0.06459734 0.007082523 0.00848926 -0.048089474 0.07150758 0.018466385 0.073520154 -0.07773528 0.009823624 -0.06825076 -0.025759418 0.072719105 -0.09359611 0.101931855 -0.042561207 -0.04033825 -0.017714635 0.021554407 -0.057322208 -0.10251004 -0.07976815 0.005195436 0.044503514 0.085757226 -0.035201628 0.02663208 0.016485818 0.029169973 0.030940037 -0.0851659 0.023113795 0.018486723 0.07906455 -0.031558648 0.06735248 -0.09771295 0.025199749 -0.008563598 0.08107783 0.048488587 -0.031231973 -0.01594174 -0.0015485855 -0.082563624 0.0048884675 0.09054066 0.10044507
550 -0.085284896 0.067486495 0.064552225 0.089219086 0.01166235 0.06741559 0.0008070944 0.005439941 -0.015311537 -0.009273273 -0.010415448 0.04735292 0.066918164 -0.0039874623 -0.013573991 -0.023510063 -0.020406118 -0.023856744 -0.0994629 -0.025081063 0.078971475 0.016735896 0.07823716 -0.060214825 0.0046239085 0.10049796 -0.0012415061 0.060593534 -0.09034939 -0.07738152 0.042320035 0.066432744 -0.08081572 0.009617194 0.012988323 -0.009137233 0.040825337 0.022694089 0.03194329 0.098423146 -0.050488308 0.015190604 -0.008896454 0.055932365 -0.064854525 0.007159573 0.004779811 0.06557442 0.007476812 0.06677454 0.024878189 -0.006573842 0.02767091 0.0021395143 0.038621917 -0.1048553 0.003799025 0.09993103 -0.015534158 -0.008781893 0.009148994 -0.07354496 0.0638381 -0.05049225 0.08904878 0.039195925 0.010312689 0.09370372 -0.006004432 0.07304873 -0.04169575 0.029109817 0.06014254 0.01953312 -0.062083762 0.01565412 0.044349022 0.024567505 -0.020043124 0.09061471 -0.07157275 -0.03584634 -0.063966766 0.010527983 -0.0532589 0.103688054 0.026152134 0.05519487 -0.0050941464 -0.0104520265 -0.022859043 0.013648502 0.059778906 -0.02072713 0.07386028 -0.094917715 -0.034865733 0.094710335 0.0697021 -0.090276964 -0.049452912 -0.059014134 0.09615343 0.077148035 0.096617766 0.075252816 0.023750264 0.07709882 0.0275224 0.10337335 0.009705973 -0.05437672 0.0041106017 0.056367766 -0.052953057 0.041840807 -0.0901798 0.04446426 -0.06372467 0.01688334 0.07852071 -0.030365385 -0.1024658 -0.031204764 -0.080749504 -0.09403045 0.08414268 -0.015480625
553 -0.006247443 0.01420424 0.10412377 0.0632773 -0.08040928 0.0534695 -0.054599486 0.023001112 0.07921765 0.05550876 -0.05117813 -0.012687437 0.01764023 -0.034888707 0.006595116 -0.048989043 0.08509598 0.08405955 -0.0962061 -0.009017526 -0.0077443765 0.081950635 0.082508095 -0.017036967 -0.00069022644 -0.0075706076 -0.027518807 0.043172512 0.009699282 0.0033471119 0.036125895 0.05359435 -0.0716555 0.04520352 0.009851806 -0.026176713 -0.002636937 0.08087392 -0.0066034924 -0.0050433045 -0.06337745 -0.0055112895 -0.100531615 -0.03562447 -0.028587293 -0.06696469 -0.10447488 -0.014495368 -0.049043514 0.047900222 0.091011815 -0.0343405 -0.003660352 0.027158145 0.008118951 -0.029475179 0.05391482 -0.009594909 -0.024755783 0.011252497 0.03314002 -0.10508686 0.04968951 -0.083172895 0.026511338 -0.0061439546 0.013138122 0.05693214 -0.04764521 -0.006497965 -0.08565009 0.08952332 0.04641325 -0.0017215172 -0.04828629 -0.10243681 0.019063547 -0.0959701 -0.08196246 0.008308137 -0.07752512 -0.075573534 -0.07255377 0.09071357 -0.033799283 0.052526146 -0.0091827335 0.020299707 -0.07841324 -0.09794615 -0.04859966 -0.018288452 0.00989346 -0.04995529 0.05738438 -0.07883432 -0.017716063 0.08347309 -0.00044326484 0.010703816 -0.088301755 -0.03930232 0.10107833 0.05785008 0.07294636 0.08798812 0.02541842 -0.00599082 0.06658276 0.083074726 -0.074778885 -0.0046208967 0.08466648 0.044847034 -0.058171157 0.07611324 -0.074054345 0.0139143765 0.031249382 0.089279525 0.05627679 -0.060357545 -0.011662823 -0.09219709 -0.07280995 -0.031371742 0.044377774 0.07181835
552 -0.08425838 -0.0009472929 0.011980392 0.08473942 -0.053184204 0.090259746 -0.020713266 0.014170862 0.03757875 0.060125787 -0.01651046 0.04374167 -0.0067386655 -0.07538796 0.025247205 -0.06251421 0.0071847644 -0.016768355 -0.09901574 0.014864319 0.098965116 0.012400764 0.081813574 -0.038664937 0.07609175 0.046751484 -0.017813012 0.065753885 -0.0005759867 -0.10019944 0.016724247 0.020812657 -0.07685048 0.0034782225 -0.05738756 -0.08006842 -0.09550303 -0.014718867 0.0806822 0.09051601 -0.019063286 0.070582904 -0.026075395 0.049871877 -0.03709201 -0.06294535 -0.09123383 0.057970047 -0.03098121 -0.0078021 -0.0051197363 -0.059868142 0.03672479 -0.029259967 -0.0043361066 -0.068886355 0.054111302 0.0076156314 -0.079787776 -0.10575573 0.06987917 -0.06372543 0.054421812 -0.044782102 0.10387095 -0.023353364 0.0515646 0.059246697 -0.00063541904 0.06925398 -0.011521259 0.078219175 0.06702857 0.035241544 -0.085962445 -0.036679562 0.022106018 -0.047363706 -0.012050395 -0.0016847644 -0.1033547 -0.05705866 0.008335724 0.012532862 0.024691405 0.019068666 0.010403343 0.07325883 -0.09468843 -0.073591195 -0.05950683 0.006539234 0.102645166 -0.052845746 0.083495095 -0.05386671 -0.094082005 0.025478866 -0.011701609 -0.09736514 -0.031731915 -0.04134372 -0.015784442 0.06252172 0.09568277 0.09543183 0.0063233636 0.05429885 0.07657395 0.08244451 -0.020316675 -0.020400831 0.018541722 0.100149915 -0.076878324 0.1045605 -0.06376886 0.10528161 -0.022878926 0.026964985 0.05599024 -0.056209862 -0.10258456 -0.024608536 0.00883166 -0.02947016 0.035784736 0.044745907
