709 128
199 0.02349681 0.01508558 -0.07099 0.054098092 -0.025252562 0.08669322 0.017629039 -0.038082294 -0.09924492 -0.085267745 -0.094561055 -0.086115226 -0.016049422 0.09137477 0.09529306 -0.036289122 -0.045045324 0.059979845 -0.014879008 -0.08607862 0.067444235 -0.0035479525 0.02056665 -0.0850041 -0.0026678704 0.061854802 -0.012112058 -0.08103145 -0.013934438 -0.109079555 0.022476261 0.0028771674 0.047473796 0.016728394 -0.11524929 0.0064868005 -0.0074743815 -0.040754225 -0.041089825 0.011806725 0.08301456 0.011443731 0.020680856 -0.10529196 0.032103516 0.027382754 -0.018254545 -0.005274182 0.056941584 -0.08540207 -0.09823967 -0.024534531 -0.04757283 0.0498344 0.072070174 -0.04164945 0.020513475 0.046490103 0.07357308 0.098045245 0.07353008 0.099911876 -0.029599387 -0.027672336 -0.069237344 0.088490024 0.07499851 -0.12694936 -0.007371879 -0.09294454 0.08844832 0.111420944 0.0074429465 0.06326312 -0.112216786 -0.078843966 -0.022641579 -0.10947108 0.07120884 -0.044072866 -0.050430126 -0.020102981 -0.12133187 0.050277077 0.07960236 0.102626674 0.097254485 0.027879458 0.12769002 -0.046007678 -0.06339574 -0.067720465 0.021135751 0.020720907 0.01903639 -0.0334562 0.07869744 -0.023431875 0.025372721 -0.009318341 0.0121375 0.015651355 0.03577688 -0.0331927 0.016793735 -0.08847089 -0.12792955 0.016627269 -0.05004239 -0.09353724 0.10271247 0.09490265 -0.010436119 -0.019516159 0.06556784 0.034239523 -0.118917696 -0.07573116 0.01500241 -0.12561312 -0.077644184 0.010006626 0.009202655 0.020905757 -0.07188463 0.0032081325 0.09154412 0.011194565
198 -0.029317476 -0.073222496 -0.012242342 0.023910131 0.059718437 0.117042534 0.11766619 0.05596459 0.010084573 -0.083850056 -0.06494277 -0.08241763 -0.12348583 -0.0081828 -0.029317174 0.060746863 -0.05096009 0.074172504 -0.0182761 -0.025956098 -0.017736174 -0.0046047214 0.06160114 -0.032282542 1.7882325e-05 0.04576711 -0.104708284 -0.02812241 -0.03800789 -0.060746733 -0.08036185 -0.0027108341 0.005485112 -0.014230876 -0.00027214363 0.029766073 0.04303082 -0.031877495 -0.10510245 -0.048785083 0.12053378 0.061172053 -0.12867628 -0.012796333 -0.03987588 0.009899558 -0.13161977 -0.12953468 0.06562884 0.0536878 -0.07568407 0.09844986 0.007547049 0.07111037 0.0011982592 -0.070318155 -0.0035353648 0.04668932 0.05569661 0.059307124 0.12013441 0.111296184 0.03989455 0.05732481 -0.079432845 0.034749568 -0.034699637 -0.052907653 0.025804736 -0.01440845 -0.0044047944 0.0765039 0.05061201 0.10074294 -0.08390473 -0.09437255 -0.033136256 -0.05561894 -0.0034837276 0.019091114 -0.034875736 -0.032153517 -0.07723684 0.080037504 0.09555621 0.005960026 0.06610004 0.024012182 -0.032407288 -0.054406017 0.037881453 0.013933913 -0.00036744028 -0.015867472 0.07751655 0.08226382 -0.0315364 0.1297716 -0.004323395 0.015398984 -0.096252896 0.048384257 -0.09485429 -0.0036790064 -0.036842305 -0.07396898 -0.049419425 0.07093321 -0.08586271 -0.020932889 0.058754586 0.06056965 -0.03147465 0.13066591 0.023588538 0.035265666 0.025266878 -0.06330423 0.008642923 0.029401418 -0.00014025159 0.03808855 -0.0020007156 -0.12145808 -0.12367089 0.008521427 0.04994643 0.002625485
344 -0.016692769 -0.014396933 -0.106702924 0.10788798 0.081090964 0.07948075 0.06950894 0.042740766 0.02887859 -6.508548e-05 -0.08021342 0.00059964135 -0.06372037 -0.032654375 0.01390253 0.022801133 -0.030952921 0.08228172 -0.08512228 -0.06465523 0.071740285 0.02737295 -0.03598919 -0.00095004216 0.08850376 0.12609059 -0.045924302 0.028987233 -0.057836257 0.0017858036 -0.04793051 0.04976678 0.08200804 0.034250386 -0.09944833 0.017942186 0.053314857 -0.04337939 -0.11634727 0.03214552 0.011354039 -0.08428389 -0.05328836 -0.052520152 0.0062768385 0.112801135 -0.07235126 0.028053926 0.01915393 -0.08220516 -0.022626195 -0.018458635 0.008116569 0.013261773 0.030714788 -0.08195701 -8.670613e-05 0.042315457 0.08459038 -0.023704916 0.08944317 0.063740045 0.073365815 0.10879223 -0.10141734 -0.026349207 0.086398214 -0.13046667 -0.047801986 -0.07629731 0.036352146 0.1071106 -0.08116471 0.016106531 -0.12132877 -0.06666756 0.028578151 0.01041706 0.105170846 -0.09037916 -0.079374894 -0.035885297 -0.10001285 0.050559837 0.021315696 0.10401546 -0.0027334979 0.0051362896 0.10482039 -0.037740972 0.023251884 -0.12770416 0.08373516 0.029048234 -0.028476 0.10100677 0.07514402 0.098124854 0.074835844 0.11511356 -0.02667635 0.0077325897 -0.061282035 -0.02390826 0.024182562 0.0062597645 -0.013837717 0.0011775186 0.002600276 -0.100860104 0.08572097 0.033067957 0.015701383 -0.0019573597 0.10224382 0.022199221 -0.060172617 -0.04986029 -0.00818594 0.0143708 -0.10807263 -0.08754075 0.092684425 -0.034635708 -0.012312677 0.046730317 0.09507974 -0.00060225744
0 -0.027404483 -0.051455677 0.030176815 -0.012338929 0.0011488132 0.08932219 -0.019008407 0.07213606 -0.015309003 -0.11694666 -0.06965883 -0.016763018 -0.020477425 0.06583983 -0.017711438 0.032405723 -0.06231584 0.06237922 -0.12089616 -0.07202671 0.08708493 -0.081019744 -0.06715125 -0.088219665 0.0527033 -0.005176265 -0.08413613 -0.0840596 -0.0067441044 -0.0499027 -0.10587298 -0.02769113 0.062142417 -0.08592394 -0.05882076 -0.06741447 -0.042271636 -0.06842548 -0.09613984 -0.0930381 0.008603171 -0.12029004 0.007182578 -0.034832846 0.01248774 -0.03404212 -0.051011063 0.014345235 -0.02269582 -0.050759967 0.016418254 0.06556295 -0.010912167 0.06702213 0.06562017 -0.053280875 -0.069872 -0.00013943971 -0.041316606 0.007454756 0.05541311 0.07458609 0.03528355 -0.037642956 0.016253356 0.06206245 0.075226925 -0.117538705 -0.103836566 -0.09252165 0.024544481 0.116327934 -0.06160625 0.0865644 -0.08558786 -0.014852662 -0.025661029 -0.0023624988 0.06412836 -0.06723409 0.015202997 0.06367949 -0.11204986 0.090928584 0.106061034 0.073490046 -0.01836134 -0.028055709 0.022960758 -0.022191454 -0.08097912 -0.02512994 0.05527356 0.023550197 0.04047266 0.021584814 -0.02820523 0.055041555 0.08237344 0.10964194 -0.10594727 0.06325645 -0.024151767 0.013786038 -0.06845903 -0.04856737 -0.09396561 0.114686005 0.03976138 -0.075941116 0.069929086 0.09166806 -0.11661343 0.01637092 0.07356388 -0.10690064 -0.05441997 -0.06728544 -0.1085502 -0.075141676 -0.08409953 -0.05661123 0.09757421 -0.009236771 -0.07802511 0.045124788 0.026779674 0.015331481
346 -0.033347968 -0.08911173 0.026229164 0.037076533 0.05687359 0.0033634016 -0.018188152 0.10211481 -0.06921407 -0.016343974 -0.021191545 -0.010525224 -0.10699867 -0.0024967287 -0.013970557 0.07341213 -0.058885552 0.11723523 0.008411828 -0.057002902 -0.021495327 0.02561913 -0.04176518 -0.06711109 -0.028431997 0.092767164 -0.08652747 -0.035479426 -0.09651379 -0.00763514 -0.093774095 0.12758127 0.0045383275 0.010231597 0.029193494 -0.0710187 0.091137394 -0.042860225 -0.08722841 -0.107289515 0.07546601 -0.015801694 -0.008008906 -0.09918579 -0.019034203 0.018979242 -0.078750215 -0.05168591 0.017666098 -0.04888844 -0.04434243 -0.012976929 -0.051206794 -0.012015856 0.061900288 0.0033543222 0.017303146 0.11038298 -0.091802634 0.020426374 0.034392994 -0.03213782 0.014487915 0.03538714 0.012472448 0.011223157 0.12715697 -0.12040349 -0.010438408 -0.04450552 0.112835325 0.07332614 0.021587566 0.1136266 -0.0037054922 0.022884684 0.04969288 -0.049504615 0.082743086 -0.013196694 -0.112904094 0.041686755 0.02850804 -0.016657226 0.010438769 0.0058700107 0.06097503 0.08898523 0.06371582 -0.10274616 -0.017733917 -0.10223595 0.010937539 0.011766303 0.027953302 0.12000604 -0.026835162 0.046860795 -0.029997611 0.02190619 -0.031974558 0.013980069 -0.10020726 -0.083085895 -0.076941684 -0.06018798 -0.10818437 0.09413674 -0.10647906 -0.089010805 -0.02092696 0.040306397 -0.107504174 0.104278244 0.1210398 -0.045722246 -0.109327175 -0.09318966 -0.090778016 -0.12870744 0.022353549 -0.09633786 0.06007357 -0.07090246 -0.010987238 0.095187485 0.085643195 -0.026186883
347 0.08372148 -0.104614034 -0.015116832 0.024395095 -0.002024386 0.02557242 0.0026418525 0.00075650495 0.010758063 0.00038916012 -0.032133486 0.017092021 -0.0669268 0.01935469 0.037739694 -0.01422542 -0.044179548 0.11142157 0.0015789156 -0.06787558 -0.026630951 0.014575505 0.0114718415 -0.06824114 0.11254915 -0.058014847 -0.04023501 0.041118316 -0.07756479 -0.047749076 0.033620868 -0.029647728 0.009391307 0.038407125 0.0107904365 0.07886819 -0.026104074 -0.025560383 -0.05692796 -0.01302244 -0.0014607979 0.023344047 0.017556442 0.088946626 0.004430689 0.11377429 -0.03873919 0.027445704 0.040499534 -0.09163351 -0.021435028 -0.030328637 0.030750979 0.038282108 -0.036904052 0.04232798 0.016664347 -0.035946235 0.06579213 0.033074476 -0.058231946 0.08234324 -0.057821553 -0.02038833 -0.025034579 0.013360018 -0.0041850233 -0.05333603 -0.06764662 -0.07215622 -0.008323225 0.06918125 -0.08422887 0.050506864 -0.08124335 -0.016116224 -0.022858933 0.025067491 -0.040505067 -0.053011842 0.0481246 0.08222951 -0.0066253613 -0.028862683 -0.02241944 0.087186165 -0.011765291 0.083934106 -0.03317527 -0.03405872 0.039343763 -0.05836754 0.05357675 0.03842934 0.036090784 -0.03837593 0.08438679 -0.090683125 0.09615282 0.11399832 -0.05335541 0.024264384 -0.05940603 0.0061214045 -0.07843909 -0.051710024 0.0638197 -0.00034691766 -0.099831045 0.078162014 -0.036883205 0.028444072 -0.024086015 0.008926058 0.055525385 0.030051386 0.022637784 0.046047118 0.048563056 0.016385468 -0.08311192 -0.033930626 -0.012923117 -0.03617605 -0.011921022 0.04748392 0.045489643 0.015674634
340 0.11446445 0.011937875 -0.034507066 0.013653936 0.073345765 0.0152112795 0.1265955 0.057908997 -0.10840205 -0.0960391 -0.12352263 -0.123743966 -0.12746538 0.03777028 0.08941752 0.038983967 -0.12145069 0.02115845 -0.03173837 0.010568756 -0.012997799 -0.008068945 -0.043147136 -0.12307962 0.0761667 0.12784111 -0.12986585 -0.11935489 -0.051407363 0.021931078 -0.12488609 -0.014657758 -0.03418 -0.0065340875 -0.09902331 0.004372391 0.09238301 -0.035448566 -0.07976741 0.029329397 0.016184498 -0.104736775 0.02985121 -0.054658644 -0.07366713 0.08783879 -0.03373454 -0.021881038 -0.007933809 0.022369955 -0.011567613 0.09512994 -0.012968086 0.05572507 0.007989672 -0.098109744 -0.02545016 0.03529674 -0.029730009 0.100487344 0.07280576 0.119440615 0.0032874309 0.072544284 0.024116151 0.08903182 -0.0083448235 -0.035690144 -0.041791108 -0.10834731 0.023245083 0.026224889 -0.02011038 0.07562307 -0.07434395 0.02666368 0.0881233 -0.104699716 0.03725647 -0.11361144 0.00844682 -0.014063032 -0.0016608164 0.097575076 -0.012776982 0.034442183 0.016365156 0.09574964 0.082266495 -0.06326318 -0.060436502 -0.109328866 -0.027811285 0.06167907 0.08208099 0.025112763 0.049006402 0.097528666 0.0811298 0.08775688 -0.060601845 0.056695767 -0.07414945 -0.017062366 -0.06258027 -0.014310489 -0.09915866 0.004946227 -0.049507767 -0.046177145 -0.01244346 0.116588645 -0.11634717 0.11606698 0.04836626 -0.123490036 -0.10915416 0.036878906 0.030038452 0.01242598 -0.05736939 -0.06947408 0.0950336 -0.012447448 0.02995425 0.0022209585 0.044281665 -0.07340082
341 0.094069764 -0.014029069 -0.024812836 -0.0037368266 0.04449752 0.04269165 0.031544037 0.03221792 -0.07920896 -0.027295563 0.031863406 -0.07460797 -0.12355026 0.039121397 -0.007217966 0.027851045 -0.0019428972 -0.024396025 -0.08726366 0.005751786 0.06461307 0.0035061184 0.004533165 -0.037313506 0.07158027 0.06636854 0.036705174 0.032054983 0.020185824 -0.02136699 -0.108968094 0.033299882 0.019217476 0.009122405 0.005131528 -0.02124088 -0.030997727 -0.09669634 -0.035107862 -0.032861337 0.114984035 -0.11772755 -0.014474178 -0.0069661783 -0.079450935 0.12691996 -0.009475385 -0.10514703 -0.030004054 -0.10757487 -0.12958302 0.02618324 0.01679184 0.061950203 0.063457295 -0.043884076 0.0038370779 0.05428565 0.08241924 0.034401048 0.09423786 0.06918916 -0.039279215 0.11163255 0.025846304 0.07512828 0.013175369 -0.09792248 -0.026996918 -0.018211463 0.09740092 0.07601291 -1.6954727e-05 0.10150304 -0.083760194 -0.075767785 -0.019585842 0.02930898 0.027780248 -0.083915055 -0.12042235 -0.023763802 -0.07888959 0.09845335 -0.011091294 0.12316264 0.0040556593 0.10825999 0.04542419 -0.048713446 -0.038056206 -0.082558885 0.09258387 -0.0039094305 0.052957 0.033049814 -0.00083381403 0.0504952 0.102649495 0.043668758 -0.0925908 0.06359679 -0.038447876 -0.055480126 -0.03024872 -0.07766116 -0.051215 0.0322181 -0.09933457 -0.11134986 0.019673865 0.037368454 -0.11064559 0.035348732 0.1295825 -0.03729681 0.02152906 -0.04562468 -0.073965035 -0.014365591 -0.043359537 -0.09682344 0.017266933 -0.0539435 -0.017661953 -0.010756071 0.021643247 0.01881643
342 0.016105216 -0.024158904 0.022872034 0.098817885 0.0712281 -0.041882902 0.008266507 0.03270154 -0.07357229 -0.006566068 0.055700198 -0.062099017 -0.017458782 0.081783876 -0.01424819 -0.04764437 0.0029155416 0.0597695 -0.07527524 -0.026667776 0.035788283 -0.040256444 0.04146391 -0.044355545 0.042006236 -0.043570183 0.01972267 0.04182668 0.01689646 -0.039376825 0.0071649337 -0.040872436 -0.042735107 -0.063554905 -0.0709878 -0.030504322 0.033787172 -0.0404068 0.044839595 -0.03150347 -0.033408705 0.038400598 -0.09216329 -0.058165535 -0.022405596 -0.038428906 -0.06604177 -0.05737279 0.03803495 -0.076910734 -0.08632341 0.099619724 -0.103118576 0.106984906 0.046448432 -0.04907626 0.037557613 -0.033357263 0.06607621 0.0856629 0.03210223 0.025179911 -0.023140434 0.10465395 -0.07527494 -0.023563355 -0.062122423 -0.049600355 -0.094867095 -0.07888817 0.073189944 0.009853125 -0.05790468 0.055830058 -0.07037362 -0.056947824 0.0016268147 0.038900487 0.03451163 0.019756876 0.026708879 0.050689466 -0.10336281 0.030927796 0.057330504 -0.013470549 0.07487665 0.02404957 0.010439359 -0.015023902 -0.07477433 -0.029772397 -0.024442706 -0.038082577 0.0037295925 -0.0045227264 0.047023073 -0.020906333 -0.03933169 0.105127715 -0.06196389 -0.012595408 0.012861603 0.09426227 0.0493802 0.053317092 0.05330016 0.025072176 -0.04681141 -0.053311538 -0.04929041 0.06560005 -0.10461297 0.043239456 -0.03522089 -0.05763196 -0.039194044 0.082246155 0.030084074 -0.06698186 0.053569954 -0.04414398 0.09689694 -0.012746024 -0.0016172212 0.034095183 0.04714012 -0.078884676
343 -0.00862572 0.00033369008 -0.022886548 0.04880605 0.060563438 0.023679536 0.12099764 -0.022839254 -0.04675909 -0.12468933 -0.00848411 -0.03529177 0.0025355238 0.0809407 0.0010156315 0.11990258 -0.06761943 0.023056246 -0.123238124 -0.0207383 0.11930972 -0.02330913 -0.0918383 -0.053407956 0.06348495 0.030622065 -0.020482562 -0.053586937 -0.056816783 -0.04807396 0.008741044 0.09346053 0.1161523 -0.04183988 -0.061318234 0.02969756 0.07922512 -0.08848761 -0.10773424 0.037038896 0.026186828 -0.014299601 0.050782822 -0.03228327 -0.06514804 -0.0039059026 -0.07847059 0.034842536 0.0773729 -0.003855465 -0.03297972 0.0037330491 -0.053287588 0.061442595 0.12445553 0.0029255422 -0.07830931 0.056294523 -0.030066902 0.075184 0.0005580373 -0.009750545 -0.0017290153 -0.028980684 -0.08696671 0.043835673 -0.019725632 -0.119043194 -0.041574202 -0.0566555 0.028651772 0.05912254 -0.07212691 0.070809394 -0.1267786 0.036374453 0.03665939 -0.063504286 0.10297421 -0.10080426 -0.034789357 0.09242445 -0.023912959 0.012236221 0.10171025 0.11942927 0.104582146 -0.01727292 -0.020299992 -0.06066688 0.034847185 -0.024358205 -0.018971648 0.07002469 0.016495273 -0.025857255 0.042597443 -0.012509062 -0.038539805 -0.022746673 -0.12067236 0.13039261 0.0079754805 -0.02033676 -0.013458115 0.0075779743 0.020157337 -0.029236725 -0.027655955 -0.095802896 0.07588239 0.012578997 -0.113305435 0.036242563 -0.004050835 -0.12566607 -0.0076768687 -0.07603556 -0.031583592 -0.06329706 -0.1269169 -0.029771352 0.121732764 0.012103756 -0.013477685 0.08271991 0.07916676 -0.018596437
348 -0.019061979 -0.021562874 -0.08187032 0.10051 -0.02148109 0.07996438 0.040419627 0.08992411 -0.09972792 0.0042550014 0.02535469 -0.021044882 -0.0025113886 0.052509747 0.0768311 0.03766673 0.026910089 0.015547937 0.030370092 -0.11284908 0.04150224 0.016730502 -0.011853352 -0.044812918 0.021866405 0.058470957 -0.037852656 -0.038420387 -0.012198187 -0.07497521 -0.12835535 0.010018468 -0.008437883 -0.1214212 -0.07606037 -0.052467503 -0.005345558 -0.0588296 0.015343924 0.0173851 0.039452747 -0.061882406 0.036247894 -0.115481764 -0.05952708 -0.032882147 -0.097329274 -0.047954097 0.10300477 -0.04171956 -0.0012187967 -0.016541384 0.0016837101 0.05893649 0.098307446 0.029065402 -0.021200126 0.07825119 -0.022843875 0.10752276 0.089056745 -0.03518678 0.013106469 0.084531374 -0.05887794 -0.0033818446 0.01723862 -0.002084176 -0.08955428 0.031543843 0.07127213 0.10258499 -0.08964248 0.12780161 0.0016461369 -0.04377955 0.030606832 -0.058961716 0.06948559 -0.08420311 0.013375351 0.00415551 0.022895576 0.107669204 -0.005592026 0.03821443 0.0032297578 0.051420532 0.10445036 -0.04908024 -0.089914344 0.014719439 -0.013840155 0.048807696 0.08418692 0.035126295 0.054121964 0.09939074 0.008369422 -0.000524506 -0.021546917 -0.0044338154 -0.029726654 -0.057621945 0.006418951 -0.0632942 -0.08472283 0.010796668 -0.02826697 -0.10324387 0.09151694 0.017218847 0.026621614 0.0828491 -0.007375585 -0.094396114 -0.012346748 -0.073774874 -0.00040835422 0.0046739187 -0.1088108 -0.083081245 0.040496204 0.02840281 -0.09991526 0.1265608 0.069477715 -0.046057064
349 0.07611063 0.038154833 0.029923981 0.036813624 0.085675664 0.045774862 0.01106423 0.015453866 -0.0973418 -0.019445563 -0.082236454 -0.10028499 -0.03394749 0.0675759 0.009177103 0.10119916 -0.08983338 -0.0022949586 0.00058682635 0.02417161 -0.027567899 -0.01165406 -0.048245803 0.00939578 0.090499826 0.030863531 0.03276354 -0.08443416 -0.0042914413 -0.037230946 -0.05261122 0.059801765 0.043705985 -0.06630156 -0.122678086 0.055402968 0.07370094 -0.018982328 -0.023954188 -0.071264 0.06966536 -0.059914365 -0.108380616 0.032332093 -0.08677851 0.09750672 0.004492255 -0.07997852 -0.03923606 -0.077184424 -0.108272426 0.02806155 -0.049782302 0.06310882 0.033589162 0.024284558 0.020625863 0.015080283 0.031474512 0.07769517 0.026047155 -0.0254942 0.05488409 0.056000605 -0.024739414 0.06565752 -0.0073099434 0.018687053 -0.12223221 0.014913006 0.049502395 -0.03146258 -0.092319876 0.02104095 -0.072027884 -0.009957546 0.004243698 -0.10642488 -0.023599755 -0.100326575 0.018454501 0.12457059 -0.044161342 0.0011132564 0.085491255 0.02751946 0.023681344 0.06819162 0.013903346 0.02859159 0.022079539 -0.0009745052 -0.008432655 -0.023574565 0.09527147 0.09428238 0.04086439 -0.03074825 0.11062879 0.024263712 -0.103373975 0.08101082 -0.042571392 0.037270553 -0.06464783 0.00020233728 -0.05527327 0.06306191 0.032366686 -0.08156037 0.058511287 0.032231163 -0.086059704 0.089234315 -0.03257169 -0.04795879 -0.09503962 -0.0767974 0.03324297 -0.013398048 0.008271749 0.03432176 -0.028240371 -0.09642979 0.015011428 0.09341458 0.061694995 -0.025768256
129 -0.00046539115 -0.04367196 -0.003927134 -0.0379714 0.0016955148 -0.027852602 0.005105724 0.112155505 -0.06767714 -0.03225088 -0.024615064 0.024025194 -0.041201822 0.0061851204 0.044338387 0.015034984 0.02884092 0.010670766 0.015151384 -0.09725401 -0.025616264 0.023210378 0.028075559 -0.024797248 0.057013027 0.11275939 0.032030087 -0.050898846 -0.07507728 -0.042870697 0.039959412 0.0022612158 -0.017534992 -0.084604196 0.032768875 -0.09312155 -0.012220417 -0.07077446 -0.036315076 -0.04147198 0.023416463 -0.07530807 0.031863987 -0.05877308 -0.004063908 0.09711197 0.0014448322 -0.0057297004 0.02572336 -0.070870176 -0.017072134 0.10183564 -0.06376459 0.007341748 0.07956699 -0.027510634 -0.05087514 0.040077683 0.015055267 0.0642094 0.023260811 0.1081447 0.03267159 -0.025497679 0.044820063 0.0057491744 0.06549137 -0.074173845 -0.09558186 -0.04608071 0.027593028 -0.018678566 -0.0026458274 0.017400049 -0.038003758 -0.118926674 0.01841936 0.043848746 -0.009641951 0.014110083 -0.0901459 0.089685716 0.032472413 -0.037346505 -0.02977619 0.033757176 0.060169205 0.012218925 0.06707285 -0.10240083 0.029549574 -0.007847511 0.01970144 -0.0037237913 -0.029116044 -0.027032206 -0.009009514 -0.0031422582 0.06978036 0.036872216 0.03676786 0.06452672 -0.03204869 0.10458359 0.02020392 -0.07292478 0.033344142 0.027385471 -0.06955435 -0.042387776 0.08506488 0.0077099255 -0.10326714 0.09611547 -0.037667383 0.04330674 -0.009169197 -0.014008103 -0.07505433 -0.019105412 -0.057723574 0.0038233234 0.04690201 0.030517621 -0.039386768 0.090222836 0.09155178 0.034315955
619 0.008273634 -0.004815788 -0.06199702 0.01017062 0.07429321 0.01262706 0.03630328 0.002574685 -0.032399803 0.023222728 -0.051795475 -0.11307381 0.015573258 -0.010971901 0.097404316 -0.0073270984 -0.11073719 0.09778191 -0.06481433 -0.016369473 0.05973844 0.032822996 -0.041874714 -0.006086491 0.088127315 -0.034426443 0.03790499 -0.083798446 0.01686097 -0.055887517 -0.081445575 0.05570799 0.11746852 0.025451504 -0.128495 -0.07734388 0.07728957 0.020499717 -0.10610987 -0.08121649 -0.032955207 0.0027729757 -0.04217164 -0.03045011 -0.032987412 0.029104153 -0.11873263 -0.10135709 0.0685181 -0.049499232 0.03128752 0.09637498 0.011875549 0.0679291 0.08565376 -0.019391634 -0.0683381 -0.038365565 0.02483405 0.037912864 0.038829204 0.11727476 -0.02431424 0.017706659 -0.064931914 0.044400305 -0.032929514 -0.0076434202 0.010446105 0.035664074 0.09315501 0.104355626 0.022187598 -0.029331755 -0.08708698 -0.093705624 0.12505725 -0.10904855 0.08592669 -0.048002027 -0.04501498 0.056932677 0.016902842 0.011980791 -0.033432014 0.11111442 0.05901238 -0.0065457793 0.005860674 0.015184826 -0.09366231 0.015808735 0.12252888 0.046737913 -0.0209723 0.033932894 0.013436214 0.07346816 0.05908342 0.046461202 -0.047552075 0.12652688 -0.12035497 -0.11468383 -0.080863446 -0.023762334 -0.05278738 0.097257696 -0.06176375 -0.016087823 0.05182712 0.022825249 -0.0027251942 0.019836022 0.039691895 -0.094963774 0.024931218 -0.057585295 -0.029904854 -0.073621705 -0.08859696 -0.03294745 0.09816835 -0.12837191 -0.10103437 0.1246063 0.021288656 -0.10075812
298 0.072013244 -0.09681055 -0.058563586 0.11687365 0.07833047 0.06562212 0.012666822 0.07097888 -0.07595891 0.003328723 0.03221727 0.03750326 -0.003714051 0.10941916 0.027864803 0.05620347 -0.10381757 -0.024524719 -0.014585899 -0.08396698 0.09841962 -0.09877166 -0.06695217 0.019856654 0.053221613 0.0022796094 -0.06134864 0.012342457 0.010908323 -0.07788807 -0.026284242 0.06772031 0.069274455 -0.11834515 -0.079449885 0.011378885 0.07147497 -0.07142596 0.01082647 -0.12671088 -0.0325642 -0.024526954 -0.0012111906 0.01993124 -0.066746354 0.027917368 -0.063419 0.01226394 0.12799668 -0.100622796 -0.04578345 0.039171036 0.021255532 -0.011201992 -0.003172867 -0.06717536 -0.06309035 -0.026803274 0.018819328 0.101799324 0.07637085 0.037482534 -0.02751049 -0.02730321 -0.088740565 0.0071643637 0.032860216 -0.10709599 0.012681894 -0.07755456 0.05565045 0.013743089 -0.09942456 0.043140348 0.031552948 -0.04025991 0.0089031365 0.015802145 0.0880276 -0.07054382 -0.02692411 0.03417311 -0.0027824687 0.046062313 0.09686768 0.03776344 0.10749566 -0.0238115 0.028025609 0.01830759 0.010673179 -0.05009613 0.086807385 -0.031331867 0.10741121 0.06880294 0.06656315 0.044195484 -0.03386644 0.019091219 -0.102139324 0.07420446 -0.115166605 0.03554663 -0.08146802 0.008007606 0.0010874653 0.034918178 -0.101024054 -0.026921008 0.006107248 0.0964389 -0.113304436 0.12654875 0.09304184 0.037582263 0.004912556 -0.030329285 0.031325873 -0.099683136 0.024431907 0.0043138843 0.060029585 -0.04097342 -0.12879916 0.052205913 0.11149664 -0.013779864
299 0.030969322 -0.0015218314 -0.11902776 -0.0045828 -0.018079583 -0.027621284 0.07252413 0.055054497 -0.09501519 -0.06646148 -0.075188994 0.016040286 -0.041256316 -0.023224633 0.006282109 0.008344978 -0.07307082 0.00197401 -0.038967423 -0.075213484 -0.03295683 -0.07053519 -0.05083804 -0.049184017 0.08723244 0.041050546 0.023731988 -0.101164 -0.042601198 -0.07093737 -0.10204707 0.051234957 0.039593864 -0.05144761 -0.12920702 0.03202219 -0.021057736 -0.020949868 0.026768662 -0.06406006 0.009946827 0.0056886226 -0.036402144 0.03204524 -0.07518343 0.083017655 0.009421162 -0.07699714 -0.0023810863 -0.033739287 0.01670686 0.029738963 -0.102060355 0.10356868 0.06271648 0.012131221 -0.0045674834 0.0021931129 0.017952826 0.09800379 -0.019073594 0.12732379 0.0070868125 0.11544247 0.030634627 0.074295744 -0.0068257917 -0.08026477 0.03203281 -0.05844051 0.107912496 0.11107386 -0.046098024 0.0378464 0.025438808 -0.1064855 0.032110162 -0.002490662 0.10398509 -0.06976076 -0.0057813544 0.04471375 -0.09643864 0.059804164 0.0041316375 -0.0020585144 -0.016825128 0.10384705 0.11447641 -0.08679508 -0.0068256604 -0.08485642 0.041373085 0.08590944 0.103943124 0.09331718 0.06040814 0.105964035 0.061480552 -0.000418609 -0.0092076 0.03992023 -0.11341354 -0.0097517725 -0.07651816 -0.092846416 0.032017708 -0.035696015 -0.03708988 -0.12103396 -0.054078933 0.10568616 -0.012217859 0.105463274 0.11936659 -0.1170508 -0.057069883 -0.09109164 -0.033902146 -0.05026405 -0.07240492 -0.047057703 0.067842275 -0.036064588 -0.068889186 0.11917196 0.12458296 -0.004406265
296 0.045497686 0.012348228 0.0358816 0.06694828 -0.03689348 0.054981656 0.091512136 0.0011603544 0.0048328713 0.018781044 -0.083736636 0.030238036 0.0065647624 -0.00694084 0.05044593 -0.02832244 -0.02014293 0.02950966 -0.034667794 -0.038436595 0.007224855 -0.06578175 0.05928031 -0.0011955956 -0.00084295776 0.09434685 0.027863313 0.023663959 0.03453042 0.02621255 -0.07356965 0.033626698 0.045172647 -0.085486464 -0.11704039 0.038434055 0.097826876 -0.027553475 -0.07042067 -0.04384304 0.03654645 -0.0147484485 -0.005598506 -0.05366697 0.007865225 0.027325971 -0.09827819 -0.09993589 0.05618409 0.027468652 -0.11876322 0.02035091 0.030919738 0.029817875 0.05948083 0.039257474 -0.055892583 0.048296224 0.12251311 0.05433802 -0.015868641 0.029447671 -0.053504128 0.020864647 -0.0061347876 -0.008731048 0.0007097991 -0.009072992 0.036867835 -0.088225216 -0.00057601184 0.025695028 0.04125378 -0.033549126 -0.07201216 -0.123609275 0.05508895 4.690513e-05 -0.029917385 -0.07696138 -0.080792 0.08896441 -0.06824911 -0.023504563 0.034186415 0.0502269 0.1138577 0.06816076 0.09285173 0.00064652227 -0.05850012 0.014342593 0.030485725 -0.011994701 0.027274638 0.069782026 0.09435062 0.0654368 0.09899359 0.07863665 -0.030108985 -0.0006090002 -0.014191364 -0.025840534 0.015132957 -0.031425405 -0.0076033073 -0.0025513107 -0.06266935 -0.04110501 0.08052338 0.07222919 -0.081885226 0.027675942 0.047008697 -0.021940835 -0.11412484 -0.043866828 0.038687833 -0.08194412 -0.11488252 0.035496995 0.05919848 -0.05867021 -0.04485798 0.053511534 -0.0069202827 -0.009049082
297 0.095460325 -0.015971996 -0.07657879 0.09708192 0.0827037 0.027722187 0.013421351 0.004390737 -0.08235406 0.026829306 0.023531357 -0.013683473 0.017602567 0.0006744303 0.03249948 -0.032392163 -0.123141855 0.038232684 -0.0017353315 -0.12964894 0.019705772 -0.07552319 -0.07345452 0.002384711 -0.02838454 0.009106429 0.020309402 -0.043382995 -0.039629895 -0.042222716 -0.0423161 -0.026232041 0.102396846 -0.044991575 0.029332576 0.01848939 -0.0162342 -0.04305935 -0.07615752 0.031445485 0.1260141 -0.063777894 0.0048845364 -0.10395102 -0.10140981 -0.01416579 -0.08692751 0.030777203 0.01171599 -0.04671498 -0.03383387 0.071047634 0.021512747 -0.036702406 -0.01285622 0.040238693 0.0050462624 0.08723319 0.050940923 0.026528414 0.05377408 0.09556212 -0.012448426 0.025131442 0.024960395 0.06934873 0.101910934 0.03364844 -0.032637253 0.009706879 0.04689273 0.036642183 -0.018918693 -0.007824765 -0.08951616 -0.047346193 0.093588896 -0.040127024 0.0005901987 0.035911933 0.009604974 0.08013743 0.004093837 0.1057536 -0.010675485 0.098481536 -0.0337784 -0.03096213 0.123739295 -0.10099195 -0.1219813 -0.08104354 0.08626374 0.043145582 0.0063049393 0.00734404 0.02774838 -0.035895944 0.0027318187 0.030519497 -0.044668518 0.028331298 -0.105087824 0.030665152 -0.0025807004 0.01569549 0.0139214685 0.09982979 0.031592757 -0.042718336 0.083099924 0.034170873 -0.11308813 0.058607172 0.032851826 -0.09240095 -0.008296303 -0.08271129 -0.09261163 -0.035007607 -0.0487263 0.018141147 0.108568 -0.01904872 -0.12323935 0.058994174 -0.036746774 -0.09954126
294 0.08508937 -0.08446091 -0.084377885 0.13043943 0.005199178 0.007158336 0.008253199 -0.038102977 -0.08778155 -0.09621512 0.0008153189 -0.10093656 -0.013934284 0.05910329 0.08808226 0.07483411 0.031394 0.08502847 0.02470189 -0.035207976 0.047642782 -0.11448556 -0.08243669 -0.009518068 0.078348875 0.09711073 -0.04772819 -0.075404935 -0.063279636 0.019653164 0.029392483 0.10896277 -0.027485423 0.030683408 0.03700156 -0.09236092 0.0037026675 0.029523395 -0.053287588 -0.10472327 0.06647921 -0.0024116915 -0.124407165 -0.0013150638 -0.09740536 0.09583212 -0.0054353876 -0.113380075 -0.006126688 -0.015127534 -0.012186803 0.01284291 -0.12269416 0.027498674 0.044288386 -0.039432358 0.014168764 0.09208283 0.103455946 0.078737795 0.060914926 0.0031305365 0.101325996 0.0696021 -0.08447575 0.009123615 -0.033285305 -0.032522812 -0.05137024 -0.079214826 0.010110498 0.021307936 -0.07335584 0.022869602 -0.026731333 -0.056299213 0.010313638 -0.008784444 0.07116932 0.032036737 -0.10729832 0.013929083 -0.09173977 -0.0020319354 0.04187215 -0.008556895 0.07459484 0.003118365 0.030386562 0.024735454 -0.067925096 0.03395626 0.09750551 -0.018005963 -0.035479844 0.10460555 0.100333594 0.05323271 0.046715796 -0.0019314252 -0.03797863 0.06787813 -0.07426073 0.015050667 -0.113795206 -0.07217456 -0.023865033 0.015421736 -0.03809552 -0.12105413 0.005512597 0.07857609 -0.10076525 0.026602458 0.0152816875 0.0002898462 -0.064331904 0.013804047 -0.035626523 -0.03381981 -0.059720237 0.0029212572 0.01449169 0.000976962 -0.11124499 0.06816681 -0.007647102 -0.045790553
295 0.033920806 0.03965321 0.033621475 -0.007730188 -0.027762584 0.06826836 0.06049242 0.025885928 -0.10579153 0.034511097 0.0021978952 -0.036814183 -0.040061865 -0.025777321 0.102070324 0.11252524 -0.114889234 0.043780904 -0.000803506 -0.10957875 -0.031726092 0.031555276 0.031376112 -0.09973593 0.08536066 0.0926709 -0.122412786 -0.036677163 -0.08648388 -0.012212489 0.021417607 0.08604025 0.003476629 -0.036682438 -0.024229854 0.007512102 -0.029722992 -0.020441916 0.014243166 -0.051842757 0.06695642 -0.04762043 -0.10588682 -0.102192335 -0.07534305 0.034764994 -0.07437123 -0.049046453 0.118557505 -0.056495495 -0.10295537 0.0024515213 -0.09058439 -0.014180477 0.077177145 -0.01826635 -0.009911116 0.09138362 0.050102632 -0.012413275 -0.026439672 0.1214953 0.09476961 0.07896823 -0.095241986 0.120805524 0.0023160381 -0.007012843 -0.054269113 -0.10633808 0.022089593 -0.012103407 -0.030086279 0.061442763 -0.08496586 0.00078502204 0.034601748 -0.12077615 0.06176751 0.030466767 -0.013870003 0.011591023 -0.02259862 0.06039017 0.10761753 0.0824986 0.02907589 0.015869655 -0.004010722 -0.05632914 -0.078865066 -0.107064895 -0.031147406 0.11288508 0.061322805 0.10040537 0.07674688 -0.020080194 0.07251197 0.04257497 0.03854575 -0.0005737059 -0.124192126 -0.0842677 -0.104673505 0.004984946 0.0035461774 -0.00160571 -0.008026567 0.028011132 0.010867531 0.08440492 -0.078511946 0.11782002 0.032614954 -0.019225612 -0.08357247 0.036936138 -0.09782182 -0.13012895 -0.06399107 -0.047785476 0.056929316 0.009742732 -0.11380336 0.07405255 0.058667026 -0.090819456
292 0.12818995 -0.043334983 -0.020437773 0.10996891 0.10815038 0.040235844 0.09387663 0.0152358 0.011188859 -0.08674307 -0.12191301 -0.09592004 -0.06817138 -0.01341192 0.07681737 0.12833174 0.03481614 0.1106583 0.013050571 -0.047130294 -0.032883327 -0.022098966 0.010736278 0.008440894 0.121252686 0.10168203 0.016586833 -0.08157027 -0.0018049199 -0.0576127 -0.02044004 0.12733446 0.0059693474 -0.12763627 0.032951623 -0.09029173 0.023051737 -0.12289375 0.03172955 0.014632193 0.043729715 -0.04487807 -0.08821273 -0.09341085 -0.02068089 0.06839436 -0.021517329 0.00028356444 0.103435256 0.03615305 -0.045848887 0.11455166 -0.057484712 -0.011271267 -0.011222769 -0.085763186 0.037186332 -0.01315754 0.016071856 0.1138201 0.069807336 0.076853484 -0.005012282 -0.010639015 0.028846486 -0.0112691885 0.041337192 -0.0949823 -0.12839925 0.035491783 0.113165304 0.05580824 -0.063253514 0.04965708 0.011016617 0.029748432 0.097933 -0.09844243 -0.014890788 -0.064505 -0.022843573 0.0854611 -0.08443406 0.12634356 -0.017282777 -0.025033772 0.055016268 0.11804901 -0.008316909 -0.021770924 -0.07715944 -0.02837537 -0.027489275 0.023184637 -0.0039035426 0.06375744 0.08128712 0.04128276 0.08813153 0.093103625 0.011589184 0.101010144 -0.11612367 -0.034078095 -0.022878699 -0.011333611 -0.060863174 0.079937376 0.028909013 -0.11221875 0.03268039 -0.0286571 -0.001778732 0.08974985 0.027451182 -0.026352981 -0.063487254 -0.014352739 0.011299549 -0.021017626 -0.08331832 -0.10920616 0.09439406 -0.0193083 0.029442143 0.062171545 0.044141937 -0.07986385
293 0.119578816 -0.0893553 -0.013808937 0.09999864 0.02123072 -0.03497722 0.07856717 0.009898518 -0.055435568 0.016952448 0.025381602 -0.0917814 0.0033419887 -0.0071740886 0.12240876 0.07973734 -0.05125909 -0.007408375 -0.025751267 -0.11128501 0.005456052 -0.04871588 -0.013881373 -0.055653784 0.099724375 0.036784932 0.027380459 0.0054357396 -0.12716012 -0.116066955 0.033710793 0.09489752 -0.025812155 0.0072289044 0.010605951 0.040533382 0.09513157 0.018310517 0.036451392 -0.08362176 -0.0033323988 -0.07133682 -0.02212023 0.032175694 -0.027181681 -0.010825477 -0.1117857 0.0053778393 0.09888013 -0.0819232 -0.023852635 -0.038575716 0.02585353 0.09012225 0.033643853 -0.06883449 -0.0008958047 0.0835437 -0.032967955 -0.034867175 0.06612612 0.07803743 -0.03637929 0.112057075 -0.09664883 -0.023787357 -0.024826378 -0.047183312 -0.05493442 -0.08353839 0.121588856 0.028874679 -0.08604033 0.084895745 -0.107741535 0.0065111276 0.1156251 -0.09748073 0.020157706 -0.028639298 -0.10259263 0.054407727 -0.121684425 0.05887577 0.08906956 -0.02916041 0.10088093 0.045658026 -0.0037864158 -0.12449442 -0.09779551 0.03821687 0.0056969933 0.082278386 -0.031557743 0.072754264 0.035767958 0.05989583 0.075495504 0.079330906 -0.056122918 0.074608624 -0.04360948 -0.038998 -0.052662604 -0.07969162 -0.022722539 0.06387495 -0.020750351 0.026350863 0.026785132 -0.034131173 -0.10871339 0.011800452 0.08204819 0.033002693 -0.097188696 0.015166632 -0.07339315 0.035866678 -0.1252156 -0.017473588 0.06970952 0.007682575 -0.09035549 0.05918797 0.075560994 -0.05221013
290 0.059851512 0.004431564 0.011231509 0.08915688 0.0034789857 -0.009163386 -0.050475433 0.076179236 -0.035162326 -0.03205986 0.0075617265 -0.07545319 0.033244714 0.093337774 -0.058981866 0.013861088 -0.101850234 0.06834762 -0.027455693 -0.09652473 0.016471922 0.10748886 -0.036129758 -0.008709637 0.06853969 -0.00053989375 -0.046907753 -0.078086995 -0.041590977 -0.11639867 0.03406253 0.039550547 -0.008881453 -0.0988567 -0.0463149 -0.052359678 0.0076231738 -0.026942711 -0.0661484 0.017507983 0.100999095 0.031102365 -0.09312867 -0.048819937 0.044324186 0.005748613 -0.04211591 -0.063591376 0.09408551 -0.049947333 0.0015597041 0.05236199 0.010179155 0.011640989 0.088016815 -0.05260531 -0.0118873995 -0.020338763 0.03049786 -0.025633542 0.07718759 -0.019874401 -0.023681879 -0.008869449 -0.02238896 0.10343162 0.017398844 -0.09521037 -0.072575755 0.02420316 0.07643795 0.026140708 -0.01635969 0.0444476 0.009093407 -0.05105491 0.08146699 -0.101919636 0.09232182 0.033802208 -0.03675885 -0.040233184 -0.04794869 -0.03324436 0.053317294 0.06912803 0.053213596 0.08480041 0.0638427 -0.060207758 -0.009827674 -0.010024568 -0.012767107 0.054034702 0.11060729 0.08350046 -0.04269148 0.0002684975 0.03936457 -0.0130714625 -0.094143644 0.052144803 -0.04805568 0.09627063 -0.07445855 -0.088100694 -0.0008646343 0.0112584755 0.034014635 -0.00978048 -0.059607156 0.07622984 -0.08121431 0.05801304 0.011487846 -0.07953227 -0.021395765 0.019558895 0.040589504 -0.013382121 -0.0046810736 0.055819854 0.109444834 -0.12191988 0.038269266 0.08865247 0.11419692 -0.041671224
291 0.099680305 -0.0734245 -0.025248282 0.11059943 0.09133202 0.06319362 0.072578125 0.04378442 -0.037145175 -0.004669901 0.031078527 -0.0861309 0.02030106 -0.009926103 0.07096276 0.07728497 -0.016057566 0.07552146 -0.10676971 -0.07238425 0.08370325 -0.11734264 -0.05476289 0.036785282 -0.033263393 0.072005145 -0.073055096 -0.10022756 0.0094000995 0.03138844 -0.11644888 0.03500203 0.043156218 -0.056829456 -0.06221598 -0.06839925 0.00019672257 -0.06283494 -0.0048210095 -0.012297656 0.038736794 -0.045040254 -0.0018360391 -0.09602053 -0.013466264 0.008110128 0.0024808869 0.024846487 -0.008134307 0.0015150541 -0.10351759 0.08150975 0.002759464 0.0059729726 0.040303506 -0.04031769 0.002161561 0.09407687 0.123546034 0.10432269 0.0120434705 -0.039504375 -0.008031085 -0.027240496 0.022902854 0.08339514 -0.031657975 -0.060881797 -0.09198337 -0.056640726 0.022203064 0.059902273 0.020537276 0.06980785 -0.017165294 -0.11840449 0.0626293 -0.029029064 0.09661361 -0.04955968 -0.12415086 0.083421424 -0.037475824 0.04179754 0.10397147 0.11980822 -0.031456955 0.022644075 0.11224022 -0.03736273 -0.02456631 -0.07518244 0.008803217 -0.02300518 0.097975686 -0.0016446128 -0.005589339 -0.00062828 -0.04822091 -0.02697301 -0.07158831 0.037142612 -0.0065640295 0.03672855 -0.11693559 -0.050566524 -0.11763492 0.039724477 -0.03996827 -0.01621661 -0.013495688 0.018657701 -0.11617261 -0.027831927 0.11321123 0.033473358 -0.08887146 0.04770286 -0.054225165 0.020155493 0.025467062 0.0024713576 -0.03279805 0.01238716 -0.039270803 0.1259521 0.021795921 0.012594307
591 0.029396638 0.025396688 -0.122329935 0.09381884 0.043867785 0.09432573 -0.04065424 -0.044194374 -0.09181882 -0.08066358 -0.060600888 -0.061664544 -0.072523184 -0.027623251 -0.020857248 0.10484782 -0.09835037 -0.028837005 0.037131112 -0.0007167291 0.059561227 -0.020207634 -0.03832811 0.022503546 -0.022969551 0.023564864 -0.039668832 -0.09855852 -0.018535893 -0.029337807 0.055581216 -0.022063328 0.06516546 -0.11915306 -0.12141175 0.012086078 0.1187103 -0.06330095 -0.003286037 0.041975223 0.08515795 0.031906016 -0.09247105 0.017178526 0.09211965 0.08154163 -0.088987865 -0.027170785 0.09586777 -0.016791588 -0.10965711 0.042431213 0.0077287764 0.118885845 -0.041148867 -0.077520974 0.026433632 0.039080184 -0.036034357 0.08687392 0.10554344 0.0073671555 0.031405367 0.013767774 -0.006973787 0.039864626 0.008667994 -0.09436683 -0.06455239 -0.053360425 0.08560852 0.048968695 0.039920524 0.05070904 -0.028703481 -0.109887615 0.096539296 -0.0708062 -0.0378166 -0.02379658 -0.037900746 0.07497727 -0.082825996 0.058547046 0.09274493 -0.00365733 0.119371444 0.08747554 0.034922376 0.0020645482 -0.084695846 0.008519074 0.018189728 -0.04085841 0.05748553 0.033767805 0.09306898 0.0423214 0.017609023 0.10782558 -0.09150483 0.107548065 -0.015019556 0.059532825 0.0041008354 -0.02555192 0.030373512 0.01934988 -0.0014453861 0.009737478 0.020875983 0.015679806 -0.028468175 0.024688175 0.03776675 -0.101786 -0.04406984 0.033679627 -0.049104474 -0.06696808 -0.11739657 -0.01755719 -0.019213995 -0.0058401944 -0.026345996 0.073887385 0.11564744 -0.012557965
590 0.11169703 -0.10993926 0.030952226 0.031713963 0.059029333 0.0059585874 -0.08205332 -0.045208804 0.0047052484 -0.053488746 -0.00070399744 0.05105804 0.02474192 0.034887537 -0.038287554 -0.012602653 0.0015748017 0.089078486 -0.05752711 0.035342854 -0.057568155 0.010471255 0.06340077 -0.009766974 0.08770293 -0.06703012 -0.039567754 -0.017280545 -0.11489913 -0.0447898 -0.038278833 0.02813269 -0.008648245 -0.05036588 -0.07562688 0.07270149 0.034789395 -0.04709067 -0.04357123 -0.06503252 0.035376575 -0.031636603 -0.07166236 0.044062536 -0.0353744 -0.008205677 -0.027049791 0.07991003 0.058484744 0.036557566 -0.062563404 0.041288413 0.01917661 0.019391922 -0.030927919 -0.07272401 -0.05894775 -0.055759296 0.039023843 0.018860267 -0.08518864 0.040618796 -0.10243153 0.08180498 -0.03653469 -0.02542655 -0.010477903 0.0016341149 0.04400441 0.054587968 0.055349007 -0.049181666 -0.07019723 0.103304766 -0.009031142 -0.08814624 0.0076777674 0.0871525 -0.0031621335 -0.057374444 0.006372001 0.000959362 -0.049829163 -0.046256017 -0.011897471 0.057321534 -0.034379017 -0.036905766 0.031579804 -0.046868656 -0.044236235 -0.059796892 -0.0484286 -0.00018973369 -0.012040642 -0.02160216 0.114571765 -0.03210035 0.00083450315 0.057461496 -0.07037161 0.092683345 -0.03515261 0.12079835 -0.08795128 0.008536258 0.10662764 -0.040139575 -0.02397644 0.060669046 0.016505424 0.06278643 -0.013147589 0.030014869 0.02231414 -0.040355936 0.051256195 0.034523375 -0.028577892 -0.047528498 0.009117123 -0.02293667 0.010647431 0.023814559 -0.004377639 0.00058989367 0.06680726 -0.09514088
593 0.025018957 0.00096056936 -0.081304066 -0.0017636148 0.10305187 0.03484805 -0.0019288622 0.08863819 -0.075962536 -0.10619374 -0.06113692 -0.0044217594 -0.04293883 0.09242661 0.055663835 0.07240664 -0.040215287 0.07742517 0.018943693 -0.0030831564 0.02657191 -0.11833824 -0.034968704 -0.06116897 0.024370156 0.12012612 0.007978238 0.02102669 -0.056229837 -0.032078017 -0.036100566 0.0954146 0.046915606 0.010714464 -0.069220245 -0.06607373 0.079886496 0.013853543 -0.0047666216 -0.054126095 0.09703804 -0.02972756 -0.09267919 -0.08724132 0.019539421 0.08502071 -0.12866296 -0.0020231428 0.033058193 0.023529263 -0.12926182 0.12898637 -0.07200491 0.07791043 0.03619956 -0.08085393 -0.08615263 0.014825755 0.040415827 0.033202514 0.036722153 0.113709256 -0.014645367 0.036408007 -0.089816056 0.005670566 0.001582358 -0.011562178 -0.09368067 -0.046645127 0.021662887 0.059024528 -0.028271748 -0.02104704 -0.055429827 -0.08124193 -0.0066341106 -0.06009832 0.07163046 -0.10681196 -0.1148706 0.044474084 0.022821674 0.11162481 0.07768005 0.07013116 -0.022477504 0.07577947 0.0047216797 -0.019387905 -0.034644682 0.009477862 -0.023688946 -0.012449901 -0.014699306 -0.008942829 0.061845593 0.093361735 -5.9421174e-05 -0.002579039 0.008812603 0.0052905167 -0.0014902949 0.051904038 -0.09848802 -0.007783436 -0.06529226 -0.020321764 -0.007232393 -0.08576765 -0.009147852 0.026471011 -0.0443989 0.1237463 0.115713395 -0.09051253 -0.12347857 -0.09033275 -0.0075738654 0.0020006057 -0.05669578 -0.01576664 0.11260347 -0.027330738 0.014505954 0.11571949 0.051455446 -0.011685955
592 0.11518114 -0.09500993 -0.0009152936 0.041855216 0.061715268 0.111933306 -0.024638029 0.0053676497 0.0047300095 0.008633309 0.015503215 0.030422408 -0.0414237 0.094706774 -0.019660402 0.1040029 -0.09516617 -0.004728494 -0.058379725 -0.082506515 0.031951923 0.023262851 0.01973956 -0.09833098 -0.00031037442 -0.033231787 -0.065642096 -0.050068833 -0.05056252 -0.06510286 0.032839075 -0.028052088 0.07554359 -0.10376861 -0.05617845 0.0066043297 0.10743657 -0.027087808 0.020877402 -0.05765494 0.067358434 -0.0065309834 -0.07307328 -0.1187282 -0.0812332 0.009571724 -0.06613501 -0.03907794 -0.028985966 -0.12760614 -0.10936528 0.067684606 -0.0002559563 0.0020111538 0.081872895 0.01462482 -0.009550385 0.0661085 0.06898326 0.082895905 0.058291323 0.11621475 0.01949554 -0.027515147 -0.009756759 0.11239209 -0.020943452 -0.08467045 -0.11935433 -0.09008381 0.08277595 0.046192132 -0.060988255 0.075367585 -0.068142444 -0.08847721 0.01050753 -0.12516561 0.09476005 -0.0678426 -0.09256636 0.02643929 -0.08042913 0.049515903 0.033778407 0.026715206 0.072681256 0.09017592 -0.027605545 -0.01611033 -0.11273048 -0.008353623 0.030772153 0.027184982 0.09297887 -0.030268539 0.11294738 0.00061425567 -0.015935365 0.08567324 0.034825407 -0.010177124 0.010745268 -0.055305738 -0.10301613 -0.050917745 -0.088510565 0.0009655198 -0.040463462 -0.07260699 0.03744405 -0.028668206 -0.10266189 -0.004489228 0.049358677 -0.1072483 -0.093324386 -0.004383821 -0.045693662 -0.103320315 -0.1298659 -0.07033993 0.022148922 -0.080341265 -0.11328158 0.0074826432 0.09914088 -0.06526672
595 0.09494757 -0.12571804 -0.04493046 0.07255322 0.031319942 0.07986965 0.06284873 0.10055287 -0.062058106 -0.022649486 -0.040810447 -0.02782467 -0.042057578 0.12942643 0.013818522 0.09268685 -0.07624917 0.027707705 0.021460777 0.024292285 0.057645097 -0.05578589 0.004174387 -0.018816043 0.028957035 0.120661184 -0.12093065 0.018673237 -0.032006126 -0.078175046 -0.0094658695 0.11465761 0.0726947 -0.024208445 -0.101821035 -0.010816639 0.07031605 -0.035920177 -0.09373384 -0.09432623 0.06176257 -0.051796213 -0.009577409 0.02863505 0.023409018 0.044089057 -0.06490624 -0.063750334 -0.02764524 -0.04929343 -0.042661503 0.040078346 0.026222948 -0.037871823 0.06715618 -0.009655887 -0.072723076 0.01421914 0.032767113 0.033778965 0.09042613 0.020355504 -0.012246127 -3.8248487e-05 0.02481436 0.019390691 0.117215194 -0.040422555 -0.004015575 -0.03622049 -0.007571535 0.020942194 -0.012951947 -0.011579637 -0.025975034 -0.067280225 0.040196374 0.0011444455 0.06084571 -0.012841082 0.032314695 -0.008223583 -0.03876015 -0.01601182 0.11117708 0.08454265 0.069904655 0.017626256 -0.012329392 -0.015258104 0.018553674 0.036333494 0.04821915 0.058417007 0.007853588 0.07406303 0.017202295 -0.0035495553 0.08813221 0.11561537 -0.086801626 0.0012547616 -0.030964937 -0.035792988 -0.0027638748 -0.039857395 -0.07484644 0.074006505 -0.010526158 0.032012526 0.033136457 0.12906107 -0.12723683 0.06292266 -0.026246477 -0.09566586 -0.109592795 -0.017161228 -0.018670566 -0.096939266 -0.073250435 -0.04954352 0.035249475 -0.08791171 -0.09830836 0.10343386 0.018431287 -0.08428201
594 0.06520795 -0.11051235 0.03671164 -0.03228961 0.052055746 0.11575785 0.05240883 -0.019423302 -0.057774886 -0.06855469 -0.12961231 -0.035151247 0.031185511 0.004554975 0.078598134 -0.023040025 -0.04551042 0.051983148 -0.023360433 -0.095085934 0.036147885 -0.07540013 -0.025857925 -0.026544224 0.08666997 0.0745964 -0.10082985 -0.09781427 -0.0305692 -0.0008142637 -0.11232134 0.08829089 -0.008127492 -0.018512659 -0.12136609 -0.050167926 0.007978403 -0.0070874235 -0.061964937 -0.070938736 0.07861582 -0.0117687145 0.016608994 -0.09225215 0.007148358 0.034557708 0.011469308 0.036762528 0.030556407 -0.11899503 -0.027082264 0.008213127 0.011823865 0.04878994 0.013760492 -0.07689878 -0.10996128 0.04423566 0.027599253 0.034245424 0.106309205 0.06602358 0.09732835 0.07604912 -0.08685482 0.11038213 -0.0073143486 -0.10772886 -0.08361451 0.0044866866 0.07334902 0.058594353 -0.0066333814 0.056165367 -0.090632826 -0.042160213 0.0667839 0.032082144 0.09856903 0.022163691 -0.07135195 0.07610649 0.003936045 0.04060771 0.111744896 0.033314288 0.063162215 0.10928032 0.026798366 0.0078124767 -0.039352797 -0.09768035 0.08033137 0.011893756 0.06510629 0.06274661 0.07005634 0.0619102 0.091404796 0.10389974 -0.07904065 0.12376393 0.03209135 0.020292012 0.02243415 -0.023578074 -0.038611896 0.083176084 -0.1183774 -0.06637086 0.010680102 0.021325564 -0.034835156 -0.020389145 -0.0139862755 0.03345361 -0.09342807 -0.08024171 -0.067763604 -0.029615572 -0.055685233 -0.034429923 0.010991048 0.03229983 -0.049504302 -0.0012457008 -0.0039037606 -0.031007417
597 0.021440264 0.020121012 -0.08629596 -0.02035885 0.10919694 0.10271453 0.032238614 -0.0029600803 -0.081075035 -0.039465774 -0.10469192 -0.112396464 -0.093166545 0.047487263 0.03924928 0.06437184 -0.016398 0.065463066 -0.06865955 -0.019928936 -0.0015633618 -0.045276698 0.02956263 -0.08221845 -0.033865 0.09353227 -0.043589238 0.007992901 0.021544341 0.035651907 -0.015474578 -0.010818059 -0.013529195 -0.115371644 -0.056527704 0.03374759 0.038936947 -0.07257815 -0.0697365 -0.007215186 0.11411905 0.034329064 0.017556634 -0.09545028 -0.07162895 0.10010362 -0.03559576 -0.027527226 0.072662264 -0.03225092 0.033928286 -0.05251222 0.029641517 0.055347588 -0.038935125 -0.061930962 -0.114655115 0.07559165 0.025345247 0.07832624 0.012272185 -0.026454441 0.057878006 -0.0066434536 -0.051220823 -0.017908864 0.101256646 -0.10024543 -0.11330427 0.0152953565 0.049054008 0.11439828 -0.030436428 -0.025694504 -0.07357861 -0.09805573 0.1143616 0.00652596 0.08868326 -0.023370389 -0.11360532 -0.012681451 -0.0060409 -0.03347 -0.03587813 -0.0045727175 -0.01831955 -0.031221896 -0.02110584 -0.053619936 -0.112616405 -0.033643764 0.10991028 0.04056534 0.07621614 0.1064361 -0.022739649 -0.0040370505 -0.0029768376 0.08898397 -0.07286401 0.10205556 0.013999634 0.038363148 -0.055082463 -0.12016278 -0.093678325 -0.002442127 0.025430845 -0.11607435 0.07376219 0.0009242492 -0.10475558 0.023142297 0.09302048 -0.061079152 0.0076608006 0.019741446 -0.08854187 -0.120561436 -0.09528422 -0.05979217 0.009348694 -0.04433527 -0.08039894 0.06871311 0.0032186294 -0.059437014
596 0.094671205 -0.044480897 -0.02318836 0.10542987 -0.014050399 -0.036168624 0.061272062 0.04765132 0.029776216 0.010353081 -0.024890397 -0.073326424 -0.015847843 -0.036268126 0.08168991 0.02541042 -0.09834702 0.12655526 0.01305028 -0.043637984 0.050896548 -0.049404457 -0.02549059 -0.10344528 0.03260208 -0.025242202 -0.061044823 -0.0068612527 -0.11596081 0.03524355 0.036751628 0.06187707 -0.0061347364 0.0012306022 -0.094888166 -0.072382525 0.098673366 0.010555276 -0.032782044 -0.008642459 0.072470725 -0.12939252 -0.022414159 0.00047218986 -0.047099005 0.112876646 -0.1228285 0.016517064 0.0845877 -0.003687515 -0.092444 -0.015128963 -0.038390808 0.07777814 -0.034398228 0.016554818 -0.12304878 0.017478373 0.07520864 0.093526416 0.10378186 0.09994863 0.09664155 0.072474696 -0.014459515 0.00015970971 0.046751916 -0.09440148 0.01564597 -0.056303088 0.111296445 0.02940522 -0.03875181 0.094220236 -0.013532068 -0.06620482 0.093671635 -0.015460503 0.09731379 -0.0106601985 0.023304764 0.03087823 -0.12136435 -0.013102714 0.033132453 0.011636298 0.08187918 0.09049378 -0.016219057 -0.114711076 -0.088098265 -0.02607609 -0.025082102 0.03960693 0.064769894 -0.015962705 0.029438872 0.06591256 0.029761413 0.081634596 -0.0855657 0.08781594 -0.057010587 -0.06517361 -0.010993178 -0.020189561 -0.07091834 0.11313172 0.005890118 -0.052431148 -0.06081762 0.03950002 -0.0361566 0.0589747 0.044899005 -0.018759942 0.0047512753 -0.06217346 -0.08271593 -0.018713053 -0.065256186 -0.053166956 0.04146311 -0.020668965 -0.06472877 -0.012990128 0.04055336 0.032944713
195 -0.004930138 -0.04851107 -0.063810475 0.11765783 0.030230543 0.012854658 0.03721592 0.07274531 -0.0036880658 -0.0024794233 -0.060658928 -0.081786394 -0.0023438996 0.06708163 0.022955894 0.033552125 0.008644074 0.089495614 -0.033498935 -0.06361942 0.08233055 0.010825232 -0.05639637 -0.09789795 0.06987002 0.06706587 -0.05651447 -0.12688038 -0.07994644 -0.06868995 -0.005390751 0.008591493 0.039783724 -0.043813568 -0.10471143 0.031394735 0.107737884 -0.07870822 -0.007843294 -0.052046437 0.059965096 -0.031051036 -0.05643863 -0.048683293 0.03897632 0.09106049 -0.05790611 -0.0941519 0.06780549 -0.012113797 -0.02436735 0.049000178 -0.06859279 0.06566736 0.03774557 -0.07382806 -0.102051154 -0.00077892654 0.042458978 0.11629834 0.049420327 -0.029629152 0.07624133 0.0975359 -0.11998686 -0.011080711 0.05351815 0.0038915342 -0.032189276 -0.059401393 0.08785479 0.031840693 -0.010297559 0.0937897 -0.092913374 -0.08716824 0.123766966 -0.035856854 0.041741252 0.02653353 -0.069002636 0.07003085 0.011913123 0.05229988 0.02387742 0.06114145 -0.013545382 0.0712638 0.086405486 -0.011912225 -0.050717324 0.038704656 0.0763195 0.021149738 0.0740046 -0.018639028 -0.0131543055 0.05128335 0.03449405 0.03340249 -0.060078938 -0.03567618 -0.005928199 0.016981814 -0.015812177 0.016673166 -0.12854719 0.09476661 -0.08394389 -0.042252637 -0.020362442 -0.0019391403 -0.09029591 0.017402131 0.031634666 -0.018456796 -0.09559815 0.0043132612 -0.11635169 0.03069563 -0.058530208 -0.09714915 0.07862428 -0.061419502 -0.074186936 0.112756886 0.04628111 -0.049955215
194 0.12746213 -0.09687117 0.019475129 0.016878363 0.022077866 0.07751348 -0.017855141 0.008268166 -0.05600605 0.006720855 -0.007077764 0.018206201 -0.08353709 -0.030594409 0.07788666 0.115169264 -0.066649966 -0.014849811 -0.09403247 -0.036455363 0.06942299 -0.08580724 -0.049606837 -0.038562678 0.019844886 0.04729153 0.0035179872 -0.103911884 -0.0850591 -0.11376971 0.0006217817 0.1299979 0.01737658 -0.12904891 -0.011200133 -0.09284794 0.051522568 -0.08641041 -0.013619646 0.027940545 0.106541306 -0.028163342 0.0021236278 -0.042392407 0.0058211023 0.09533805 -0.056494217 -0.086400494 0.094314694 -0.12507673 -0.0027165487 0.123820074 -0.0781212 -0.03150736 0.06260055 -0.07397761 -0.044677157 0.00823966 0.046971887 0.0047655283 -0.0032584062 0.057591677 0.020737415 0.016060071 -0.0028069327 0.10882801 -0.034639858 0.021559002 -0.106714174 -0.09811338 0.028215531 -0.007129848 0.033414267 0.03422592 0.0013709171 -0.024239063 0.012236347 0.024044834 -0.015533492 -0.059477914 -0.121674314 0.021846134 -0.07051383 0.06772006 -0.00242107 -0.005755036 -0.0044009723 0.12163148 0.1146647 -0.036180787 0.03358835 -0.086815916 -0.019290734 0.081371196 0.06317955 0.049842656 0.10087661 0.07344076 -0.023014678 -0.0007485505 -0.038753334 -0.03772534 0.019244697 -0.09866465 -0.08016913 -0.0014004037 -0.026005246 0.058613665 0.027423784 0.02984957 0.11584534 0.013081452 -0.03841174 0.12584102 0.05804204 -0.09866408 -0.035751134 -0.062394604 -0.0013275873 -0.013516095 -0.037333407 0.0157556 0.038161814 -0.060367156 -0.018629616 0.031151962 -0.031942923 0.019550454
197 0.0724842 -0.09747588 -0.037900206 0.041103967 0.028058276 0.05540366 0.07403441 0.0810546 -0.053449847 -0.03103191 0.017636884 -0.06604206 -0.126538 0.017008757 0.048934713 -0.037994374 -0.035580717 0.0767788 -0.07884686 -0.040574905 0.10419133 -0.08040253 -0.06770811 -0.030868398 0.02301416 0.030044358 -0.024522698 -0.048618756 -0.08029544 -0.12104163 -0.09063366 0.0031799758 0.09853724 -0.079509825 -0.06872647 -0.08959437 0.07545612 -0.04463242 0.027102623 -0.081157625 0.047301646 -0.043772135 0.010270248 -0.06887494 -0.03249344 0.10959205 -0.11349168 -0.017341953 0.050599944 -0.05889517 -0.09082875 0.0034176027 -0.08289567 0.05860445 0.055154055 -0.0013310034 -0.013254991 0.06924635 0.05382412 -0.007050478 -0.00889726 0.12645206 0.035325073 -0.03438403 -0.10974314 0.027055267 0.077646464 -0.038912624 0.013939742 0.012535138 0.022965439 -0.01534332 -0.04717399 0.11937232 -0.1109844 0.03684515 0.06849275 -0.093256526 0.080492586 0.003416433 -0.03493276 -0.019666243 -0.11324542 0.05407713 0.09664656 0.0033803135 0.0064256527 0.056135736 0.026561655 -0.06181857 -0.111485474 -0.11926106 0.091268376 0.060477912 -0.01914169 0.07239939 0.055968516 0.10140127 0.015243605 0.0037231632 -0.03439156 0.08709816 -0.090723835 -0.009248067 -0.07648232 0.0024831295 0.024245296 0.055738218 -0.055181913 -0.06753545 0.09634555 0.037629906 -0.101347096 0.10449572 0.12620007 0.032521818 -0.108193666 -0.05897054 -0.09643819 -0.047139056 -0.040449277 -0.032146793 0.06679508 -0.08942666 -0.0015948191 0.09364011 0.04847362 -0.103860915
196 -0.014926078 0.0014147526 -0.031589314 0.051353507 0.09871164 0.09550299 0.06264217 -0.027640954 -0.107748814 -0.07266793 -0.041916307 0.00017442426 0.046312373 0.01968945 -0.056781944 0.055134524 -0.119247235 -0.050524414 -0.008498856 -0.08216266 -0.043952916 -0.073487006 -0.015271005 0.0070133545 0.037905186 0.059814114 0.036883485 -0.042443115 -0.042993035 -0.09981324 -0.04169199 0.023709575 0.016289767 0.024059491 0.012559962 0.018666197 -0.034667496 -0.082056 -0.03718411 0.009202167 0.06626419 -0.028474843 -0.029476855 -0.072032705 0.008419698 0.102263644 -0.09244993 -0.068042874 0.08602964 -0.02488061 -0.0628327 -0.03551929 -0.04469583 0.062361356 0.07643543 -0.08742489 -0.06776061 -0.0643428 -0.08861741 0.07849971 0.0049975975 -0.024292286 -0.018203497 0.06421354 -0.11789259 0.010633703 -0.008984651 0.038375147 -0.08778789 -0.081414655 -0.016880194 0.09391251 0.027663559 0.10077095 0.045630395 -0.12413925 0.056587804 -0.054948296 0.028267987 0.05608077 -0.033907305 -0.003943706 -0.01957706 0.078155205 0.08397587 0.062489357 0.04404529 0.04246732 -0.0046762642 -0.007610435 -0.014868222 -0.072752595 0.06304804 -0.032021947 0.041189186 0.0751926 0.01282939 -0.011260986 0.011287895 0.09020203 -0.09300904 0.047386825 -0.045986313 0.036020968 -0.012684541 -0.0965054 0.027964747 -0.016856182 -0.04263406 -0.023464436 -0.054041296 0.022944055 -0.07105326 0.01686976 0.028277839 -0.06706356 0.0065512853 -0.022211878 0.0073799537 -0.09222089 -0.07497092 0.010514896 0.06856623 -0.01575619 -0.05417368 0.015263776 -0.015012337 -0.042654403
191 0.015012159 0.02735997 0.013707 0.05362267 0.07751442 0.046437073 0.0668365 0.09732903 -0.05538845 -0.018969506 -0.031447407 0.03628573 -0.07224288 0.12242859 -0.03421227 0.08511993 0.005233342 -0.027022678 -0.009750112 0.03599602 -0.0027277572 -0.076925784 -0.051853277 0.037423257 0.062940046 0.07063058 0.034011234 0.03527484 -0.03511794 0.03613682 -0.07786573 0.13001256 0.12450117 -0.032927625 -0.015203037 -0.09502301 0.12320816 -0.08553437 -0.09688273 -0.103405856 0.11097595 -0.052071624 0.016068427 0.013615976 -0.03882377 0.031280965 -0.03311773 -0.01476271 0.12749746 -0.084772564 -0.061254285 0.0074498532 -0.018314566 0.00018696208 0.018977499 0.03627643 0.03224528 0.005842069 0.12088929 0.09478256 0.034343008 0.10340051 0.085651755 0.062707335 -0.09798746 0.025531478 -0.007820067 -0.08473865 -0.045693956 -0.08092079 0.05620769 -0.002397132 -0.041894227 0.0024596248 -0.015412512 0.041726146 0.08442649 -0.051233444 0.087754935 -0.075106464 -0.08507495 -0.008479658 0.027053148 -0.033845708 0.0008092448 0.039158214 0.07076865 0.03153802 -0.008158896 -0.06639389 0.0013176193 -0.06962316 0.045455072 0.022749232 -0.030645072 0.058579735 0.043397956 0.06544166 -0.023137717 0.12714863 -0.015046097 0.10982356 -0.06861171 -0.046895504 0.034788765 -0.07216537 -0.1151046 0.035986204 -0.004272919 -0.06965403 0.03315977 0.067339525 -0.058609582 -0.030151047 0.098796636 -0.010576321 -0.12632506 -0.06337418 -0.045861825 -0.08127895 0.024174035 -0.026413627 0.09769943 -0.08300603 -0.07382794 0.0027144775 -0.030383106 -0.04442759
190 0.10990608 -0.035012193 -0.01210861 0.040209033 -0.024543954 0.09121031 0.08215635 0.016001686 -0.052354615 0.012056427 0.018442236 -0.051316783 -0.11117254 -0.012842086 0.10901307 0.107365444 -0.013460831 0.07477957 -0.059173122 -0.061105978 0.013585365 -0.059120946 -0.11265681 -0.117663 0.079509936 0.03379622 0.004572239 0.030465305 -0.11375646 0.010660921 0.012656246 0.10606532 0.066267855 -0.081905335 -0.08691065 -0.017688688 0.08662715 -0.11249357 0.025306227 -0.10353507 0.040176407 -0.0020337868 -0.08060226 -0.027630659 -0.07264872 0.11194655 -0.103440225 -0.038265955 -0.037223514 -0.10659637 -0.09167643 0.11072972 -0.005779966 0.08541688 0.0063682916 -0.0069109425 -0.04737973 0.018655516 0.08796285 0.08602833 0.100389585 -0.01792575 0.00973445 0.0814693 -0.06831738 0.115604945 0.080554694 -0.109915026 -0.04048333 0.0024155788 0.10183916 0.03574735 0.017727591 0.05244964 -0.057961978 0.043494307 0.09811676 0.00990985 0.10913837 0.036153585 -0.055338126 0.04574594 0.032518066 0.05102299 0.08308967 0.030220669 0.0870581 0.08447997 0.022168374 -0.10717275 -0.021277666 -0.057297196 -0.023814581 -0.022528205 0.05713424 0.044483993 0.026265372 0.026711188 0.034912035 0.12798744 -0.032632574 -0.018104155 0.014822381 -0.09459524 -0.107879125 -0.1149719 -0.015779667 0.097872145 -0.042324238 0.036193192 0.02939917 0.025653614 -0.059123162 0.06678705 -0.02036696 -0.065826915 -0.09261943 0.01087412 -0.09708136 -0.110977806 -0.04624391 0.0038136384 0.093663804 -0.042562835 -0.08033735 -0.015367536 0.06410088 -0.024782553
193 0.029420782 -0.06912912 -0.08877156 0.08239939 0.024483304 0.021661617 0.06888668 0.0053952374 0.027845742 0.036632914 -0.07839121 -0.024529634 -0.029198112 0.08139514 0.064734004 0.089696124 -0.11742844 0.033974305 -0.055017237 -0.119342014 0.03959585 0.03016462 -0.07447128 0.0011598906 0.06294277 0.0682426 -0.07237078 -0.06405403 -0.083003365 -0.047156073 -0.01811782 0.08868699 0.091891974 0.0005398728 0.02555779 -0.044443376 0.050422333 -0.087010145 -0.008416949 -0.10031077 -0.003628456 -0.09970667 -0.10249018 -0.08628804 4.861504e-07 0.118417725 0.009778469 -0.07906638 0.055009734 -0.07750928 0.0032135257 0.02181141 -0.027972888 0.014094503 0.045137085 -0.077754766 -0.12562196 0.07004904 0.07018947 0.11858195 0.057400107 -0.0024691084 3.3474527e-05 -0.034032468 -0.024610538 0.03462372 0.02716078 -0.048101496 0.008804578 -0.091567576 0.08137463 0.019464782 -0.044916306 0.007690631 0.032151517 -0.10441324 0.11878855 -0.019570481 0.09974182 -0.030095804 -0.04023482 0.04868857 -0.071145564 0.030210432 0.021997757 0.09768757 0.009264347 -0.03370429 0.07057315 -0.014310975 -0.07525826 0.0022519594 0.008959649 0.093050845 0.03699686 0.0540582 0.07038522 0.0370265 0.09909844 0.07284591 0.0014262423 -0.022987716 -0.04272973 0.07318166 -0.124404 -0.05904708 -0.12608545 -0.010777103 -0.10612213 -0.04222739 -0.031029493 0.07823058 0.022389896 0.07022161 -0.03346149 -0.062746905 -0.01950094 -0.022345204 0.0103215985 -0.090932615 -0.05394965 -0.09451845 0.11848624 -0.11841452 0.017538287 -0.014802408 0.038738176 0.02998485
192 0.04437899 -0.07862296 0.024713412 0.0857254 0.046049055 0.07873454 -0.0003648661 -0.012741152 -0.08937551 -0.12525693 0.0003415607 -0.059595276 -0.023980945 -0.02598561 -0.023112109 -0.031979628 0.024475107 0.0042746067 -0.036302827 0.031248525 0.07758237 -0.011612492 -0.073811606 -0.01288961 0.07608057 0.09663743 -0.119932026 -0.08290681 -0.0370943 0.0060750693 -0.07917776 -0.006905698 0.0739187 0.01440813 -0.0504207 -0.028807666 -0.02559384 -0.077303305 0.0308013 0.03595509 0.022201031 -0.04468419 -0.05978746 -0.015598292 -0.0037830034 -0.022957047 0.010500066 -0.06427747 0.09236549 -0.003794169 -0.071502 0.019264795 0.030098677 0.12043873 -0.02981713 0.027655235 -0.06900601 0.061175458 0.07606631 0.033586573 -0.022047456 0.0382172 -0.025072858 0.055450745 -0.10578952 0.091304 0.021965258 -0.11539188 -0.07068684 -0.092536695 -0.0124551365 0.08371083 0.020152334 -0.007469969 -0.036441855 0.030787596 -0.0005004443 -0.060160607 -0.00045985356 -0.12352358 -0.07188848 0.10716417 -0.028644891 -0.030532965 -0.0028460324 -0.029189741 -0.0155555885 0.073096596 0.023805857 -0.07861538 0.035874248 -0.043868944 0.12626779 0.009505361 0.017693296 -0.01909575 -0.020208973 0.082578 0.080409914 -0.028423004 0.010574095 0.02053787 0.016837709 -0.03779159 -0.07074971 -0.09456592 -0.06072337 0.10612167 0.024321333 0.03598553 0.012324004 0.0154772205 -0.08012516 0.12119162 0.005930851 0.020298127 0.033505138 -0.030962538 -0.053248808 -0.092720166 -0.008207074 -0.03345873 0.07486372 -0.10945242 -0.007857151 0.012421179 0.039185848 -0.09495797
270 0.048944015 0.009373463 -0.009802647 0.050197255 0.06487916 0.099923424 0.036343414 -0.0053377114 0.029157763 0.014708536 -0.10113423 -0.09217493 -0.070497535 -0.025338516 -0.121715195 -0.026457198 -0.03434213 0.059715886 -0.099362604 -0.106282815 0.034493618 0.11484546 0.1238467 -0.08487537 0.04195335 0.086108655 -0.1031983 -0.025813952 -0.047872223 -0.05864421 -0.0627759 -0.011281327 0.122498736 -0.11640849 -0.008494639 -0.032690354 0.0060872403 -0.07290264 -0.062349617 -0.055817742 0.055703625 0.01390946 -0.042799957 -0.100466065 0.08017365 0.020146905 -0.09866002 0.009684907 0.08909327 -0.071757905 -0.054063875 -0.02056466 -0.059727475 0.040896595 0.050977916 -0.107257515 0.03444951 0.077982835 0.06773473 0.11030121 0.08348884 -0.017312342 -0.008159321 0.040763747 -0.019777339 0.12665458 0.024504181 -0.023864849 0.010202865 0.033239603 -0.017930299 0.058624532 0.016643213 0.08464038 -0.046841506 0.0029922854 0.027490623 -0.097314924 -0.034909226 0.02117903 -0.09202681 0.020671384 0.025982333 0.08954761 -0.014929246 0.047857326 -0.017700953 0.0036211857 0.101449944 -0.038488284 -0.013699062 -0.08944059 0.056256894 -0.035385564 -0.020104822 0.011653771 0.0643276 0.066077046 0.05353755 0.12205876 -0.035302334 0.0018151449 0.022973536 0.11034398 0.0235097 -0.02274599 -0.047779273 0.11370517 0.0029746965 -0.09592648 -0.042267166 0.108645946 0.012177415 0.11086946 0.052953355 -0.06716055 -0.02898889 -0.015726933 -0.03083798 -0.1197295 -0.08121522 -0.018065516 0.071757965 -0.09809995 0.0044045504 0.109336495 -0.010754409 -0.050185196
271 0.114197165 -0.066010654 -0.1131807 0.077775344 -0.022615448 0.0775382 0.077860564 0.042308714 -0.04304973 0.023374956 0.0071724467 -0.06677222 -0.08379736 0.06252414 0.019284273 0.0007470045 -0.090345316 0.09827138 -0.11785504 0.0023728637 0.05356088 -0.075895056 -0.02949279 0.033839606 0.024462743 0.027897015 -0.019389942 -0.05332361 -0.090832286 0.0028536404 0.0100757275 0.12266795 0.02985664 0.033801213 -0.10866648 0.024346035 -0.024788665 0.033675194 0.010188209 -0.11599295 -0.023475282 -0.08079216 0.011795746 -0.0040760096 -0.07066377 0.10537399 0.032135755 0.017864604 0.047349345 -0.097840846 -0.09147346 -0.002179009 -0.1242117 -0.035734937 0.00555713 -0.098918945 -0.083886296 0.10283092 0.03542764 -0.030442152 0.10241113 0.05182687 0.090873286 -0.004149692 -0.071564466 -0.0076956423 0.0055309637 0.03413998 -0.022825498 -0.01726447 0.026026122 -0.011566756 -0.07794669 0.07290452 -0.08136434 -0.048205424 0.09626379 0.012733619 -0.034632698 0.015879564 -0.0565859 0.0917636 -0.015769476 -0.015383296 0.12656856 -0.019975986 0.058226317 0.050887782 0.10213463 -0.037575033 -0.06700094 -0.022820707 0.12768239 0.10301808 0.04012412 0.00652737 -0.011367443 0.07031052 0.10225332 0.0150547 -0.08488493 0.049220294 -0.036464415 -0.08054561 7.8350306e-05 -0.072724946 0.014184675 -0.02987526 -0.08190392 -0.081454486 0.0034568394 0.08925886 -0.014142054 0.08245224 0.10821917 -0.05780007 -0.09388039 0.040381324 -0.07738567 -0.070819825 -0.1270725 -0.010080127 -0.0071002655 -0.06451189 -0.050532587 -0.020429075 0.0883072 -0.013278518
272 0.09747002 -0.041424226 0.031657 0.11746024 0.06550513 -0.007415722 0.042343814 -0.009678357 -8.554384e-05 -0.061225384 -0.059751444 0.009339187 -0.012357581 0.014125916 0.0030554626 0.024639696 0.020799655 0.05163718 0.034983426 -0.096258126 0.028974466 -0.020297848 0.014602166 -0.089146666 0.052948583 0.08086212 -0.08627501 -0.07781069 0.020767286 -0.052466474 -0.10817328 0.017485809 -0.035804607 0.014221281 -0.12304929 -0.11959203 -0.031814095 -0.03312984 -0.027484305 -0.0031567374 0.033793576 0.0017087935 -0.06595974 0.025666198 -0.05614419 0.09407726 -0.11432782 0.028846547 0.056262527 -0.09568885 -0.061348204 0.018695746 -0.006714346 -0.013726309 0.054379508 0.025192976 0.00020085927 0.014161651 -0.08598885 0.040236022 0.062883236 0.0075352825 0.02055246 -0.033061583 -0.013611693 0.04503781 0.005701053 -0.105101556 -0.072398484 -0.098740175 -0.03691363 0.11734494 -0.105074674 0.010148241 -0.08374995 -0.08534887 -0.028834278 0.03726109 -0.0038273335 -0.064809866 -0.06441141 0.025327217 -0.058323085 -0.017686704 0.12887499 0.04340545 0.11110209 0.06630435 0.12196758 -0.055450574 -0.10474686 -0.08637513 0.074687436 0.066442706 -0.008843962 0.004833255 0.070147365 -0.0059361383 -0.0002254378 0.09115659 -0.09505882 0.025125206 -0.033170573 -0.057143975 -0.04011559 0.02542904 -0.03970808 0.014043792 -0.121710576 -0.053004734 -0.0066529075 -0.01917854 -0.107734196 0.08086634 0.07242185 -0.09927277 -0.045988962 -0.0964254 -0.064237595 0.018499818 -0.011684157 -0.06289141 0.078121275 -0.09895821 -0.12856343 0.025905117 0.0068873633 -0.045844875
273 -0.027087122 -0.12457098 -0.09230109 -0.025080066 0.093487956 0.09072035 -0.015630413 -0.017010825 -0.098286144 0.030560682 -0.111162156 -0.03099778 -0.0019651493 0.018856479 -0.02818433 0.03837531 -0.12412581 0.018958222 -0.06845634 -0.06205034 0.023971798 0.06265413 -0.009583853 -0.07513129 -0.017332349 0.08300104 -0.11262344 -0.090203196 0.017722301 -0.014105351 0.049878065 -0.030501533 0.10645044 -0.03088124 0.011716867 -0.057181664 0.038723666 0.009015244 0.020462412 -0.081125915 0.055442322 -0.08259894 -0.0034014573 -0.10071685 0.062225178 -0.008625072 0.014892899 -0.120041974 0.055158112 -0.008418453 -0.084920175 -0.019597886 -0.0315818 0.07665145 -0.0026453324 -0.02987921 -0.12745751 -0.021790238 0.05832705 0.11998643 -0.024472523 -0.0052286023 0.0565866 0.08200605 -0.095402114 0.048418887 0.039953973 0.03739119 -0.020964738 -0.04954205 0.04191427 0.1218305 -0.018165644 0.009289134 -0.064330585 0.003868551 0.039262574 -0.034666426 0.04452329 0.036590688 -0.0914043 0.024729721 -0.12585069 0.0742138 -0.030221773 0.09461983 -0.03288227 0.026734248 0.08987975 -0.09354509 0.004927665 0.014283896 -0.036521353 0.055824764 0.04497903 0.10929387 0.09525807 0.00043746363 0.07324266 0.036612816 -0.12528421 0.015313524 -0.0010581398 -0.038658496 0.012880746 -0.033390142 0.018053975 0.06096623 -0.0081007285 0.010449277 0.015833322 0.066270314 -0.105996065 0.024742851 -0.010272654 -0.051996034 0.019905657 -0.0671677 0.0152428765 -0.11740276 0.0035740146 0.0614187 0.043249957 -0.08849436 -0.082189724 0.096172445 0.115427814 -0.059708424
274 0.11849122 -0.043777715 -0.10096578 0.05295374 0.08679185 0.08079157 0.09781616 0.055095755 0.008028757 -0.07797454 0.007477818 -0.047663365 -0.10846609 -0.021594457 0.07475976 -0.0037894174 -7.426925e-05 0.09713748 -0.080682054 -0.008290531 -0.006346004 -0.008649843 0.04401657 -0.077306606 0.0033744182 0.08549495 0.007911721 -0.032124467 -0.0039959056 0.033769514 -0.085179515 0.1177226 0.071350485 -0.021521848 -0.030523056 0.00046908762 0.113089375 -0.09780638 -0.06198396 -0.09349181 0.076014996 -0.062128358 -0.06959671 0.03316661 0.010503811 0.10824692 -3.2298267e-06 -0.03575231 0.06400028 -0.052283883 -0.015093595 0.102048695 -0.12038651 0.08017542 0.030254245 -0.115058854 -0.035111807 0.00058693346 -0.023890732 0.018349025 -0.038288563 0.013128564 0.03147405 0.053768538 -0.005259026 0.006022364 0.10143773 -0.12588638 -0.0031857789 -0.09766637 0.09139642 0.045670033 -0.06723353 0.01968329 0.01962132 -0.07459706 -0.031189654 -0.0015062056 0.08713938 -0.10379746 -0.056642637 0.01154346 -0.05311594 0.052536085 0.03795777 0.028343638 0.038414437 0.12016512 0.0052633993 -0.11075116 -0.058785938 -0.025441406 0.101026975 -0.004153955 0.07607058 -0.03072507 0.059448585 -0.006157317 0.12327302 -0.016707692 0.0032957857 0.044129893 -0.06234602 -0.09666283 -0.0010941261 -0.038884327 -0.06688298 0.022980232 -0.031027447 0.010156317 0.06804609 0.04103894 -0.04485282 0.12466949 0.036288142 -0.11767666 -0.016481943 -0.0482973 0.0024930323 0.019520473 -0.046034485 -0.045752607 -0.036569104 -0.0807387 -0.039635945 -0.032496467 0.12931804 0.038931023
275 -0.025920102 0.061473254 -0.07373607 -0.018238824 -0.046557475 0.05946704 -0.046290617 0.008319534 -0.009962152 -0.08736057 -0.042068556 -0.04077828 -0.047484018 0.068532385 0.035696566 -0.0075160107 -0.0066233426 -0.030914648 -0.10664793 -0.0015618949 0.085439995 -0.03727814 -0.0061938055 0.041954245 0.039823547 -0.0019555823 -0.028445158 0.038816795 -0.061726697 -0.006291725 -0.10625312 0.08201925 0.05161703 -0.08192118 -0.10397827 0.0058704666 0.07832194 -0.05010982 -0.035745434 -0.020055255 0.11243001 0.0055454033 -0.09881608 -0.081725955 0.011255598 0.041747928 -0.04847463 -0.062012713 -0.029674497 -0.04928705 -0.016918195 0.08056208 -0.038802512 -0.003354758 -0.010269475 -0.05419388 0.02757883 0.039129 -0.0030964832 0.002935153 0.08828327 0.048151705 0.056980662 0.10909743 -0.016561352 0.073426366 -0.015726142 0.03025093 0.035686754 -0.05066535 -0.008345747 0.0785584 -0.07525767 0.06046915 0.026671484 0.032183398 0.08957046 0.035620924 0.015171202 -0.0912295 0.05026816 0.10111821 -0.054855727 0.03759328 0.06164469 0.11279543 0.009307452 0.037950553 -0.013730246 -0.0075876527 -0.056967344 -0.040058162 -0.023152255 -0.015137931 0.03469998 -0.0081154555 0.06593539 -0.020760654 -0.013401329 0.033165254 -0.080886215 0.043361258 -0.06342658 0.10001114 -0.098878 -0.031350885 -0.10597115 0.0061402293 -0.016039364 0.018371118 -0.043863557 0.026212646 -0.06676069 0.058597248 -0.04626419 -0.08889894 0.045045134 0.044269435 -0.065508574 0.022825003 -0.025079746 -0.07496307 0.044061817 0.054143537 -0.019935941 0.066211715 0.06718862 -0.019151244
276 0.08967373 -0.049830772 -0.068929836 0.052902214 0.094390824 0.09201145 0.0922467 -0.05400769 -0.09970398 -0.09324755 -0.025871484 0.026575105 -0.030274136 0.009421626 -0.02248305 0.023694448 -0.0065697087 0.06025487 -0.010748443 -0.04897166 0.016801719 -0.031280305 0.031513114 -0.077737 0.009617327 0.041499663 0.01441649 -0.012410632 0.00784398 -0.016108189 -0.026738446 0.078841664 0.06708766 -0.099156365 -0.096745014 -0.046975918 -0.030118996 0.0009394912 -0.058381725 -0.0059419246 0.12304836 -0.06405899 -0.012128941 -0.0767521 0.045199364 0.10067652 -0.03367559 0.011039013 -0.027008113 0.00048120692 -0.12825459 0.01767467 0.0092514735 0.004495145 -0.025883827 0.0057044653 -0.081331775 0.040819187 0.07676054 0.12030822 0.05389767 0.09791853 -0.005405793 -0.021518677 -0.003243493 0.07393862 0.042719267 -0.11403924 0.027576257 -0.06269905 0.081459105 0.064310126 -0.037394147 0.0035245642 0.024675578 -0.09546878 0.023772769 0.016466632 0.113573544 -0.04287266 -0.07655199 0.10512577 0.0204086 0.0977798 -0.031075656 -0.026698658 0.1003098 0.05657991 0.018357132 -0.019833706 0.029686783 0.0077166744 0.057140198 0.09381615 0.056715872 0.020934802 0.01743904 -0.015673667 -0.004810973 0.093151785 -0.04203639 0.11524305 0.012178218 0.043480285 0.013990643 -0.06515026 -0.02341045 0.036116064 -0.00032305066 0.03005747 -0.047026273 0.0044298684 -0.119371675 0.058847286 0.09559501 -0.07955597 -0.06824009 0.009391283 0.0051351115 -0.039019354 -0.09324981 -0.0047343047 0.0012736386 -0.103052855 0.03775858 0.1265198 0.060265277 -0.028706215
277 -0.0073626926 -0.08744268 -0.088320635 0.044443596 0.10159252 0.05375688 -0.0075302497 0.027929068 -0.051625375 -0.12496338 -0.10518853 -0.032948885 -0.07476227 -0.030835664 0.09570651 0.07139082 0.033792403 -0.029971685 -0.110215105 0.028049465 0.05454407 -0.030918587 -0.10494747 0.0003562644 0.08346127 -0.009968521 -0.10182739 -0.01997234 -0.07001644 0.009658795 -0.11158116 0.1277546 0.087755285 0.02217918 -0.057550397 0.011579667 -0.024782501 0.008692126 0.019845363 -0.061505795 0.04966782 -0.009785593 -0.057322413 0.0018847287 0.03097672 0.119889334 0.016442783 -0.0898794 -0.014846205 -0.03402649 -0.052696586 0.015966281 -0.035673372 0.09767894 0.04937626 -0.021893123 -0.043309018 -0.0028745718 0.08516458 0.006849888 0.022259874 0.09340288 0.033995435 0.024494 -0.0795507 0.117087066 0.082459524 0.02993118 -0.010690116 0.03660966 -0.032452926 0.0011315532 -0.0370979 0.063675955 -0.0097855935 -0.010312134 0.020071292 -0.11874271 0.06437391 0.013457998 0.027302183 0.019966036 -0.03168512 -0.028426608 -0.011174344 0.021220267 -0.0374069 0.10566085 0.063209735 -0.045709416 -0.11755208 -0.060862195 -0.008924044 0.07528923 0.045984626 -0.006437693 0.025597801 0.032519028 -0.016226087 0.0017351657 -0.036149044 0.065605395 -0.05462611 -0.0470598 -0.032085944 -0.014842148 0.0054101255 0.07133606 -0.025781658 -0.0871103 0.034051698 0.06623318 -0.06890331 0.010574454 0.104035504 -0.098308474 0.00052728225 -0.042834476 -0.10624104 -0.06154794 -0.10127697 -0.051756613 0.11116909 -0.07762698 0.030696362 -0.007072516 0.061761912 -0.060916223
278 -0.031772546 -0.08863153 0.032070175 0.022048254 -0.01347782 0.04025294 0.077352755 0.026671246 -0.046992745 -0.06250726 0.0108432565 -0.06660028 -0.12929948 0.107011914 -0.0075341323 0.11274969 0.008591649 0.06965121 -0.040321946 0.032744005 0.03677715 0.040448457 0.05789074 -0.05217988 0.07918346 0.0999683 -0.10158571 -0.013760793 -0.107227474 -0.029663302 -0.045125984 0.03383474 0.11770933 -0.096855976 -0.12903602 -0.047709055 -0.037333522 0.009874357 -0.008647472 -0.03650581 -0.025704086 -0.0026248218 -0.03325574 0.010359666 0.027908098 0.034120433 -0.019031435 -0.06680058 0.10511284 -0.0916841 -0.04890743 -0.009876971 -0.023262007 0.07725565 0.05906256 -0.10115425 -0.07579175 0.0802811 0.10184176 0.0008449331 0.09727131 0.005475564 -0.030918205 0.071615584 -0.09452249 0.046694323 0.012432649 0.02364235 -0.044835895 0.019362617 0.017758463 0.084295526 0.027070533 0.080721736 0.03435572 -0.11080178 -0.012751184 -0.015861638 0.037232384 -0.07259703 -0.011938672 0.05191584 -0.09931567 0.06654231 0.07933239 0.1321286 0.056931768 -0.022982534 0.111460015 -0.06804756 0.018402835 -0.046403028 -0.020348527 0.025867773 0.09835873 0.094773866 -0.030250743 0.05157031 0.006284414 -0.03009266 -0.03791827 0.08955046 -0.09762498 -0.06894942 -0.06765429 0.02004899 0.008374353 -0.02182314 -0.022960333 -0.10301304 0.04026128 -0.006161049 -0.013878747 -0.018747123 0.13006887 -0.06838516 -0.02956921 -0.033488523 -0.089701064 0.006193337 -0.09477543 0.0047453586 0.06815322 -0.123927295 -0.02777992 0.027192187 0.097979635 -0.02746116
279 0.117405444 0.06678462 -0.039865322 0.1248784 0.12557544 0.040931392 0.04786825 -0.05240291 -0.11245425 -0.10058435 -0.09055312 -0.02823212 0.005489989 -0.028555209 0.0669399 0.11209173 -0.01106188 0.0143633 -0.10336996 -0.0515533 0.05149833 0.012519699 -0.0029901927 -0.093035415 0.08775926 0.11193058 -0.040861238 0.035721824 -0.086609855 -0.017472748 -0.03507545 0.028644823 0.04731065 -0.11825632 -0.057743415 -0.04133824 0.05251042 -0.029208645 0.007285161 -0.09509926 0.07221515 -0.10068946 -0.05276963 0.034991946 -0.037617832 0.09860882 -0.07028593 -0.063412726 0.069168285 -0.07550891 -0.117270365 -0.03803297 0.038867325 0.08632646 0.0164224 -0.04062413 -0.07117376 -0.031564906 0.012838017 0.12561421 -0.014746647 0.030429006 -0.00024536904 0.059470557 0.012148067 0.025060479 0.06640888 -0.0049633537 -0.08049166 -0.038274545 0.08338692 -0.02647644 0.037308324 0.077071846 -0.044394232 -0.05056183 -0.015728176 -0.06547297 0.041142374 0.03991929 -0.008151438 0.018974533 -0.10176725 -0.024441464 0.0071880603 -0.009370748 0.03959404 0.042011216 0.03660303 0.016773127 -0.058873683 0.037963495 0.09901449 0.07843578 0.030551484 0.048873402 0.07184948 0.10537345 -0.003450186 0.11348022 -0.02212203 0.011540839 0.0038436959 0.012863493 0.022289524 -0.046169393 -0.07638948 0.055196278 -0.065610394 0.011566305 -0.039064717 0.02801706 -0.084500305 0.089147426 0.12770145 0.019430695 -0.109270506 -0.06998331 -0.03777923 -0.018227607 -0.01560083 0.033751722 0.11722092 -0.007416838 -0.016598597 0.10195179 -0.038399518 0.012051796
524 0.07985283 -0.07682957 -0.09238428 0.0235478 0.117092475 0.052109495 0.006486658 0.014594682 -0.09681095 -0.06218084 -0.0059560724 -0.06829211 -0.07072929 0.016419318 0.004921627 0.021415142 -0.031901028 0.043527506 -0.107379384 -0.0849534 0.015661065 -0.021722488 -0.099802345 -0.040965915 0.006021345 0.074040286 -0.0058761686 -0.037495054 -0.020278424 -0.03077107 -0.1070991 0.118692465 0.034521602 0.0024178596 -0.04126621 0.031665344 0.088587776 -0.011088168 -0.12416462 -0.0014176453 -0.025277447 -0.02159121 -0.010565248 0.026191939 -0.08175448 0.06885696 -0.021538887 -0.04798787 0.07478928 -0.014082157 -0.056909658 0.04311428 -0.08855694 0.015081145 0.027295493 -0.07801558 -0.11479704 -0.004026834 -0.09999338 0.03404472 0.008237256 -0.020936236 0.08330813 0.09050809 -0.088847056 0.10191301 0.07201112 -0.09591961 -0.031639073 0.0007329816 0.020392753 0.06980141 0.0032286737 0.06884835 0.01080098 0.03885953 0.107508615 -0.09982722 -0.031926602 -0.12109652 -0.05989312 0.028683156 -0.067997836 0.029044934 0.05516009 0.090687715 0.03183215 0.007287411 0.108188465 0.026955672 0.001022527 -0.060532402 0.07792173 0.11185904 0.07100738 0.022131965 0.08549236 0.037448894 0.016976757 0.005228962 -0.015814885 0.047402523 -0.06063551 -0.01620142 -0.013960259 -0.07598906 -0.033568293 0.10404785 -0.07980173 -0.009013171 -0.014775414 -0.011292827 -0.12683278 0.056292083 -0.021897262 -0.09178858 0.010337338 0.037619233 -0.0011722008 -0.0705311 -0.06670015 -0.03812254 0.09334931 -0.07799488 -0.10207221 0.055414952 -0.025150232 -0.009817752
525 0.106578104 -0.090871006 0.03186501 -0.024121603 0.106395245 -0.031513516 0.04161461 0.08290663 -0.053136505 -0.0045027817 -0.09707072 -0.0068522226 -0.1092896 0.019883025 0.055202838 0.08597951 -0.0205367 0.0153054735 0.033526305 -0.04310342 0.049302608 -0.05136963 -0.07492337 0.015111125 0.09588908 0.018895965 -0.092255354 -0.09415996 0.013231238 -0.069985926 -0.11345017 0.111480586 0.07124335 -0.054296628 -0.10802597 -0.05434622 -0.037897073 0.017051563 -0.055206556 0.03401571 0.10769785 -0.033864215 -0.015709035 -0.08004494 -0.10536359 -0.0230478 -0.10131423 -0.08949113 -0.0012588296 0.022362597 -0.06190928 0.09281253 -0.12909378 0.068059795 0.08135157 -0.09603192 -0.02726291 0.0072147045 -0.036244094 -0.011464684 -0.021629008 -0.01721922 0.010029208 -0.0031214943 -0.11537011 0.043933548 0.037256643 -0.06983285 -0.026467923 -0.10243175 -0.025639927 0.114189975 -0.009187914 0.089286126 -0.015204437 -0.08955153 -0.0016501686 -0.02657771 0.03338926 -0.037283313 -0.028891936 0.037448574 -0.108980596 0.018608838 0.0561434 0.118315704 0.08188548 0.049736846 -0.009487639 -0.044212483 -0.11553629 -0.05706177 0.0024548937 0.004051524 0.009255562 0.026002783 0.07145241 0.07116272 0.06289585 0.10325593 -0.07520676 0.099733576 -0.005396872 0.015623269 -0.019436855 -0.113629535 0.019480575 0.04441002 -0.07726538 -0.03740405 0.094467886 0.01608155 -0.0722019 0.11548754 0.05503422 -0.0006852085 -0.026373025 0.030761007 -0.056347303 -0.12972912 -0.03168215 0.02301695 -0.000121896155 -0.05584191 -0.06634344 0.08605994 0.025440343 -0.053280696
526 0.12594958 -0.033928964 0.018805647 0.036954127 0.0012115557 0.08851988 0.0112032825 -0.069168344 -0.11023592 -0.021747135 -0.008559748 -0.010645237 -0.11561337 0.069390826 0.011516722 -0.02535241 0.032551344 0.051271986 -0.001777064 -0.023337547 0.03334569 -0.01710797 0.034315698 0.012638498 -0.02612608 0.12127826 0.02717668 -0.12600414 0.007020603 -0.0027432218 -0.019529844 -0.026486516 0.036250368 -0.037052725 0.028976751 0.015709314 0.085089825 -0.094492875 0.044276066 -0.032203157 0.11055521 -0.04296159 -0.047269087 -0.056117803 0.04287381 0.024565943 -0.103402585 -0.059133038 0.11007264 -0.048597667 0.0075528976 0.019684423 0.0072419867 0.056536037 0.08689873 -0.03551081 -0.04389044 0.028503444 0.034031928 0.07862298 0.09324917 0.020724408 0.029673344 0.12548694 -0.051697947 -0.009820785 0.026247341 -0.1090144 -0.10157831 -0.01630288 -0.00501556 0.053791832 0.039186914 0.0036565564 -0.039756823 -0.066878036 0.072504185 -0.04813931 0.056064017 -0.09085169 -0.07910334 0.12006424 0.012102233 -0.014355952 0.091293976 0.11168465 -0.0049203327 0.060873915 0.060582902 0.030339604 -0.082952015 -0.073617704 0.12414115 0.070436366 -0.038329743 0.0087901335 0.003455454 0.10452398 0.07067038 0.078555524 -0.02948616 0.11614438 0.018900389 0.022104796 -0.0924597 -3.3416785e-05 -0.0049160672 0.10193379 -0.093499966 -0.015032727 -0.020159671 0.040226296 -0.11992021 0.04387528 0.118949525 -0.09725414 0.009184488 -0.035373267 0.019578192 -0.09461327 -0.044147972 -0.025508622 0.099056154 -0.008789273 0.030622572 0.08193538 -0.032706674 -0.060776796
527 0.0024657445 -0.08063789 -0.10694833 0.07914254 0.06614445 -0.021810647 0.09735953 -0.014748147 -0.11661182 -0.07666721 0.012184725 0.032682035 0.025945392 -0.003420338 0.11306278 0.062419802 0.016173853 0.03385368 -0.063389316 -0.042926952 0.08266657 -0.056480564 -0.0034739012 -0.07781929 0.05739834 0.062259663 0.00016335025 -0.047422074 0.030852031 0.021289647 -0.12163365 0.11566163 0.108468115 -0.046431772 -0.096989475 -0.06597835 0.120181106 -0.06715201 -0.052051164 -0.051153995 0.09403872 -0.0063851327 -0.02293342 -0.07522416 -0.07349521 0.028679486 -0.09611724 -0.059699666 0.10619681 -0.069260016 -0.060071215 0.07921539 -0.054691076 0.03255713 -0.0028640218 -0.052811027 -0.04014445 0.015157068 -0.035564285 0.06836903 0.020728461 0.04227832 -0.020875659 -0.025168687 -0.09613511 -0.031618223 0.07527588 -0.082586944 -0.03332789 -0.074699864 -0.025038656 0.06325566 -0.061664086 0.055053856 -0.11692461 0.0458187 0.10360556 -0.021812841 0.027802577 0.0087835025 -0.0039521884 0.066358104 -0.12808527 -0.023497984 -0.00093578454 0.00043937843 0.014264841 -0.0012619179 0.022116072 0.026267633 -0.034790568 0.017323587 0.059207432 0.091532595 -0.031780988 -0.024933398 0.0005181832 0.04217317 0.07035057 0.004134055 -0.022504572 0.10843431 -0.10821955 -0.07005053 0.0008983929 0.005154161 -0.028561704 0.098093145 -0.004467098 0.014126275 0.057876408 0.05055435 -0.06877902 0.058236673 0.05465727 0.00023365114 -0.09071391 -0.050612405 -0.04502999 -0.11914808 0.035671137 -0.058976732 0.077927485 -0.08534197 -0.05390875 0.11550185 -0.037036892 -0.06765559
520 0.12054417 -0.023337085 0.021082614 0.11228675 0.011217134 0.035213638 0.009415671 -0.030986436 -0.119620286 -0.08574642 -0.047094423 -0.06985842 -0.12782292 0.074331775 -0.035743576 0.00087677594 -0.120579205 0.077623755 -0.0045568813 -0.10625864 -0.032549955 -0.070112884 0.034455027 -0.09752566 0.038223963 -0.03549553 -0.020382794 0.0074882237 -0.0072774934 -0.09947656 0.004438268 0.12807754 0.07347331 -0.115658544 0.026628036 -0.046578724 0.027910791 -0.0063380264 0.022084218 -0.09572111 0.0027844543 -0.06140489 -0.115681194 -0.12369599 0.02866262 -0.016314909 -0.1150249 0.026018057 0.00046203285 -0.099470824 -0.045516483 0.08358556 -0.02905872 0.016051766 0.015874619 -0.12517665 -0.12242152 0.06673813 0.03212755 0.12122411 0.09718305 0.06584704 0.10746743 0.10788655 -0.021522917 0.082415365 0.044423815 -0.110859476 0.02168567 0.0017237505 0.054548644 0.03568825 -0.07991653 -0.008256393 0.03605955 -0.09775741 0.1200799 0.003722189 -0.025248092 -0.018743273 -0.10475611 0.026749123 -0.12832946 0.058548238 0.08290676 0.030069686 -0.008659442 -0.03390497 0.018293004 -0.0056350343 0.0323494 -0.09287922 0.0066828458 0.059221227 0.036512684 0.052986994 0.06896986 0.08542915 0.012533262 0.03876039 -0.100588195 0.020131417 -0.0034810146 -0.002984831 0.034360845 0.027158575 -0.08613187 0.037880555 -0.0730027 -0.08040545 0.04312437 0.012874745 -0.09700544 0.035527766 -0.028071484 -0.027288083 -0.054249883 -0.01131068 0.023944102 -0.09682429 -0.04330696 -0.027556268 0.10841746 -0.06563486 -0.05305278 0.011153668 0.08610276 -0.03666789
521 -0.035874255 -0.013808102 -0.038754866 0.10550488 0.058531515 0.09942607 0.087196946 0.007463598 -0.041538157 -0.028966084 0.035338204 -0.12667534 -0.021007877 0.092865966 0.052418545 0.01587962 0.03409613 0.022932023 -0.07558639 -0.037393093 0.08222581 -0.09100826 -0.08941644 -0.06843679 0.08549498 -0.00559358 -0.12347161 0.021219742 -0.09191706 -0.0022717416 -0.044235345 0.010145284 -0.004837393 0.027507763 -0.11408752 0.018114679 0.070962675 -0.03989905 -0.08119464 -0.02149203 -0.006586803 -0.056411512 -0.12721819 -0.07773044 0.015836392 0.019678917 -0.012786185 -0.0392338 0.016439518 -0.06884052 0.027069606 -0.021489304 -0.0018664636 0.077001706 -0.006521753 -0.097182095 0.017436493 0.047165018 0.04143721 0.015012079 0.112367034 0.044366278 0.030707255 0.016816322 -0.073179804 0.085267834 0.044864126 -0.11544719 -0.02427739 -0.122429445 0.12252236 0.06741848 -0.12651888 -0.026490463 -0.10509197 -0.06697185 -0.03356625 -0.036855187 0.10061841 -0.11902414 -0.058020324 0.079052925 -0.09116435 -0.0064879153 0.054240648 0.08902611 0.06077999 0.09742962 0.10167255 -0.12523392 -0.12777522 -0.062262632 0.051629655 0.022415731 0.086822346 0.09647231 -0.0018291436 0.11615231 0.092627525 0.036844477 -0.016122915 0.03867613 -0.0015761973 -0.04220017 0.025558447 -0.011102313 -0.010702627 0.045925133 -0.089615755 -0.06935215 0.07776357 0.029331155 -0.058922507 0.04584115 0.12747326 -0.101537585 -0.0057433853 -0.00025952235 -0.06680767 -0.07265899 -0.041585628 -0.053679764 0.06364639 -0.070103586 -0.109846234 0.025597513 0.0601366 -0.10061949
522 0.09906708 -0.048765406 -0.09726819 -0.008826888 0.107702896 0.06101738 -0.0010488387 0.06648784 0.011004494 -0.053517144 -0.09186691 -0.11422486 -0.06997209 0.07432639 0.090072505 -0.023431495 -0.1223843 0.022265889 -0.07348634 -0.12556818 0.06775457 -0.06602319 -0.08272718 -0.11425081 0.10476912 0.0747958 0.030945526 -0.041438077 -0.026687061 -0.07687251 -0.059192576 0.017128387 0.06471379 -0.006342301 -0.028588053 -0.061757594 -0.032024138 -0.07414825 -0.02753786 -0.088155486 0.00735287 0.004585063 -0.058266796 -0.07942267 -0.093114115 0.035289712 -0.056386616 -0.10696134 0.09237893 -0.045788635 -0.09275867 0.021081261 -0.008780152 0.037948627 0.092685804 -0.01624852 0.014948676 0.10378794 0.04808871 0.019317236 0.052199487 0.058799583 -0.03406065 0.02713165 -0.09496016 -0.035783328 -0.009716421 -0.065474376 0.009077627 -0.11951647 0.023272542 0.074484035 -0.0061878804 0.023798943 -0.009516462 0.021312391 0.11060682 -0.008939217 -0.02844671 0.0018994575 -0.11924097 0.084050596 -0.026512155 0.10032727 0.11582124 0.107401974 0.066612326 0.009650318 0.06604266 0.034224983 -0.04720465 0.035683904 0.10555632 -0.03240035 0.040308498 -0.020601522 0.029114302 0.053364787 -0.030012764 0.0073607853 -0.120965935 0.054460578 -0.047308736 -0.019370731 -0.04035176 -0.12334493 -0.111122616 0.117624946 -0.06919007 -0.11027076 0.045677613 0.0037009316 -0.042340014 -0.023681996 0.0752257 0.03492854 -0.0697031 -0.024646787 -0.06451969 -0.05675835 -0.052848235 0.0039290786 0.07571014 -0.075485304 -7.12052e-05 -0.004717432 0.07113485 -0.071735024
523 -0.015233999 -0.09137256 -0.015077932 -0.00021423493 0.04371929 0.08762455 0.057006843 0.07701936 -0.097931445 -0.10363701 -0.12399225 -0.12212044 -0.09989986 0.027438294 0.10049615 -0.0013820492 -0.039899457 0.002405826 -0.07446736 -0.0074360454 0.035900082 0.033405587 -0.09584171 -0.059116237 0.09977643 0.09296727 -0.07803253 -0.023653416 -0.10510703 -0.115070894 -0.11483086 0.10452853 0.007435114 -0.053201146 0.010068807 -0.01937089 0.09004943 -0.010035743 -0.09105272 -0.019467313 0.00241342 0.008364506 -0.08909189 0.009789929 -0.10860485 0.12456393 -0.043464225 0.010857534 0.032701846 -0.019731905 -0.108351156 0.052891843 -0.114448994 -2.4186447e-05 0.10626331 0.015326059 -0.121941194 0.069208235 0.062322993 -3.8923696e-05 -0.0025416603 0.117527634 0.021540161 0.07494112 -0.031700663 -0.026770119 0.0010039303 -0.041468654 -0.10279338 -0.05910289 0.07393607 0.12778027 -0.0394772 0.07250307 -0.047176007 -0.05141735 0.123576015 -0.025536839 0.113748156 -0.12188409 -0.089797474 0.059321072 -0.11566376 0.047730193 0.08334651 0.0014265105 0.08136451 0.019592395 0.12888817 -0.11396183 -0.03746465 0.0049348427 0.014590803 0.06502683 0.082461715 0.03379683 0.05520854 0.05414168 0.06812067 -0.0033233855 -0.106958635 -0.008742228 -0.11182516 -0.006401444 0.02655289 -0.051055145 0.0054490147 0.12704372 0.026931446 -0.0013067881 0.060905892 0.038896102 -0.030896116 0.070539415 0.111009605 -0.036843773 -0.054759003 -0.030762693 -0.05293953 -0.080305316 -0.029292416 -0.10468335 -0.03429441 0.02432996 0.030893113 0.11694609 -0.022637073 -0.02603975
528 -0.026039809 -0.05829219 -0.046101898 0.1006603 0.078158475 0.10647638 -0.019853022 0.045253538 -0.046897877 -0.039858148 -0.114211835 -0.077672854 -0.12347461 0.01455917 0.08191429 0.010781979 0.029446516 -0.025362132 -0.11302661 -0.068838865 0.07503264 0.0021573836 -0.03530875 -0.05485681 0.04193223 0.08296859 -0.0024424074 -0.0668421 0.003948685 0.033355974 0.030826155 0.036376406 0.07827588 -0.08330208 0.024973541 -0.09568327 -0.015949268 -0.034511924 -0.12498225 -0.1253416 0.087204404 0.011801973 0.019697804 -0.006453513 -0.097612694 0.092516795 -0.06462949 -0.0457343 0.010178002 -0.0031507965 -0.06796082 0.044352416 -0.116293415 -0.017436698 0.05461777 -0.04142552 0.03392256 -0.031015016 -0.0008663591 0.069090195 0.12086717 0.120473616 -0.014886113 0.081717305 -0.0030665463 -0.020473106 0.01972719 -0.050173752 0.031332314 -0.05188816 0.09101197 -0.0344188 -0.09096876 0.11312765 -0.1067822 -0.05587744 0.12805407 -0.12700568 0.07116443 -0.122993834 -0.051821295 0.074855536 -0.09077157 0.06500152 0.073735155 0.08626196 -0.004670525 0.07384164 0.03770564 -0.011556827 -0.09666321 0.02289825 -0.009296017 0.0797905 -0.010892816 -0.022762485 0.036305964 -0.03637145 -0.035732117 -0.006207099 -0.11157596 0.123213485 -0.1063347 0.02421267 -0.11451044 0.03626334 -0.07345219 0.09341557 -0.069209225 -0.06926804 0.05140177 0.08900458 0.010969006 -0.0050839875 0.03604822 -0.052493006 -0.07248855 -0.008545153 -0.093499765 -0.1036706 -0.06507434 -0.05756869 -0.030567173 -0.042398468 -0.0023671333 0.108446166 0.04870699 -0.07055799
529 0.034903504 -0.01671056 -0.089389965 -0.008982705 0.11989291 0.11460268 0.09380214 0.04260899 -0.088551216 0.010578715 0.030102229 -0.10613168 -0.030877657 -0.033699937 0.120003134 0.042560566 -0.07983166 -0.035096426 -0.08369752 0.035227675 0.09772475 0.018177921 -0.021103438 -0.007226956 0.011508106 0.10446166 -0.027389849 -0.045441505 -0.120251335 -0.09337435 -0.01610217 0.035527565 0.049001902 -0.013192115 -0.036184918 -0.005742941 0.029004 -0.087263025 -0.034442633 0.008844578 0.12169797 -0.012847337 -0.0690455 -0.028049111 -0.05875952 -0.022214508 -0.02221915 -0.07481907 0.07634009 0.040235423 -0.059408225 -0.0009842953 -0.087629296 -0.022313654 0.11575762 -0.057485454 -0.12720215 0.08559281 0.08132422 0.022723489 0.10808183 0.025071993 0.067791596 0.08018057 -0.0049766535 0.1087272 0.060166024 0.032093614 0.028537028 0.029851526 -0.03772023 0.00487798 -0.029855847 0.06447422 -0.064127915 -0.07826968 0.02739485 0.037944607 0.0009319028 -0.015781134 -0.0067008054 0.021517865 0.028330103 0.08070903 -0.029778477 -0.023777857 0.09890267 0.06965932 0.10908697 -0.06444298 -0.12377092 -0.09226364 0.0013009887 -0.03081411 0.043870658 0.07703009 -0.007482983 -0.011595941 0.041048385 -0.01621294 0.006763665 0.06290399 -0.091109104 -0.06111172 -0.06000934 -0.027611438 -0.019294392 -0.008490868 -0.07085651 -0.03572639 -0.01746295 -0.030682418 -0.028360885 0.10704399 0.10731258 0.03333842 -0.09101615 -0.060895026 -0.07943964 -0.117187954 -0.017266836 0.0078165205 0.0682587 0.036640808 -0.09279973 0.0007395819 0.027628012 -0.10900296
449 0.1292619 -0.044585623 -0.11727131 0.004629586 0.05930032 0.01004021 0.077443615 0.057138417 -0.02808455 -0.121113405 -0.10936037 0.0030073998 -0.046873085 0.03929892 0.10537418 0.06186125 -0.068011045 -0.012507479 -0.07304987 0.023293497 0.077591754 -0.04964764 0.033009153 0.0016502403 -0.0058177775 0.10281861 -0.09186417 -0.049185783 -0.02168501 -0.090172864 0.022262253 -0.011285731 0.0512357 -0.014406241 -0.07385357 -0.10523455 0.093667455 -0.091036595 -0.12302883 -0.09921625 0.029478326 -0.025586462 -0.02065387 -0.04650272 -0.068965666 0.12778714 -0.13272788 -0.08168715 0.045279704 -0.06869176 0.021550298 0.09396898 -0.12934078 0.069373034 -0.030729732 -0.08284454 -0.049533818 -0.018117923 0.07908464 0.08416576 0.073737666 0.120374 0.0100903185 0.11341827 -0.09675783 -0.021349132 -0.010886909 -0.04747602 0.004675922 -0.0957502 0.0964164 0.09758714 -0.04945856 0.07649797 0.035725314 -0.0013639806 0.07404439 -0.1246202 0.10251596 -0.087800264 -0.013697051 0.043959636 -0.1255624 -0.029866781 0.037790306 0.09688125 0.09269373 0.0475371 0.01650538 -0.09218477 -0.08575667 -0.08455016 0.06506867 0.06927598 0.0051910533 0.05838442 0.10226636 0.05488884 0.0065097297 -0.030413266 -0.12520714 0.032412477 0.013857586 0.02596734 -0.017112926 -0.1227282 -0.039182242 0.010832428 -0.12265333 0.033143632 0.06989328 0.10289029 -0.10646819 0.025726097 -0.02379382 -0.095202506 -0.057602685 -0.037583835 -0.028140508 0.03472984 -0.110235944 -0.093792036 -0.012309976 -0.027372781 -0.097581804 0.02150263 0.12637675 -0.056404497
448 0.04656978 -0.12586814 0.030631095 -0.029953495 0.08496463 0.024370018 0.015970375 -0.004151228 -0.03671983 -0.018798968 -0.04447954 -0.10752064 -0.12833413 0.021696612 0.051909875 0.059834167 -0.04886651 -0.029236432 -0.025772957 -0.11074644 0.0066576423 -0.03592602 -0.0045212144 -0.04623229 0.044497326 0.12035825 -0.07884192 -0.03519784 -0.08029076 -0.05105582 -0.050927468 0.12716159 -0.014779475 -0.102835745 -0.12270186 -0.105119154 0.1271511 -0.05347603 0.0062531084 0.008385546 0.036753252 -0.12123895 -0.07001965 0.019952333 -0.09937343 -0.0055918833 -0.026212104 -0.108323574 0.05697399 0.0154429665 -0.118011594 0.039980195 -0.06677303 0.054345768 0.027329894 -0.10730096 -0.032334596 0.09302976 0.02208323 0.12923121 -0.02976469 0.10664988 0.10682994 0.12605187 -0.10210026 0.014571866 0.022669028 -0.0017741118 0.010866513 -0.070418246 0.079799876 0.051921546 -0.014574153 -0.01086519 -0.123372994 -0.010277463 0.022202995 -0.059444033 0.033720866 0.024713539 0.005618832 0.0045188647 -0.094788074 -0.008192314 -0.03266527 0.08796482 0.05971427 0.03301545 0.030579295 -0.10558023 -0.10416361 -0.10603151 0.009879492 0.0440858 -0.008404119 -0.007857519 0.09410099 0.027519487 -0.0158755 0.11764439 -0.028027873 0.08071662 -0.071369916 -0.06765107 -0.009976817 -0.101395585 -0.008577191 -0.007087743 -0.11210714 0.032201894 -0.027542256 0.02419928 -0.0047260374 0.018174104 -0.007599904 0.011087117 -0.119791955 -0.10059373 -0.06158366 0.011457206 -0.09624429 -0.088042244 0.043419674 0.011315514 -0.07277829 0.003351598 0.1171652 0.028532736
443 -0.0018885843 -0.031386897 0.03368924 0.112854 0.017369919 -0.018164467 0.0023257239 0.010288437 -0.103511006 -0.11530667 -0.075664155 0.02890159 -0.06016565 0.05800245 0.027870666 0.12377655 -0.08400948 -0.002709507 -0.06352617 0.0136408685 -0.039353542 0.008935857 -0.11010204 -0.015261752 0.0069626383 0.08574405 0.003217429 0.023292683 -0.08144178 -0.08274855 -0.082442015 0.08051488 0.09481063 -0.112501286 -0.08444365 -0.019622447 0.012220898 -0.10139458 -0.03129709 -0.009566341 0.04507486 -0.03522288 0.019123029 -0.012887777 -0.06335004 0.052028045 -0.09154428 -0.091246024 0.022796981 0.0056612426 -0.042430658 -0.0220158 -0.0013583163 0.048454657 0.077749886 0.001336664 -0.083665095 0.019444525 -0.0409714 0.046699405 -0.03055761 -0.03533124 0.061656266 0.073968686 -0.08610405 0.018628774 0.005525902 -0.112031996 -0.090929136 -0.005865122 0.057605226 0.0018000696 0.017690934 0.028911412 -0.09998654 -0.037268072 0.07842363 -0.08266574 0.08138693 -0.007267696 -0.041510995 0.06317888 -0.05019757 0.04976686 0.004960509 0.010477531 0.09935723 0.09794159 -0.025599342 -0.034146637 0.002951555 0.03446473 0.081938595 0.07587427 0.073587835 0.08075855 0.11828018 -0.0247881 -0.033146627 0.0035793511 -0.07072521 0.09339913 -0.10716041 -0.05039419 -0.11906409 -0.013174977 0.03767662 0.008713852 -0.031296358 0.024172567 0.0895026 0.116811395 -0.06718762 0.054394115 0.033560086 -0.057042785 -0.11424317 -0.060661186 -0.0700579 -0.083291404 0.0014957255 -0.06963472 -0.00022935867 -0.068820626 -0.03445936 0.10592154 0.048894584 -0.024623606
442 0.047740955 -0.014123211 -0.098490365 0.059492756 0.12439746 0.065582626 0.005746777 0.024831101 -0.001004885 -0.09677809 -0.07217343 -0.081899606 -0.0033387775 0.10873069 0.04959533 0.06270022 0.014462158 0.04458143 0.005000148 -0.03790551 0.046963293 -0.04878853 0.07351494 0.026021138 0.045473363 0.048514903 -0.092758216 0.033054285 -0.041864928 -0.031987913 -0.0035199942 0.028777594 0.042713962 -0.104250975 -0.10690774 -0.063304506 0.08221924 0.006706687 -0.08029516 -0.038050674 0.01681541 -0.11833998 -0.072069205 -0.048609562 0.017772062 -0.016751513 0.0206317 -0.08814892 -0.014549485 -0.08899536 -0.11552782 -0.029680997 -0.026527088 0.06351282 0.071236484 -0.06041524 -0.013360266 0.03338185 -0.0068680015 0.03364131 0.048591338 0.066130064 0.026813159 0.016662661 -0.073098086 0.010610257 0.09118397 -0.085618556 -0.09917322 -0.069983214 0.0973217 0.06955319 -0.058988832 0.09726128 -0.11166209 -0.025793374 0.006760765 -0.09693724 0.02858888 -0.0176421 -0.014199641 0.0105953645 -0.095919706 0.005587074 0.11224421 0.12085322 0.09703543 0.023153987 -0.014077593 -0.09296439 -0.06510188 0.0059945285 0.13038237 -0.037096735 0.1026725 0.0057175746 0.10644984 0.09648417 -0.025194764 0.06781355 0.024413755 0.07743205 -0.033509832 0.0036961017 -0.092120506 -0.029229946 0.0066382783 0.051417507 -0.09048584 -0.050975785 0.021187527 0.051775537 -0.101590656 0.08246814 0.07476009 -0.12257817 -0.024375003 0.0026478516 -0.084456384 0.022590425 -0.040350802 0.0016761934 0.043020092 -0.022112615 0.034492694 -0.019680811 0.029233076 -0.06957145
