2220 128
643 0.046894792 -0.052402385 -0.052636776 -0.06805725 0.042022888 -0.057918172 0.018219069 -0.03256475 -0.06469712 0.05835602 0.003132008 0.019158779 0.069175966 -0.019592553 0.021691263 0.011292735 0.061410513 0.011063985 -0.00085837714 0.002266379 -0.025009718 -0.047232833 0.028769705 -0.028978638 0.020462759 -0.029235492 0.017307827 0.03342094 0.05514948 0.06577013 0.05148646 0.0051823095 -0.058881562 0.035241645 -0.023502497 0.001897395 0.05765297 0.007648602 -0.009986543 -0.049638856 -0.028683186 -0.011852349 0.026468398 -0.04794028 -0.028723797 0.0084688 0.050576497 -0.01195639 -0.05939216 -0.010291439 0.030359598 -0.013478395 0.048372533 -0.022363469 0.0059106527 0.036780108 0.042742454 -0.044328284 0.027777806 0.012188337 -0.00042995455 0.011060629 -0.069241695 -0.025173591 -0.029983362 0.040696964 0.0547645 -0.028620586 0.02454645 0.05138525 -0.007809337 0.041968454 0.05555064 0.017334567 0.04600873 0.009979761 -0.028555064 0.010128997 0.027042303 0.05936263 0.0669958 -0.025190607 -0.037548 0.06082511 0.066974334 0.008705844 -0.03244148 0.0011273318 0.06659435 0.012864701 0.025404016 0.024643688 -0.017087765 -0.014013395 -0.041206818 0.017298037 -0.017912535 0.015581302 0.0124035925 0.0034870473 -0.031122105 -0.049983002 -0.036557384 0.060788687 -0.04280304 0.06237427 0.015643781 0.012576079 -0.013244019 0.014858914 0.013009066 -0.025336111 -0.035662048 -0.050975233 0.060185492 0.008267018 0.009437136 -0.008298662 0.038867585 0.010223315 0.015956312 -0.024347873 -0.007847918 0.006642444 -0.016375318 -0.021232037 -0.003995781 0.024084918
592 0.03218689 -0.01717228 0.052310485 -0.014802448 0.0021674982 0.010654273 0.01440596 -0.06711073 -0.016684314 0.010476813 0.04872106 0.041207112 -0.042495165 -0.022813093 0.025486257 -0.0069237184 -0.009823555 0.03797978 0.01626905 0.041704252 0.0132821435 -0.036649927 -0.010996126 0.021437787 0.01150371 0.046362076 -0.008897926 0.0024163676 -0.043636195 0.0336475 -0.037613746 0.02861498 0.007950183 -0.019669894 -0.00493842 0.054837435 0.067104414 0.067592785 0.008222195 0.060792472 -0.0071224556 -0.0198869 0.029341502 0.024034407 -0.014229561 0.0133727025 -0.03206533 0.06398391 0.010106643 -0.007210289 0.009377437 -0.05898687 -0.032720808 -0.061293576 -0.0580567 -0.027705623 0.01298277 -0.065053046 -0.044744126 0.014356017 -0.016413648 0.0026613097 -0.049420714 0.024730211 -0.003039763 0.020425932 -0.034547843 0.010430785 0.025810009 -0.030049386 -0.025217077 -0.006494297 0.027886117 0.010934386 0.029746862 -0.05465489 0.046482023 0.008067518 -0.0056388713 0.015209681 -0.02191175 0.038856834 -0.027898833 0.0027495385 0.029275337 0.040766492 0.0065255375 -0.0016404171 -0.03874689 0.048061285 -0.025999015 -0.0047368803 -0.028989144 -0.06500246 -0.021092042 0.06020857 -0.0076246313 0.009538992 0.014220189 -0.0114067625 0.045343615 -0.05701665 0.02187528 0.0054930523 0.027839191 0.07107576 0.0050329054 0.0069595412 0.009693514 0.029933933 -0.019329919 0.018873801 -0.01009387 0.049001813 0.01977112 -0.00042453024 0.0401765 0.014364212 -0.007471764 -0.00930906 0.03105313 0.042613726 0.0020077277 -0.042825058 -0.026624788 -0.0020654765 -0.007929598 0.01687002
344 0.05463626 0.038701694 0.007822452 0.008616568 0.009822182 -0.023663579 -0.020295206 -0.0635767 -0.061243493 0.046205185 0.02095924 0.011297014 -0.03346778 -0.018436916 -0.020185888 0.043825343 -0.049526855 0.026113352 0.06138183 0.00090837665 -0.054291386 -0.054090854 -0.04992449 -0.040435214 0.021457331 0.0020574117 0.022462415 0.042692028 -0.008782604 -0.013348343 -0.018375915 0.020953627 0.03212561 -0.019071527 0.00085308205 -0.015605976 0.018135015 0.061956324 0.041205853 -0.001073099 0.07008407 -0.026936593 -0.038896397 0.05458419 0.0446585 -0.0292221 -0.028079329 -0.021206744 -0.045283895 0.058481954 0.008902669 0.024876386 0.007876676 -0.07079362 -0.029216912 0.035186697 0.051506903 -0.0052494872 0.018145304 -0.06175378 0.024239283 -0.027564498 -0.008563512 -0.015763585 -0.011387396 0.008508163 -0.028554356 -0.023536967 -0.046366606 -0.0053693797 -0.04399165 0.038656283 0.043190464 0.061325483 0.01837028 -0.017780237 0.033242602 -0.008399399 0.011109543 -0.025037117 0.02959247 -0.016955882 -0.06015274 -0.026225539 -0.0031412072 -0.009297069 -0.002553075 -0.053606667 0.04023062 -0.03568281 -0.060785938 -0.01809782 -0.0053389557 0.024182249 -0.010698659 -0.011746159 -0.022554083 -0.056441143 -0.044723388 0.017048523 -0.006741477 0.0133962305 0.04764103 0.06496347 -0.01951577 -0.042122785 0.042563852 -0.0072947945 0.03717202 -0.0153511865 -0.027298464 -0.005643204 0.013884513 0.04973248 -0.022392642 0.050373353 -0.062161196 -0.031149173 -0.045403533 0.0060836356 -0.0063029453 -0.007087196 0.06598202 -0.02650304 0.0044777505 -0.03738003 -0.0068788393 -0.012957362
345 0.059474554 -0.05592894 0.008936628 -0.0070917537 -0.0041139782 -0.038561005 -0.014775989 -0.034385316 -0.046936497 0.021793304 -0.008891439 -0.023218418 0.0106719965 0.016437571 0.061388656 0.031084439 -0.015848977 -0.041078504 0.027031383 -0.008515097 0.011687203 0.033822216 -0.009625296 0.04433395 0.038231026 -0.02164748 -0.021750022 0.070422865 0.015161223 0.035874218 0.01441857 -0.05349115 -0.0067078443 -0.004515562 0.04350562 -0.04147238 0.04984378 0.008543157 0.017046405 -0.0350677 -0.031902846 -0.012282418 -0.065207005 -0.0125972405 0.025387641 -0.010179338 0.0010987556 -0.011295203 -0.033595845 0.042994786 0.040078472 0.023678197 0.046113875 -0.06284141 -0.030465376 -0.030832112 0.009683248 -0.0007679049 0.07117494 -0.0067018196 -0.022230124 -0.014548706 -0.014308881 0.009177282 0.0014891278 -0.0030655942 0.04091764 -0.026224682 -0.007411879 0.041514374 -0.010947147 0.033133615 0.050391104 0.06225215 0.0026351998 -0.0515478 0.025765557 0.008260126 -0.025964323 -0.011525945 0.049375623 0.023333011 -0.011670621 -0.0020728935 0.007984617 -0.00012927421 -0.06681965 0.029579237 -0.012368215 -0.04726921 0.03950767 0.0473763 -0.025691416 0.02146851 0.028937843 -0.019828485 -0.017588764 -0.054548275 -0.010996472 0.03368389 0.0019232741 -0.005752469 -0.05854883 0.0032445316 0.021286119 0.036161423 0.026197158 0.021209747 0.056241676 -0.01955333 -0.014381271 -0.06726464 -0.0075591505 -0.007914982 0.016736377 -0.015877021 0.04287077 0.028693078 0.013298889 -0.033398267 -0.069943935 -0.03045115 -0.026630767 -0.055150565 -0.064409465 0.034153197 0.053924438 -0.011572898
346 -0.011641855 0.06774739 0.019927418 0.04759537 0.024996694 0.028239015 -0.018683214 -0.010862157 -0.067656465 -0.05148198 -0.052291073 0.036171835 0.02320076 -0.0144055765 0.045858335 0.034775764 0.0072998134 0.044236023 -0.049682852 -0.020468026 0.045020536 -0.009111031 -0.012291448 -0.034431033 -0.004734735 -0.028318472 -0.021893838 0.0034775985 0.045560606 -0.015705034 -0.028796056 -0.028362919 -0.049599662 0.065912865 -0.046715308 -0.049661852 -0.00935532 0.006732393 -0.04864913 -0.011848416 -0.05127121 0.004178202 0.012477043 0.0011581947 -0.0012686639 -0.037605915 -0.07105168 0.0034716036 0.025373628 -0.014076863 -0.0538535 0.06579596 0.03860104 -0.0060500903 -0.008319222 0.040301062 0.0036540888 0.018317178 0.0036113337 0.0057099424 0.054772656 0.005439287 0.047669232 -0.024961175 0.0037707388 -0.02237415 -0.05260048 0.027530296 0.02803334 -0.0010376564 -0.041978113 -0.044337172 0.0029393644 0.022565583 -0.019018374 -0.051662017 0.015508786 -0.03615243 0.044290446 -0.016666993 0.013787254 -0.02219612 -0.01687386 0.06419694 0.026045296 -0.005517701 -0.01380777 -0.010319602 -0.018036528 -0.05611718 0.05201337 -0.040329 0.0052072406 -0.01764227 -0.010200363 0.05152171 -0.007483255 -0.00096144574 -0.047419824 -0.017137524 0.018650677 -0.0603513 -0.029248526 -0.010739607 -0.0072874487 0.025874823 -0.024559343 -0.0077987127 -0.0376576 -0.052117024 -0.036724787 0.038099553 -0.015586527 0.050288882 0.01740115 0.05239652 -0.045465637 -0.008296783 -0.023889512 0.010570232 -0.015228683 0.021844395 0.04413623 -0.0050609745 -0.006045345 -0.010640299 0.0411415 0.022025961
347 -0.019015454 -0.012905164 0.018833833 0.016031977 -0.06756734 -0.003548257 -0.03671584 -0.0593108 -0.049458455 0.04552408 -0.021444652 0.06143917 0.008486912 -0.018018708 0.059296377 -0.027574275 -0.03852764 0.011968531 -0.018855805 -0.034435615 0.02169039 -0.028078943 0.03928821 0.05356289 0.057612944 0.014965921 -0.0655019 -0.06944613 -0.023290755 -0.04361063 -0.019411515 -0.059280526 -0.017181443 0.010280808 -0.013733722 0.06619356 0.03488333 0.0014675 0.014909883 -0.058019597 -0.0034787362 -0.02556869 0.042780757 -0.023211084 -0.025376733 0.0209638 -0.002598377 -0.0034002052 -0.016943097 -0.02514752 -0.053824052 -0.029711243 0.041272417 0.06866298 0.000612961 0.008314291 -0.031630747 -0.052814677 0.01233823 0.028559236 -0.040942688 0.0501243 0.02907099 0.045200065 0.056679714 -0.014540282 0.0044447226 0.0074595436 0.045232184 0.0038797087 0.019735845 -0.035963256 0.0149745615 -0.043261383 0.012805898 -0.026023537 -0.033015374 -0.027150279 0.047147423 -0.044132743 -7.947348e-05 0.04945824 -0.007890686 0.054486815 0.06729256 -0.039569397 -0.027867556 0.037283752 -0.026519986 -0.039602883 0.033161335 -0.030248398 -0.06964335 0.004823646 0.002638671 0.004080038 0.01612681 0.052200396 -0.05275395 0.03154071 -0.060412526 0.02150726 0.014291881 -0.056909513 -0.014799802 -0.03128817 -0.041272808 0.060127046 -0.0022562807 0.0024527826 0.010690048 0.03264421 0.03289721 -0.0610766 0.00067021215 -0.011727743 -0.013935995 -0.02761298 -0.0053404886 0.012226737 -0.028416289 0.027145945 -0.028248908 -0.027259078 -0.024940256 0.03732059 0.04568267 0.032469146
340 0.0025949297 -0.03300473 -0.03999679 -0.013402921 -0.012125525 -0.013435054 0.03837195 0.029164376 -0.05539801 0.04484402 0.018507073 0.0136485435 0.059582774 0.011237901 -0.04209114 0.053477317 -0.048903745 0.06490665 0.04761137 -0.04008014 0.0005591066 0.024537705 0.04988289 -0.024968497 0.031102013 -0.005962148 -0.012743895 0.022496942 0.06752692 0.009571412 -0.049471587 -0.0035668574 0.011984472 -0.0062507647 -0.02290835 0.03549445 0.037161034 0.0483584 -0.01701238 0.024241332 -0.006576054 -0.04296838 0.010768369 -0.023156643 0.028379528 0.008523491 0.0064311647 0.029545523 -0.009642356 -0.0166096 -0.027607054 0.052474402 0.0100224605 0.0069656246 0.0038194298 0.037877593 -0.030936789 0.010938211 -0.018338062 -0.03589035 0.022322258 -0.05773275 0.012823527 0.043767713 -0.022715766 -0.0046188077 -0.015913228 0.014488488 0.060474027 -0.0019840938 -0.016080493 -0.017637132 -0.028534021 -0.008502497 0.007753783 0.019812796 -0.019990943 -0.061572533 -0.06472724 -0.038140193 0.0011627201 0.023770295 -0.02415992 0.03318251 -0.0032712345 -0.06415215 -0.01101394 -0.018164594 -0.04614711 0.024435041 -0.023011625 -0.048462886 0.024892557 0.06297784 -0.023469843 0.01048725 -0.06408986 -0.053559568 -0.06956583 -0.04511915 -0.02690655 0.045424584 -0.012753674 -0.006168227 0.0060492055 -0.014200893 0.027409276 0.060878307 0.007309555 0.0017308964 0.003947468 -0.040073626 -0.009470846 -0.03502565 -0.018714149 -0.02453786 0.05700738 0.022097446 0.026526129 0.01646784 0.006236913 -0.023704961 0.003604575 -0.040712707 0.00670741 0.02477676 0.0026136518 -0.0249747
341 -0.037163533 0.0069217263 0.025095569 0.008397821 0.018438462 0.027739277 0.02134733 0.028441135 0.004484799 -0.02355238 -0.0353985 -0.05134327 0.043651666 0.027080558 0.016672803 0.016462184 -0.020471621 0.03778479 -0.038386315 0.025802286 0.024604494 0.06190233 0.051131334 -0.06550299 0.014520429 0.0028739548 -0.031842902 0.018216612 0.025818713 -0.04517226 -0.033360165 -0.06538305 -0.035212122 0.02558382 -0.034718696 -0.03102424 0.005253099 0.033832327 -0.06159232 -0.035158228 -0.0455695 -0.046645205 0.025224311 -0.01454931 -0.00072777824 0.04574823 -0.030954424 0.003010772 -0.009637554 0.010476533 0.05921539 0.010530655 0.049271714 0.022224601 0.008761063 0.020995421 0.013302724 -0.0032312246 0.052989677 0.010453993 0.026183037 0.0041982825 -0.040591158 0.02955683 -0.06583842 -0.009518461 0.069661915 0.019235399 -0.0150573235 0.06204111 -0.025174193 -0.012332295 0.0028426717 -0.00713222 0.03552999 -0.0012164873 0.02602167 0.047724005 -0.021905271 -0.02005759 -0.008403347 -0.010594476 -0.030561205 0.0363943 0.023116738 0.041174904 -0.06926909 0.03658091 0.0012519334 -0.038001537 -0.01817655 -0.015327666 -0.027349304 0.019000055 0.042707678 0.06225235 -0.034165334 -0.0042242133 0.03344148 0.009286978 -0.013043685 -0.050196234 -0.023997415 -0.011281099 0.01676649 0.028703379 -0.06749928 -0.017262941 -0.0016468479 -0.05302794 0.031408083 -0.06435894 -0.000834418 -0.018974323 0.007959173 -0.01749192 0.026279453 0.029446239 -0.020508926 -0.069538936 0.021819226 -0.0012822641 -0.051833734 -0.010762908 -0.025152385 0.034329955 -0.0038488065 0.052763272
342 0.00013379035 0.002408449 0.00336553 0.0009065438 0.0015362368 -0.004449288 -0.0017119562 -0.0026919206 -0.00019480876 -0.0026695654 -0.00056325836 -0.022245366 0.027916383 -0.012518786 -0.0014946901 0.0024487225 0.0009669515 0.03051613 -0.00080092804 -0.001247721 -0.002366281 -0.009701129 0.011211503 -0.00041614333 0.0002475925 0.022542793 -0.019115865 0.002226427 8.3106126e-05 -0.012542991 0.019518659 -3.2770695e-05 -0.023708347 -0.019770434 -0.020227432 -0.00023303596 0.00056104467 0.02010524 0.0026584375 0.0016062809 -0.00087100134 -0.010431778 0.010800925 -0.021051168 -0.0073773437 -0.019820223 0.01171497 0.00058836257 0.0014490633 0.01984194 -5.9600687e-05 0.010878298 0.0008295752 0.00995959 0.008689759 -0.029836783 -0.0024230843 -0.0053484268 0.010930356 0.030065164 -0.004930408 -0.0005824717 -0.008148562 0.0001362238 -0.00039781243 -0.0066625634 -3.662002e-05 0.0001969235 0.0026563667 0.025833564 0.00016862476 -0.02435587 -0.021157067 0.025715236 0.0017286767 0.030615631 -0.014351619 -0.000924041 -0.0064282496 0.0009126712 0.010522962 -0.01894892 0.013900549 0.0143783465 -0.027233336 -0.0007963551 0.009037693 0.00759882 0.0018602285 -0.021455325 -0.028104141 0.014623581 0.025498902 -0.019795917 0.018033905 0.00041817094 0.008281352 -0.011618404 0.0026405023 -0.0005940108 -0.0012555729 -0.00929357 -0.028075749 -0.026482757 -0.003851343 -0.030188564 -0.010150549 0.0029561059 0.0041599516 0.013535382 0.000982195 0.017320791 0.00044885534 0.0016500392 -0.02936919 0.009232437 -0.0009241418 0.0017585445 0.0075537595 0.002518978 -0.0020862739 -0.018912967 -0.0026067444 -3.389531e-05 0.024862034 0.023016378 -0.009933956 0.015951958
343 0.070804566 0.017403632 -0.00037171005 -0.0046095476 0.014986396 0.016560864 0.035842326 -0.014793134 0.04295899 -0.013058585 0.032928444 0.0048305243 -0.04884666 -0.01978741 -0.029063417 0.026228279 0.024172187 -0.059637953 0.06706298 -0.013715516 -0.024782188 0.027157282 -0.0370838 0.027101541 -0.008976652 -0.020006368 0.051772654 0.011283068 0.017676938 0.029006287 -0.00017590157 -0.068290204 0.059144095 0.06439773 -0.01981218 -0.022709534 -0.05425529 -0.007952131 0.014673962 -0.0049678786 0.02479543 -0.06218367 0.025915015 0.005344725 0.06835767 -0.044716254 -0.035280716 0.03787249 -0.04849992 -0.0644456 -0.059768174 0.033308603 0.0633712 -0.062335603 -0.050894156 0.012268133 -0.014724905 0.0650186 -0.026936464 0.009726826 4.1196938e-05 0.018212242 -0.0067514284 -0.041142777 -0.007711245 0.05692205 0.04218648 0.04258038 0.013083249 -0.010013376 -0.034154452 -0.006123009 0.02559368 -0.020452512 0.026405552 0.04543099 -0.0018508051 0.02705017 -0.010314917 -0.047922555 -0.04683125 -0.029750938 -0.019235065 -0.013438101 0.010809608 -0.05523063 0.013178229 0.059145458 0.023589315 0.038115326 -0.034743316 0.038674135 -0.029242152 0.063919894 0.015325811 0.0006310828 0.0029358026 -0.009807799 0.01568529 -0.028658628 -0.028108785 0.01128169 -0.044082597 0.008888572 -0.056595463 0.027618336 0.02412333 0.0039054852 0.035716217 0.045171175 0.016762942 -0.06592091 -0.06618208 0.030283626 -0.013265131 0.056656923 -0.028417569 -0.04293535 0.022407155 -0.009003347 -0.022206057 0.044428412 -0.027821528 -0.042865343 -0.020554315 -0.044104278 -0.012644961 -0.04977704
348 0.04145233 -0.024070542 -0.036981 -0.05644103 0.05251207 0.0086565865 0.059710257 -0.053474437 -0.008732265 0.021323677 -0.034615375 0.029836725 0.041491784 -0.014157306 0.05758898 0.016788907 -0.016690277 0.0073696375 0.030658629 -0.01586313 -0.023581248 0.026361074 0.06230957 0.029861724 -0.005283721 0.006352541 0.010233869 0.060812186 0.009474978 0.06537143 0.0620907 0.0050122887 -0.04402925 0.05484514 0.03127601 -0.06219708 0.02705756 0.06683219 -0.047443718 0.0017533771 -0.008622017 -0.020199703 -0.02481664 -0.059750848 -0.028342485 0.053146724 0.0441595 -0.04704289 -0.06283351 -0.0028128217 0.05054097 0.035516538 0.0029200376 -0.030998468 -0.060647503 0.056072805 -0.029791486 -0.06822535 0.057016976 -0.028813364 -0.006973836 -0.027517386 -0.06741582 0.04956088 0.012736808 -0.03519538 0.012111941 -0.019300345 -0.0031958977 0.0015171862 -0.021817133 0.03788547 -0.021045746 -0.021213314 -0.011267242 -0.06300848 0.04449993 0.0012603629 0.044520397 0.07055941 0.04963174 0.027783383 -0.014331365 0.0163146 0.02958097 0.0032052528 0.027018264 0.021914516 0.0147185465 0.028589353 0.015797187 -0.016800445 -0.07006368 0.04061876 -0.012831337 0.054905795 0.006169258 -0.019813389 -0.020138856 -0.032947958 0.027730111 0.027994934 -0.046976168 0.015576223 -0.045163095 -0.009608113 -0.013329814 -0.014651648 0.06123544 -0.036947545 -0.0152908 -0.020388706 -0.03405461 -0.018508226 0.020415159 -0.005804335 0.06297712 -0.014226 0.01285726 -0.035787757 -0.053812586 0.028143294 -0.023945369 -0.04170427 -0.055009738 0.041609943 0.061387498 -0.057265084
349 0.049458988 0.05882041 0.030268017 0.059313253 0.006535007 -0.06460133 0.04295106 0.02916881 -0.015237142 0.0051448992 -0.054991838 -0.005686706 -0.009767246 0.068470545 0.013505792 0.024969595 -0.04318063 0.02241914 0.024010422 0.0057112454 0.024254648 0.00546763 -0.036726262 0.0097250035 -0.030514194 -0.060700133 0.012220179 0.045388673 0.026833346 -0.005081184 0.0038289246 0.021325197 0.0119067095 0.001566996 -0.02547897 -0.032466255 -0.015983265 -0.012957156 0.05930099 0.018663898 0.017637035 -0.032595176 0.029575936 -0.04357962 0.0068221046 -0.0046145665 -0.01760923 -0.024146559 0.0070233997 0.040406145 0.011336067 -0.006924558 -0.03865429 0.00052905537 0.0018378787 0.05347623 -0.051813945 0.05942182 0.02233508 -0.052383885 0.03567804 0.048024632 -0.036195923 0.025645437 -0.01266109 -0.030050004 -0.043360773 -0.011397669 0.040479727 -0.021258665 -0.058550954 0.017450675 0.029686885 0.010458092 -0.038906563 0.0042975494 -0.017700959 -0.034181178 -0.023930503 0.0314167 -0.033635665 -0.021334516 0.038954604 -0.007753455 0.069086224 0.052718785 0.02798062 0.014771754 -0.046004374 0.03943138 -0.03721182 0.015823016 0.023506165 0.004357624 -0.02277872 0.010310803 -0.046974134 -0.04355576 0.028038682 0.029387057 -0.062080447 -0.06975638 -0.026232839 -0.04062791 -0.023143716 -0.046026293 -0.025699653 -0.0020948148 0.012891015 -0.026522277 -0.0011442592 0.029190926 0.06499573 0.0016638947 -0.06835316 -0.023237627 0.058271624 -0.048059575 -0.026250422 -0.0042335796 0.0471836 -0.03886904 0.0029153926 -0.029468633 0.038057238 0.0031743792 -0.067995645 -0.0039283508
298 0.02488557 -0.058865182 0.0069771865 0.04314738 0.022017928 -0.03550213 0.019489096 0.059850637 0.030207947 -0.053631436 0.028813759 -0.04109272 -0.023292763 0.005340394 0.03816942 0.059004463 -0.0052905004 0.023228724 -0.026543703 -0.053892024 0.020490702 0.009553963 0.025996454 -0.031284932 -0.06361639 0.0019083727 0.020859107 0.012143208 -0.041839134 0.046376757 0.023677783 0.017752318 0.06696487 0.051892247 0.012141705 0.033460513 -0.030555924 -0.013644955 -0.026408164 0.004385947 -0.035003603 -0.011648501 0.0024435832 -0.012671372 0.052817058 0.001550816 -0.03509576 0.0041926177 -0.028283687 0.06472124 -0.007332779 0.011296526 -0.06353633 0.025976066 0.07005344 0.02234332 0.029107472 0.0053831274 -0.0280023 0.025970679 0.019744802 0.039980765 -0.0089126695 0.021273907 -0.011896894 -0.027744034 0.004596129 0.02406101 -0.011833954 -0.059244804 -0.0072272676 -0.009665906 -0.046010975 0.03762993 -0.03492611 -0.0012232689 -0.055687502 -0.0036093537 0.0060832007 -0.052959308 0.02947587 0.0110434275 -0.059973113 0.020143727 -0.066621624 0.026611872 -0.066666305 0.05575334 0.06607652 -0.027763596 -0.019942159 -0.040434342 -0.044713985 0.03835285 -0.014149504 -0.041882694 0.032039132 0.02513815 -0.0076455716 -0.025194421 0.059228253 0.038354978 0.046265803 0.060943656 0.020567248 -0.06649277 -0.06500774 0.06134415 -0.016522773 0.04641281 0.024993073 0.05409385 0.022653654 -0.0121060405 0.047453735 0.06242865 0.061874043 -0.016109657 -0.060297314 0.0074494006 0.05008958 0.025826493 0.02541171 -0.03884142 0.051656265 0.02858763 0.06540912 -0.022370225
299 0.0017942196 -0.021666516 -0.025538858 0.048647355 0.06796525 -0.066016614 -0.009114707 0.054626208 0.0029666922 0.05893147 0.052901 -0.03201334 -0.051380936 -0.010299106 -0.05618981 -0.0055028684 0.06264336 0.005818506 0.054242827 0.025848135 -0.04765329 -0.028382208 -0.03986355 0.018278254 0.06250438 -0.04631784 0.032388467 -0.051434636 0.043161 -0.009716155 0.016076526 0.047486622 -0.020569276 0.018668313 -0.036061544 0.022445418 -0.058855508 -0.03274569 -0.012510349 -0.055444088 -0.060595017 0.006140879 0.01959491 -0.050038975 -0.033781018 -0.030433234 0.07077759 0.016782777 -0.021644957 -0.014585861 0.026980575 -0.016049283 -0.012794332 0.0017038439 -0.032997705 0.036647256 0.06868757 0.0350099 0.047519248 -0.05892621 0.015672145 0.019590853 -0.062160727 0.062339835 0.050018508 -0.029701984 0.043139614 0.019521175 0.0002297429 0.06957704 -0.008395951 -0.04182889 0.01583628 -0.054053456 0.03473613 0.06897401 0.045083378 -0.06103833 -0.03174578 -0.057111535 -0.05280702 -0.045146648 -0.006448124 -0.012707633 -0.03916528 -0.021243207 -0.011804563 0.021314308 0.036074653 0.008836439 -0.0010486515 0.016714538 0.011259908 -0.036537442 -0.0012056832 -0.0128348 0.05509643 0.054172255 0.061585605 -0.024440004 -0.03408129 -0.026897691 -0.01463886 -0.06806868 -0.05946433 0.024848074 0.0044454723 -0.059527777 -0.036570948 -0.02118558 -0.06693283 -0.001903255 -0.0057619233 0.011240446 0.03402709 0.042253636 0.04230831 -0.06098445 0.017102325 0.059090376 -0.060719837 0.018998498 -0.060931474 -0.03247874 0.018871713 -0.016961088 -0.0037788313 0.0400713
296 -0.00031697738 -0.019526305 -0.0009233217 0.016758677 0.00025161193 -0.0026351337 0.020445129 7.997393e-05 -0.01899641 -0.016270319 -0.02861373 -0.00069233036 -0.004098151 -0.0012916795 0.00013280855 0.002682204 -0.00091735553 0.013427174 0.028233979 -0.0063963686 -0.024174016 -9.158507e-05 -0.0026988764 -0.01601073 0.0024987487 0.006483938 -0.024921343 -0.0022641155 -0.029955007 0.0078007714 -0.009369254 -0.011738874 0.027286682 -0.011546042 0.0049074357 0.00900415 -0.028687216 0.00013058641 -0.028036756 -0.00068838603 0.008792901 0.0027268606 -0.0024182193 -0.027688757 -0.016558817 0.025923109 0.012921238 0.021466 0.0053364406 0.011027509 -0.025007823 0.0013430081 0.0017075413 0.023034446 -0.023419147 0.0246952 0.003700695 -0.025857443 0.0009019666 0.020504603 -0.013119989 0.0055352505 0.024101488 -0.014162518 -0.020065505 0.011194831 0.0025089853 -0.00035364932 -0.0049513443 0.0033383386 -0.007998618 -0.012095748 0.0011393321 -0.013812981 0.00065773353 0.011997121 0.0012967443 0.01740698 0.016682275 -0.0025338589 -0.02569812 -0.009066725 -0.008183219 0.026613843 -0.02845763 -0.00023451723 0.02591082 -0.0006274337 0.022902854 0.010341081 -0.00037676364 0.022493273 -0.013883844 -0.00364388 -0.00042608168 0.00022786703 -0.01759264 -0.0028127197 0.015222661 -0.0027056558 -0.010666419 -0.00042100452 -0.019710494 -0.024388287 0.00012964134 -0.0055378624 -0.00087327935 -0.011418836 -0.0017702276 -0.015296034 -0.00015786049 -0.014083769 0.0012746109 0.02553611 -0.0058312216 -0.0007660154 -0.0015352545 -0.011865916 -0.0022167496 -0.022456754 -0.0030581863 0.00038786366 0.03030143 0.0049492964 -0.013439919 -0.012770345 0.026036395 -0.006784142
297 -0.06498102 -0.039979067 -0.010482369 -0.0128527675 0.037639517 -0.05574916 -0.0071491287 0.03064479 -0.0419234 -0.06290669 0.065246075 -0.013478396 0.03612852 -0.016187035 0.029427316 0.02223988 -0.0064106355 -0.0037907707 0.06914298 -0.011103071 0.009502249 -0.0008651408 0.03721335 -0.016091906 -0.024664944 -0.015502417 -0.03236556 -0.019507486 0.034526635 -0.012011006 -0.007800577 -0.053024735 0.0089587 0.0619414 -0.0001259544 0.039257284 -0.045350593 -0.06586447 -0.014339243 -0.04956964 0.05099454 0.03158019 -0.039388437 0.024420537 -0.004722441 -0.010143961 -0.002777361 -0.0069654123 0.016225161 0.020095127 -0.037460703 -0.01133654 -0.014303684 0.010656164 -0.028666858 0.020595135 0.03767755 -0.05846944 -0.040281445 -0.023952972 0.019537184 0.041465353 -0.05860126 0.0443943 0.010162122 -0.041462637 -0.036643386 -0.05997705 -0.04270925 -0.030252786 -0.060191955 0.015313363 -0.018156078 -0.027233375 -0.026154686 -0.02018915 -0.0066053146 -0.061218806 0.04855807 -0.024962965 0.04799674 0.042824466 -0.0006668232 0.021431305 -0.06024006 -0.0006368998 0.048245326 0.011428408 0.0005114718 0.02196487 0.013963583 -0.014242154 0.027869692 0.024799457 0.06415221 -0.061366465 0.017852155 0.05896518 0.04903019 -0.045000073 -0.0302005 0.041472588 0.062592655 0.063027285 -0.06955608 -0.016725823 0.041998267 -0.07009802 0.016809873 -0.051827434 0.013095568 0.00090975536 0.008941561 0.012753947 -0.01294642 0.0014706742 0.045752086 -0.0073843244 0.050388917 -0.019517828 -0.06349217 -0.012832534 -0.062042303 -0.04308513 -0.0074135745 0.030945119 0.030070024 -0.017571505
294 -0.057379432 0.01999503 -0.02859353 0.007329751 0.032203484 0.0129464045 -0.021719702 -0.00572512 -0.026093893 0.04240925 0.06927017 -0.004484707 0.034466594 0.02613445 -0.052905582 0.05442104 -0.028581206 0.06703787 -0.046535086 -0.006072711 0.06915922 -0.05766439 -0.042146195 -0.019372487 0.033027913 -0.009587578 -0.065477885 -0.065465026 0.014225417 0.039081793 0.01189893 -0.029209338 0.013271772 0.06383204 -0.050860137 0.0029714499 0.012788399 -0.02852909 0.011842705 0.0068027126 -0.028083606 0.02411838 0.036986288 0.012580041 0.06373263 -0.017379822 0.03058918 0.03971004 0.013736774 -0.0115945265 -0.036116645 -0.029397035 0.056480058 0.018995035 -0.06264905 -0.0067468295 -0.017680168 0.031564537 -0.03545713 -0.023618639 0.011382302 -0.044937886 -0.030466493 -0.010725308 -0.03160986 0.03210038 0.04491663 0.002325492 0.065532975 -0.03581751 -0.053225346 -0.06367218 0.022469273 0.022673437 0.023656433 0.019025762 0.03133548 0.0058921007 0.00022754492 0.047432814 0.06719395 0.06642165 -0.059795942 -0.012865865 -0.07148984 -0.010945603 0.0075905034 -0.04796845 -0.021027138 0.01806525 0.033167437 -0.034135334 -0.06223011 0.049634695 -0.007923537 -0.021361573 -0.05319218 0.05973937 0.020358969 0.0076924236 -0.07078149 0.018288413 0.012480653 0.06932052 0.018913794 0.019740906 0.048843443 0.051738393 -0.023252673 0.005849262 -0.046097387 -0.02218469 -0.06076393 -0.012953464 -0.0014481301 0.05868245 -0.0027421603 -0.06442985 0.026090767 -0.030228537 0.011993126 -0.026214818 0.020761725 -0.009795961 0.008167505 -0.037355386 -0.011231476 0.003337733
295 0.027425375 -0.01713376 -0.043249767 -0.039954793 -0.05370965 0.036210705 -0.00904678 0.0066410378 0.045702532 -0.02126113 0.024732014 -0.016159315 0.01758701 0.064519785 -0.0038280962 -0.021863606 0.022189042 0.007352723 -0.010221795 0.0007552522 -0.042916797 0.05058725 -0.016154693 -0.03655471 -0.016883697 0.051310323 -0.055480264 0.0081921555 0.011065019 -0.0036714324 -0.044936143 0.0575907 -0.031382207 0.02782744 0.020213416 -0.019314608 -0.024146365 -0.046812776 -0.006749088 0.024876583 0.04314245 0.030687625 -0.047304407 0.013277985 -0.01430194 0.05600954 0.058702726 0.04741622 0.048045605 -0.061589863 0.018903205 -0.05016723 -0.007453801 0.044530347 0.052301552 -0.015972348 -0.043036398 0.04739155 0.043198172 0.010763797 -0.057838574 0.00616211 -0.03408582 0.021522066 -0.03941843 -0.03666574 -1.6851583e-05 0.0076731085 0.027565239 0.02174146 0.0057162615 0.011930801 -0.005227039 0.036961723 0.002318778 0.026396714 0.011735433 -0.01676414 -0.03943014 0.003235117 -0.04404774 0.035436325 0.022736121 0.033479612 0.002753707 0.010227427 -0.023485595 0.00550606 0.021410475 0.003803973 0.011402611 0.004791339 0.01567902 -0.04760126 -0.06542314 -0.027725518 -0.05286996 -0.026100904 0.019181788 0.028140955 -0.0018937667 0.057163138 0.014421348 0.045977652 0.011507089 0.041677654 0.0047250646 0.030326774 0.015367102 -0.022019407 -0.036302492 0.0050006015 -0.034970205 -0.01722942 0.056967165 0.0033778704 0.043613628 0.053977482 0.013970895 -0.00500514 0.00966383 -0.01221221 0.030541444 0.014815071 0.0024480633 0.0125613175 -0.02472913 -0.004950522
292 -0.02213783 0.040272105 0.029885374 0.01249918 0.016509179 -0.0045510815 -0.0049814344 0.018329907 0.04113436 -0.0051524434 0.007834093 -0.002995055 -0.010891092 -0.017944872 0.055338778 0.007771128 0.021591939 -0.01685387 0.02937931 0.05965038 0.0009940031 0.06877569 0.017844886 0.0074149347 0.0023030571 0.032843757 -0.0041635716 -0.040576253 0.013699818 0.011726618 0.055594355 -0.022716666 -0.061223138 -0.043461468 0.03151592 -0.046415064 -0.058741733 0.062436704 -0.023551162 -0.037294637 0.012834336 0.055940345 0.006710201 -0.0074794125 0.038138222 0.044915188 -0.016784228 0.010752128 -0.034786016 -0.04988432 0.0018566272 -0.014110325 0.01528102 0.027606696 -0.012798113 -0.012068107 -0.040747408 0.017223911 -0.021676764 -0.048143223 0.053693287 -0.050258145 0.028344916 -0.01242043 0.009349239 -0.006456026 0.04946585 0.006222306 0.036663137 -0.024092548 0.0069036363 0.057550624 -0.024511505 -0.007989788 0.03248838 -0.018317264 -0.028291155 0.0098157935 0.041690692 -0.0061635645 0.06598242 0.020921053 0.025740128 -0.040221713 -0.0073732925 0.057715766 0.06100445 -0.037483267 -0.009655029 -0.02196142 0.051437184 0.0043722237 0.005748048 0.020954128 -0.07023211 -0.029738631 0.0054378654 0.022817545 -0.018170709 0.06712229 0.011817126 0.015337739 -0.0715506 -0.022425251 0.0059947325 0.0035739148 0.03996232 0.019720681 -0.011540131 -0.06318571 -0.011835976 -0.0216005 -0.039370254 0.0016520232 0.013029423 0.011802756 -0.0011639349 0.070036665 0.04403985 -0.003229065 0.028841158 0.012627067 -0.014845083 -0.047527168 0.050281342 0.052493338 0.028146848 0.05872383
293 0.0536362 0.053069066 -0.054043006 -0.015505054 0.052731093 -0.0055151684 0.068982735 -0.030713521 0.057529625 -0.07090861 -0.06570318 -0.04536299 -0.015903044 -0.020987194 -0.03544036 0.060722873 -0.012156219 -0.030003235 0.011611593 -0.00045758171 -0.03275528 -0.012053717 -0.020778812 -0.0012195423 -0.057349306 0.043770794 0.0056051635 0.05922151 0.06544101 -0.057200868 0.04741913 -0.017799627 -0.026126405 0.012966587 0.00018472888 0.03315293 0.06745395 -0.014819577 -0.03529828 -0.029028554 0.006450791 -0.03114359 -0.0003922945 -0.006138578 -0.05412173 -0.013409297 0.052680023 -0.058859624 0.034974486 -0.029681128 -0.04368526 -0.015259592 -0.0009385351 -0.0035235675 -0.0032113274 -0.060319148 -0.011820016 0.064470544 0.006556279 0.054511387 0.062173747 -0.06627984 -0.04123081 -0.028829878 0.048072577 0.028230328 -0.027867792 -0.0461945 -0.028553316 -0.052014995 0.058412857 -0.042146176 0.025170116 -0.020731458 -0.029057523 -0.009707114 0.06997011 0.041118152 0.0021679183 0.023610303 0.028199214 0.01955867 0.013930675 0.012884274 -0.021976007 -0.0090932585 -0.013051716 -0.006984234 0.0139307305 -0.00552404 0.06663473 -0.046672 -0.0036994333 -0.0348311 -0.030849926 0.0017877128 0.028762922 -0.017218849 -0.007978941 -0.02524521 -0.019001227 0.045877445 0.019270953 -0.0008697135 0.015984459 0.05339125 0.01829136 -0.062112525 0.012695582 0.028507974 -0.027452447 -0.026526963 -0.0657013 -0.068905674 -0.0061758975 0.05107786 -0.01386523 -0.005838622 0.0671823 0.022172738 -0.020427037 0.008863867 -0.030437542 -0.025810856 0.017273558 0.052881747 -0.060824607 -0.017135734
290 0.046689175 0.030715741 0.0137780225 -0.046293505 -0.026579805 -0.030374156 0.007716333 0.012679918 -0.0063799596 -0.03585689 0.017802339 -0.06679804 0.028872842 0.005344946 -0.06554233 0.055680618 -0.026536047 0.012925946 -0.036433447 -0.023541078 0.02597824 -0.048838504 0.016709544 -0.012866996 -0.006849859 0.02519426 -0.06458524 0.043548148 0.020071993 -0.03410143 0.055277113 0.0663309 -0.01333579 0.031546924 -0.0563591 0.054262187 -0.03861316 -0.048128497 0.016628595 -0.044364866 -0.022987658 -0.0067611975 0.021173745 -0.040451787 0.008320841 0.0077045145 0.0077437726 0.0026638238 0.02826481 0.002943358 -0.044542976 0.010453746 -0.038198795 0.03670911 0.012107129 -0.048780914 0.048244175 0.043818973 0.002232029 -0.019285422 -0.030582657 -0.051049326 -0.04126001 0.066434585 0.0048252493 -0.009588656 -0.005279855 0.054504205 0.027802818 0.0304854 -0.026675869 -0.0004073428 -0.030556727 0.05349456 0.039376885 0.056391947 -0.0016866778 -0.013390401 0.05874356 -0.047507647 0.057391055 0.011805964 0.0362043 -0.026765501 0.0009799841 -0.049511764 0.031581044 -0.03762206 -0.06937113 -0.02158924 -0.030513596 -0.013084655 0.04837666 0.061593495 0.068773 -0.06952954 0.050727706 -0.020210417 -0.011659156 -0.009205839 0.047364224 -0.025143305 0.0016111231 0.017599216 -0.0022717095 0.05568882 0.06499227 -0.009273817 -0.03927867 0.07081343 -0.04069077 0.00043308595 -0.05712415 -0.056022834 -0.010367234 -0.006286196 0.040897667 0.0343533 -0.06294176 0.068431295 -0.024749208 -0.011853728 0.04895483 -0.036180403 0.0058112284 0.004336112 0.0009895103 0.020330945
291 -0.04125063 -0.008499663 -0.0028854404 -0.008718735 0.036618516 0.06250716 0.02986185 -0.0687462 0.010735667 0.03978703 -0.057373744 -0.02441023 -0.062495105 0.032104712 -0.016080422 -0.028170098 0.035636555 -0.023631323 0.03496685 0.019798432 -0.039511643 -0.06101181 0.012140417 0.013702754 0.03263478 -0.019487988 -0.031506762 0.0052234326 -0.05211195 -0.04342073 -0.0012360066 0.047482274 0.06283324 -0.005869794 -0.024306025 0.045008186 -0.04012412 -0.044854715 -0.033054497 -0.041612476 -0.01421069 0.046085708 0.052557856 0.027045777 0.049888447 -0.06298879 -0.018267417 0.0020792661 0.061311156 -0.0665033 -0.0464971 -0.05574647 0.0011441776 -0.039919913 -0.03978342 -0.02932493 -0.05864706 -0.03784714 -0.010751588 0.033166163 -0.06042927 0.03860554 -0.030529412 0.062286455 -0.022020807 -0.041100938 -0.024645781 -0.05384974 0.017802348 -0.019929456 -0.052128922 0.04274154 0.054459665 0.043293275 0.051297627 0.0076497467 -0.05008793 -0.052891057 -0.023739254 0.014533725 0.0281201 -0.051089287 0.0006356588 0.03157844 -0.029203283 -0.03025625 -0.04634254 -0.0056046275 -0.019555822 0.06930295 0.017762017 -0.041710164 0.053387787 -0.025110206 -0.0041712043 0.059476007 0.07009334 -0.028022932 0.04757801 -0.036754638 -0.039095394 0.024551634 -0.032082353 0.011222404 0.020973181 -0.07036798 0.035333607 0.03174861 0.005927121 0.02188723 -0.02378717 0.016808793 -0.02841296 0.06761826 -0.0040815896 -0.0067156153 -0.00059705705 -0.03928365 0.039277207 0.03081919 -0.026748778 -0.035258025 -0.01220747 -0.068991005 -0.051550623 0.037185773 -0.04791962 -0.036733914
270 -0.0046508377 0.014833435 -0.06513468 0.003347796 -0.0013314573 -0.06721483 -0.012361364 -0.010247002 0.014862181 -0.024397692 -0.0071668215 -0.044353355 -0.062253032 -0.009454819 -0.004525426 0.06720686 -0.0071475585 0.039714426 -0.027325207 -0.05567556 0.0135294255 0.07044096 0.004561423 0.006966134 0.023149032 0.06656938 -0.002018876 0.048885107 -0.023746615 -0.035533916 0.013787445 -0.04040564 -0.059540074 0.010192518 -0.04199091 0.052268863 0.03358678 -0.066544525 -0.013557494 -0.04306026 -0.04570782 0.022308934 0.008009659 0.0026841632 -0.03158992 0.00698722 0.0443671 -0.05372941 -0.018703729 0.01639541 -0.008278559 0.02660247 0.029546296 -0.008706558 -0.04432007 -0.019080905 0.019497382 0.0006122744 0.012415793 0.06496249 -0.006496797 -0.045480292 -0.055583447 -0.030720174 0.022118818 0.025936423 -0.02093113 0.029781375 0.016622163 -0.067783505 0.03160295 0.012310588 0.031864688 0.016659217 0.02501753 0.016876183 0.02782654 -0.00905161 0.025730712 -0.027632445 -0.0044548945 0.02509213 -0.008100903 -0.032053355 -0.02274259 0.005366291 0.04042098 0.030431561 -0.0045957924 0.027284414 0.016958848 0.01517304 -0.015568344 0.001726235 -0.0071549998 0.040974468 -0.00421143 0.00858496 -0.024824241 0.04580458 -0.02890742 0.0005218907 -0.054235432 0.043743584 -0.063764274 0.018399335 0.003328806 0.00069035287 0.028760225 -0.028265309 0.035459675 -0.020804992 -0.051345233 -0.0055986494 0.035607398 0.061949015 -0.018634547 -0.009779916 0.033231355 -0.05348626 0.03830768 0.024754541 -0.011958712 0.062239952 0.03889366 -0.0074855895 0.01040053 0.010151088
271 0.06507999 0.070255384 0.05464884 -0.0073469356 -0.0016088472 0.04971507 -0.050892305 -0.062170148 -0.03890662 -0.022514954 0.004465293 0.030177921 0.055595975 0.06769729 -0.010024415 -0.037668724 -0.05467085 0.0066668275 -0.01794938 -0.028878782 -0.06151088 0.009502115 0.038450114 -0.060219787 0.05084359 -0.0140814325 0.010990556 -0.03281359 0.047884993 -0.013615675 0.018091992 -0.031861115 -0.06812593 -0.03570531 0.032655388 -0.04603607 0.017325915 -0.044999547 -0.019198662 0.0073876968 -0.018865125 -0.009943994 -0.031663477 -0.049487952 -0.064763494 0.0057831844 -0.016909806 0.05116824 -0.010265174 0.010714417 0.018766135 0.049787328 -0.027009455 0.017982736 0.05092063 0.015861481 -0.04186187 0.024416937 0.05474078 0.02343817 0.033740252 -0.03893895 -0.015587982 0.031799786 -0.03602376 -0.023437008 -0.01256994 0.00016180333 -0.02461852 -0.029721439 -0.015198211 -0.010621801 0.027820906 0.03583331 -0.015402582 -0.031829186 -0.06624522 -0.029396161 -0.0111333225 0.058868665 -0.050347142 -0.06587643 0.062133413 -0.015775304 -0.050386235 -0.014854272 0.05825406 -0.06088775 -0.064132065 -0.05223532 0.0024005244 0.06661708 -0.037396163 -0.02086395 -0.03409484 0.0071473243 -0.042468432 -0.023858074 -0.028541552 0.011289139 -0.03640903 0.04298175 -0.06797101 -0.049828615 -0.04591127 0.038075183 0.018268785 0.05064432 -0.02368868 -0.027887605 0.0054015387 -0.0025564134 0.008381102 -0.039122693 -0.025940862 0.01018738 0.0009180795 -0.06844055 0.027837064 0.017783832 0.039271228 -0.051342513 -0.044823654 -0.03661265 -0.006002031 -0.010073597 -0.0465893 -0.054322433
272 -0.06610579 0.0050943955 -0.07011437 0.0021158592 -0.008828664 0.024924122 -0.025060339 -0.03640553 -0.03934807 0.04209125 0.0546963 -0.047804218 0.024691992 0.060484596 -0.01717568 -0.0032951236 -0.01216787 0.049778666 0.05393274 -0.040200662 -0.06499192 0.009447765 0.025204515 0.00038938574 0.0051840125 0.055415247 0.042200882 -0.029034795 0.017092464 0.016364692 0.046299126 0.019568503 -0.016713008 0.012605328 0.02372815 0.019954039 0.05251653 -0.053978387 -0.00012651004 0.059529666 0.052012656 -0.027910452 0.0374984 -0.028675387 0.053334262 0.01568045 -0.009457162 -0.029164307 -0.0036667783 0.020985784 -0.007877205 -0.0024014795 -0.058654286 0.062313434 0.027542947 -0.024671733 -0.023730028 -0.036351625 0.004064043 -0.023901619 -0.06704148 0.055015996 0.06761435 -0.0025155935 -0.024981167 0.022860723 -0.008467467 0.029651273 -0.003191126 -0.0017020059 0.00942295 -0.051879134 0.026572766 0.011663055 -0.013431732 0.015734736 -0.010456013 -0.040979225 -0.060260065 -0.033201758 -0.03616967 -0.046205882 0.018366689 0.06438453 0.011744366 -0.06566204 -0.0014580749 0.01752813 -0.043918736 -0.002322183 -0.029671233 -0.005790905 -0.06956129 -0.03710586 0.0056409263 -0.021243908 0.009944312 0.02998967 -0.0232908 0.0527693 -0.062989205 -0.04243237 -0.017786808 0.0018769066 -0.031044364 -0.019102827 0.011901361 0.035801765 0.015143347 0.039073765 0.0077977744 -0.029156769 0.002511464 -0.025655603 -0.0022991225 -0.043131873 0.016803961 -0.031067336 -0.02614706 -0.059173133 0.04873987 0.008355379 0.030295769 0.026139349 -0.0070586116 -0.037738778 -0.0019663842 0.046303358
273 -0.0072097597 -0.029031048 0.017521126 0.0433711 -0.022099666 0.0302001 -0.028553987 -0.004114718 0.036152624 -0.047727168 -0.0424217 -0.011221928 0.024228832 -0.03694959 -0.0536396 -0.0039596464 0.016564287 0.0054787737 -0.011455215 -0.047582123 -0.010747383 0.017536286 0.00026986608 0.01016466 -0.008296123 0.038149714 -0.03254044 0.03096256 0.008129137 0.005451889 0.058087874 -0.03765665 -0.028249517 0.013731314 -0.06800433 0.068081364 0.06214081 -0.0070978757 -0.029552866 0.010147567 -0.035471737 -0.03696056 0.053278033 0.026745014 -0.065294154 -0.051898904 0.045914624 -0.013653851 0.0048779505 -0.0003860761 -0.0659962 0.019081082 -0.020593144 -0.038210526 -0.021598857 -0.02183106 0.051963333 0.060928848 -0.0013962099 0.008869105 -0.005070449 -0.01978561 -0.042630557 -0.067776926 -0.0037747212 0.028618148 0.018123254 0.024290238 -0.05140576 0.0014465061 0.064515166 -0.06504787 0.002745384 -0.05863917 -0.008937834 -0.00070616184 0.028539293 0.007985004 0.0681687 0.022820715 0.025812784 -0.045986418 0.009595339 -0.036339518 0.019283159 0.009070233 -0.007173836 -0.022171184 0.022182964 -0.019935098 -9.5656724e-05 -0.021697177 0.0016724655 0.00066080806 -0.048264425 -0.014865359 -0.0016814694 -0.0042456803 0.008150543 0.016514825 0.008114715 0.033354457 -0.023797698 0.039553013 0.008535242 -0.011256916 -0.063099846 -0.04830376 0.026546707 0.020939866 -0.012234005 0.06734532 -0.05501549 -0.046796545 0.01561608 0.0058658104 0.031084774 0.0025870858 -0.021436714 0.023043927 0.0121143125 0.018110624 0.058267385 0.0045031467 -0.02960059 0.06221989 0.006134848 0.062141
274 -0.024203615 -0.025778268 -0.025605928 -0.012649011 -0.00024296826 0.0015070895 -0.0025140946 -0.028611897 -0.030050907 -0.012620727 0.0002631063 -0.02957478 0.030861884 0.0022563718 0.0032479465 -0.0022262211 -0.012625524 -0.0005562033 0.008705521 -0.002507659 -0.003217298 0.011458443 0.020841567 0.027672123 -0.006889252 0.008325369 -0.029568464 0.0169969 0.015911091 -0.03079937 -0.0015791582 -0.025460184 0.01687978 0.028663103 0.0003669862 0.028110592 0.0026227264 -0.00038450427 0.0018505342 0.009989024 0.0024302336 -0.010932718 -0.0007651367 -0.00020526702 0.01837089 0.0017021676 -2.550523e-05 -0.0021350726 -0.015269091 -0.0013669255 9.826507e-05 -0.00041483625 0.0010386823 -0.00053411163 0.0024965296 -0.0017973376 -0.016884152 -0.020220025 0.0004916526 0.028220259 -0.0009088818 0.0076412 -0.0026613122 0.0006049244 0.00258787 0.009618384 7.143145e-05 0.0004820408 0.011400763 0.0027238429 0.023777768 -0.01844705 0.0010088685 0.0005948765 0.001380913 -0.01947467 0.02720413 -0.0020165294 4.5035908e-05 -0.02708391 0.015003318 -0.010281094 -0.018669961 0.0069408785 0.027679965 -0.008137316 0.0023533935 -0.0009055093 -0.020495787 -0.00010599638 -0.0026473796 0.0013441313 -0.0001724626 -0.010131848 0.028926807 -0.016205022 -0.0068672914 0.0053039817 -0.014841452 -0.000110550114 -0.005171953 -0.002979243 -0.00075817213 -0.013866652 0.0037184684 0.02247306 -0.0013141597 0.027395347 -1.2315257e-05 0.010197499 0.0105806235 0.0034098006 0.016744088 0.0034494763 -0.018496972 0.0032807807 -0.005678183 -0.008043192 0.01003539 -0.0018437954 0.00028132543 0.00038156207 -0.023777036 0.005824103 -0.0006732366 0.008933019 -0.025831535 0.011143356
275 -0.009721415 0.06303556 0.060683843 0.024485372 0.04983337 -0.040554248 -0.022885507 -0.030587299 0.033432603 -0.020161288 -0.012345423 0.06608917 -0.039573375 -0.024605865 -0.060142998 -0.05186221 -0.018315494 -0.014591435 0.052084588 -0.022052858 -0.029331733 0.04852809 -0.06421563 -0.036708035 -0.06565726 0.0013002732 -0.04750792 0.033728205 -0.008754005 0.007501754 -0.049691126 0.045144394 0.031111557 0.021673998 -0.020517398 -0.045649353 0.049154483 -0.030940617 0.06068503 0.046321247 0.047698993 0.03360069 0.007058027 -0.0031458384 0.04118225 -0.06598981 -0.058868106 0.023146402 -0.026311789 -0.025300803 -0.00908576 0.06656098 -0.054436255 -0.020907938 0.02162472 -0.048052695 -0.06784565 0.060966857 -0.027001891 0.06640406 -0.0023006853 0.014407971 0.013024401 0.016024312 0.012828956 -0.02845145 0.01636358 -0.028317185 0.018015463 0.041674543 0.06073292 -0.054219183 0.0331335 -0.029212028 -0.048133653 0.04029987 0.045777373 -0.0020599237 0.061839525 0.020096766 -0.031502575 0.025554081 -0.06876789 0.028602185 -0.025850479 -0.06359807 -0.016991945 0.035100393 -0.055185787 -0.041576605 -0.006944315 0.025589904 0.032777138 0.017967097 0.034635298 -0.025044365 -0.013544581 0.038845908 -0.05070061 -0.057297636 0.050379455 -0.04871181 -0.028060244 -0.046647996 0.061227396 -0.031092308 -0.044482663 -0.06529595 0.01824816 -0.031050066 -0.04836955 0.061079707 0.0050268807 0.06928402 0.050885804 0.024152057 0.047376845 -0.040970378 -0.048334204 -0.035913967 0.06150008 -0.048040505 0.059469156 -0.03490818 0.03412774 0.034862526 -0.02040798 -0.040434808
276 -0.06351802 -0.036245853 -0.026465897 -0.02654442 0.051984664 0.0045161517 -0.046078864 -0.061798077 -0.020726819 0.010798724 -0.030837743 0.03169761 0.05900525 -0.016853238 0.016810048 0.010609963 -0.0337741 -0.016714314 0.034652162 -0.037134703 -0.06396687 -0.002258818 -0.0037307935 0.010562025 0.025814194 -0.046630457 0.029143803 0.009922233 0.06252101 0.054739904 0.027116617 0.061253577 -0.051399037 0.017274562 -0.008603203 -0.014275701 -0.013224606 -0.0115348175 0.018290557 -0.0059774998 -0.046328045 0.0069218935 -0.037001252 -0.05949643 -0.036800005 0.006344881 -0.04652689 0.057979178 0.023489177 -0.048901882 -0.0503309 0.005174095 -0.003355788 -0.016877353 0.006979526 0.048649766 0.007611618 -0.029049238 -0.05763272 0.03001407 -0.0011816148 -0.03546234 0.025783867 -0.025174586 -0.025627898 0.05177334 -0.03682165 0.0016055856 0.015567701 0.020087538 0.0501775 -0.06256779 0.054655347 -0.0034283092 0.034643784 -0.012949032 0.04449363 -0.012792414 -0.060507715 -0.025880894 0.03786737 -0.0027920578 0.050846968 -0.04222729 0.05579951 -0.006526909 0.023854189 0.04564365 -0.05458109 0.02850115 0.022715155 -0.03309994 -0.019995779 0.018784568 -0.014036379 -0.05579689 -0.032789655 0.045428004 0.001624873 -0.0358941 -0.0007248862 -0.04098596 0.029736267 -0.034244202 -0.00051691337 0.04793754 -0.0013252494 -0.013060549 0.027546307 -0.011268726 0.020837685 -0.0432793 -0.036680385 -0.00069047546 0.0018607655 0.01670834 -0.051305946 0.058678627 0.0021155172 -0.05509343 -0.029979609 0.0045807227 0.024201933 -0.007885024 0.03091436 0.016018536 0.031003043 -0.030896766
277 0.013591063 0.0023704374 0.013706727 -0.02238093 0.024971563 -0.013484316 -0.01664269 0.0013976097 0.0022973767 0.025972413 -0.026036466 -0.0122429095 -0.023863105 -0.02021707 -0.019615663 0.0002624121 0.027195286 -1.7086873e-05 -0.005458983 0.0019105107 -0.017193746 0.021899432 -0.0023929279 -0.013272554 -0.0033727596 -0.0038972031 -0.015562729 -0.0019139745 0.000837359 -0.0012724466 0.026988609 0.029217847 0.014543626 0.021437602 -0.019301517 -0.013429768 0.002248944 -0.013013042 -0.021591557 0.008926538 0.0007015804 0.0027250764 0.020575937 0.0011240713 0.010699913 8.6036744e-07 0.021323808 0.009208837 -0.0038014266 0.02248827 -0.0038681144 -0.0019524166 -0.0021353648 0.016210869 -0.02831155 -0.00988874 -0.00038076 -0.013968524 -0.0030381344 -0.02447056 -0.0022996403 -0.00083369075 0.022979422 0.024147093 0.00196899 -0.011951657 0.0077041024 0.002694148 0.0054958942 -0.0017726067 -0.0025564313 -0.00016061655 -5.6327553e-05 -0.02316799 -0.021551203 0.010805121 -0.0180033 -0.017326495 -0.008810011 0.018696496 0.022407304 0.018622935 -0.0020949037 0.00089699106 -0.011335342 0.0015961758 0.01638017 0.007128558 -0.0020445096 0.0025848208 -0.00038326217 0.025517812 -0.017263174 0.028555019 -0.01562233 -0.0017461216 0.002581211 -0.01663679 0.020643948 -0.0027471706 0.021562612 -0.00025449786 0.030028582 -0.006391091 -0.002757511 -0.00049070915 -0.002669218 -0.001121664 -0.023818115 -0.018206416 -0.0134066725 0.009004993 0.0027236615 -0.0027142114 -0.0017040959 0.0005042001 0.025189077 0.0016848281 -0.00023026922 0.0024652719 -0.01321255 0.0003065569 -0.0026002165 0.01909095 -0.000120965095 0.013409918 -0.01640812 -0.026474822
278 -0.04005266 0.014177369 0.06817993 -0.013067018 0.004247618 0.012096002 0.06445111 -0.048756167 0.020133346 -0.0020739534 -0.05165515 0.052022394 0.024817273 0.034571692 -0.03361856 0.022590281 -0.006112087 0.01568579 -0.03640078 0.05722873 -0.0076056384 0.013211634 -0.02980901 0.049631637 0.03170226 0.04526452 -0.010316564 0.030583153 -0.005593802 0.008118603 -0.0085871685 -0.023599446 0.02217973 -0.049968716 -0.0056627416 0.023477837 0.00069033 -0.012247287 -0.015329021 -0.01107491 -0.06830361 -0.002536412 -0.022565551 -0.036337543 0.054643553 0.033526648 -0.01854726 0.03353571 0.04878739 0.019122899 0.006204876 0.014961795 0.01830531 -0.056367457 0.036491003 0.062789895 0.052989908 0.02934853 0.05872421 0.02063698 -0.05026187 -0.056682486 0.02736621 -0.03316431 -0.023743993 -0.001180871 0.0115864575 -0.020946834 -0.020162787 -0.021372829 -0.04869804 0.05155526 -0.05829052 -0.050742175 0.027869418 -0.0008611434 -0.0267167 -0.0086484095 -0.016224824 0.021621551 -0.016446222 -0.054396063 0.033335388 0.0033536945 -0.043223325 -0.0710815 0.029135242 -0.004117731 0.011780451 0.023220673 0.06262646 0.022921653 -0.012902019 -0.05711201 0.044393133 0.028988278 0.021645773 0.042959083 -0.014804282 0.0005116924 -0.06617132 0.063577384 0.001368223 0.05596567 0.046531744 0.045590118 0.03978745 0.016095772 -0.002716762 -0.009005215 0.010323032 -0.05835108 0.029312719 -0.029952167 -0.011460805 -0.007935585 0.01025727 -0.00012803532 -0.016288718 0.004904522 0.020201318 -0.0306168 0.018656394 -0.009409856 -0.008806841 -0.037591103 -0.035582747 0.06197681
279 -0.010104878 -0.022367407 -0.0066165687 -0.018994045 0.024825023 0.03604925 -0.027536726 0.016324446 0.004923456 0.056066412 -0.07101557 -0.0098426705 0.06592371 0.03748975 0.014710602 -0.0096755205 0.03767484 0.006807599 -0.064418845 -0.011828603 -0.013655727 0.00036586833 -0.039922662 0.05703082 0.00593586 -0.034445908 -0.0028429157 0.0123758605 0.03475176 0.029575815 -0.056015417 -0.043614425 0.015031483 -0.06014089 0.058538523 0.015837163 -0.05467236 0.0036338964 -0.044269394 -0.022767197 -0.012606436 0.030985378 -0.06105824 -0.027289588 -0.029365841 0.047364835 -0.033820484 -0.010260173 0.059140973 0.033685435 -0.024761703 -0.03235571 0.068525545 -0.010342665 -0.05063559 0.040083993 0.02128972 0.031446695 -0.0045587034 -0.04750178 -0.001444163 -0.05766817 0.057308454 -0.06016525 -0.030554162 0.041785676 -0.022498757 -0.015276901 -0.035590347 0.016072696 0.02345403 0.05165495 0.013486098 0.028152307 -0.046646204 0.011647255 0.022008656 -0.030587532 0.06033785 0.0650001 0.06352351 -0.06534536 -0.034193415 0.047891885 -0.059762646 0.015391464 -0.059650116 0.021420538 0.045556378 -0.014122113 -0.04334987 -0.02530839 -0.006803213 0.038437426 0.0660022 -0.05342606 0.05401237 0.067212306 -0.058325157 0.024748906 0.012233831 0.017065508 -0.042354595 0.03483873 -0.023235798 0.019172434 -0.056777973 0.046254765 0.05854088 0.020642286 0.037310813 -0.00062047737 -0.06509812 -0.047659386 -0.018700697 0.048307586 -0.021163918 -0.016999656 0.044323303 0.009466311 0.024515854 0.007979674 -0.01630744 -0.0028832592 -0.054558475 -0.047495633 -0.014003447 0.02574999
1781 -0.024725407 -0.0010443723 -0.009142548 -0.0058102766 0.014969104 0.005310381 0.010459307 -5.2874653e-05 -0.019013993 0.0025230905 -0.001554928 0.026802264 -0.022660421 0.0026685628 -0.004399663 -0.010827161 0.00030931877 -0.023288146 -0.002688963 -0.009801332 -1.7456543e-05 -0.0008782503 -0.028893417 0.024213554 -0.0001046611 0.025168438 0.012258791 0.015330393 0.003743173 0.013728604 0.020794012 -0.0019961705 0.015649123 0.030677874 0.002977174 -0.013094292 -0.0013253822 -0.0018132955 0.020218078 0.0012256858 -0.023257101 0.001831321 0.009542773 0.008674925 -0.014988895 0.025518361 0.030790718 -0.00058703765 -0.0020549828 -0.01673714 -0.009197566 -0.007288299 -5.0279887e-06 0.0013902723 0.0024389226 -0.0033822635 3.560928e-05 0.015543273 -0.0073559745 -0.00029566727 0.0022682394 0.0019284417 0.01747513 -0.009478017 0.029920721 -0.015030983 0.002666481 -0.00020178324 -0.012793163 4.1515086e-06 -0.0019793804 -0.028978558 -0.0120076705 -0.00045586738 0.002113166 -0.0027170128 -0.0030450502 0.013327852 0.024436293 -0.002349175 -0.006386089 -0.018642012 -0.0052925143 -0.02547433 0.02364489 -0.030767767 -0.022543143 -0.0012623838 0.0011257371 0.0049627116 -0.0066103768 0.018872388 0.030615948 -0.0058696484 -0.026428888 5.1727082e-05 0.013395278 0.026937127 -0.028894955 -0.00036766642 -0.021073913 0.0027133692 0.0003867711 0.0016661652 0.012499815 -0.011202968 0.009344756 -0.00087668106 0.007252601 0.0008348952 -0.0015714956 0.017594397 0.008288041 -0.012285957 -3.700159e-05 0.008512594 0.0008678836 -0.008055868 -0.012292491 0.026082063 0.0021827 -0.0008771538 0.002617333 -0.015165827 0.0021798778 0.0009412442 -0.018461956 -0.015819252
1004 -0.030993326 0.026602464 0.039584484 0.027007857 -0.028619805 -0.06867749 -0.037908915 0.015840227 0.048713256 -0.06829663 0.056305517 -0.01602501 -0.013415709 -0.03528163 -0.006139612 0.0006134053 -0.040097956 -0.064623274 -0.0071264445 -0.041790955 0.010473273 -0.05342443 -0.0553799 -0.00553942 -0.03404652 0.03342222 0.036120985 0.024553662 0.036089666 0.02631668 0.0106260665 0.020280547 0.03957997 -0.018451491 0.013016423 0.027814524 -0.031867262 0.053544287 -0.02985172 -0.029550161 0.027114011 -0.04517182 0.048157014 -0.042400043 -0.0092767645 0.041074537 -0.053261604 0.014708012 -0.024580978 0.019414239 -0.054824375 -0.027394693 -0.009462586 -0.06607073 0.037746057 0.0680327 -0.031119937 -0.03489067 0.021859132 0.025131434 0.011179169 0.0030587292 0.05333612 0.04598579 0.029120572 0.016804826 0.053370863 -0.010075395 -0.050647676 0.0226516 -0.05909222 0.023724552 0.05976438 0.024850687 -0.058989543 -0.017294437 -0.041389253 -0.01557431 -0.043580018 0.003501583 -0.047781684 -0.07101523 0.050670378 -0.04678573 -0.045709986 0.037474386 0.0649643 -0.038097247 0.020723553 -0.011440855 0.067980334 0.023791984 -0.009127299 0.019402677 0.0026964846 0.06370478 0.06894552 0.010824947 0.036370873 -0.007438582 0.018896248 0.054943904 0.05546159 -0.018020077 0.024684668 0.003793886 0.019459123 0.040451795 0.028304603 -0.022037743 -0.062151883 0.04634461 -0.040937696 0.016566128 -0.034062926 0.02190841 -0.012407217 0.0055245506 -0.04254003 0.02970176 0.068972126 -0.002427599 -0.017348647 0.027124139 -0.06421029 -0.0050600464 0.027992202 -0.06807316
2189 0.0011517928 0.0007986909 -0.0027041812 -0.00011648459 0.0044028 0.027012367 0.012226904 -0.020005258 0.02409728 -0.00091024785 -0.00025809475 -0.0026756565 -0.0018492064 -0.01205667 0.022387043 -0.015136645 0.00021015177 -0.020765092 0.027229305 -0.027640799 0.009112526 0.017106 0.023809135 0.027894352 0.0005182394 -0.016785655 0.025413312 0.028714297 -0.00022675678 0.001743319 -0.00084191054 0.023014586 0.023022681 -0.00094202574 -0.029571155 0.00028903768 -0.017683297 -0.02384748 -0.00091740186 0.0025374386 0.030209718 -0.027361043 -0.01929068 0.007945748 -0.019098306 -0.008369847 -0.022656836 0.0066494127 0.025825758 0.00013459148 -0.022773638 -0.023182493 -0.024339825 -0.013479332 0.01932973 0.0023771327 0.0102924025 -0.017037256 -0.006759504 0.00014003692 -7.222606e-05 -8.274912e-05 -0.015140095 -0.02188026 -0.002720789 5.3491596e-05 -0.0011700403 0.013635067 0.00730721 -0.016149245 -0.02113836 0.008420018 0.017546374 0.0019932026 -0.007900439 0.0011661014 0.00916967 -0.017985383 0.008792398 -0.000669584 0.0029996864 0.030340843 -0.0007050103 -0.0014749294 0.0025715912 0.02789686 -0.02970716 -0.01661639 0.0026276433 -0.0017104722 0.009220386 -0.020258944 0.0024185001 0.0003750521 -0.0027055177 0.019886976 0.018655958 0.0023621456 -0.005659661 -0.014222413 0.011682818 -0.00046762475 3.0861935e-05 0.026274938 0.0022225124 0.00010457077 0.022247778 0.0026819792 -0.008355344 0.0017349625 0.00013505341 -0.021461373 -0.0006222447 0.0011100281 0.001299611 -0.0023953312 0.017486826 -0.0041403826 0.00909102 -0.0026413654 0.008034295 -0.008976655 -0.0127786985 -0.015349152 0.01838308 -0.025397629 -0.009950424 -0.017468251
108 -0.044721205 -0.007386128 -0.051752344 0.03392463 -0.033013064 0.026126139 -3.1309784e-05 -0.06081057 0.021612864 -0.015814383 0.0143743325 -0.026243085 -0.060348935 0.020887457 -0.0060963607 -0.019752698 -0.021729313 0.04599374 0.02413715 0.001632999 0.046235833 -0.016752869 0.027948959 0.069004826 0.02393843 -0.006346262 -0.002216308 0.00020880566 -0.050085593 -0.017850544 -0.0007698041 0.046957154 -0.039854746 0.070799775 0.007715783 0.008344691 -0.02774473 0.00018193596 0.022533517 0.060540985 -0.053288154 -0.0007539636 -0.047632664 0.021385392 -0.015010491 -0.014338627 0.003482155 -0.0026548724 0.039709263 0.0214759 -0.024508763 -0.065932915 0.011917054 -0.004069779 0.028143687 0.03505794 0.0025531976 -0.0013807354 0.015626354 0.036573354 0.014110765 0.048569 -0.019035013 0.011742982 0.029115926 0.014818316 0.012872964 0.016542874 -0.057439294 0.057787832 -0.0054201046 0.0014554685 0.009629759 -0.070052326 0.029157395 -0.03130623 -0.057269912 -0.012456882 -0.033355016 -0.040227395 -0.012176686 0.05115181 0.06539891 0.052835368 -0.023889113 0.0119687915 -0.041680314 -0.04633852 0.036953185 -0.015559141 0.06314197 0.07065249 -0.04656847 0.014917563 0.039052572 -0.06424587 -0.04384358 0.019021064 -0.06433577 0.0705555 -0.006648636 -0.015204017 0.002498561 0.067098975 -0.036834907 0.0154829975 -0.00501005 0.010085601 -0.06264529 0.046500534 -0.038108807 -0.006616627 -0.010289819 -0.0047780275 0.03994809 0.015876386 0.038848933 -0.00986909 0.04020086 0.03404961 0.015615792 -0.02627396 -0.06217471 0.0072912993 -0.03848366 -0.035218183 -0.0009919192 -0.0034059514
109 -0.022330659 -0.0016830976 -0.024105513 -0.021606706 0.038785484 -0.008314279 0.009908033 -0.0315224 0.05783165 0.037386145 0.029477896 -0.05927392 -0.008077476 0.053809278 -0.06296299 0.019867748 -0.00197702 0.008757148 -0.0115584405 0.016917242 0.016792867 -0.011470679 -0.06423714 0.021148663 -0.008055411 -0.05435798 -0.00590715 0.045542177 0.0042226315 0.011706953 -0.040587496 0.02182722 0.029623052 0.00848959 -0.032073565 -0.048882354 -0.008215272 0.006864715 -0.00943918 -0.048623025 0.019556927 -0.013546531 -0.008828204 -0.024417428 0.042735524 -0.03179019 0.0039346847 -0.011766296 0.0247399 0.051500596 0.010192219 -0.026444163 0.027102144 -0.015400432 -0.010723283 0.018030679 0.055478133 -0.00044974918 0.009692179 0.049760588 0.010687741 0.01996658 -0.020976678 0.004610538 0.0029462366 -0.0104791075 -0.008818908 0.0038111228 0.058018077 -0.021842914 -0.04332561 -0.005811783 -0.05462815 0.063003436 0.01710319 -0.0040669325 0.037554488 -0.027015362 -0.046429526 -0.0053609456 -0.05201516 -0.004082364 -0.030828727 -0.026920184 -0.02348059 -0.028622907 -0.042785335 -0.06820981 -0.03574943 0.031483397 0.007030271 -0.016077865 0.00044740574 0.061535444 0.0029969867 0.0317741 0.008533457 0.0015628476 0.014048716 -0.028116528 -0.05505605 0.061539616 -0.03905634 0.059431285 0.018222326 0.0559512 0.043142736 0.023346942 0.06900382 0.051848296 -0.019730521 -0.032767046 -0.03801325 -0.003027128 -0.005739414 -0.004224354 -0.0069238977 0.023443807 -0.013455799 0.04697849 0.055253085 0.0058365883 0.048017833 -0.067204565 0.039808407 -0.022371592 0.019617278 0.009834649
102 -0.008598387 0.064760886 0.03217425 -0.009013523 -0.025503427 0.05067231 -0.038037296 -0.010160939 -0.035242047 0.022394592 0.033985365 0.06741789 -0.00194068 0.0023042248 -0.049615286 -0.024402482 -0.008646963 0.054407798 0.019284261 -0.022975432 0.027487207 0.026503472 0.017063286 -0.025786225 0.066189334 -0.04317265 -0.0470408 -0.0062536057 -0.0344288 -0.030359428 -0.028312158 -0.049271327 -0.033068545 0.050095554 0.00748791 0.006850732 -0.009287166 -0.0014922877 -0.024587257 -0.0071167704 0.06514549 -0.047581024 0.0109692095 -0.035226244 -0.00965557 -0.01922671 -0.009149567 0.06258748 -0.04789108 0.036352523 -0.026788214 -0.014129255 0.008295385 -0.04382349 -0.030474385 -0.017405026 0.0017133394 0.043262858 -0.022446224 0.0308803 -0.03283415 0.012684236 -0.0066394857 -0.036061354 0.033700276 -0.019282078 -0.05511247 -0.0027211069 -0.012727623 0.032185007 -0.010958014 -0.043270532 0.026905194 -0.030381763 0.039701585 -0.01149894 -0.023659838 -0.022803364 0.05042414 0.034506384 0.022005145 -0.014844865 -0.04797329 -0.035610814 -0.045849327 -0.030869009 -0.020050766 -0.006554819 -0.022904271 0.004655661 0.019895993 -0.052433413 -0.01570909 -0.028024089 -0.017392136 -0.026807843 -0.02220424 -0.016590694 -0.059577543 -0.04219891 -0.013669311 -0.058707517 0.028220013 -0.027712744 -0.0014169149 0.02105466 -0.03174917 0.05613274 -0.007926978 -0.01627168 -0.01057759 -0.018930832 -0.026318759 -0.0029328335 0.054408498 0.023560656 -0.03081531 0.004620401 0.059288174 -0.02158005 0.034861106 -0.025152495 0.031469923 -0.012060564 -0.025082339 -0.05320217 0.021059837 -0.025508624
103 -0.014402169 0.009800371 -0.06312553 -0.06038403 -0.0117262285 0.01636549 -0.029696107 -0.030751081 0.004012774 0.049901772 -0.03346502 0.03031352 -0.0012963392 -0.06037954 -0.011301794 0.034057956 0.05391305 0.008498653 0.015302699 -0.048824918 -0.010348406 -0.023528233 -0.019545907 -0.003504477 0.06705774 0.05431465 -0.006463907 0.010405321 -0.034695476 0.032640666 0.04209701 -0.05615658 0.020412536 0.017317498 0.033773344 0.030604256 0.01908337 -0.0452377 -0.047136467 0.01312746 -0.011898906 0.0125949215 -0.062444996 0.0013891264 0.057470925 -0.049589105 0.017263569 0.069184706 0.024052208 -0.004160154 0.068848275 0.057749107 0.0053211628 -0.01604837 -0.039378062 -0.033071946 0.024954041 -0.0027108402 -0.061650943 -0.007400683 -0.048212998 0.012350833 -0.057249438 -0.013892702 -0.011046094 0.043253567 0.009224678 -0.022681154 -0.011458596 -0.043521747 -0.013506016 -0.005982074 -0.069991924 -0.019278025 0.007952556 -0.0003713626 0.0045913476 0.066174835 -0.004674037 -0.07083108 -0.0022141673 -0.039737076 0.027610164 -0.05634075 0.005617931 -0.026249185 -0.0044350694 0.0032477002 0.007686356 0.0042372616 0.0155506525 -0.039702237 0.036520947 0.004922511 -0.03635465 -0.029792313 -0.0011280646 0.03317428 0.039187152 -0.013902094 -0.04986188 0.023051877 0.06037895 0.0149602 -0.042518146 -0.0025407285 0.054550808 -0.025776327 -0.00069263426 0.03533955 0.043985933 -0.023742653 0.0572496 -0.068755895 0.044068843 0.010563458 0.027115215 -0.024106367 -0.029130392 -0.011383103 -0.030031452 0.06437926 0.016777173 0.024626484 -0.065550834 0.0013707895 0.007926178 -0.0029278405
100 -0.04608969 0.06471246 0.050712567 0.028762316 0.041130565 0.02606287 -0.047414657 -0.0066115404 -0.017412595 -0.0094737895 0.029454034 0.043812234 -0.0077909236 -0.030235268 -0.055876218 0.04424551 0.032349568 0.06976173 -0.0037538402 -0.035854463 -0.020899776 -0.0040585697 0.01065042 -0.015737638 0.00449968 -0.014619842 0.04663662 -0.021830963 -0.06693247 -0.05672346 -0.009650112 0.011812282 0.020523477 0.0006638073 -0.029008053 -0.0039019652 -0.008805158 -0.06092819 0.017755434 -0.043703005 0.034439456 0.048398003 -0.0040401197 -0.06763818 0.015734691 -0.068346694 -0.028201016 0.016726814 0.04208961 -0.020368034 -0.038333297 0.0043151313 -0.027286105 -0.013132864 0.029477434 0.046792354 -0.025142584 0.025244383 -0.0058474913 -0.006428657 -0.060127493 -0.02259272 -0.070223205 -0.025460707 -0.02586364 0.0142072905 0.06015826 0.019878086 0.048773427 -0.051646948 -0.017044455 -0.01640437 -0.029287811 -0.012445647 0.053215306 -0.060214613 -0.02726984 -0.05769461 0.016548892 -0.052258477 -0.046691466 -0.050350226 -0.05435281 -0.008686435 -0.020976407 -0.01197431 -0.010626165 -0.001294963 0.011316664 0.008868529 -0.010918676 -0.043732043 -0.027537499 -0.00816337 -0.012885358 -0.005056637 -0.062560596 0.02554394 0.02041017 -0.061028928 -0.016339906 -0.050517213 -0.008330757 0.05676036 0.04736679 0.021046557 0.031081282 0.035219826 0.0022331662 -0.0011702218 0.024762465 0.005724658 -0.06266918 -0.008280067 -0.024292558 -0.018379688 -0.0010188773 -0.051681668 -0.062968604 -0.057460528 -0.006846681 -0.013724156 0.064125046 0.02329491 0.0576811 -0.06984673 -0.015905438 0.018291391
101 0.024473358 -0.034603518 -0.00885855 0.0018988216 0.026660312 -0.056948565 -0.070767246 -0.030679908 0.025247697 -0.0107363975 -0.050191414 0.05135234 -0.0039733285 0.0029261122 0.03739648 0.06845905 -0.0434474 0.051273525 -0.0032342332 -0.036130946 0.04078527 -0.011701781 -0.0015515563 0.045352157 -0.02663008 0.03812546 0.018790254 0.00664288 0.017935053 -0.00093216496 0.037270766 -0.06966354 -0.03361453 -0.017582545 -0.0027752437 0.06946267 0.056607496 -0.02907049 0.0033316864 -0.03565065 0.058375865 0.052995168 -0.036518373 -0.03355188 0.05188485 -0.019463751 -0.059450727 0.06311138 -0.0071224556 0.018996593 0.003736569 -0.0141420625 0.04814685 -0.07071968 0.023196582 -0.017117007 -0.054510694 0.05944892 0.029318193 -0.03660142 0.0041715987 -0.0037443305 0.057826318 -0.02266603 -0.050669953 0.0065362193 0.038250502 -0.0047642696 0.03321045 -0.002389146 -0.003058236 -0.04590848 0.057491932 -0.0008860484 -0.047281146 -0.007979639 -0.019726302 0.061733514 0.012369372 -0.023888247 0.0019132164 -0.053351298 -0.004902806 -0.011270278 -0.023967806 0.01732297 0.06407095 0.026476722 0.00787614 -0.020001587 0.01666629 -0.052474007 -0.015185761 0.03279574 -0.056645583 0.018502936 -0.061768413 -0.019396245 -0.071271904 -0.018923964 0.024551313 0.0053140484 -0.0012830053 -0.029904056 -0.012210147 -0.041802287 0.043995164 0.047043785 -0.009061808 0.07016824 -0.04133149 0.015086523 0.0029331823 0.015636748 0.020177769 0.038744852 0.034732006 -0.06947549 -0.011880714 -0.0015653552 0.023382816 -0.0138191115 0.054779697 0.05063778 -0.0572033 0.008721987 -0.025247157 -0.06687225
106 0.0008803512 9.2640694e-05 0.00047570857 -0.0003775071 -0.0026538428 0.028261121 0.029638674 -0.024052672 -0.0064282794 -0.0058727404 -0.0013622593 -0.000551634 0.00097001274 -0.0023168668 -0.0016427892 -0.00023281685 0.015457435 -0.002319968 -0.016020024 -0.0061856546 0.008843531 -0.022519019 -0.0010585627 -0.003588088 -0.018397136 0.0089883115 0.020539042 0.022980336 -0.00021591014 0.008423269 0.030493367 0.002710165 0.007468728 -0.026097579 -0.011973182 -0.0003990583 -0.0027040634 -0.0016934933 0.0057562166 -0.009316822 0.006776804 0.024099078 0.018364724 -0.009209449 -0.00080369966 0.020411 0.002207996 0.0016563623 0.001126346 -0.008538725 0.00081532524 -0.0037391111 -0.008274524 -0.014743875 0.00088442554 -0.030768432 -0.029294677 -0.00159662 0.0022930286 0.02186581 0.0002231815 -0.0026752811 0.008083108 0.0009224261 0.0038543555 0.002204514 0.011873262 -0.01915142 0.025973804 0.008488849 0.0005817611 -0.02437609 -0.019365089 0.020977754 0.020356331 0.016052578 -0.0005259568 0.026042154 -0.0018887953 0.0007729478 0.002381064 0.0022396168 0.018192995 0.0026926731 0.022279702 0.0017090231 -0.024195882 -0.018643083 -0.027581096 0.030618595 -0.029124832 0.002448809 -0.0026591367 -0.013594802 -0.01602226 -0.013096836 0.00013729779 0.011209001 -0.011101031 -0.013427118 -0.009040769 0.014126101 -0.029057797 0.020933546 -0.012125901 -0.00010556169 -0.005309324 0.0042825234 -0.00040838268 0.002718366 -0.0020674348 0.00052970403 -0.0022256596 -0.0033613262 0.00024837826 -0.01605554 -0.00020490866 -0.0005927248 0.030553091 -0.003805093 -0.027713235 0.008952218 0.0096803205 -0.0019607742 0.0032143518 0.028814938 0.0055739307 0.008482378
107 0.001225281 0.00041475802 0.0211139 0.00080505747 0.00028568774 0.0034813168 -0.01724456 -0.004276122 -0.0010256887 -0.027244737 -0.018163087 -0.00042565516 -0.00025210856 -0.012638385 0.010614166 -0.027810495 0.0015519736 0.020609323 -0.009071479 0.001997113 -0.021580093 -0.0118839545 0.023434404 -0.01783135 0.02385504 0.028942697 0.023872385 0.010594263 0.00019142381 0.0026677563 -0.025667496 0.006925012 -0.0006673471 6.260174e-05 -0.0008204017 -0.0010290209 0.01322935 -0.008946139 -0.017096283 0.014096228 0.012925207 -0.0013176576 0.00060141424 0.0001815139 -8.801342e-05 -0.026930496 0.00195201 -0.011213904 -0.0002919296 0.0003477787 -0.0032071355 0.028823901 -6.4321794e-06 -0.004775355 0.0074523007 0.0007239074 -0.021345396 -0.005524477 0.008552206 -0.00955979 0.011388327 -0.02128951 0.02169519 0.011371632 -0.02142375 9.345362e-05 -1.354696e-05 -0.00068790076 0.006164411 -0.026553236 0.015948212 0.026611056 7.80075e-05 -0.0009987119 0.001120056 -0.00012770765 0.021833599 0.00876513 -0.0026803045 0.005693872 0.018288702 -0.0015389284 0.0048035346 -0.008318111 0.00012131567 -0.02315986 0.0022281671 -0.027338918 -0.018219119 -0.0170511 -0.01762557 0.024964605 -0.01986547 -0.0008551324 -0.00037050893 0.012207212 0.022064812 0.015244646 -0.0013283481 -0.021274166 0.02392223 -0.0022956496 -0.00044414113 0.013461307 0.0046863602 -0.003980442 0.000886602 0.020958858 0.0031742011 0.002301572 0.010213411 -0.002728616 0.00012436023 0.0016841207 0.0014536497 0.004977264 -0.0013907535 0.0004606968 0.026890576 -0.007229157 0.020638036 -0.0057575083 -0.0029824236 0.02175388 -0.002692697 -0.0016790336 -0.005541463 0.0019088932
104 -0.010404648 -0.014279857 -0.008498879 0.0026913849 -0.027584152 -7.3754374e-05 -0.019936634 -0.00075109873 -0.0012270582 0.006585755 -0.023609193 0.029504376 0.001729825 0.013588772 0.0027105901 -0.00795709 0.00083480985 -0.020044094 0.001402864 0.022001114 0.01939855 -0.010269915 0.030104943 0.029291367 0.021447817 9.8021424e-05 0.024024563 0.002121973 -0.023523534 -0.00030998248 0.0063886023 0.0013402441 0.002069681 -0.010074901 -0.007963805 -0.005368234 0.0016279666 0.022362329 0.0005288828 0.018193202 -0.013411118 -0.0011642894 3.450927e-05 0.002553497 -0.0026696401 -0.028298259 0.017195394 0.0077887415 -0.002208533 0.0011513461 0.0016099112 -0.031181967 0.022688441 0.0004084261 0.0026185273 -0.00015184085 0.0006763608 -0.01882981 -0.0069652204 -0.00048285615 -0.026762893 0.0014054881 -0.015080779 0.0022053602 -0.016497016 0.012502315 0.011610067 -0.027094118 0.007406776 -0.0023446889 -0.030050743 0.0021002865 0.02389968 -0.02625433 0.013733242 -0.03106076 -0.00066609296 -0.0104581425 -0.011755278 -0.0007808191 0.012716829 -0.009029751 0.012697517 -0.01018846 8.7127046e-05 0.002580931 -0.021061642 0.0003639205 -0.017129472 0.00515856 -0.015453727 0.022768194 -0.002718175 0.00062540337 0.0012038704 0.007081919 0.01259835 -0.00818325 -0.028447472 0.00016745375 -0.026592491 -0.0027293847 0.01821814 -0.017414184 -0.029172288 0.0016855035 -0.000659937 0.010642101 0.028451057 5.7597208e-05 -0.0032758084 -0.027588982 -0.025387274 -0.0019167636 -0.00023294702 -3.479114e-05 -0.00074299093 -0.0095560085 -0.005872816 0.0077306353 -0.0007289591 0.00013589725 -0.0019366227 0.024692364 -0.0057585146 0.002319073 -0.012988306 -0.00028087466
105 -0.013911556 0.008207405 -0.00928143 -0.030423976 -0.009504178 0.0026996844 -0.031185335 -0.025940992 -0.0014474194 -0.0007032945 -0.011327009 -0.0037836311 0.001144696 0.000257994 -0.0027096672 -0.0006178267 0.020644149 0.0035352465 0.018189888 0.008814925 -0.0014331887 -0.00535859 0.008118128 0.00054933655 -0.0031282336 -0.02943768 -0.019215265 -0.029584553 0.023710152 -0.01629847 -0.025303058 0.00064868096 0.002654526 -0.0048509156 -0.029832117 0.010909942 0.0119336005 0.030238027 0.009665738 0.003624682 -0.00022208961 -0.029758329 -0.023500126 0.0008396784 6.8577065e-05 -0.005785456 0.022848016 0.00019903271 -0.006437993 -0.0026674867 0.023656253 -0.012613146 -0.01590702 -0.012834889 -6.432303e-05 -0.018930798 0.0016689624 0.01926742 0.010222313 -0.00035260065 -0.02527163 0.00619878 0.014787619 -0.0027284652 0.024708617 0.0051492006 0.021742418 -0.017192278 -0.0042942557 -9.2083734e-05 0.012007171 -0.023970697 -0.009107696 0.022603277 0.030121109 0.00042470722 0.013621413 0.005131247 -0.010346299 -0.0032814126 0.0014048803 -0.011105244 0.026877703 -0.004754412 -0.0026451738 0.029038101 0.016564457 0.0143873785 -0.00011907384 0.024134487 0.024542142 0.00057102606 0.0027227188 0.024470115 0.0076690023 0.012320922 -2.0298321e-05 0.0061699185 0.014754117 -0.012771526 -0.015162431 -0.022158073 -0.0077806707 -0.006509695 0.026187722 0.0010280912 -0.018193703 0.0006513448 -0.00081862166 -0.015518846 0.005275292 -0.01863247 -0.0027071727 0.0027112064 -0.014563986 0.009905294 0.0007289119 0.005643581 0.020076651 0.020127092 0.0020942548 -0.016877765 -0.0033935818 0.0065701194 0.015430868 -1.7548067e-05 0.011042801 -0.027058812
2046 -0.0140597215 0.002448483 -0.0023207006 -0.01283253 0.011501158 -0.011781797 0.0045309565 0.0016619168 -0.011983129 0.009465647 0.0026980508 0.008701492 -0.0022331753 -0.01513771 -0.023250457 0.0027242096 0.02364326 -0.008839122 0.0032945992 0.028171215 0.0005842973 0.01887166 0.026821867 0.019977268 0.0004241686 0.002710281 -0.0019990457 0.014862768 0.0077718007 -0.0076676845 0.0017027159 0.0038061254 -0.018924631 0.029249942 -0.0041239997 -0.00011978383 -0.018709697 0.020396447 -0.0018714981 -0.0003178663 0.019751523 0.026543913 0.00072364433 -0.010437583 -0.004730514 -0.010895085 -0.02444024 -0.001801218 -0.027674152 0.00070858834 -0.003166424 0.00027699774 0.006279858 0.02726749 -0.00020476832 -0.018943874 -0.0013956996 0.013489337 0.011088573 -0.011370824 -0.0012756975 0.010582479 0.01573737 0.0029837964 0.017982429 0.019109758 -0.0022261122 0.016059836 0.01812963 -0.024837269 -0.007301135 0.02250663 0.016162833 0.020699365 -0.004489342 0.0009656261 -0.02346636 -0.00025737844 0.012514658 -0.0022964717 0.0026990017 0.001051065 0.03085173 0.010997785 0.0022143018 -0.0006218428 0.019840963 0.013385818 -0.03067044 -0.019884136 0.020878186 0.008697563 -0.013191775 0.028538764 -0.005452353 0.002721381 0.0009053239 -0.01392334 -0.016100852 0.00030073329 -0.0010499684 0.029233113 -0.0020048823 0.027680587 0.0015178402 -0.0009242473 -0.029945578 -0.0019865325 -0.023938276 -0.024738986 -0.021261152 -0.0011716587 0.019775726 0.031108238 0.00036569068 -0.0020004143 -0.00044586655 -0.00087700307 -0.00025146673 0.0019133601 0.00017022065 -0.025614038 0.023405006 -0.012675924 -0.027967006 -0.021338522 -0.029328285 0.01145857
2047 0.00033921836 -0.030364217 -0.00082524144 0.001023912 -0.012742663 0.019425504 -0.002324443 -0.024218544 0.018978931 0.028140988 -8.525129e-05 0.0019420566 -0.03021391 -0.025152015 -0.006140418 0.00037615703 6.1849154e-05 -0.014677786 0.021657694 0.019874483 -0.012503515 0.019704338 0.0122413905 -0.008649208 -0.0022357386 -0.0054666474 -0.030133316 0.011381182 -0.00024777133 0.00010677165 -0.0077864253 0.0007253409 0.011666613 0.0007092847 -0.023229316 -0.008719033 0.0023757028 0.026848651 -0.0026025046 -0.002673268 0.0018190464 -0.030629283 -0.0005462478 -0.009285057 0.00048919 -0.008682451 0.016949356 -0.02991013 -0.0006892766 0.029811852 0.018160697 -0.015455654 0.00029825608 0.0018739646 0.0020358472 -0.0036702119 -0.024952993 0.0025390415 0.0040495596 -0.02483637 -0.03015724 -0.008425935 -0.02947912 -0.028405335 0.009349534 -0.0045612254 0.0023115864 0.027023582 0.02009896 -0.0011249095 -0.0008600187 -0.026552489 -0.008437541 -0.017306406 -0.014273496 -8.132198e-05 0.020277327 -0.02414656 -0.0020915652 0.008252426 0.013169048 -0.002602634 0.0025662286 0.002579164 -0.0063039036 0.0057951454 0.024980491 -0.0029049586 -0.00022720644 -0.019716471 0.023096422 -0.007826709 0.0024784144 0.002292316 0.022111721 0.000676418 0.001825789 -0.0019900203 -0.0074477745 6.9550995e-05 -0.0111067165 0.0104047 0.015964648 -0.0025462275 -0.0017334594 -0.02451855 0.013730741 -0.01621089 -0.022963237 -0.027638804 0.015497326 0.012032404 0.019257901 0.01269112 -0.0021665655 -0.00042915597 -1.7422135e-05 -0.0026491275 -0.020776238 -0.00025513893 -0.004020546 0.0037585178 -0.028232185 0.00042925353 -0.021828797 0.029762046 0.020670775 0.026010307
2044 -0.014764454 0.014852142 0.004578904 0.021198845 0.006454864 -0.0064840806 -0.006065366 -0.0065374766 0.020519141 0.0018527763 0.014589805 0.003928521 0.0012385655 -0.0022034885 -0.0024540664 -0.014805553 -0.024263714 -0.0016396607 0.0021189747 -0.00053675065 -0.0061022374 0.007287644 -0.010496259 0.00040974913 -0.0003324858 0.011309395 -0.00089010544 0.0010595699 0.02147495 -0.0026089745 0.02617744 -0.007805549 -0.026961252 -0.00023314072 -0.00062667497 -0.0051971823 0.0005465135 0.0059688976 -0.0006648683 -0.031121625 0.0006292391 0.00272487 -0.022077693 -0.028925339 0.006474437 0.0009090156 0.013933564 0.016346911 0.022415081 0.0026866843 -0.00092131394 -0.022757227 -0.0035222238 -0.0060341707 -0.0023263067 -0.029577423 -0.0002754667 -0.027864927 0.023308478 0.0027369484 0.0018325003 0.019996509 -0.019000584 -0.031184562 0.030256515 -0.0002522673 -0.0018882607 0.011858763 -0.0045781997 -0.028764935 0.0049209055 0.0012063426 -0.0008643638 -0.013755293 0.022826519 -0.022522006 -0.0009241957 -0.025674094 -0.0007034569 0.0006130224 -0.014937942 -0.009541117 0.013175582 0.0018092785 -0.0022606486 0.027277969 0.0026222314 -0.028596926 4.3049688e-05 0.023459215 0.011779435 0.02848561 0.003325209 -0.00020744017 -0.00092236086 0.022752125 0.0034946648 -0.015604153 0.0022732802 0.004622542 -0.0024943936 0.027302409 -0.00016527995 0.0005968236 0.026544372 -0.0018936452 -0.0003438355 0.0014505701 0.029179716 -0.0023221108 0.019796811 0.01531995 0.0012311061 8.3680934e-05 -0.009685613 0.029294232 0.000715841 0.015120506 -0.0009269483 0.008060876 0.019283183 0.014010754 -0.020802302 -0.0018709195 0.011951939 -0.013442631 0.002419668 -0.0116323335
2045 -0.009248877 -0.0005621207 0.006894366 -0.011083384 -5.352599e-05 -0.0041084206 -0.024845742 -0.02310647 0.016391668 -0.02194184 -0.0014763365 0.029276783 -0.0038318387 0.002233233 -0.027563488 -0.0018222044 0.028615259 0.025118677 -0.02660609 0.026341263 0.0009240558 -0.0012195789 -0.022914095 -0.029010136 -0.0026769657 -0.026464757 0.0011399995 0.0016532816 0.0025419877 -0.013186175 0.0027148589 0.007894631 -0.00092424254 0.006182227 0.013715152 -0.0043503833 -0.026567029 0.0020016453 -0.008903217 0.009025909 0.009458698 -0.030601483 -0.018328229 -0.0021746624 -0.0053393375 -0.018519722 -0.002892487 -0.00071121624 0.0016805425 0.013547104 0.010864321 0.002470815 0.0006726817 -0.019071655 0.0013084216 -0.011220215 0.0138942255 -0.029882386 -0.022195721 0.011078127 -0.00047401362 -0.0025650368 0.013498442 -0.02894565 0.020578228 0.008444983 -0.014378446 0.0023402476 0.015870186 -0.0026151072 0.025507383 0.02364646 -0.0027147206 -0.00094713236 0.017029209 0.012758944 0.024840388 0.0026300712 6.49054e-05 -0.001634368 -0.0067349076 -0.008222195 0.0019656138 0.01273287 0.014403214 -0.002578313 -0.022229698 -0.026160844 -0.0025353336 0.02490757 0.0001727821 -0.027294397 0.01852655 0.021098448 0.00038323615 0.009899635 0.02934581 -0.025811229 0.0081848465 -0.013207166 0.015176941 0.02944492 0.01377276 0.0006074221 -0.002419488 -0.0026821643 -0.0009060503 -0.017029084 0.008479521 0.00269039 -0.0027096418 0.023011366 0.013933711 -0.0058087516 -0.011094291 0.013494462 0.019585043 0.0024597521 -0.013994089 -0.009221889 -0.0025732357 0.023703858 0.0070734983 0.027811287 0.024404842 0.016888948 0.031178942 -0.025545487
2042 0.0026369784 -0.025180949 0.0027171408 0.0002272033 -0.00056856166 -0.02410237 -0.021703634 0.00084784016 -0.014164693 -0.00089947425 -0.012873584 -0.0048400024 0.0285952 -0.0025838339 0.00031001528 0.0018395623 0.00045916613 -0.026389446 -0.010427054 0.00031916733 0.00034899643 0.0007375624 -0.0027087815 -0.00058280147 0.0027052818 -0.0010643918 0.0070076645 0.0046285037 -0.019876372 -0.002677588 -0.005568411 0.0007191916 -0.0163204 0.02260333 0.0026909674 0.024254108 0.010659127 -0.0026427165 -0.00042764196 0.018919576 -0.00016049179 -0.0051530083 -0.0256639 -0.002736998 0.020824904 -5.6499324e-05 0.0012705049 -0.028719397 -0.0062545226 0.0023469406 0.020362655 -0.022490641 0.02812299 -0.00016877757 -0.029673798 -0.01601202 0.02005883 -0.0008596407 -0.027132753 0.00088795344 0.007866583 -0.002513873 -0.0074223615 0.0012324129 -0.016933296 0.0008405119 0.0023591134 0.024968196 0.014939054 0.0026836789 -6.374775e-05 -0.0007567153 0.00816703 -0.012939214 -0.009373944 0.0018291312 -0.00048122188 -0.0013046176 0.03062912 -0.02852007 -0.031093841 -0.002589933 -0.002724874 0.02383565 -0.0005880617 0.0014715903 0.011763124 -6.991021e-05 0.017070033 -0.019780088 -4.414095e-05 0.013617706 -0.021540277 -0.007690273 0.009006078 0.01253599 -0.002996574 0.009926129 -0.00062752585 0.02660133 -0.028340826 -0.0041626645 0.00208326 -0.025326027 -0.00011125213 0.006651756 0.014475248 -0.0013640204 -0.00030550046 -0.03055745 -0.01839717 9.4941934e-05 -0.02199622 -0.030333605 -0.018435586 0.0022942834 0.0008884503 -0.012714111 -0.008462508 -0.0020397322 -0.0008289568 0.023821495 0.0023334906 -8.2681e-05 -0.007234778 -0.00023103193 0.02895069 0.026183074
2043 0.01893591 -0.00056680583 0.023654439 -0.025889467 0.014490469 0.0015943251 0.013123573 -0.010551661 0.002897707 -0.00042994088 0.0050181104 -0.021387227 -0.0070739803 0.00046239496 0.0003473864 -9.365108e-05 -0.0036436352 -0.0005512327 -0.0012755822 0.020611497 0.007490336 0.011021075 9.339012e-06 0.0027283595 0.014736289 -0.00252243 0.020929089 -0.0108925365 0.00084972766 -0.008954253 -0.026937425 -0.0007132422 0.0009044598 -0.0024792193 -0.00042468813 0.020123603 -0.00091456424 -0.016801285 -0.0071348776 0.020395527 0.027751772 -0.0017619189 -0.023556452 0.021797843 0.0110360505 0.010137064 -0.0026730485 0.002225619 -0.016577218 0.00036397923 -0.002632085 -0.019249573 -0.009745461 -0.0001626956 -0.02039118 0.009440064 -0.017064199 0.017866645 0.0072691804 -0.0018845766 0.0024629282 0.0045084828 0.023598999 0.0025562283 -0.024366383 0.022525072 -0.0005487992 0.022301603 0.0004140356 -0.011371142 0.022019468 -0.020711737 0.0025062803 0.0021682011 -0.01046532 0.003962404 -0.019896269 0.0071672215 0.0016325004 -0.0035685005 0.006531371 0.020226866 0.0064806854 -0.027402073 -0.005295209 -0.00958245 -0.010440731 3.7994672e-05 -0.027749563 0.00034889035 -0.018045258 0.0022901718 0.00010147013 -0.0026608557 0.030981319 -0.0022324268 0.018196788 0.026127638 -0.007865068 -0.02642355 0.022264415 -0.00010358589 -0.018252824 0.010025422 -0.0273368 -0.007162923 -0.014423169 -0.023127126 -0.000549718 -0.021345263 -0.02373024 0.021131622 -0.028658858 -0.007746091 -0.019511394 0.002007369 1.9680941e-05 -0.0107590165 -0.0063994993 -2.0085863e-06 -0.0016894243 0.024674637 -0.019122522 -0.015216818 0.0006327315 6.880285e-05 -0.0024993282 -0.022919394
2040 0.029645069 -0.015841532 0.00043060843 0.028093435 -0.006489743 0.016844414 -0.0014564346 -0.0011516627 -0.0057793157 -0.0005640556 -4.264299e-05 -1.04427745e-05 0.0008838348 -0.0011066983 -0.022737388 0.020366685 -0.008776751 0.016849445 -0.01967016 -0.010448559 0.0054587536 0.026583374 0.024850188 -0.002032332 -0.00037724926 -0.00038329166 -0.014793031 -0.0013834466 -0.02929599 -0.019477192 0.0024549174 0.010399789 -1.603271e-05 0.0004303692 0.0002317055 -0.02112728 0.0016242854 0.02504176 0.0037011788 -0.0023063957 9.646843e-06 0.010452865 0.029515173 -0.028232882 0.028550548 -0.024720602 -0.01752759 -0.01197394 0.020478673 0.00031748574 -0.016095532 0.0019895574 -0.00081097207 -0.0079039885 0.0062440005 0.0024123224 -9.120314e-05 0.00012917093 -0.0067855357 -0.02136987 -0.022170138 0.0016642744 -0.015995156 0.020379659 0.0024242634 -0.00024786917 -0.0024949403 -0.00064197835 0.0050625247 0.02358461 -0.0018356214 -0.008180993 5.359712e-05 0.015582418 -0.006124733 0.0060356157 -0.025809254 0.0015908772 -0.00016288206 -0.0015223882 0.012656297 0.0030696886 0.016623346 -0.0129968515 0.00055582955 -0.00060186756 0.018374125 -0.0069360514 0.0020040576 -0.010597281 -0.0009742434 -0.026147552 0.0070029907 0.002517085 0.030189265 0.0038179103 -0.008701379 0.0015148292 -0.0045286096 0.014795881 -0.0020336537 -0.018513082 -0.0026636622 0.029021623 -0.020957904 -2.4410843e-05 0.02972301 -0.028902182 0.0025585727 0.013652965 0.009425249 -0.030604672 0.0050862767 0.0020004527 -0.0040751398 -0.0026465238 -0.0019877409 -0.0009115683 0.019183064 0.024364766 -0.00974677 0.025348902 -0.0076738703 -0.00422693 -0.0014899778 -0.0023470093 0.0018265005 0.005130747
2041 0.00092387444 -0.02080419 -0.0106296735 0.0027223446 0.013292485 -0.020066233 -0.010014186 0.009753262 -0.0174575 -0.0099057695 0.013381088 -0.0061088256 -0.00025443925 0.0061616823 -0.00026562752 0.015990289 -0.00019583781 0.0024986411 -0.022655372 0.014310729 0.025393939 -0.0078973835 -0.012137222 -0.030834759 -0.022124834 0.00096029404 0.0281445 0.0022948901 -0.018587574 -0.011724029 0.021565303 0.002310448 -0.031171782 -0.0023059135 -0.021981949 -0.0080092875 0.016977914 -0.019405872 -0.02500369 0.0060256496 -0.0027102993 -0.030235829 -0.023392936 0.027062312 0.0017319055 -0.007879089 -0.02366804 0.008705071 0.0027269798 -0.010714115 -0.0020535858 0.009741361 0.000647872 -0.017347315 0.0011292992 0.0021650582 0.0020458577 0.015517215 -0.023496667 0.0011568252 -0.026652599 0.0070886286 0.0066084946 -0.030328097 -0.02746779 -0.0017267538 0.00081934175 0.00012241484 0.021477249 0.0020051715 -0.017649928 0.00065722154 0.023174979 0.0065775025 0.008763921 -0.0026398813 0.00043027254 -0.015342997 0.0054295873 -0.0005458611 -0.015579715 -0.025313344 2.542435e-05 -3.5806544e-05 0.02243747 -0.021151777 -0.006185147 0.018093435 0.0079585975 -0.0029047416 -0.0016966565 0.017841818 -0.004047757 -0.0013422207 -0.0019103545 -0.026979141 -0.013270341 -0.0038575653 -0.00104932 -0.00785421 0.0057573095 0.0020796917 -0.0016619355 -0.022820946 -0.0020712758 -0.00016879069 0.0050913487 -0.0017025706 0.014417453 -0.008845759 -0.029322216 -0.0028236741 0.015371774 0.00019278686 -0.026443481 0.025928378 0.00067208556 -0.0026377602 0.00028015306 -0.013823032 0.0016511069 -0.002036919 0.011256932 0.006827921 0.0007053473 0.00027658688 -0.0036078384 -0.0027125727
2048 0.009694644 0.0023236093 0.01241398 -0.0018874647 0.020823568 0.001411073 -0.016783623 -0.019976322 -0.00023016255 -0.030585315 -0.0020874538 -0.006259398 -0.0008553735 0.024101771 -0.01871725 0.006258438 -0.00020856695 -0.0009795311 -0.02888925 0.002618942 0.014470426 0.0014902042 0.012006317 -0.0014725084 0.015367553 0.009781927 -0.006281795 -0.028412651 -0.0028717353 0.011736023 0.025015311 -6.04199e-05 0.002790047 0.0019994322 0.010104971 0.0011045464 -0.026913531 -0.026355274 0.024661945 0.03061622 -8.307822e-05 0.02262175 -0.004177502 -0.0002267145 0.0020146323 -0.019262085 0.001903327 0.005624161 0.01993005 0.000121078716 0.0007751873 0.00033999875 -0.00017727111 0.002596982 -0.00339835 -0.026854878 0.013311221 0.0007746979 -7.9496705e-05 0.019593373 0.030762017 0.010262712 0.026098011 -0.0026652934 -0.00046642634 -0.026380528 -0.0025101802 -0.00032660182 0.00040117447 -0.010159535 0.027017394 0.006276575 0.029082747 0.0052451137 -0.0026499245 -0.0109450305 0.003538876 -0.0007165331 -0.00057971885 -0.026963055 -0.0002584293 0.003939354 -0.00550109 -0.0010291219 0.0009333073 0.0008322225 -0.0020121918 0.02193681 -0.01993985 -0.014913988 -0.029090319 -0.016380018 0.0004138741 0.015353954 -0.02415966 0.004507024 0.0017164976 -0.030829422 0.0007464141 0.020859381 -0.0035931908 0.0036549503 -0.019118514 -0.002723926 0.0015489822 0.0004258999 0.0087719755 0.0005585628 -0.0004550462 0.004410708 -0.0026296107 -0.0033137063 0.002527161 -0.027982604 0.023583082 -0.01708107 0.013402277 0.021548199 -0.022557274 0.010213324 -0.030558603 0.00062502665 -0.028203549 0.027379056 0.0006163266 0.024934717 -0.03102826 -0.0014720376
2049 -0.013194338 0.030817818 -0.021984369 -0.020451423 0.02840689 0.02429233 0.0033270752 -0.0022448099 0.0003343063 0.01725806 -0.0057082726 0.0046664523 -0.00047840754 0.01037164 -0.0057341335 -0.029585814 -0.002815362 0.014654363 0.00011589518 0.0012345272 -0.025109427 0.029132744 0.027541647 -0.022130612 0.025964137 -0.0022953213 0.00091889995 0.029796325 0.014813918 0.024751987 -0.016926868 0.012397909 0.02239895 0.01742379 -0.015263177 -0.0036498732 -0.020485973 0.020765156 -0.0019502928 9.387848e-06 0.023953632 -0.0026723654 0.00028842903 -0.0008668403 -0.014957747 -0.011290171 -0.00076592 -0.005724844 0.0020478468 -0.023672998 -0.010322316 -0.005212326 -0.013782449 -0.00019534038 -0.029575123 -0.0025192278 0.0026024475 0.017595815 -0.009610802 0.00085988024 -0.012116922 -0.024022501 0.009851483 0.008025362 -0.0027021274 0.029348688 -0.0016270743 0.01308097 0.0024740393 0.013457216 0.028376611 -0.0024610762 0.030633057 0.00080555567 -0.01720221 -0.0008400711 0.005115288 -0.002489204 -0.0005120073 -0.0006001083 -0.031027725 -0.015949247 -0.014112835 0.02125177 -9.611144e-05 0.022107115 0.031139318 -0.0078087044 0.010510469 -0.030420067 0.029151306 0.0008362829 0.0016577345 0.015600314 -0.0034147617 0.016645582 0.026585227 -0.024034016 -0.0071772737 -0.024464313 -0.0051992885 0.016975934 0.00045130023 -0.001992354 0.009132982 -0.0032206343 0.0010932533 0.0005380227 -0.00011549672 0.00019654026 -0.00085707643 0.011015213 0.00034760096 -0.0025871282 0.00024095702 -0.015730327 -0.0014169875 0.030774992 -0.0054530543 -0.0026749074 -0.016153943 0.028404117 -0.0022798453 -0.010359535 0.0026947316 -0.006616523 -0.00015394363 0.0025816367
1213 -0.011539407 0.037304208 -0.02934985 0.04324755 0.01406574 -0.06637475 -0.00987065 -0.024882302 0.0456063 0.050509777 0.06857741 -0.06168376 0.065544315 0.017698828 -0.022275029 -0.06815282 -0.0548374 0.01962239 -0.0039058146 0.064946346 0.022404691 -0.006463396 -0.028174253 -0.0651101 -0.014286113 0.022905532 0.0057941494 -0.025752211 0.009260451 0.049055364 -0.055263635 0.017385935 -0.028594937 -0.029424435 -0.035631873 0.021666752 0.0070359875 -0.021792177 0.025330199 -0.018449277 -0.02422855 0.0117877135 0.028289823 0.01589842 0.010327555 -0.025943821 -0.046814866 0.0007776441 0.0490871 0.016761765 -0.010091286 0.059196416 -0.022896497 -0.005314173 -0.03315408 -0.06507374 0.004240978 0.0055321516 -0.02840855 0.010049047 0.050257202 0.052356727 0.05068648 0.060136296 -0.06986911 -0.029596431 0.0068582036 -0.012245536 -0.00558556 -0.010632495 0.031339362 0.002232394 -0.014171526 0.0032573165 -0.032574072 -0.013261559 -0.012790144 0.006554825 -0.043487985 0.015571461 0.016906848 -0.033041596 0.0072933063 0.05224546 -3.9607767e-05 -0.012635914 0.009948484 0.04994163 -0.059101727 -0.032984868 0.02365386 -0.03956056 -0.053461015 -0.043292563 0.02138675 -0.06638142 -0.0475113 0.026910856 0.004864868 0.03600933 -0.06080997 -0.06399764 -0.067128755 -0.040048063 0.037377078 -0.05882419 0.028075187 -0.016367061 0.016850952 -0.030071631 -0.018118862 0.014964599 0.024701493 0.018058173 -0.025425648 0.052383192 0.069479786 0.0041619698 0.019008595 0.04357645 0.030027159 0.018153897 0.04022914 0.034355752 0.04998564 -0.022403942 -0.03139734 -0.021302707
1210 -0.00058096054 -0.019117545 -0.0018244218 -0.00023905517 0.0006158267 0.0026539655 -0.0024959256 0.0015747268 0.011473145 0.003672006 -0.00012164959 0.02665514 0.00034838024 -0.00091585156 -0.026143624 -0.00010228642 -0.0024912858 0.00039469145 0.00017846817 0.027117917 0.018641468 0.00083085324 -0.01139806 -0.021376772 0.00083257095 0.0077143344 0.024154797 -0.00041120226 -0.0016182247 0.004833799 0.0018528313 -0.025898615 0.018544648 -4.5570923e-06 -0.003661421 0.029582296 0.028839497 -0.010196194 -0.0010176132 0.014296752 0.0057122265 -0.020945458 0.01744531 0.0027098048 0.0027260708 -0.015643468 -0.0007354516 -0.019937374 6.830576e-05 0.00029439587 -0.014772982 -0.01826516 -0.025822327 0.03053254 -0.024454784 -0.029325288 0.0026653246 -0.0002841184 0.004667423 -0.00046628472 0.020835636 0.004510672 0.023724109 -0.010192952 0.004018039 -0.0024168212 0.0006467965 0.0025952023 -0.0027172316 -0.02077212 -0.01541447 0.0026118401 -0.016611343 0.030846352 0.01349449 -0.0293759 0.0027273982 0.009147192 0.011495424 -0.0018637382 -0.0055639073 -0.00047176145 0.025090275 0.0022687714 -0.010540939 0.019657379 -0.0096735 -0.0006170195 -0.0025240881 0.015727162 0.016801247 -0.0037224162 0.007297507 -0.007221318 -0.0012257791 0.02929791 -0.00019927684 0.0004210827 7.164484e-05 0.0017982756 -0.0021455083 0.0014043497 0.0003220376 -0.0009002182 -0.0018287876 -0.023550808 0.023784775 0.0003793711 -0.0027104437 0.023004502 0.018397368 0.001439804 -0.015057486 -0.00043042388 -0.0025846155 -0.026069958 0.007119241 -0.006270407 -0.00036170677 -0.00027706032 -0.0011605409 -0.019655919 -0.00026568008 0.022247694 0.0016646802 -0.0019065439 0.0239004 -0.0019888976
99 0.043629996 -0.036097597 -0.052816916 0.0333246 -0.059460063 -0.013148991 -0.03401264 -0.0027653035 -0.03787589 -0.064585954 0.020107137 -0.002541607 -0.02635906 0.030367631 -0.0547798 0.047180977 -0.058856066 -0.008154459 -0.027675668 0.015095217 0.0033270475 0.05929148 -0.026614476 0.04957188 -0.025904221 0.0038230093 0.014364728 0.0652181 0.020214235 -0.00087874255 0.06362745 -0.025725953 -0.023862544 -0.03842412 -0.032609012 -0.020467205 -0.006630732 -0.026525598 0.01246128 -0.052759998 0.057363972 0.016989041 0.06742866 -0.06578944 0.05106154 0.03566686 -0.004638006 0.033144284 0.029207973 0.029127114 -0.027168423 0.021623448 0.004014152 -0.006885887 -0.003978312 -0.031651583 0.040515315 0.021054508 -0.029188354 0.02154072 -0.061743893 -0.040840797 0.013417904 -0.033796385 -0.042222586 -0.034495648 0.05682138 -0.06740613 0.030220302 0.0545506 -0.010071171 -9.735138e-05 -0.015777364 -0.030512497 0.041813537 -0.028161684 0.042620238 0.0655755 0.021042138 0.04237552 -0.009601281 0.011461386 0.043207925 -0.065918 -0.049921576 -0.0077586635 -0.02245754 0.0039301347 -0.022300031 0.049335625 -0.047053628 0.0101750875 -0.011173409 0.010505119 -0.06343034 -0.062493633 0.022365514 0.04746619 -0.01479843 -0.034012042 0.03772777 0.06364293 -0.040288754 -0.032966614 0.04419412 0.021800108 -0.04985255 -0.029898874 -0.039522298 -0.019634323 0.027046187 -0.027481923 0.048343472 -0.020886067 0.023239201 0.03632418 -0.057530824 0.026448658 -0.00781031 -0.012844872 -0.021821013 0.026150035 0.029739384 -0.016243089 0.02980018 0.07128527 0.006002035 -0.018704018
98 0.029873684 0.007902226 -0.0008856872 0.007033672 -0.00023557 -0.011359287 0.026193906 -0.025028845 0.006933564 -0.0003847974 -0.00080089935 -0.00042105923 -0.030438803 0.009741911 0.00912569 -0.0020556792 -0.00085907435 -0.0006708562 -0.0016483243 -0.014562681 0.025782514 -0.0026444863 0.022698319 0.023147672 -0.002728069 0.0024741678 0.02647616 3.800844e-05 0.002483754 -0.019368095 0.022289038 -0.0025813712 0.012246255 0.010274027 -0.0005695383 -0.022993492 0.008763432 -0.00938551 -0.0033367206 -0.0019483577 0.0009592186 -0.0009086615 -0.020672938 0.0027241528 0.00046039541 0.002722005 -0.02972281 0.0017406896 0.008716996 -0.014574199 0.002728181 0.009983486 0.02015361 -0.030352075 -0.0009485705 0.00042783044 -0.013915612 -0.02733488 0.00027106047 0.021223862 0.005991508 0.02356451 -0.014324417 -0.003133316 0.0027209837 0.0026630892 0.024930999 0.028550671 -0.0027286059 0.00092394947 0.018857049 -0.029196423 -0.0012909585 0.0026725137 -0.00050779834 0.0019430739 0.028672457 0.012458639 4.6325426e-05 0.008369956 -0.017516164 -0.015789824 -0.0034202999 -0.009362969 0.0013852769 -0.02780206 0.005092653 -0.0014177965 -9.093904e-05 -0.013196507 -0.0006629558 0.005254029 0.011644411 0.0017649177 0.0046879807 0.021601446 -0.023529975 -0.0026890093 -0.024850115 0.014395929 0.014953694 0.027706165 0.00094828766 0.030612934 0.0024084484 0.007843565 0.00020986615 0.010305181 -0.02059851 -0.012402372 8.28733e-06 0.006958733 -0.0051818094 -0.0020112882 9.831555e-05 -0.011769494 -0.0034876917 0.005242862 0.002729214 -0.001961332 0.026281167 0.017136676 0.023084428 -0.0009235248 0.011832708 0.0027093869 0.012526891 -0.010890375
91 -0.0027219916 -0.013656616 -0.009327346 0.0042562936 0.0023844913 -0.031077966 0.002886582 0.0027201786 -0.0007644565 0.02114371 -0.010489027 0.027618034 -0.0025600519 0.002924686 -0.0028615398 0.028185293 -0.011559911 0.02478937 -0.00011555076 0.010342301 -0.0012125145 -0.00085739035 -0.021511676 -0.016461914 0.0027242755 0.0026765617 0.00053364097 0.0013312276 -0.0004754376 0.00041274313 -0.0010484549 0.0034308694 0.019296635 0.0006167406 0.027808975 -0.020017382 0.01091666 -0.0017549538 -0.005381315 0.0027170694 0.024860045 -0.0016968037 0.026659312 -0.00094358384 -0.00062325544 -0.0027277607 0.0021762287 0.0021591461 0.00013350724 -0.0017072253 -0.0014339102 -0.007933861 0.0013975163 0.006631124 -0.0009015784 0.0015016114 0.0020735795 -2.5300833e-06 0.027285723 -0.002175726 0.00020677263 -0.0017632502 -0.029386338 0.009124293 0.0006754373 0.001228406 0.015789526 0.012994568 0.0019805068 -0.026968889 -0.0006871312 0.021598455 -0.009039668 -0.0075428733 -0.0070367367 2.853034e-06 0.016233841 -0.0023442958 -0.0014734854 0.000110286404 0.008977834 0.0004860411 -0.00074198877 -0.025947675 0.00042213194 -0.0026953234 0.0023469066 2.9222065e-06 0.024948923 0.0253138 0.01667296 0.021654943 0.018292436 -0.015000686 -0.0022344314 -0.0077290414 0.0092797745 -0.009871533 0.016088145 -0.024916071 0.0023334804 -0.00040308986 -0.018843198 0.018558467 -0.004222109 0.0025211093 0.018436266 -0.026098033 0.00019765318 0.0022364666 0.026188187 0.011581331 -0.00058566616 0.00021798375 0.0018238288 -0.00032595254 0.0027215444 -0.0014777378 0.0026382352 0.008395854 0.0014898351 0.018530894 0.00059129216 0.021847643 -0.0026719086 -0.025798047 -0.026725147 0.025945935
90 -0.019139528 -0.023528803 0.066726215 -0.04283799 0.0036694272 0.019964188 -0.032551944 -0.0051542623 -0.034627818 0.020300882 -0.01656076 0.008948008 -0.020857213 -0.054625027 -0.008533404 -0.036197983 -0.008249246 0.047006585 0.015776763 -0.02609601 0.048386704 -0.04371143 -0.0111376615 -0.069557205 0.0033829138 -0.040671464 -0.011642835 -0.020942407 -0.040921133 -0.017994154 -0.021529175 0.010052083 -0.017803889 -0.056705404 -0.07026668 -0.018414605 -0.044728853 0.025496515 0.023401368 -0.007420702 0.05070006 0.020642355 0.0010585106 -0.018560765 0.008793204 0.0019913423 -0.0059557417 -0.054954257 0.059952687 0.03013739 -0.030162964 -0.046504453 -0.028378138 0.046349604 -0.011813334 0.0042869537 -0.048929013 0.0058579943 0.0507075 -0.02661395 0.021366766 -0.043741915 -0.043147493 0.02554398 -0.0063259993 -0.022491176 -0.0077759963 0.059845887 -0.06287845 0.007996932 -0.0010174774 0.031910628 -0.0027057147 -0.028036553 0.020351274 0.027570788 -0.051791623 -0.0641526 -0.02400533 -0.048008513 -0.027557608 -0.050348017 -0.0076265982 0.008875465 -0.011599263 0.021197837 0.055767465 0.008589321 -0.009356075 0.007861631 -0.057338327 0.01907999 -0.06621162 -0.03143619 0.058561154 0.023924803 -0.02964523 0.06918127 -0.055372264 -0.054956123 -0.008129072 0.0017506108 0.008850999 -0.00639847 0.04040442 -0.030190174 -0.033422846 0.023821237 -0.004771562 0.019561049 -0.03949101 -0.00029036158 -0.021152409 0.06722946 0.007041786 0.068544485 -0.0369723 0.01368948 -0.023448715 -0.032057215 -0.051736485 0.067541115 0.03525845 0.039656408 -0.03855885 -0.057200518 0.009237733 0.053214327
