2220 128
1200 -0.023391915 -0.022660092 -0.0027279444 0.026742011 -0.009312774 0.031128818 -0.0014300777 0.0022059036 -2.7338443e-05 0.00024766062 0.012407662 -0.00062319223 0.0011880468 -0.0005483531 0.0021997555 0.019920561 -0.025423266 0.029812537 0.0021668747 0.0060733 -0.021539401 0.013992373 0.00081184576 -3.3417367e-05 0.026561085 0.0014088212 0.00027864554 0.0018500236 -0.029557673 -0.030608047 0.030021565 0.030214647 0.0026399517 0.006465446 0.020521494 -0.016184155 0.010459051 0.007182761 0.0004922147 0.029190158 0.02235317 0.019297915 -0.018273167 -0.007337145 -0.0002071606 0.025102992 -0.0009912739 -0.0010879626 0.0048185033 -0.021530008 2.4451176e-05 -0.020050611 0.0016081576 -0.0036689793 5.2693533e-05 0.008160154 -0.00048407528 0.02439434 -0.01837645 -0.008759838 0.0067828484 0.0010064924 0.00202915 0.011455395 -0.028185748 0.0014351299 -0.024483804 -0.009661515 0.023142641 -0.015491232 0.00082189305 0.0004302968 0.0020540946 0.002590557 -0.01819121 -0.0020252627 0.008938253 -0.0006902402 -0.026067806 -0.004251681 0.0018588713 0.00045773675 -0.006170687 0.0053250333 -0.0002702661 0.024164906 0.011831325 0.013993399 -0.00033504987 -0.0001561052 0.009456153 -0.00042528304 -0.02492745 -0.002518395 0.0238378 0.0022661344 0.020313183 0.029319676 -0.00825101 0.00014378253 -0.0010612062 -0.0019024616 0.0024296918 -0.00069439405 0.002713342 0.00027006166 -0.005439818 -0.029736355 -0.0023184947 -0.030643318 -0.0010227576 0.0007090626 0.018796807 -0.0026241026 -0.010016613 -0.022573603 -0.0001553946 -0.0066086897 0.0025033806 0.00013220223 -0.029228788 -0.015498231 0.00797798 0.009774362 -0.0027159846 0.010237246 0.007859366 0.018451467
344 0.00088851235 -0.031106088 0.02327688 -0.0007256802 -0.023135228 -0.00011031641 -0.007964911 0.0013498175 -0.00694614 0.000152625 0.015223527 0.011395608 -0.0006607841 0.0027439035 0.00021698931 -0.019245265 -0.0062498553 -0.0025860933 0.005840804 0.030440802 -0.0025392286 -0.028011773 0.011169146 -0.012794272 -0.023141444 0.0009199014 0.010833675 0.014323136 -0.026239775 0.0017886269 0.0035957557 -0.0022288172 -0.0001221583 -0.015294472 0.00083185127 -0.013925592 -0.0026319742 -0.028044932 0.0009233942 0.026156664 0.007347875 0.015027821 0.022089915 0.00011513804 0.02282142 -0.023720706 0.00052513916 -0.0012303942 -0.001492699 -0.02510202 -0.001126982 -2.6202411e-05 -0.0063147354 0.0012227434 0.0006846169 0.0014838766 0.024475442 0.019892069 -0.028920747 -0.008939049 0.0027149592 0.0011929433 0.0059219166 -0.02820617 -0.00080136757 0.0026564444 -0.012439079 0.0013509378 -0.0007486625 0.0009678403 -0.025620785 0.0008512179 -3.949288e-05 0.017689154 0.027640842 0.012959616 0.010179535 -0.0027068912 -0.018900536 -0.0148174 -0.010086767 -0.0023942748 -0.026946569 0.027857618 -0.002126583 -0.009799686 0.002213344 -0.024046103 0.026871448 1.2754463e-06 -0.001166825 0.00037849264 0.00014354316 -0.004345999 -0.016111458 0.00083475723 -0.0024680614 0.0008065366 -0.023677364 0.023778804 -0.02424916 0.027620347 0.0001781838 0.020362109 0.0016195765 0.0017870107 0.0058804573 0.020117816 -0.018956684 -0.012157164 -0.00046270032 -0.0007442084 -0.0022250628 -0.0029163836 -0.023131153 -0.014165956 -0.0008792112 0.009525984 -0.030696465 -0.0071332958 -0.00844059 -0.00068118976 -0.0025145432 0.00020193058 0.02098407 -0.0071566436 -0.006506103 -0.0013961999
345 -0.0002212384 8.2221086e-05 -0.0298923 0.0014564877 0.00017047566 0.00051473913 -0.02552787 -0.0023682555 -0.00012439094 0.002482265 -0.001573273 -0.009803852 -0.00048414015 -0.002644348 -0.0003489983 0.00020431772 -0.0064457757 -0.0026008722 -0.0023045933 0.024963941 -0.001556663 0.01514078 -0.0044446397 -0.014540362 -0.008860093 -0.030322663 0.0018094473 0.0046418016 -0.028894246 -0.021958003 -0.0004262948 0.016018612 -0.01777244 0.028783387 -0.021813612 -0.002004793 -0.014826476 -0.026559256 0.023183612 0.02753637 0.0008370362 0.0139375515 0.030678062 0.0052726357 -0.0036632929 0.0021851815 0.013853318 -0.0015292882 -0.0017007133 0.025282416 -0.00068668573 -0.0025037676 0.01218134 -0.0010144056 0.019005049 -0.008738856 0.006691177 -0.0023729473 -0.002371015 0.0014558432 -0.00052237906 0.005987289 -0.0002503738 0.0016247653 -0.0026975935 0.024506329 0.026725989 0.0006203377 0.00013070437 -0.00043314556 0.014578503 0.014425617 0.027315322 0.0021638444 -0.0054114843 -0.021099605 0.0003322254 -0.022360366 0.011694627 0.02320495 0.00068058737 0.030242566 0.0027140211 0.011403779 -0.020242961 0.022498326 0.020171376 0.028653774 0.024492407 -0.020119293 0.015862897 -9.617723e-05 -0.0010580451 0.012212484 -0.026514871 -0.008193258 0.015020322 -0.013952377 -0.0027714316 -0.0002490872 0.021331556 0.006452805 -0.0067386185 -0.0080690235 -0.01170156 -0.001624101 0.0040435563 0.001384891 -0.019424757 -0.027711906 0.00039047113 7.249489e-05 0.0026277003 0.0026383745 -0.0059277574 0.020932432 0.00027761585 -0.028294109 -2.7502247e-05 -0.023404766 0.026040955 0.014957405 -0.0015806291 0.00014563804 -0.02767459 -0.030186102 2.3310815e-05 0.025135254
346 0.041781686 -0.042747147 0.018115055 -0.027504154 -0.04867263 0.013112269 0.01746404 0.025679931 -0.036901042 0.05697552 -0.027802188 -0.041518778 -0.06816173 -0.0064841285 -0.013203644 -0.016836992 0.031788666 0.0024296844 -0.060467854 -0.009450425 0.022409564 -0.04431069 -0.03824981 0.012899396 -0.017238805 -0.038621012 0.0023606021 -0.011012459 -0.021243231 0.05900212 0.007117321 0.022851447 0.036032032 -0.024807127 -0.009303142 0.02195774 -0.02409094 0.01993127 -0.039872713 0.023716377 -0.05831676 0.014588755 0.046279933 -0.03572095 -0.029957008 -0.027236378 -0.046382464 -0.041088704 0.06824862 0.011583805 0.03409225 0.033029757 0.036784407 0.006218415 -0.06750183 0.034581058 -0.06631382 0.06405214 -0.039720155 0.059963807 -0.07031272 -0.052415967 -0.016681094 0.06360012 -0.0017914316 0.012183143 -0.039329395 -0.058628865 -0.030277299 0.052382417 -0.008989199 -0.019303583 0.0134312175 0.02017183 0.06797171 0.023634605 -0.030753145 0.011924594 0.04723242 -0.04845616 -0.016370974 -0.055466674 0.048841104 -0.049665418 0.048675843 0.023207994 0.027690448 -0.04873959 0.06720266 0.05629617 0.0059084343 -0.030435868 0.04907482 0.06543795 -0.029398948 -0.011110912 -0.015687548 0.05905994 0.06759921 0.044279225 -0.011895328 0.051838484 0.027384361 -0.03143766 0.07080666 0.0529668 0.045069456 -0.02825509 -0.00079219777 0.0077778567 -0.03702772 0.06370533 -0.030124076 -0.04465893 0.017724836 -0.020249492 0.031466074 0.004153543 -0.023921285 0.019341419 -0.02017376 -0.0005122861 0.02355843 0.031854674 0.05601141 -0.049371764 0.054076206 -0.00024556788
347 -0.0025277706 -0.0034091463 0.024156516 0.0024671904 0.023765743 0.00021296344 -0.014999222 -0.010092449 0.0060912473 0.019493822 -0.0023212172 -0.022139393 0.018314786 0.0061653657 0.026268458 -0.0024004148 0.0009670843 -0.01220797 -0.0041570873 0.001233437 0.0043419464 -0.025901627 0.007074968 0.0010553818 0.0035307356 0.0027289689 -0.0004072289 -0.016881078 0.00047706882 0.013682713 -0.0045093186 0.002716495 0.00018638885 -0.01843975 0.02242605 -0.00041831215 0.025866207 0.0014977647 -0.019944943 0.010176677 0.00048107142 0.030851591 -0.002665453 -0.0027209078 -0.0016861078 -0.028631123 0.0015482102 0.00022909406 0.01454977 0.011040014 -0.012682961 0.025958546 0.0014453167 -0.029703012 -0.00060599967 -0.013722182 -0.021830397 -0.0016023591 0.017110873 0.0023258294 -0.0008206679 0.00049334596 -0.006417919 -0.000682963 0.020083638 0.025339622 -0.00037312575 -0.023906311 0.019031169 0.010522107 0.0005154123 -0.0018756944 0.0006230733 0.00085638755 0.022568502 0.018493634 0.00024989998 -0.011803782 0.0012725953 -0.002540884 0.0003682874 0.00081212795 -0.014470371 -0.0009025557 -0.000105959945 -0.0009765737 0.0025989222 -0.0061730933 0.01517665 -0.021979995 0.023136282 -0.0025207102 0.009322682 -0.00012951292 0.015640449 -0.00063125335 0.010459386 -0.0022082753 0.0006600744 -0.015839688 0.008624658 -0.0028571896 -0.027659079 -0.0225556 0.01757328 0.007453047 0.001209397 0.024836333 0.0186233 0.026850542 0.00022905803 -0.00050139334 -0.026912961 -0.011586802 0.007592199 0.0006426208 0.01262128 0.0026648485 -0.02490508 9.43981e-05 -0.015520704 -0.006049595 0.0020576208 -0.0008875764 0.0022509017 -0.022377916 0.0027251702 0.00086053845
340 0.007404223 -0.020122986 -0.022804925 -0.03847381 0.025971696 0.01680125 0.0021144012 0.055852573 -0.06440471 -0.05051346 -0.065843984 0.053262115 -0.0075741904 0.052569013 -0.048576426 0.023145866 0.06079876 0.06192258 -0.0036558372 -0.020080516 0.020902384 -0.050964326 -0.022932962 0.058935553 0.01118756 0.0074033337 0.049096834 -0.023363044 -0.01074124 -0.058923278 -0.062483728 0.051458165 0.055664703 0.060912352 -0.05656934 -0.024532259 -0.061724644 -0.064869724 0.06546716 -0.024460904 -0.030376205 0.04959801 0.039810754 0.032978363 -0.027865756 -0.0024319326 0.010759959 -0.0025715553 0.024982307 -0.0039385115 -0.0010402813 -0.06593499 -0.017164422 0.06495516 0.019424388 0.0014930137 -0.052457523 0.021016983 0.028156571 0.010884801 0.009678756 0.053784363 -0.021944704 -0.029137824 0.0034412257 0.02288201 -0.04872788 -0.013640392 0.04318517 -0.010419602 -0.014606939 -0.0054271873 0.013713505 -0.020183826 -0.059118982 -0.0075114006 0.03981701 -0.014771956 -0.05560756 0.009636898 -0.036665592 -0.069185786 0.053312004 0.03389412 0.031342734 -0.017735375 0.0015143678 -0.020509137 0.025271658 -0.012081861 -0.058773223 0.021409094 -0.018643219 -0.012115639 -0.009407821 0.029984267 -0.009828433 -0.040495373 0.013302825 -0.04019968 -0.037239958 0.021963792 0.032796185 0.02049404 -0.06720654 -0.04348977 0.023186715 0.046599835 -0.045444887 0.016629865 -0.025026899 0.024518497 -0.04254451 0.013841288 0.029107513 0.02213059 -0.0120441485 0.053032763 -0.01692941 -0.01913517 -0.017249454 0.032822967 0.058598112 0.0380762 -0.006864993 0.014554048 -0.069864035 -0.009050979
341 -0.0065417453 -5.03739e-05 0.0006031447 -0.0062581664 0.000511974 0.0141718 -0.0012517248 -0.024882812 -0.021680107 0.017822757 -0.018190434 -0.0015688926 -0.002623315 -0.026178598 0.024321057 0.0021496392 0.014511999 0.00863514 -0.02486833 -0.015876068 -0.00039587397 0.0045856046 -0.0063131154 0.016923662 0.0006415396 0.015680473 -0.012109928 0.0013182289 -0.0066237776 0.025925145 0.007029468 -0.006233936 -0.012859751 0.000988157 -0.011405823 -0.0006719333 0.00076380605 -0.018261768 -0.00041084923 0.02854213 -0.007651867 -0.00010357615 -0.0002719307 -0.0009650311 0.009396164 -0.001124089 -0.0009215006 -0.015763516 -0.00080520293 -0.018332342 0.0068827653 -0.02862357 0.012937226 0.0308107 -0.0017912679 -0.000292875 -0.005593262 -0.026161479 0.020176843 0.01535056 0.011592596 -0.026693849 -0.0029356538 -8.764104e-05 -0.014660747 0.0010658975 -0.012762458 -0.026288781 0.020521944 -0.0011267543 -0.02449409 0.000391039 0.023637123 -0.011699091 0.00039676615 0.006125906 0.017580263 -0.027368454 -0.01366217 0.029888015 -0.002258141 -0.023978747 -0.0003014857 0.029715307 -0.00030388715 -0.0016022854 0.0027290883 0.00757298 0.018173909 1.04215e-06 7.2195e-06 0.003251646 -0.0008407879 -0.007315399 -0.000311699 -2.041275e-05 0.010050846 0.00411014 -0.007450782 -0.030305214 0.002636496 0.018420706 0.0008739738 0.029556708 -0.021995554 0.02259734 -0.00534539 -0.007753386 -0.0035105566 -0.002499864 0.00045964262 0.0009214971 -0.014548503 -0.008454506 0.019872641 -0.009823009 -0.0046023116 0.0010719093 -0.002150183 0.017616708 0.030548712 -0.0004421305 0.029489739 -0.0009083719 -0.0031978723 -0.006258665 -0.002866166 -0.009119048
342 0.0019219678 -0.0014484078 -0.015134297 0.00013090135 0.0022938927 0.022175895 0.0040935734 0.010115387 0.028758304 0.017949272 0.0116267875 0.00048420875 -0.0010498585 0.017139142 -0.00037408771 0.016767483 -0.0062785284 0.0016943235 0.021974318 0.0011909095 0.008283762 0.0045488873 -0.009593048 -0.007901983 -0.0011347528 -8.251803e-05 -0.020021435 -0.0009013579 0.00021377922 -0.023096388 0.029512564 -0.028440177 -0.023855388 -0.0027209024 -0.0026645255 0.022277148 0.023377912 0.0010245922 4.5867535e-05 -0.016816098 -0.0003342287 -0.02693612 -0.002103664 0.020408794 -0.0008597834 0.0008595773 -0.0005272692 0.019523144 -0.006576176 0.01727842 -0.007681081 -0.002670786 -0.016312614 -0.016797634 -0.030978747 -0.00077875005 -0.012836794 0.001693447 -0.00025445965 0.020207059 0.0011429 -0.019984348 0.0021846385 -0.016294654 -0.0026596328 0.00283754 -0.0027289414 -0.025044983 -0.00904461 0.019375933 -0.0025749528 -0.029002363 -0.0007464032 -0.01206317 0.006106562 0.015057942 -0.00042831403 0.011690458 -0.006663888 -0.026956385 -0.015986323 0.0010778114 0.00010679802 0.012436864 -7.637072e-05 -0.009182976 -0.012549416 -0.012651477 0.026830614 0.029102627 -0.02275112 -0.018548414 -0.00047158642 0.00059567526 0.0025748892 0.002645795 -0.024152653 0.0005799023 -0.0022828146 0.017057799 0.021883864 -0.00070441107 -0.00021141401 -0.0018846516 -0.02212789 0.024606965 0.0020672376 0.007283279 0.013316584 -0.024349464 -0.026122248 0.0023819543 0.0066176313 0.0060715177 -0.024531318 0.013386639 -0.0027007114 -0.00083160837 -0.0019071244 -0.013341084 -0.02186949 -0.019674689 -0.019679086 0.0008485662 0.016606085 -0.0034401945 -0.021501483 -0.0008665356
343 -0.011629558 -0.002355466 0.002719623 0.0069257715 -0.021340745 -0.025657015 -0.00034299446 0.0021163118 0.00058411167 -0.0028919782 -0.019715128 -0.0019237613 -0.0009180926 0.025267268 0.0012553213 0.027165223 -0.0016273931 0.0042687245 -0.014367164 0.025608318 0.0069158897 -0.027354086 0.020787615 0.00076443295 0.0003218169 -0.00040580425 -0.0009075004 0.014938538 -0.0015152001 -0.023301827 0.025137255 -0.0027269486 -0.018986272 -0.00064585824 -0.029766861 2.879533e-07 0.0029211435 0.0004672444 0.0020895223 0.00032333913 -0.0021675641 0.028819181 0.00085166947 0.002717882 -0.0025231582 0.015673833 -0.03098108 0.026514305 -0.0024356185 -0.0016040669 0.017877193 0.008611351 -0.0007256855 0.0021099444 0.019789051 0.00041175087 -0.02521511 -0.00045216695 0.0109667415 -0.0027110616 -0.024951782 0.016254874 -0.015118328 -0.002704842 -0.0014357216 0.012195196 -0.02970964 -0.0004001069 -0.0019875392 -0.00358903 0.015095352 0.0046490408 0.0018270584 -0.0052268156 0.01685219 0.015848307 -0.026570207 -0.031083899 -0.002418148 -0.010921541 0.00023101666 -0.011812093 -0.0011879249 -0.01683809 -0.0057108635 -0.00932987 0.004142555 0.021047065 0.013126539 0.0046886597 -0.0022580724 0.0009123108 0.012572881 0.0033569275 -0.0026020277 -0.010950131 0.017252428 -0.012993559 -0.009839171 -0.020640263 -0.028414957 0.02386036 0.00013150735 0.023593584 0.013706462 0.0017029385 0.0037939465 -0.00016738652 0.012996388 0.0026415305 0.0011923066 -0.008518097 -0.008886095 0.0006800931 0.011700251 -0.004239148 0.0018502132 -0.00059633364 0.023398673 -0.0008061901 -0.004825392 -0.028045928 -0.019440569 -0.0013629405 -0.017621234 0.008272461 0.0030539436 0.02904861
348 0.0040743914 -0.0011286428 0.019619305 -0.015483761 -0.00091756217 -0.0026264444 0.013321153 0.031099666 0.01065781 -0.00042463013 -0.026851097 -0.002269806 0.01949116 -0.018065823 0.000868664 0.023871522 -0.0008410356 -0.00020416391 0.01557538 -0.001258659 0.012604468 0.002608864 0.02159007 0.0079021305 0.009211428 0.0006851479 0.019674068 -0.019041335 0.028680257 -0.01134242 -0.0005072211 0.004304541 -0.0012497712 0.02855467 -0.025953174 -0.0004008023 0.0013683045 -0.0097472835 0.007003795 0.0024322516 0.00024189439 -0.019254414 0.0037490563 -0.0052361847 0.002349562 -0.0063072974 -0.0064586797 0.030445656 -0.001463487 -0.0026803426 0.017704727 -0.0026088133 0.017688142 0.0067702485 -0.0026071647 0.0026584028 -0.026075244 0.001778679 -0.0011714079 -0.01652582 -0.020951163 0.0010584613 -0.02806379 0.014475228 0.02494451 0.0025658319 0.0028551463 -0.016094768 -0.0009234755 -0.025043719 -0.016454706 0.024637943 -0.0113101 -1.0810618e-05 0.025734562 0.018789273 0.001963336 -0.0009117727 0.03112312 0.00020407929 -0.0024261954 0.0014769624 -0.00038292148 -0.013559094 -0.030660823 0.016971545 0.00023089719 -0.024625137 -0.0013492124 -0.0019461344 -0.0050767497 0.016406793 0.007855048 -0.002007397 -0.00012650552 0.013390345 -0.0001998874 0.0012900948 -0.004885255 -0.00612212 0.012795678 0.015224175 0.0067910207 0.0012144779 -0.025055325 0.011374358 0.017563596 -0.0054246676 0.0026364403 0.014249846 -1.926576e-05 -0.00074539025 0.013968619 -0.0037358697 -0.02274576 0.029941304 -0.0027878098 -0.016562914 -0.023987098 0.023812665 -0.021071667 0.020982523 0.018728485 -0.012458891 0.025170451 0.028562918 -0.0170356 0.022977173
349 0.0039665597 -0.00081031834 -0.0020721771 0.0026856693 0.022775268 0.022496622 8.688488e-05 0.0015212859 0.009686149 0.016723054 0.00085617206 0.00453379 -0.021806555 -0.0006469244 -0.008980401 -0.024847731 0.00072261074 0.0014930081 0.0096424455 -0.0009924502 0.0109651 0.0022314182 -0.009259602 0.00022824242 0.008859043 -0.0026832195 0.0022044424 -0.025674064 -0.0006823112 0.003578028 -0.018501773 -0.01583297 -0.020296058 0.01464653 -0.0065570977 -0.0076878406 0.015687857 -0.023633836 -0.024186203 -0.0025618193 -0.00033233612 0.0117652565 -0.0010602929 -0.0017443157 0.0027249274 -0.00059175014 -0.030806296 -0.030032769 0.0024810012 -0.0024110526 0.027296342 -0.0006489392 -0.00035007356 0.017481433 -0.00048263965 -0.0022294696 0.0008213809 0.011472041 -0.0024009037 -0.012026923 -0.014666909 0.030272242 -0.026053984 -0.001790685 -0.0018457356 0.024622329 1.5204307e-05 -0.0011432195 0.02703579 -0.0020125946 0.011704083 0.00041416648 0.0019180239 0.0014498526 0.00016387465 -0.019051494 0.007439388 0.0006735887 0.020979846 -0.022653429 -0.0008037365 0.02300326 0.0026749773 9.695068e-06 -0.0008560767 -0.00017469464 0.0044443496 -0.0031059505 0.008937076 0.02283655 -0.0005045583 -0.0010792284 -0.021812202 0.026038103 0.018354122 0.020043071 -0.0024737227 0.0042708046 0.020043226 0.0003400556 -0.00796239 0.027628718 -0.026008468 -0.020219142 0.006756231 -0.0008440937 -0.0032406521 0.012461848 -0.014603331 -0.03002692 -0.018968323 -0.018842196 -0.0008952512 0.00033037763 0.002874793 -0.028267091 -0.00086665084 -0.01927948 0.0016016861 0.009946934 0.02786405 0.000811943 0.02931453 -0.0020769872 0.0052920044 -0.008767894 -0.019448295 0.0071236924
298 0.0022602766 -0.015158508 0.00042077803 -0.023620235 -0.020776164 -0.024725104 -0.0007649715 -0.0038206046 -0.00088486954 -0.026769714 -0.022947978 0.0004997821 0.015148253 -0.008186715 -0.0026913043 0.010429177 0.0018274938 0.02472643 -0.008370113 -0.00025508186 0.012956271 -6.78847e-05 -0.020737838 -0.0015250552 -0.013578575 0.02611464 0.001065557 0.018518606 0.0116609605 0.002596831 0.020397643 0.005405699 -0.0021628963 0.010274735 0.019696206 0.030263014 0.00964177 0.003999749 0.007294759 -0.0015299784 -0.022426821 0.01805989 -0.0034144782 0.0012955462 -0.014895338 0.0019745259 -0.00036195578 -0.002558909 -0.0006741541 -0.0023777008 -0.009346747 0.02974894 -0.0018880843 -0.012990846 0.0009743906 0.025533425 0.0075546075 -0.00042991404 0.0019063009 0.021777403 -0.01883704 -0.0030307765 0.018133992 0.005225064 0.0014070692 -0.00042810044 0.005893792 -0.0001580512 0.0034178612 -0.0021888958 0.019998446 -0.0044596293 -0.0041694646 5.7133977e-05 -0.025879856 -0.0010431956 -0.025937684 0.0021290118 -0.024256177 -0.0013838677 0.030691156 -0.00244218 0.024614343 0.0034361277 0.024305217 -0.009579761 -0.02043107 -0.0050053326 -0.009733092 -0.0024151374 0.026324242 0.0045854603 0.0021696147 0.017802635 3.7653866e-05 0.028325919 0.0027083955 7.3394345e-05 -0.030698515 0.012401696 -0.0006729316 0.0008933698 -0.0019081217 -0.002687756 0.026911313 -0.01442502 0.0017318407 0.008300768 0.0061755567 0.0020872254 -0.00029305974 -0.0060363356 0.00025545887 0.021596508 0.019216089 -0.019597951 -0.0118962 7.579372e-05 -0.030056411 0.0052859075 0.00013412771 0.023801822 -0.020801427 -0.017644927 0.018303398 -0.0019444585 0.00088890106 -0.013712336
299 -0.0003053745 0.013919608 0.029452665 -0.001041666 -0.0025982272 0.002717099 0.01233714 -0.002109707 -0.014728786 0.0247092 -0.018829761 0.00023737054 -0.028053181 -0.00011079071 -0.00043538105 -0.0010181875 0.0032486364 -0.02935826 -0.0040350556 -0.010587528 -0.002849386 -0.00034759275 -0.026589595 0.0003976384 -0.0018133954 0.0062615545 0.0015252576 -0.0027276238 -0.005546545 0.0038947724 -0.028642263 -0.004902072 -5.5744385e-05 -0.014738675 0.026467051 -0.020105934 -0.028313424 -0.0009073479 0.010464587 0.020931104 0.0034175264 -0.013222054 -0.0011116385 -0.0165901 -0.020218208 0.0031140617 -0.022570208 0.017709855 0.030991893 -0.029641932 0.00089644943 -0.025744257 0.009694718 -0.029552966 0.030360816 -8.500667e-05 0.013748878 0.029468521 0.0009229381 -0.00032406615 -0.0017255456 -0.0047334954 -0.002661504 0.023759184 -0.0070562717 0.0025656323 -0.0018005179 0.0013697463 -0.000660869 0.012064413 -0.023428764 0.0020353803 -0.015864804 0.0016827096 -0.008685815 -0.00033291412 -0.005240986 -0.0011459144 0.010170214 0.013057925 -0.00084518455 0.021871062 0.025747217 0.0005720024 0.0019791527 -0.0077581042 0.024778387 0.03048733 0.00071088155 0.017814782 -0.009969751 0.004742511 0.008805625 0.0039802548 -0.002658335 0.01530568 -0.02450759 -0.024967786 -0.001725916 -0.0036811777 0.00042935688 -0.013965603 0.001342502 0.0017634805 -0.025957653 -0.029412258 0.00023027598 0.0001295809 0.0018610656 -0.03009891 0.00074269087 -0.02650584 -0.0011988305 -0.016804613 0.0029732094 -0.00713697 -0.0006978365 -0.020359116 -0.0058230576 -0.027782816 0.007449843 0.006419053 0.014778262 -0.0066263396 -0.000700799 0.00061742595 -0.00091179856 -0.0008504142
296 0.025296526 -0.06593807 0.01681922 -0.018166317 -0.01714252 -0.021649666 -0.025369503 -0.018567253 0.020426536 -0.02718189 -0.057704143 -0.0050750705 -0.05862987 0.004740917 -0.001115555 0.062153306 0.02999132 0.053736135 -0.02205998 0.004225861 -0.024980426 -0.049568392 0.04992501 0.06669191 -0.051603593 -0.0026060024 0.0021854518 -0.054102574 0.06429626 -0.06206982 -0.0012759832 -0.015401011 0.012197281 0.015102364 -0.026962772 -0.0146595575 0.037371702 -0.030690275 -0.020337826 0.061451238 0.024046823 -0.0638844 0.06536638 -0.061278284 -0.048939213 0.006798605 0.06324484 0.05201406 0.06979122 0.046650827 0.05396552 0.06575798 0.0063945604 -0.009525605 0.0022477685 0.053702362 0.001179364 -0.01586904 0.0005196921 -0.015908739 0.016599862 -0.05247497 -0.045876306 0.025093457 0.050869685 -0.016950138 -0.0033480884 -0.04503178 -0.028296785 0.033659384 0.064423874 -0.027736459 -0.045188617 -0.013526926 -0.022862185 -0.029542748 -0.029294435 0.0050370735 0.016208267 -0.046263028 0.045464978 -0.022150464 0.044267677 0.0042272746 -0.030734334 0.0027413368 -0.05278602 0.06327567 -0.05589223 0.062415104 0.03851688 -0.05793716 -0.039382316 0.005981992 0.06322832 -0.013464526 -0.063971 0.014726938 0.002830485 -0.066120334 0.031437952 -0.037604902 -0.032310802 -0.04301516 -0.06655894 0.0059435954 -0.022300692 0.06372547 0.016114568 -0.001099532 0.06984412 0.06149967 0.0085919155 -0.009137868 0.0074512013 -0.04464643 0.031067 -0.0012191061 0.0043790573 0.004969546 -0.044349145 0.04662659 -0.057913188 -0.04182122 -0.033234857 -0.054423906 -0.02745963 0.026278408
297 0.0026652333 -0.0022945954 -0.005777189 -0.01969277 -0.0017534007 0.00090230483 -0.0023672243 0.030853244 -0.0020349154 8.701673e-05 0.0019088152 0.0010077552 -0.000176834 -0.002373392 0.00041353444 -0.025726857 0.00056105916 0.012990731 0.02574681 -0.002003429 0.000650331 -0.009547148 0.021533363 0.010223864 0.00044504373 -0.00653788 0.015278965 0.0009747678 0.012878487 0.0014882158 0.02092306 -0.02293945 -0.0026471554 0.00020641375 -0.013944631 0.018327184 0.025522571 0.00265074 -0.00096268987 0.012980267 -0.0026208793 0.01985869 0.00027293462 0.016949113 0.00567571 -0.025455784 0.02429967 -0.0027268357 -0.0014240014 0.002155064 -0.0045492887 0.00217073 0.0018036659 -0.0043581733 0.0012312263 -0.00020904889 0.01155778 0.00086576265 -0.023213394 0.0024443371 0.016828982 0.0054100757 0.0015619919 -0.028079271 7.200318e-05 0.00013741112 1.3328099e-05 -0.019975543 -0.0027048304 -0.0011136131 0.0023469632 0.0021688584 0.016986744 0.020667506 0.0060838573 0.011516555 -0.008423164 0.012909053 0.0026470483 -0.0025579606 -4.4658533e-05 0.02823071 0.0026558847 -0.0006008217 -7.620623e-05 0.023491884 0.0010307563 0.0045996755 -0.002420723 0.0021081434 0.0014325244 -0.025745831 -0.005616229 -0.00043290562 0.001093724 0.025558755 -0.02628186 -0.029852564 0.016765758 0.019836722 -0.019689873 0.0077087046 -0.014364569 -0.0016632134 -0.021235099 3.0397277e-05 -0.0054179383 -0.02037891 -0.0025915317 -0.0032466368 0.0024877298 0.0015367623 -0.029481236 0.005736914 -0.00013759304 0.00022199441 -0.0007439657 -0.013221519 0.007957071 0.0030463717 0.025107032 0.023369398 0.0029030917 -0.028937763 -0.021595316 -0.020054791 0.024065427 0.027284512
294 -0.0014923594 -0.028201954 0.0055586924 -0.000923815 0.014560916 0.0015841916 -0.0012326711 0.026808431 -0.019039325 -0.030598776 0.024118613 -0.002619203 0.00023715704 0.011217909 -0.018458094 0.0016472621 0.0008744389 -0.00184883 0.017113015 0.02849782 -0.018617 -0.00042024394 0.0024789206 -0.0027244824 -0.019954475 -0.0009737221 -0.021006292 -0.0041381945 0.026330093 -0.0017743567 0.030324966 0.0027181024 -0.019134859 0.002666486 -0.0019993137 -0.0018720011 -0.022371741 -0.018588763 0.0090359505 0.028971495 -0.0020521823 -0.0046851193 0.014984996 -0.011297001 0.019482346 0.02507795 -0.0013541483 -0.018974457 -0.006781511 0.00023294317 0.0005526047 0.0076729422 0.0019575 -0.021604672 -0.015964063 0.009912603 -0.0020516494 0.0014961432 -0.01086243 -0.0010471467 -0.022504408 0.0051219314 -0.016655052 -0.016910205 0.00062622107 0.0012242077 0.015042729 0.0025197517 -1.2539211e-05 -0.029036948 1.8473656e-05 -0.013992018 -0.025800802 -0.00089925237 -0.000660802 0.0026905006 -0.0026828803 -0.001060918 -2.1871529e-06 0.001968122 -0.011433181 -0.002215854 0.027241832 0.0014205272 0.014415846 -0.029139603 0.0009965538 -0.026759733 0.015203787 -0.0023904166 0.014978069 0.0007101394 -0.01263538 -0.0011427555 -0.00047794194 -0.016250683 0.014075917 0.0017994635 0.00013064544 -0.02983745 -0.02125469 -0.0025995232 0.021086007 0.022632767 -0.025991565 -0.019234259 0.013522469 -0.003601214 -0.03073236 -0.0008563252 0.0027291733 -7.2024646e-05 0.00057504396 -0.015599015 0.00051223463 -0.0070341383 1.00569505e-05 0.023066944 -0.024515474 -0.014491852 -0.01777603 -0.0105018085 0.007607423 -0.009782937 -0.020438574 -0.0023010322 -0.016142966 0.0008166213
295 -0.024902068 -0.015043383 0.058626227 0.05841452 0.051448274 0.05115171 0.061596107 0.013455229 -0.053909183 0.04372489 -0.02793927 -0.013332893 -0.053627744 -0.05301791 -0.010284668 -0.020213664 0.027409807 0.019237686 0.011018437 0.010470261 -0.029059973 0.055722468 0.062214307 0.0021252201 0.0076579573 0.06988244 -0.06468291 0.0016645691 0.022604477 0.024265239 0.07091781 0.028662844 0.012719889 -0.008251734 -0.031413857 0.00483659 -0.06749494 -0.0196021 -0.03013964 0.021183655 -0.013955232 0.060187638 -0.05143298 0.018051505 0.043327894 0.010568288 -0.051435072 -0.015975054 0.040287647 0.016708322 -0.014228131 0.05082126 0.02811873 0.060965046 -0.06264076 -0.017153636 -0.0051601585 -0.023324745 0.014509739 0.008687193 0.064086005 0.021688288 0.0031423285 -0.022398772 0.048907258 -0.017331477 -0.0038914466 -0.0029416508 -0.052996017 0.070653886 0.025927374 0.014751016 0.022815749 -0.005386844 0.006156289 0.06771067 0.039949074 0.032672912 0.017082792 -0.033035513 0.012616413 0.03618715 -0.012341532 -0.05542297 0.06317069 0.012583031 0.017534796 0.02249825 -0.02147814 -0.00781349 0.00824817 0.04187768 -0.06754081 -0.05861874 -0.033265196 -0.04238834 -0.0025819798 0.022522705 0.05716681 0.0671249 -0.05880784 -0.0183714 0.013825382 -0.015997443 0.016764173 -0.017723221 -0.041951187 0.01788558 0.039282266 0.034974985 0.028380115 -0.061727624 -0.01351556 0.06328869 0.059933994 0.02368415 0.012449981 0.047900993 -0.05201317 0.025649523 -0.033212733 -0.014545191 -0.0017908321 0.0056341807 -0.0033764727 -0.051098965 -0.052006155 0.011910832
292 -0.039037433 0.044683278 0.022781732 0.044009928 -0.030476686 -0.029672967 0.02297886 0.028986601 0.05219768 -0.0013144943 -0.009010145 0.06299968 -0.06319185 0.03626448 0.02569433 0.013051991 0.058986776 -0.049252495 0.030579807 -0.03122915 0.02727243 0.05262372 0.013816665 -0.06492017 -0.016094362 0.031691954 0.03842919 0.02600527 -0.017600803 0.06720444 -0.0040131276 0.03959973 0.015719898 -0.02058419 0.003737006 -0.07040944 0.0066320975 -0.04948244 -0.04351871 -0.023661684 0.053167313 0.020912567 -0.04106965 -0.051036227 -0.017829336 0.063707575 0.03435539 0.035324067 -0.018388998 0.004133642 0.013387492 -0.024397021 0.058717202 -0.04920864 0.042446434 0.03827043 0.015382967 0.009371432 -0.037061375 -0.043684337 0.052873354 -0.0040067164 -0.0031075948 0.017784307 0.05876965 -0.037588846 -0.061826546 0.0012515346 -0.05642496 0.025740689 -0.06085158 0.039566025 -0.04347659 -0.015740907 -0.041645303 -0.019849427 0.06743886 0.03214286 0.029275868 -0.061275892 0.04486202 0.013803267 -0.045367926 -0.022885827 -0.06212504 0.049927074 0.026140548 0.031681776 -0.0036382193 -0.043267217 -0.06196734 0.05790121 0.011031204 -0.058838684 0.013205094 -0.05222298 0.027405914 0.006789738 -0.042803533 -0.061385173 0.056921072 0.06744211 0.06218988 -0.065256886 -0.019751653 0.012544494 0.005595234 0.030579437 -0.03789923 -0.05429203 0.031543136 -0.059749976 -0.002724542 -0.06912752 0.04917332 -0.03756821 -0.020472463 0.0148509005 0.010278608 0.022833632 -0.06520444 0.021099802 -0.018448435 -0.06768819 -0.06661206 -0.018794734 -0.04098442 0.054522883
293 0.009515172 -0.031043328 -0.025648685 0.0016736741 -0.008747594 0.004791398 -0.00014987422 -0.00022896097 0.018803798 0.0025942228 -0.0057003386 0.030904049 -0.0027150942 -0.011971733 -0.004891951 -0.018483069 -0.0011033245 0.0026566968 -0.01329496 -0.001599671 0.008622604 -0.0023994665 0.021585781 -0.022401981 0.015694035 -0.019637762 -0.029762799 0.017625142 -0.0021252655 -0.0023320566 0.003450131 -0.0001448121 -0.011002233 -0.0010412147 0.007930332 -0.002236029 0.029827695 -0.004826014 -0.0076953694 0.003537844 -0.030810358 -0.027793504 -0.0042241467 -0.01425305 0.0020238191 0.0023952082 0.025165234 -0.023977041 0.018308433 -0.004144863 -0.0027368802 0.00081465155 0.024602296 -0.0038533476 0.003255059 0.024516154 -0.002672901 -0.0246813 0.008312371 -0.02742582 0.0054312428 0.022365026 -9.165518e-05 7.638185e-05 -0.024362875 -0.0055000326 -0.022884717 0.0006215624 -0.00077922456 -0.008421678 0.023899812 -0.0051792813 0.011144494 0.0019257059 0.009644585 0.024012368 0.00020391098 0.025776086 -0.027303064 -0.002725591 0.0006599182 0.012081312 -1.8585299e-05 0.0043454994 0.0016454931 0.008962945 0.007465547 0.023004672 0.01383348 0.026521351 0.0013679521 0.020770462 -0.0021182362 0.0024063713 0.0066705206 -9.178005e-05 -0.029202774 0.0074003967 0.019796615 -0.013384398 0.010422772 -0.0048868926 0.012638886 -0.029661296 -0.024025206 -0.0014277892 -0.00040353165 0.020946397 0.0036697064 -0.0005202949 0.00023648268 0.0058026942 0.00681031 0.0043947804 0.0014095074 0.0018273366 0.004756257 -3.9555853e-05 0.0045121172 -0.0011546854 -0.0022963309 0.00027079746 0.00084236125 0.014512674 0.020256136 6.6570065e-05 -0.025955783 0.0027269889
290 -0.06741797 -0.03112708 0.0090931645 0.03163501 -0.016341066 -0.031001922 -0.023599595 -0.0025755623 0.022192901 -0.012563955 0.022500487 -0.05324384 0.049483858 0.020785637 0.04239766 0.028425107 0.05461769 -0.014428137 -0.0037636487 -0.005747748 0.028474545 -0.042664316 0.01540179 -0.057620168 -0.028317105 0.052669626 -0.027279647 0.0013104948 0.032111466 -0.04580772 -0.06694273 0.01228673 -0.022480894 -0.016725227 0.009218212 0.026169047 0.031699672 0.010364683 0.049237173 -0.043555934 -0.0015885406 -0.0064949235 -0.05678779 0.058981303 -0.0054456717 0.014536373 0.009440728 -0.04113655 0.06749814 0.0027284299 0.022108167 0.0045048096 0.0083035985 -0.03664916 0.047113862 -0.0190218 0.0071993936 -0.031144317 -0.005633367 0.0010535783 -0.026005004 0.018454384 -0.03693159 0.020407865 -0.044563077 0.023914874 0.008506591 -0.009537708 0.019341664 -0.05451162 -0.040538818 -0.028522486 0.031949066 -0.060615808 0.027994148 -0.019162865 0.017724674 0.032636445 0.0020685662 0.029196264 0.011078736 0.009234974 -0.05458896 -0.029300958 0.0116499225 0.037449405 0.041142073 -0.02663707 0.009436983 -0.0643958 0.025411889 -0.050020132 0.010529106 0.0580239 0.0074461666 0.009253387 0.027241152 -0.06869207 -0.054528333 0.06527923 0.050820038 -0.02168559 -0.05026915 -0.008173527 0.06402999 0.06108868 -0.010788264 -0.0037721368 0.01078718 -0.056990746 -0.01996651 -0.052302964 -0.031021355 -0.0030336604 0.007229353 0.05980442 0.043376617 -0.038588654 0.04045261 0.031203948 0.025783023 0.004436537 0.020141581 -0.030796949 0.027721038 -0.0014151117 -0.04443481 -0.038378548
291 -0.069932 -0.02824291 -0.022304118 0.0073294737 -0.032330748 0.06980094 0.010675097 0.06378326 -0.04509084 -0.05595449 -0.01984328 0.0051713223 -0.02406618 0.008379001 -0.031092813 -0.03503416 -0.020889496 0.039634842 -0.07069332 0.024975037 0.06571424 0.0027342355 0.037142463 -0.025541898 -0.062388577 0.0381337 0.0446666 -0.0010464791 0.008780009 0.00036082722 -0.030852424 0.049646337 -0.053865813 -0.035514742 -0.051886093 -0.02347342 0.021684568 -0.04473001 0.029285174 0.009980322 -0.07104369 0.06912564 0.070896216 0.05415698 0.022644121 0.0088777905 -0.031622272 0.040405147 0.0368933 0.056941 -0.016591838 0.046307713 0.0070460015 -0.06593706 -0.019846017 -0.03118947 0.046910644 -0.04442193 0.020030504 0.0048188483 0.015951458 0.020883948 -0.041541733 0.05006042 0.034320157 0.01022947 0.037398957 -0.03746287 0.05628234 0.044458177 0.049294397 0.049866933 0.042143416 -0.04648546 -0.015327137 0.06362747 -0.06265242 0.05904881 -0.0076751374 -0.00020741689 0.039901223 -0.016183762 0.043081746 -0.010714058 -0.05620151 0.060856402 0.035258062 -0.054751284 -0.011181795 -0.06579361 -0.020003924 -0.013786307 0.04384807 -0.027010513 0.024962187 0.022449115 0.00448241 0.0030158856 0.008880448 0.033404067 -0.031551152 -0.003515915 -0.022857431 0.06679738 -0.032716386 -0.02530376 -0.022014333 0.036332507 -0.012053558 0.017918685 -0.0033803205 0.049777154 0.02415002 0.0028656395 -0.06677159 0.04808935 -0.022402775 0.02296674 -0.032635663 0.008952644 -0.017698072 0.044644516 -0.025551675 -0.037294015 -0.061574962 0.038898773 0.05143214 -0.06485083
270 -0.00272382 -0.0012572065 0.0023068802 0.015360206 0.019690717 -0.026160479 0.0023163855 -0.009537988 0.0014397571 0.018506369 0.010212191 -0.004462499 -0.010727178 0.0046675904 -0.021045573 -0.0005844384 -0.02055158 -0.009549472 -0.002686537 -0.01738291 -0.025589878 -0.028594824 -0.025699893 0.007905506 0.014252644 0.019720936 -0.0022597606 -0.0055186884 0.0002207926 0.0014072491 0.0006513773 0.0071490495 -0.0056839488 -0.0007221586 -0.017706359 0.0012889153 -0.0024715438 -0.0014433934 -0.03050155 -0.0002696556 0.01945592 -0.002725358 0.009600232 -0.0020313647 0.019469116 -0.010207558 -0.0047865743 0.0123678725 -0.00014093376 -0.0020740235 0.018338935 0.015031708 -0.0027270778 0.0009095362 -0.016723644 -0.0009242168 0.00028778182 -0.0111037595 0.009918691 -0.0077419835 -0.015257742 -0.017595792 -0.016183298 0.00041424442 0.013592076 -0.0011670771 0.0015064105 -0.0013548033 -0.0042147273 -0.016322797 0.0146847945 0.0035690041 -0.022404958 -0.02403118 -0.0020749462 -0.0007657392 -0.0014415197 -0.03108854 -0.012577458 0.016880995 0.00034547038 0.00271083 -0.0007789767 0.0026130446 0.0087466035 -0.022113483 -0.01871125 -0.0027065473 0.023227446 -0.013890921 -0.0009062822 -0.0017422278 0.0021957795 -0.016211307 0.00035241112 0.009605563 0.017751098 -0.0016399622 0.015469353 -7.119778e-05 0.0001074459 -0.0008814666 -0.010408463 0.017661426 -0.0012060245 0.0008943118 0.005122313 -0.0033493983 7.720178e-05 -0.00030353098 -0.0009399224 -0.0003111221 0.0009142555 0.00074208097 0.0004629271 0.010576223 0.022107683 -0.02843873 -0.019686388 -0.0029909064 -0.012252056 0.00078452873 0.0025869515 0.00011467915 0.017294614 -0.022794023 0.0025718554 -0.0026469722
271 0.017055579 -0.050411187 0.027397513 -0.048202515 0.046583515 0.021711795 -0.055014666 0.047997337 -0.02581664 0.0051128855 -0.02620564 -0.038940724 -0.03870522 0.011813604 0.016960708 -0.030699749 -0.017324807 0.009042136 0.04205593 -0.027354797 0.022947425 0.012942316 0.025068423 -0.018340852 -0.00022540917 0.028232718 -0.045779116 0.0075759124 0.008934731 -0.002187787 0.015867708 0.007653664 -0.0042103794 -0.005080539 -0.055323966 -0.03220465 -0.07026378 -0.014595928 0.053225923 0.06941282 0.025337849 0.029056914 -0.050618473 -0.033410266 -0.005310103 -0.04349541 0.013313739 0.012085719 0.023434434 0.022770384 0.041185398 0.01645282 -0.012053814 -0.054385964 -0.050484344 -0.023957817 0.07026323 -0.0011332843 -0.018177532 0.024431359 -0.04164913 0.0054618614 0.0281883 0.029223913 -0.0689884 0.015567339 -0.040367406 -0.027553387 -0.06057763 -0.057849873 -0.06915663 0.006442942 -0.016071742 -0.066296086 -0.016604887 -0.024669502 -0.027316883 -0.0150655825 0.062471144 -0.050313327 0.046712205 -0.045704797 -0.060665824 0.036308143 0.015393449 0.0007147341 0.021402763 -0.018660966 0.058022495 -0.042549066 -0.010833919 -0.05946742 -0.029427484 0.029057292 -0.05650859 0.036293697 0.005515689 -0.004534011 -0.05309929 -0.018336173 -0.021218056 0.02921395 0.026154263 0.027146157 0.053712554 0.035695083 0.031526744 0.0067000203 -0.05042951 -0.04966168 -0.046303973 -0.036045816 -0.02488821 -0.016627405 -0.032029394 0.0028084274 0.033203065 -0.0024998717 0.020569224 0.016190631 0.068125084 -0.014322262 -0.0123404935 0.029231014 0.0359498 0.029555403 0.054527003 -0.0022923134
272 0.050115965 0.017302433 0.017208353 0.019317865 0.045400515 0.025194854 0.022101466 0.014758447 0.011948964 -0.0056233453 -0.03508221 0.00014970475 -0.062490407 -0.024129152 0.06481164 0.0518018 -0.05601031 -0.066716515 0.0071608284 0.06203913 -0.010374645 0.027675157 -0.06731976 0.06397194 0.043692585 -0.021986011 0.02304617 0.04550611 0.047988653 -0.015163533 -0.05358957 0.056101326 -0.046255928 0.024276223 0.005672152 -0.03769398 0.06418777 0.026520543 0.028786067 0.019717231 -0.0215757 0.063642934 0.033307426 -0.0074274368 -0.03863352 0.024535969 0.06344964 0.05038336 0.032193255 -0.059376072 0.014313736 -0.04495109 0.00929328 0.0054564117 0.007285843 -0.009742994 -0.004462473 -0.029231057 0.027385121 0.0061750836 0.039869085 0.04572594 -0.030585045 0.028515901 0.032766912 0.024420705 0.05684969 0.06605515 0.005631068 -0.020907925 -0.044977587 0.059173103 -0.05006415 0.0055141784 -0.038951706 -0.028124636 0.068566725 -0.06877892 0.01925053 0.018897487 0.04248341 0.020383067 0.02795601 0.0261882 -0.03662701 -0.031748652 0.024953116 0.063210346 0.054822873 0.022004273 0.024050048 -0.022300111 0.06375101 -0.011082487 -0.037872028 0.061541267 -0.019227363 0.037614796 0.06783975 -0.0076388125 -0.00057520304 -0.049370117 -0.04028938 -0.027298665 0.024709355 -0.04917224 -0.06822365 0.033857822 -0.056595 -0.02906012 -0.023063637 -0.047496643 -0.028096577 -0.021744428 0.011910865 0.068189785 0.031685505 0.039978206 0.009160957 0.034664523 0.007562717 0.012346483 0.037484508 -0.029420797 0.03503721 -0.016674722 0.06952294 0.018896574
273 0.025290921 0.018507449 0.06998776 -0.0075573088 -0.0127107315 0.037111323 -0.03603821 0.052711796 -0.021633856 0.063401185 0.06421924 0.049793795 0.023389585 0.010927068 -0.040870976 0.04768642 0.022656431 -0.03720255 0.067677036 0.025064565 -0.035630073 -0.02586389 -0.04639359 -0.0628514 -0.062357463 0.05850617 0.05170138 0.02603109 -0.05168273 -0.02844963 0.055080935 -0.04139309 -0.05921292 0.024767336 0.05575959 0.052226104 0.018569157 -0.045467198 0.055689275 -0.009707401 0.0035757734 -0.0009163743 0.029599791 0.007356353 -0.040254015 0.0023064623 0.017936964 0.027473513 0.020650461 0.061305713 -0.025622476 -0.021065783 -0.028778149 -0.0006404199 -0.0094844615 0.07161354 0.03051334 -0.021556709 0.0013209427 0.00096666825 -0.038147073 0.026018031 0.041181933 -0.06975532 -0.01833296 0.029054686 0.049496766 -0.04402899 -0.0033407593 -0.04993168 0.012211452 0.01731867 0.018522589 0.065218404 0.0010023688 0.06532416 0.012230816 0.042592794 0.022710862 0.0028487216 0.04911645 0.06480474 -0.013737429 0.021225858 -0.02151477 -0.06346239 0.039667662 0.009485927 0.06266174 -0.05358137 0.028421337 -0.027468916 -0.014120657 -0.03698287 -0.012907519 0.044671264 -0.07074004 0.025482157 0.05266145 0.067377046 0.009501738 -0.013674053 0.06758426 0.0679636 0.061068807 -0.032373585 0.014034819 0.041611098 0.05500019 -0.0146793015 0.019441502 -0.060108546 0.021237615 0.020304525 -0.033725105 0.06779716 -0.04227173 -0.031724844 -0.02565747 -0.012672403 -0.016101515 -0.005941078 0.020309431 0.021503648 -0.03012762 0.0018512344 0.046408694 -0.002129627
274 -0.027513448 -0.019698787 -0.0007470347 -4.5253655e-05 0.0024007533 0.0026964338 0.0019383316 0.00082789775 0.00039195392 0.019028282 -0.0017238964 0.012877727 0.0041575483 -0.00058783696 -0.00034792972 0.00031848584 -0.006223284 0.0027292403 0.020679124 0.020470483 0.0013812152 -0.023587683 -0.0017419579 0.025156178 0.028031506 0.00034097309 -0.004259017 -0.0027235898 -0.0099959215 -0.002338854 -0.030801883 0.027393179 0.0037416266 0.008482449 0.0010345989 0.0026745684 -0.003767041 0.027561849 -0.011418565 -0.008308606 -0.017000634 0.018385557 0.015001108 -0.02248514 -0.026961837 -0.0051294975 -0.0004635619 -0.013729232 -0.023285164 0.010564744 -0.00850081 -0.030386338 0.029297523 -0.002724761 -0.027232423 0.002300217 -0.022513041 -0.021126019 0.026034143 0.0013338036 0.0018318485 -0.025226945 -0.01492672 -0.025683016 0.008033301 0.030904267 0.014318287 -0.025981134 -0.002140332 -0.00016639371 -0.03046682 -0.029188974 -0.002143982 -0.0019898925 -0.0012016409 -0.00060503144 0.0006863971 0.0027289153 0.0013269822 -0.011084255 -0.021417238 -0.0014314812 0.00094594544 -0.0002933514 0.00023121071 0.021136608 -0.007038735 -0.0026268868 0.00021191506 0.0029378822 -0.027021257 -0.023290953 -0.00042621163 0.0024943377 0.00060949405 0.0075458866 0.010365611 0.00093266583 0.007101959 -0.0005361027 -0.02229813 -0.0022668925 -0.002642688 -0.010301187 -0.018598182 -0.0006281331 0.002600037 0.01420909 0.0073733595 0.0060026143 0.0096766725 0.013892922 -0.0027277244 -0.00089596293 -0.0025612623 -0.025700262 0.004393107 0.027177494 0.026633175 0.0013439639 0.019454489 -0.026046634 0.0121369865 0.0057955044 0.0027079785 -0.0014699557 -0.012736883 -0.017956182
275 -0.027826065 0.02919912 -0.002225131 -0.0011875182 -0.0010440561 -0.025550503 -0.0066422075 0.0009746192 4.5386172e-05 0.0011629211 0.012255227 0.0054117604 0.016318716 9.44229e-05 -0.00086831127 -0.0009223037 0.022256501 -0.012874884 0.0019996786 0.009985705 0.0016745944 -0.029717892 0.002312992 0.0004168011 -0.0013095732 -0.022753919 0.0048105703 0.00035027135 -0.02985237 -0.030838743 0.024578543 0.03059893 -0.006077571 -0.0027049945 0.0016553262 -0.002725825 -0.01858762 -0.01822411 0.018404773 -0.019069321 -0.0010072655 -0.0056080623 0.029629081 -0.0013153333 0.0011823385 0.0016672857 -0.0065272856 -0.018699089 0.027769327 -0.013987564 0.029910738 -0.00011422117 -0.02529987 -0.0027245886 -0.013003099 0.01322163 0.011574826 0.007569298 -0.0022532719 -0.026934758 0.0032173262 0.024721678 -0.011685987 0.00199963 0.0050828964 -0.025699195 0.014143545 -0.012324044 -0.0027183318 0.0004165921 -0.011473106 -0.00041883544 -0.011318274 -0.00060649734 -0.031139975 0.013750415 0.0023649174 0.00074949046 -0.0031506408 0.0012558949 -0.028600495 -0.005343196 0.001515301 -0.009294929 -0.006345673 -0.025542872 0.008611494 0.023280885 0.0020990043 0.030735055 -0.014719822 0.014391203 0.008527069 0.00027077628 -0.017051984 -0.00022641846 -0.020841386 0.002702021 -0.029317943 0.019988267 0.004828484 -0.002299216 0.025436968 -0.02856265 0.020495618 -0.010197161 7.2649644e-05 0.024081025 0.002682359 -0.022591004 0.004917205 -0.019906284 -0.026739372 -0.010855216 0.02518005 0.00020249219 0.025839759 -0.00091445376 0.0004073653 -0.026924117 -0.016456068 7.8399156e-05 0.026395975 0.0015331262 0.0035844692 -0.0024932597 -0.018501097 -0.0043262136
276 -0.014666079 0.009820841 0.06978184 -0.013573169 -0.0006345761 0.06769717 0.010061839 -0.055208687 0.0017303817 -0.051837828 0.010452701 -0.023976794 -0.06976944 -0.02146113 0.0063487147 -0.0038154288 0.021836968 0.036861468 0.069626 0.024305446 0.03419811 0.015569674 -0.009654571 -0.066195495 0.03002651 -0.059190124 0.05277496 -0.06689018 0.039930467 0.007167576 0.0077657243 0.013484251 -0.055070773 -0.0024883482 -0.00432405 -0.0013319945 0.027057288 0.0139606865 0.06018047 0.033919543 0.06905446 0.02620785 -0.03184786 0.039365936 0.026470564 0.039704014 0.016677279 -0.044453047 0.037463814 -0.044158444 0.024195634 -0.06663026 0.0036243312 0.057015184 0.04388391 -0.017786564 0.04511094 -0.010547795 0.007728905 -0.03362552 -0.041137934 -0.06960881 0.025087804 -0.023649307 0.012732639 -0.02381646 0.045355972 -0.020872187 0.06816324 -0.022475827 0.029331964 -0.06750192 -0.0042814044 0.01216018 -0.036675893 -0.028456371 -0.0690285 -0.0126106925 -0.020177579 -0.016352057 -0.04937863 -0.0041385256 -0.01626857 -0.029007563 0.023425175 -0.058404647 -0.040798843 -0.02637209 -0.000343606 -0.016225547 0.026893687 -0.042184602 0.025248494 0.009753798 -0.05261249 -0.010774929 -0.01432725 0.041452486 -0.01898687 -0.04730884 0.06285037 -0.013300794 -0.069526255 0.055503983 0.027940594 -0.010449703 0.007555656 0.04718038 -0.03248497 0.034546178 -0.007226957 -0.015658718 -0.031530038 0.04011552 0.059954487 -0.034730166 0.040970415 0.05393142 0.023564221 0.019269135 -0.035996545 -0.036308758 -0.005187096 -0.03679589 0.041862957 -0.029777892 0.015555469 -0.0032893706
277 0.00091402227 -0.019958641 -0.01185564 -0.02578084 -0.017489085 0.0075412816 -0.0068253665 -0.00043049228 -0.024764808 -0.02015793 0.0020349324 -2.056497e-05 -0.009547065 -9.305947e-05 -0.00034295637 -0.009159032 0.0076558297 -0.007694878 0.0026658832 -0.014850788 0.001872015 -0.0025727681 -0.02370692 0.0017808564 0.02628602 -0.01449373 0.00025572098 -0.010519555 0.031142622 0.016338753 -0.030801695 -0.0007016554 0.0079528 -0.012078502 0.018745307 0.010187769 0.02997264 0.0008649572 -0.02888168 0.02473124 0.021762056 0.025740525 0.021258991 -0.00020815158 -0.0003657589 -0.004639908 0.002469277 -0.024458542 6.736879e-05 -0.0020636038 -0.0013194601 0.00034726958 0.001372007 -0.0027127517 0.012253916 0.026175952 0.00022212372 -0.024368942 -0.029095814 0.010558096 0.00092953746 0.030290108 -0.031126402 -0.0026236526 0.0013099088 -0.00089175114 -0.0023109296 -0.0017626665 0.0023113126 0.011505839 0.0024542802 -0.002336102 0.0016846125 0.026932659 -0.023637677 -0.005603835 -0.020257177 -0.0059736376 -0.002721968 0.01305888 0.000731819 0.012521058 -0.0073184995 0.0006798663 0.02446516 0.00043452924 -0.004517538 -9.074494e-05 0.02187392 0.001994924 0.0054016057 0.00032054156 -0.02433368 0.0010734719 0.011767117 -0.0011731671 -0.030613795 -0.005740376 -0.0002954483 0.004328687 -0.00020906224 -0.028970752 -0.00047197688 0.0025937075 -0.0023676096 -0.01045396 0.0071879667 0.0026588738 -0.0015873443 -0.00045950265 0.0012858298 -0.0022352848 -0.024747873 -0.0010502185 0.00045712123 -0.0006110375 0.030036751 0.0052510924 0.016493158 -0.0024689257 -0.010096151 -0.0006716438 -0.019750271 -0.0058741616 -0.0026818258 -0.007834019 -0.002525583 0.023217479
278 0.02444457 -0.019130804 -0.027926013 0.015190096 0.0006892485 0.034167245 0.012526856 0.0039486773 -0.042713348 -0.016246224 0.020002123 0.05017115 0.026800398 -0.0212792 -0.0010994343 0.022259258 0.05818565 -0.005754053 0.037111126 0.06649123 0.07012831 0.04515192 -0.031159267 -0.048093412 -0.05319402 0.004673767 -0.0143726 -0.06006819 0.011632707 -0.016079301 -0.061188288 -0.006734355 -0.01417192 0.002389768 -0.006915888 0.02714445 -0.025655638 -0.032945804 -0.009778185 0.0077944715 -0.023633698 0.04586529 -0.029238196 0.021099528 0.028859928 -0.04636394 0.06914388 0.0041261907 -0.0128800245 -0.028609402 -0.029360594 0.015959946 -0.010109872 -0.002377495 -0.02217668 0.0028863705 -0.042183004 0.064590044 0.039758652 -0.026318863 -0.034951508 0.019372858 -0.029884705 0.008213749 -0.025371583 0.061026722 0.03080218 -0.06100462 0.06735678 0.0070235464 0.011121392 -0.012575448 -0.063406 0.012865104 -0.008202154 -0.03514912 0.031127514 -0.0442357 0.058480963 0.031476796 -0.025159683 0.017823273 -0.032374207 -0.01699082 -0.06371681 0.010627993 -0.03228623 -0.009625871 -0.013906058 0.068032004 0.050184958 -0.062251225 -0.003793837 -0.06383061 -0.0052916766 0.06774059 -0.017500011 0.05839204 -0.020710545 0.051143695 0.030516969 0.034035273 0.049684674 0.025166633 0.03632343 -0.026513774 -3.2757875e-05 -0.055607162 0.05252437 0.0038242498 0.029034043 -0.040478036 0.0062662684 -0.05910952 0.039108735 -0.040950708 0.043584693 -0.04687994 0.05991338 -0.021408675 0.031023314 0.0019674087 0.016932942 0.013712848 0.039438628 0.034196883 -0.005398169 0.014076418
279 -0.052766226 -0.036162004 -0.0633023 -0.0015190572 0.032077257 0.03552685 -0.05670896 -0.0690646 -0.06566022 0.042223286 0.006977379 0.017785357 -0.04914495 -0.005722859 0.061192263 -0.069467396 0.014542735 -0.0019995065 -0.040278606 -0.011888877 -0.025231538 -0.007134777 0.06620459 -0.04904479 -0.0028299917 0.013347203 0.052483767 -0.01425828 -0.052907746 0.05505159 -0.0006114502 0.028233964 -0.012769491 -0.009611943 0.018923473 -0.038935773 0.06826791 0.034987275 0.049633987 -0.01586562 -0.05009409 -0.028613094 -0.059445173 0.012928258 0.002230533 -0.017408064 -0.032357387 0.0018136052 -0.004010959 0.0033491217 -0.044727888 0.06641654 0.06248065 -0.004827306 0.015196362 -0.011224376 0.007224066 -0.024556516 -0.065032415 -0.00022842083 0.005446716 0.023720784 -0.012864185 0.03521439 0.023015006 -0.050456632 -0.02475871 0.044994045 0.031597268 0.0026794965 0.029397769 -0.024457674 -0.00035048707 0.0044107144 -0.055784136 0.03993564 0.01810863 -0.009714976 -0.01751431 0.04615389 -0.017103713 0.003326491 -0.04945297 0.029187907 0.03483817 0.009718232 0.031521723 -0.04924542 0.012742447 0.015231145 -0.046772372 0.024441918 0.05391075 0.03900572 0.043860987 -0.002111366 0.03943221 -0.056609586 0.012341054 0.0092593245 -0.008983784 0.008697052 0.011774769 0.009983454 0.021903794 -0.019537931 0.02139805 -0.039480194 -0.05707782 -0.06434084 0.019631874 -0.07028173 -0.052485142 -0.017332086 -0.05320251 -0.006614404 0.009640667 0.07111224 0.0055269445 0.014006488 0.023971079 -0.031619456 0.0074307728 0.0020000269 0.04977598 0.016840884 -0.0016238573 -0.0016262109
642 -0.047208834 0.01623018 0.0046306513 -0.06628317 -0.06939871 0.05142389 0.0012947873 0.015840918 -0.006586889 0.070930645 0.042959254 -0.027690805 -0.022210702 0.057630002 0.062422875 0.031681392 -0.054533917 0.02966847 -0.020632012 -0.0562839 0.02264535 0.024874276 -0.047244497 -0.019325677 0.057753224 0.0023079717 0.052517306 -0.063327245 0.024254998 -0.030201012 0.049627043 0.060660392 0.010817846 -0.01172477 -0.013923039 0.01468994 -0.018535318 -0.015657635 -0.030873058 0.05462043 -0.0028805784 0.016856404 -0.012032378 0.017662168 0.020554163 0.06029669 0.00035327603 0.0307469 -0.02464229 -0.06256753 -0.03238687 0.029149162 -0.031701196 0.031585988 0.05044894 0.044598363 0.025366401 -0.019223815 -0.071402214 -0.0066377674 -0.06324014 0.028441912 -0.041705303 0.03038212 0.031222558 -0.026602613 0.014176229 -0.06416775 -0.041260883 -0.026491266 -0.02559741 -0.03694913 0.03577283 0.027860506 0.02238811 -0.023746243 0.0160896 -0.061327636 0.03966837 0.015235011 -0.005487118 0.055023044 -0.0070376955 -0.0042855376 0.027992316 -0.0012072688 0.05358113 -0.040251326 -0.007249117 -0.023887178 -0.055243537 0.066282034 0.04019969 0.021142418 0.06303321 -0.015418256 0.029505841 0.017177943 0.0070361253 -0.038548857 -0.011740377 0.063251264 0.01705983 -0.0136607615 -0.05982766 0.00084597664 -0.04822251 -0.012498951 0.039210673 0.0016191008 -0.0451208 0.06709774 -0.036827635 -0.04986314 -0.029508585 0.0656381 -0.046088267 -0.020653654 0.016192274 -0.035767548 0.068295985 0.0058532646 -0.012685731 -0.056369785 0.03770284 -0.01802306 0.058145046 0.051749803
1781 -0.025774729 -0.02227737 -0.045147654 0.027418777 -0.026316091 -0.010417704 -0.02307432 -0.06562941 -0.02671477 0.0018060087 -0.032582983 0.017949676 0.031357065 0.024134807 -0.006446436 0.0009770729 -0.0020637903 -0.04148323 0.03666405 0.0011070862 -0.052448325 0.019847736 -0.025584614 0.029103467 -0.04350113 -0.02048698 0.0054754615 0.030475274 -0.020544516 -0.034399994 0.025641339 0.03354695 0.033261523 0.0129661225 -0.019346567 -0.0044551715 0.026226344 -0.022767583 0.041425884 0.038766466 -0.025814332 -0.031701777 -0.029915275 -0.017559277 -0.0105104055 0.028181199 -0.07087546 -0.0070247576 -0.025005754 0.04603732 0.01222339 -0.017768186 -0.0015911177 -0.036077667 0.0033983132 0.0012561639 -0.0689768 0.026949834 0.0051908973 0.02702074 -0.01390697 -0.048686277 0.026738023 0.02090292 -0.011282486 -0.06138029 0.008095834 -0.06565673 -0.060779195 -0.022246871 0.029201914 0.068636976 -0.034624428 0.004338529 0.06596471 0.012208053 0.055592548 -0.017671984 0.018686283 -0.008470174 -0.03291503 -0.03643924 -0.01282463 0.0022160592 -0.0005151481 0.055069707 0.014081881 0.022617202 -0.0072609563 0.019885875 0.04524543 0.04942797 0.009675785 0.056982826 -0.051592186 -0.009480985 0.038366728 -0.023736482 -0.028251419 -0.015799744 -0.06883589 0.027066993 0.0011029248 0.008759849 -0.03702915 -0.032060068 0.029217867 -0.00062138203 0.065476336 0.0032622642 0.022065569 0.02909711 -0.056472655 0.0526907 0.0019489801 0.016444292 -0.0014785007 0.002449167 -0.018859172 0.026862958 -0.012546873 -0.040727284 -0.030533735 0.03146826 0.013577174 0.02948786 -0.029503562 -0.010888556
1004 0.00037516112 -0.0020697403 0.0139847845 0.02437446 0.0022534747 -0.02852913 -0.00041324217 -0.0025524562 0.00042446578 0.00035591726 0.019755054 -0.030804683 -0.019347912 -0.022109285 0.0131240655 -0.010158176 0.030308064 0.011872594 -0.031024313 -0.0123162 -0.0036411197 0.017410982 0.007005043 0.018284887 0.00062679587 -0.015630472 0.0003897557 -0.029792858 -0.024541272 0.029191142 0.012799826 0.00021322383 -0.0026694199 0.0077231126 -0.029503265 0.009347116 0.0006998959 -0.012295125 0.0032506788 -8.963971e-05 0.0011585621 -0.0025461705 0.015911069 -0.020089217 4.394725e-05 0.002658928 0.01782478 0.012040872 0.00019348405 -0.0077999616 -0.005371552 -0.0030723824 -0.012348541 0.009151118 -0.022840403 -0.0026238486 0.0046826107 0.00091927266 5.4991746e-05 0.03048503 -0.025388725 0.013173934 0.026357079 -0.00018093642 0.0017585445 -0.0024643012 0.0018291937 0.03043221 -0.02502724 0.00082566007 0.0006718521 0.0073673576 -0.010398441 0.0028032092 0.016680768 0.0004409251 -0.009754924 -0.0005028367 -0.028104404 0.0026811697 -0.0013169551 0.0023974979 0.027603354 0.023870654 -0.00086330797 -0.021815252 0.00024351804 0.0025849482 0.019848851 0.025896518 -0.0034555306 0.027620824 0.002018891 -0.030267866 -0.000923815 -0.020549968 0.015947256 0.00017057903 -0.007227407 0.018975306 0.004125455 -0.0013943058 -0.019353187 0.00022561365 9.301043e-05 -0.030510593 0.027843025 -0.017740456 0.006527716 0.027295647 -0.011225197 -2.7770526e-05 -0.0023484027 -0.021242585 -0.024580453 0.0020155595 -0.002678812 0.013391294 -0.0053764516 0.021696677 0.027795244 0.028987782 -0.011257326 -0.0006466111 0.01969569 0.02366598 -0.021165408 0.00021914812
2189 0.016453313 0.0098347515 -0.028547477 0.03146553 -0.041668065 0.016401315 0.030939793 -0.04205087 0.05140277 -0.047791213 0.058084637 -0.04943481 0.049012184 0.067429155 0.051359374 0.014475396 -0.003990516 0.06899765 -0.017653497 -0.029147549 -0.030382492 -0.03555877 -0.040637746 -0.05013764 -0.053937647 0.039508834 -0.04833382 -0.07043258 0.018533614 -0.0017504347 -0.0016035052 0.023542207 -0.04137852 -0.00845937 0.015327727 0.018396083 -0.041057616 -0.0018028464 -0.008352636 -0.051117156 0.019196026 -0.00865518 -0.017566368 -0.009970015 0.029810408 0.0026498488 -0.029421788 -0.037204392 -0.026946533 0.037282128 0.018888813 0.05034646 -0.025360389 -0.018950164 -0.033763304 -0.038718108 -0.0027298457 0.037460223 -0.0042184237 -0.06487686 0.06481987 0.03611843 0.051217172 -0.0059534875 0.009954789 0.025538156 0.027799588 0.0127936695 -0.041776355 0.028166506 0.0098590655 0.048635785 0.021340374 -0.03406848 0.04416056 0.01827108 -0.025598569 0.015398286 0.056225866 -0.0025718966 0.028997326 0.012358081 0.008039954 0.006090778 -0.008489342 0.048658606 0.029101446 -0.040690273 0.0052076397 -0.005024164 0.009990572 0.06875179 0.043143854 -0.06176807 -0.004103082 -0.030480597 0.019308023 0.016617453 -0.068487644 -0.029777905 0.03752157 0.015010071 0.018321753 0.047268987 0.06807844 0.009865537 -0.027349615 -0.0016194199 0.04686889 -0.027142689 -0.0013585966 0.00095590425 0.011733008 0.0027518852 -0.06962126 -0.048039433 -0.036997177 0.06337006 -0.039250944 0.040371127 0.022252543 0.00711877 -0.001590562 0.055859767 -0.024758859 -0.0066206474 -0.021075504 -0.050306708
108 0.059532225 0.0644635 0.04323873 0.015326348 -0.06536371 -2.2386725e-05 -0.023265246 0.0164473 0.029480755 -0.022522116 -0.035850633 -0.044425104 -0.064892605 -0.037717108 0.026568446 0.029434796 0.03238184 -0.047534984 0.024392877 -0.043664195 -0.026537377 0.027520098 0.021579003 -0.027840156 -0.024974257 -0.04342583 -0.016849115 0.038960196 -0.030191813 -0.020078149 -0.021100387 0.0544497 0.039821822 -0.053918947 -0.019146863 -0.04793909 0.022388825 0.02402023 -0.004195207 -0.030700954 0.026866084 0.012906197 0.055471368 0.04465945 -0.03469614 0.019979669 0.057500314 0.04626922 -0.02373446 -0.04321114 0.008050416 0.053048573 0.052589007 0.06661717 -0.01405219 -0.030478032 0.038155597 -0.053901833 0.013750853 0.04108799 0.043699928 -0.028536214 -0.056704774 -0.06754137 0.04665613 0.03360466 -0.03173607 0.04315074 -0.04183039 0.0692948 -0.06901549 0.033782657 0.02968167 -0.01330254 0.056774136 -0.007773132 -0.00806857 0.034693684 -0.061173633 0.049506553 0.070458174 -0.04958619 0.007512696 0.026147783 -0.050524183 -0.0006802131 0.016944181 0.037223935 -0.03479208 -0.0074577 -0.040292438 0.06905795 -0.025539199 -0.058582377 -0.0048878053 0.03633544 -0.017724287 -0.020925585 -0.010214581 -0.02328757 0.047328603 0.009055175 0.03403745 0.010878112 -0.030462574 0.06779514 -0.027152589 -0.034843024 -0.043102015 0.03129795 0.04376878 0.027413385 0.026024127 -0.06732207 -0.06574273 0.0037725205 -0.05929545 0.049010474 0.012559999 -0.023410354 -0.07015423 -0.06056232 0.037003987 -0.06349558 0.06944362 -0.051497012 -0.026039107 -0.070218526
109 0.013089559 -0.027378727 0.0050495183 0.030749109 0.00045716425 0.025305545 0.025825314 -0.00042847893 0.020144768 -0.017476602 -0.002620789 0.002612568 9.715623e-06 0.002369337 0.00040857814 -0.013505346 -7.804588e-05 0.013171265 0.020262634 -0.00011921744 0.021364156 -0.016188381 -0.0021604681 -0.010483107 -0.007810841 0.0021791698 -0.014534417 -0.00937411 -0.00012272378 -0.0011321893 0.0027259341 -0.002026204 0.026172804 0.0014489671 -0.002685846 -0.017269477 0.022330638 0.0026376885 -0.008327379 -0.0006391963 0.020047124 0.002251237 0.029336987 -0.0072705126 -0.00028782064 0.0017151493 -0.019602604 -0.018004494 -0.010846738 0.0026570098 0.0023031936 0.005243466 -0.031119764 0.014515524 -0.0031219553 0.0031097722 -0.011675065 0.016998822 -0.015402476 -0.018739792 -0.005151236 0.0027127438 -0.030813484 -0.00092158123 0.010204134 0.0021994198 -0.008862104 -0.008053405 0.009809158 0.008487858 -0.00091910595 -5.6319688e-05 0.011533947 -0.015235529 0.016702091 -0.024961092 -0.005605771 -0.028543184 -0.02804714 0.027490184 -0.0068676947 0.0014176241 -0.01792856 -0.0022798702 -0.0002487693 0.0005749301 0.0012691645 -0.017580489 -0.028560886 0.0031850555 -0.021651888 -0.0027287113 -0.026840746 -0.0012613526 -0.008369959 -0.008988606 -0.007682526 0.00041795138 -0.02542797 -0.00012935679 -0.0023460966 0.02737692 -0.0008318574 -0.000502031 -0.029954543 0.025736075 -7.150669e-05 0.012933748 0.0026299397 0.0025143914 0.0050447444 -0.023902187 -0.0029388918 -0.008060157 0.027120609 -0.0023153636 -0.0106501095 -0.00086648355 0.0039485195 0.010553309 -0.016664693 0.013498422 0.0077750715 0.0053121108 -0.0010887291 -0.0014039819 -0.0027246834 0.018652089
102 -0.05218902 -0.059361104 -0.048112154 -0.0406295 -0.051907655 0.06697448 0.019348735 -0.058594145 0.010723405 -0.029186795 -0.0031233644 -0.014397793 -0.031301096 0.024461081 0.066264614 -0.04779605 0.02833618 0.025502676 -0.026450891 -0.03180505 -0.052212093 -0.05547107 -0.06805855 -0.06501514 -0.06421929 0.04596583 0.016461566 0.037487492 -0.04329195 0.04984125 0.04114632 0.035688803 0.011589743 -0.009483728 -0.029631967 0.02008273 0.037030388 0.01483298 0.02604184 -0.04789208 -0.04964381 0.060892865 -0.007852515 0.023186691 0.041760683 0.040194247 0.064571634 0.064793915 0.050617613 0.01389868 -0.037363533 -0.015290586 -0.00062707206 0.04228376 0.029868346 0.06560163 0.028256627 0.024230352 0.04455209 0.036742628 -0.0414562 -0.024214035 -0.033229597 0.0064881714 -0.020965677 0.02691923 -0.044955753 0.010366699 0.034877706 0.0073264777 -0.010838938 0.051610418 0.03714052 -0.06888234 -0.010178203 -0.0064241188 -0.03180664 -0.055423558 0.0450598 -0.02721636 -0.010484481 0.044208564 -0.0020694055 -0.023483556 -0.012186979 0.049222372 0.06836209 -0.0045409775 0.0061165392 -0.023219328 -0.019828402 0.05685858 0.017507298 0.053487744 0.019537307 -0.0032170773 -0.004051296 -0.05771693 -0.023435958 0.0032036144 0.06335799 0.00047112926 0.025114212 0.030708725 0.0475695 0.03502821 0.025699254 0.030438576 -0.06632286 0.05260235 -0.06791847 -0.033266164 0.033745866 0.010033531 -0.053325128 -0.027642526 -0.022830432 0.03784502 0.06544434 -0.022891516 0.055424895 -0.063604616 0.02991164 -0.050610278 0.0349339 0.0046215416 -0.043328993 -0.02012542
103 0.0011847743 -0.00055411505 -0.016441708 0.025503656 0.0027288944 0.014878318 0.020248387 0.0027210275 0.00077183 -0.0140620135 0.016163463 -0.023230413 0.0024944101 0.02368089 0.017483689 -0.022308012 -0.024472926 0.008175166 -0.026770568 -0.0048705856 0.0038229371 0.018868458 -0.009495891 -0.024302298 -0.0031933761 0.0026247231 0.021987561 0.02250097 0.0017787631 0.001699256 0.0097787315 -0.006750541 0.0007385218 0.002382724 -0.0024998405 0.0026887716 -0.018206406 -0.009848198 0.019997142 0.001755076 0.00088935904 -0.021675758 -0.0006163345 -0.0040919743 -0.00022993068 0.016135456 0.00061263156 0.013253196 -0.0125402035 -0.0013647487 6.225647e-05 0.022115022 0.020600963 0.01227984 0.003223299 -0.0026830242 0.0171656 0.0025285713 -0.020615177 0.0025803887 -0.01502697 -0.0015550773 -0.024648752 -0.015237926 0.019702366 0.031041317 0.011563775 -0.001201372 0.0015164898 0.0051679052 -0.0012142941 0.00042961937 -0.015021066 -0.00020826819 0.025784928 0.00046247154 -0.0021488538 0.0020657515 0.0008851005 -0.0075602345 0.0024262222 -0.0024352155 0.025342219 0.021857671 -0.0010478674 -0.025831414 0.030818617 -0.023039488 0.021367215 -0.0008976511 -0.012163938 6.231947e-05 0.019065438 -0.019755242 -0.01691888 0.001767717 -0.001716347 0.0011260761 0.00032556383 0.0027006539 -0.011548438 0.0069324984 0.008220358 0.015189294 0.024930136 -0.0025494595 1.3752549e-05 0.011190299 -0.016279627 -0.0023182628 -0.028270165 -0.018720858 0.00039429028 -0.017319223 0.026111051 -0.012574193 -0.0059856204 -0.0005280646 -0.018666828 -0.000751062 -0.0004312512 -0.020605098 -0.0025538309 0.001208056 0.0027150784 0.00042904244 -0.000823102 -0.00472666
100 -0.0053557865 0.027738474 -0.030221038 0.024005327 0.0075330357 0.0026600198 0.01885977 -0.0017337089 0.024769373 -0.0066481447 2.7832524e-05 -0.0006752779 0.024033038 0.0012518625 0.018687563 -0.011398547 -0.011558422 -0.0013557523 0.00027447328 0.012352582 -0.02920068 -0.0009657046 0.022537947 -0.0002700315 0.0019904326 -0.0012518335 -0.022735473 0.005935592 -0.0037954382 0.0010367737 0.007360536 -0.0002733791 0.0014898703 -0.017475247 0.02251038 -0.025743265 -0.019838247 -0.0033699307 -0.010453241 -0.022569248 -0.00731474 -0.021632927 0.019811463 -0.026627548 0.00591706 -0.0015379725 -0.013149968 -0.01068597 -0.030496728 -0.002005129 -0.002989599 0.0021005538 0.00045533813 0.019645017 -0.030191055 0.026545402 0.008232656 8.845533e-05 -0.0020915095 0.020763898 0.0008579425 -0.0031124777 -0.0014848968 -0.00332013 0.0021862462 0.0006588328 -0.024919687 -0.010187031 -0.001996473 0.0027146714 -0.017068418 -0.02132709 -0.025901642 -0.00026016944 0.0007419954 0.0060457354 0.00019331221 -0.017476697 -0.001939189 0.008287465 -0.029591333 0.025315255 0.008040725 0.009694498 0.015811183 0.0009437413 -0.015242312 0.015900064 0.012237972 -0.009859876 0.009892594 0.009691232 0.015223258 0.0020643498 -0.013456943 0.000111621106 0.009044343 -0.00066397514 0.0123291295 0.020481102 -0.018571116 0.00936393 0.013275637 -0.010825615 -0.01837033 0.027718427 -0.0122670885 0.0023702544 6.902085e-05 -0.02719419 0.018813446 -0.020796193 -0.0026921842 -0.0057217684 -0.0008453526 -0.00054559147 0.022550972 0.009527303 -0.0023079645 -0.0008947477 -0.01381677 0.00023188113 0.02354555 -0.0017727898 -0.022608856 -0.0018346296 -0.029247502 -0.024869654
101 -0.039223082 -0.005837783 -0.020107752 -0.046654385 0.069822714 0.015034819 0.032911472 -0.046860345 0.028881472 0.005453123 -0.05790488 -0.039851 -0.0058662742 -0.029623382 -0.026622994 -0.006991211 0.015575611 0.035579223 0.014862422 -0.015355003 0.0127416765 -0.024339473 -0.04353712 -0.017326808 -0.019103527 0.011240568 -0.013803933 0.015820274 0.015574414 -0.040044576 0.008195777 0.06301548 -0.02021524 0.045679275 -0.048596516 0.025147641 0.019261915 -0.017520245 -0.021050282 0.019614987 0.0027129417 0.0037509012 -0.06477404 0.05957877 -0.068095274 0.06679677 -0.015610024 0.037882395 0.061879747 -0.017050676 -0.03309081 -0.027397873 0.0026913905 0.033832557 -0.01612084 0.0278272 0.026672736 0.02692632 -0.056014877 0.05645579 -0.069859006 0.017001107 -0.070186935 -0.027603297 -0.030744618 0.009449331 -0.020542437 0.06933956 -0.020255562 -0.06467214 0.029049855 -0.0066670743 0.024122939 -0.011732637 0.005390093 -0.017236926 -0.014705291 -0.050701376 -0.012956198 -0.061976604 0.03433879 -0.06784438 0.033206806 0.062307462 0.0059556467 0.029314848 0.007860111 0.014268051 0.029079985 0.04748351 0.024097616 0.009886935 0.005617923 0.009631456 0.039928984 0.01563066 0.016722178 -0.04384594 0.043043453 0.02438601 -0.040727284 -0.010768821 0.048500195 -0.024564609 -0.014385774 -0.026541814 0.069827266 -0.068752214 -0.044894077 0.04405028 0.022182725 -0.044263743 -0.06354588 0.027620193 -0.016438259 -0.019458463 -0.008681476 0.008993836 0.014287825 -0.038181633 -0.038492393 0.015934898 0.043277092 -0.0016694895 0.009940218 0.06629794 0.04648497 0.022793075
106 0.029588124 -0.02588144 -0.0402423 0.03269926 -0.04469223 -0.043962132 -0.0060715545 0.023383329 -0.014691144 0.06489079 -0.019228138 -0.070223875 0.002178648 -0.025413906 -0.03753431 -0.048009586 -0.008535063 0.03515673 -0.010526338 -0.007147611 0.025516223 0.02045292 0.06609549 -0.016966071 -0.008342874 0.009366928 -0.017258488 -0.023395775 0.052326888 -0.018391447 -0.01895562 -0.014660085 0.01479521 0.06738616 0.04935867 0.015399342 0.013338595 -0.034396715 -0.0036612647 0.027608467 0.037374076 0.06667997 0.057996757 0.06044344 -0.053886376 -0.06071997 -0.023048611 -0.014489284 0.031125553 0.009541657 0.0107947 0.0089739775 -0.04657125 0.017407091 0.0030661277 -0.03152515 -0.020701773 0.023236705 0.04180607 -0.035910014 0.03874077 0.030566096 0.042126745 -0.06115993 0.070697784 -0.009888732 0.039288156 0.05085778 0.02219774 0.022573905 -0.03406559 -0.058032177 -0.046549007 -0.018306052 -0.027121438 -0.029091697 -0.04025849 -0.009087482 0.04461145 -0.040384248 0.011447332 0.0003911832 0.061455518 -0.014936875 -0.029206917 -0.06653085 0.03720138 0.01773127 -0.05322742 0.01902744 0.009655807 -0.014721335 -0.029788949 -0.043573365 -0.060637884 0.008900238 -0.039135892 -0.052758913 -0.028500605 -0.06006725 0.054263383 -0.025810365 -0.017157037 0.0009436412 -0.05478551 0.037163854 0.009162134 -0.004875093 -0.04432238 -0.0018396893 0.031993628 0.0033491408 0.05986183 0.054146543 -0.027158577 0.027821511 0.0582611 -0.05474524 0.005091008 -0.044489592 -0.06781496 0.0066276873 -0.02698527 -0.023950353 0.025923822 0.047528338 0.038111888 -0.05900117
107 -0.010943327 -0.0013539128 0.01301586 0.0038897197 0.0007490229 0.0005783378 0.016735282 0.025759086 -0.0023745915 -0.0020456554 0.024988951 0.015756242 -0.002304018 0.011534228 0.018730648 0.0017657436 0.027629174 -0.026579643 -0.0006617706 0.016700346 0.018078158 0.0014722979 -0.005670685 -0.0013450291 -0.00026027978 -0.0024940942 0.0026630128 0.013890747 8.3606665e-06 0.0045520454 0.0065379986 0.028585115 0.0038566133 0.0002979096 0.018017419 -0.0050641573 0.0007349148 0.018431228 -0.011036026 -0.02939177 -0.024903003 0.030696461 -0.0011830735 -0.010213324 -0.00092235766 0.015596105 0.029666245 -0.00016185456 -0.023854394 0.02422403 0.028856874 0.009792456 -0.0028458408 1.1117547e-05 0.026442554 -0.013276849 -0.030198194 -0.028767902 0.018510262 0.0002634466 -0.029921886 -0.0005160468 -0.012996462 -0.021992102 0.002170924 -0.0275994 -0.015176835 0.015573477 -0.014166564 -0.0025226783 -0.013853318 0.011464219 -0.013845801 -0.0024384782 -0.00031448872 -0.0025909946 -0.0072146705 0.0024398514 0.027509697 0.000718754 0.0027177592 -0.030743172 -0.0027145687 0.0013279499 -0.0027219534 0.008547675 -0.002695692 -0.000868318 0.0061859447 -0.006526799 0.008024302 0.002264312 0.0005423961 -0.025235727 0.020291932 -0.002427016 0.028993951 0.0026094115 0.007396502 -0.016785024 -0.008669961 0.013489211 0.006954536 0.03061385 -0.030469602 0.002608577 0.0012106602 0.0005550096 0.013377748 0.01703945 -0.00017201022 -0.0025054622 -0.00044620276 0.01346966 -0.012992049 -0.0003173041 0.00081007264 0.023682306 0.0026688054 -0.008722624 0.002711807 0.0017794059 -0.0023467508 0.015895063 0.0013724479 -0.0019938399 -0.0059683854 -0.0023611127
104 -0.0003643405 0.0027197506 -0.0027246594 -0.0085114045 0.026755726 -0.0015642059 0.0018489022 0.013551963 0.019400205 -0.008306301 -0.0043801353 -0.0012433645 -0.009742368 0.024144098 0.0012602245 0.021414313 -0.01347005 -0.02762494 0.021661725 0.027787507 0.0015852433 0.013568214 -0.018015003 0.00073585263 -0.018576303 0.0124181025 0.002705266 -0.015087062 -0.0012814018 -7.6748955e-05 -0.01926874 0.00233622 -0.00080742204 -0.00014236342 -0.0007515889 -0.00026134108 -0.024184763 0.0022651972 0.002602581 -0.011579714 -0.015410155 0.021859242 0.017653694 -0.005871869 0.030881375 -0.021129053 -0.00042860676 0.02859044 0.0115496935 0.0005565275 -0.0003598025 -0.00021836672 0.0007505163 0.010779045 -0.0013568267 0.00823115 0.017487308 0.00984482 -0.0026783792 0.029846206 0.0009179714 0.0005602758 -0.013989826 0.010291472 -0.023792338 -0.0014631836 -0.02504863 0.00043060686 -0.02839573 -0.001086112 -0.020940632 -0.0061043184 -0.021779543 -0.025409829 -0.0011026835 0.0076059625 -0.002714371 -0.018643264 -0.0074556847 -0.028959855 -0.00016743602 0.0040852767 -0.008757562 0.023352865 -0.0002950283 3.854114e-05 -0.0022820884 -0.0065395194 -0.001803122 0.0025105309 -0.002468574 -0.025783664 0.0016985058 -0.002264781 0.022832995 -0.004476822 -0.013854005 -0.008332764 -0.023270624 -4.5413923e-05 -0.021936728 0.02649024 -0.013972934 -0.0030027223 -0.0061664307 0.027056478 -0.0024684903 0.00041153247 0.0018499627 -0.00019189017 -0.00017208708 -0.011573219 0.00021956628 0.00053890207 -0.005073254 0.0048965686 0.021931844 0.0116379 -0.00032692222 0.011353805 0.01684822 0.0008232345 -0.0029071793 -0.025171189 0.0027137005 0.0011413967 -0.0021547694 0.009141266
105 0.0025882258 -0.018634927 0.0026106902 -0.025710594 -0.002722338 0.02572028 -0.021224724 -0.00013149384 0.0026745324 0.0053193 -0.0058294586 -0.019388832 -0.03011606 0.0009192417 0.01569037 0.010425418 0.0029028049 -0.0017662214 0.00054453703 -0.01057796 0.0024520056 0.015956629 -0.0068554273 0.02416444 -0.0009511862 0.0002130202 0.011037555 0.021260023 -0.0036353113 0.019209526 0.0020397392 -0.027175937 0.001638343 0.030842872 0.013979854 0.00012318695 -0.008213605 -0.008504609 0.014358385 -0.0008907334 -0.0024474554 0.027672997 0.0048316275 0.002336474 0.0005489765 -0.0075050346 -0.0033841175 0.011154871 0.028374048 -0.028444443 -0.00039586663 -0.025513925 0.02017968 0.016155116 -0.011536968 -0.0007065439 -0.025006114 0.0011982756 -0.001051605 0.017461486 0.01335646 -0.01633918 0.0025973676 0.024688385 0.000343811 -0.00096896966 0.0022475538 0.002167342 -0.00020784771 -0.0008852733 0.0052713603 -0.0013269717 -0.030884746 0.030839799 -0.01947047 -0.0026694173 -0.0228005 0.0019701275 -0.020944918 -0.0005288633 -0.00012249322 0.00048510433 0.009138752 0.004340063 -0.008960396 0.005154101 -0.030561304 -0.0075084986 0.0005851231 -0.026730534 -0.009909643 -0.0056247497 -0.0026467065 -0.015990028 -0.00082737446 -0.0025316807 0.029361455 0.0019922894 0.0027769664 0.00046153684 -0.0019790153 -0.017690994 -0.0017928141 -0.006340562 -0.015346482 -0.009963063 0.019214705 -0.030785898 -0.028124737 0.023849195 -0.00080259127 0.007411812 0.026542706 0.027996272 0.011346675 6.1813305e-05 0.020063553 0.014555804 0.029520854 0.00075440016 -0.0056620077 0.01959922 -0.008721611 0.0021754084 -0.009548533 0.007847573 0.017372448 0.030771112
2046 -0.010443247 -0.023835272 -0.027628679 0.04211111 -0.025640424 0.0031302683 0.05180088 -3.2824115e-05 0.06891864 0.0696107 -0.002350662 0.039169107 0.017030202 -0.039197523 0.024671976 -0.07112342 0.0016260778 -0.015507746 -0.0063966536 0.06795933 -0.046701074 -0.006219195 0.056596063 -0.010236474 -0.0071308967 0.028197361 0.0430834 0.0007978291 -0.037641156 0.0041717966 -0.026466394 -0.053724423 -0.0019743983 -0.0074161002 -0.04374803 0.06559203 -0.049742162 -0.030646155 0.0041659 -0.052623693 0.003070145 0.022300275 -0.050757658 0.0071373302 0.01960319 0.017631898 0.020556757 -0.050643414 0.015281318 0.0142075615 0.0014528495 -0.02183975 0.03495566 0.056964245 -0.023903651 -0.04741467 0.014411336 0.0007825574 0.023991052 0.002546389 0.044733293 0.028655505 -0.04451996 -0.013441549 -0.043663252 0.027698923 0.032027606 -0.032009024 0.034418207 0.024778076 -0.059848897 -0.0039323824 -0.042886995 -0.021224994 0.07010232 -0.017941607 0.021059152 0.036220886 -0.066611975 -0.013653265 0.0040862244 0.07007461 -0.021950837 -0.025696052 -0.011565161 0.00034398597 -0.043972682 -0.025639482 0.017807733 -0.00079720304 0.04254921 0.031303603 0.0085171405 0.016441276 -0.026008805 -0.028114298 -0.014334371 -0.015166131 0.0022912195 0.021372639 0.008966888 -0.055450737 0.0070025367 0.03912415 0.05292978 0.018851373 0.021301163 0.043656815 0.048289143 0.024342079 0.021180896 -0.05252412 0.05858183 -0.0329688 0.0010482874 -0.020354712 -0.07117721 0.05872968 0.049857806 0.034325838 0.036012005 -0.010590818 0.06947391 -0.030485641 0.009906577 0.004914508 0.02953072 -0.023470258
2047 0.018788857 -0.042003077 -0.010512158 0.05056692 -0.014461222 0.0060545793 0.004396728 0.06992495 -0.031623375 0.03175766 -0.05953196 -0.05401434 0.015844284 -0.05900505 -0.0081464425 -0.06553719 -0.05840461 0.058496542 0.06012416 0.064911544 -0.028339026 -0.0056662876 -0.04061941 -0.0688353 -0.02855073 -0.0030926229 -0.011190688 -0.0014981995 -0.003765684 0.061488952 0.016697323 -0.02052578 0.054732677 -0.006889659 0.023187742 -0.057287488 -0.024683885 -0.03632681 0.0698334 -0.046825893 0.052408945 0.040587224 -0.014985978 -0.012348938 0.03114868 -0.017602906 0.055408027 0.049206275 -0.06290969 -0.033131383 0.0073424587 -0.062271405 0.057393536 0.066081665 -0.005998793 -0.042502053 -0.00476484 -0.037453495 -0.0117018055 -0.016272979 0.068291664 -0.039598573 -0.0031410388 0.05609369 -0.009445872 0.0011991514 0.024562987 0.008331549 0.013341735 -0.020033155 0.023259128 0.030745646 0.020543054 0.029566951 0.057559133 -0.00083793583 0.015115776 0.044447996 -0.005565289 -0.00082659244 0.042356633 -0.03522203 -0.05558889 0.050511375 0.009670935 0.023035329 0.06178606 0.059433565 0.014624105 0.035089873 -0.02218936 -0.010631905 -0.041533463 0.00054579525 0.026862452 -0.026480172 0.069871314 -0.051628575 -0.017031545 0.02243803 0.0031911437 -0.03488235 0.032372944 0.030389523 -0.0074677626 -0.052317582 0.01613168 0.019002685 -0.056867097 0.0028603342 0.023197236 0.012767721 -0.07043571 -0.0052099843 -0.0061178314 -0.031732764 -0.023322208 -0.055599928 -0.0032776268 0.017367141 0.002593819 -0.019458896 0.0059656515 0.03177012 0.06809338 -0.033788167 0.03130272 0.039915755
2044 -0.031962186 0.020334307 -0.028255995 -0.024792377 -0.059801996 0.007917791 -0.066238664 -0.0040451614 0.009244214 -0.03191747 0.0197778 0.033784438 -0.012946103 -0.065464646 -0.003607773 0.039624877 -0.0040006367 -0.026801845 -0.045419272 -0.04184466 -0.029948292 0.06993697 -0.018473202 0.039017618 0.028212365 0.037910465 -0.041888114 0.00150214 0.013806177 -0.03815302 -0.001885796 -0.0036447374 -0.04006827 0.052969802 0.03141829 0.009099243 -0.010103205 0.05322327 -0.0037617707 -0.060888674 0.03700252 -0.058833096 0.04316676 0.029566208 -0.066194475 -0.040246364 -0.018350419 -0.02734823 0.030397857 0.029229201 -0.029034864 -0.06882283 -0.0032354994 0.03314299 0.06823416 0.0547588 -0.030668583 -0.064829364 0.032028455 -0.025488898 0.038144514 -0.03328793 -0.052104775 0.024602663 -0.033965934 -0.069361515 0.033097096 -0.031083005 -0.029413024 0.04742992 -0.010040628 0.014700914 0.030971123 0.033135965 -0.049020838 0.06250811 0.04558984 -0.026291458 0.051643785 0.004620507 0.0053198915 -0.015685746 0.067128114 -0.007456678 -0.00092209806 -0.043261472 0.068877876 0.027774468 0.047142398 0.030409377 0.057174716 -0.058557775 0.025128607 0.059790928 0.055815928 0.020732947 0.027468868 -0.056179613 -0.052658387 0.062174313 0.04968961 0.03682934 0.036035735 0.070319675 0.0076492364 0.06062142 -0.026966013 -0.023183336 0.049694553 -0.00020679939 0.04924817 0.002809499 0.018636264 -0.013305261 0.021639757 -0.016088704 0.012794427 -0.027178064 0.058966868 -0.031216614 -0.026425386 -0.02928561 -0.011281015 0.06324896 0.018556561 -0.041614737 -0.0308027 -0.017491175
2045 -0.02128295 0.010106805 -0.008458477 3.8931423e-05 0.00066567946 0.016929017 0.008817637 0.026779281 -0.015448359 -9.963303e-05 -0.002177803 -0.004791824 0.0025953539 -0.0053722956 0.016241033 0.0019143987 0.02128552 0.008720937 0.014481456 -0.0014692984 0.0008249756 0.002491296 -0.013799684 0.012483595 0.01030859 -0.0020619968 -0.0125798 -0.029610295 0.00018856488 -0.02377298 0.0021420766 0.0036347148 -0.00017185803 -0.002722404 -0.00048901106 8.448132e-05 0.0040561347 -0.022451501 -0.00055009185 0.026796164 0.000302014 -0.030665131 -0.029845767 0.0111707 0.0027170673 -8.024016e-05 -0.029535241 0.021623634 0.013936567 -0.0022546411 -0.018628908 -0.00091170816 0.0119668925 -0.010073507 0.026366439 -0.0022131326 0.017784681 -0.011495604 0.00021472848 0.013018066 5.5233948e-05 -0.0004185537 -0.0032548956 -0.01578088 7.885662e-05 0.023842363 -0.0014558611 0.018232195 0.0012015777 0.019740937 0.026758121 -0.013394735 0.0032178962 0.012392897 0.00232323 0.010109199 0.00057013915 -0.022606563 0.0059193727 0.00070245995 0.0027292173 -0.0031175683 0.026222995 0.021363182 -0.030399384 0.0058751684 0.018248182 -0.0022137135 -0.002645788 0.0025461786 0.030340835 -0.0020409033 -0.010585839 -0.027260283 -0.018030409 0.00014900074 0.017673632 -0.019260364 0.027719673 -0.0044787605 0.011530714 0.0038807304 -0.025991598 -0.00035031047 -0.0287889 -0.008756928 -0.009463463 -0.0164136 0.025797645 0.0005367823 -0.0007930331 -0.0005294053 -0.0068584383 -0.021762457 0.0013226841 -0.00080274884 -0.022897875 -0.0008010657 0.027083017 -0.0018016975 -0.013928199 -0.0013898865 0.018222367 0.017817859 0.00451892 0.0018878405 0.009525512 -0.02515496
2042 -0.028728891 -0.062970854 0.013688957 -0.011981083 0.054738916 -0.041943062 -0.017680246 0.0009082104 0.0030774716 0.0011959398 0.05350768 -0.0689732 0.06261425 0.0070371088 -0.0373823 0.03309109 -0.0012521412 0.00674446 -0.06708987 -0.0473732 -0.06134328 -0.028432133 -0.02912299 -0.002338693 -0.00023804326 -0.00532425 0.032838117 -0.027819794 0.04129314 -0.063203074 0.024456289 0.045079798 -0.0173891 0.040306717 -0.011957311 -0.020539913 0.0630409 -0.054519407 -0.008727647 -0.022767961 -0.00414533 0.013309072 -0.0083250785 0.041569896 0.030987462 0.017269418 0.033928033 0.057940282 -0.06991438 0.013249915 -0.029147929 0.008069355 0.0017892573 0.05804138 0.008022178 0.01578728 0.056482915 -0.06843185 0.010730877 -0.0442516 -0.042249028 0.00961722 0.010397351 -0.012507158 0.0015367399 -0.017434359 0.041452255 0.005119696 0.019639779 -0.033138633 -0.0006797062 -0.019178621 -0.018354978 -0.034421455 0.02916206 -0.036063995 -0.019339398 0.0063098604 0.009661006 -0.004750534 -0.059803594 -0.02108349 0.018629545 -0.040616762 0.014154035 -0.03881132 0.010964733 0.04508626 -0.036957484 -0.050847787 -0.05267925 0.0057472284 -0.022518214 -0.0007430023 0.04114757 0.03867472 -0.027054844 0.07101824 0.017199486 -0.028880415 0.031105654 0.047439367 -0.028285459 0.017854715 0.020595841 0.017627304 -0.04232109 0.012425586 0.048592314 0.03913028 0.03322681 0.023242332 0.023182575 -0.03311288 -0.016985655 0.028945483 0.020801786 0.0034615523 -0.055700555 0.0032284628 0.0487887 -0.03083144 -0.016356586 -0.040541563 0.063318655 -0.0024907638 0.01329321 0.0094821425
2043 0.0073350477 -0.0016617829 0.009357953 0.009016343 0.005944944 -0.022969304 -0.009010053 0.00042244972 0.0002077331 0.0023143145 0.00020716418 0.030124646 0.0020833025 0.003416089 -0.002131895 0.019653637 -0.0038984641 0.00036304162 0.0027201793 -0.0069255983 -0.00267323 -0.0007585662 0.0013109755 0.00013115481 0.0012473634 0.023671655 0.0027652404 -0.012247186 0.01680263 -0.0007716624 -0.009238819 0.0024159322 0.03046471 0.021982118 0.0009840294 0.0144549385 -0.0015897218 -0.0008801086 -0.0020284993 0.012080825 -0.0025066899 0.022608163 -0.00087926304 -0.0010517872 0.00084496965 0.00031829264 0.00092424295 0.01543848 0.0015199977 -0.0018613687 0.025315974 0.0016505794 -0.0022371053 -0.00015306957 -0.013332577 -0.021189077 -0.022401378 0.0011832736 -0.0021927024 -0.021616269 0.00013518619 -0.0009208029 0.0017864174 -0.01796222 0.0022663744 0.0027158537 -0.001003501 0.001086051 0.002536185 -0.030752342 -0.0010363989 0.018922685 -0.0009713869 0.00012737 -0.030435175 -0.011386255 0.011396166 0.0026784814 0.0008312052 -0.0007016224 -0.015333443 -0.00264623 2.5148915e-05 -0.006729498 -7.4766576e-06 -3.1078307e-05 0.016728355 0.017184397 0.002131981 0.00020570267 -0.020923946 0.00016025006 -0.00010870665 0.0007676584 2.796777e-05 0.025619272 -0.0027231388 -0.024559582 0.019806279 -0.0022225492 0.023964489 -0.0023917933 -0.019944616 0.02677986 0.0008820289 0.010588157 -0.008360202 0.00014160766 -0.0020377808 -0.0025581238 -0.015710918 0.008439688 -0.0005134019 0.0045395116 0.008698842 0.00022895173 -0.0027264638 -0.00013609279 -0.0011445261 0.0018315844 -0.0026700133 0.016985122 0.0156688 -0.0074171037 0.023733994 0.020508293 0.00251542 0.003221226
2040 0.003092045 -0.062140983 0.043314163 -0.012585799 0.037285715 0.069438115 0.042436216 0.062079962 0.04512957 -0.06264853 -0.037228197 0.013689724 -0.03571077 0.06827807 -0.016545156 -0.07067864 -0.05807165 0.0012603567 -0.03401807 -0.036530446 -0.012052296 0.031243432 -0.016395276 -0.028523594 -0.03860871 0.061735082 -0.03346662 -0.042316016 -0.003184349 0.01637884 0.029695971 0.031109799 -0.0040326263 -0.011828542 0.042062186 0.030079197 0.06949112 0.047134228 -0.00824122 -0.014702986 0.029969402 -0.06489975 0.022434201 0.013494469 -0.057131015 -0.023909131 -0.04118696 0.046436086 0.021128453 -0.043961335 0.051733915 -0.06042538 -0.025349738 -0.041955043 -0.034444027 0.062195946 -0.017879477 0.0372887 -0.00095233216 -0.03681037 0.07059293 0.02079684 0.016981395 0.025573524 0.0036337445 -0.021390397 0.03481784 -0.0044898125 -0.009072779 0.023312377 -0.043294735 0.043258093 -0.032842826 0.031740665 -0.037210654 -0.03105046 0.023582295 0.053243216 -0.022563156 -0.042197518 -0.0130038895 -0.03959551 -0.016787527 0.031820912 -0.029550435 0.05619933 0.005832652 -0.05191994 -0.015538881 -0.042052045 0.01644732 0.060762856 -0.00033850712 -0.06933933 -0.025214875 -0.019144332 -0.009848226 -0.02404048 0.04711505 0.036445968 0.0285123 0.037816692 -0.0023437163 0.01735343 -0.026933435 -0.05615236 0.019502511 -0.04797242 -0.023972431 -0.031066846 -0.01236552 0.006958494 -0.020727303 -0.005195754 -0.018421147 0.033473007 0.01858634 -0.018096386 0.043094754 -0.06288374 -0.029715747 -0.035601474 0.0020701825 -0.00455572 0.03657726 0.0037708252 -0.041699283 0.03110681
2041 0.03753562 -0.04144463 -0.008308704 0.02880577 0.021546844 0.014628226 -0.012299335 -0.023475414 -0.017489469 -0.0358793 0.0011202447 0.022108972 0.042038128 -0.013097619 0.023029033 -0.040617134 0.037612185 0.011704181 -0.044213124 -0.02794284 -0.020240823 -0.026317615 0.00997635 -0.05301168 -0.0359967 0.029234525 -0.047157273 0.04765986 -0.058939736 -0.003556571 0.013246138 0.06440454 -0.019707698 0.028273763 0.031084072 0.06796594 0.029669384 0.014133863 0.004117688 0.028072132 0.03163063 -0.02477452 -0.029719876 0.020608148 0.06295957 -0.0152916135 0.02580654 0.004287162 -0.003164162 -0.03379881 -0.0056882654 0.035033256 -0.017582402 0.005041482 0.03656941 0.042123053 -0.009639985 0.004508179 0.04954356 -0.012988313 0.011043284 0.03724241 -0.06807204 0.024867175 -0.029587392 -0.022559013 0.013905848 0.03340628 -0.04160296 0.00087713264 0.009372616 -0.039568257 0.0099037 -0.05866226 -0.022196505 -0.005070915 0.0034469254 -0.02340837 -0.039565943 -0.014188803 -0.026273621 -0.012051144 -0.07160067 -0.018018654 -0.05212736 0.04746675 -0.067195065 -0.0142337475 0.005659233 0.05712509 -0.042442493 0.03395692 0.04926251 -0.038736418 0.046940118 0.056028336 0.01338302 -0.021156846 -0.02774622 0.02816853 0.055464834 0.0077577718 0.06626184 0.02039347 -0.013653956 0.0104393 0.009047866 0.023226557 0.02482754 0.01817225 -0.0012209229 0.037581585 0.0072951578 0.05802536 -0.03182819 0.0015392357 -0.05570192 0.010143807 -0.06796036 -0.047669455 0.058378223 -0.011099981 0.013960374 -0.012682149 0.066526264 -0.00096894644 0.05805294 -0.042277347
2048 -0.020624515 -0.003699049 0.018403195 -0.023824219 -0.024647743 0.049666278 -0.012533177 -0.0060850675 -0.060516838 -0.029156797 -0.061831076 0.06508012 -0.023091786 0.04908532 0.011656952 -0.037547704 -0.05923495 0.016659241 0.0053947195 -0.010855123 -0.0065976633 -0.04234812 -0.018967636 0.004750543 -0.025491027 0.053393714 0.06253232 0.050343953 -0.033172417 0.03700903 -0.032215547 0.067983866 -0.015467322 -0.05180001 0.036534034 0.044984862 0.012835269 0.026017856 -0.048234895 0.049669195 0.012771366 0.022662265 -0.01856522 0.026737463 0.027492583 0.020230556 -0.021733522 -0.06296005 0.020342097 -0.02602915 -0.0068763765 -0.0131643675 0.06488968 -0.0486907 0.044479348 0.0668465 -0.045049854 -0.056891676 0.029308716 -0.029714389 -0.033769373 -0.03414363 -0.017553339 -0.025488246 0.0224627 0.0012473611 0.011388873 -0.058280095 0.058377907 0.021695174 -0.045349475 3.1744246e-05 0.031070767 0.00071001303 0.061784256 -0.067814566 0.02596106 -0.0055095507 0.040860094 0.009455998 0.039984636 0.030910086 0.053938903 -0.0023457294 0.048845276 -0.016083328 -0.043710865 -0.009295469 -0.036002852 0.049311716 -0.031520486 -0.044670865 0.053710617 0.061298348 0.0623727 -0.0069961576 0.044696454 -0.062471185 -0.0422142 0.010300666 -0.06978576 -0.046018943 0.008927822 -0.069254406 0.058445223 -0.02390177 0.012974638 -0.06256647 -0.06413366 0.025175666 0.030744538 0.015269304 0.059482023 0.0011921147 0.018481832 -0.041222494 0.04169008 -0.027402136 0.022838032 0.03073157 0.045820665 0.0277989 0.026625078 -0.011698772 0.05280797 -0.044489447 -0.02470629 -0.06258326
2049 0.006689681 -0.0300694 -0.068386525 -0.054534826 0.06343396 -0.024783952 -0.035719197 -0.0037140253 0.042519122 0.059924044 0.0121330675 -0.01595149 -0.03758915 0.016665183 0.02001626 -0.059565324 -0.005249372 0.023889992 0.030145828 -0.044702515 -0.057930112 -0.0051697567 -0.012010124 -0.030374505 0.009992999 0.010130151 -0.03487681 0.058979563 -0.048299026 0.052396286 0.029864376 0.008986322 0.02150245 -0.054739393 -0.013542004 -0.063175134 -0.019697672 0.063001186 0.06044382 -0.024037594 -0.053092685 -0.023451697 -0.070789695 -0.026954746 0.019379755 -0.032322798 0.021344006 -0.017611891 0.0184955 0.025758669 0.00533552 -0.00078095234 0.058259424 -0.027991228 -0.051565677 0.03759607 0.016850676 -0.004838026 -0.06981561 -0.019794954 -0.019305328 0.054951474 -0.047657397 -0.012004678 -0.014243933 0.030825308 0.0074928314 0.015528622 0.005415209 -0.062423576 -0.043033026 0.026174942 0.01871964 0.0022968685 -0.026526818 -0.066987604 0.040596865 0.033405762 0.05176655 0.0053239474 0.043036617 0.003690938 -0.010908126 0.035148136 0.014055747 0.04533899 0.053187832 -0.006420543 -0.0052140485 -0.010275165 -0.058967546 -0.009244543 0.06932789 -0.023842096 0.056946587 0.06862372 0.044625983 -0.06880064 -0.037315015 -0.026422838 0.03748457 -0.019368438 0.06377535 0.063879 0.013128184 -0.0008363279 0.059752192 0.017837523 0.016901528 -0.038244024 -0.03368787 0.026286064 -0.047705714 -0.012513902 -0.0046281754 -0.03592126 0.06789564 0.049161416 0.009347749 0.046906106 -0.036984626 0.0031380812 -0.061480265 -0.011569438 0.06443386 -0.040065326 0.018509291 -0.017674472
1212 0.0062360913 -0.0092788385 0.0007918471 -0.0018622818 0.0058699287 0.022342637 0.0057075573 0.0020681834 0.0026430555 -0.026435126 -0.030138373 0.03098788 -0.021550182 0.008702824 0.0008913838 -1.3925965e-06 -0.0023751627 -0.02392102 0.00017901955 0.021652915 -0.024668686 -0.0022654778 0.016049117 0.001466071 -0.00026684423 0.0026881085 -0.021738678 0.0021682063 0.028656371 -0.002634488 -0.0026261974 -0.01104474 -0.018989297 0.007978351 0.0014895528 -0.021788526 -0.025788533 -0.0021453921 0.0076131886 0.027492948 0.00013772529 -0.00020548966 -0.021400915 -0.0010398636 -0.00083668344 0.00022221517 -0.002651762 -0.023534345 -0.016697602 0.00030533856 -0.0152167035 -0.0077191386 -0.02135053 -0.00015302448 0.015652768 -0.0024360963 0.0026508824 -0.002211399 0.0008785528 -0.0069354745 -0.00629471 0.016599039 -0.016488854 0.00021513598 -0.012384154 0.0030004391 -0.018233921 -0.002525902 0.00012081902 0.0024171364 -0.0016189581 -0.0029291683 0.008395986 -0.0023097007 0.0047764746 0.029176341 -0.0001786337 -0.015966095 0.0004842885 0.020215612 0.00087928626 -0.010467843 0.020902531 0.0016145145 -0.015244074 -0.002527853 -0.017114677 -0.03054701 -0.0135849165 0.025627919 0.0002793478 0.011200721 0.027587302 0.00088589056 -0.020622198 0.021051463 0.008894913 -0.027161725 -0.0020910432 7.740993e-05 0.00088644156 -0.027419038 -0.0026844756 0.007598744 0.0008140677 0.026435385 0.010520075 0.0026249066 -0.0008493495 -1.8695806e-05 8.44154e-05 -0.021738969 -0.015062748 0.0020787925 0.0019248748 0.0019372606 -0.020642346 -0.004310496 0.019823823 -0.0024850776 -0.0024024697 0.01765076 0.028953368 0.0075522233 0.0171596 -0.0005568016 -0.0043862704 -0.0026118197
1213 0.0067852377 0.0013978498 -0.0042910827 -8.105696e-05 0.0039444137 -0.0034684774 -0.0007405491 0.017925438 -0.0034430765 0.027383804 0.024473893 0.0016339581 -0.0023840026 0.008278415 -0.00021817622 -0.017623039 0.029526753 -0.0015475634 -0.0014661707 -0.00024174881 -0.000561089 -0.00086153706 0.0128729865 0.0006630777 0.0013954489 0.023262348 0.015061322 0.025564278 -0.00963449 -0.0025769859 0.021794239 -0.00018542464 0.006973803 -0.024328375 0.008266558 -0.029398005 0.014822144 -0.0020312155 0.029978845 -0.021740101 0.00015472794 0.023151847 0.0004300541 0.029307676 -0.014160667 -0.0150205055 -0.012761623 -0.0011016303 0.00080724165 -0.026337134 0.008373991 -0.02553369 0.00029594733 -0.0020025957 -0.016611705 -0.0020738295 -0.0017751788 0.016919212 0.0007518599 0.01810431 0.030939471 0.001736727 -0.017509766 0.0024505628 0.028987011 -0.00026251742 -0.007949249 0.01612461 0.00882392 -0.014627685 -0.008283184 0.009029908 0.01109809 -0.029205928 0.022524845 0.00070571067 -0.020411272 -0.01973705 0.0003081683 -0.019177869 0.007176396 -0.025751691 -0.024695283 -5.1674047e-05 0.00017920416 0.0026165256 -0.008333699 -0.0022731645 -0.0026041844 -0.00062896416 -0.030205285 -0.014244412 0.009405429 0.022260012 0.0025822427 -0.023578364 0.0026019579 0.0014953578 -0.0022252183 0.0024461567 0.028748602 -0.00021755666 0.020701716 0.0020170417 -0.017807655 -0.021917202 0.015473096 0.0025059725 -0.018268483 0.024018943 -0.002357023 0.00619287 -0.016515609 -0.028579703 -0.0012311658 0.017992632 0.0005259405 3.535273e-05 -0.013247504 0.00086895144 0.00010714034 -0.02424243 0.02762955 -0.00046762745 0.022907015 5.782822e-05 0.007388798 -0.0024699103
1375 0.0560733 0.03162835 -0.008891161 0.05984564 0.019501356 -0.040024936 -0.040304806 0.023026658 -0.05929961 0.02060615 -0.0655641 -0.030254276 -0.0653454 -0.009983787 -0.069581516 -0.010732604 -0.0067984676 -0.031170946 0.031277504 0.013443611 -0.048407264 -0.069253825 0.010176644 -0.025791645 -0.0064919633 -0.007593211 0.005897948 -0.06576905 -0.026962476 0.02630163 -0.012321517 0.016874287 -0.04879367 -0.06757701 0.052073047 -0.0269873 -0.0100773685 0.04441157 -0.040386762 0.012426523 -0.014568278 0.00027447578 -0.043244172 0.049767204 -0.030743953 0.015482944 -0.0038245884 0.036340963 0.011879428 0.01720165 -0.04145102 -0.029270258 -0.0032331198 -0.039631743 0.037253674 0.015887987 0.041732088 0.06568843 -0.0101821795 0.0094826585 0.0044169477 -0.027846862 0.06491143 0.012244338 0.038983576 0.031217989 -0.026957467 0.04803896 -0.059264194 -0.0037645434 0.012523525 -0.022832923 0.015730752 -0.03064639 0.021013612 0.032071784 -0.01700028 -0.023308653 -0.03837098 -0.034272674 0.06480328 -0.021152914 0.03381324 0.008240384 -0.016487852 -0.024503578 -0.04844783 -0.0015628845 0.0029524008 -0.008203596 -0.013223046 0.0034008822 -0.0577689 0.0045189247 -0.022984043 -0.012756141 -0.01348323 0.003149424 -0.024167852 0.034446865 0.013613571 0.04432166 0.05530567 0.020265281 0.057903696 0.056844495 0.023298552 -0.02056872 -0.012759719 -0.046349984 0.043569453 0.018295385 0.056953445 -0.065768585 -0.036897246 -0.02863762 -0.046661504 -0.020599566 -0.006847867 0.014389667 -0.018843997 0.051787827 0.022054426 0.04301739 0.018805869 -0.028375281 -0.07063448 -0.019780297
99 -0.024741337 -0.038016617 -0.019648189 0.031638894 -0.010520124 0.042007145 -0.0115320105 0.028341077 -0.012155532 0.021817386 -0.058879323 0.0068487516 0.0397333 -0.041752256 -0.04535744 -0.06663293 -0.029629538 0.061141454 0.054673467 0.043901253 0.007976405 -0.029988516 -0.055761945 -0.06139401 -0.060552172 0.01904407 -0.06315071 -0.0010936975 0.020757617 0.05820813 -0.014003131 -0.027696343 0.057438996 -0.017260056 0.008654063 -0.041980874 -0.049185738 -0.01650928 0.036437985 -0.037789524 0.060348593 0.022669831 0.03076422 -0.0121912025 -0.01973665 0.032629576 0.06595353 0.043078557 -0.033030696 -0.03061424 0.018457545 -0.022304986 0.06313992 0.04611429 -0.0034518838 -0.017098974 0.022816315 -0.052774332 -0.042546 -0.036180902 0.06729472 -0.06341411 -0.027595093 0.055802606 0.011819317 -0.031195635 0.059909772 0.030013626 0.065427065 0.014618016 -0.003483616 0.028844727 -0.057759978 0.050585847 0.057344902 0.053278662 -0.0056022964 1.0960561e-05 -0.07048674 -0.018188762 0.058788083 -0.04847266 -0.06802282 0.05825317 -0.004421151 -0.04343722 0.04118522 0.01843353 0.06641205 0.04165916 0.0095654065 0.031137995 -0.053910602 0.018230457 -0.038452834 0.027339801 0.030077435 -0.038144372 0.04087912 0.06832506 0.023779528 -0.02086553 0.014888701 0.0211447 -0.023460532 -0.055472903 -0.03651967 -0.04710537 -0.03838516 0.029059593 0.013860229 0.011724133 -0.03074575 0.0011326559 0.02327684 -0.026168257 -0.03161909 -0.0414502 0.012021201 0.035255 -0.0072256806 -0.0021189628 0.0034533725 0.059309326 0.02530077 -0.0452447 -0.017411537 0.060514566
98 0.013509543 0.02601109 0.034996096 -0.0067262263 -0.020863501 -0.034272596 0.046506193 -0.0018182226 0.02873531 0.042756602 0.017198997 0.06586853 -0.011046842 -0.03286241 -0.031683516 0.008967022 -0.030774422 -0.012087218 -0.026426058 -0.023792062 0.009077564 0.014538779 0.028041046 -0.007697731 0.03909642 -0.012731498 -0.06213862 0.012023515 -0.032599203 0.006425226 0.016453892 -0.0702248 0.036540475 0.06574552 -0.061036285 0.009489596 -0.037828635 -0.047456842 -0.01334171 0.014709259 0.06256048 0.004831204 -0.0003915655 0.061649807 0.053231895 -0.051270824 0.008547502 0.024943708 0.015289161 0.055635076 0.04746239 0.043993376 0.03342051 -0.0068054046 0.07043204 0.03853274 -0.019318374 0.018831188 -0.01566634 -0.05159668 -0.0002305382 -0.02368667 -0.05867453 0.0007400265 -0.011927481 -0.03656931 -0.044379093 -0.06657651 0.054519996 -0.068803295 -0.05361741 -0.010668354 0.003169609 -0.00035996293 -0.024914052 0.058597215 0.03560449 -0.011201609 -0.051991757 -0.060016822 -0.008339191 -0.048801173 0.018649003 0.031215256 -0.045869775 0.022977814 -0.030441042 -0.029666932 0.0025111674 -0.053837385 0.010398103 0.017552324 -0.004312764 -0.024345191 -0.0034366434 0.024485866 -0.06847647 -0.04358185 0.048746742 -0.058429673 0.013913864 -0.05640808 -0.035682615 -0.058328018 0.06306079 0.01977598 0.008149197 0.04771712 0.032733094 -0.03962435 0.012351645 0.042888854 0.044362806 -0.012266826 -0.029395286 -0.040346544 0.03432075 0.031211834 -0.051051114 -0.03862477 -0.019854251 0.024341157 -0.0021300698 0.027520468 0.035121255 -0.02451994 -0.06579243 0.064823456
91 0.023331078 0.0065209568 0.026215909 -0.0074323607 0.025473414 -1.1548749e-05 -0.00038482324 0.009537589 0.010986142 -0.023414621 -0.0024666963 -0.0012280385 0.025422622 0.0019191094 -0.022844935 -0.0008749522 -0.027354414 0.02512739 -0.012546287 -0.026229123 0.0102612795 -0.023735879 -0.00083965523 -0.0023922785 -0.016177211 3.1453528e-06 0.01633746 -0.0014964233 0.021287074 0.0027178868 -0.0029824742 0.0010931495 -0.009730939 0.008822417 0.012230146 0.025949653 0.00023905342 -0.02766255 -0.026404029 0.022604741 0.01648985 0.012016318 -0.019931171 0.024678247 -0.021961762 -0.015342233 0.0025614866 0.027722258 -0.001255698 0.00042474386 -0.016060097 -0.025283698 0.00021295964 0.01424578 0.00052555825 -0.004001512 0.0008024152 -0.030727113 0.0003633984 -0.0018911585 0.0008945188 -0.0034325495 0.0038988362 0.0020522 -0.0009898788 0.00041946932 -0.019632686 -5.5825934e-05 -0.0023536708 0.00042812727 0.026203958 -0.013875123 -0.014342232 0.02227099 -0.028939655 -0.01292785 0.0026605495 -0.0026410988 0.0013288489 -0.014519681 0.0029151433 0.0027165401 -0.0027096237 0.016788598 -0.0005162556 -0.0089634545 -0.013944227 -0.008177208 0.016678613 0.02928815 0.02322284 -0.0068872124 -0.028401865 -0.003355749 0.00023102357 0.022032836 -0.0013599966 -0.017761776 0.0040589166 -0.000602205 -0.017771589 0.000655827 0.00086445763 -0.002340142 -0.010056275 -0.01734479 0.024818674 -0.0021892022 -0.012836541 0.01926768 0.023492225 -0.0027196647 0.00034069235 0.005590815 -0.01098977 0.01739222 -0.00041235148 0.0136513375 0.0007671817 -0.021169566 -0.010396603 0.030485542 -0.022953624 -0.001034541 -0.0018909172 0.0027045908 0.01911519 -0.024509389
