1512 128
344 7.022684e-05 0.0014695514 0.0067687915 -0.0023286405 0.0008446824 0.012925602 -0.0023178982 -0.0014282949 -0.00076211616 0.005535241 -0.0018417458 0.00501833 0.017982747 0.011253362 -0.015294062 0.0024628085 -0.04033654 0.005488055 0.001815517 0.004640514 -0.02025187 -0.00070837693 -2.568544e-05 -0.014398483 -0.0026954073 0.01851508 -0.03747872 -0.03900014 0.00078882166 -0.014022119 0.0010539114 0.020501638 0.020486454 -0.020212594 0.005044654 -0.0077382205 -0.02826627 -0.0006769904 -0.0027287696 0.019940078 -0.033508606 -0.03838039 -0.039007325 0.006474359 -0.0027286792 -0.0003854318 -0.013125161 0.030380502 0.009306727 0.0020278345 -0.031361744 0.00062548544 -0.024849864 -0.00062041386 -0.00208135 -0.0019150338 0.026436934 -0.012155451 0.039050426 0.0021195242 -0.0014108643 -0.0014268791 -0.0354991 0.0036435905 0.025521219 0.01735735 -0.023444647 0.018918177 0.030275375 0.031328607 -0.038674455 0.0019382811 -0.002457984 -0.0036809407 -0.009946173 -0.0017766237 0.031020407 0.021601059 0.031669557 0.039600253 0.0023958974 -0.034407504 0.02441995 0.0015617192 0.0002987411 -0.013985758 0.014793361 -0.018822504 0.013222755 -0.0025355422 0.00014801137 0.00020353604 -0.02166119 0.03650829 0.00089504884 0.0027277165 -0.027409783 -0.0024580597 -0.020239472 0.03804829 0.0031413985 0.00047897123 0.002271994 0.02459257 0.0282447 0.0006739594 -0.03244138 -0.020931765 0.00083843817 0.0011074629 0.0018342719 0.034484353 0.025588002 0.025269687 -0.033449985 0.018058078 0.002729387 0.0034648646 -0.015309977 0.009805373 -0.00078467093 -0.00774478 -0.030736582 -0.0017047918 0.0031654432 -0.00042268433 -0.023915524 -0.040591862
345 0.063274816 0.06893121 -0.028694462 -0.055175256 0.06794511 -0.073776074 0.035631668 -0.028170805 0.05479537 -0.077783816 -0.06576799 0.050906852 0.07031302 0.053808056 0.037364583 -0.0231825 0.023587309 0.03595811 -0.019957801 -0.07140691 0.07375528 -0.07851249 0.015248097 0.030010238 0.020553824 0.055224836 0.07726364 -0.027355382 0.035566904 0.033027966 -0.06591316 -0.0245408 -0.018071758 -0.07136813 0.03396058 0.05533176 -0.0055218632 -0.06372931 0.035068125 -0.01584668 0.02672714 -0.0141528305 -0.013270327 -0.010529943 0.067058355 0.055625144 -0.02844252 -0.030239945 -0.012340532 0.024970552 -0.0351009 0.05922709 -0.012921853 -0.01720376 -0.01922099 0.0040034335 0.07921445 -0.0676074 -0.016100891 -0.016797591 -0.04024546 0.029191922 9.37818e-05 -0.0021778306 -0.0092971735 0.080355495 -0.024304327 0.04960251 -0.028365161 0.013736076 0.076574266 0.060937442 -0.022322612 -0.071823284 0.04350606 0.008664515 -0.061093573 -0.036631 -0.035217155 0.03295593 0.045127332 0.031794187 -0.055567227 0.0031725406 0.06774805 0.028519515 0.056966603 0.062409736 -0.036842912 0.032490548 -0.0713436 -0.043237884 -0.051763676 0.0082554035 0.041390773 0.05315821 -0.042451777 -0.0367429 0.08089991 0.008271911 0.008660834 -0.00913556 -0.034690462 -0.0006879659 -0.07960446 -0.07342473 0.030999076 -0.005826963 -0.0051887995 -0.07043455 -0.029759306 0.07804835 -0.020160217 0.03987257 0.019334901 0.020748347 0.042721618 0.010798233 0.038879976 0.018523056 -0.008455168 0.04424545 -0.056365177 0.023655089 0.031853832 -0.035982016 0.0642908 -0.0035204303
346 0.028320648 -0.042101666 -0.016121155 0.07796287 -0.058644798 -0.008193002 0.0015790574 0.069804445 0.06795401 0.020945698 0.049957633 0.027270833 -0.012042305 0.018547678 0.003114685 0.07477701 0.005694395 0.021800274 0.0017928132 0.040462896 -0.034842644 -0.07881236 0.02047254 0.059364744 -0.042308383 0.0007910134 0.06718119 0.02722148 0.015516656 -0.008421761 -0.060679987 -0.0037003155 -0.038647696 0.034403674 -0.0071039144 -0.06610083 -0.004914413 0.015058558 0.033206377 -0.010668671 0.0765977 0.03797189 0.036603775 -0.07736944 0.029146418 0.023632875 0.036259748 -0.0627403 0.016870579 0.026064135 0.05452475 0.03295883 -0.08060569 0.042040396 -0.061893456 0.07241107 0.06343612 -0.03814933 -0.053963915 0.056138642 0.022350285 -0.021704854 -0.068197325 0.056748517 -0.04870656 -0.02891791 0.059596352 -0.021882426 -0.0267155 0.03766187 -0.010618379 -0.021074468 -0.03332101 0.0053474186 0.061332177 -0.009499953 -0.01776302 -0.027307225 0.050378207 -0.013732275 -0.01542588 0.042067803 0.030128555 0.05664305 -0.0699346 -0.06946673 -0.029906832 0.05689352 -0.01387131 -0.08004106 -0.0751705 0.012216139 -0.07209283 0.040782213 -0.03822444 -0.034961455 0.01119653 -0.008240938 0.053333554 -0.00937486 -0.022035282 -0.062131584 -0.07379436 0.023775326 -0.06111969 -0.03861826 0.043187413 -0.057913676 -0.05384783 0.0045494507 0.008224627 -0.029610427 -0.0072743874 -0.06515728 -0.06810597 0.066178635 0.014496606 -0.07643831 0.035231538 0.023483966 0.03942372 0.035964016 0.0017020118 -0.01283112 -0.0019303506 -0.05321066 -0.004813557 0.07276616
347 0.016097385 -0.057877906 -0.0016074175 -0.054584704 0.06793279 0.07663687 0.014323011 0.05461646 -0.0013835533 0.07378645 -0.009059611 0.006332244 -0.05000585 -0.033170328 -0.028251538 -0.018597174 0.0416617 -0.04537009 -0.013653608 -0.0061564418 -0.056308124 0.03889105 -0.025895184 0.052732218 0.077173956 -0.035333272 0.051068205 0.04224093 -0.06370632 -0.0112668285 -0.003881047 -0.06437987 0.03104593 -0.024924194 0.0724749 -0.026678728 -0.02999812 0.042131536 0.043027725 -0.012909575 0.035362586 -0.033860415 0.010415258 0.022053087 -0.05578051 -0.013493508 -0.015551175 0.04203149 -0.0004302141 -0.04647993 -0.07924772 0.00013984926 -0.03566951 0.039148994 0.0069245333 -0.0037647262 -0.060766876 0.031697363 -0.061065648 -0.03762123 -0.034611054 -0.04035283 0.06540093 -0.038797244 -0.02893593 -0.034398224 0.0009537158 -0.030730123 0.02528535 -0.025018407 0.06247092 -0.01896257 -0.04444127 0.021994397 -0.06295476 0.008547539 -0.03462515 0.004606714 0.017821122 -0.0011520375 -0.017119966 -0.026175424 0.019854944 -0.048190694 -0.024356572 0.0020053685 0.01858544 -0.061686996 0.03689183 -0.038804576 0.018389871 0.022393959 -0.06756744 -0.0213034 0.030961834 -0.04363032 -0.07338349 0.027793339 -0.009730361 -0.017428277 -0.012923513 0.067557044 0.035096817 -0.027221374 0.015130502 -0.047372807 0.07341729 -0.045185853 0.052295424 -0.036550734 -0.03952559 0.006958876 -0.011738868 0.0528296 0.03562269 -0.046086453 -0.022635309 0.06266278 0.0088029355 -0.01792486 -0.047456894 0.06464305 -0.05963939 0.032037713 0.035605725 -0.049865194 0.0045591453 -0.07463811
340 -0.03628274 0.012334162 0.015872462 -0.0048983623 -0.019886285 -0.040744845 -0.0020841523 -0.010210855 0.0021090352 -0.037571296 0.012227859 0.00023246762 -0.00070119544 0.0024125967 0.008507322 0.0017114092 -0.005306162 -0.031081717 0.0025758531 -0.015184279 -0.035835546 0.020914253 0.03370913 0.0010168345 -0.03497023 -0.02358902 0.038074438 -0.0071151606 0.00087486586 -0.00076876424 0.030696616 0.0026332738 9.595911e-06 -0.010468803 0.0123601705 -0.0006066508 -0.019174518 0.0060937195 -0.02377683 -0.013997316 0.034068614 -0.02220691 -0.005232846 -0.03185804 -0.013673117 -0.03184278 -0.020406222 -0.038445737 0.03533782 0.039949 0.017407132 0.023080545 -0.00129155 -0.030503904 -0.014189523 0.015754633 0.012877218 0.034132566 0.00022083649 0.006655571 -0.0012860083 -0.025894145 -0.00083438674 -0.0026685682 -4.929409e-05 0.039298832 0.034112923 -0.038598944 -0.0017548136 -0.02414984 0.013115156 -0.0017256227 -0.0026393298 0.013237561 -9.270956e-05 -0.02167848 0.00018288766 0.02172549 0.009887748 0.00043032592 0.016806984 0.023692422 0.025202043 -0.039623324 1.7471844e-05 0.022305992 -0.0032626945 -0.022422483 0.0024230843 -0.03934031 -0.0012871796 0.023656415 0.031375762 -0.02039032 -0.0038259218 -0.02743436 0.016595231 -0.013442026 -0.0213339 0.00020988216 -0.015870733 0.026684666 0.024522847 0.031642914 -0.01529872 -0.0022578316 -7.209212e-05 0.014460856 0.00021170998 0.031682808 -0.037424643 -0.0024708074 -0.0040895827 0.031919733 0.0066558146 -0.0012547073 -0.021305012 0.0065791365 -0.031392273 -4.1746447e-05 -0.031912647 0.0024998216 0.034903027 0.00225763 -0.022301458 -0.0022596212 -0.023517419 0.0009528339
341 -0.056516845 0.036023594 0.07311181 0.058783513 -0.035618488 0.000600104 0.0066669974 0.06388415 0.022805668 -0.047491126 0.006844833 0.035709374 -0.061488684 0.018007236 -0.06773006 0.032009 0.025368232 -0.02082988 0.057431705 -0.0486273 -0.062008545 -0.048898183 -0.043344766 0.0014587343 0.04132172 0.024617435 -0.0011682647 0.008473712 -0.023623072 -0.024324913 0.04439336 -0.04268777 0.052756976 0.033702966 -0.04418745 0.0035659065 -0.05039988 -0.07205722 0.07963228 0.017920082 -0.0110914465 -0.014478583 -0.08077471 0.07990612 -0.036882278 0.016050208 0.028931854 0.054379035 -0.033834584 0.053582955 0.043834873 0.032820523 0.032741178 0.068048954 0.032235287 0.024793234 -0.023608059 0.0018609102 -0.05973415 0.00037334813 -0.0006882727 -0.039576687 -0.03731963 0.047136515 -0.025426831 -0.046687197 -0.024464028 0.0035052071 0.07150425 0.061420016 0.024905667 0.040440984 -0.021642841 0.05187837 -0.024317117 0.015940825 -0.0053915726 0.073291846 0.06357096 -0.064062335 -0.0034150446 -0.028650107 0.042065516 0.037947588 0.032802854 0.053532306 -0.058681834 -0.041645054 -0.01121792 -0.04575027 0.05591026 -0.059110366 -0.015928999 0.0075619444 -0.033856936 0.017851638 -0.067266434 0.07825873 -0.007033306 -0.03499543 -0.0144112 0.019755896 0.04683071 0.06808222 0.05665322 -0.005586354 0.028262137 -0.023781393 0.010477887 -0.053736057 -0.015911942 -0.025301104 0.046361957 -0.010210698 -0.0482825 -0.017747551 -0.04698185 0.022109266 0.0033333856 -0.025177272 -0.06513126 0.047283087 -0.017679732 0.023427345 -0.016860796 0.07003049 0.033795927 0.056383952
342 0.072702445 -0.059302766 0.039941862 -0.03204782 0.033896327 0.030219207 0.025687594 -0.02198844 -0.05017119 0.07357529 -0.07660624 0.07410177 -0.07456433 0.038851686 0.042377383 0.04357818 -0.03058906 -0.050637476 0.07254583 -0.044890173 0.05517596 -0.023381568 -0.05874977 0.043330718 0.07407728 0.05060773 -0.06296803 -0.020072239 0.07284129 -0.029305799 -0.03925736 -0.071574286 0.06120779 0.026230002 0.06532711 0.023512317 0.077688016 0.022690026 -0.061164714 -0.055276774 -0.026980588 -0.047963712 -0.032406736 -0.03087367 0.036739938 0.06497229 0.035025463 -0.06847597 -0.029290514 -0.034767732 0.03048979 0.025749968 0.0654495 -0.060655013 0.060838893 0.06183679 0.07674298 0.03383708 -0.061547708 0.06583253 0.06391098 -0.07077578 0.043403223 0.06929409 0.047262363 0.07519145 -0.06859776 0.05494983 0.07041013 0.028324151 0.05711005 -0.043062635 0.063938774 0.053920593 -0.03369609 -0.035301294 0.07995649 0.031584296 0.07469037 0.074387446 0.038617622 -0.027765447 -0.051278073 -0.04068438 0.030643573 -0.043879736 0.057476092 -0.05262791 -0.07401084 -0.071923144 0.036745448 0.076938786 -0.047512084 0.063220344 -0.06436405 0.05428688 0.06454505 -0.047706887 0.031312175 0.055105396 0.048497804 -0.030564714 -0.03964449 -0.036324378 -0.06133935 0.038073614 0.06835768 0.046864692 -0.050731022 -0.07952833 -0.043717973 0.027747668 0.04019885 -0.06306293 0.02810988 0.04285686 0.079957604 0.052872524 -0.04042849 0.0562137 -0.026891232 -0.067379594 -0.043639876 -0.023287252 -0.052612834 -0.044288773 0.07284345 -0.06725865
343 0.03638894 -0.006915024 -0.040811904 -0.030790232 0.03873453 0.0048200693 0.0025260197 -0.03152979 -0.0125456685 0.019436665 -0.00023297759 -7.253216e-05 0.0003810884 -0.01925214 -0.00010562931 -0.00044637214 0.0007064463 -0.0025797114 -0.010299986 -0.0009558373 -0.0129676 -0.0004233269 0.030241188 -0.00057822274 0.03873694 0.0020387832 0.023044279 0.023230365 -0.023733683 0.031365227 -0.0007735946 -0.02035418 -0.00042566325 -0.038213823 -0.021277206 -0.009179495 0.013543947 0.0013941462 0.034408864 0.03747139 0.0019377599 -0.0022377714 -0.014941049 0.03287372 0.0021653501 0.01642278 -0.0026062415 0.00917944 -0.004025111 0.025556127 -0.020340104 -0.020977695 -0.021136288 -0.010230644 2.0155043e-05 0.008557055 -0.0029790043 -0.00040528987 0.0074785287 -0.009365423 0.0027208084 -0.0008472223 -0.0010094407 -0.013500367 -0.00020338799 0.028293032 0.030062022 0.016399726 0.02991303 -0.00016969253 -0.0029271848 -0.027312003 0.00076137175 0.006776634 -0.00072545675 0.033020444 0.00398452 -0.00040772115 -0.0017071402 0.0030237702 -0.0048341854 -0.0026851972 -0.002655521 5.3584983e-05 -0.0023874594 -0.0024181178 -0.03248171 -0.023550544 -0.003959217 -0.0045979638 -0.018027313 -0.00019397834 -0.0016625632 -0.00035421044 -0.031152457 -0.0062743514 -0.015082653 -0.026568444 0.0079180235 0.01825596 -3.5579018e-05 -0.00018903083 0.00020491431 0.00090623903 0.001448521 0.0057949186 0.0062779365 0.03287404 -0.020308802 0.00015857334 0.040474843 0.039857186 0.029705135 0.0021382337 0.0020334423 0.03444752 0.022479007 0.0018937077 0.021332406 0.012170122 -0.021081088 0.00079705287 -0.00021811039 0.0008216365 9.893463e-05 -0.016912544 -0.0018063247 -0.012593621
348 0.031896703 0.040379703 -0.031217461 -0.029202534 -0.025447734 0.00037502436 0.031949747 0.017339848 0.024287283 -0.036216635 0.0027046653 5.407972e-05 0.0023076271 0.0013304575 0.01995509 -0.002144728 -0.03125244 0.036448162 0.027173825 0.03687615 0.029344164 -0.02055196 0.0020184387 0.032639336 0.012192595 -0.0009147417 -0.028691867 0.00091934355 -0.021188147 0.0030492265 -0.00076194067 -0.02023856 0.026913656 -0.0047640596 -0.00044833787 -0.002463597 3.4208002e-05 -0.033403695 0.0017110809 -0.021730274 0.011548085 -0.001981523 0.03197982 0.024098208 0.003986863 0.0014865142 0.021515226 0.039147645 -0.024718342 0.039697886 -0.001327609 -0.0026747088 -0.0016345684 -0.023950974 0.00056470884 -0.00055047555 -0.00038713313 -0.01715976 -0.0068063606 0.00018185168 -0.03791296 -0.002081072 0.00087653764 -0.0026753284 -0.0026195648 0.005398237 0.012720754 -0.028225176 0.027099742 0.028690225 0.03471877 -9.2168324e-05 0.013776988 -0.0144972345 4.6009915e-05 0.0013393592 0.000119784265 0.01697864 0.0017145386 -0.0033622305 -0.028986696 0.025141943 -0.0009838905 0.037556257 -0.023961557 -0.0023142323 0.025850784 0.002005174 0.030066006 0.022322835 6.057392e-05 0.0028057597 0.00503866 -0.030823816 0.008000909 0.021212837 -0.0023811227 0.032939926 0.007855855 -0.013800003 -0.0009178359 -0.015831742 -0.010308461 -0.006654007 0.00036917825 -0.01878505 0.029436842 -0.024646955 0.0006052135 0.024424694 -0.040720463 0.0004506687 0.022364996 -0.006434843 0.031097306 0.030827641 -0.002376944 0.023751417 -0.013506021 -0.03330662 -0.002231279 -0.03364229 0.01000914 0.0022305753 0.033519074 -0.038438454 -0.002645897 -9.746355e-05
349 -0.026320392 -0.05521675 0.03811265 0.02475737 0.05879707 -0.047984477 0.054086927 -0.039001238 -0.070789576 0.027723594 0.06966167 -0.07498017 0.026062133 -0.08050815 0.031755947 0.070358574 -0.02430355 -0.022399556 -0.026125425 -0.06945784 -0.05872205 0.033506826 0.07762285 0.06622949 -0.05254426 -0.031367347 -0.049796283 -0.046230104 0.052917745 0.039837234 0.06456216 -0.07734897 -0.06720038 0.08026131 0.04965669 0.079930514 -0.06466935 0.056594275 0.044654746 -0.05451647 -0.069986075 -0.03076338 -0.065651596 -0.07583712 -0.03807134 -0.038214266 0.06131665 -0.029448623 0.040106673 -0.07149857 0.031363104 0.031155061 -0.042378146 0.026953112 -0.05026412 0.035159647 -0.03196808 -0.052118264 -0.024621513 -0.04837887 -0.06859587 -0.07845052 0.04871477 0.0798505 0.057414886 -0.06782951 0.05920862 0.053114057 -0.06583271 -0.023649188 0.02629627 -0.027411714 0.074437365 -0.064988144 -0.06559318 -0.07688556 -0.033346638 -0.036327392 -0.059828505 0.07642346 0.03618683 -0.07592424 -0.039748326 0.06309389 -0.021494878 -0.06880723 -0.057844795 0.076565735 -0.04079593 0.036943614 -0.05764971 -0.03970391 -0.06659019 -0.040825818 0.0677662 -0.023939628 -0.04041965 -0.05933272 0.053616084 0.025832403 -0.053014167 0.0678734 -0.06120929 -0.071038686 0.070681155 -0.031999093 0.050668593 0.049582094 0.037781022 -0.041241832 -0.040085755 -0.043424856 -0.030038377 0.0322867 -0.02146504 0.079470985 -0.024739958 0.041558936 0.06963491 -0.06060256 0.050145645 -0.048387434 -0.032043967 0.050525654 -0.06928563 0.079746254 0.079550356 0.0206605
298 0.008147993 -0.00885309 0.0078137005 -0.001132595 0.00018278878 -0.021817196 -0.0026858724 -0.0005140233 0.022754665 0.0023265507 -0.014766609 -0.03536153 0.007651132 -0.001635079 0.021020524 -0.036011923 -0.0025308202 -0.0025448012 0.002228842 -0.016651839 0.025840305 0.0034906298 0.028089583 0.0026299604 -0.002451793 0.018554142 -0.0021468434 0.00071244634 -0.009926018 0.031040544 0.030187447 -0.01245433 -0.026951147 -0.00260374 0.029601363 -0.008234808 -0.0009693287 -0.0063790935 -0.00041662794 0.0023675472 -0.036882907 -0.018280832 0.036209397 -0.033208165 0.0071199373 0.008755477 0.009145112 -0.00087193365 0.00024910294 0.037949875 0.0004677974 0.037596483 -0.038139686 0.026714701 0.0006518557 0.039897315 -0.0060244016 0.030266281 -0.025858985 0.003013694 0.03558552 -0.034031067 0.009056481 -0.0004755017 0.016305987 0.0007149113 0.00043025883 0.02573846 -0.032060787 0.02214549 0.0004455517 -0.0019876955 -0.021772057 0.005253142 -0.0024571435 -0.0017247347 -0.028460836 -0.024361001 -7.837269e-05 0.009373402 0.029879127 -0.00039114227 -0.00010616657 0.024326487 -0.0008911505 0.024964716 -0.037799586 -0.017862242 -0.0014079616 -0.0004306074 -0.014912939 0.022537185 -0.014947816 0.014118134 -0.016328393 -0.03851887 -0.040347688 0.0003187623 0.02152945 0.023771374 0.03117515 -0.0003786601 -2.5387257e-05 0.012231137 0.025353897 0.0024404482 0.009639739 0.036546696 -0.028802415 -0.01234425 0.02610577 -0.014720471 -0.0009201026 0.029281668 0.015531161 0.00019262606 -0.01760605 0.016711876 -0.00013713138 -0.023237493 0.00047685308 0.00538279 0.017281428 0.009301425 0.03498857 0.037219398 0.03633768 -0.034317717
299 -0.052630555 0.07964156 -0.028539173 0.031176146 0.074088685 0.05578632 0.055826817 0.077092275 0.05745873 -0.02956954 -0.05235399 -0.03637333 -0.07038463 0.065097034 -0.04132288 0.05466551 0.026027856 0.04753107 0.06738444 -0.06400051 -0.07243604 0.055299558 -0.045928184 0.07702922 -0.0591125 -0.065258734 -0.032437384 0.030119818 0.04124866 0.045316122 0.06337119 0.048413347 0.027005294 0.06925475 -0.05670714 0.028225757 -0.06839571 -0.038217403 0.06362961 0.035080362 -0.038210075 0.036458638 -0.03562327 0.06185896 -0.055792022 -0.07987413 -0.04569428 0.039847385 -0.030535132 0.02382376 0.027762651 0.024714546 0.043620028 -0.059001748 0.077708535 -0.08035546 -0.06228763 0.05792063 0.07342844 0.071539685 -0.06643932 -0.02630871 0.031422615 -0.044451 0.079441674 0.08041041 -0.077032425 0.069689035 0.07756968 -0.039051224 -0.045102928 0.07066212 0.041748177 -0.05264747 0.0572883 0.066317566 -0.022875886 0.029104562 0.0754393 0.06990078 -0.07022379 -0.020750394 0.079006545 -0.06857439 -0.04794278 -0.07893381 0.06359022 0.045880966 0.053692095 0.022762341 -0.038868792 0.022809176 0.042587258 -0.058875695 0.022229105 -0.04517624 0.07548599 0.06682937 0.036775768 -0.05288891 0.05632338 -0.035990696 -0.03885677 0.041497435 -0.03478889 -0.057597004 0.039150823 -0.05113484 0.061752103 -0.0222741 -0.07219481 0.053221386 0.06349008 0.03515142 0.03425639 -0.06368781 -0.076468006 -0.020646624 -0.045984637 -0.06899815 -0.025110856 0.026227389 -0.053807966 -0.029536428 0.048002884 0.07498499 0.07161277 0.024503522
296 -0.05905417 0.07587079 -0.05099318 -0.050756924 -0.04419869 -0.06984337 0.026641855 -0.055717718 0.030379232 -0.03419997 -0.04927829 -0.052652005 -0.054757908 0.063049674 -0.037965268 -0.07158854 0.035407625 0.035312325 -0.025439428 -0.049232643 -0.07660493 0.07561922 0.037056603 -0.060759977 0.030401735 -0.06845768 0.07035888 0.050558362 -0.049857933 -0.059100717 -0.02049299 0.06488307 0.022825837 -0.03015453 -0.0638917 0.050201483 -0.06653155 -0.027379554 0.040984817 0.07275552 0.058614034 0.030225318 0.07654093 -0.053004995 0.024406807 -0.06521249 -0.06617109 -0.049532507 -0.07392522 -0.052218385 -0.0792581 0.03536542 0.05640434 -0.07046469 0.06524862 -0.06171701 0.027494797 -0.042010374 0.053819153 -0.060719535 -0.032307744 -0.02786211 0.054968826 0.04769717 -0.07775328 -0.07085648 -0.06989818 -0.03188472 0.033985484 -0.037059404 -0.041443788 0.031337038 0.07192525 -0.040302098 0.060834356 -0.04433958 -0.025480391 0.035907794 -0.05256794 0.054144174 0.057437208 0.05576803 0.0760458 0.07516655 -0.036077723 -0.070132606 0.042187057 -0.038456727 -0.06329631 -0.074637 -0.06507132 0.07266032 -0.041418158 -0.075844884 -0.038747083 0.04491412 -0.06214486 -0.06719376 0.042870726 0.05648892 -0.057911295 -0.058029126 -0.060748722 0.07595842 -0.04283433 0.047705166 0.053620398 -0.061794534 -0.048989024 -0.04025752 -0.07264055 0.0560596 0.075295754 0.05711337 0.06441445 0.06910368 0.06648671 -0.06257038 0.043144964 0.066900164 0.047747824 0.0720326 -0.047710888 0.026989933 -0.066390865 0.048708163 0.07377666 0.06860771
297 0.02142584 -0.03509609 0.0002771587 0.00064114557 0.014368579 0.0153375575 -0.03433413 0.00019878775 -0.030370323 4.7496098e-05 -0.030181358 0.03080947 -3.9568564e-05 0.017640892 0.019200332 -0.0012253502 -0.029687272 -0.0129890675 0.01614686 -0.038172666 0.0003483424 -0.00021999437 0.028287088 -0.035437375 0.035628114 -0.009018372 0.00056785217 0.006182279 -0.030073566 -0.00033090165 0.009633787 3.1963995e-05 0.0068382644 -0.00042827573 0.013210166 -0.0026605485 0.0066945036 -0.0022063148 -0.033603787 0.039235774 0.0023807539 -0.0027233018 0.00052608625 -0.031604696 0.0030268482 -0.01912933 -0.01130987 0.013471357 -0.00050931826 0.0018863231 0.0052787615 -0.0026565623 0.026100483 0.005901362 -0.015972555 -0.016344896 -0.036074262 -0.018623741 -0.015977748 -0.00042151613 0.002598517 7.926735e-05 -0.022327103 -0.0019028736 -0.011579841 0.04015989 -0.036986563 -0.00087863964 0.031853445 -0.0026341213 -0.00038494676 0.003271441 0.024401758 0.022740502 -0.03661332 0.037534703 -0.033682007 0.005411058 -0.027521895 0.037978966 0.02997458 0.00064043194 0.010338576 0.0024550112 -0.02738723 -8.303556e-06 0.017362555 0.01565593 -0.03312852 -0.015747553 0.022216141 -0.0026806747 -0.02420044 -0.020937942 -0.0018318753 -0.023302587 -2.6282127e-05 0.037949547 0.003165375 0.028086368 0.026158862 -0.032322343 0.00077202055 0.031170864 0.0014154103 -0.017048068 -0.0027764463 0.0053899027 0.020115027 -5.777384e-05 -0.018893035 0.0013266965 0.031973757 0.03359611 -0.0027180295 0.0018022604 0.011581128 -0.03948768 0.0009000662 -0.038536787 -0.019245991 0.017933983 0.0013192985 0.006265238 0.017934542 0.0119454935 0.026966538 0.027045492
294 0.01923537 0.036558513 -0.03347904 -0.0139232855 -0.012191389 0.04737406 -0.068761915 0.0036362517 -0.028525036 -0.07123613 -0.030936899 0.032076813 -0.079156324 0.01758179 -0.049803484 -0.05129017 -0.003876004 -0.07651033 0.04797556 0.035325207 0.06673362 0.015397919 -0.074286625 -0.06486722 0.07771654 -0.020879507 0.023074528 -0.032087564 -0.024757234 0.05478018 0.050468754 0.04404144 -0.010672281 -0.036993742 -0.020082971 0.01836397 -0.054460146 -0.045940343 0.056716934 -0.015414672 -0.02890797 0.022643372 0.034712054 -0.069900684 0.030076884 0.043699626 -0.04442788 0.05850835 -0.018110802 -0.016569667 0.074064635 0.076624185 -0.036207065 -0.013199856 -0.06520329 0.042021252 0.002884402 -0.0062047755 0.015766691 0.038264863 0.043917213 -0.07548786 0.03804763 0.07014397 -0.02691064 0.039891563 -1.9003055e-05 -0.03864262 -0.07397026 -0.04534269 -0.025199795 -0.0355532 0.03032608 -0.0062692156 -0.056646362 0.03599758 0.020204682 -0.059506096 -0.0066052983 -0.0056544854 -0.037343945 -0.0016705983 0.07630772 0.071458615 0.043057542 -0.032273065 -0.020579379 0.06512435 -0.0336262 -0.07744084 0.011659583 -0.026616283 -0.034672175 0.013071746 -0.03908262 -0.055329014 0.031689234 0.051786304 0.01591457 -0.0027652732 0.05986129 -0.024552118 0.05335132 -0.04867824 0.035484646 0.042802572 0.07224634 0.012230269 -0.051507536 -0.036150172 0.02945303 0.03859715 -0.052368347 0.04727295 -0.0684684 -0.03042058 -0.07242547 0.06134421 -0.070426814 0.0266468 0.03067293 -0.015745789 -0.025513532 0.079345904 -0.06753108 -0.05324759 -0.030215915 0.018181799
295 0.027155913 0.0020942923 0.06772693 -0.02011817 0.024184017 -0.04360197 0.0066717956 0.04131626 0.03740028 0.025040051 0.028474262 -0.040688176 0.010861317 0.044771038 -0.0581829 -0.004826211 0.045685265 0.023797398 -0.014672031 -0.06587911 0.02174215 0.029081551 0.052020807 0.07545813 0.017037807 0.05618689 -0.05586332 0.011800813 -0.03694686 0.03161829 0.0077169714 -0.036067463 -0.025135655 -0.00094017445 -0.024335451 -0.06950775 0.02662442 0.028166868 0.0012425082 -0.050745793 -0.027320197 0.069598466 0.004457447 0.031428665 -0.042698823 -0.056476388 -0.041233096 -0.056680888 -0.0067505124 -0.05380209 0.060267076 0.021236002 -0.062570736 -0.020075629 0.008595567 0.05467937 0.04949914 0.06474867 -0.01730687 -0.041092332 0.07366409 -0.00067678804 -0.02208879 -0.036972918 0.0064573046 -0.060405593 0.05660193 0.005857191 0.08028243 -0.057065897 -0.037614685 0.07020807 0.07614108 0.07704876 -0.003285998 -0.024785062 -0.053985924 0.06719847 0.050114747 -0.009551114 0.077682905 -0.05713155 -0.0125793945 0.035068538 0.031822897 -0.043631423 -0.023612097 0.02227751 0.05473615 0.073867545 0.01307672 0.0023327423 -0.015242622 0.0043626945 -0.076659836 -0.04645396 -0.069646046 0.048915345 -0.08072503 -0.06518507 -0.013278119 0.021551494 0.04695192 0.024462821 -0.020634074 -0.0075351847 -0.008454211 -0.03184045 -0.07377244 0.0141912615 0.056970134 -0.026642041 0.001211418 -0.07973475 0.059045278 -0.01021207 -0.023259854 -0.01777349 0.07452053 0.080105826 0.076382786 0.008198112 0.051388733 -0.059621252 -0.025337754 -0.050552543 -0.036770232 0.044539697
292 -0.008908922 0.0062075905 -0.050044663 -0.043276966 -0.06100209 -0.0025100128 0.031239547 0.026989125 0.08007403 0.08041998 -0.066916965 -0.035969142 -0.024741624 -0.054336164 -0.041996446 -0.06582792 -0.048387896 0.03362023 0.025809888 0.043755606 0.04135271 -0.07777668 -0.033058617 -0.061200198 0.054353338 -0.009461429 -0.00061335904 -0.07673171 -0.044051502 -0.015046132 0.0440776 0.018806906 0.072918884 -0.023540316 0.060082383 -0.009438691 -0.018338818 0.018816791 -0.023557061 -0.07115963 0.03344105 -0.010706735 -0.009538468 0.078407384 -0.072624154 0.01847053 0.010553308 -0.011919393 0.018689696 0.071908325 0.019625792 0.014277171 0.061600436 -0.028919082 0.006505695 -0.05265277 -0.06232304 0.03634287 0.034017675 0.041409116 0.079083785 0.03231232 -0.040195808 -0.04173807 -0.0017339757 -0.056192808 -0.06700939 0.06853411 0.013205093 -0.04701773 0.029200966 0.06963332 -0.05960518 -0.06026965 -0.06108952 0.03352672 -0.0806761 0.069256894 0.03050792 -0.009378074 -0.025069492 0.020725902 0.066049084 -0.028087974 -0.044688664 0.046514846 -0.024658212 0.051819682 -0.006252606 -0.03819678 0.04396579 0.033429135 0.0077997763 0.0067861388 -0.07906088 0.005468867 -0.052083403 -0.068144545 0.038308024 0.06977722 0.067361854 -0.074257396 0.027122922 -0.0024155034 -0.015797 -0.023129147 0.04691538 0.06843011 0.014373033 -0.055621754 -0.07811932 0.049578797 0.028696783 0.021246588 -0.048379827 0.0021266583 -0.062848784 0.044067156 0.0731691 0.023331014 0.05474116 0.05026193 0.040800314 -0.00794716 0.014055716 -0.007677844 -0.08019086 0.070933804
293 -0.036080137 0.06671669 0.06019946 0.034654535 0.005772553 0.014192266 0.00037674035 -0.0019142882 0.03225485 0.02700132 0.0116322115 0.04256708 -0.07092944 0.040539656 0.0704909 0.04347546 0.06342495 -0.040880423 -0.022255747 0.037313655 0.05403117 0.04040536 -0.07863472 -0.015503031 0.017433101 0.05605045 -0.04432032 0.07174428 0.037220996 0.013928544 -0.042526953 -0.024851607 0.03415978 -0.001543129 -0.055031322 0.049467508 -0.0071964236 -0.018380385 -0.018315047 -0.052211095 0.0059446213 -0.076907836 -0.05986684 -0.027597247 -0.016824111 0.027355514 -0.03647127 -0.033958953 0.04958215 -0.00021786208 0.07193383 -0.0121393595 0.03267747 0.0717375 0.006507943 0.004077125 -0.0052672024 0.04942809 -0.035240065 -0.05830757 0.046278212 -0.02176029 -0.018316904 0.0013685822 0.006422384 -0.054563235 0.053601246 0.0682488 0.08112619 0.025545442 0.079414666 0.032332886 0.01625861 0.06053602 0.012799749 0.031905692 -0.08047131 -0.021699546 0.055397496 -0.028356943 0.039376575 0.028172841 0.046805035 -0.049426954 0.079362005 0.0019042726 0.06482272 -0.015794048 -0.073532924 0.045635812 -0.06902305 -0.011787932 -0.028457101 -0.043687508 0.076401554 0.030075533 0.011233031 0.07531688 0.022737877 0.031305984 -0.0495072 -0.0028545978 0.021450048 -0.04598706 -0.05296038 0.06458749 -0.04190295 0.011083674 -0.014927259 -0.053478155 0.027374784 0.048827056 0.012894949 0.07612923 -0.017765528 0.031799186 -0.004899717 0.054403972 0.035191827 -0.055779733 0.0021707455 -0.032455374 0.0016707643 -0.041839335 -0.038822573 -0.07332647 0.013240754 -0.00568402
290 -0.038922302 0.0780309 -0.04805283 0.022274645 -0.064802 -0.056777697 -0.035618752 -0.077981114 -0.050729513 -0.055290475 -0.05595596 0.0089458795 0.07014474 -0.07387599 0.040069938 -0.02678008 0.020516483 0.034541197 0.017921463 -0.023938987 -0.047146354 -0.0444989 0.016774686 0.07367269 -0.008162867 -0.0072365464 0.017433114 0.020016413 -0.06159655 0.07929555 -0.008591748 0.0076011317 0.008311556 -0.080912925 -0.050826706 -0.036175724 -0.01899963 0.05929735 0.070879966 -0.059290674 0.009315561 -0.013558964 -0.0050778817 0.049734496 0.071789406 0.0075930394 0.07563344 -0.064403035 -0.061809108 0.072968796 0.08136099 0.056299243 0.017747298 -0.021262562 -0.013106725 -0.014455935 -0.038616553 0.014346698 -0.0033344785 -0.014656326 -0.068392836 0.017437318 -0.0046029035 0.018575901 0.001263893 -0.0647921 0.039931424 -0.07188061 0.07252612 0.036457524 -0.0200396 0.037685752 -0.057791173 0.07841718 -0.039118614 -0.043612964 -0.07644068 0.026919698 -0.06854003 -0.032584928 0.009094216 0.008115116 0.04307634 -0.018945877 0.049214695 0.011410742 -0.04862934 0.054778684 -0.0112662045 0.009125933 -0.07279572 0.022118364 0.029011786 -0.0005286816 -0.023829412 0.052614763 -0.0017208585 0.033864405 -0.079427615 0.06200423 0.045254003 0.050495684 0.026687516 0.07788866 0.01415011 0.05049625 -0.006762579 -0.043594975 0.0068451506 -0.07007502 -0.04180731 0.0006356556 -0.043462507 -0.06798583 0.017143346 0.038097356 -0.079059154 0.006823599 0.00067875563 0.024092395 -0.07698253 0.028775226 -0.07065197 0.017519576 -0.01865281 -0.052097596 -0.0630829 0.0134348925
291 0.0046435655 -0.036912557 0.0024489404 -0.027250696 0.0012895638 0.00076264696 0.0014002046 -0.014798695 -0.024833024 0.03400815 -0.014668954 -0.01720082 0.014310811 -1.0677759e-05 -0.0062189745 -0.025033116 0.0020728207 0.000825643 0.016347475 0.019088164 0.0025919606 -0.021331636 -0.003686323 -0.015385449 -0.033113487 0.018572474 -0.028270692 -0.0025936216 -0.008617147 0.016933218 -0.032495517 0.029778332 -0.008513523 -0.00040791277 7.0129696e-05 0.0052188807 0.032416545 0.017800957 -0.025122289 0.036375813 -0.00094206026 0.032383077 0.0010973283 0.011837357 0.02954819 0.038403843 -0.04002438 0.010816996 0.025124114 -0.00182105 0.005149071 -0.04073664 -0.03907888 -0.034754228 -0.001682807 0.017882774 0.0020690036 -0.006154342 -0.0012515918 0.027467059 -0.03588184 -0.03236233 -0.025465844 -0.0011804611 -0.00020947299 0.012629362 0.031976547 0.00019286462 0.03093513 0.0314779 -0.039819818 0.014553716 0.032892127 0.036737025 -0.02956831 -0.00245482 0.011540403 0.03316544 0.00848498 -0.001985855 -0.016344689 0.0010667507 -0.037127722 0.0014862064 -0.0045415703 0.00074333325 0.034296647 0.037469756 -0.02120336 0.004273714 -0.0026609448 0.0031606639 -7.811433e-05 -0.030248635 0.0020729757 -0.02636532 -0.032255523 0.0062281825 -0.0050545456 0.00041875505 -0.014231848 -0.00272794 -0.007908675 0.00014891813 -0.036022533 0.0027189022 0.017968725 -0.0026279385 -0.023323905 -0.009864284 0.016355835 0.016588423 0.027473675 0.01748619 0.016342277 -0.0003894642 0.0017286064 -0.035114206 -0.032511678 -7.861518e-05 0.024691217 -0.002668348 -5.3037176e-05 -0.023647232 -0.03451067 0.015191326 -0.031569365 -0.001931748
270 -0.08117066 -0.028428704 -0.01238815 -0.057167947 -0.02056246 -0.023032565 -0.03130694 -0.0374194 0.027021796 -0.055872973 -0.041281853 -0.06133857 0.00015700262 0.04127563 0.024489613 0.05190736 0.03685642 0.071756534 -0.04153459 0.014163212 0.05107534 -0.075949706 -0.040396653 0.07400115 -0.031812463 -0.0578974 -0.030180342 -0.032029424 0.025317956 -0.038764663 -0.0773534 0.0037140124 -0.026583964 0.059268918 0.034856185 0.036687672 -0.016960774 -0.06075704 -0.026973724 -0.003512519 0.0368424 -0.038607452 0.0546747 -0.032118835 -0.061545663 -0.07398446 -0.021672761 -0.07547372 0.07856645 -0.02156708 0.044725 0.0427613 -0.040008046 -0.06731396 -0.026169537 0.018026136 0.06292849 -0.016044531 -0.06829011 -0.051601768 0.030702293 0.06177091 0.060051434 -0.058762353 -0.014157442 0.077080056 -0.023794657 -0.053829324 -0.015523318 -0.037654612 -0.046772867 -0.036773693 -0.026056888 0.016594328 -0.055598814 0.014475403 0.05228387 0.0038423091 -0.051289566 0.07924524 -0.04967673 -0.07138928 -0.02460219 -0.06795515 0.043573223 -0.06656077 0.009591383 -0.03724005 0.019270627 0.012526105 -0.06405536 0.037134286 0.042138346 -0.028751083 -0.06895881 0.06520242 0.037245803 -0.0030494784 -0.03382076 -0.041138504 0.052797675 0.035028532 -0.06678321 -0.017318083 -0.023008779 -0.027821971 0.020514924 0.04032836 0.0074075996 0.02682148 0.018113837 -0.012855842 -0.024069207 0.0012350242 -0.014223299 0.029585045 -0.07261136 -0.01606166 -0.023386536 0.020809313 0.03621827 0.055016823 0.0296804 0.06437445 -0.019589854 0.05316821 0.050838374 0.0721979
271 0.04007984 0.02340272 -0.015071193 -0.069760785 -0.04487552 -0.023853598 0.002502058 0.05121197 0.07641359 0.008636103 -0.05915419 -0.01623369 0.026007919 -0.07755032 -0.038127296 0.034502283 0.08077106 0.018023722 -0.06507339 0.000288449 0.004580236 -0.025759451 -0.045772526 -0.07386225 -0.02577885 -0.011889376 0.0065115956 0.025459003 -0.026367158 0.06576182 0.011433784 0.049067352 -0.07179049 -0.0073125665 -0.0005154542 -0.025399163 -0.044583566 0.035541452 -0.026461741 -0.058531873 -0.016256569 -0.0151915895 -0.046864122 -0.071530156 0.017961686 -0.009992215 -0.0027848184 -0.029280076 0.010581952 0.008231666 -0.012487898 -0.053339813 0.07057587 0.034268804 0.03967704 -0.049620766 -0.02757217 -0.049644046 0.058418173 -0.0169761 -0.046402175 -0.028324105 -0.0035814496 0.011322405 -0.024968345 -0.014554182 0.013365542 0.054650642 0.008920882 0.032291207 0.012734364 -0.0011439987 -0.067477874 -0.07771063 -0.028969236 0.0118308505 0.02407629 0.07906926 -0.02540139 -0.01385266 -0.048586477 -0.012204883 -0.008265888 -0.062866464 -0.06402258 0.028590413 -0.04247892 -0.040964987 0.022973567 -0.051965054 -0.065249816 0.01964585 0.04764578 -0.03985075 -0.05634119 0.024467586 -0.020217914 0.032759994 0.022969816 0.059211515 -0.013801925 -0.07814051 -0.06618551 0.0062399507 -0.07636135 -0.05915381 0.050501324 -0.03705997 -0.028451927 -0.07999719 -0.014007829 -0.020870896 -0.002148332 -0.010273683 0.0028479332 0.050680324 0.033913605 -0.048236538 -0.07384157 -0.060594495 0.011940355 0.07705318 0.03542042 -0.025971074 0.038524244 -0.031920046 0.03224421 0.024665922
272 0.024820099 -0.0019332111 -0.014173806 0.019229028 -0.0004754991 0.00252649 0.0019102067 -0.0032432335 0.01884891 0.00195281 0.033782534 -0.01497474 -0.0405582 0.029374499 4.9149006e-05 -0.025632031 -0.0004808484 0.040779557 -0.011780548 -0.03645894 0.015809687 0.031546924 0.0065893778 0.002639569 0.036885757 -0.013011202 -0.030064259 -0.032675326 -0.0022732264 0.02839973 -0.002359007 -0.039878026 -0.011099417 -0.030701088 0.02804541 -0.030191757 -0.007952478 0.0019953728 -0.0023630313 -0.039890565 0.0015834644 0.00012259991 -4.332469e-05 0.010865437 -0.0007531852 -0.014837946 0.018075876 -0.01331353 0.028746368 0.03283664 -0.016874487 -0.0004792991 0.03786849 0.0025031588 0.022420261 -0.040720403 0.00015678718 0.011805432 0.015527112 -0.016409464 -0.0024856774 0.0016325433 0.0007717272 -0.005862051 -0.036665298 -0.016025888 0.02026417 1.3524259e-05 -0.0074202633 -0.007630604 0.0031035002 0.012179216 -0.010628751 6.858754e-05 -0.0013859819 0.035507597 -0.037077412 -0.03473895 0.0027178982 0.011822495 0.027712837 -0.00029198208 0.03484907 0.0014648256 0.0018253792 0.014526099 -0.017819414 -0.017690731 0.039606 0.038907796 -0.03656771 -0.0027239434 -0.0010920643 -0.000104352 0.024390075 0.001042271 -0.00027821003 -0.033003006 -0.00090903376 -0.00014096138 0.0027292129 0.0017067712 0.025827656 -0.002647705 0.002692307 0.03878425 -0.027053593 0.015833652 0.0026303756 0.013550992 0.01347092 0.0008424291 0.00050042156 0.026265439 0.021738311 -0.0025865913 0.0024124132 -0.0027290778 0.0058452426 0.0055479584 -0.00016965739 0.011592198 -0.016271437 -0.025574237 -0.0026426048 -0.0026388043 0.0056204665 0.0026377025
273 -0.01691677 -0.0019271221 -0.039842993 0.033302743 0.0009737813 0.0023560605 -0.014257995 0.031000776 -0.0010052277 0.007397364 0.036207046 0.013673259 0.00051940174 0.033775404 0.026775701 0.0132398475 0.032078385 -0.03249388 -0.0027289633 -0.0019428018 -0.0034271553 -0.001611588 0.031271257 0.021781294 0.010907306 -0.0055825887 -0.009011912 -0.00019332358 0.021019114 0.016091866 0.0015071825 0.031921025 -0.023341956 -0.0021788755 0.0054524634 0.00090211385 -0.031749293 0.0023835348 -0.0015810623 0.007124136 0.03338367 0.0025620724 0.025908478 -0.00010064636 0.0007639251 0.0019134291 0.01209129 -0.007893905 0.002722139 0.0019211632 -0.036495924 -0.03733798 -0.030584935 0.0011963035 -0.020915417 -0.0026967188 -0.03544409 -0.009926974 0.0026955921 0.0012570422 -0.036445655 0.029808944 0.00045096414 0.0074632466 0.002720997 -0.0018149209 -0.0027023102 -0.01406589 0.0020178687 0.00089464436 -0.0013510326 0.002039538 -0.00088936393 -0.0054913997 0.012877288 -0.014179174 0.03456325 -0.019983687 0.0009064955 -0.009057481 0.03895192 -0.02086255 0.0053012893 0.022955604 0.0001185773 -0.0007572456 -0.014224809 0.023734592 0.0023690648 -0.00018566885 -0.026134675 0.011010837 -0.0012477974 0.02992213 -0.008258498 0.006514302 0.0027291756 0.0026318405 -0.033069663 0.00026912257 0.0015777955 -0.0045472872 0.0026046904 0.018551044 0.0055928025 -0.0052009462 0.013047826 0.001398463 0.0048640915 0.007759176 0.0023068339 0.00067608786 0.0020461674 -0.037540697 -0.00089638855 -0.017446883 -0.017748334 -0.020918759 0.0074905697 0.00066061306 -0.02404637 0.019781917 -0.0048467573 0.002729267 0.0023201988 -0.038861334 0.000991781 -0.004973533
274 0.025360297 0.0023062197 -0.00019301652 0.0026825077 0.020201907 -0.0053227376 0.001445608 0.020421432 0.002099314 -0.027967826 -0.02756992 -0.013216266 -0.00010566287 0.008264543 -0.033773948 -0.0027199816 -0.0074543254 0.028133666 0.00040578394 0.017292062 0.0009210621 0.020244634 -0.028080996 0.0023279462 0.019975396 -0.0009011018 -0.0027292464 0.00022850659 -0.038009875 0.009190798 -0.029792858 0.0012390559 -0.018331304 0.010247601 0.0041656387 -0.011495561 0.017563948 5.935054e-05 0.011637293 -0.006144706 0.004724729 0.028266685 -0.0023419072 -0.02328737 -0.015359213 -0.017833618 -0.030868322 0.0025097395 0.0033709125 0.027863994 -0.0027231942 -0.0019268682 0.038637623 -0.005655045 0.015350869 0.004596998 0.00081076095 0.010018087 0.031548202 -0.0023411594 -0.03943695 0.0012383697 -0.0015444248 0.037656937 -1.7255748e-05 0.00050080055 -0.0023133608 0.0026063717 0.0066607497 0.0012554498 0.0065811365 0.0026979519 -0.01598499 0.028281145 0.040393118 -0.0024570096 -0.000923435 -0.02095338 -0.02142685 -0.023258854 0.032138683 -0.0011886414 -0.038684517 0.0142611815 -0.008731838 0.023516431 -0.006831268 -0.003996153 -0.0024354625 0.011954087 0.0026626703 -0.021886962 0.00085035164 0.010814459 0.038122345 -0.02700813 0.0013096656 -0.010968371 -0.011792221 0.012574306 -0.03137383 -0.0062799416 -0.00023151244 -0.03909555 0.01649886 -0.031741973 -0.0026185329 -0.0019410935 0.0005569948 -0.0018587688 0.029686337 0.026136499 0.039522015 0.0004813019 0.00040960012 0.037123617 -0.00013533536 -0.023902053 0.00010084779 0.00042121857 -0.028377973 0.009250083 0.00043314265 -0.029090459 -0.029581128 0.0010612854 -0.0003909578 -0.0011103444
275 -0.045692742 -0.030686522 0.029144896 -0.04958286 0.057664204 -0.06268008 -0.045049977 -0.05963376 -0.07879944 -0.032312766 0.06945072 -0.042905375 0.0339469 0.07196698 -0.021312622 -0.047343533 0.025733495 0.034916528 -0.024624918 -0.07569362 0.026978917 0.020984672 0.075704515 0.024829688 -0.045685187 0.04201827 -0.033292275 -0.0475465 -0.07576286 -0.044204023 -0.03316584 -0.024483368 -0.040202428 0.058580052 0.07660019 -0.032393575 0.032389585 0.027734376 0.044630233 0.071988314 -0.049523927 -0.03861377 0.06644622 0.025313726 -0.05624591 -0.0269228 -0.03461181 -0.05013179 -0.039273348 -0.023045558 0.04283333 0.03075374 0.075985834 0.040139373 0.050718214 0.03666193 -0.05443834 -0.042576835 -0.07267635 -0.05478333 -0.03503112 -0.033956278 0.062495228 -0.07330556 0.07167103 0.025973624 0.055788588 0.04782456 -0.026186606 -0.020756455 0.06127241 -0.052938275 -0.052798692 0.051677503 -0.032583233 -0.021437578 -0.025475778 -0.03648136 0.0548676 0.061858155 -0.06739866 -0.06123592 -0.026999831 0.047747955 -0.067207314 -0.030061837 0.08024462 0.05974536 0.068010375 -0.055713665 0.03025665 0.075436205 -0.043625 -0.078966536 -0.036119133 -0.04869727 -0.079539225 -0.040740952 -0.07145738 0.045707244 0.060790084 0.061880898 0.0715409 0.047627933 -0.05879049 0.027694171 0.07787766 0.04734578 0.04341767 -0.036987342 -0.055407688 0.07141864 -0.035582572 -0.040146276 -0.07351875 0.04057274 -0.056007553 -0.029854747 -0.050754692 -0.04301697 -0.06878887 0.036358956 0.043501828 0.048875105 0.042259645 -0.05432497 0.058187615 -0.05017807
276 -0.0026580226 -0.012410051 -0.0050588087 -0.0015142375 0.038388763 0.01804597 0.0036230676 0.032385297 -0.033208974 0.0014452741 0.010981605 0.0008736936 -0.0018746452 -0.014461624 -0.0082284985 -0.013175247 0.035176057 -0.0017280106 -0.035515875 0.02997102 -0.002635552 -0.013956862 0.0013030418 0.039991017 0.012772331 -0.0023267649 -0.022597615 0.033368357 -0.00060622813 -0.03574511 -0.029735837 0.016962405 0.009857644 -0.00013520688 0.0002076397 -0.014355902 -0.03670681 0.030303493 -0.036537223 0.039253294 0.028217074 0.02755595 0.0052546766 0.0149100665 -0.0052741827 -0.013407811 -0.035729993 0.030133402 -0.00040692952 -0.000103030674 0.0030085759 0.0058524013 -0.024479253 -0.015174003 0.0022844812 3.1918564e-05 0.037138216 -0.0054025524 -0.021928847 0.0236633 -0.019903615 -0.01988167 0.035629094 -0.0024172214 0.019040044 8.076167e-06 0.020789905 -0.0027177827 0.0033584668 0.0054105567 0.00070361875 0.018895118 -0.03457258 0.028178275 -0.015778739 -0.0021861908 -0.0018169566 -0.0043966286 -0.0142922485 0.025973888 -0.00019400986 -0.034514662 0.0052157003 -0.03937999 0.0020914276 -0.034525115 -0.039455097 -0.02826846 -0.00081577414 -0.00040822383 0.014665709 -0.00039331257 -0.0019980853 0.038118493 -0.038818218 -0.00069245714 -0.007166084 0.0024634823 0.01192924 0.0012198312 -0.018518053 0.0020584166 -0.00073469273 9.8093355e-05 -0.017120302 -0.002023313 -0.0058670403 -0.016663734 0.025039406 -0.02694688 -0.03528361 0.00178449 -0.0022540467 0.0073425462 -0.03489563 -0.0025388298 -0.029950315 -0.022286564 -0.011216296 0.002359394 -0.032612666 0.00031246938 0.00090770365 0.020263234 -0.020495545 -0.022487886 0.00086600974 -0.021874953
277 0.0027262836 0.03524599 0.038867123 -0.026098885 0.0204507 0.039658915 -0.030126188 0.0022409305 -0.002648104 0.01752003 -0.0015467507 -0.033019543 -0.0008953562 0.0023448817 -0.0023705978 0.029306106 -8.2355604e-05 -0.02744137 -0.0026863997 -0.00054663804 -0.0006173667 -0.016645875 0.0054207845 0.0077070203 -0.016449232 0.033521004 -0.0023561371 0.00039176 -0.020391881 0.0013698289 0.004156144 0.00073867774 0.01607733 0.0009313067 -0.0012194946 0.031728145 -0.019429319 0.0047055343 0.0039715706 0.033946127 0.01579496 -0.027234213 0.013621247 0.001457897 -0.018594835 -8.994818e-05 0.03149504 -0.002465308 -0.024423238 0.010450783 -0.0012038865 -0.01474404 -0.002003288 0.005474763 -0.00010829262 -0.0021184883 0.0026811617 -6.028128e-05 0.008805291 -0.0013908362 0.0027118686 -0.011965757 0.028289242 -0.00038098646 -0.002450053 -0.0009946865 -0.0059039197 -0.0023948723 0.00038494047 -0.013418033 0.038380764 -0.015247363 -0.020177413 0.03244915 0.0024828624 0.009525668 0.0066445824 0.01919099 -0.016930576 0.0017439799 0.012235671 0.0163148 0.0049503194 0.00010208553 -0.037135787 -0.028445622 -0.03185339 -0.02720984 0.022744399 0.030018028 -0.01627881 0.024376255 0.023370247 0.022097204 -0.014269708 -0.00025263004 -0.04068289 0.027772438 -0.00032185268 -0.008798477 0.02505292 -0.029265739 -0.026557488 0.023842657 0.002500574 0.0025497829 -0.011240764 -0.0033058778 -0.0029928514 0.0006604072 0.03737141 -0.0021636405 -0.0045725573 0.013861219 -0.017949125 0.03529464 0.00021487966 -0.0061053103 0.037259437 -0.028431378 0.0006706352 0.0022816313 -0.0311935 0.033365507 0.017336508 0.0057341997 -0.0026581436 0.005749963
278 0.07398474 -0.06051491 0.046570834 -0.073793225 0.012527655 0.079326004 -0.014235923 -0.006261472 -0.009366942 0.004628253 0.06704326 0.0074142953 -0.05658492 0.03243028 0.019488147 -0.01660751 0.052197713 0.06092046 0.0067893304 -0.004511675 -0.014837141 -0.05252209 -0.07252937 -0.020205865 -0.02796088 0.010550415 -0.032698046 0.08036198 0.019420996 -0.0118790725 -0.06967351 0.043514997 -0.023880001 -0.034282017 -0.08037119 0.025462218 0.022421878 -0.056178257 0.024681669 -0.012279847 -0.004406216 0.05768763 -0.011921057 0.058084223 -0.037466016 0.049932834 -0.021061579 0.035001222 -0.03043502 0.015495526 0.05109429 -0.021985428 -0.04404052 -0.07310297 0.07778274 0.022662813 -0.037798915 0.036302038 0.025714763 -0.047312453 -0.055080716 -0.011747052 0.03863431 -0.025856135 -0.04905247 -0.022921408 -0.025353216 0.02935533 0.006149592 -0.031844683 0.0006517108 0.050039314 -0.015558265 -0.01895207 -0.02505364 0.07312575 0.03583475 0.0740236 -0.010282017 0.07002632 -0.034697898 0.0028483435 -0.025600981 -0.042923816 0.027989855 0.031865403 0.060477097 -0.05924621 -0.013641747 -0.014954737 0.024575554 -0.028403861 0.015561106 -0.009544187 -0.012721428 0.009745716 0.030937333 0.022806294 -0.00032063492 -0.04738556 0.07717622 -0.056132786 -0.018004932 0.012132107 0.07703601 0.045497272 -0.026083905 0.08014585 -0.07485571 -0.04545502 0.022669986 -0.031669702 0.01786357 0.008364493 0.0014479809 -0.013723102 0.044236843 -0.036810208 -0.0076043196 -0.0274567 -0.0053939847 -0.029573686 0.048117716 -0.014769011 -0.055706598 0.019675963 0.010696121 0.07624305
279 0.026319284 -0.017545842 -0.06338922 0.005817024 -0.053664304 -0.018641256 -0.07285488 0.06638418 0.03415598 0.055150297 0.035506718 0.036453813 -0.08018767 -0.02667214 -0.04511373 0.05603431 -0.0107937185 -0.06603564 -0.022836251 0.04829597 0.068071395 -0.03330447 0.006240884 0.018644383 -0.036993448 -0.073263325 -0.025737423 -0.024207931 -0.046600576 0.034246173 0.04679262 0.041250642 -0.037745286 0.00937615 0.056871578 0.017671369 -0.010358417 -0.06362054 0.00383806 0.07420421 0.034833264 0.058634408 -0.06403529 0.03027367 0.010101721 -0.00564553 0.066547826 0.056884933 -0.049657967 0.023740973 -0.0033673272 0.0543865 -0.04605553 -0.0230178 0.0078875655 -0.07254139 -0.07196733 0.06760808 0.0471197 -0.014360732 -0.017616063 -0.075896025 0.016684672 -0.005735575 0.017052224 0.030484851 0.06706564 -0.041306812 -0.056085393 -0.035298012 0.052958515 0.058500897 -0.05372374 -0.029120734 0.06428157 0.0050115846 0.02451443 0.025021017 0.044958472 0.077746145 -0.045298144 -0.06889592 0.06701019 -0.009488952 -0.050659955 0.021569762 0.022859579 -0.07075973 0.006438528 0.022599628 0.03221213 -0.004074258 -0.020636268 -0.0066667628 0.02152966 -0.07306267 -0.079074875 0.016048554 -0.004993061 -0.07202172 0.019402452 0.049101602 -0.038849235 -0.03859551 -0.058005095 -0.015687704 0.06871599 -0.063840084 0.068348415 -0.06809112 0.010708776 0.01390083 0.06857605 0.023338525 0.0707599 -0.024109896 0.015077028 -0.0066690305 -0.0020127275 0.02137301 -0.045463864 -0.0027957973 0.017764963 -0.04874842 -0.030135458 -0.030896595 -0.0388411 -0.061305936
108 0.06428588 -0.07251049 0.0008318053 -0.010979729 0.0736514 0.040600244 -0.07808378 -0.068767935 -0.02208962 0.0024616485 -0.056700245 0.055361047 -0.061583433 -0.04900177 -0.00024336216 -0.026289372 0.0037375132 -0.047997106 0.024376716 -0.06719684 0.037997942 -0.04641994 0.02662005 -0.0017626921 -0.07823995 -0.0792209 -0.03595376 -0.008187948 0.043803915 -0.07488032 -0.0737161 -0.04263014 -0.0019553383 0.012800863 -0.05968567 0.031115416 0.07946708 -0.06457853 -0.018147724 -0.038862385 -0.048628073 0.021510797 0.0064523146 -0.010171704 -0.051306956 -0.023929846 -0.067465685 -0.0014787515 -0.030410534 0.012846156 -0.066736095 -0.004885884 0.005598611 -0.053245407 0.060806364 0.054042455 0.046966713 0.033494886 -0.019653386 0.0013695305 0.07075299 -0.031553235 -0.03265106 0.06414077 -0.01231459 0.08071856 0.07862404 0.015762273 0.03893213 0.07998627 0.021568716 -0.07182874 0.06764678 0.031378366 0.034766883 0.06560844 0.0074122427 -0.037573755 -0.07609028 -0.020276941 -0.008090725 -0.011578627 -0.039405737 0.035290383 -0.0050143832 0.022081785 -0.023384493 0.0347413 -0.01381972 -0.07480547 -0.08030096 -0.054249883 -0.071058035 -0.07940224 0.03929208 -0.0724429 0.051049 -0.041696817 0.07177351 0.02449913 -0.054640695 0.07712793 -0.07971505 0.05747618 0.04045418 0.04758128 0.0639283 -0.07473345 -0.044573106 -0.06592113 0.029725244 0.016718782 -0.05815116 -0.06356896 -0.06904434 -0.057976525 0.07251583 0.075881444 0.028614067 -0.06796882 0.033940546 0.008529962 -0.029407382 -0.025131412 0.03461938 0.021593109 0.072125725 -0.014789684
109 0.074041516 -0.06458587 -0.00038839458 -0.012115088 -0.07925586 0.07105952 0.040102974 0.057083577 -0.036195397 0.040088106 0.06618629 -0.017068624 0.049291108 0.026201278 0.06998937 0.04377662 0.04753977 -0.07844209 0.0784277 -0.043123912 -0.03783668 -0.03892475 0.010940221 0.0335017 0.05782049 -0.014971338 -0.017483773 0.0388523 0.07289744 -0.07557391 0.0073583983 0.032054517 -0.009393205 -0.012792227 -0.05886566 0.0037234568 -0.059948463 -0.020726763 -0.017259147 -0.038616672 0.0032564108 -0.040089466 0.014508703 -0.07140864 -0.028146507 -0.0018803448 -0.023992306 0.048994467 -0.021440282 -0.031245178 -0.030890606 -0.0017810514 0.019942345 0.07381937 -0.032548316 0.03190703 0.00436427 0.019442495 -0.024132244 0.0579413 0.05276198 0.025499942 0.03987026 -0.030799676 0.037447713 -0.016488446 0.034244686 0.013988675 -0.023943212 -0.024984745 0.052653797 0.06514323 0.023710664 0.003704636 0.02795304 0.035376526 0.010804127 -0.007650606 -0.024145594 -0.029817004 -0.004975049 -0.03467473 -0.012953513 -0.054250248 -0.0030526724 -0.00015754998 -0.015691709 0.059337795 -0.02785362 -0.048717856 -0.032946445 0.058107972 -0.0311313 -0.041709468 -0.029202584 0.036023803 -0.043111075 -0.011898331 0.0014902898 -0.020202015 0.01793559 -0.041792035 0.04337072 0.040616706 -0.013419217 0.02447594 0.06777534 0.018775241 0.04135066 -0.036391854 -0.015431339 -0.05717894 -0.020852838 0.008679964 0.023391627 0.037991233 0.0010211401 0.0067865034 0.04310205 -0.04239297 0.040771477 0.0020479774 0.032943852 0.015710235 0.034694966 -0.06727899 -0.06402022 -0.074823245
102 0.06536699 0.019056944 0.059323408 -0.034487695 0.03731867 -0.031149954 -0.034226958 0.079141505 -0.032339144 -0.069784254 0.013399037 -0.026289562 0.057292297 0.0056614554 -0.030633865 0.00965303 -0.011349209 0.028283814 0.004864075 -0.07744934 -0.023057042 -0.06085279 -0.058089994 -0.013676618 -0.054140452 0.0394538 -0.07003567 0.005689062 0.019639716 -0.008539666 -0.05409841 0.015626056 0.020386754 -0.026998444 -0.021288438 0.077305965 -0.011465527 -0.03271548 0.06865114 -0.017381841 0.014960318 -0.010106929 0.016004033 -0.030082019 0.0120250145 0.008678058 0.025885034 0.04289908 0.0691342 -0.05317952 0.06788462 -0.053441685 -0.0075150398 0.038153097 0.004578176 0.009083105 0.060478993 0.05932972 -0.07052898 0.0062064156 0.06527618 0.040109217 0.035331797 0.030507945 0.006748511 -0.002055429 0.008509815 0.018102113 -0.019015148 0.055754494 0.032474484 0.051797204 0.061182104 -0.07613859 0.012215464 -0.027339932 0.0734427 0.03171899 -0.07399161 0.023883719 -0.033515453 -0.07020079 0.053015172 -0.02361118 -0.035242017 -0.009356025 -0.0064712046 0.054408874 -0.040650573 -0.028616143 0.06049764 -0.010741079 -0.012347931 -0.032816082 -0.023029966 0.0036581038 -0.010242881 -0.015206157 0.03223894 -0.08064725 0.050430935 0.034180753 -0.009639885 0.018424043 0.039637037 0.06414243 -0.002276654 -0.039896775 -0.036283497 0.030012788 -0.03771906 0.0005978277 0.03435854 0.07604998 0.027261436 0.02279816 -0.01104095 -0.019607859 0.011110173 0.061423622 0.040524546 -0.017157486 -0.035647616 -0.021555888 -0.0040403297 -0.02426136 -0.03716349 0.02686153
103 -0.05983316 0.07995022 0.020470042 -0.02752491 0.0532754 0.02535873 -0.065141395 -0.03263364 0.07775708 0.050076306 -0.015891233 -0.06385964 0.0018666846 -0.007296689 0.08085966 0.027242819 0.06735399 0.04691129 0.06836536 0.0659718 0.018642733 0.053435467 -0.07457595 0.05878719 -0.03792129 0.012564915 -0.045480307 -0.068642214 0.062426545 0.01812875 0.048878055 -0.08083181 0.021777034 0.03155418 0.0012294616 -0.028255241 -0.07348671 0.05426692 -0.035871167 0.011465494 -0.030710336 0.025013197 0.058902353 0.07115593 -0.034715116 0.06395879 0.04631826 0.03202845 0.03709722 0.0050534597 -0.071901836 0.010647061 0.050803307 -0.0159216 0.007267601 0.040654298 -0.013915646 -0.031702552 0.07064788 0.07266587 0.007171467 0.07282019 0.05919203 -0.06504187 0.07014186 0.0676592 -0.02224496 0.0017233972 -0.041188344 0.028149087 -0.012861193 -0.018657206 -0.075919956 0.07387972 0.06867551 0.07247688 -0.07658325 -0.06315815 0.033451807 -0.023091063 -0.031868976 -0.02873052 0.011990159 0.06518044 -0.012673258 0.018009908 -0.048048913 -0.047996312 0.026199825 -0.051672284 0.058414157 -0.076547384 0.02646564 0.071306415 -0.0039882683 -0.06751143 0.03371501 -0.026754925 0.03649299 0.038042378 0.017264958 0.0109600965 -0.016924605 0.057093214 0.08115812 -0.043529794 -0.0707881 0.041915096 0.030037329 -0.06445907 0.036425203 0.050935432 -0.074627765 0.029897716 -0.03544712 -0.034381773 0.008099898 -0.01249617 -0.044546302 0.013169243 0.07445661 -0.057443805 -0.0580326 -0.042280886 0.038297392 0.042332385 -0.066066965 0.01784485
100 -0.017886747 -0.019431336 0.021426693 0.068744816 0.024891384 0.024909109 -0.06426502 -0.03480828 0.073986515 -0.0355312 -0.017594049 -0.06294426 -0.019587895 -7.2136114e-05 -0.036156368 -0.034632277 0.052293018 -0.020706948 -0.0160665 0.041495614 0.028841695 -0.01685515 -0.033645444 -0.037303384 0.06199669 -0.0104673095 0.0028003133 -0.0524582 -0.003500135 0.004198573 0.030928038 -0.0028940495 0.057817377 0.039879795 -0.03973554 0.026148973 -0.04090539 0.040427286 -0.044284508 -0.007419086 0.021193136 -0.06471362 -0.066815816 -0.04867071 -0.028725576 -0.024196984 -0.01122882 -0.036938168 -0.06471378 0.0010203377 0.028579544 -0.008374755 0.05240756 0.04665741 0.005551366 0.014711778 -0.06330237 0.013671267 0.03881842 -0.033615217 -0.061671842 0.026185613 -0.03343293 -0.021269433 -0.01353512 -0.0019792626 -0.022974487 0.006440044 0.05365278 0.017644342 0.038445853 0.044229984 -0.036834 0.011983617 0.044059977 -0.036807127 0.014771699 0.04423529 0.05689228 -0.039963476 0.012854863 0.062983535 0.00614682 -0.01780863 0.024350327 0.01876219 -0.059302285 -0.05434268 0.07259477 0.00071643246 0.071691774 -0.027669815 -0.021972567 -0.030483913 -0.06844896 -0.02465339 0.023660665 -0.06974314 -0.016106116 -0.0018926292 0.010835096 -0.008626336 -0.050003797 0.04192096 0.032759167 0.06280291 -0.04740114 0.076179326 -0.03411059 0.016166653 0.027383458 0.035745732 0.023919681 -0.041119687 -0.0040511778 0.059019625 -0.013551199 0.02595699 0.02583151 -0.006668454 -0.0013692527 0.04867873 0.05028269 0.062915266 -0.0029276977 -0.057438504 0.020322101 -0.003553636
101 0.06619379 -0.053968787 0.0099739935 -0.065132685 0.042473484 -0.03905322 0.049639285 -0.016827276 -0.060610414 -0.057236705 0.0017511632 -0.018738551 -0.016107531 0.0033557874 0.0132017685 -0.074809246 -0.00069436803 0.019340366 0.07986593 -0.05979549 -0.02687108 -0.004296683 0.014353569 0.014971142 -0.056124832 0.03194418 -0.024280252 -0.06756309 -0.046049073 -0.067035355 0.022934413 -0.070121475 -0.07896863 -0.0026407964 0.063849464 -0.05987488 -0.06393878 0.027042557 0.041442007 -0.024423663 -0.03651564 -0.054203734 0.039783563 -0.07937993 -0.019881064 -0.05054481 0.038984887 0.03716942 0.043099232 -0.032996435 0.022486936 -0.034359496 -0.02222034 -0.06936182 0.011889715 -0.03923418 -0.06958106 -0.02673514 0.072645746 0.016591169 -0.031740468 0.04011062 0.039019007 -0.0057379343 -0.05320011 -0.07892068 -0.018735856 -0.038395073 0.019704085 0.040102296 -0.07650125 0.013523847 -0.066856 0.05021045 -0.036549803 -0.012302079 0.051865973 0.018942349 0.057165332 0.06816772 -0.0573142 -0.031721465 -0.022252187 0.040224113 0.005469531 -0.07293301 -0.029485239 0.040551566 0.062813185 0.07930153 -0.05116152 0.0750415 -0.06294911 0.049016684 0.00046686304 -0.026861852 0.07538765 0.07308742 0.05075528 -0.05306528 -0.061715167 -0.0021521775 0.060689252 -0.059553977 0.0015712068 0.032403592 0.008720971 -0.011842212 0.009206861 -0.04799964 -0.07655949 -0.00546006 0.0010392764 -0.06233081 0.0410384 -0.05809524 0.0775035 0.04602631 -0.07465738 0.012418758 0.030462936 -0.0070462236 -0.06644266 -0.073323466 -0.05814711 -0.06507065 -0.07188349 0.053101666
106 0.048756618 0.052930932 0.066273995 0.040308293 -0.05704974 0.01534893 -0.0005688839 -0.029709954 -0.022473605 -0.048715975 0.0059660356 0.055208534 -0.02342493 0.029163841 -0.037852652 0.030028211 0.06423239 0.06725926 0.027584275 0.056014884 0.05272109 0.00573135 -0.067817375 0.04187748 -0.05525965 -0.033960365 0.03882298 -0.0012974149 -0.011890389 0.07078514 0.001209906 0.028316984 -0.009865769 -0.0259044 -0.023598572 -0.040286154 0.015666585 -0.003872977 0.07927281 0.0021343622 -0.050132774 -0.026319167 0.03830261 -0.04307468 -0.02494791 -0.0580889 0.0201298 0.02142271 0.02672159 -0.005471849 0.033560004 -0.06609328 0.0014852572 0.07151313 0.026744299 0.04733128 -0.013475949 -0.06316767 0.062386267 0.036728956 0.018412959 0.0018552715 -0.017231917 0.048001908 -0.055655908 -0.019185826 0.014709043 0.044287696 -0.02343815 0.046194106 0.01311157 -0.077593885 0.07781491 -0.0059813694 0.0052269204 -0.029825175 -0.021434303 -0.07543686 -0.024760643 0.04160924 0.052925803 -0.027599163 -0.062839836 -0.00051790767 0.0054569924 0.021256963 0.05715249 0.026701568 -0.014327892 -0.0673895 -0.05215448 -0.031258862 0.070758305 -0.050455663 0.069379345 -0.0036634626 0.035884127 -0.013931588 -0.015578661 -0.033777755 -0.06215268 -0.059996925 0.07031728 0.020165026 -0.06447969 0.053147838 0.060383588 0.023601534 0.029264595 0.028184237 -0.065168224 -0.0023933733 0.020716172 0.06204824 -0.031261265 0.0026074448 -0.04294364 0.028309675 0.03648147 0.07417111 -0.0059258603 0.061624024 -0.06717512 -0.03935945 0.03451796 0.07118837 -0.0041097184 0.056906812
107 0.046426743 -0.02206658 0.03518064 0.028621959 0.075645804 0.035122696 -0.045226205 0.05829364 -0.050659504 -0.043801814 -0.033291966 0.023164596 -0.030737422 0.053316392 -0.050213076 -0.031384405 -0.061124433 -0.06551513 -0.023224749 0.07069488 0.043843865 -0.07801437 -0.06693843 0.031195698 0.040993247 0.030128373 0.07848689 0.05241557 -0.031060487 -0.07398745 0.07470866 -0.065832704 -0.05322026 0.07422863 -0.060476247 -0.05610245 -0.06539637 -0.04599407 -0.031237587 -0.07326288 0.04857635 0.051313028 0.029613767 0.03564322 -0.02837779 -0.03097115 0.026208915 -0.072369576 -0.06925903 -0.031249857 0.07244537 0.0777733 0.04997065 0.06086546 0.03756317 -0.065063685 0.052648608 -0.07455317 -0.047916412 0.052990805 -0.06988916 0.04964615 0.07851259 0.028926276 -0.03426737 0.030306034 0.06838626 -0.07740167 0.025119044 0.03175539 -0.02361163 -0.029707342 0.0763086 -0.037257385 -0.074846864 -0.020687683 0.026201686 -0.023197213 -0.022465216 0.059745528 -0.033896934 0.032934822 0.03811619 0.06386744 -0.054120846 -0.022577748 0.040549044 -0.05752944 -0.03553848 -0.03926912 -0.030162573 0.021449497 0.03407459 -0.03359453 -0.07036852 -0.023529904 -0.049407125 -0.030177562 0.0717231 0.06389683 0.05849806 -0.034841347 0.028380115 0.074002825 -0.053696107 0.04832664 -0.058385406 -0.042704735 -0.03718533 0.07600195 -0.07232232 0.057542857 -0.06490307 -0.033910464 0.07234401 -0.061667718 -0.07992966 0.06339211 0.03038871 0.030336333 0.0370132 0.075529106 0.062591694 0.03087569 0.0669389 -0.024644855 -0.03145571 0.039896585
104 0.08051343 -0.014060717 -0.002196345 0.0793557 0.02034953 0.011783262 0.07851473 -0.06457118 0.046223164 0.021211669 -0.07567254 -0.074779734 -0.0020233945 -0.027335547 0.013878176 -0.017990232 -0.021487392 0.07367994 0.03569384 -0.02689031 0.0761765 -0.050254017 -0.06593218 -0.057058223 0.066218816 0.06753134 -0.03726693 0.019241398 -0.008416059 -0.047611486 -0.009294587 -0.008759442 0.012752479 -0.014736006 -0.024391484 0.0072582215 -0.07866258 -0.06647344 -0.02415532 -0.024303436 -0.07884697 -0.00013469742 -0.025135014 0.021798974 -0.012989765 0.008261545 0.054162405 -0.07195262 -0.030250354 -0.037430346 -0.007209676 -0.01923655 -0.037070602 0.037937347 0.01062604 -0.022259984 -0.07141276 -0.016532484 0.0030638129 -0.076465845 0.020759128 0.0002794119 0.015014229 0.07213936 -0.05377628 0.07932904 0.062336754 -0.02611163 0.01717205 0.040540647 -0.00979205 -0.057389893 -0.02532704 -0.06389781 0.044980995 0.021364637 0.027395714 -0.03714484 -0.07681818 -0.031525537 -0.06576896 0.04492152 0.007892998 -0.080439135 0.068521656 0.0765393 0.014569895 0.046665195 0.07994396 0.04704019 0.05394853 0.03366618 -0.045890722 0.066215165 -0.0397586 0.063779965 -0.079272196 0.055215143 0.02539095 -0.024497064 0.03777791 -0.06406724 0.0006580121 -0.012576662 0.0053087785 0.010478798 0.007185382 -0.006842792 0.058587264 0.07762343 0.013684085 0.05927597 0.018977033 0.009000299 -0.02679272 0.0017147386 0.020166958 0.049679466 0.010358122 0.07742773 -0.008027889 0.052120898 0.027774291 0.008937813 0.06988517 -0.07707766 0.023938257 0.016726844
105 0.025762971 0.014916357 -0.04310254 -0.013467335 0.03138025 -0.03273753 0.009553008 -0.038696717 0.009080456 0.07472524 -0.033053298 0.07748197 0.027167074 0.031366874 0.030535601 0.04173342 0.0027058665 -0.008212101 0.028761588 0.019200675 0.026976183 -0.037548114 0.052687738 -0.023280196 0.07863845 -0.030149736 0.054839857 0.073796146 -0.035061225 0.05703855 -0.0495504 0.03900124 0.0034116032 -0.0033042857 -0.07194023 0.03843175 0.0112459995 -0.031444427 -0.019062836 0.06713877 0.063077025 -0.006435262 -0.0037436457 -0.009727519 0.07196073 -0.008785225 0.025339548 0.008801326 0.010688016 0.00017310376 -0.011429463 0.065855995 -0.07521982 -0.058506973 -0.040368516 -0.008756713 0.03880097 -0.04969254 0.024905965 -0.0255637 0.011213064 -0.061395172 -0.051178187 0.026819458 -0.06625348 0.059541605 0.034301188 0.06516713 -0.013546433 -0.027483514 0.02149462 -0.03820478 -0.03908374 0.03666581 0.031413317 -0.029083667 -0.023220122 -0.08074676 0.018991336 -0.036312766 -0.07983002 0.040582396 -0.07677087 0.032028925 0.02881666 -0.014176113 0.01714457 0.01714924 0.023940727 -0.007552495 0.028947718 0.03284399 0.03597994 -0.00029849005 0.017710386 0.023451755 -0.055219818 0.04002157 -0.013575928 0.03799824 0.038364902 -0.037321355 0.006296626 0.021465112 -0.07829218 0.01608701 -0.016515672 -0.040191032 -0.036732964 -0.0027096616 0.0039900495 -0.07331148 -0.023078589 -0.07534885 0.0038500784 0.07969853 0.033371363 -0.053595774 0.03291146 0.044801757 -0.008028856 -0.057870235 -0.001807402 0.06404725 -0.023155082 0.04677827 -0.0068431017 0.07701828
1212 0.021227086 0.017057093 -0.009266221 0.012092144 -0.066149734 -0.03997463 -0.025262987 -0.002637885 -0.029181669 -0.020964164 -0.01874627 -0.07352494 -0.03869123 -0.032892335 0.0011889288 0.0021205426 -0.012759 -0.04941094 0.027506778 -0.05185842 0.019082963 -0.031820893 -0.028906504 -0.035962276 0.018904531 0.01950017 0.012037538 0.016414585 -0.07625605 -0.017935537 -0.0046821074 0.03860375 -0.06279501 -0.05940974 -0.051344838 0.022041883 -0.03531152 -0.07473288 0.0080287475 0.03685919 -0.05910238 0.028654968 -0.005582687 -0.010462077 -0.020102002 -0.02226681 0.015887884 -0.005142186 0.053964306 -0.021921623 0.020290809 0.01382928 -0.0050076502 -0.013135432 0.018096695 0.043329198 -0.06934767 -0.076550804 0.019171612 0.0052655027 -0.025594857 -0.031883445 0.0022417915 0.06991186 0.06587662 0.00016362336 -0.0030777224 -0.017097995 -0.0029329462 -0.005227424 -0.051426556 0.042376824 -0.019981097 -0.037867 -0.01715701 0.013317804 0.017559407 0.053819347 -0.031029098 -0.01056484 0.07855945 0.047638785 0.04777764 -0.05475498 -0.033290666 -0.044254594 0.031800754 -0.08000896 -0.01622352 0.025504762 0.023384059 -0.074950285 -0.006664118 -0.07966888 -0.025965841 0.027725732 -0.028567653 0.006224324 0.022862699 0.03094206 0.033015963 -0.014292251 0.014871715 0.014181659 -0.022178434 -0.04748173 0.066773415 -0.019283932 0.022758601 0.015591913 -0.0066969665 0.005643531 0.049704336 -0.002159531 0.029469363 -0.07338029 0.032662768 -0.07195593 -0.037082773 -0.0750117 -0.004399125 -0.01241377 -0.06900554 -0.062282518 -0.045342125 0.039773956 -0.0015051817 -0.079738416
1213 -0.02555755 0.059720464 -0.009649856 0.02417674 0.01570422 0.06755585 0.023406511 0.008463028 -0.00577297 -0.02062273 -0.014105204 -0.080067135 0.01977656 -0.03182844 -0.038493354 -0.03336562 0.0066521117 -0.006101252 0.057923768 0.01922395 0.062443666 0.08008728 -0.05926577 0.006831439 0.072159216 -0.074985616 -0.0084649855 -0.066360444 -0.017393665 -0.076919846 0.011986077 0.014530617 -0.016898848 0.007287947 0.05858329 0.06426513 0.009671267 -0.0006007149 -0.012431499 -0.059700005 0.03162732 -0.04643177 0.07900653 -0.030074304 -0.02785727 0.002694358 -0.019136736 0.049443208 0.018330093 -0.02095741 0.040932402 -0.009527398 0.039584227 -0.07288619 -0.04761044 -0.046079963 0.009053998 -0.026064022 -0.024018308 -0.0025817556 0.027871074 0.016139364 0.012828296 0.06724316 -0.04197315 0.07763469 -0.027075417 0.009532703 0.06069532 -0.008109041 0.075467855 -0.043146558 -0.007296228 0.031913724 0.016220283 0.024680814 -0.023350246 -0.049195588 -0.0006323401 -0.043377496 0.053652655 -0.052545678 0.03272427 0.03394008 -0.05147956 0.0752594 -0.05638516 0.0041918107 -0.039857958 -0.062360257 0.031237783 -0.0070064957 -0.07428455 0.0064402465 -0.00711857 0.024242558 -0.040259384 0.06696431 -0.079334326 -0.014989074 -0.030914083 0.041731134 -0.03683793 -0.016287636 -0.040745422 -0.020804174 0.052455965 0.02296156 -0.055494208 -0.057655994 -0.06829328 0.011857609 0.062911466 0.024894116 -0.009842526 0.018845616 -0.004871277 0.004328573 -0.076596126 -0.031065702 0.07139469 -0.011987687 0.03589771 0.040520936 -0.029045943 0.039156366 -0.032737363 0.03858281
1375 -0.019581873 0.039317798 -0.025392916 -0.069235 -0.03880579 -0.07889668 0.018723793 -0.0792019 -0.04538402 0.035583105 -0.049034074 -0.030578172 -0.0384578 -0.04971418 0.054303445 -0.028064009 0.06900088 -0.033321876 -0.065630786 0.04463969 0.081087835 -0.07265698 -0.05195249 -0.05465951 -0.07947031 0.036662642 0.009966224 -0.046225958 -0.07324569 0.07914616 -0.04867943 0.025808563 -0.021992475 0.074356295 -0.07340129 -0.064118914 -0.049725212 -0.044046875 0.013765152 -0.027073452 -0.0035828603 -0.032225903 0.04637499 -0.07892905 -0.067476295 0.011779911 -0.07466379 0.04352232 -0.06586067 -0.06444486 -0.03496059 0.0016748991 -0.019293228 0.06554963 0.0018479226 -0.048534032 0.05084916 -0.05110098 0.04780669 0.016564466 -0.011203117 -0.037058536 0.057345167 -0.009067057 0.07296165 0.068014465 0.066403784 -0.031161971 0.049157802 0.066245824 -0.022981247 -0.015951822 0.077537596 0.0056732916 0.07363595 -0.05198876 -0.026034992 -0.009833033 -0.03323916 0.061898597 0.07407626 -0.067399465 0.03782601 0.049587447 0.003805157 0.04722121 -0.04733164 -0.050727677 -0.011678704 -0.04929736 0.004414873 0.014294388 -0.018989004 0.0733134 -0.0024780799 0.006023688 0.064798154 -0.020933641 -0.055438083 -0.019631438 -0.06727208 -0.02236413 -0.05804762 0.008675678 0.02813495 -0.0789597 0.058891892 0.00063375424 -0.04949269 0.01868317 -0.03431383 0.074141696 0.040017035 0.07748128 -0.03252191 -0.021426866 0.06319829 0.05992358 0.02586907 -0.035957824 -0.0633307 0.032426424 -0.0027198019 -0.043572012 0.026629355 -0.08083796 -0.053238936 0.05493141
99 -0.000657057 0.0001725938 -0.0027289807 0.00041564688 -0.0020578112 -0.015557533 0.0375916 0.0009792391 0.0077390606 -0.0019185129 -0.014723145 0.0345917 0.002692256 0.009745575 -0.03545281 0.00011993684 -0.025684992 -0.03851503 -0.008803643 -0.035065025 -0.032599147 -0.00013159588 -0.017218199 -0.040042803 0.028913738 -0.013759581 0.024375636 -0.036465954 0.0026255795 7.274875e-05 -0.026982054 -0.0026453475 -0.02648366 -0.00014774327 -0.032345477 -0.0072908816 0.034874886 -0.00027724967 0.002393155 -0.0004145188 0.002681807 -0.02825318 0.040000718 -0.026848666 -0.019734824 -0.018940113 -0.00041942828 -0.028353145 -0.017545812 -0.008624142 -0.02320077 -0.026841193 -0.001960402 -0.0012197733 0.00039185976 0.010250341 -0.0075136498 0.014378123 0.034900893 0.005628393 0.033142556 0.022969633 0.018752033 0.0017339198 -0.0024758931 0.0174824 0.03816875 -0.0033291709 0.031159718 0.009927622 0.0027220787 0.032616884 -0.000752951 0.022552105 0.03911012 -0.0053900373 0.002692908 0.035681225 -0.035735283 -0.002361498 -0.0042069145 0.0011437596 0.037041035 0.028510915 -0.036286317 -0.025771167 -0.0093381535 0.025383629 -0.023590522 0.027307272 -0.013821586 -0.001319692 -0.00087739754 0.019459303 -0.0026485908 9.141263e-05 0.016423773 0.002671818 0.002608321 0.012186717 -0.033439845 -0.012768489 0.0020335703 0.02572472 0.032078505 -0.0003272929 0.00415521 -0.00059362553 0.040623263 -0.023253921 -0.039821573 0.0027260438 -0.032720394 0.0016521267 -0.028896943 0.039711375 0.002646496 0.036661692 0.00039527085 0.018230392 0.011174576 -0.00010182223 -7.775943e-05 -0.03765336 0.00011495672 -0.0020172866 0.016557934 -0.0034454418
98 0.073347315 -0.006181635 0.061973188 0.053406376 -0.04904612 0.035286963 0.0025144508 0.0066478103 -0.06148869 -0.0024393622 0.025011783 -0.030806115 -0.016605008 0.07785221 -0.0011687543 -0.0025562497 0.0148420725 -0.0439246 -0.02600742 0.0396106 0.017986676 0.052567083 0.04345504 -0.058307804 0.016875844 -0.028099867 -0.06270394 0.01795914 -0.027463058 0.035298876 0.043963682 -0.034584306 -0.015776724 -0.0065510394 0.060310263 0.01938642 0.006623401 0.034494158 0.07529544 -0.07825455 0.03822611 0.0050937138 0.036376957 -0.06869154 0.036543828 -0.08052233 -0.03585094 0.057376742 -0.053034782 0.074397035 0.012513492 0.003281636 -0.004658331 -0.009341097 0.03600761 0.007299784 0.03898684 -0.0021963955 -0.054843962 0.027920883 0.024329605 0.0024271673 -0.061445937 -0.0026698492 -0.026035361 0.0014529907 0.019192442 0.07461035 -0.016974082 0.0035731373 -0.05339531 0.051447403 -0.076175734 0.051714342 0.019531434 -0.022442637 0.027901687 -0.03970708 -0.017490568 -0.06783983 0.03666346 -0.0587276 -0.022293627 0.04105281 0.007621467 0.0050445027 -0.045043748 -0.023641434 -0.01962852 0.017504012 0.017470345 -0.03299068 -0.039738543 0.072522044 -0.056724332 -0.08038204 0.039618213 0.028729036 0.048350003 -0.010295385 0.07659034 -0.07575879 -0.006068029 -0.0015720216 -0.030794673 0.069272734 0.041754752 -0.020878198 -0.061140187 0.0015465427 0.035453558 0.024672968 0.009907495 0.032363992 0.032730266 0.0011832166 0.03972874 -0.051515274 -0.07470388 -0.055985946 0.031798568 -0.0052523394 -0.05122963 0.025845224 -0.012184482 0.0644316 0.014194448 0.04364552
91 -0.022953685 -0.069552734 -0.008405713 -0.08040475 -0.0022874114 0.04172526 -0.045854986 -0.0040795123 0.0016446778 0.019970562 0.0004931814 -0.05915928 0.060578685 -0.027411308 -0.00927598 -0.049138676 0.014667291 -0.05651555 -0.030245243 -0.05265272 -0.051560264 0.05408315 -0.016973745 -0.08124898 -0.004578466 0.06108714 -0.059962172 0.03330714 0.07120724 -0.048033968 -0.013664669 -0.06664556 -0.070581585 -0.041830566 -0.01533048 0.0032329583 0.028334102 0.0709356 -0.008368416 0.018827084 0.07511265 0.07585151 0.058476344 0.06330503 -0.004542982 -0.057832155 -0.0051982324 -0.010739002 -0.054704715 0.021855239 0.040265232 0.060701404 -0.057725474 0.07336227 -0.04248468 0.05254353 0.04221507 -0.044279654 0.008646234 0.004187772 -0.08000608 0.0149016185 -0.058776848 -0.07804403 0.014438049 0.05773334 0.035845675 -0.05064405 -0.03577629 -0.06426639 -0.041636907 -0.027685322 0.032120224 0.035864227 0.004612053 -0.04194752 -0.068415605 0.07920412 -0.03651861 0.011714247 -0.064696416 -0.055454843 -0.04499517 -0.036339775 0.07465395 -0.039381217 -0.009052634 0.033568546 -0.027748706 0.060380053 -0.006668008 -0.037121497 0.03096663 -0.034077957 -0.07919729 0.058925405 0.038827807 0.05807457 -0.040704742 -0.051628854 0.03482931 -0.010513036 0.038935956 -0.046829317 -0.06229281 -0.039207738 0.06613159 -0.05753419 0.039425693 0.043396972 -0.061161954 0.06689513 -0.024807898 -0.07450637 0.013891055 0.068341315 0.06838725 -0.07228249 -0.05197202 0.060104344 -0.019209515 -0.0049275337 -0.03706747 -0.06721138 0.008410343 0.0053539155 0.07233722 -0.007944692
90 -0.018326906 0.03899151 0.0012956939 0.011210192 -0.00433315 0.038552087 0.015958462 0.0066829245 0.0023330478 -0.034165762 -0.016818559 0.017589951 0.00061533385 -0.01600384 -0.023598462 -0.00269874 -0.019313984 -0.00019652111 0.0054855905 -0.030734535 -0.019934373 -0.035860285 0.009198727 -0.00024968144 -0.016521214 -0.0046431664 0.032124635 -0.0009019362 -0.000669516 0.014954975 -0.0009019817 -0.00031268533 -0.040585063 0.0019502934 -0.0007212848 0.01369553 -0.0026682168 0.0022671374 -0.030372974 -0.038351897 -0.019484159 -0.005612602 0.0020786151 -0.005536434 -0.014222583 -0.004374393 -0.00075101515 -0.017406877 0.03233383 0.0011026459 -0.00023038565 0.0050908197 0.031359088 -0.0355398 0.028696878 -0.023562176 -0.005270087 0.010296686 -0.03622029 -0.014476785 -7.026476e-06 -0.0019678231 0.036536794 4.0091014e-05 0.031037306 0.021571906 -0.0005624519 -0.00025295248 -0.0015782041 0.03064089 -0.009333405 0.03120637 0.0027274175 0.0026002969 -0.020030152 -0.006245083 0.0021637632 -0.03194648 0.0024840378 0.00882953 0.027741626 0.0025577974 0.0025453302 0.016308459 0.02069952 -0.0007496004 0.027633805 0.040098984 0.034203317 -0.040906 -0.016928377 -0.04031665 -0.030371029 -0.0035376812 0.010839607 0.0021386698 0.00020412478 -0.02614945 -0.034525882 -0.020751711 -0.015093703 0.0018854289 -0.0014538931 0.015167162 -0.03067711 -0.0027279677 -0.00041621953 -0.014571781 0.0053711804 0.0016675494 -0.039081253 -0.0006949662 -0.012874285 0.000491586 -0.024808872 -0.00049281114 -0.035013303 -0.005171431 0.0001797044 0.0018253156 0.0017337266 -0.006510952 -0.008087129 -2.970328e-07 0.00012671994 0.016488843 0.021520179 -0.001454046
93 -0.013310774 0.04517811 -0.059044246 -0.027621904 0.06943785 -0.01193777 -0.020220378 -0.033296045 0.019908728 0.06701892 -0.038864374 0.025752129 0.040443253 -0.026083823 -0.003340288 -0.02503517 -0.038498554 -0.01572892 -0.060356565 0.065458745 0.04863888 -0.025935909 0.029009484 -0.007990884 -0.020907562 -0.048648134 0.07630242 0.035640012 0.058759473 -0.041748617 -0.043840714 -0.05180078 0.0141237 -0.0630402 0.026195811 -0.024716338 0.070175365 0.011673206 -0.07350466 -0.008856009 -0.07883101 0.023710845 -0.043800257 -0.056438968 -0.036972858 0.015521109 -0.019005036 0.048322476 -0.011733853 0.04331425 -0.020609237 0.019210609 0.0597437 -0.056255933 -0.04404618 -0.056306824 0.013217232 -0.036678094 -0.03761486 -0.008132983 -0.0505834 0.07757651 0.006365292 0.04729441 -0.068058036 0.029715667 -0.0044304277 0.013206308 0.007819834 -0.0041599106 0.008750659 0.07770911 -0.027353754 0.036281645 0.03925624 0.06885204 0.030870955 -0.0034427764 0.0153125385 -0.066580564 -0.0049633877 0.03217833 -0.010628902 0.060345482 -0.041906334 -0.042964 -0.008031551 -0.05553811 0.07492806 -0.061643466 0.023362312 0.01152817 -0.020204976 -0.03814796 0.03333618 0.022099027 -0.035145722 0.015830226 0.074323095 -0.0035839607 0.055206265 -0.0009941704 -0.039655913 -0.048856907 0.045970183 -0.053292356 0.02926274 0.0032330994 -0.02426274 0.033071768 -0.02710623 0.014384232 -0.0515292 -0.019793672 0.038578026 0.031283565 -0.06857321 -0.015193978 0.006644026 -0.04892596 -0.05133111 0.017237239 -0.023464289 0.015444376 0.03813127 -0.07368014 -0.018620424 -0.0039415727
92 0.015788807 0.03373898 0.016784409 0.0007386594 -0.040930834 0.028365042 -0.016422015 0.0007790806 0.011490293 0.030899258 -0.024027152 -0.034711145 -0.0026832423 -0.027648332 0.024795827 -0.018063638 0.013429942 0.0027288594 -0.027987175 -0.016447175 -0.026952162 -0.039360277 -0.021688065 0.024442626 -0.022126121 -0.020966474 -0.0059699835 -0.0054442617 0.019801522 0.028570965 -0.0019281765 0.01630299 0.015570417 -0.018595558 -0.029520936 0.01764634 -0.022843078 -0.03173055 0.016715065 0.036301896 -0.029507466 -0.010372812 -0.009560771 -0.01580411 -0.035765152 0.0016664783 0.036255743 0.00089351914 0.008499525 0.015409264 -0.00021431269 -0.0002197032 2.6253358e-05 -0.023982653 -0.017005233 -0.0073351534 0.006108734 0.0010490386 0.024735343 0.034488868 0.0010751496 -0.005151588 -0.03816195 -0.031485524 -0.035684016 0.019359153 0.040016904 0.00041487807 -0.023484316 0.0057612234 -0.0026386713 0.015341548 0.015422588 -0.0016857146 -0.01587257 -0.0020434011 0.008610776 -0.012059636 -0.0012742915 -0.009484848 -0.005778771 0.0025243398 0.013325115 0.02647243 0.024361672 -0.037926394 -0.0012531703 0.0274883 -0.00024359245 -0.0057549295 -0.031554714 -0.03633833 0.018675176 0.0007125122 -0.020992303 -4.6016405e-05 0.012403076 -0.00021900467 -0.024849422 -0.000898945 0.0005654198 -0.0011962634 0.039391395 -0.032282926 -0.00024066318 -0.006787241 -0.039727125 -0.02535643 0.00091909256 0.0078611495 0.01322277 -0.0025317827 -0.0027212591 0.0022318333 -0.00014589027 0.0024930644 -0.017245973 0.0006389281 -0.001661167 0.0056505892 -0.008771984 -0.029304236 0.0141098425 -0.025253396 -0.0064881053 -2.2572058e-05 0.029542373 0.002724257
95 0.042412296 0.023534276 -0.058577433 -0.011162663 0.014330591 0.02118222 0.07824702 0.014058621 0.03053706 0.034575008 -0.062095985 0.07371574 0.07119608 -0.030733144 0.038913295 0.077743515 0.03501515 0.02097898 0.04786085 0.036944684 -0.05308762 -0.004525039 -0.012756325 0.048630003 -0.027036166 -0.056843046 0.003353657 -0.062939346 -0.052962333 0.03155404 -0.036700048 0.0051306724 -0.048680667 0.003023856 0.07486736 -0.002760767 -0.044148892 0.025996484 -0.035068676 0.024262173 0.010231525 0.010369396 -0.00078155263 -0.04044381 0.040754877 -0.009319104 0.075471744 0.076384775 -0.042372286 0.008534747 0.077090934 -0.0071378415 0.03193258 -0.08001941 -0.028394433 0.020977605 0.020077154 -0.0045440868 -0.0097460495 0.0028248525 -0.01820235 0.0465134 -0.051617224 -0.0044148616 -0.028837584 -0.008993924 0.00930267 0.022438914 0.06156156 -0.0400884 0.06449409 0.07004864 -0.0456638 0.00428454 0.007805257 0.029835114 0.07684847 -0.019905033 0.0048093083 0.032531198 -0.034897283 -0.03907119 0.043304924 0.055563033 0.027225683 0.0439647 -0.013709695 -0.0150146745 0.025370806 0.006040762 0.026288157 0.022100693 0.08005466 -0.06441967 0.07839656 -0.013305297 -0.021489145 -0.01229282 0.027939696 0.04810761 -0.009236889 -0.054562405 0.037798747 0.025811557 -0.009052125 -0.022821464 0.009071048 0.0107006505 -0.033223893 -0.019380672 -0.066859215 -0.02253179 -0.009317738 0.019704334 0.054055423 0.07630823 -0.000818034 -0.03536201 -0.05610244 0.018087026 0.021379385 0.011128837 -0.007709551 -0.0054982123 -0.078200825 0.049364943 0.030016769 0.05754089
94 0.030607965 0.012654831 0.052284315 0.07071959 -0.020595057 -0.03713104 0.05620117 0.003172042 0.051612034 0.02238921 -0.03291847 -0.03140782 -0.050954513 0.06372688 0.0419632 -0.051637772 -0.04763215 0.0415856 -0.0299951 0.0003886656 -0.062112946 0.0036207493 -0.058325883 -0.042955372 -0.0046197404 0.03919564 0.0133829685 -0.051023696 0.04286869 0.043238766 0.01487407 0.050532203 -0.005001412 -0.0072220606 -0.024512775 0.070031874 -0.027195485 0.0145038515 -0.05748764 0.02900854 0.03384533 -0.023250245 0.024116907 -0.04159197 0.025973724 -0.02906158 0.049420115 -0.007290355 -0.06326596 -0.04099616 0.03312075 -0.08012259 0.059708714 0.07007363 -0.03839793 0.07539767 -0.014875335 -0.009685889 -0.07068789 0.0098232385 0.036718328 0.05463487 -0.03441485 -0.021002881 -0.023437452 -0.027237581 -0.051672127 -0.03791273 0.055673774 -0.025403777 0.047419768 0.03983297 0.058634344 0.03692066 0.0022950878 -0.030560235 0.074637264 -0.06486227 0.026832588 0.043440707 -0.058504418 -0.020076593 -0.027182478 0.05782435 0.011927816 -0.022671092 0.058743965 0.0022449405 -0.004548507 -0.051124875 0.05575707 0.0029110801 0.027928066 -0.063546665 0.06697187 0.028878888 -0.015151878 0.011321412 0.01852569 0.03352324 0.033102326 -0.042647686 0.044199903 0.06274219 -0.021753842 -0.06643051 0.052480787 -0.050014187 -0.021102032 0.006809476 -0.009224674 -0.043572523 -0.07484988 -0.041099627 -0.009634474 0.024552913 -0.078226015 0.0114935525 -0.0507423 0.07543849 0.014831628 0.054558713 -0.015948381 -0.0072975005 -0.038500365 0.051524825 -0.043293927 0.00693152
97 -0.018555762 0.056580555 0.04394731 -0.07199025 -0.0010046172 -0.0063252784 -0.08045706 -0.018734202 0.020519678 -0.01690918 -0.08056076 0.008418275 0.01187781 -0.01182391 -0.01898353 -0.022343833 -0.03531364 -0.021359317 0.04464049 -0.07856493 0.06921282 -0.026392035 -0.017332183 -0.05626522 0.020064503 -0.030663311 0.07247376 -0.03531195 0.05990722 0.078056194 0.013937174 -0.015762288 0.020966342 -0.029937264 0.003610645 0.035001904 0.047433387 0.07114729 0.04752188 0.0075986534 0.0385835 0.05463983 -0.06762473 -0.003060888 0.07005683 -0.010965994 -0.009795841 0.03466184 0.04208691 -0.07705558 -0.0005498617 0.012652721 -0.0070572514 -0.03569792 -0.013249417 -0.003368364 -0.026916916 -0.052393053 0.0090759555 -0.071192235 -0.020771647 0.042516038 0.055648714 -0.076740555 0.066569306 -0.07554358 0.058692947 0.021506395 -0.024973417 -0.06605505 0.07249469 0.07307797 -0.06572487 -0.024901507 0.03276969 0.07642695 -0.022428043 0.042427115 0.011109499 -0.071981035 0.062088057 -0.06522045 -0.051036205 -0.015345841 -0.00087563496 0.063316375 0.06425142 0.007573937 0.031259827 0.041142393 0.011759126 -0.0133621 0.055466812 -0.050815985 -0.077469766 -0.02468191 -0.06973318 0.005757751 -0.041711185 0.07394463 0.037048627 -0.04244387 0.009271037 -0.035089593 -0.071001805 0.037931096 0.07611468 0.009073815 -0.024421994 -0.008243979 -0.044209745 -0.05711512 0.019724721 0.0035187607 0.032219265 0.05436648 -0.056095675 0.07561002 -0.028335573 -0.047877185 -0.054959375 0.06449289 -0.016833032 -0.075849764 0.011529617 0.046130203 -0.034642752 -0.019868074
96 0.05238764 -0.01744551 -0.040447596 0.043728538 0.025185002 -0.001906785 0.006172673 -0.066373646 -0.071365535 0.066477776 0.062645815 -0.06761481 0.0069434815 0.023792159 -0.010587643 -0.0796141 0.038412966 0.06525818 -0.0031602595 -0.026403004 -0.032265823 -0.044823743 -0.03192163 0.059798244 0.04028795 0.0463188 -0.015881078 -0.024186926 0.0029267964 -0.06115775 0.029014548 0.0101840915 -0.011875111 0.016593803 0.031853918 -0.04766384 -0.038484003 -0.014508324 0.039181344 -0.046470746 -0.07785242 0.020683596 -0.027575819 -0.037171878 0.0025761365 0.011970414 -0.00398146 -0.05890874 0.04860108 -0.021760004 0.03552363 0.019692248 -0.053560797 0.07606662 -0.0020335228 -0.07417366 0.039820712 0.058005605 0.0062519503 -0.02075868 -0.0662976 -0.03866637 -0.024437742 -0.022454565 0.05969799 0.04035792 -0.03718107 0.021241046 0.013346121 -0.019168409 -0.055916246 0.06615603 0.033972636 0.073204175 -0.01855699 -0.062428914 -0.030472238 -0.030676749 0.025924526 -0.057968445 -0.008319477 -0.034515906 -0.0639394 0.05456828 -0.002527223 -0.06636765 -0.046192925 -0.0063399957 0.015883164 -0.037172645 -0.029621443 0.062507495 -0.031900782 0.06322544 0.0150813395 -0.05501904 0.050273117 0.05106807 0.015966596 -0.008712984 -0.021218266 0.0012593053 -0.061645467 -0.06453816 0.011529015 -0.035338964 -0.027350936 -0.040756002 -0.015498667 -0.03693202 0.021221373 -0.017446708 -0.0072079943 -0.0097665945 0.015791353 -0.019067466 -0.06297971 -0.00881785 0.014620818 -0.065179884 -0.078540795 0.019224886 0.039129455 0.01455538 0.012603659 -0.075675264 -0.050477233 0.058485474
559 0.07577348 0.022618972 -0.007498837 0.02348668 -0.04441896 0.03813049 0.03407366 0.06788158 -0.046272054 0.04268008 0.0030765594 -0.033164684 -0.019419564 0.06977916 -0.051500928 -0.0112533765 0.03685706 0.045057483 -0.006651841 -0.067391336 -0.07376962 -0.014481703 0.0035767904 -0.07464678 0.06635441 0.034420054 -0.017879134 0.0535834 0.0035506266 0.057815544 -0.047267653 0.062458374 -0.06814678 0.011024167 0.07699829 0.022920638 0.014255545 -0.02888915 0.00840969 -0.017080264 -0.060245965 0.038285807 -0.005735779 0.044776186 0.008845677 0.058492266 -0.060190402 0.032464605 -0.06348525 0.0032332721 -0.03889123 -0.06515022 0.019922255 -0.036725927 0.016313402 0.019585826 -0.03493652 0.046053737 -0.009362944 -0.07965104 -0.079587765 -0.0637672 -0.06299789 -0.017078409 -0.046466056 -0.030446438 -0.0044113463 -0.009573385 0.07106045 -0.023146253 -0.054184992 -0.065533765 0.02349329 -0.05728938 0.068592004 0.00091056735 0.0049303845 -0.012738601 0.0596447 0.0049771494 0.02185472 -0.0044722455 -0.044622436 0.053480875 -0.033592198 0.022399474 -0.023323387 0.0024549437 0.05723797 0.058921486 0.01699337 -0.030744916 -0.022176728 0.03435739 0.009280554 0.011335412 -0.078352064 -0.07384031 0.07311777 -0.062377412 0.025171861 0.07248867 0.039353676 0.050571796 0.03603858 0.0021207952 0.039825745 0.05863224 0.0737864 -0.0476001 0.03830049 0.014305078 0.049897004 -0.014276562 0.039455794 -0.039426606 -0.0063652284 0.056339342 -0.037731167 -0.003022131 -0.06640298 0.031335555 -0.020109164 -0.03896913 -0.021362377 -0.037768073 0.018186092 0.0054105893
558 0.047706157 -0.072213404 -0.012082883 0.03502616 0.009407012 -0.008501797 0.03890932 0.06329442 0.009926275 0.022422343 -0.040520526 0.010330837 -0.0045984564 0.039657887 0.030680425 -0.039471973 -0.04682072 0.03235984 -0.00374173 0.06720118 0.054124147 -0.050917838 -0.04741605 -0.03121867 0.07446749 0.022193188 -0.035893474 0.062195156 -0.054439332 -0.03238248 0.020770695 -0.03581019 0.039751977 0.037338134 -0.02680937 0.022927428 0.07964078 -0.062415432 0.03899691 -0.020502342 0.013041929 -0.04490712 0.013044173 0.042634048 0.009685379 0.07275025 0.021529777 -0.057980258 -0.011234213 0.024984667 -0.00532539 -0.01621151 0.07874198 -0.030339971 0.048257537 -0.027505683 0.070936106 0.0107726175 0.03013938 -0.03565548 -0.07071545 0.058817282 -0.0065268925 -0.01899146 -0.07549421 0.015488638 0.020999216 0.017816622 -0.015213 -0.0622229 0.0035974565 -0.011069487 -3.440061e-05 0.021063203 0.0061173765 0.07057031 0.0029369846 0.078114696 -0.060591143 -0.041021977 -0.03966649 0.007618887 -0.05951172 0.031342715 -0.0050004045 0.027938858 0.07197199 0.019485235 -0.077687435 -0.016964259 0.015891308 -0.029092511 0.027056515 0.023724837 0.02391135 0.032052457 0.025029367 -0.007361835 0.02238521 0.05766259 -0.010329099 -0.037544757 0.032357503 0.06903561 -0.070779435 -0.020988937 0.011578217 0.008780742 0.0031901766 0.05873203 0.04657681 -0.07103493 -0.010912507 -0.07525569 0.038572665 0.016675677 -0.023583071 -0.03458853 -0.052835286 0.080343306 0.06575242 -0.0089174155 -0.040527873 -0.011893526 0.067330495 0.06782754 0.00494164 -0.03875301
1217 0.06961746 0.065889955 0.008180421 0.015586479 0.03412572 -0.02307655 0.011494197 -0.05855173 0.023624856 -0.054556966 0.020512022 0.014309649 -0.0010467856 0.070478894 0.01746525 -0.030826587 0.013237654 -0.04459897 0.031023828 -0.0024911396 -0.03201865 0.033645064 0.021733953 -0.03483925 0.014679621 -0.03755753 0.000265694 -0.014508602 -0.002957134 0.046296064 0.033635005 -0.034245357 -0.032786306 -0.055613358 -0.013191299 0.004308597 -0.0077471556 0.064583026 -0.019372283 -0.06696437 -0.02832463 -0.0005006521 -0.037958186 -0.022564987 -0.06783516 0.04778638 0.075311586 0.03166902 -0.048576195 0.03670674 0.06721691 -0.010045905 -0.005099132 -0.008564528 -0.040771943 -0.030328644 0.004307158 -0.033205736 -0.052728668 -0.03637564 -0.0072479015 0.038556684 0.025959078 0.03317851 -0.011525694 -0.0021465577 0.058113288 0.07510909 0.02714078 -0.061610878 0.028499655 0.019264106 0.024050616 0.0809536 0.07462282 -0.041644983 -8.429843e-05 -0.025880843 -0.000309759 -0.057489514 0.011759802 -0.004650528 0.036277123 0.044443965 -0.044791166 -0.0129349 -0.014487152 -0.051742397 0.031303454 0.015043655 0.06311144 -0.0019404251 0.03818447 0.03179211 -0.08080955 0.009106126 -0.010956733 -0.015517652 0.06520007 -0.013268904 0.06571562 0.060811367 -0.04190155 -0.012667435 0.004570456 -0.06667945 -0.06044579 -0.016196895 0.029172963 0.015794016 -0.02346365 0.008904112 -0.05158261 -0.035058666 -0.008782473 -0.056912124 0.029645622 -0.07705238 0.036080502 0.05310482 -0.053513598 0.029023165 -0.06450206 0.063439 -0.06215547 -0.013561894 0.03352312 0.06074732
555 0.07405529 0.021602014 -0.009289338 -0.021502623 -0.004148111 -0.0687374 0.0603974 0.0052886647 -0.08006167 0.029320821 0.045190025 0.013452304 0.043840967 -0.07047662 0.055929236 -0.007150673 0.019631218 0.007107305 -0.0799316 -0.04757659 0.0021216632 -0.018568998 -0.01734981 -0.032146674 0.014438503 0.06987867 -0.06369064 -0.050738588 -0.0064954944 -0.05855465 -0.015376395 0.023898983 -0.031688683 0.03352478 -0.0294486 0.019063445 -0.036542248 0.0803981 0.0048853755 -0.06630496 0.06947136 0.011192486 0.03618126 0.06807936 0.026566098 0.02116564 -0.024039492 -0.06634652 -0.029875956 -0.06225145 -0.043413766 0.023746366 -0.053583786 0.06643181 -0.01751093 0.048598487 -0.06798657 -0.0051895063 0.057186864 0.002786731 -0.06729909 -0.030630572 -0.042436365 -0.07637436 0.03687467 -0.03664229 0.045736093 0.04280793 0.016757287 -0.058939338 -0.017828653 0.0009015795 0.0669238 -0.07237617 -0.01445609 -0.068436444 -0.06581418 -0.044130914 0.029430559 0.04701873 0.013891462 -0.0022533135 0.009078682 0.04567381 -0.05499125 -0.035917215 -0.0023411834 -0.07745535 -0.026231343 -0.026033934 -0.010952952 -0.046260558 0.0047374405 0.074576795 -0.027534964 0.07948594 -0.07039763 0.015005686 0.08005814 0.004133114 0.05361971 -0.016366351 0.07665023 0.049334228 -0.05812079 0.010658261 -0.0444559 -0.07155513 -0.0059983423 0.0630454 0.0021579643 -0.042417333 -0.051476274 0.013326883 0.06280975 -0.0016872056 0.0324317 0.08051049 0.071529925 -0.05771147 -0.074450105 -0.06952786 -0.02985077 -0.01532918 0.07942328 -0.033358317 -0.07881795 0.02069643
554 0.0054293843 0.04993577 -0.021424267 0.047371984 -0.005766279 -0.035392385 -0.025788587 -0.048752062 -0.019010203 0.014681329 -0.056497496 0.040095497 -0.07440924 -0.012073488 0.05495701 0.052356288 -4.865986e-05 0.019201014 0.0087352125 -0.00017138966 0.038128253 -0.03737493 -0.016162572 0.039838493 0.030847372 0.06696855 0.018537126 0.06257483 0.010138855 0.030873762 -0.018950004 -0.036479317 -0.004698513 -0.042483132 -0.035484586 0.06970684 -0.047298856 0.01033125 0.0076153693 0.019431438 0.053465575 0.008768085 -0.06563158 -0.023334363 0.026445402 0.078127526 -0.027085513 0.0071132844 0.06507084 0.046027265 0.06757856 -0.0046390044 0.010822889 0.06612658 0.060568977 -0.06643958 0.04970605 0.010151079 -0.031814497 -0.0066177286 0.05540975 -0.015437431 -0.055299785 -0.024456335 -0.06267624 -0.01310566 -0.02819475 0.010276945 0.010298294 -0.050593454 -0.020283496 0.03819156 0.038296644 0.05099611 -0.040920734 0.0071046683 -0.005486484 0.07658045 -0.012685724 -0.026590247 -0.016089747 0.066900976 0.01591047 -0.03664674 -0.027628416 -0.042318724 -0.026465902 0.040507484 0.02150684 0.050512485 -0.054190923 -0.056469627 0.045935694 0.00069936144 -0.025313292 -0.02023723 -0.05939477 0.056410313 0.038111806 0.040046465 -0.022025123 -0.0316696 -0.043304317 -0.02176522 -0.074539386 0.073658384 -0.059611898 -0.034776457 -0.005424891 0.020970797 0.05273923 -0.06960652 -0.053413372 0.036141988 -0.009197356 -0.015477713 -0.033778757 -0.069810495 -0.025454907 0.056571037 0.03794087 -0.01450303 0.010859365 -0.05476688 0.058873277 0.011364343 0.059117276 0.0025546583
557 -0.03911148 -0.0044552246 0.0007075558 0.018750431 0.015907638 0.01040873 -0.053999774 0.008384896 0.024525024 -0.019801507 -0.013834636 -0.005617995 0.039704863 0.023778519 -0.0027247912 -0.049821522 -0.012430142 0.04036005 -0.032383714 -0.00014290318 0.045248836 -0.015259554 0.054761767 -0.041743077 0.00058238 0.07239158 -0.025954356 -0.0017482118 -0.007367635 -0.054443855 0.023667874 0.052308727 0.04801965 0.011863516 -0.03805438 0.006681706 -0.015547125 0.06939716 -0.02362557 -0.06317865 0.038896114 0.005924365 0.031469163 0.05657547 -0.04897308 0.037996676 -0.0020914143 -0.02346733 0.033295386 -0.015366816 0.037092544 -0.07185721 -0.043255165 0.06750162 0.050767414 -0.037652474 -0.076200955 0.037213136 0.045404393 0.019053567 -0.043228034 0.03489095 0.021109626 0.009138292 0.026860652 -0.027011117 -0.0067693954 0.003901387 0.034044776 -0.038401 -0.07885939 0.07251788 -0.007041454 -0.0421902 -0.01507698 -0.011859825 0.031085655 0.05352496 0.0063634063 -0.036150374 -0.0055294763 0.028550958 -0.01806525 0.03886171 0.04383928 -0.040264785 -0.023212364 0.010199863 0.014565732 -0.018050624 0.060088426 0.034775283 -0.03278932 0.032457795 -0.027241152 -0.016858732 -0.0062970496 0.04913812 0.039798807 0.029976461 0.04308141 -0.016319238 -0.033839017 0.050014175 -0.05114554 -0.011941136 0.042244535 -0.01878963 0.040866125 0.07607983 -0.0064126602 -0.026422823 0.03490655 -0.066340916 0.07387425 0.029791923 -0.07430217 0.04142613 0.06985406 -0.077175505 0.05252368 -0.06750742 -0.0046357587 0.008633482 0.078656346 -0.07565176 0.013154058 0.027130943
556 -0.014081944 0.0050702393 0.012523453 0.030944213 0.037740387 0.028194236 -0.01633517 0.05311375 0.037529998 -0.010616575 0.023344928 0.0783685 0.03585134 0.03785845 0.0077678747 0.020673387 0.04200544 0.02900634 0.03461544 0.016372943 -0.025523866 0.0069932225 -0.011406667 -0.080258496 -0.012882441 -0.0112337945 0.016969437 0.06292393 0.00012632343 0.010684581 0.03905231 -0.026830241 -0.044051096 -0.031510722 0.049988914 -0.026002416 0.028857391 0.010427666 -0.004742907 0.026727853 -0.0050114812 -0.028839689 0.006545421 0.02522995 0.004203288 -0.056132916 -0.027627353 0.04331786 0.033213925 -0.0800356 0.015744055 0.040671945 -0.007965049 -0.013814811 0.038250875 0.03374166 -0.003815032 -0.0014787574 -0.017564038 -0.07525073 0.04446219 0.065739825 0.019383483 0.0029712513 -0.074415125 -0.069820315 0.031734064 0.05157124 0.06978944 -0.062230688 0.04462252 0.013100611 0.055594966 -0.062209804 0.061344035 -0.07581184 -0.02549747 0.016007097 0.006818145 -0.0172698 0.035315685 -0.020671407 -0.007030652 0.074287154 0.017957488 0.023250908 0.0057985047 0.0683382 -0.07026915 -0.016141724 0.07313443 -0.025963455 -0.017760685 0.031931218 0.08005815 0.040609766 -0.0009928186 -0.016555054 -0.029133298 0.03688923 0.041789856 0.026557827 -0.020964794 0.006578495 -0.0063193794 -0.022217726 0.067504175 0.0105943 0.004828431 0.008167264 0.03925366 -0.030963255 0.042158913 -0.032087725 0.07559109 0.051808096 -0.021055248 -0.023285983 0.06872476 -0.05127732 -0.030420093 -0.022436865 0.06757872 0.05375504 -0.058123607 -0.020060444 -0.015063331 0.012575535
551 -0.012805994 0.023357285 -0.0076228734 0.0019489333 0.016376095 -0.031518146 0.000882294 0.01747133 -0.0057031405 -0.012478919 -0.00021171573 -0.02401248 0.0028413304 -0.032054394 -0.020084484 -0.004429504 -0.00054300326 -0.031763352 -0.0001174428 -0.036835887 -0.010405173 -0.029603144 -0.0010054718 0.030791506 0.017858783 0.0019487243 -0.012174843 0.03628677 -0.0055435845 0.0025062168 0.0019271303 -0.0016949817 0.0018292982 0.016402766 -0.013098911 -0.004006175 0.014398184 0.011448542 0.0026219033 -0.011436779 -0.00033130945 0.002183336 -0.0027173692 0.017603949 -0.023758339 0.0003797899 0.019243067 -0.008971146 -0.03668039 0.0027261402 0.0017531813 -0.040473968 0.018579485 0.029964596 -0.005016671 -0.02446196 -0.03603651 -0.016097277 0.0003318864 0.00024782738 0.025134418 -0.027580526 0.011924451 -0.016375812 0.032135773 0.014781036 0.0078092245 0.025824647 -0.0027256804 0.031890117 -0.032877687 -0.0010988942 0.022236176 0.030647216 0.0007627053 -0.0060844296 0.00042189413 -0.0008757 -0.00013809631 -0.012060457 0.021163765 -0.03015962 0.031243034 -0.017981205 0.03726347 0.032891445 -0.03608707 0.03347926 0.03436745 -0.0018060923 0.03198428 -0.038721412 -0.011311358 -0.0014770485 0.0026642608 -0.0070993653 -0.0069811987 -0.029323883 -0.03619714 0.027635448 0.0021878053 -0.020531576 0.03867263 0.020945124 0.03595428 -0.021438133 0.017630389 0.0017173283 -0.026543621 0.0080177635 -0.008076018 0.0026908955 0.02793579 0.0074136322 0.033303216 0.0025949995 0.027238881 -0.00040994937 0.020489762 0.02778872 -0.0027152114 0.0026846756 -0.0012099282 -0.026259605 0.034763698 0.004204249 0.034466367 -0.0030617192
550 0.028250588 0.00032294227 -0.0036658593 0.02243698 -0.027275173 -0.00067183084 -0.024702892 0.03962851 -0.0004365904 0.015016505 -0.0215911 -0.000265634 0.0026721512 -0.0021608528 -0.0014182022 -0.009948906 0.008322784 -0.008098428 -0.03688379 -0.01176369 0.0009013375 -0.03552862 -0.029645631 -0.0004150076 0.037679445 0.030867217 0.0019987181 -0.0017983526 -0.03921586 0.029113956 0.01099678 0.0044498052 -0.0080742445 -0.015928539 -1.7597857e-05 -0.0025068908 -0.012947353 0.0030168253 -0.025183808 0.0006643063 -0.0284762 -0.017579595 -0.038275953 -0.03440297 -0.00016104197 0.0008986828 0.036980305 -0.030368082 -0.040805053 0.027254619 -0.009277484 -0.0009179486 -0.002652107 -0.00091584946 -0.0008959429 0.0006095768 -0.03375808 -0.012934531 2.2785352e-05 0.008649748 0.02534458 0.0016082507 -0.00083147874 -0.0209056 0.033172227 0.0049481923 -0.019516204 -0.022315959 0.01973912 -0.0026832472 -0.0016581973 -0.002729387 -0.03438301 -0.013579703 0.0005823901 -0.00085072813 -0.032724027 0.02472966 -0.02792623 -0.0027280678 -0.00048383314 0.0053726872 -0.021696607 0.008230715 -0.010901657 -0.018363 0.009095043 0.029229643 0.028267397 0.0014233587 -0.025715454 -0.040941004 -0.028617691 -0.021350244 0.0209984 -0.0306447 0.01847621 -0.01978349 0.0015291052 0.032692734 -0.005826311 -0.019609392 0.0012760138 0.011744779 0.020821663 -0.011544302 -0.025123756 -0.002700819 0.030304275 0.027668316 0.0048351805 -0.0015800209 -0.040675677 0.0018351879 -0.023475895 -0.029844511 -0.0023770812 0.00037358882 -0.03466514 -0.02476842 -0.029992152 0.020906176 0.0014794235 -0.015613515 0.0022859324 0.026925337 -0.0047104815 0.036313187
