1512 128
344 -0.06623757 0.012598019 -0.08002679 -0.04992535 0.06510718 -0.06876574 -0.073414855 -0.052324228 -0.0446941 -0.07853129 -0.013158616 -0.008609163 0.045938335 -0.066045254 0.012135001 0.05980768 0.057896562 -0.075135246 -0.023071352 0.014683808 0.07288225 0.05517894 0.0007845301 -0.01990951 -0.010786817 0.016683001 -0.033344243 0.064078085 0.03861671 0.048410222 0.017662995 0.021457903 0.012020087 -0.014733454 0.045803577 0.035349905 -0.03070741 0.017252808 -0.026013313 -0.0023262547 0.07816432 0.010459586 -0.031888288 -0.04308587 0.01256043 -0.06603017 0.010313462 -0.02061468 0.0015360228 -0.0002635984 -0.017981844 0.053536836 0.07916872 0.060402595 -0.020305913 -0.014803934 0.078557596 -0.001594847 -0.022679653 -0.032258376 0.002387649 0.050314665 0.0079417145 0.07904027 0.0037671686 -0.013018652 -0.08000826 -0.06288877 -0.053986534 0.03028871 0.07995834 0.05714995 0.042380765 0.042884767 0.058892235 -0.08122116 0.028148303 -0.03905184 -0.019196691 -0.01720838 0.010918186 -0.0074960236 0.02717347 0.019102778 -0.059305195 -0.014697995 0.003782404 -0.022033833 -0.07784201 0.033504914 -0.0119066015 -0.04708923 0.02687435 0.057811946 0.02088104 0.05846484 -0.04165087 0.06489004 0.03319633 0.07115612 -0.005316407 0.0012302891 0.06701401 -0.010972098 0.0031439844 0.026819913 0.036419846 -0.047034226 0.067592435 0.043463543 0.0058699194 -0.06618719 -0.010511848 0.07365358 0.010780825 0.03365364 0.03488821 -0.07039243 -0.06702741 -0.044098675 -0.033344667 -0.076753445 -0.009430795 -0.0077503403 -0.017444594 0.07244804 0.034824006 0.015568239
345 -0.007270823 -0.02851055 -0.051154483 0.031051788 -0.02342349 0.005422436 0.031926565 -0.020522282 -0.009961655 0.036719482 -0.051520906 0.0039370554 0.071499944 -0.047646314 0.036669284 0.031860188 0.067339726 -0.05418718 0.07559285 0.043604925 -0.042702667 0.024127223 -0.009769502 0.060706735 0.03018746 -0.019638268 0.02925975 0.070008904 -0.03449075 -0.018699009 0.036291733 -0.03874708 -0.01081136 0.017140595 0.058794178 0.03129062 0.013691371 0.08009191 0.016065229 0.07974253 0.027694274 -0.025841605 -0.038994487 0.01130965 0.045509674 -0.00043819007 0.029828502 -0.017187726 0.016674383 -0.057236552 0.035832707 -0.016927334 0.054069303 -0.002114911 0.021831052 0.023677116 0.07548308 -0.06852089 -0.004278644 -0.07412931 0.0203951 0.018134747 0.03722406 0.0711264 0.019122185 0.0046677003 -0.039841745 -0.0046234643 -0.07376847 -0.021956181 0.00795687 0.0008341684 0.043473538 0.038286977 0.075026594 -0.003906774 -0.03580626 0.014638746 0.023190435 -0.032705225 -0.06400254 -0.074020155 -0.00020661578 -0.0705547 0.03854672 0.023209836 0.046824433 -0.029300625 -0.032401416 -0.02795726 0.034629334 -0.015114251 0.0018919952 0.051230893 0.012792016 0.017013622 -0.066414915 0.07050159 0.0016063972 0.0064383126 -0.0105821155 0.05908557 -0.042501383 0.004457867 -0.026028939 -0.016092993 -0.0036058452 -0.0033903795 0.0070798723 -0.016566591 0.020299273 -0.06669899 -0.043997236 -0.018756844 0.07147431 -0.064585306 0.061284285 0.041149 -0.020616334 0.0013804808 -0.068015 -0.07572666 -0.035273675 0.0071034012 -0.0373972 0.028388651 0.08134556 -0.020413391
346 -0.06748183 0.013446325 -0.031007405 -0.07029419 0.017986096 0.037333842 -0.080967546 -0.03556665 -0.028491044 -0.020801501 -0.073388025 -0.05291082 -0.0013688493 -0.043571405 0.02622835 0.040944006 0.036896817 -0.076539636 0.010236801 0.07050817 0.004876146 -0.023665626 -0.010124104 0.03452512 0.04744632 -0.034904182 -0.031045847 -0.014136705 0.032201055 -0.014485349 -0.02868233 0.0410186 -0.05261815 -0.0046678623 0.07270039 -0.0010583205 -0.055314917 0.02480693 -0.029058529 0.002380392 0.079715155 0.08026894 0.03087197 -0.03946415 0.07815993 0.016011493 0.024749476 -0.069885604 0.040836457 0.038280644 0.015178929 -0.040470865 -0.014227289 0.06556164 0.023132205 0.04800003 -0.021696487 -0.06676348 0.038171403 -0.043425296 -0.04928727 0.07501773 0.021671262 0.043372575 0.009503011 -0.005454733 0.004648586 -0.07787682 -0.030081296 -0.061251383 0.05385826 0.033420026 0.0033039162 0.009187333 0.03870851 -0.04700356 0.07515697 0.035156377 0.009082172 0.014416033 0.01060901 -0.04448145 -0.077880666 -0.06844214 0.039722834 0.07513532 -0.0064831516 -0.056706104 -0.05988858 0.00078098616 0.026917597 -0.027804649 0.0015613786 -0.014861657 0.042148545 -0.0067442684 -0.030943325 0.076223925 0.06871052 0.05185632 0.061126076 0.022592453 -0.03318235 -0.025766555 0.028472511 -0.011375065 0.060146667 -0.028938333 0.027933521 -0.037404966 0.07188366 -0.032298375 -0.057662547 -0.0028720074 0.075055145 -0.07844527 -0.024512481 0.02333142 -0.033341188 -0.016880244 -0.06514403 -0.06394227 0.0043534506 -0.017316671 -0.015088106 0.048131887 -0.03796556 0.030711837
347 -0.08105622 0.012766777 0.033976734 -0.06262759 -0.009084731 -0.051448196 0.037058875 0.030444412 0.02351229 0.03960324 -0.0507812 0.026207356 0.037907373 0.030452188 -0.00068136805 -0.0126786195 -0.037272938 0.014506578 0.07674946 0.061961688 0.06729408 0.015680311 0.010677 -0.015747322 -0.034812093 0.022241035 -0.07747469 0.057617903 0.03510827 0.039837305 -0.024257801 0.07009429 -0.03044243 0.07544172 0.043436985 0.026872471 -0.0152949095 -0.0069309254 0.0028654272 -0.0049729464 -0.0054641343 0.079822116 -0.049351204 -0.034006495 -0.044704903 0.016962638 0.0052013607 -0.001659243 -0.0018751514 0.02591321 0.06237655 -0.03552772 0.033957046 0.032088544 0.07786074 0.022866748 0.07171591 -0.04669569 0.01012321 0.020346932 -0.004572068 0.07940822 -0.03311812 0.038888823 0.045129586 0.044999536 -0.0081306305 0.025783645 -0.017530262 -0.025879826 0.0226048 0.04577127 0.07051543 0.04474829 0.065790944 -0.020336801 0.013326327 -0.004523861 0.026924212 -0.030343007 -0.07137336 -0.075573005 -0.07854287 -0.0011942846 -0.01212166 0.016658988 0.028112194 0.037155297 0.01376482 0.06799966 0.03746802 -0.05209381 0.033278324 0.07247663 -0.021759849 0.0045406222 0.0113748135 0.032115303 0.076101094 0.008511567 -0.02400285 0.014002836 -0.027813846 -0.036394075 -0.0015360782 -0.050233025 0.03231909 -0.014775879 0.06482767 0.04340554 -0.020646883 -0.07824972 -0.06664877 -0.027801236 0.03586337 -0.05150004 -0.000110387686 0.0006573744 -0.057944167 -0.055296935 -0.014166341 0.017968556 0.029590786 -0.03236038 0.024876302 0.02712231 0.055611305 0.016824545
340 -0.04309472 0.011661176 -0.028583236 -0.03186353 -0.036473136 -0.020317778 -0.044296995 -0.036325544 -0.011253443 0.0047853137 -0.030803468 0.017673235 0.0060063996 -0.033609424 -0.009840035 0.07889021 0.010912462 -0.036619242 -0.038134348 0.06813906 0.07863162 0.06345961 -0.03692455 0.035725664 0.026937958 -0.03396908 -0.038368087 0.023238752 -0.007882062 0.030626435 -0.03902208 0.07801554 -0.013027489 0.03901073 0.0649971 0.05540178 0.016107839 0.05646157 -0.044118244 0.06255023 0.0099444445 0.072152875 -0.07395171 0.00026104634 0.06689516 -0.06904212 0.03627061 -0.029249256 0.014479408 0.034040462 -0.011477144 -0.0019439675 0.0021556714 -0.022883259 0.045849577 0.028330682 -0.015442515 -0.041107316 -0.034542568 0.002090252 -0.06950684 0.06993873 0.07178912 0.077871785 -0.03744807 0.0036135307 -0.041990053 -0.029112725 -0.045071118 0.02054424 0.048195068 -0.00973628 0.009238216 0.06686651 0.0038134637 -0.005416824 0.040951915 -0.026666699 -0.015948301 0.024596257 -0.06331631 -0.07748797 0.0014169565 -0.037030555 0.026837625 0.005505877 0.07693804 -0.06990474 0.03629994 0.057609446 -0.03369177 -0.022373509 -0.058046017 0.045283314 -0.0034464842 0.0811503 -0.058290496 -0.013441924 0.036270905 0.072054796 0.066536605 0.037888605 0.027511949 0.0135455895 -0.024398962 -0.049312744 -0.024441618 -0.051847853 0.049914777 -0.022294018 0.053058926 -0.004567125 -0.047944203 0.0401082 0.01211895 -0.008068142 0.0642439 0.0068965135 -0.017464153 -0.021930963 0.0046697278 -0.065241665 0.024034178 0.017550593 -0.0072375643 0.020507116 0.037201565 -0.06461996
341 -0.033296987 -0.03630427 0.031144451 -0.06556592 -0.026835881 -0.026941333 -0.06669075 -0.062257193 -0.018714234 -0.03463443 -0.014671033 -0.037881933 0.07107831 -0.007236414 0.03114684 0.029255696 -0.039731454 -0.039714478 0.07156474 0.036396705 -0.014680934 -0.023325918 0.03520891 -0.036635693 0.006461792 -0.014052684 -0.0013456576 -0.004945778 -0.05297473 -0.037897963 0.0762473 -0.036724094 -0.07981454 0.031954784 -0.016815245 -0.0037057148 -0.0714868 0.06692192 -0.017968372 0.038843192 -0.022159725 -0.028525434 -0.037938528 -0.036770225 0.06612971 -0.045618862 -0.038335063 0.0021054447 0.047112238 -0.06539182 -0.034328163 0.0052103745 0.055984847 0.024669934 0.046506844 0.035234313 0.044223208 -0.021096768 -0.017049532 -0.06951597 -0.07894761 0.0011815634 -0.023683747 0.013399945 -0.017437357 0.0532624 -0.03463537 -0.052582167 0.015231155 0.006694613 -0.008509349 0.016784223 0.055449747 0.019824874 -0.038969208 -0.020678084 0.055856533 0.053327154 0.029156266 0.03243046 0.007887792 -0.041780375 -0.014048541 0.02790287 0.011646117 -0.035999123 0.05657351 -0.00853596 -0.052716315 -0.03506075 -0.017504247 0.038366836 0.028649295 0.048983496 -0.019671317 0.04999004 -0.03987612 0.057343937 0.008296912 0.005902436 0.07523037 0.04517781 0.024486039 -0.021328723 0.0127746565 0.036562726 0.07799309 -0.052818798 -0.037350986 0.034176774 0.043217722 -0.018989075 -0.0697738 0.0018445919 -0.007146377 -0.034774 0.037088778 0.01649662 0.025164867 0.005734509 0.03004019 0.008946235 0.019791964 0.014242378 0.034751378 0.03820869 -0.025012685 -0.009368239
342 -0.019741502 0.038405567 -0.010785748 -0.024359478 -0.038270082 -0.015806215 -0.05293423 -0.024034314 -0.01412869 -0.06904599 -0.011543312 -0.039745532 0.032548267 -0.061893985 -0.014766971 -0.036934998 0.0808745 -0.001473218 0.067541376 0.026373487 0.07400379 0.032779135 0.03751242 0.0363703 0.03922492 -0.036908917 0.025996214 -0.028349398 -0.006696215 -0.03195388 0.03205074 0.036695376 -0.06761839 -0.008252465 0.014184572 -0.03427236 -0.06756006 0.016990006 0.027488496 0.06287475 -0.0041601835 -0.009450376 -0.067996085 -0.026037686 -0.000121658086 -0.016740441 0.03896538 -0.010170131 0.04428816 -0.034315743 -0.010023613 0.033743046 -0.029056048 0.025990201 -0.010247211 0.050526652 0.051985767 -0.05692782 0.039240308 0.011108467 0.01569961 -0.0231599 -0.027445266 -0.022941245 0.017834054 -0.0076375385 -0.033215635 -0.06484829 -0.06936422 -0.06862108 0.03235699 0.07532617 0.06554139 0.017697878 -0.017247641 -0.07258223 0.052383773 0.026160548 -0.020447467 -0.0011748914 0.018923331 0.02224471 -0.055260327 -0.0058106696 -0.0066066943 0.010783121 0.038506277 -0.027011016 -0.03287774 0.00108366 -0.026203977 0.025966002 -0.055532265 -0.014719201 0.034599897 0.08077245 0.014001388 0.061380606 0.05952432 0.07751309 -0.021894535 -0.037504632 -0.035053696 0.002990167 0.029542407 0.0020393478 0.030525286 0.03662134 0.011058127 0.015653692 0.042989712 -0.058501083 -0.041705992 -0.021566987 -0.0058973683 0.013420713 0.018628053 -0.062341176 0.020735588 -0.022507621 -0.06375255 0.03288744 0.028476005 -0.072331145 -0.034536045 0.06253917 0.06043844 -0.04412308
343 0.009538967 0.059105046 -0.010105788 -0.0077235624 0.013341039 -0.040450137 -0.06665288 0.019753853 -0.025386702 -0.01633164 0.0013981896 0.03207493 0.038709145 -0.0019938888 0.048714153 -0.03616726 0.0239112 0.03150855 0.0049806032 0.023167593 0.03780034 0.039905403 -0.041420005 0.0715861 -0.025438689 0.024592744 0.0019861518 0.054777134 -0.07472816 -0.046796065 0.014940916 0.048070315 0.00877608 -0.029804697 -0.019351628 0.07706959 0.018110765 0.012030756 -0.07891237 0.04133361 -0.0047499053 -0.001151168 -0.07265192 0.029310435 0.054087885 0.030297525 0.017846944 -0.02066567 0.035028387 0.00058712065 -0.025928643 -0.039058503 0.07694986 -0.041152343 -0.038387906 -0.00037524663 -0.023711313 -0.047744498 -0.017986039 -0.06424117 0.026914451 0.06497024 0.048980903 -0.029780267 0.018517183 -0.014097182 -0.026979199 0.027764767 -0.039054643 -0.07298043 -0.035814844 0.0055680256 0.054500036 -0.025368338 -0.0037194071 -0.0029879506 0.04644819 0.049284067 0.063026115 -0.05405002 0.033039033 -0.07252149 -0.07749515 -0.010276249 -0.06957505 0.010669737 0.057536364 0.02400944 -0.028124068 0.04530791 -0.04078695 -0.042696893 -0.05619774 0.028137254 -0.018830955 0.0042823697 0.014618591 0.046511065 0.059936665 0.07078545 0.0007851226 0.034930546 0.012178961 -0.001755642 -0.016292848 -0.07541027 0.062144667 -0.053282052 -0.012860251 0.00011948426 -0.020878565 -0.077555925 -0.0021933634 0.0042180493 -0.0067749135 -0.052115582 0.03115302 0.030509371 -0.04864903 -0.0052007213 0.01063509 -0.07036861 0.0305069 -0.04296808 -0.010506345 0.0023393915 -0.0089005055 -0.02917874
348 -0.020586932 -0.0008981419 -0.026899768 -0.043712888 0.07212635 -0.07675946 0.0075947577 -0.07419435 -0.056284945 0.01292598 -0.03209161 -0.008133545 0.080774546 -0.06899676 0.02384388 0.060253017 -0.035860345 0.03960621 0.08067859 -0.010215832 0.007067898 0.0551317 0.035513874 0.068171956 0.035777465 -0.079939805 -0.07701774 0.032048427 0.03841025 -0.0027406048 0.0562569 0.046293326 -0.008084449 0.04315162 -0.00031207968 -0.0023002895 -0.033621553 -0.034265976 -0.07893549 0.06834148 0.026136208 0.060026318 -0.04992148 0.016529305 0.033408165 -0.041848 -0.035681084 0.017215593 0.052132137 0.021522827 0.05815608 -0.028438058 0.011407048 0.03817843 -0.008565981 -0.021976748 -0.010594307 -0.014813018 0.05839545 -0.05629013 0.039739612 0.026952166 -0.032834217 0.06939395 0.056207538 -0.0032569272 -0.0030890703 0.025710076 -0.010292493 -0.039396524 0.04064237 0.076447405 0.05651088 -0.009146177 0.030532392 -0.038090575 0.06272811 0.073317096 0.062425703 0.019504469 -0.033359274 0.016992306 -0.043825336 -0.029107869 0.03721072 -0.03601429 0.060781248 -0.08024283 -0.069504954 0.038909525 -0.048477363 -0.0030716253 -0.022187524 0.007060126 0.0101357335 -0.034321412 -0.013395285 0.048430696 0.071516976 0.045962136 0.04038564 -0.026614388 -0.028823113 -0.013519873 0.012492179 -0.042674694 -0.02940333 -0.0019734097 -0.01842168 -0.015256538 -0.03197481 0.012876417 -0.055631094 0.035288677 0.05043712 0.009415246 -0.030937102 -0.01802086 0.03152281 -0.043415762 -0.059277244 -0.040061336 -0.058857962 -0.047928732 -0.008840779 0.046062805 0.056470007 -0.06872973
349 -0.029949144 -0.0070621567 -0.07847546 8.027989e-05 0.017185835 -0.070759214 0.03456606 -0.033079132 -0.06310187 0.028004993 -0.005118522 -0.07566381 0.005410708 -0.06148127 0.03618566 -0.036270797 0.02749845 -0.042454273 -0.023263924 -0.029336879 0.03932875 0.078214444 -0.0750035 -0.013610835 -0.03659201 -0.065255724 -0.006835656 0.061886057 0.029553182 -0.0073165153 -0.0029545994 -0.03470439 -0.055715006 0.009003836 -0.014165227 -0.012947975 -0.07714325 0.032230623 0.017158132 0.009863697 0.013347643 0.060006768 -0.069313064 0.0026501208 -0.013294022 -0.005454419 -0.012685151 -0.062130187 0.039935786 0.027722308 0.036269028 -0.03941912 0.076294966 -0.022563325 0.049637116 0.040035702 0.059017994 0.0074170115 0.06621144 -0.054679327 -0.045241416 0.0067298487 0.03607958 0.06674652 0.006845937 -0.033707682 -0.072236605 -0.053810164 0.011012624 -0.07192649 0.05119197 0.07294088 0.07055405 0.001038621 0.06800433 -0.02320399 -0.020051632 0.05296237 0.07817265 -0.0032272292 0.0321454 -0.06864347 0.0024142177 0.002737896 -0.04778742 -0.0023285686 -0.021476138 0.043355126 0.02211911 0.03518245 0.0250964 -0.032931145 0.010686028 0.055774473 -0.038503043 0.005666244 -0.0141192 0.0016105274 0.06580154 -0.03248908 0.0014833546 0.012677294 -0.015018608 -0.02058758 -0.031587318 -0.013239373 -0.010159399 -0.03432361 -0.03736978 0.07079192 0.0718367 0.02760098 -0.028763967 -0.013424629 -0.042392436 -0.03342742 0.06285852 -0.049057245 -0.008327266 -0.066356696 0.040106837 -0.030306587 -0.02017175 -0.057241295 0.049310032 0.042354155 0.027010784 0.032390404
298 -0.021863412 0.046723735 -0.0377005 0.007894923 0.06813146 -0.04339647 -0.059674937 -0.017550906 -0.073509954 -0.0029332852 -0.07279311 0.02512292 0.014889611 0.019597093 0.07717543 -0.03394358 0.067987114 -0.069377705 0.060093116 0.0710418 -0.0070594875 0.016496403 -0.05815144 -0.0008596814 -0.03494664 -0.07459026 -0.016794909 -0.038201805 -0.01686765 0.062173232 0.053999014 0.05473186 -0.012170437 -0.032291666 0.052893687 -0.021218812 -0.04219411 0.003128063 -0.05140835 0.039413072 -0.032248642 0.06742928 -0.02686433 -0.005563208 -0.0256285 -0.06352461 0.009129045 -0.051617876 0.04835315 -0.074078955 0.06535136 0.06896624 0.05607279 -0.029340684 -0.0069466736 0.07425822 0.019872975 -0.039207987 0.028248 0.03348443 -0.02396739 0.0027466936 0.07431037 0.011006675 0.05261543 0.014938005 -0.027943688 -0.05782154 0.032232244 -0.011863325 0.076768205 -0.011828048 0.05441141 0.06789437 0.004286492 0.032473676 -0.009862933 0.06528273 0.026860598 0.03148237 0.0011116125 -0.07357083 -0.02174288 0.040144473 0.039819214 -0.030046837 -0.024995666 -0.027678084 0.037301313 0.07789779 0.042417698 0.019669378 -0.026940007 0.044010077 -0.0036105746 0.025660349 -0.005267499 -0.0034853346 0.031228099 -0.03925076 -0.021999728 -0.034323107 0.0027718167 0.012143837 -0.03768704 -0.04090783 0.0147712575 -0.013642695 0.06078905 -0.036022317 0.0114905955 -0.05730341 -0.07332704 0.03544522 0.06258897 0.018119892 0.010475934 -0.0058340253 -0.01779316 -0.015459314 -0.03556277 -0.076366745 0.008178438 -0.08085089 0.06795878 0.016966263 -0.00028490787 0.02635696
299 -0.05568923 0.006930569 0.03253031 -0.0688054 -0.015617891 0.0005544629 -0.005839983 -0.0450359 -0.052367672 0.00274986 0.0020219923 -0.023475617 -0.036954194 0.038581867 0.07484799 -0.025649648 0.0015804175 -0.027686242 0.03147682 0.009196686 0.014585758 -0.036274582 -0.07125206 0.043735176 0.029116724 -0.0038549397 -0.03344152 0.056760013 0.038122196 0.015448204 -0.017170805 0.02876752 -0.039922837 0.078603745 0.0036993008 -0.009605385 -0.018712124 0.013976377 -0.059734713 0.075213626 0.052266367 0.023167744 0.039119266 0.02052024 0.018365193 0.035469953 -0.008664877 -0.023728544 0.054004144 -0.07610401 -0.03686252 0.07688344 0.0679115 -0.006731299 -0.029546944 -0.042550363 0.052418254 -0.07201563 -0.02987849 0.03817124 -0.023331335 0.009655833 -0.023482954 -0.021098042 -0.034389336 -0.006025099 0.03787635 -0.031116236 -0.07845303 -0.04979632 -0.033398096 0.061688475 0.06860501 -0.011655067 0.009063557 0.023190418 0.0554829 0.039159898 0.023047652 0.0036346007 -0.026562113 0.008060731 -0.025506051 0.03786269 -0.06625514 0.07009424 -0.011730576 -0.0340822 -0.001935316 0.055659715 0.009155712 0.020889482 0.004169505 0.024113247 -0.0061651217 -0.02253654 -0.00022060238 0.071996875 0.01257846 -0.035265945 0.01810142 -0.03859763 -0.021649424 -0.029396882 0.00034544303 -0.07868511 -0.028494911 0.028008195 0.02687511 0.055164523 -0.033801492 -0.052860215 -0.05902163 -0.0022956743 0.051464453 0.0020051703 -0.02254648 -0.05434364 -0.005021438 -0.016307628 -0.07529414 -0.06635524 -0.03436574 -0.058123436 0.049475413 -0.025974706 -0.002217277 0.03473186
296 -0.034116592 0.07726808 -0.01835296 -0.058374543 0.013188426 0.0007473213 0.02449356 -0.069288574 0.028293543 0.02446759 -0.07286446 -0.057313126 0.024077838 0.031593435 -0.03746626 -0.038311783 -0.019403778 -0.04329281 0.029282045 0.018624267 -0.03216245 -0.021082181 -0.070902385 0.00881826 0.045747004 -0.04819987 -0.014036571 -0.030050494 0.027498825 -0.029584207 0.064582065 0.07695492 -0.07226059 -0.037685946 0.025670294 0.073559776 0.029037246 0.020939708 -0.05367749 0.07449039 0.0008279092 0.032613058 -0.010179789 -0.022903115 -0.011540246 0.032612797 0.030257119 -0.04564694 -0.010012043 -0.061735116 -0.013535657 -0.022734122 0.05031627 0.08092336 -0.0140270665 -0.008033803 0.04152264 0.032354113 0.022173801 -0.06506885 -0.07533584 0.03578703 -0.015213039 0.06857283 0.06913364 0.03362988 0.0033555662 -0.004359235 -0.03288929 0.005560048 0.078964606 0.076351605 0.06518909 -0.038800057 -0.0005166313 0.014575947 -0.03196987 -0.008654462 0.0012297714 -0.006068022 0.035705443 -0.041192394 -0.076273456 -0.07350121 -0.004768459 -0.008314383 0.06332052 -0.031729236 0.03287238 0.05063436 0.012787304 -0.0528975 -0.027168715 0.011889081 0.06611111 -0.0078004543 -0.027712056 -0.014322873 0.043670446 0.027235182 -0.008051426 0.07551989 0.04591236 -0.075068995 0.021373484 -0.046185132 -0.026235387 -0.07928542 -0.016574007 -0.013934173 0.023234347 -0.054915186 -0.07219243 0.05329827 0.022692006 -0.03246259 0.072565824 0.03261645 -0.053264525 0.03430228 -0.0772431 -0.065212116 -0.042481437 0.020812409 -0.017358439 -0.0020494391 0.026293417 -0.07697244
297 -0.019366972 -0.0013493466 -0.04253302 0.029658828 0.07070398 -0.056368183 -0.007698767 -0.07586791 0.036344398 0.032966975 0.026426498 -0.012759321 0.02789709 0.0125957 -0.027779132 0.029880147 -0.03892274 -0.026256293 0.01922016 -0.016401978 0.062425334 0.057009175 0.032627683 -0.0020069429 0.02570477 -0.07762403 0.03578099 0.06603293 -0.020298447 -0.04006394 0.0674641 -0.010807488 0.035420284 0.07807947 0.042843696 0.069477685 -0.034575224 0.013360929 -0.07394065 0.07473195 0.057929605 0.03437416 -0.06424551 -0.034388937 0.0015818959 0.010414106 -0.005869583 -0.021548882 -0.026683537 -0.053332895 -0.0017141644 0.050730534 0.020103816 0.064672254 -0.026554707 0.034318026 0.070282534 -0.07205609 0.060025983 -0.065003425 -0.016826272 0.007259622 0.020947315 -0.008439229 0.07035877 -0.027132547 -0.035497095 0.007833463 -0.07855488 -0.0002978579 -0.003735817 0.08073349 -0.023115296 0.052716825 0.023821518 -0.029723287 0.044211034 0.05092361 0.026560271 0.028873038 0.0147494385 0.028072026 0.009519747 -0.053947646 -0.0035941866 0.047869723 -0.030900337 0.03298248 -0.025106668 0.06383248 -0.012085949 0.005158029 -0.029727323 0.044318493 0.07117927 0.0063396795 0.010749965 0.014615325 0.022210779 -0.026200715 0.044363085 -0.008647999 -0.010454626 -0.04045325 0.008627551 -0.018038815 0.038268525 0.0021605354 0.012544981 0.016083675 -0.032927465 -0.067243725 -0.066473596 0.007954317 -7.742806e-05 0.011055967 -0.018730873 0.020069553 -0.02945517 -0.0679855 -0.0019475863 -0.002960111 0.025111428 0.031797796 0.037310842 0.056396693 0.0688111 -0.077609606
294 0.02105526 0.025090506 -0.07592836 -0.048265543 0.05451781 -0.06597348 -0.023582544 0.033189498 -0.059309658 -0.00702616 -0.027683968 -0.07752709 -0.027294438 0.011327882 0.0351577 -0.0017335049 -0.017013242 -0.04412645 0.0002768268 0.03257407 0.0121907955 -0.020270636 -0.061244965 0.01948078 0.03747672 -0.033950284 -0.0018114089 0.0088043865 -0.040024273 -0.0031866007 -0.039320875 0.038599316 -0.07223273 0.05098605 -0.008556958 0.075413324 -0.07632972 0.049367636 -0.0097564105 -0.019175611 0.043383956 0.035722908 0.022023534 0.018954191 0.070053756 0.034670092 -0.059450608 -0.066820055 -0.00087851763 0.029865623 0.01107661 -0.03227 0.056218013 0.00950767 0.05408483 0.038199406 -0.01834059 0.039802864 0.07909921 0.038183123 0.023103967 -0.023164306 0.047989424 0.0108774025 0.037214648 0.0059989197 -0.06651618 -0.006785982 -0.018255286 -0.071829006 0.019836733 0.023687005 0.048752334 0.03492542 0.07516432 0.0038372236 0.05374573 -0.033628184 0.039556675 -0.07467604 0.033175666 -0.058747362 -0.052124146 -0.027555719 -0.07383225 0.062633075 -0.03307033 -0.07277477 -0.07281909 0.043324854 0.03754938 0.033436563 0.017538903 -0.030149931 0.03638297 0.036257755 0.017416742 0.007570607 0.004539185 -0.014395449 0.05756904 0.054417685 0.07644313 0.03080949 0.005623361 -0.06777324 0.052184023 -0.024889315 -0.037369628 0.008633194 0.0003305272 -0.0045383167 0.0017155744 0.00013014185 0.046106245 -0.06268034 0.011336391 -0.0013791616 0.03242138 -0.067938425 -0.037126634 0.0072164955 -0.054497976 0.034979112 0.039607905 0.046923213 0.08141047 -0.0383073
295 -0.019334309 0.032678332 -0.021167744 -0.0021953543 0.018729985 -0.0152979465 -0.06612291 -0.06757688 -0.0049726674 0.01434452 0.015176495 -0.05429115 0.06009637 -0.043398265 0.080660395 0.059153717 -0.023332484 -0.010828908 0.042837277 0.08069262 0.010190775 0.027458653 -0.0028429548 0.03403483 0.02166063 0.0023114844 -0.047484323 0.04315815 -0.002041094 0.07905606 0.014405232 0.058042835 -0.043383613 0.054379296 -0.037502892 0.008330431 -0.034746777 -0.038907617 -0.015469045 0.0120620085 -0.02664293 -0.025496002 0.015783682 0.03430594 -0.033600815 -0.072933756 -0.06673572 -0.012881231 0.041467953 0.02806526 0.049325373 -0.0223793 0.010492674 -0.019250626 0.06648902 0.062232878 -0.020758266 -0.06961061 0.012457024 0.039946396 -0.06726334 -0.0023744525 0.057520054 -0.03231743 0.039704386 0.05718661 0.029275233 0.0076379124 -0.0615188 0.036231138 0.038330723 -0.027709628 0.0016997518 0.020722726 -0.018489793 -0.07973133 0.07514918 0.047683362 -0.034626815 -0.05164942 -0.011233753 -0.0443441 -0.0077486974 -0.025391102 -0.014193467 0.06918697 0.008131758 0.039226446 -0.021329109 0.0561819 -0.01786121 0.02297244 -0.061752398 0.012963463 0.054161265 0.038557246 0.017790258 0.0547534 0.0010621311 -0.020017054 -0.028214803 0.021950554 0.036537006 -0.036314778 -0.033505965 0.036878813 0.039700788 -0.05792483 0.07636217 -0.025898775 0.067860335 -0.006276918 -0.043743357 0.03067086 -0.0075229425 0.011660949 0.00043179793 -0.04938164 -0.007883443 -9.2222705e-05 0.0031331757 0.023091815 -0.0409887 -0.017549828 0.05946166 0.07365933 -0.036973365 -0.068163246
292 -0.0740586 0.015216011 -0.06530498 0.003805577 0.054900832 -0.06381446 -0.0017659536 0.015198463 0.026555354 -0.0061922227 0.010253652 0.007921908 0.04017007 -0.060749948 0.058933556 0.07840602 0.037928134 -0.051568292 0.012682037 0.075387225 0.0069295564 -0.00087552436 -0.07239903 0.07682269 0.062114123 0.039616425 0.010762416 0.032457113 -0.06850085 -0.023920422 -0.016490564 -0.013978356 0.006041059 0.048684094 0.008083861 -0.011662268 -0.034076847 -0.037611283 0.029632721 0.018007923 0.033952676 0.033211853 0.0041029756 -0.052928917 0.02751245 -0.0068148845 -0.04623575 -0.044900216 0.05908056 0.02844018 -0.03101331 0.037837025 0.047936313 -0.032175113 -0.028228236 -0.009641351 0.057094578 0.0022114357 -0.02911681 0.014953565 0.013410679 -0.0028282525 0.0729301 0.059073005 -0.02275487 0.07774294 0.009390165 0.02509505 0.016220829 -0.0712415 0.00064972835 -0.041394416 0.0070855087 0.0058066286 0.0055641094 -0.008619912 0.065192915 0.004037455 0.02468445 0.00069557654 -0.0547533 -0.003258658 0.020509565 -0.04685517 0.009700196 0.0379415 0.0671255 -0.06055509 0.02498862 0.045081902 0.0048920084 -0.07293945 -0.044971596 -0.037841234 0.06565077 -0.0025358656 0.01597279 0.04771319 -0.032539792 0.048491295 0.0046577947 0.070226714 -0.037171323 -0.052394614 0.03152191 -0.0651747 -0.007901163 -0.06550652 0.045672838 0.059354153 -0.015662633 -0.07106661 -0.023239516 0.0682082 0.0683673 -0.0074037313 0.049289886 -0.027034126 -0.026590813 -0.066565976 -0.07459557 -0.042733476 -0.02859722 -0.028727438 0.023399903 -0.001212942 0.022075584 0.024585973
293 0.01640739 0.05935816 -0.057926938 -0.05196627 0.06416917 0.030228743 -0.046741888 -0.045663998 0.027905216 -0.03503015 -0.037532665 -0.06060395 -0.015240141 -0.0063152695 0.050045095 0.049006905 0.016482871 -0.04922996 -0.020487806 0.063490875 -0.02781471 0.02091942 0.0050308364 -0.012623313 0.08076983 -0.0795161 0.013117782 0.07615126 -0.022941459 0.031068163 0.06914967 0.0005637726 -0.056669593 0.077922925 0.060181122 0.05777465 0.015902216 -0.023069609 0.032267783 0.017353136 0.027268754 0.046625838 -0.0023979757 -0.04238239 0.01737619 0.027441755 -0.07822633 -0.072229445 -0.0371618 0.0391966 0.039539427 0.062531725 0.0066981707 -0.013135524 -0.013505724 0.046225216 0.045575533 -0.0014761435 0.012349831 -0.06960804 0.03657517 0.073232956 0.075963646 0.06223319 -0.014367743 0.055132218 -0.029222334 -0.05389167 -0.06998145 -0.04479273 -0.006695162 -0.04257328 -0.009917419 0.02453478 0.051592924 -0.08100844 -0.013306644 0.03348266 0.01931013 -0.017947542 0.024313387 -0.0684609 0.03164092 0.034835532 -0.06259058 0.055309698 0.03190263 0.0046424232 -0.044051155 -0.04411876 -0.0524898 -0.040595796 -0.08075841 0.02852139 0.031797986 -0.003853357 -0.039317917 0.027884388 -0.011231074 -0.02673569 -0.03464806 0.052230846 -0.028409464 -0.04879836 0.0010785909 -0.020446492 -0.015419103 -0.015642783 0.014244448 -0.03013565 0.030199138 0.0043196636 0.035792183 0.07220329 -0.038969144 -0.016502943 -0.029377133 -0.0031530675 0.0016183795 -0.08035108 -0.05642967 -0.0070250053 -0.03860483 -0.0042245984 -0.01807379 -0.034712277 -0.01676046 -0.0635643
290 -0.073790364 -0.026597885 -0.02021479 -0.028006323 -0.008054653 -0.0149557395 -0.019845102 -0.028989628 -0.075877555 -0.057572875 0.022687143 -0.06878625 0.047168035 -0.011223031 0.072015546 -0.03898627 -0.018035004 -0.05053983 0.03503968 -0.030947646 0.0075997766 0.050118487 0.01587343 0.012120001 -0.023028258 -0.07537049 -0.0038066623 0.019218193 -0.025487274 -0.0033193189 -0.0076371785 0.025189785 -0.009310645 -0.033456415 0.021300389 0.010826252 0.00010678184 -0.023684591 0.029988939 0.06353813 0.042807393 0.017246908 -0.0069224876 -0.07436763 0.043851748 -0.04728811 -0.03198393 -0.011645702 0.0071367403 -0.021780552 0.0030707614 0.057305172 0.06787537 -0.009820901 0.009303734 -0.031912137 0.050978683 -0.043589063 -0.013833731 -0.0023958248 0.010131339 -0.0034288457 0.028783968 0.040005226 0.068731576 -0.008544206 0.022499328 -0.022999385 -0.023483038 -0.0770179 0.045412596 -0.028335437 -0.0117604565 0.013557695 -0.015969168 -0.077209644 0.065433584 0.034001004 0.06166627 -0.060688056 -0.048914608 -0.035393786 -0.005349325 -0.02310713 -0.06717187 0.050352 0.0041620354 -0.011859829 -0.048044335 -0.0361797 -0.075013354 -0.045406967 -0.056005638 0.057442263 -0.015935939 0.0722313 -0.05631143 -0.013546216 -0.039561473 0.062440038 -0.0114187375 0.0024340786 -0.034930315 -0.04305398 0.018927239 0.029009927 0.068681546 -0.07712068 -0.033188988 -0.0049299747 0.05050875 -0.02715866 -0.03914937 0.02054468 0.008196954 0.0040322365 0.0758152 -0.02226065 0.018459626 0.036948547 -0.044662032 -0.0346141 -0.058474056 -0.018211877 0.018291295 0.065945596 -0.038494498 -0.029835748
291 -0.064402975 0.010132699 0.037361138 -0.05878433 0.009328162 -0.06612313 -0.03698328 -0.0570396 0.034959435 0.04048816 0.02215194 0.037606027 -0.033457633 -0.05424397 0.07501035 0.045360602 0.008020872 -0.074934654 0.07834223 0.015043812 -0.0029478907 0.014358446 -0.01761628 -0.0056249443 0.06907665 -0.06792413 0.0042709433 0.024337362 0.015437357 0.075343974 0.016764782 -0.031711113 -0.06111892 0.04183257 0.038053866 0.04844013 -0.06270581 -0.009503912 -0.039260875 0.022715615 0.035450965 0.044056702 -0.038702365 0.0385396 0.025197992 -0.07642166 -0.077028796 -0.06664024 -0.015459125 0.03165414 -0.029122615 0.000690624 -0.0043570995 0.040103137 0.050182875 0.01065558 -0.036824603 -0.045625996 0.054759383 0.016990636 -0.06504457 0.016507225 -0.023622954 0.079618104 0.06800226 -0.020816686 0.037004225 0.016992953 -0.07985255 -0.061724275 -0.03395882 -0.036089342 -0.001915507 -0.016242966 0.0648805 -0.06398436 0.061444215 0.027879767 -0.030300114 -0.008123621 -0.06756077 -0.005726034 -0.004390863 -0.03182704 -0.08090536 0.04395194 0.06445777 -0.06142756 -0.056996062 -0.0443877 0.034299076 -0.053603757 -0.051201127 0.0531864 0.05315436 -0.020742973 -0.054068014 -0.028958088 0.006690526 0.0807683 0.036512025 -0.010676184 0.06888109 -0.07879728 -0.032673124 0.0054266276 0.050543923 -0.019334387 0.04117816 0.014276667 0.012868879 -0.02743241 0.011129051 0.055842306 -0.007553662 -0.07532716 0.015593308 -0.049887024 -0.03057358 -0.02387154 -0.06513347 -0.062454667 -0.062051613 -0.038811743 0.008104101 0.070951395 -0.0031898967 -0.016859433
270 -0.0717492 0.049523983 -0.05874254 -0.071653835 0.068184175 -0.0045403717 -0.05267851 -0.0009994431 -0.07359749 -0.0138488505 -0.04311024 -0.009950319 0.02306006 -0.031131214 0.013107602 0.04486942 0.049966484 0.039353777 0.051414233 0.07337184 0.004357261 -0.036174905 -0.009118751 0.060447015 0.069333404 -0.018976148 -0.05455975 0.08076873 -0.035706375 0.04350794 -0.011267555 0.0069352295 -0.02443954 0.0016066519 0.05077319 0.06536026 -0.017860832 0.013286369 -0.07960738 0.05848797 0.055354282 0.019277506 0.02831114 -0.026930539 0.06186676 -0.042937316 -0.00949111 0.019322412 -0.000558665 -0.062868476 -0.029417336 0.07336215 -0.016691623 0.05677116 -0.025764622 -0.026036233 -0.019627308 -0.06477252 0.036628928 0.01757891 -0.0711025 -0.003547776 0.062155284 0.014288684 0.069835305 0.0010404218 -0.07392782 -0.034889944 0.0100664105 0.020647634 0.0050358307 -0.034363415 -0.0058878483 0.033670112 0.059734512 -0.046639707 -0.034479655 -0.011439007 -0.007401833 -0.004212681 -0.0112735825 -0.0407624 -0.035523802 -0.052628264 -0.040491316 0.006303615 -0.020994773 -0.008566582 -0.03803182 -0.038350016 0.023415979 -0.062442854 -0.050019108 -0.010067857 0.011021782 0.0056324746 -0.023842942 0.036735494 0.054947495 -0.034084532 0.05535738 0.022325467 -0.019039646 -0.06573801 0.01004767 0.034851354 0.021398569 -0.07385191 -0.010656915 0.031026613 0.0645526 -0.057217177 0.011009104 0.02782926 -0.038731143 0.018099077 0.020305648 -0.06669358 -0.055137716 -0.0754721 -0.015960589 0.012066974 -0.07595957 0.036191177 0.020137474 -0.010563077 -0.01064237 0.0051771337
271 0.03605146 -0.014378599 -0.049954604 -0.036040667 -0.00818872 -0.0017000984 0.031711787 -0.0657961 0.015681624 -0.04860009 0.00534054 0.0016671143 0.04773672 -0.054080762 -0.026210746 -0.020471651 0.014023323 -0.005715259 0.047528934 0.031054443 0.06465022 -0.042010646 0.0004580093 0.04425076 -0.009857801 -0.032062516 -0.025307283 -0.027537474 -0.042374585 -0.015016301 -0.016675051 0.019401206 0.02816903 0.058253497 0.062531635 -0.027722552 -0.029899433 0.009998054 -0.02605696 -0.02160817 0.035534095 -0.020480342 0.016514407 0.0026340182 -0.03962045 -0.020068992 -0.06301018 0.014102526 0.03026044 -0.034310263 0.050156195 0.049959153 0.05351801 0.008406626 0.067242034 -0.0016463872 0.0065264176 -0.055959374 0.0012393363 -0.06386442 0.00093411794 -0.008022795 0.05524724 0.07369069 -0.00034185243 -0.031158527 0.036347106 -0.07122584 -0.07623277 -0.07846313 0.0419638 -0.028204732 -0.036085337 0.011104162 0.03190893 -0.047310323 0.08119487 0.073355205 0.061055478 0.030609528 0.02794705 -0.06617275 -0.039089095 -0.0032802676 -0.0053142356 -0.0076250685 0.0656002 0.04424566 -0.06940238 0.035854798 -0.0038959319 -0.01315143 -0.076407745 0.005103801 0.06478367 0.06130876 0.0074459636 -0.029898718 0.02167419 -0.02651403 -0.001605798 -0.019691145 -0.026207706 0.010198881 0.07613568 -0.017047638 0.00668883 -0.048232533 0.06991045 -0.0065865265 -0.00961698 -0.016129352 0.033531286 0.04395054 0.051285595 -0.010601053 -0.030808823 0.0069444 -0.009233138 -0.03444736 -0.07213221 -0.014005536 0.016063146 -0.06675571 -0.025808401 -0.001326164 -0.025713615 -0.020368764
272 -0.008454131 -0.009061126 -0.07197162 -0.039842065 0.054441642 -0.014703627 -0.0037870135 0.01484022 -0.07897948 0.039340097 0.026771381 -0.04737467 -0.035740923 -0.08014881 0.06540816 0.011717355 0.074759915 -0.02873649 0.04196315 -0.01110003 -0.017900381 -0.011088471 0.02073394 0.018708836 0.06989091 0.007559514 0.03772827 0.065669715 -0.07893337 -0.027131448 0.001527257 0.011484309 -0.07366709 -0.0007399076 0.01821546 -0.03909826 -0.061979484 0.023303006 0.026460687 0.024636146 -0.013166495 0.041491974 0.027011735 -0.008182772 0.07430304 0.026253793 0.034723755 -0.016509846 0.041218415 -0.029764045 0.044735402 0.0134999445 0.07496624 0.036032673 -0.0032357853 0.07426393 0.044611078 -0.066882215 0.021213474 0.041264113 -0.035283014 0.076437645 0.03879826 0.06948542 -0.022414917 0.009635266 0.011063048 -0.0011504687 -0.06207934 -0.027241712 0.071281955 -0.00033131335 0.050006308 -0.001110655 -0.038258664 0.0018484733 -0.00685166 0.008345325 0.020921351 -0.044640694 -0.035772644 -0.04068746 -0.03129051 -0.058870014 -0.06808415 0.007889916 -0.003061215 -0.0145418765 -0.01779509 -0.0066987653 0.0046046665 -0.03218828 -0.02253656 -0.012331866 -0.026184235 0.021184342 0.0267243 0.04149717 -0.0077028475 -0.0353599 -0.03409518 0.03956169 -0.0034706295 0.015700368 0.06641134 0.022578733 -0.018275058 0.014012161 0.07061636 -0.021546116 0.077461004 -0.063655265 0.004823426 0.047326144 0.0799358 -0.039450973 0.07467969 0.03700596 0.019341504 -0.002478351 0.021900602 0.010809414 0.027770527 0.03737708 -0.022687536 0.038925048 0.04246322 -0.010394519
273 -0.058566958 0.008350534 -0.029371813 -0.016722031 0.05734222 -0.017068755 -0.011736399 -0.04311078 0.029209778 0.035643015 -0.023713266 -0.019137423 0.011289921 -0.031870384 -0.020643007 0.06765526 0.051832985 -0.044543304 0.07060969 -0.020251581 0.0047368826 -0.03988688 -0.07920541 0.033348437 -0.0007399811 0.018831188 -0.03663322 0.059762802 0.002125854 0.054488167 -0.012892145 0.037819758 -0.07857037 -0.0037568465 0.05091149 0.021070039 -0.074613094 0.016161967 -0.006474773 0.00850996 0.007831968 -0.0037357523 -0.006014065 -0.0061856806 0.039700463 -0.0038452805 0.023273343 -0.05655362 -0.0059189163 -0.041688498 -0.034891468 -0.007961406 0.07555246 0.052359104 0.07410373 0.06848058 0.056312595 -0.06833046 0.06559702 0.042751692 -0.06594571 0.07417035 0.064201504 0.016834384 -0.01770488 0.04334362 0.001650612 -0.046182867 0.03842193 -0.039195202 0.03618818 -0.03865075 0.047211397 0.07603888 -0.03251274 -0.019863037 0.057962656 0.03242344 -0.037350483 0.023899443 -0.051052928 -0.04310026 -0.0136421 0.007586303 -0.06709444 0.07163719 0.028599204 0.022254458 -0.0030315598 -0.029325666 0.022771303 -0.07186169 0.04730893 0.02049476 0.009357443 -0.015700415 -0.0138936965 0.078713395 0.041685503 0.023187034 0.02657643 0.05020487 0.073996775 -0.06909631 0.020765087 -0.011001192 -0.015345438 0.033211168 -0.019593239 -0.0019494084 -0.037880037 0.010550514 -0.029753465 0.034365777 0.04545717 -0.007752606 0.058280397 0.011271203 0.02496141 0.03209469 0.026406473 -0.014900587 0.03326311 0.027640803 0.061884616 -0.019908186 -0.012967998 -0.04142352
274 -0.011311375 0.040281456 -0.048110124 -0.06961602 0.03787647 0.0014869331 -0.013667464 -0.038607225 0.006206056 -0.05403513 0.010016118 -0.06384977 0.04631984 -0.048753787 -0.002295713 0.08007052 0.017693626 -0.053326357 -0.027955443 0.027990634 0.023149712 0.024338637 -0.01873323 0.07981705 -0.014505704 -0.010061478 -0.0064418553 -0.0061033284 -0.07481031 -0.04782084 0.033649284 0.06800123 0.0332638 0.04850151 -0.01319889 -0.00059041753 -0.011516254 0.02753175 -0.022137575 0.0109372055 -0.0379837 -0.0034152493 -0.04403688 0.03310916 0.019633887 -0.07056935 -0.05461425 -0.018153705 -0.0011728202 0.015079761 -0.018109985 0.013050532 0.004103591 0.022483677 0.0780621 -0.028295057 0.023879312 -0.033591717 0.048782706 -0.043863483 -0.014792139 0.049281333 0.066637956 0.06892569 0.014205605 0.013618231 -0.0039080596 0.0016167376 -0.026713658 -0.06588575 -0.03145186 -0.027479658 -0.0026569683 0.026065458 -0.009560483 -0.026316399 0.04916054 -0.02341571 -0.016253285 -0.049705587 0.008288479 -0.043691695 -0.022020087 0.015519629 0.019571375 0.0787372 -0.036870986 0.0063971668 0.01254749 -0.015266165 -0.06985091 -0.0653322 -0.029302439 0.05167741 0.02053073 0.04932493 -0.0678023 0.0119405035 0.024765255 0.037435543 0.071954325 -0.02425 -0.011150844 0.030512895 0.03837846 -0.04516808 0.030581977 0.0017963053 0.079429306 0.06702916 -0.027210042 0.0146902455 -0.046571355 -0.015785271 0.018438093 0.03498256 -0.019824894 0.0149119785 0.022085238 -0.0049723596 -0.068558484 0.026691625 -0.055627342 -0.027958708 0.018334338 0.046382464 0.048282508 0.0047370587
275 -0.05444026 0.055526625 -0.033758648 -0.024993068 0.06669435 0.037466004 0.009427569 0.00774475 -0.052863523 0.020175831 -0.026391638 0.024488037 0.010870407 -0.033432547 0.031908374 -0.009372606 0.0671305 0.003973707 0.019849168 0.07306745 0.023858784 -0.008288147 -0.059321746 -0.020734195 -0.012543557 0.02762564 0.010340868 0.055670664 0.002110278 -0.035829004 -0.038583674 -0.029273339 -0.01124367 -0.032753047 -0.01670995 0.022252645 -0.0024969743 -0.0025905282 -0.0684946 0.060797755 0.046217278 0.03383936 -0.076335154 -0.052733935 0.06865447 -0.07700009 0.0338262 -0.028100131 0.07903629 0.02589108 -0.038511146 -0.025513059 -0.0048165414 0.016455406 -0.03669971 0.07347003 0.03558402 -0.024965867 0.04299786 -0.06584632 0.017644804 0.05392978 0.021042686 -0.013728926 0.033647276 -0.027892584 0.035265345 -0.025609437 -0.058110457 -0.07997197 0.04431172 0.036162727 0.056736734 0.043323703 0.07255707 0.030703958 -0.002671339 0.037805527 -0.022541434 0.035387255 0.0013800064 -0.014795903 0.017390147 -0.034380767 0.022778496 0.069226205 0.0646781 0.029376872 -0.08096249 -0.023712246 -0.0677351 -0.07943699 -0.0025318768 0.03120968 0.011677768 0.020384714 -0.027799029 0.009187369 -0.027263595 0.015944786 0.02735729 0.0719977 0.07470509 -0.06548155 0.055363152 0.03660147 0.04574256 -0.04310059 0.052269045 0.01892833 -0.008829306 -0.062785484 -0.054713603 -0.033687647 0.028184386 -0.051981445 0.073723294 -0.022961779 -0.011507419 0.0044415565 -0.05210199 -0.05092925 -0.008083254 -0.027322678 0.026882136 -0.031162176 0.04863875 0.008483643
276 0.017596189 0.025529137 0.031978883 -0.032265242 -0.02233469 -0.024481066 0.017073179 -0.043473933 0.03938962 -0.046146296 0.025031323 -0.030801684 -0.009773856 -0.0031236191 0.03701892 -0.021658007 0.0073018773 -0.03872848 0.027171288 -0.013287486 -0.029077562 0.06428887 0.00027919444 0.012162431 0.032329425 -0.07061737 -0.02881495 0.06286768 -0.07740678 -0.0031112358 0.048009142 -0.005304676 0.03908278 -0.026942674 0.05614459 0.022684086 -0.0062715234 0.06382143 -0.037055433 -0.016850991 0.020946797 0.07318989 0.0016060784 -0.03224122 0.019818885 -0.007894072 -0.072142944 -0.03856999 0.010096874 -0.013604017 0.05652791 -0.009188775 0.039977048 -0.006374994 0.04809884 0.028819874 -0.0017567581 0.0037629046 0.059528194 0.022127137 0.0018965715 0.005038025 -0.031257458 0.040010445 0.02913866 -0.023125729 -0.046034332 -0.031349707 -0.025112854 -0.06719442 0.025203975 0.035608627 -0.03864302 0.07457205 0.050944757 0.024456592 0.032269027 0.021230884 -0.038179744 -0.055316128 -0.07105487 -0.008053215 -0.011068581 0.03971099 0.014808587 -0.008858458 0.023521889 -0.07322996 -0.05228519 -0.03715033 0.024215735 0.037511755 -0.00714355 0.05742376 0.003153017 0.05761245 -0.06314834 0.080434814 -0.03588806 0.002350015 -0.024527008 0.027753344 0.05614017 0.0015188471 0.026455507 -0.009506851 -0.037595212 -0.067735076 -0.032648657 -0.007646746 0.020991797 0.032334384 0.024956586 -0.033829957 -0.0011996519 0.03581644 0.07493879 -0.03129634 -0.06087964 0.031790856 -0.05563953 -0.022793544 -0.0035964018 -0.05977866 -0.011297867 0.012695768 0.05950845 0.022807667
277 0.03568153 0.02284146 -0.04063037 0.030773683 -0.03072282 -0.002683724 0.015142312 0.01571482 -0.03396066 0.0034666846 -0.06497389 0.0109174345 -0.029200012 -0.061175816 0.00072473125 -0.021873584 0.02489017 -0.06626638 0.07060164 0.0748036 -0.023830814 0.034561723 -0.021748032 0.07409817 -0.035417274 0.0371149 -0.06967233 0.077686876 -0.05275828 -0.011515885 0.022047976 0.04409315 0.024425618 -0.026487263 0.057101324 -0.015472839 -0.0800416 0.045406666 0.02411582 0.023656046 0.07841608 -0.015390861 0.008646869 -0.053103805 0.04560208 -0.009350651 -0.030326393 -0.027696867 0.024749322 -0.074893944 0.008529002 0.0089010745 -0.041813243 0.06794909 0.07229352 0.06966831 0.050773922 0.004923685 0.0645263 -0.002365762 -0.03808431 -0.033344664 -0.021621522 -0.0202477 -0.009886542 0.022243453 -0.014371731 -0.0050690845 -0.016712483 -0.06948772 0.014050528 0.039087046 0.032960534 0.06567988 0.019327829 -0.07250134 0.03514734 -0.0141816735 -0.021229187 -0.047520496 0.0073176487 -0.0066280663 0.028846255 -0.061504982 -0.075077936 0.05918536 0.069197156 0.021049976 -0.051225998 -0.010379072 -0.054380935 -0.033541907 0.03878112 0.056024555 0.062495437 0.056554712 -0.033282485 0.06304157 0.07471776 0.03688728 -0.0061139637 -0.00012621132 -0.019292708 -0.006898363 0.051875543 -0.024225866 -0.02994608 -0.06730764 -0.024783213 -0.025567012 -0.03529639 -0.019272925 -0.036548384 0.040504396 0.060424946 -0.034647346 0.013144696 -0.04994879 -0.0716572 -0.0066468962 -0.07932989 -0.02503327 -0.025895134 -0.050313685 0.047017608 0.012446053 0.0023521977 -0.073750906
278 0.010466169 -0.00287328 0.035886556 -0.04170281 0.055791512 -0.027110672 0.00709688 -0.021450372 -0.04324809 -0.0054863472 -0.020539964 -0.030989163 0.054176997 0.032361206 0.03439248 0.06368748 -0.03502397 -0.019898415 -0.022551721 -0.035910428 0.050741002 -0.041615218 -0.041716192 0.031233327 -0.008967873 0.037819214 -0.043304045 0.0429428 0.029725844 0.017198477 -0.01894193 0.04819462 -0.0038818968 -0.0045060203 -0.0055058436 -0.0021354025 -0.073511556 0.024098996 -0.07901336 -0.033063073 0.067091085 0.072432466 0.02510142 -0.032079905 0.04382602 -0.05824243 -0.0075299847 -0.07432985 0.07197551 -0.03815084 0.0028203614 0.07691455 -0.032097545 0.041689683 0.006564089 0.05521722 -0.0060433033 0.032919846 0.025867855 0.038498044 -0.025379807 0.07996308 -0.016552601 0.066960976 0.034908503 -0.024601843 -0.050427835 -0.0087735 -0.06431499 -0.053444766 0.063450836 0.027456973 -0.005478552 0.046817265 0.045068506 -0.043470662 0.07816824 -0.013874328 0.0019423007 -0.028588371 -0.034807988 0.024772253 -0.053182214 -0.024214527 -0.06806277 -0.03402401 -0.021389704 -0.06065316 -0.0026935185 -0.026714932 -0.068257235 0.034764104 -0.005396956 0.04565162 0.066521905 0.03965661 0.033200637 0.06165432 0.044763047 0.053799998 0.034194667 -0.031260114 0.0692232 -0.0684604 0.078057624 -0.058283284 0.03467783 -0.020744834 0.080649965 0.010309663 0.07756078 -0.01103273 -0.029167173 0.053956255 -0.006150851 -0.016467921 -0.015383432 -0.03563089 -0.077131964 0.013324494 -0.07778306 0.009563221 -0.05027238 0.009371933 0.064694546 0.04717646 0.016563982 0.00037698762
279 0.0097303875 -0.008180786 -0.05153099 0.018672517 -0.018818311 -0.06299099 -0.030310543 -0.042966306 -0.04616474 -0.050555695 -0.01360142 -0.062356994 0.0073347283 -0.07896724 -0.030312743 -0.005397939 0.051921893 -0.033359304 0.01762235 -0.0036390712 0.04194641 0.027646236 -0.07051561 0.08099859 0.032456655 0.042303775 -0.029017122 0.024446364 0.031577434 0.07361694 -0.037687212 -0.007775421 -0.012724008 -0.0011669163 -0.003733988 0.049025178 -0.029545512 0.07104325 -0.06445505 0.062473677 -0.013720866 0.03583462 -0.050813843 0.018464172 0.030941106 -0.046325937 -0.051458035 -0.07074213 0.020431366 -0.029032331 -0.028907968 0.020904629 0.052559026 0.06353819 0.045481637 -0.021634968 0.029470533 0.006222639 -0.0016048515 -0.049744643 -0.03906624 0.044835966 0.016405154 0.052491605 0.014082747 0.036470313 0.007006566 -0.060088113 -0.06519902 -0.07790818 -0.0033691735 -0.0022843522 0.06557447 0.013942192 -0.025789712 0.006778442 -0.034253538 0.04978533 -0.016730672 -0.023811933 -0.06437226 -0.0013240929 -0.06173769 -0.04984322 -0.037441008 -0.037616696 0.04130993 0.019771839 0.0015444376 0.061185256 -0.02953281 0.039337587 -0.06503285 0.03766216 -0.019433923 0.049225707 0.02815812 0.04764093 0.008415094 -0.0023573372 0.0133897085 0.03354264 0.0754388 -0.063286245 0.075413495 0.0052607837 -0.039002374 -0.03210723 -0.016706673 -0.0053151953 0.024481216 0.0008874617 -0.03481087 -0.006969855 0.02463104 -0.016084626 0.07198939 -0.010990278 -0.05999457 0.02108616 0.004877328 -0.044141218 0.03961517 0.009178351 0.035105668 0.062150665 0.009314294 -0.07061211
108 0.019204233 0.058205243 -0.071228534 -0.005522606 -0.0116048455 -0.044340566 -0.07281072 -0.053715885 -0.07707744 -0.01031502 -0.025180353 0.033177834 0.041077916 -0.013792077 0.04674633 0.03479948 0.052806232 -0.005052271 -0.009182802 0.04450233 0.016469881 -0.0036856183 -0.0012837882 0.0624269 0.046932094 -0.014655394 -0.026365409 0.031351075 0.037251078 0.0009929329 0.015648622 0.05848498 -0.06031597 0.034083124 0.08115694 -0.017760472 -0.059144896 0.016497603 0.03372976 -0.0079552205 0.074091196 0.03759867 -0.025834877 -0.03377848 0.074842736 -0.06859439 -0.033367053 -0.046249874 0.038453475 -0.024977732 0.060063098 -0.022874046 0.0042485585 -0.033661112 -0.029540708 -0.035447802 0.025315147 0.029256402 -0.03715715 -0.02912335 -0.05383001 -0.011935848 0.062098134 0.0794415 -0.0019319892 -0.038853876 0.020286491 -0.05606508 -0.074964575 -0.0071989633 0.0465477 0.01952827 0.023469366 -0.0372991 0.0069875102 0.017177258 0.07725746 0.0606107 0.006407194 0.013507013 0.009429406 0.01807513 -0.04583647 0.006792538 0.0044168206 0.028556094 0.011561286 -0.030219255 -0.045217954 0.06766921 -0.07438903 -0.06535286 -0.058600873 -0.02571075 0.054096006 -0.0014911472 -0.04426021 0.021581108 0.043873195 0.027843159 0.0070266854 -0.012294896 0.006780952 -0.046818525 0.03408176 -0.05615695 0.044443194 0.015035237 0.04846903 0.046769485 0.052104734 0.010695873 -0.022652742 -0.026259486 0.06289887 0.0017017032 0.008257698 -0.057534475 -0.007308061 -0.030446528 -0.022143511 -0.0051332507 -0.011814836 0.034871142 0.027995065 0.008605758 0.016266778 0.015724652
109 -0.056149602 0.04217423 -0.051647834 0.01887319 0.042853605 0.029909141 0.038042407 -0.051859707 0.0012313385 -0.019453421 -0.05555974 -0.06552512 0.059389003 -0.056682337 0.06705391 0.035675954 -0.013755648 -0.0082039945 -0.035141006 0.037558142 -0.029529486 -0.02945387 -0.06878274 -0.0049297945 -0.012076801 -0.01571402 -0.0032561803 -0.025489831 -0.06528274 -0.00741639 -0.011068092 0.035939485 0.00046993187 0.022992566 0.050113395 0.027223406 -0.060069267 0.07826918 -0.032914132 0.0009821401 -0.03104542 0.06751813 -0.0018279498 0.012410756 0.067579836 -0.06638322 0.026531922 -0.051230293 0.070414394 0.0041382452 0.035028044 0.07950398 -0.02242547 0.026149182 0.031235073 0.06723127 -0.03128416 0.03203156 0.04226371 0.039553158 -0.029212013 0.026743565 0.07297944 0.055136215 0.06354508 -0.0026548947 -0.0439955 -0.063497506 0.012848731 -0.03597993 0.04753652 -0.00554226 -0.031127436 -0.0222265 0.056280542 0.034514505 0.024832696 0.001010532 0.021882974 -0.039145783 -0.004837317 0.016388735 -0.08089851 -0.034127172 -0.024750764 0.02963682 0.024992136 -0.0031106232 0.027231148 0.06960967 -0.01162259 -0.028524332 0.019325871 -0.0016616717 0.06879664 0.06779519 -0.016507084 0.024843281 0.006592752 -0.04229506 -0.024303596 0.07734888 0.02056253 0.038956165 0.043534555 0.009953261 -0.035986163 0.03049441 -0.03935026 -0.03533405 0.039910637 -0.07965572 -0.0126297 0.0007012208 -0.030822609 0.026666872 0.023345806 -0.03638804 -0.04248543 -0.047452673 -0.04960745 -0.00373496 -0.050049808 -0.035029173 -0.017056772 0.0223984 0.07533193 -0.06265947
102 -0.061512668 -0.0018220686 -0.061262242 -0.0031155937 0.078132 0.03456097 -0.08006847 -0.042828355 -0.005919769 -0.042514108 0.002376675 -0.016437836 0.06246149 0.035290033 -0.022495588 0.009765402 0.041881938 -0.061641768 0.059680432 0.06178726 0.080735326 0.047613475 0.003632361 0.05390566 -0.014108708 -0.0754066 0.004353732 -0.01655454 -0.037873253 -0.045585196 0.05978582 0.017456263 -0.07300391 0.044802383 -0.012906258 0.066109955 0.010824152 -0.0049446607 0.014687144 0.007163944 0.0011056551 0.0018601906 -0.057574235 0.008966199 -0.042187132 0.014380302 0.020105612 0.029640032 -0.024900908 -0.054628097 -0.024002118 0.030277703 0.04303345 -0.00069539796 0.03316804 -0.016257102 0.06984564 -0.07469497 0.0031356795 -0.048169166 -0.033169076 0.015624917 -0.031819277 0.0510875 0.050377976 0.0003872856 0.036228478 -0.0035984498 -0.02234726 0.022827648 0.046514146 -0.03505621 0.040484145 -0.009297089 0.024312934 0.022274718 0.008194084 0.015523251 -0.0016097106 0.025107842 0.019483993 0.009763639 0.014407928 -0.0011122323 -0.06155653 0.053641625 0.048164014 -0.041468427 -0.059889324 0.06756563 -0.019436251 -0.036083255 0.008209478 -0.013950118 0.03125047 0.0053565665 -0.080862895 -0.041344095 0.069218814 -0.037588798 0.051316552 0.042521477 0.0070239725 -0.001249083 0.065755196 -0.05817024 0.0007261996 -0.051714536 0.055755883 0.024896061 0.0026451088 0.018983616 -0.060493685 -0.024288427 -0.024913613 -0.009921546 -0.013502886 -0.015426085 -0.042728588 0.026991097 0.024094297 -0.043965794 -0.063507326 -0.03696421 0.06258912 -0.007439186 0.07780144 0.039493103
103 0.009367218 0.05513902 -0.07969842 0.037270676 0.03718975 -0.06882209 -0.041073933 -0.055769775 -0.02192314 -0.029974727 -0.0577919 -0.053364016 0.0021889228 0.0033272272 0.067717955 0.02061934 0.071272165 -0.009311194 0.040612396 0.0008259772 0.030061077 0.018274633 0.020723814 0.021820255 0.0021317592 -0.064865954 -0.008714393 0.0005834631 -0.044963896 -0.04674629 0.079394475 0.041368507 -0.032229245 0.07054582 0.0707003 0.010385383 -0.07245076 0.05521244 -0.037402917 0.0006398249 0.038822226 0.05361217 0.005960121 0.01957554 0.06000307 0.013174313 0.008111629 0.01189551 0.053042445 -0.009922377 0.009579755 0.016730802 0.020225039 0.066074505 0.048716597 0.077261746 0.04761811 0.00038555218 0.06657317 0.025839353 0.02257003 -0.032633007 -0.035232835 0.04726722 0.001981212 0.010635598 0.014172261 -0.0076230234 0.016067412 0.020893205 0.013288575 -0.0039780466 0.009436259 0.054932658 -0.009972649 -0.052014973 0.07956638 -0.03755925 0.05440439 0.0020795888 -0.078488365 -0.080470406 -0.029889913 0.038197707 -0.059641592 0.051111076 0.00013051287 0.0008738972 -0.021719452 0.0047839363 -0.053918842 0.025847241 -0.07705659 0.07894259 -0.005853203 0.055903953 -0.038588505 -0.011737436 -0.016918495 0.012930896 0.008524557 -0.008508533 -0.0058518313 -0.05931567 0.033192396 0.0033441465 -0.02412073 -0.06374975 0.034788687 0.06547824 0.031666897 -0.07849704 -0.052826025 0.055480544 0.009286702 -0.06685709 0.049243912 -0.009243584 -0.07893046 -0.033296622 -0.051572464 0.008265985 -0.017458754 0.0038474565 0.066424705 0.03980359 -0.016352916 0.019333147
100 -0.04822105 0.03357458 0.0143647455 0.037627686 0.0032780466 -0.021801013 -0.03448718 -0.00013109006 -0.03732644 -0.038914427 -0.076214485 0.0052509857 0.055896368 0.020833315 0.057300597 0.01316265 0.001529037 -0.077338815 0.04229446 -0.008564596 0.060412515 0.0013214422 -0.076126695 0.042767994 0.069874145 0.017936759 -0.06147086 -0.035900414 0.0309105 -0.03347373 -0.028226996 -0.0049746037 0.024073651 -0.016020576 0.020617409 0.07659594 -0.048509203 -0.006661312 -0.042850755 -0.029576411 0.015883988 0.0569305 -0.06752889 -0.06879489 0.071958646 -0.07229216 -0.073656134 0.031096607 0.08018056 -0.058145117 0.047542926 0.0038882974 -0.0066921962 0.028196407 -0.030951666 -0.026653908 0.015488806 -0.06481927 0.0076725422 0.023662902 0.0041917996 0.0443637 0.072364375 0.07712846 -0.013021861 -0.03061015 -0.073535524 -0.028200876 0.034566578 0.021713104 -0.013938267 -0.02662099 0.08089396 0.052061882 0.06840863 -0.05914307 0.022903256 -0.015683042 0.012498546 -0.07711704 -0.044582024 -0.046190616 -0.07052332 -0.050442703 0.009532744 -0.032739274 0.031666793 -0.07712329 -0.04114886 0.07486591 -0.0023839525 -0.075377926 0.030951697 0.04932428 0.052164808 -0.017449193 0.011421152 -0.012565291 0.048943084 0.077143125 0.07718093 0.021887701 0.057584543 0.0168141 0.064756714 0.006168931 -0.032778613 -0.07675171 0.068305045 0.06308892 0.042427413 0.019339185 -0.022265095 0.043488342 -0.0008458671 -0.047537774 0.042555373 -0.01366452 -0.011564239 0.019268151 -0.06429474 -0.075598404 0.033660285 0.001979692 0.0059535294 -0.022530042 0.05393779 0.009347264
101 0.013990604 0.07045608 0.030179057 -0.05243155 -0.020631187 -0.06453213 -0.017440492 0.0010294323 0.012934571 0.028292753 0.0062722415 0.014674089 0.019436687 -0.0575348 0.0035832885 -0.016935805 0.054955136 -0.028315026 -0.00732568 0.045583703 0.0052068336 -0.011183747 -0.011516273 0.009538977 0.06899239 -0.0124731725 0.035845213 -0.03130117 0.02074258 -0.05018935 -0.012948606 0.02843991 0.014737009 -0.006333503 -0.0060030925 0.023582863 -0.053934515 0.006356653 0.00023984513 0.049288016 0.03750698 0.056109056 -0.05649548 -0.0750585 0.042697124 0.010640724 -0.029936556 0.031212451 0.015163742 0.036914036 0.004629383 0.028081603 0.035523463 0.02809355 0.0047521656 -0.04075432 0.022042466 -0.034560528 0.03857238 -0.05007994 -0.057291783 0.051667493 0.068298 -0.0024440312 0.06871665 0.053332113 -0.055758197 -0.03357042 -0.027188554 0.0028078482 0.046955403 -0.014746845 -0.0004137247 0.07275158 0.039256345 0.013714662 0.013054203 0.027168037 0.010144228 -0.08026614 -0.06873156 0.025835747 0.024435077 0.015286982 -0.03657821 -0.01627841 0.026644709 0.046698626 -0.01545369 0.066323504 -0.04403674 -0.075251855 -0.021985767 0.059395798 -0.008912539 -0.037149422 -0.056368235 0.068920456 -0.003780853 -0.011040913 0.05862994 -0.0075516086 -0.009727185 -0.028580997 0.049557064 -0.00779041 -0.02682276 -0.078818135 0.047287583 0.063467965 0.02199584 -0.009050459 -0.013079508 0.03394787 0.03491252 -0.0010061479 -0.033183414 -0.03815159 -0.0077404613 -0.032626603 0.024272721 -0.07615361 -0.025574628 0.008022282 -0.026773918 0.06902142 -0.022004135 -0.0007611407
106 -0.03025829 0.028742403 -0.010996529 -0.08122007 0.05928957 -0.06311001 -0.024149045 -0.080045715 -0.039645627 0.012337586 -0.07425339 -0.0765589 -0.041799903 -0.004587985 0.0035866299 0.07473012 -0.024839561 -0.057592947 0.023982404 -0.0053020525 0.047126394 0.01645751 -0.061996326 0.06364011 -0.008911597 -0.073685646 -0.028188037 0.031972975 -0.07674644 0.043457415 0.05339227 0.032734722 0.02969256 0.017673898 0.0025450187 0.07274467 -0.032415114 0.05294691 0.020836588 -0.024059618 0.031801723 0.021251755 0.02357551 -0.0556205 -0.039192427 0.03107779 -0.037976593 0.018587869 0.070667855 -0.03998221 0.005658371 0.012481052 -0.032306295 0.023517849 -0.0155305285 0.08065181 0.06415717 -0.056813903 0.020826178 0.037702642 -0.05956119 -0.036713842 0.019274622 0.00028582523 0.00032285764 -0.03933493 -0.027909711 -0.0027104886 -0.052890826 -0.03990805 0.023524651 0.05202751 0.06924529 -0.015372435 0.010068936 -0.0030418164 0.07764049 0.002151946 0.023231508 -0.0018139395 -0.07040243 -0.023317417 -0.0702035 -0.081145816 0.026253484 -0.016233502 0.06487396 0.019244887 -0.08063804 0.047614027 -0.045761265 -0.010619409 -0.065371946 0.028132008 0.07982836 0.009258704 0.011168275 0.042175766 0.067525856 0.049071625 0.044842236 -0.03750196 -0.01785124 -0.01386984 -0.009450476 0.024820708 0.07975733 0.022897711 0.029089807 0.07912518 0.030237567 -0.06775517 0.019119216 0.013132536 -0.017034395 -0.022035314 0.02716109 -0.04457414 0.0002530351 0.035149403 0.0011705103 0.008004368 -0.005093797 0.009252399 0.01715029 0.012956707 0.0002501791 -0.01175885
107 -0.01574305 0.0033500432 0.017678624 0.024324577 0.041036155 -0.012313198 -0.056873385 -0.048811886 -0.0060903677 -0.054959293 0.031305414 -0.00419665 -0.011729545 0.032738913 -0.018076383 -0.010980469 0.06278739 -0.035016302 0.03543197 -0.010195798 -0.021083856 0.07652061 -0.05197571 -0.012632669 0.055137947 -0.008389797 -0.012026965 -0.021123385 -0.03166288 0.0020660697 -0.0049192463 -0.0020672705 0.020531693 0.0011120097 0.06811715 -0.035882123 0.021368623 -0.02219188 -0.03958553 0.0697965 0.0011818813 0.017846938 -0.034287963 -0.058807515 -0.04065861 -0.05088277 -0.028959977 0.037637047 0.07389922 0.017866155 -0.029512666 -0.012521135 0.030309808 0.078120925 -0.014645273 0.036903985 -0.028557839 -0.019934198 0.032956216 -0.005116801 -2.8399169e-05 0.023079487 0.05774545 0.04190878 -0.03629524 -0.008681426 -0.05668504 0.018004116 0.03546062 0.0028549894 0.045529187 0.06355873 0.021325344 0.0384291 0.04324152 -0.0064369575 -0.017556602 0.03547231 0.0076393546 -0.006096118 0.0058668396 -0.017024714 -0.003564969 -0.0073629613 -0.021592688 -0.029091468 -0.0031591998 -0.06900416 -0.035060134 0.07402284 -0.028208368 -0.051488817 0.032260682 0.033363573 0.047045358 0.029235259 -0.018732797 -0.011452643 -0.004431412 -0.001616601 0.032916673 0.07445591 -0.028877301 0.0044517135 -0.014058339 0.0031545423 0.008042407 -0.0467589 0.07925309 0.07908696 0.044898935 -0.069709994 -0.0023504759 0.03564451 0.028899632 -0.067949586 0.031611256 -0.07049697 -0.037707124 0.036093917 -0.02985296 -0.07327364 -0.02780598 -0.057817485 0.06565739 0.03534962 0.018601496 -0.013254596
104 0.010716272 0.07399882 -0.032437533 -0.073290356 0.021227425 -0.022345915 0.018712953 0.019465612 -0.04714393 -0.06523188 0.022446357 -0.028199699 -0.007393936 0.039440416 0.07698959 0.07243518 0.00046304055 -0.0394061 -0.025742888 0.028307585 0.07357425 -0.037035756 -0.04766605 0.008225962 0.034274675 -0.063760206 0.011872262 -0.00608745 0.01082792 -0.017078243 -0.0150077725 0.001973025 -0.02034547 -0.008123286 0.042769387 0.013776197 -0.029620716 0.030940142 0.026805883 0.06282115 0.028666949 -0.031157153 -0.066415936 0.003069324 0.016144799 0.036649894 0.039765414 -0.06418542 -0.030211983 -0.009685653 0.0072942674 0.01614088 0.0146152275 0.075160235 0.058126062 0.06941941 -0.0054055704 -0.049919434 0.021338591 0.018722335 -0.05987131 0.046940118 0.0023978483 0.02628409 0.068757966 0.07356497 -0.04296302 0.02271173 0.021243235 -0.073615275 0.038904272 0.055453703 0.0007343242 0.002411747 0.00982489 0.018579487 0.04935586 0.009186477 0.06459924 -0.024487123 -0.036813345 0.012921867 -0.038992584 0.011844403 0.012735676 -0.0027537453 -0.038861245 0.03417505 -0.073886804 0.03617831 -0.03825821 0.0014645203 0.008031025 0.054471336 0.07203753 -0.03134736 0.006571446 -0.021752954 0.0526456 0.07081449 0.040102035 -0.032126084 0.029763639 -0.056067124 -0.03252214 0.029286 -0.015473236 0.019328067 0.07370527 -0.029629853 -0.01696246 0.02214929 -0.07860908 0.025832593 0.039202522 -0.028123148 0.01532254 -0.033469487 -0.0034522298 0.016022056 -0.033410877 -0.016372375 0.019263986 -0.04369904 0.07948819 0.075894475 -0.019745968 0.016829366
105 0.0055534607 0.031892084 -0.07466301 -0.038080603 -0.0072266576 0.031813253 -0.031496774 -0.040151235 -0.060339916 -0.036280382 -0.054290347 -0.05256502 -0.015549218 -0.0039827996 -0.0363822 0.019468559 0.043918397 0.0093268715 0.048763216 -0.030394007 -0.03864803 0.024717728 -0.042234555 0.0453745 0.07637295 0.019497491 -0.03523288 0.07241119 0.026614318 -0.042687263 -0.0020330562 -0.005742109 0.019773314 -0.026303202 -0.030995946 0.03644811 -0.059117626 0.027981495 -0.055671897 -0.022656396 4.0136743e-05 -0.015643159 0.037894484 0.02920613 0.0064305584 -0.017426103 0.0056527816 -0.01975876 0.07643338 -0.031417627 -0.03943145 0.02539565 0.07249309 0.010567656 0.059291806 0.06977855 0.03422018 -0.056893688 0.018443916 0.041241676 -0.07258509 -0.011717635 0.015364519 0.0022023795 -0.040065818 0.019747628 0.036042105 -0.016889801 0.020756517 -0.015589874 0.07488559 0.025733294 -0.035570543 0.010068494 0.008392786 -0.052500747 -0.007528098 0.009544024 0.02879899 -0.005541647 0.0045440923 -0.037557706 -0.06608075 -0.046605192 -0.08064744 0.02165668 -0.018966861 0.0019126554 -0.01614542 0.0060819574 -0.005625875 -0.05670626 0.004772743 0.056774523 0.05085185 0.03908246 0.03378001 -0.017099243 0.047159012 0.0759139 -0.012421738 0.019329658 0.05155388 0.007888963 0.057391636 0.034672953 0.059766635 -0.0040446506 -0.008127384 -0.032505617 -0.0007983325 0.03223391 -0.046737183 -0.033292692 -0.014457388 -0.030350236 -0.016475735 -0.032171946 -0.01037681 -0.021584867 0.008473899 -0.02591807 -0.016254324 -0.06682603 -0.034735072 0.06574916 0.027814042 0.014550188
1212 -0.080094926 -0.03056863 -0.024892444 -0.06786972 0.074985586 -0.07978498 -0.07655493 -0.07363744 0.0393108 0.0388189 0.012683217 -0.022695964 -0.03530691 -0.0709759 0.06645806 -0.003988296 -0.006695669 0.0022765612 -0.008519157 -0.038738135 -0.0031421275 0.042082053 -0.040029947 0.023039095 0.051285293 -0.00011084019 0.0067678224 0.05175693 0.030528678 -0.003664521 0.031203214 -0.031094521 -0.058526706 0.017566802 0.046163492 0.07532767 -0.00051771745 0.05267916 -0.024415178 -0.025536953 -0.03737348 0.012342498 -0.004672431 -0.010259348 0.04749156 -0.009262024 -0.04238107 -0.07346977 0.005270646 0.0138842575 0.073035896 0.047400266 0.020876104 0.028783001 -0.004005944 -0.01602046 0.04873184 -0.012978721 0.019174868 -0.036111888 0.02869727 0.019321011 0.06993693 -0.022187907 0.030200312 0.07588274 0.0076751015 0.0019962518 0.037014816 0.023079121 0.031348694 -0.019752763 -0.022865767 0.026206419 0.041859593 -0.028472725 0.05961285 0.011894182 -0.0048642494 0.01842662 -0.07716576 -0.023189232 0.020842249 -0.04808252 -0.04037744 0.008625837 0.07379145 -0.03425266 -0.07503986 -0.030627796 -0.06492375 -0.06797196 0.0392303 0.032500826 -0.022402827 0.026617926 -0.05735794 0.0007224432 0.068373695 0.04516244 -0.03433916 0.07916329 0.051334977 0.009427116 0.051478025 -0.02669347 0.06895495 -0.048073813 0.044899393 0.017007165 0.031638954 -0.07798475 -0.0015173532 0.024705295 -0.016492112 0.00013289112 0.06493298 -0.036029436 -0.06206359 0.037445646 0.022748241 -0.021399703 -0.067477584 -0.054233495 -0.0038283016 -0.003592671 -0.024610505 0.037954874
1213 -0.07587718 -0.023613492 -0.03722293 0.03193239 0.007136029 -0.04365188 -0.04760501 -0.0515311 -0.005664522 -0.060713865 -0.07281373 -0.08016324 0.041661114 0.020200936 0.06115537 0.07218092 0.04474363 0.0060865125 0.05560122 0.047994435 0.026113879 0.026583092 -0.021142399 -0.013431538 -0.016567513 -0.07524577 -0.070301585 0.051328696 -0.072484195 0.071383014 0.023915857 0.07075568 -0.044449296 -0.01756788 -0.015681468 0.051129684 0.0065623038 -0.032576792 0.025154857 -0.0028375867 0.055786233 -0.03704308 -0.07611939 -0.029820945 -0.013871497 -0.035081334 -0.055863906 -0.05242009 -0.027307663 -0.01247036 0.061782364 0.023275154 0.05421818 0.03782833 0.0038218154 0.072607435 0.052821208 0.024764862 -0.0032140596 0.03872009 -0.022060983 0.06907158 0.0655815 0.044314865 -0.013559233 0.06276385 0.0072989957 -0.026308961 0.004919707 -0.0063909367 0.03323796 0.035985358 -0.01543209 0.0608028 0.075784914 0.005161403 0.050307266 -0.02395285 0.038252853 -0.006204578 0.03187716 0.01782043 0.037400108 0.0072629335 -0.06719241 0.053049967 0.031795353 -0.013061464 0.0030670594 0.0190585 -0.0067163594 -0.001133984 0.044335872 0.07867487 0.079798885 0.07598406 -0.06735182 0.07707182 0.0473598 0.058001883 0.007873202 0.03625768 0.06503108 0.033580963 0.011999933 0.0300845 -0.03595096 0.0055816863 -0.032649353 -0.020014744 -0.03199982 0.032302104 -0.07121515 0.04343795 0.018626107 0.009121988 -0.018422823 0.015115643 -0.030492596 -0.075913936 0.033164416 -0.01696437 0.036381304 0.021158494 -0.03191733 -0.002834891 -0.005882007 -0.037843723
1375 0.03695692 -0.0043725455 -0.05187884 -0.049712088 0.056078672 0.021563457 -0.051845215 -0.034229163 -0.009766292 -0.0764954 -0.009638291 0.03463895 0.054311354 -0.07951381 0.0169915 -0.020456055 -0.018035376 -0.0016986827 0.08015817 0.072222374 0.03152416 0.05029085 -0.06399548 0.058982823 0.054864578 0.0030971062 -0.016949652 0.055171248 0.018477734 0.07186564 0.032112956 0.04554648 -0.024502736 0.03461873 0.04069465 -0.022078158 -0.040628724 0.056702994 0.022588417 0.073714666 0.00888863 0.07907414 0.039082035 -0.01241791 -0.009305748 -0.078165025 -0.048131365 -0.04935843 0.019611003 -0.06548568 0.05103257 -0.033799592 -0.03083063 -0.020450639 0.036531847 0.07395245 0.07928865 -0.047267452 0.05390046 -0.020923974 -0.046712443 0.009666818 0.013762914 0.05729676 0.071760006 0.0036699718 -0.043975733 -0.03769052 -0.045838077 0.011252265 -0.009492416 -0.008434068 0.06331709 -0.032360915 -0.036345847 0.008479304 0.044571858 0.032589786 0.07475069 -0.035200935 -0.064161904 -0.026248444 -0.027345508 -0.041734718 0.029347595 0.06544352 0.05727343 0.025307544 -0.057744198 0.015803339 -0.027461804 -0.0686294 0.020287992 0.07146574 0.007136956 0.07002437 -0.06701902 0.01124857 -0.03589201 0.024149027 0.054421518 0.07501614 -0.035559148 -0.044800635 -0.0067206686 -0.055141352 0.0132640945 0.029657302 0.024348816 0.07252908 0.04184081 -0.02623349 -0.002010181 0.013831155 0.06555095 -0.035275966 0.010692655 -0.027774306 -0.052379027 -0.0602439 -0.0562983 -0.07337684 0.017115341 -0.061856795 -0.040344458 0.081277825 0.06094792 0.022173053
99 0.033688385 0.017921908 0.02580164 -0.068014726 -0.026641546 -0.079838276 0.031234112 -0.007609826 -0.054665387 -0.05634575 -0.05468892 -0.03102327 0.025543092 -0.056085676 0.019118538 -0.0039257985 0.024468668 -0.0069997613 0.07452524 0.0591618 -0.022847034 -0.01770572 -0.00609043 0.04020024 -0.020097071 0.0044600796 -0.06205126 0.063128665 0.004800477 0.07453471 0.012533536 0.057851087 0.0008591275 -0.026225332 0.04986489 0.07416188 -0.005465403 -0.01963869 0.011129939 -0.0055565224 0.068634756 0.01233025 0.032603864 0.00864936 0.011097636 -0.053982895 -0.015414975 -0.069004655 -0.035763327 0.024507713 -0.0117890285 0.052595932 0.07209567 -0.009021975 -0.018332751 0.06081818 0.007136597 0.015338728 0.013872389 -0.01841659 -0.07505104 0.07956832 0.0710377 0.034415573 0.040540274 -0.01789501 -0.014468858 -0.03349728 -0.047069367 0.034652058 0.069049 0.059688434 0.043276567 0.03244431 0.069028124 -0.047174554 -0.021586236 0.048579592 -0.039265454 -0.053179566 -0.01189031 0.02162629 -0.012584809 -0.036646113 -0.032784075 0.07205409 -0.0015861789 -0.076743156 -0.0043913787 -0.007897488 -0.04147545 0.0030857604 -0.023369012 -0.0354185 0.01636259 0.03943045 -0.01457415 -0.0015313247 0.070096366 0.061461657 0.05031791 0.08092438 0.06116354 -0.0090945065 0.07378604 -0.056847855 -0.006138226 -0.043609895 0.0014213521 0.04814565 -0.035212856 -0.028047519 -0.0048872298 -0.022591023 0.055717353 -0.02467714 0.027041337 -0.027740745 -0.045538366 -0.00010075746 -0.010909245 -0.0530319 0.027421094 0.03924177 0.034391843 0.07364282 0.0054985373 -0.056984074
98 0.020671781 0.06266114 -0.04384393 -0.008111248 -0.0075796223 -0.071554706 -0.011407474 -0.017158262 -0.05174501 -0.0615174 -0.02421172 0.018158153 -0.038266234 -0.07004061 0.06153525 0.064544186 0.061314087 -0.0015412216 -0.0065218327 0.07919501 0.022063136 -0.03593276 -0.0018481612 -0.004342085 0.059173774 -0.06067591 0.010953748 -0.023374705 -0.055918973 -0.025932852 -0.003916729 -0.022650385 -0.0038943978 0.048966628 0.07403524 0.046332695 -0.01637605 -0.02079946 0.017009333 0.037322976 0.056294918 0.07209144 0.0033739815 -0.04023371 -0.02289821 -0.028504036 -0.01650335 0.03286371 0.008678249 -0.007897789 0.030601561 -0.026967613 0.0010952334 -0.02745028 -0.009897545 0.03400732 -0.021092782 -0.05546253 0.044585876 0.017517464 0.018061537 0.01661416 0.021945084 0.0671561 0.008247198 -0.027674168 -0.011422899 -0.0019012875 -0.050280325 0.030243414 0.03957523 0.063519716 -0.0058255834 0.013978129 0.07215163 -0.047839344 -0.013192802 -0.0038691775 0.05375761 -0.05477398 -0.054732267 -0.01923796 -0.008106178 -0.078800656 -0.058793254 -0.0015884936 0.08079299 -0.0024876518 0.008392068 0.011466265 0.0049043763 -0.059051 -0.009631436 -0.003738942 0.036783155 0.03408928 -0.052987818 0.0684031 -0.0311661 0.0639078 0.0734538 0.07708709 0.04414763 -0.012580465 0.07493233 0.017421085 -0.0028253058 -0.06682124 0.051701367 0.07088773 -0.017529229 -0.018354727 -0.031228311 0.030381754 0.06280005 -0.011099664 0.011640415 0.03989392 -0.0023881835 -0.023752507 0.03454379 -0.05389088 -0.042114463 0.019234344 0.07885829 0.043725006 0.036430717 0.033832375
91 0.0029684152 0.007382161 -0.0141540365 -0.08037179 -0.023337882 0.020032424 0.04001225 -0.0727845 -0.06506497 -0.06442636 -0.05429593 -0.064791486 -0.035571244 -0.06325882 0.074777745 -0.013223026 0.034522604 -0.08096815 -0.01706306 0.042936787 0.0522694 0.007244667 -0.02948893 -0.0237652 -0.0032927103 -0.019210774 0.01586934 0.02459393 0.032251004 0.06510701 0.021450564 0.07451124 -0.07364233 -0.0053388113 -0.03719972 0.011633724 -0.048749804 0.07573085 -0.05062069 0.0564644 -0.018553933 0.06612506 -0.078367725 0.0016702898 0.008325898 -0.057440404 0.010863712 -0.018690074 -0.0034078313 -0.07627375 0.013836497 -0.03442499 -0.012900541 0.0066474075 -0.035264675 0.07605757 -0.015900921 -0.035172526 -0.00018658361 0.023560952 -0.022218967 0.0758257 0.07387182 0.07348578 -0.031765945 0.058005534 -0.036189567 -0.032079842 -0.059739843 -0.06681142 -0.02277365 -0.038751002 0.0021500317 0.056194924 0.05909302 -0.00015983428 -0.01792256 -0.025719076 0.06305923 0.032508634 -0.0578902 -0.06361956 -0.020928029 -0.05236164 -0.03301623 0.008559 0.056920104 0.03516586 -0.008077185 0.043941155 0.020558743 0.035925303 -0.025970997 -0.013874068 0.018034402 -0.020295106 0.024722341 0.012760656 -0.014230031 -0.02309826 -0.03698839 -0.009667728 0.028460713 0.016671734 0.0600074 -0.03521064 -0.02851402 -0.068221435 0.050666153 -0.022154663 0.072285526 0.03839443 0.030929696 -0.039437212 -0.0132461535 0.029657578 0.07121918 -0.022877889 -0.024075644 0.009617185 0.02235195 0.009935847 -0.05566677 -0.036406897 -0.028495913 0.06251042 -0.015435109 0.026629223
90 -0.06413284 0.008383014 -0.04866926 0.0034283334 -0.003911479 -0.020168792 0.0069647813 -0.010673966 0.00841872 -0.024305498 -0.070214964 -0.016200375 0.018830802 -0.062068015 0.019511357 -0.031796012 0.08000974 0.005414453 0.055669475 -0.016181307 -0.0045784805 0.040823 -0.039206516 0.04309902 -0.009875272 0.041336924 -0.047255367 0.012872678 -0.023557803 0.06846088 0.053676225 -0.038226232 -0.021032115 0.044391047 0.050331745 0.026131118 0.014608323 0.0065028137 -0.06592178 0.0020978316 0.03747151 -0.009259397 -0.007091708 -0.0035040043 0.023773612 -0.029113635 0.014000936 -0.0071634157 0.024789128 -0.047971234 0.016994905 0.041828614 0.051905964 0.05776499 -0.019448249 -0.021019794 0.06363199 -0.080832735 -0.026285898 0.011710279 -0.038053866 -0.016085498 -0.036353186 0.070316985 0.06695288 0.022159379 0.03130928 0.008753711 -0.071858786 -0.022309214 -0.039446793 0.056266867 0.021386556 -0.029475696 0.03945084 -0.07886112 0.07807439 0.051616073 -0.030301599 -0.03634238 -0.016454058 0.01809174 -0.010747622 -0.053630732 0.017766725 0.039292704 0.03655569 0.015294854 -0.05160146 -0.033726163 -0.04872855 0.037551142 -0.06288895 -0.007367232 -0.027553013 -0.037647005 -0.06306252 -0.03550081 -0.028442554 0.022002058 0.044944815 0.076860525 0.010855241 -0.009983854 -0.015426696 0.015489648 -0.0017310214 -0.03511638 0.031108437 0.020270705 -0.03513932 0.020293912 -0.019141074 -0.03313604 0.052784704 -0.04324222 -0.014355117 0.0040716347 0.034899607 -0.028666163 0.009823099 -0.06315764 -0.00019443175 -0.046339944 -0.009328228 0.06917356 -0.022611095 -0.08025465
93 -0.034759365 0.034173384 -0.030738827 -0.029886482 0.031702142 -0.024951499 0.035844266 0.038151175 -0.07909497 -0.027770562 -0.0149978595 -0.065097585 -0.01804618 -0.062495407 -0.011009283 -0.025772627 -0.021438789 0.033974227 -0.009886342 -0.0087363925 0.060222406 0.02035824 0.037113648 0.045291856 0.0771099 0.006605707 -0.005968624 0.020587074 -0.0015488571 0.04246512 -0.03222581 0.03237603 0.02030011 0.0034154607 0.07946508 -0.0032291908 -0.026437951 0.0760161 0.029116716 -0.03169225 0.018321052 0.009668736 -0.043070976 -0.049864326 0.0013307863 -0.0073313443 -0.04545686 0.021959376 -0.035470914 -0.017501298 0.043937 0.069888726 0.06430678 -0.038331162 0.030397942 0.00119904 -0.019051233 -0.032373328 0.05450937 -0.029298881 -0.051831458 -0.02339109 0.006062872 -0.03558705 -0.030993726 0.0011130391 0.0066867126 -0.07254286 -0.032641847 -0.043278992 0.071911916 0.004676221 0.011217408 0.07223993 -0.008056789 -0.021213142 -0.026142 0.012689752 0.040270817 -0.012130372 -0.047916345 -0.0097960755 -0.07533881 -0.031967875 0.038089037 -0.0006812444 0.058949944 0.029425865 -0.017149283 -0.023930263 -0.06048133 0.034511678 -0.07224676 0.046443492 -0.004193873 0.060403954 0.020506602 0.05038137 -0.02044034 0.05131235 -0.0072152717 0.028188745 0.06032348 0.027331498 -0.036414806 -0.033905547 -0.030872814 0.03279904 -0.01299466 0.0067680907 0.042694557 -0.014780006 -0.06515867 0.015278498 0.03653173 0.01461506 -0.018417202 0.007920625 -0.0020803986 0.037084304 -0.053037617 -0.05477183 -0.074684486 0.03755867 0.019859465 -0.032557726 0.053450696 -0.013808646
92 -0.074170075 0.026844734 -0.050674107 -0.054840993 0.024346609 0.03989457 0.03138311 -0.008618956 -0.07565707 0.03855466 -0.017949088 -0.030998982 0.07880846 0.017496478 0.054614384 -0.019548355 0.053518344 -0.08081867 0.050199963 0.05831947 -0.042646542 -0.009324309 0.0007800708 0.06678292 0.06756841 0.018776279 0.0143185435 -0.0027118023 -0.0651034 -0.02866377 0.013013559 0.062572666 -0.024959708 -0.02596436 -0.025546243 0.023646662 0.0033831822 0.023321426 -0.03499395 0.029878125 0.052903775 0.06987126 -0.057336573 -0.021947851 0.013643804 -0.040477157 -0.064621344 -0.01119955 0.025852092 -0.06817421 0.072870605 0.021307787 0.038307507 0.015961783 0.062708504 0.056956153 -0.027378198 -0.040594768 0.059933715 -0.031008806 -0.035235353 0.06881733 0.04542473 -0.015836202 -0.016809426 0.018303761 0.005220007 -0.058918368 -0.051209047 0.010193586 -0.0349961 0.05295095 -0.031138802 0.028599966 -0.03279813 0.016994676 -0.017992128 -0.0063425787 -0.024340753 -0.023338318 -0.027996214 0.024192186 -0.004712298 -0.052135468 -0.036875926 0.06303378 0.025365721 -0.01696628 -0.06585032 -0.016789814 -0.026327193 0.008286811 -0.028981794 -0.011637336 0.019942993 0.04764915 -0.006155649 -0.016116656 0.07721057 0.06378398 0.016455097 0.01511209 0.050895225 -0.01679319 0.04645332 -0.052999757 0.023775978 -0.06500096 0.007902376 0.051326655 -0.0073557915 -0.07659853 0.0047146766 -0.03434211 0.05749676 -0.0010562463 0.0034205131 0.024625747 -0.04521293 -0.030518776 -0.033512667 -0.03521526 -0.048129607 -0.048093945 0.043434262 0.02779345 0.049229264 -0.035351098
95 -0.073525615 0.025323873 0.0082489895 0.015767474 -0.0051419646 0.008529508 -0.054750267 -0.031681847 -0.03887805 0.011808085 0.03175129 -0.04774739 -0.006896402 -0.081334725 0.045164425 0.026843684 0.025432419 0.019517265 0.05255877 -0.032571428 0.0075044367 -0.013116941 -0.0115505885 -0.0031199642 0.010302351 -0.057239648 0.018434096 0.0306403 -0.05071491 -0.047296304 0.06199469 0.020989185 0.03007774 0.001155207 0.070663236 0.022214219 -0.0689947 -0.03975559 -0.0471654 0.047886487 0.03353608 -0.037984062 -0.009968562 -0.044871323 0.031147966 -0.04982585 0.00035209896 -0.059797194 -0.017218791 0.005043111 0.04731892 0.0792771 0.041679725 -0.025127346 -0.0021618174 -0.025674658 -0.005073382 -0.0003301067 0.05208928 -0.042760257 -0.061249845 -0.009547423 0.040360987 0.0061606998 -0.010743528 0.017824093 0.030891124 -0.017131282 -0.00021701457 -0.062679656 -0.0347433 0.029723166 0.071888715 -0.03609232 0.015569054 -0.054954838 -0.024636466 -0.0061814 0.040315207 -0.015625767 -0.043610044 0.01127133 -0.017546939 -0.060377866 0.030902887 0.034047313 -0.02169184 -0.016465042 -0.021762239 0.080733106 0.036474545 -0.008452213 -0.0154018225 0.004862034 0.0032540944 -0.0021013184 0.016340725 0.052410096 0.06854979 0.03969035 0.056707457 0.04110486 0.07450876 -0.075903684 0.07983605 -0.05126689 0.009260854 -0.072268665 0.06844676 0.07384821 0.0050694924 0.0039713574 -0.0760386 0.052598756 -0.0030981454 0.032534894 -0.030289888 -0.055951033 0.02913173 -0.05062178 -0.044886306 -0.035669032 -0.072324865 0.037889473 0.019189587 0.034827955 0.060744874 -0.056802053
94 -0.08110701 0.047111053 0.01588933 -0.056730915 -0.011447161 0.0029035993 0.032111827 0.015671225 -0.02948806 0.02949817 -0.05611533 -0.0030502612 -0.04147892 0.010157374 0.04625665 0.006724041 0.06992545 -0.001600114 -0.022317655 0.017269108 -0.005237926 0.0053301984 -0.05862239 -0.03267994 -0.008584923 0.0186174 0.0370735 -0.024917545 0.0037488632 0.028942961 -0.015733207 0.07204646 0.0025798725 -0.0069116345 0.0059394464 0.027791435 -0.018308014 0.0508793 0.02913838 -0.023389347 0.028264217 0.003835069 -0.0715318 -0.007466654 0.0731341 0.032572616 -0.03637726 0.004817986 0.0053608106 0.035656072 -0.033356585 0.05679276 -0.007123815 0.05253659 -0.015790114 0.031924732 0.020693364 -0.045590594 -0.027048966 -0.03836289 -0.018011225 0.060800947 0.019381573 -0.03525475 0.02502174 -0.023841701 -0.067081004 -0.041043825 -0.014049638 0.020437963 0.0429664 0.02634752 0.05606867 0.04564895 0.010580955 0.01314654 0.051660184 0.0443649 0.009671014 -0.019319866 -0.06322291 -0.016325828 -0.05124823 -0.0048351185 0.035752036 -0.03792553 0.054078367 -0.057669215 -0.07338035 0.028395802 -0.013300163 0.0030059959 -0.07505102 -0.02060683 0.02486405 0.056142434 -0.001472559 0.058397386 -0.026828988 0.02135997 -0.014678759 0.03449537 0.048660588 -0.026096841 0.016260782 -0.069831684 0.04565246 0.016833087 -0.016682355 -0.017995995 0.015077952 0.008856239 0.03271148 0.018385595 -0.029931417 -0.0029411237 -0.032234803 -0.027037907 -0.048499193 -0.023713417 0.012537274 0.01277168 -0.025803609 0.008493071 0.07695596 0.040063538 -0.03369105 0.031970173
97 -0.06490413 -0.008322595 0.02261244 -0.05603264 0.06642091 -0.0773381 -0.062777154 -0.011538876 -0.055208456 -0.079632424 -0.072746485 0.024802092 -0.010853327 -0.044149105 0.065070935 -0.040038027 0.0773762 -0.028268645 0.06150421 -0.014937617 0.06660463 -0.0319721 -0.02206458 0.055070028 -0.031120613 0.017169105 -0.013510023 0.004628669 0.012324301 0.03695419 -0.017245257 0.04121962 0.0039654453 -0.02300367 0.00063207396 0.06150694 -0.06384023 -0.035131335 -0.03659009 0.017826766 0.029489048 -0.00031316106 -0.07319928 0.03239573 -0.006621867 -0.07824067 -0.0032525084 -0.037084267 0.016614309 -0.03981539 0.01163924 0.069402546 0.03125295 0.036199708 0.03039439 0.021337736 0.02684794 -0.0490853 0.0012389111 -0.020652732 -0.042397138 0.03897004 -0.036309123 0.05894356 0.023938265 0.043181844 -0.07046775 0.01070363 -0.04613954 -0.073020674 -0.01183212 0.029410744 -0.039908897 0.071562596 0.0691533 0.037646584 0.079535276 0.039113134 0.06344042 -0.015063033 0.030777715 0.016730342 -0.04491099 0.022798827 -0.013153607 -0.0029269774 0.016529163 -0.058088098 -0.06049781 -0.029240033 -0.041401364 -0.06543707 -0.033405118 0.04575105 0.037579086 -0.0017161663 0.0154523775 -0.040842857 0.044215716 -0.032771528 0.019684201 0.052120242 0.012562227 0.021710448 -0.036672886 0.00041508267 0.07698187 0.01334472 -0.01450149 -0.02935022 0.06346401 -0.05246144 -0.015033981 -0.019734992 0.06734583 -0.032975826 -0.012692211 -0.041775618 0.0064284513 -0.06903395 -0.070691675 -0.04950569 -0.07990879 -0.072577044 -0.014788262 0.04953769 0.058263317 0.004273331
96 -0.023919765 0.03266494 -0.06364832 -0.03632596 0.015225921 -0.052134983 0.002015198 -0.036670785 0.039092436 -0.06312661 0.007942258 -0.0013711201 0.059628226 -0.05664115 0.060717493 0.02411703 0.043606874 -0.05581372 0.031482026 -0.024446644 -0.006204786 0.03476368 -0.009294286 0.027949339 -0.03262006 -0.022401629 -0.05948076 -0.0152995465 -0.07154102 0.015643157 0.0076465453 0.052276842 -0.06704398 -0.003415118 0.012739777 0.08094368 0.027829196 0.06800573 -0.041257817 -0.010496516 0.07531643 -0.039304182 -0.045048647 -0.038904786 -0.046823405 -0.047606133 -0.07876877 -0.024027694 -0.02266459 -0.069041096 -0.027352143 -0.0023573977 0.076838784 -0.0069422172 0.0050713853 0.03864061 0.06936777 -0.07475131 -0.039828617 -0.038651835 -0.014532798 0.04327185 0.009714013 -0.0107684415 0.032079477 0.016312776 0.026907515 -0.02831648 -0.0273072 -0.040315237 0.073199876 -0.024501454 -0.03820039 -0.038537487 0.012687011 -0.007652145 0.060727578 0.07489535 0.025925783 -0.03208223 0.007900307 0.02842795 -0.023133462 0.011331281 -0.026582858 0.049995836 -0.019550037 0.03902002 -0.018532367 0.0028629345 -0.009988552 -0.053732295 -0.006344581 0.006401495 0.0064272583 -0.01616788 -0.067585394 -0.012080977 0.0601193 0.019794302 0.045295615 0.0328168 0.057686254 0.018961515 0.0448027 0.011065288 -0.0036917338 -0.02738407 0.016550705 0.012444264 0.03512927 0.0271108 0.0142732905 0.07198318 0.042662002 -0.041955374 -0.017394803 0.035129465 -0.07970363 -0.050874114 0.03561441 -0.07182162 -0.0250143 -0.066761695 -0.009025217 0.013410475 0.07397736 -0.015255314
559 -0.040435784 0.019605167 -0.0074031497 -0.07942807 0.056819566 -0.041595053 0.02143553 0.012484607 -0.015132227 -0.0466544 -0.068963595 -0.07420435 -0.00025819067 -0.07865629 -0.02221832 0.056303214 -0.023148935 0.024607398 -0.0061790547 0.075551726 0.010041099 -0.009547962 -0.0011067168 0.050584204 -0.009767414 -0.015502516 -0.03773472 0.07581766 -0.063909955 0.05054748 -0.025098937 0.023016017 -0.048896212 0.046753045 0.026064014 0.013795437 -0.049161043 -0.0021850842 -0.058313575 0.027284674 0.06069519 -0.014118109 0.026481256 0.025605168 0.014200309 0.0041157627 -0.025561882 -0.02848597 0.054324362 0.0064069573 0.0085647125 0.024304474 -0.029002264 0.0040915697 -0.002990552 -0.013650659 0.0037267813 0.027463472 0.015217081 -0.043197982 -0.049393903 0.021753753 0.06950898 0.027841631 -0.023502003 0.043091077 -0.028518617 -0.0050540506 -0.061664402 0.024839208 -0.028701177 0.07738655 0.06267085 0.07582852 -0.0172318 -0.08114363 0.045808 0.07835774 0.068223976 -0.03756972 0.019899774 0.009034008 0.019276416 -0.07837911 0.024182728 -0.030545555 0.025566686 -0.029110435 -0.07846613 0.029615669 0.019456308 0.007840052 -0.044863082 0.014084948 0.029702509 0.025169808 -0.05364334 0.014454745 0.030861825 -0.041928627 0.019099642 -0.00982426 -0.04397094 0.036233306 0.0643013 0.011590807 0.030621288 -0.040271066 0.029203866 0.06963244 -0.00592025 -0.0039392957 -0.031481553 0.07681131 -0.037619423 0.02121357 0.0076476485 0.024924796 -0.014459081 -0.027738925 -0.07891993 0.023997586 -0.055170685 -0.078885935 0.07747531 0.029010003 -0.026599567 -0.035715196
558 -0.07594739 -0.01446129 -0.07450948 0.012109257 -0.026935946 -0.014004666 -0.05493142 -0.046055112 -0.026536861 0.034912117 -0.03685126 -0.05621423 0.06163641 -0.07316612 0.06899355 -0.012111315 0.007455312 -0.025596036 0.052631114 0.025612537 0.06983507 0.06744842 -0.055916578 -0.009146089 0.01578177 -0.054757267 0.022745436 -0.012211448 -0.034205463 0.047109313 -0.011198443 0.06732589 -0.055317864 -0.024174223 0.078006946 0.046087954 -0.05370545 0.021500232 -0.057291277 0.015117527 0.018178854 0.07608417 0.018390752 -0.034633122 0.07732079 -0.037344698 -0.0049618827 -0.078930385 0.056249388 0.0014514532 -0.007260672 0.012991287 0.034481477 0.0755758 0.05719745 0.06951706 -0.00840788 -0.060503904 -0.014606249 -0.0795899 -0.020625437 0.025486149 -0.011972514 0.04516296 0.04572451 -0.033318993 -0.025739715 -0.033247143 -0.018844366 0.014868581 -0.036373444 0.015569259 -0.0010916622 -0.035144567 -0.019057315 -0.06630325 -0.015025337 0.04715673 0.019267157 0.022054376 -0.0497808 -0.017879145 -0.0094550215 0.0009391495 0.008627604 -0.012648809 0.06717023 0.01143517 -0.01277281 0.07940988 -0.046510722 -0.0042863335 0.0010519258 0.019615054 -0.024972841 -0.035748646 -0.011481227 0.07443174 -0.021450428 0.008513933 -0.002567742 0.009359262 0.039177075 0.027398605 -0.027553974 -0.010389743 0.043843426 0.003483627 0.061926454 0.04614765 -0.00036802772 0.009151717 0.014972206 0.050691627 0.031191515 -0.0462293 0.08056912 0.0024264446 -0.07318538 0.03306226 -0.037858345 -0.0075238966 -0.038326863 -0.0132291885 -0.030532828 0.0076634176 -0.014758917 0.023070622
1217 -0.032398 0.058468953 -0.029408034 -0.051896334 0.07828244 0.023803458 0.01182092 -0.04068662 -0.046752114 -0.03172407 -0.022253845 0.006834209 0.044849902 -0.055980872 -0.0132526355 -0.0022780076 0.013353189 -0.00086675806 0.030718455 0.062476005 0.030851424 0.05027317 0.010319426 0.005448204 0.02924992 0.0017590557 -0.013075597 -0.012457645 -0.035312776 -0.021021793 -0.0063294927 -0.012144765 -0.061152723 0.02590915 0.060012948 0.055671636 -0.025504228 -0.023653336 0.022541538 0.02542845 -0.009415567 0.072215706 -0.06827322 -0.07525037 0.05823347 -0.074867636 -0.004536571 -0.022895057 0.06334929 0.012098467 0.04329216 -0.039805632 0.061808538 0.009611192 0.017490573 0.019130565 0.049049348 0.025912596 0.06664665 -0.06367285 -0.07378257 0.012628406 0.0607489 0.061693303 0.009642255 0.0151415765 0.041887168 -0.008491586 -0.05007672 0.010933722 -0.026944727 0.062090103 -0.0035172643 -0.03589758 0.017503316 -0.016927503 0.03568763 -0.016289666 0.026121024 -0.007025319 0.024127128 0.0073229694 -0.036653403 0.038320556 -0.010301263 0.05881368 0.019866614 -0.038585834 -0.022206089 0.059129987 -0.009273142 -0.059567176 -0.051309917 0.059393875 0.005195163 0.033040293 -0.04156159 0.065586366 0.039539833 -0.0029525603 -0.0043167644 -0.024929857 0.035949536 -0.08009556 0.022835992 -0.07926141 -0.029653074 -0.008909627 0.041385885 0.023965262 0.016497225 -0.03630055 -0.060284175 0.0336761 0.05058436 0.014296977 0.040419597 -0.05743173 -0.0045082713 0.01595144 -0.05212407 -0.006436399 -0.011850836 0.034486648 -0.03345055 0.006456553 0.04252711 0.023117583
555 -0.029625045 -0.01543947 -0.0027299873 0.005962532 -0.012084192 -0.027710874 0.008209779 -0.077913016 -0.026940797 -0.054716866 0.036664873 -0.010340591 -0.037634436 -0.03468293 -0.038731743 0.03662006 -0.034012653 0.032292206 0.042253103 -0.023756625 0.04652392 0.007290381 -0.008638492 0.0005763897 -0.038291916 0.01164643 0.01112389 -0.009280962 -0.0250004 -0.0420279 0.06821414 0.008577802 0.034027237 0.07795618 0.07790625 0.0640154 -0.0731611 0.0303591 0.004601678 0.07901498 0.024330735 0.028966062 -0.023719275 -0.02326652 -0.030284597 0.028249899 0.0011782524 -0.013901374 0.027086584 -0.05741469 0.04244303 0.00067057833 -0.03868328 0.047197398 -0.03949627 0.055229682 0.036971543 -0.017841268 -0.00060677505 0.023491004 -0.07310515 0.042634696 0.023985015 0.054644234 -0.015465787 -0.005580968 0.039940935 -0.06481639 -0.07537178 -0.028461989 -0.036789298 0.013105506 0.05045448 0.032775745 -0.022200493 -0.01765972 -0.039826754 -0.016409185 0.057177413 -0.013653882 -0.057345446 0.017940924 -0.032930333 -0.028376263 -0.060481094 0.024252467 0.079748996 0.03676669 -0.030384809 -0.022451203 -0.032589987 -0.034573693 0.0061739893 0.0005491547 0.029888654 -0.0118957115 0.02432227 0.048601158 0.07757738 -0.016623259 -0.04097971 0.0046346537 0.07249715 -0.035862807 0.057909355 -0.0030090455 -0.014325038 -0.019827629 -0.004996049 0.05505254 -0.014257215 -0.06288323 -0.057316646 0.052357387 -0.039903216 0.034108255 0.041695494 0.010989783 -0.04475123 -0.04373024 -0.006300915 0.016277503 0.007579214 0.03828601 -0.04237647 -0.013311515 -0.03622122 0.041637618
554 -0.020136729 -0.021694822 0.035968006 -0.06889565 0.018417235 0.020069841 -0.056136105 -0.04080434 -0.046870884 0.03926173 -0.05888589 -0.033244967 0.047422312 -0.061787732 -0.038543697 0.023165677 -0.020930117 -0.075411975 0.0146657815 0.049503513 -0.017118838 0.05671187 0.021304134 0.058421876 0.075862505 -0.0068541607 -0.06298703 -0.032203734 -0.07220293 0.06347334 0.00027038972 -0.026980069 -0.026751213 0.010920152 0.028229473 0.024052974 -0.056927655 0.07270958 -0.056619287 -0.0007471428 -0.003207059 0.017924063 -0.045982827 0.0073800944 -0.017754054 0.005975222 -0.07572574 -0.07001855 0.03889763 -0.06714872 0.060117256 0.079037875 0.003717705 -0.022801144 0.06854066 0.0799582 0.004030533 -0.03999018 0.07041466 -0.062972866 -0.011324102 -0.03852328 -0.013228218 -0.033948753 0.0043171374 0.024232224 -0.015971633 -0.00852675 -0.05351479 -0.020051552 -0.021615889 0.014697023 0.054792643 0.07881038 -0.040926848 0.037721913 -0.022616493 0.07085182 -0.02062404 0.025576798 -0.03757936 -0.011372076 0.0033151805 0.007045391 0.03715159 0.06638417 -0.012888802 -0.048356153 -0.02420831 0.008232998 0.011615607 -0.036337543 0.03574639 0.0012119997 0.020206144 0.009201728 -0.020619987 0.0626749 0.01416959 -0.02959881 0.00828749 0.037740704 0.04362254 -0.07269068 0.07185657 0.0048580873 0.04232244 -0.022890197 0.038600862 0.025584646 0.02630306 -0.079483256 0.03469467 -0.03788492 0.040391106 -0.047588892 0.02481959 0.02056689 -0.038739424 -0.038921062 -0.0076666856 -0.06413923 0.029511824 -0.04476508 0.006430692 0.048903186 0.016825985 0.026355362
557 -0.008313315 -0.011738392 -0.022521691 -0.016515136 0.016824253 0.02953129 -0.017347423 -0.023021853 -0.051979903 -0.03858426 -0.010626446 0.021069927 0.019005947 -0.07905634 0.03812747 0.078792 -0.025864378 -0.055718377 0.03170491 -0.011584369 -0.022205528 0.014639664 -0.015145373 -0.0010948525 0.06280316 0.031699806 0.021926815 0.059286077 0.010353714 -0.026092878 0.017214717 -0.028799012 0.0022698513 -0.024614872 0.04020568 0.080559626 0.0017690071 0.06373475 -0.057424203 0.024290932 0.044393677 0.034682084 0.03490477 -0.055028863 0.04070975 -0.002072631 0.03706764 0.011232418 -0.038428128 -0.0784389 0.059683304 0.07501558 0.01579424 0.03473756 0.017698226 0.07220173 0.07927463 -0.07331833 -0.011573128 -0.01324206 0.010888135 -0.00813872 0.07373153 0.031977095 0.07943783 -0.035996143 -0.05869026 -0.03451503 0.03154967 0.0034596971 -0.008261342 0.028976586 0.055127557 -0.004283295 -0.006892197 0.004635497 0.004969682 0.045429308 0.034790095 -0.021659084 0.03949943 -0.031298038 0.0023853355 0.020488977 0.036066443 0.06631586 -0.013066599 -0.019560985 -0.061335113 0.06965461 0.026672315 0.010312263 -0.06514299 -0.0075559462 0.050908525 -0.016489713 -0.058306564 0.030022765 0.073328234 0.027663937 0.04363756 -0.0027873097 -0.0030764858 -0.079763986 0.04049464 0.011381498 0.038708717 0.030694667 0.029862758 0.003707058 0.027088283 0.020568801 -0.06251096 0.024148772 0.01873262 -0.08077326 0.03628819 0.034651794 -0.07041389 -0.052748606 0.011781481 -0.07634209 0.022716522 -0.055822626 0.033133842 0.022429496 0.01833316 0.01245868
556 -0.03706326 -0.033221126 -0.014226056 -0.03314132 0.051635556 -0.04783611 -0.044418957 0.004694527 -0.03658145 -0.073542446 -0.044519305 -0.040125586 0.06252951 0.006985795 0.02955218 0.0334321 0.031963937 0.022364683 -0.0176956 0.008616602 -0.03478204 -0.018415898 -0.025380386 -0.03136586 0.010030156 -0.012031902 -0.06799707 0.008103844 -0.009499405 -0.0038923703 0.04641351 0.0258623 0.018096821 0.0436625 -0.007022865 0.031213734 -0.011501589 -0.015410924 -0.012409353 0.07430874 0.032438826 -0.01456754 -0.05261332 0.015350556 -0.015344181 -0.04777012 -0.07705506 -0.020459384 0.06567368 -0.020252062 0.028249465 -0.035209257 0.022072688 0.021130541 -0.023200152 0.005086696 -0.019418713 0.036825426 0.0024585614 0.027903374 -0.045060724 -0.0063888147 -0.03240002 -0.003972902 0.03882693 0.078018114 -0.05462132 -0.028789844 -0.034247402 -0.07989068 0.0076106307 0.035053603 0.01933991 -0.033998743 -0.026247142 -0.015212214 0.012753161 0.080023654 -0.0019117384 -0.07946093 -0.0056576864 0.04217267 0.017011724 -0.003111774 -0.07023918 0.016820952 0.020040648 0.024023792 0.039713044 0.012230927 -0.01085859 0.042304058 -0.080579236 -0.022247545 0.018531406 0.080731295 0.025834909 0.03526564 0.07188612 0.0045744623 0.023255289 -0.0028667701 0.05824084 -0.030422758 0.019147968 -0.07257859 -0.031069398 0.020955341 0.02655293 -0.009090685 0.061013643 0.03387969 -0.020448126 0.009988133 0.067312956 -0.0073974943 0.035218082 -0.0035836808 -0.06507479 -0.051873196 0.037201893 0.026050894 -0.01299794 -0.058481563 0.04726303 -0.00821341 0.055620875 0.017406767
551 0.016822737 0.07286156 -0.075169936 -0.068878315 0.014574253 0.017740235 -0.01287976 -0.03501408 -0.07323818 0.009669283 -0.03777947 -0.052428488 0.046116028 0.0091137355 0.0779239 0.06108656 -0.020885278 -0.072184786 -0.0072510843 0.00879069 0.032390013 0.02833488 -0.0614193 -0.005349179 -0.036258418 -0.04372105 -0.0040010037 0.00018080231 -0.008141493 0.05060944 0.01343803 0.04830055 0.01472007 -0.016491 0.0042233127 0.017235816 -0.06163984 0.048244163 -0.042776592 0.0044865054 0.058868673 -0.013985028 -0.009980248 -0.03250663 0.040716436 0.0075707603 -0.000932529 -0.051891286 0.022638915 -0.03920955 0.049599983 -0.010179422 -0.03945949 0.0629094 -0.008681858 -0.00014023343 0.06332969 0.030247252 0.03423556 -0.06239761 0.02232782 0.025930678 -0.0053090653 0.072537586 -1.8272898e-05 0.022124741 -0.016389687 -0.07832584 -0.046396565 -0.05912737 0.0691432 0.06787185 0.07500211 -0.0021914844 0.051891115 -0.028135996 0.045733638 0.059634816 0.06897526 -0.032781273 -0.06636204 -0.059803624 -0.05617795 -0.03510401 -0.045596574 0.07677707 0.053849157 0.01954323 -0.050826408 0.046267994 0.009571321 0.008603555 0.01710126 0.058393694 0.044623088 0.06510066 -0.00027808943 0.0066753724 -0.03818134 0.067233436 0.07184791 0.052686457 -0.008597084 0.028120307 -0.029345829 0.018234784 0.0015196063 -0.031464856 0.0034028906 -0.0012760961 0.004188017 -0.028726976 -0.06884408 0.019369308 0.049873643 0.010781698 0.074915625 0.03852117 -0.005784341 -0.060400955 -0.06537676 -0.063086696 0.018180776 -0.051093627 0.06900969 0.063658535 0.048376042 -0.061630126
550 -0.031362955 0.07497664 0.025480594 0.014539988 0.0023386613 -0.054799642 -0.020104883 -0.044413976 -0.023544965 -0.079787 -0.037381712 -0.041113082 -0.034213837 -0.03972026 0.08107867 -0.02705601 0.066490516 -0.030860921 0.062495027 0.053154666 -0.032400247 -0.025352309 0.035331097 0.013419362 0.05036495 -0.0010510404 -0.02808943 0.034668658 -0.012911158 0.06566081 -0.024536021 -0.01643443 0.036999255 -0.037917424 0.025784286 -0.017554043 0.022851963 0.0022020238 -0.047834855 -0.010352883 0.0062072254 -0.015869435 -0.03944491 -0.054861747 -0.047268722 0.019915886 -0.06842762 0.031836506 0.043518465 -0.04870822 0.021952098 -0.014200884 0.029769616 0.04968348 -0.025091227 0.06632994 0.004889602 -0.07655489 0.0053391885 -0.050920226 -0.04406441 0.04785296 0.021735564 -0.00022650091 -0.036575343 -0.019768383 -0.0013043742 -0.062838815 -0.07965802 -0.0040303725 0.030598339 0.017248368 0.011180755 0.016766239 0.022058127 -0.08010898 0.021575602 0.0021317 0.07260188 -0.02951281 0.008503212 -0.0110003855 -0.049205277 -0.048064772 -0.041390534 0.07664865 0.06695734 -0.04831426 -0.0011148185 -0.023343159 -0.0070428494 -0.037927512 -0.032975797 0.04432909 0.054251723 0.0762907 -0.07725231 0.05383241 0.07250676 0.03168689 -0.025632568 0.048429664 0.055835485 -0.002615289 -0.008883901 0.026624167 0.00052797573 -0.05316719 -0.022139015 0.018104417 0.0736562 -0.066636436 0.017110879 -0.022262018 0.054722387 -0.0692255 -0.019285329 -0.008119647 -0.05967634 -0.0687195 -0.016070366 -0.035618596 -0.068535075 0.0007156384 -0.012022674 -0.023215506 -0.00097396516 0.021302931
553 0.009918683 0.050775796 0.03540153 -0.03366305 0.07561338 -0.0571172 0.037576783 0.0021039366 -0.036493186 -0.030853491 0.007406339 0.010006211 0.0319519 -0.0316793 0.04436339 -0.045076527 0.0020339955 -0.015115868 0.071278736 -0.000118089374 -0.040178966 -0.019748483 -0.057435393 0.023264764 -0.037777178 -0.040782265 -0.005901549 0.08094384 0.038313672 0.0010563118 -0.028109912 0.00061082374 -0.052320637 0.07946945 0.022457775 0.03692552 0.022248697 -0.005261099 -0.019962093 0.05760117 -0.02356812 -0.028544426 0.022847628 -0.056674704 0.03490296 -0.0107744 -0.023332316 -0.010544411 0.056022488 -0.08071717 0.08008362 0.013119726 0.03147601 0.011366334 -0.0013926728 0.025768898 -0.03312842 -0.0050250147 0.052262973 0.00647867 -0.026755748 0.033629663 -0.035115376 0.07667199 0.06481438 0.0676479 -0.07901164 0.0032354866 0.0028687592 -0.06327786 0.012370394 0.021597175 0.08084083 0.060756523 0.009735781 -0.017640796 0.006919813 0.05065869 -0.0381338 -0.021856908 0.012845726 -0.080333896 -0.0155844735 0.0012322366 -0.066211075 0.0062694 0.026135493 0.020234969 0.019628469 -0.014848321 -0.007519505 -0.06300998 -0.01175041 0.037494116 0.030420907 -0.030901842 0.015716275 0.05688821 0.030780619 0.07394842 -0.003064773 -0.011400445 0.018697096 0.03639499 -0.03348111 0.012888694 0.060968984 -0.05914531 0.07539003 0.074407116 0.028988196 -0.050311655 -0.05944225 0.054780137 0.060948767 0.0394439 0.051248293 -0.018693758 -0.057083435 0.039235465 0.005197809 -0.00991706 -0.04086557 0.026107064 0.079664044 0.052025944 -0.0002995769 -0.012624332
