4 128
1 0.053816147 0.12700576 0.093475804 -0.09085868 -0.029908497 -0.17532355 -0.13745734 -0.095909365 0.23235181 -0.10275907 0.058162797 -0.031544343 0.17870174 -0.070848875 0.021811962 -0.072699636 0.0036333837 0.10985138 0.15080273 -0.096801564 0.08967676 0.043454945 -0.05578667 -0.17210563 -0.24306968 -0.06818272 0.13532628 -0.005996067 -0.0026855427 -0.06741871 0.00503529 0.14069343 0.07041261 0.13011473 -0.050582577 0.11304771 -0.068881944 0.15383731 0.11981166 -0.016360406 -0.086189575 0.104914226 -0.15450625 0.19837892 -0.020469688 0.15254223 0.042084824 0.117783725 -0.059508856 -0.05574466 0.050151065 0.061086435 -0.11890459 0.038590662 0.029632466 0.040634263 0.04757122 -0.10426881 0.2580259 -0.20839709 -0.12769185 0.10765445 0.026686644 0.022524605 -0.015814587 0.20947914 -0.19972146 0.08840689 0.11538898 0.1632841 0.113682434 0.07103212 0.13254905 -0.029272728 -0.13447115 -0.053550474 0.069687046 -0.2120276 0.09750713 0.06646969 -0.17644441 0.15811041 0.22100927 -0.018674552 -0.13601875 -0.08939947 0.15124385 0.20364545 0.006733631 -0.007818981 -0.0074442104 0.01807619 -0.11687489 0.018446207 0.18186028 -0.06810497 0.14355837 0.06110273 -0.0896931 0.0795329 -0.10751139 -0.14450243 -0.14663397 0.069352746 0.085551485 0.111148186 -0.13201308 0.0127278315 0.08868457 0.13446659 -0.015209715 -0.22858801 0.12830278 -0.14326936 0.14343213 -0.0429241 0.04363792 0.109454684 0.1742436 0.14761402 0.14943129 0.21110412 -0.03187474 0.13305329 -0.0018884903 -0.17366481 0.15420882 -0.05943249
0 0.17003994 0.005750221 0.12135881 0.17068185 0.024977906 0.08864943 0.1558731 -0.10292946 0.10335331 -0.06393309 -0.20198438 0.03404957 0.15798369 -0.048968565 -0.09370404 -0.08651099 -0.08012488 -0.07454554 0.19899191 -0.017864646 -0.117332086 0.101773776 0.12841052 -0.12167691 -0.121318735 0.13444096 0.054455303 -0.05242009 -0.048670117 0.20533018 -0.19472982 0.14960901 -0.1124645 0.17749563 -0.18642093 0.11089388 0.20289996 -0.08466946 -0.045087058 -0.15772592 0.15853657 0.15824082 0.12930204 0.04336223 0.067372195 -0.17897296 -0.19494511 -0.0044946936 -0.174635 0.19740646 -0.0068804026 -0.078894936 -0.07465285 -0.03918407 -0.008835859 0.16756546 0.056116838 0.05558285 -0.12811723 -0.05944239 -0.04158698 0.16149674 0.109974995 -0.17927454 -0.20017605 -0.20963249 -0.1044961 0.19673494 0.11223916 0.15085015 -0.010259252 -0.040448476 0.052685622 -0.20579882 -0.08562394 -0.17160983 -0.17124636 -0.16995656 0.053404152 0.18269576 -0.148213 0.16257781 -0.025786938 0.0067049577 0.028876506 -0.056704056 0.057138607 -0.12706192 0.009116501 -0.054085266 -0.08151804 -0.047787312 -0.07176555 0.16506252 -0.14017251 0.11090682 0.18547554 -0.21307006 -0.18869604 -0.157344 -0.11531827 -0.14541337 -0.0961888 -0.11825251 -0.21056037 0.14199196 0.02458312 -0.0010760198 0.2110671 -0.12768844 -0.11051774 0.14882386 -0.0625079 -0.1939041 -0.053657904 -0.008481784 0.02137253 0.003895202 -0.048201304 0.07235815 0.20209733 0.11537431 0.12055911 -0.1824974 -0.17498188 0.061331097 0.08350844 0.03824922
3 0.09670578 0.14170593 0.10928238 -0.2551702 -0.05057277 -0.24544796 0.16507374 0.10784197 0.13994762 0.1215636 -0.1559238 -0.0561552 0.1088525 -0.23943444 -0.13546818 0.11428245 -0.010525148 0.016269013 -0.14925489 -0.027881794 0.20905493 -0.012084811 -0.033628296 -0.08984409 -0.053813677 -0.05065803 -0.039948035 -0.0417011 -0.11041921 -0.13357225 0.00016395375 0.070027284 -0.1585885 0.17268586 -0.20125568 0.1742909 0.14623801 0.14245228 0.03993439 0.05890154 0.09731512 0.09518623 0.0012834542 0.16972244 -0.08396386 0.026287694 0.14578964 -0.027760405 -0.2535309 -0.24297671 0.13787106 -0.081986696 0.009870382 0.18272763 -0.09620701 0.020781629 0.031094754 -0.15524948 0.19156045 -0.11640993 -0.08439476 -0.06019045 0.1598796 0.016845217 0.09922569 0.21004209 -0.20944722 -0.010158658 -0.12364457 0.22525115 0.15680858 -0.07820224 -0.08255493 0.08494056 0.018707424 0.10933819 0.227928 -0.107908756 0.023957334 -0.0756675 -0.13882527 0.01975945 0.055288576 -0.034916237 0.0029909527 -0.24496466 -0.053636223 0.054342084 0.010996803 -0.01807005 -0.027845128 0.012271808 -0.23655424 0.08157944 0.16523156 -0.18266672 0.22789466 -0.015564218 0.041848853 0.19099596 -0.24385333 -0.23488373 0.16885881 0.08920163 -0.10124568 -0.04716079 0.010813193 0.061682083 -0.12346348 0.09581142 0.02403137 -0.24319042 -0.005798956 -0.16078697 -0.08075933 0.15617713 0.051510118 0.0043261806 -0.05105635 0.07079064 -0.02210167 0.11604974 -0.18389277 -0.06271176 -0.041730743 -0.1632258 -0.1109001 0.0033878163
2 0.17943496 0.11811928 0.19887066 -0.08212513 0.014110749 -0.11757235 -0.03163128 0.042337593 -0.012471296 -0.120417155 0.07146899 -0.06723252 0.020195436 -0.11352651 0.031045634 0.18520187 0.073341124 0.2158597 0.08286872 0.09883873 -0.16069187 -0.12107073 0.14104417 -0.046299405 -0.0607099 -0.09432038 0.13344592 -0.14003673 -0.13170232 0.19989575 -0.22729467 -0.031403523 -0.11546673 0.10955348 0.17990825 -0.011330911 0.040870946 -0.108364105 -0.042702537 -0.14662988 -0.13610299 0.14061344 -0.22891392 -0.041092094 0.24241862 -0.11960502 0.08493783 -0.032167662 0.0067679402 0.19529565 -0.13070808 0.20335865 0.08670699 -0.062226657 -0.04292578 -0.07302311 0.06704934 0.12065545 -0.029631354 -0.23150949 -0.17345808 -0.01780917 0.16311765 -0.07341646 -0.20896302 -0.1718057 -0.21803199 -0.089513 -0.1769628 0.1151315 -0.021553092 -0.1797818 0.033835918 -0.08984948 -0.12666571 -0.10578538 -0.0062412918 -0.08454149 -0.06493727 -0.13393609 0.13714752 -0.16606066 0.09501552 0.11484042 -0.025391959 -0.039332185 -0.10122531 -0.08765757 0.059701685 0.014197618 0.13164605 0.039982874 -0.12855497 0.04687731 -0.09130009 0.12198155 -0.101813406 -0.009649104 -0.015326922 0.12490965 -0.115062624 -0.21020529 0.1770425 0.127673 0.1592659 0.104595624 0.008355176 0.047629137 -0.13304362 -0.17592579 0.012869708 -0.026858168 0.12631083 -0.008802962 0.23167863 -0.23192321 0.18854162 0.22016312 -0.17173979 -0.10400466 0.22211139 -0.028985795 0.20944507 -0.08454821 0.044228256 0.13181402 -0.13573769 -0.09871104
