708 128
199 0.015190866 0.0479731 0.073383264 0.08964623 0.022877624 0.089954294 0.07705955 -0.0044062976 -0.040087607 -0.0936238 0.0872975 0.035219405 0.10102721 -0.052152697 -0.0144652985 -0.08574034 0.06784745 0.07480124 -0.0581482 -0.039694734 0.019668166 0.07564234 -0.016410265 -0.06838574 -3.452046e-05 -0.036880217 0.037827224 0.04937381 -0.0069570267 0.05658499 -0.0015717014 0.061610572 -0.041729685 0.0027400702 -0.05134707 0.10146303 0.024788769 -0.046542797 0.002953375 0.04670194 0.008100035 -0.060598534 0.013023641 0.070103474 0.052897993 0.054573756 -0.00063137687 0.092171624 -0.030990424 0.0526647 -0.045393176 -0.07853025 0.06726302 -0.04058732 -0.098119035 -0.016055897 -0.011728415 0.021979768 -0.04848534 -0.011316545 0.068578005 0.05991764 0.01856592 0.09929965 -0.06550792 -0.04668763 -0.057755407 0.0618779 -0.0027664602 -0.08331348 0.09663498 0.0977485 0.040277958 -0.0491777 0.03541501 0.05646491 -0.034306645 0.028915962 -0.05621178 0.050275072 -0.0596955 0.08901117 -0.063912906 -0.050691575 -0.099638976 0.089276575 -0.036300138 0.023483904 0.044411417 -0.03514108 0.009073631 -0.08716203 0.04043507 -0.039910227 -0.09111313 -0.104433075 -0.041439187 0.06015266 -0.058600396 0.056175675 -0.016063655 -0.0062350314 0.037894785 -0.077610075 -0.08197698 0.059305895 0.025362028 0.0071136695 0.033060744 -0.088043615 0.040880945 0.08295804 0.0426354 -0.08210725 0.02533727 6.952556e-06 -0.065296404 -0.05877908 0.058359865 -0.03430405 0.013963757 -0.040039867 -0.051062237 0.09410773 0.039316516 0.09401993 0.04830847 -0.068780325
198 -0.008362909 -0.012669631 0.02497111 0.036511466 -0.04034615 -0.05471158 0.02869736 0.0452012 0.050817728 0.016923536 -0.008153561 0.07470407 -0.033761673 0.028643033 0.09765349 -0.03866744 0.089872696 -0.017955799 0.02110878 0.025294155 -0.003481948 -0.06947203 -0.08370896 -0.01891559 -0.013161216 -0.0152210705 -0.09607476 -0.031823635 -0.058606494 -0.023006532 0.08766523 0.015481389 0.07600371 0.05374299 0.010198421 -0.05996365 0.020541709 -0.0298265 0.032738905 0.03350157 -0.04447205 0.03341373 -0.00284123 -0.0123828165 -0.043447517 -0.06692633 0.040244192 -0.04318897 -0.0026702848 -0.058453813 -0.018913679 0.09131649 -0.03071474 0.007992439 0.039585926 0.053363707 -0.03206963 0.025100995 -0.0026191566 -0.04502542 0.016044006 -0.040031966 -0.10303294 0.06066238 0.014520823 -0.038831607 0.05684252 0.046042386 0.043718435 -0.03490256 -0.008477065 -0.024512338 -0.02146446 -0.08761021 0.013296496 0.044588335 0.052328236 0.084631726 0.011210203 -0.026355676 0.095431805 -0.07319537 0.04436052 -0.08969319 -0.08985975 0.062497776 -0.10356216 -0.033004634 0.08294975 -0.041989315 -0.055253193 0.024929093 0.036490593 -0.07574869 0.058535755 -0.011074029 -0.00068104325 -0.04721719 -0.061335668 0.07849808 0.092830725 0.03669786 -0.04438412 0.056742106 0.060967103 -0.016014844 -0.06933838 0.0591886 0.052476622 -0.04775639 -0.013367947 -0.073346466 0.012638707 -0.058442786 0.005169518 -0.061851412 -0.10520207 0.006621155 0.021805983 -0.087733015 -0.04631175 -0.0017041743 0.0041639735 0.05204255 -0.02987136 0.053796295 -0.056594584 0.028034002
344 0.08382824 0.02007411 0.06476152 -0.04281199 0.05809328 0.07833013 0.06119934 -0.021668937 0.034055833 0.024580857 0.07455095 -0.031214228 0.08666409 -0.025936488 -0.0091923475 0.054252777 -0.02158611 -0.04195276 -0.022487346 -0.012649053 0.029519908 0.030489728 0.034864053 -0.037205838 -0.019208126 -0.041372698 -0.05428985 -0.0051084566 -0.02275918 -0.014032256 -0.057700627 0.08202639 0.096506596 0.04390537 0.0030462076 -0.034056503 0.02053547 -0.08973868 -0.10427264 -0.01263082 0.050299503 0.0114939585 -0.041893303 -0.014390845 0.046671186 -0.008454714 0.04598378 0.021078777 -0.018526005 -0.053873636 0.08839288 -0.06657239 0.05320971 -0.06554039 -0.074894264 -0.05440842 0.058058146 -0.067059666 -0.07462374 0.029286496 0.008856141 0.06839629 0.051705893 0.024526877 -0.011018361 -0.046037927 -0.0032972237 0.037489012 -0.040819928 0.010371158 -0.043365426 0.031928126 -0.0927819 -0.065707356 0.03957274 -0.0070185303 -0.047780756 -0.0030580948 0.0023206826 -0.012480838 0.032239407 0.017869348 -0.034979727 -0.06286345 0.058004253 0.059326645 -0.0041928897 0.017955314 -0.002000466 0.035951555 -0.077435836 -0.06533238 -0.003098925 -0.015987832 -0.040585045 0.074826755 -0.013654897 -0.09973046 -0.030525273 -0.03163161 0.08750022 -0.089093365 -0.042020936 0.04489159 -0.07475504 0.036284715 -0.050043266 0.081155874 0.06292533 -0.028877279 0.061613034 0.05155173 -0.024783464 -0.023314169 0.016244702 -0.08202858 0.016547764 0.047072664 -0.07416372 -0.0033256938 0.10188246 0.035478044 -0.03368544 -0.003967582 0.004715136 -0.042938236 0.023546008 -0.048152346
0 0.022147268 -0.014381389 -0.047064736 0.045078307 0.06286182 0.053762116 0.036292426 -0.0072110128 0.0027156712 -0.0007851344 -0.056162283 0.025552044 -0.0022896521 -0.039757986 0.039569195 -0.0014172425 0.041048568 0.05728469 -0.000922132 -0.062581 -0.0012202932 0.00065025996 -0.0059306216 0.058702253 0.058655817 0.008983574 -0.05448221 -0.02032533 -0.0014520984 0.025594288 0.0005080941 0.03323683 -0.031006074 -0.044380084 -0.047945675 -0.024697684 0.00081685634 -0.0025404964 -0.014683815 0.017360529 0.028044226 0.0024830922 0.0007445148 0.00024903624 -0.026972758 -0.009769576 0.017503971 0.020447582 -0.021012127 -0.0005893815 0.03200655 0.012538869 0.063318655 -0.037778724 -0.012487028 -0.01264434 -0.00090839836 -0.036965426 0.01934952 -0.0148078045 -0.03891361 0.012281951 -0.0018754259 0.021723296 -0.0010423077 -0.04789707 0.00076715864 -0.012510844 0.01740147 -0.03280011 0.033987984 0.056817096 -0.00024178853 0.014246126 -0.013047812 -0.008966605 0.0017861896 0.03623104 -0.001551293 0.009397691 3.5365803e-05 -0.06301428 -0.052989382 0.015154993 0.017597029 -0.039216775 -0.010669779 0.06476933 -0.009857511 -0.002163441 -0.030119492 0.0012335747 -0.023855198 0.040745746 -0.057281494 0.025830574 0.0018545697 -0.032134946 0.04239295 -0.0013430452 0.03986749 -0.020246858 0.046525866 0.0007608927 -0.0025116366 -0.025680503 0.054172017 0.0019910294 0.064392045 -0.06261009 0.013889868 0.032643545 0.0272772 0.010252173 -0.016603973 -0.010279283 0.030254787 -0.0007892279 0.010791306 -0.050777357 0.039905887 0.062301494 0.05217895 -0.05050212 0.040155657 0.060867634 -4.533888e-05 0.0011325369
346 -0.0046945577 0.0010481108 0.0023353836 -0.0004904514 0.007921215 -0.00031392963 -0.0024058009 0.01821479 -0.0025881904 0.037578937 4.5170513e-05 0.0052823275 -0.0011968388 -0.003534044 0.044838697 -0.0031477166 0.0034190656 0.0016831644 -0.015934033 -0.00057332584 -0.046569124 0.024225181 0.05405147 -0.051254127 -0.034527246 0.00046529667 -0.0024306043 0.00053964544 0.05346209 0.050156623 0.03460101 0.00074231805 0.0012923566 0.059941664 0.0040763672 0.03254664 -0.05600319 -0.013129873 -0.048260085 -0.029496944 -0.042416435 0.0042626923 -2.1784032e-05 -0.01968282 -0.0009241884 0.03981217 0.007495472 0.0003811076 0.0129961595 -0.05189757 -0.00033748528 -0.06442794 0.029716542 -0.04079147 -0.0024894893 0.034517467 -0.030331427 0.046101756 0.023388378 0.0008574492 -0.052229162 0.044156857 0.0039134324 -0.008777989 -0.02319112 -0.049363114 -7.078593e-05 -0.049569897 -0.061460104 7.450115e-06 -0.059816163 -0.031075707 -0.023842808 -0.049193036 0.049962886 0.033153698 -0.055164173 -0.046077117 0.022186585 -0.02754498 0.062721305 0.0026187885 0.013660156 -0.0006058288 -0.021337092 -0.038028825 0.045767672 -0.03516944 -0.00018097484 5.4346674e-05 -0.032681543 -0.0035053333 -0.0009132724 0.0021316651 0.010621312 0.057131782 -0.04256791 -0.0019769482 -0.045904122 0.0024700365 0.0004968812 -0.028381694 -0.002221507 0.0010538821 -0.030033091 0.05134067 0.007404803 -0.032926004 0.0010410879 -0.0007305492 0.0019438897 -0.054682918 -0.021569706 -0.02103622 -0.012664062 0.0007625751 0.005559219 -0.048781253 0.0181081 -0.03737234 0.023994984 -0.022255806 0.030125145 0.007075734 -0.05986345 0.019813713 0.0073138224 -0.048285276
347 -0.10192301 -0.047583867 -0.03469772 0.084510095 -0.012528413 -0.029129745 -0.034356963 0.049993567 -0.038348217 0.10058113 0.044716418 -0.06275722 -0.066944055 -0.072905436 -0.028770337 0.07284118 -0.09657883 0.022317225 0.03834141 0.052521314 -0.017691178 -0.017682591 0.097489916 0.00057260157 0.054921843 0.034183126 0.04887132 0.020166013 -0.050574828 0.06924736 -0.050961975 0.055193882 0.03299711 -0.023815151 0.017950043 -0.02348504 -0.059886526 -0.0890657 0.0624956 0.039452415 0.07736793 0.028444065 -0.009316072 -0.06434641 0.009530987 0.062270045 0.07502759 -0.011819109 -0.0064164437 0.03318786 0.022271547 -0.074137546 -0.0064245197 -0.035671547 -0.059033778 0.019969951 -0.015087554 -0.005714566 0.069853984 0.021349985 -0.020358188 -0.051528003 0.10122375 -0.0035463516 -0.009717932 -0.09976344 0.090669475 0.05346139 -0.08829526 0.012831312 -0.037083656 -0.0030062755 0.019295856 0.0066162446 -0.039074115 0.006457824 0.00089135946 0.043134905 0.0435099 -0.044601817 -0.043300513 -0.010438699 -0.032523412 0.07602545 0.010024127 -0.066384576 -0.04454139 0.007741134 -0.045311715 -0.0044173594 0.06521168 0.013574455 -0.057212655 -0.036177013 -0.024951056 -0.025865134 -0.07898466 -0.07526316 0.060076386 -0.09572396 0.03099633 0.04979281 0.0016123473 -0.08992946 -0.03967999 0.06810886 -0.09001283 0.07276883 0.06155283 -0.018159801 -0.053757757 -0.051852684 0.029435797 0.040285517 0.06137206 0.031836525 0.10328375 0.073027454 -0.011782724 -0.049929798 0.014853883 -0.033441354 -0.050545175 0.02808554 0.09103926 -0.05411158 -0.015727172 0.0072106794
340 0.04886454 0.021915587 -0.08577505 -0.021084657 0.0492254 0.03032446 0.0137621835 -0.035928033 -0.050007503 0.026238745 0.048370954 -0.026024427 0.03280022 0.08514307 -0.043612324 -0.048462626 -0.006303234 -0.021156885 -0.061241202 0.038843628 -0.05957456 -0.049027305 -0.062151637 0.10339062 0.033448637 -0.052699033 -0.022691717 0.08351074 -0.016568372 0.029510068 0.0011968765 -0.073265076 0.05275717 0.061015666 -0.09210478 -0.063170604 0.09518912 -0.03108633 -0.0069258013 0.060120247 0.050852638 -0.017205926 0.02276759 0.042639825 -0.068473086 -0.0070915306 -0.021455165 -0.046299033 -0.048068557 -0.03889012 -0.04670493 -0.07452119 -0.07413468 0.0532099 0.062081322 -0.032012533 0.017845983 0.081528954 0.060819764 -0.06342114 0.08476914 -0.039016955 -0.092669934 -0.027884295 0.017264884 0.06805822 -0.035896618 0.080861494 0.062315423 0.038611814 0.03176582 0.03744392 -0.007250274 0.037101366 0.08856839 -0.014050651 0.096482016 -0.07852161 -0.08970482 -0.014770242 0.026452266 0.08539609 -0.08357668 0.037859656 0.010358684 -0.008455849 0.038129438 0.023369437 0.05877251 0.060790274 -0.028070899 0.06816501 0.019192196 -0.0887926 -0.04113303 -0.042689618 0.09063997 0.0702924 -0.10456844 0.08956873 -0.06855198 0.030441247 -0.07299429 0.014129409 -0.08801199 -0.05607965 0.021668445 0.009838848 -0.053451564 -0.00809314 -0.072061494 0.06918963 0.021387998 -0.013154497 -0.031916823 -0.09658337 -0.03252928 0.04635494 0.06140226 0.08064114 0.0010285284 -0.038811125 0.07955035 -0.046670824 0.075231686 -0.03706711 0.078988194 -0.028545912
341 0.042660363 -0.039318416 0.017959496 0.040619154 -0.0142812915 0.059834853 -0.037590645 -0.03858426 -0.0014570348 -0.0010587126 0.040518038 -0.0020557316 0.0025605122 -0.05065399 -0.05974107 -0.03581676 -0.034536894 0.043395553 -0.014073638 0.057283394 0.04526884 -0.00019793089 0.010996748 0.038716346 0.049721427 -0.044406556 0.06044319 0.04643318 -0.0016175023 -0.0455799 0.007705879 -0.05021085 0.020724198 0.031065708 0.058377612 0.0027270787 0.02987162 0.025804132 0.035920937 0.036816508 0.0022544255 -0.0020070027 0.0010760494 0.046634085 -0.00089470326 -0.025728893 0.064891055 0.022016086 -0.059188366 0.06501112 -0.06201485 0.035580296 -0.04388321 -0.043022014 -0.011272214 -0.00094356004 0.05779911 0.054488275 -0.012636109 0.033638462 -0.021811418 0.0072240746 0.03416634 0.04893717 0.038600583 -0.012602648 -0.0026843445 0.043541383 0.02934344 0.0001187429 0.019879246 0.011340818 0.032224916 -0.011259539 -0.039457325 -0.060713008 -0.0015502749 0.03604583 -0.004020131 -0.0055517266 -0.0009814021 -0.00088424335 0.0010588521 -0.023940906 0.0021678042 -0.05058828 0.016936617 -0.031317685 -0.0027157909 0.010719874 0.002667104 0.0073574902 -0.008841994 -0.006150544 0.045702185 -0.0021590132 0.041109588 0.017955478 -0.055480026 -0.056987848 -0.06474757 0.053859677 0.04124382 0.012933082 -0.03837086 0.055482693 0.056954674 0.057321697 0.04046275 0.049840022 -0.025348872 0.031132959 0.026530668 0.019079726 0.00041830257 -0.028797302 -0.0021871945 -0.05444167 -0.030578718 -0.03214345 0.052634273 0.056523684 0.0008177178 -0.011111779 -0.016896553 -0.047774013 -0.029877039 -0.0027285074
342 -0.05572613 0.100160144 0.009535217 -0.019077787 0.036476873 -0.03535438 0.03388982 -0.03258844 -0.013467225 0.10103172 0.04412508 -0.07982897 0.0040439754 -0.006752194 -0.06073547 0.09082798 0.05515279 0.07176909 0.031554375 0.039287485 -0.06590628 0.0063123237 0.049411796 -0.084924966 -0.012027297 -0.012052939 0.0009867112 0.004942727 -0.028134124 -0.0008558321 -0.009388729 -0.009733731 -0.018862583 0.034769498 -0.090969324 0.013644834 0.06795836 -0.045273647 -0.0028484026 -0.09853757 0.018466098 -0.072435535 -0.054185443 0.062368505 0.04054971 0.0754124 0.015702385 0.025429709 -0.07862297 0.10102502 0.05017852 0.011778151 0.05221501 -0.10059752 -0.012568069 0.031965576 -0.034529798 -0.061752595 0.021835135 0.032239825 -0.042966496 -0.06642052 -0.05930933 0.09216727 -0.04093428 -0.018984674 0.011774669 -0.024174955 -0.050554294 0.044055074 -0.020516898 0.018173221 -0.035103742 -0.09600047 0.06686495 -0.05344526 -0.03388285 0.051169403 -0.05145382 -0.041634295 -0.023373485 0.031298406 -0.077477604 -0.05261294 -0.00017602951 -0.0143227605 -0.05305922 -0.03923133 -0.08241621 -0.02690361 -0.025112778 -0.060738888 -0.088598594 0.012910445 -0.07866752 0.060564656 0.03549502 0.0018785141 0.06141402 0.012541911 0.04391594 -0.09221663 -0.008237438 -0.062361572 0.07037129 -0.010844654 -0.08089552 0.061241556 -0.10223951 -0.051205583 0.015893376 -0.05528633 0.018265467 -0.053368717 0.019327205 -0.057762805 0.032755684 0.06438431 0.04575922 0.011196656 -0.066647954 0.050184682 -0.060341496 -0.06749312 -0.0021003755 0.02686233 0.040558886 -0.0066719805
343 -0.079322726 0.041965514 0.012503113 -0.008795594 0.10297191 0.044164523 0.06502579 -0.0006394858 -0.07661586 0.057061747 -0.038960725 -0.09434187 -0.005491144 -0.0038614552 -0.015903322 -0.047174998 0.036829997 0.08000242 -0.055700153 0.052468553 0.047443885 -0.10223126 -0.021147402 -0.0073161903 -0.017462637 -0.018962674 0.091668464 -0.045724075 0.0035890955 0.010151573 0.0076058437 0.034959543 0.051703226 -0.0363731 -0.026161218 -0.050082184 0.006165951 0.06577865 0.08512399 0.07473085 0.004225019 -0.06005158 0.07183329 -0.028260363 -0.06615441 -0.04801971 -0.0050354567 -0.0073872004 0.050292104 0.07338024 -0.061283473 -0.056531023 -0.017054781 0.06098327 -0.049657814 0.06049921 0.019677062 -0.050612614 0.07684755 -0.024702383 0.042688027 0.005114166 -0.036079243 0.069339275 0.006146596 0.046735153 0.08244353 -0.050127957 0.09116692 -0.08124597 0.042788275 -0.101521745 -0.06463461 -0.059574567 -0.07301488 -0.012305173 -0.041676857 0.0062212637 -0.023540765 0.0063698967 -0.0146804005 -0.0058326754 -0.035061195 -0.022407513 0.07421194 0.03797609 -0.10155214 0.010128752 -0.03924771 -0.018990874 -0.038587525 0.04103506 0.048327345 -0.017795473 -0.022574594 -0.07434844 -0.076899655 -0.048540764 -0.0021196827 -0.019786863 0.01041245 -0.06191568 0.012440661 0.06673065 0.042435773 -0.08681026 -0.035307735 -0.008073492 0.05434372 0.004461638 -0.00010147941 -0.07065982 0.06785421 -0.03090367 0.053327285 -0.043414254 -0.013748217 0.0691112 0.048711732 -0.0023064911 0.0016933988 0.0997855 -0.042134162 -0.029437903 -0.09466592 0.028329886 0.08063257 0.068275206
348 -0.034683183 -0.04194143 0.027864693 0.04933699 -0.028622791 -0.052199394 0.03050502 -0.062634006 -0.08168202 0.0036824278 -0.024047218 -0.05528881 0.039841205 -0.015531802 0.04195928 0.041023027 -0.048047688 0.06659829 -0.017356107 -0.10486851 -0.021141794 -0.040024452 0.020347415 -0.092470765 0.022851663 -0.048429087 -0.048925485 0.029185513 -0.031058569 0.046079896 0.0015663087 0.042591643 0.013952117 0.058029134 -0.03833788 -0.024978107 -0.06418776 -0.028846122 0.070089884 -0.05868188 -0.022887662 -0.028681815 0.086453095 0.06325037 -0.067059636 0.03851159 0.026543044 -0.04570864 0.03268151 0.031543817 -0.06972514 0.05315433 -0.051203173 -0.037750628 -0.0042467155 -0.059242982 -0.035819076 -0.0920979 -0.0008831506 -0.0376121 -0.021954076 -0.08879302 0.05188935 0.09136723 -0.05706312 0.05056259 0.084496275 -0.0476557 -0.0013568199 -0.050732855 0.033458754 -0.07412752 -0.07291651 -0.06928764 0.031509027 -0.05872217 0.032112245 -0.015231761 0.058936086 0.016204042 0.03442418 0.038328145 0.010072327 0.06311171 0.017098514 0.0021629352 0.030271607 0.043472122 0.0861112 -0.039530687 -0.043691784 -0.03721886 -0.07745664 -0.08382322 -0.1057166 -0.076795526 -0.06115954 -0.053574186 0.04865155 -0.029787906 -0.025001144 -0.040794887 0.007933241 0.011483467 -0.023350365 0.043604575 -0.0029252393 0.104241654 0.04274259 -0.04504517 -0.012373812 -0.0878934 -0.006507353 -0.03903945 0.027108137 0.032372393 0.05080579 0.024249166 -0.05725261 0.08577125 0.0751443 0.034746718 0.061406426 0.031296123 0.008680986 -0.09606659 -0.027619157 -0.0204156
349 0.031732976 -0.0009669657 0.00023112842 0.036750037 0.0007880764 0.057136577 -0.01569567 0.06026405 -0.06082169 -0.030798115 -0.041353665 0.0024396388 0.0011973479 -0.01611393 -0.060651097 0.042658854 -0.0005162543 0.0032799132 -0.002146334 0.00035020526 0.00079653494 0.034768157 0.016628152 -0.06488087 0.0004359293 0.00080120197 -0.03791913 0.056421235 0.007327862 0.055383503 -0.046824057 -0.003861023 0.040478773 0.041997954 -0.00016096703 -0.032635067 0.03453748 0.044369984 7.974823e-05 0.024583776 -0.0026535813 0.05482175 -0.05829558 0.043457262 0.029409382 0.00087257737 -0.04570745 0.050416388 0.0008829602 -0.020631477 0.04216056 -0.03530948 0.049266487 -0.010092307 -0.00036537446 0.03960459 -0.028588012 0.005046918 -0.013694992 -6.302539e-05 -0.049893137 0.013189654 -0.016615396 -0.0054540965 0.0012779833 -0.027186027 0.0002357692 0.051697727 0.010229715 0.04338919 -0.0014901629 -0.014342041 -0.0027049924 0.011206902 0.045957908 -0.01262449 0.018378777 0.03653944 0.05852612 0.015731046 0.020326108 -0.009026433 -0.05115648 -0.019531 -0.002717009 -0.00022767695 0.042986907 0.048634656 0.00091703195 -0.00091044337 -0.037195306 -0.0017228152 -0.05408094 0.013131542 -0.0013833775 -0.05653087 0.049897652 0.021924075 -0.0024488755 0.0108330995 -0.035032015 -0.06501451 0.007636643 -0.0022710983 -0.061235964 0.010350827 0.040389523 -0.007165504 -0.02553786 0.019475851 0.012021348 0.032465305 0.06339076 -0.0022218789 0.0018270664 -0.06483914 -0.0025397097 0.00037930266 0.05050875 0.026327698 0.0024505523 -0.0026221625 0.053216875 -0.027391547 -0.064163946 -0.05536603 0.06328014 -3.1526295e-05
129 -0.064274535 -0.040175285 0.0453293 -0.070788264 -0.014787164 -0.025613988 0.062242486 -0.0856538 -0.08378009 0.0001848021 -0.042885296 -0.0574751 0.033182614 -0.04006319 -0.07163199 -0.057709973 0.014044961 0.056588117 -0.04228437 0.019816086 -0.06885679 0.05877779 0.08849182 0.027893033 -0.087727875 -0.023541734 -0.09459928 0.078335874 -0.052224513 0.06669304 -0.03020065 0.085928485 -0.031452328 -0.04043682 0.011216918 0.025097327 0.053166445 -0.08079995 -0.06660911 -0.051313568 0.08710102 0.058881182 0.065604165 -0.044506438 -0.09945059 -0.0896258 -0.0066056447 -0.0154271135 -0.051561236 0.036310427 0.040941205 -0.080295295 0.08798964 -0.00580651 0.04508523 0.039808415 -0.088101365 -0.031039985 -0.0053925402 0.024468051 0.034311496 -0.021544127 -0.01773392 -0.039434608 0.010937113 -0.03927921 -0.064532615 -0.04636124 0.02761733 -0.018283058 -0.01865819 -0.012591612 0.03417487 -0.031297415 0.019939715 0.0626862 0.05782509 0.010592932 -0.10015427 -0.054295238 0.012263497 0.08834415 0.08912083 -0.036249403 0.04527534 -0.098552614 0.03950102 0.024554996 0.040712543 0.0563892 -0.07143391 -0.013479292 0.0038474635 -0.08881552 -0.08668342 0.063183054 -0.039336797 0.027619505 0.048701454 -0.095622405 -0.040225726 0.06253728 -0.020478928 -0.0025776438 0.09604372 -0.030321825 0.053806268 -0.09827138 0.06531779 0.0018070219 0.0831231 0.028724514 -0.03665697 -0.01880587 -0.029430918 -0.09122165 0.054340623 -0.001780272 -0.07645247 0.055179756 -0.09840078 0.10013208 0.05004072 -0.034057748 -0.048255846 0.04330492 0.058232352 -0.027477888
619 -0.043848652 -0.018909577 0.023842901 0.00062160054 -0.0008783778 -0.05721886 -0.0010113985 -0.057393927 0.027157934 -0.016044706 -8.25859e-06 -0.0038111045 -0.04725642 0.016519241 -0.04201139 0.034338374 0.064421274 -0.06400504 0.0050147525 0.024884444 0.0074959355 -0.01243308 0.011060153 -0.026670441 -0.02308503 0.0025587669 0.042096965 -0.059394885 -0.029817352 0.019188996 0.016171053 -0.0049088253 -0.007510113 -0.018780516 -0.043294933 0.050876573 0.043224778 0.0025835386 -0.033835903 -0.026795749 0.048546072 -0.0035515898 -0.006266627 -0.027098356 0.011672051 0.03885062 0.047584727 -0.0026967176 -0.0026133675 0.012869529 -0.06276427 -0.01590311 0.03261041 -0.05530504 0.05156928 0.044723075 0.041457843 -0.0018650142 -0.008157852 -0.057205997 0.001174583 -0.05383307 -0.02935142 0.058986895 0.031964544 0.0004292743 0.02268426 0.0032344142 -0.00037529442 0.004843132 -0.04111407 -0.00019415101 -0.017481256 7.132091e-05 -0.01890167 0.05658463 0.035034142 0.012978908 0.00082309014 -5.9069276e-05 -0.0020207337 -0.0062589394 0.00090460543 -0.0413316 -0.052957654 0.00018653678 -0.022301704 0.03619419 0.006508981 -0.00023875159 -0.033827323 0.01906407 0.045441445 6.7311776e-06 -0.05715687 0.015201444 0.036779787 0.0045115966 -0.0003811401 0.00027180044 -0.0012779498 0.049448013 0.030838216 -0.014100268 0.05511287 0.057373986 -0.060417216 0.003826635 -0.0017562993 0.06057479 -0.05037532 0.002707579 0.012277975 -0.05309634 0.034404 0.031952742 0.039344177 -0.006145166 0.022899846 -0.049953442 0.00028976524 -0.01045062 0.06442952 -0.0003424591 0.036038816 0.042257983 0.00040701282 0.023439093
298 -0.02809851 -0.009039657 -0.043682452 0.06915397 0.02647197 -0.041078974 0.013059697 -0.080875844 -0.043013386 -0.003609416 0.0090347165 -0.06837675 -0.019886198 -0.09903512 0.04625697 0.04712224 -0.06705558 0.022232266 -0.05913219 0.030568456 0.027479267 -0.0011452981 -0.07242733 -0.01750468 -0.08812845 -0.04422031 0.008065795 0.034556385 0.046174735 0.10123706 -0.07674566 -0.08394198 -0.011923573 -0.06763188 0.058811214 0.07101168 -0.04908176 -0.03644903 0.062312733 0.051794246 -0.007893969 -0.09026947 0.03775669 -0.06987132 -0.04961101 -0.051835712 -0.024516715 0.0075283637 -0.05133929 0.053471737 0.03247468 0.07827583 0.057865582 0.051377784 -0.09040479 0.06995545 -0.018681046 -0.022861455 -0.08853389 0.027331933 -0.0883262 0.017475437 -0.056942225 0.029560775 -0.022272369 0.0059591667 -0.05428654 -0.0033521326 0.009971827 0.033621196 -0.0009182921 -0.058500666 0.008884307 0.041102752 0.092191584 -0.04481334 -0.039508626 -0.043343358 0.0464156 -0.06921585 0.006094453 0.0028606686 -0.08801174 0.035469975 0.024829745 0.07436073 -0.035419937 -0.029711872 0.097420394 0.06638929 -0.026941517 -0.08471475 -0.10516796 0.023101646 -0.058338232 0.034303833 0.01995693 0.067694046 -0.080344126 0.08830231 -0.013875959 -0.024949005 -0.062210582 0.052047867 -0.028872937 -0.049116462 -0.09444692 -0.016413266 -0.05199895 0.0028342071 -0.054247618 -0.10145935 -0.047161013 -0.075529225 -0.09089881 -0.04580352 -0.054452877 0.018746108 0.05695158 0.049527742 -0.040087204 -0.03821237 -0.028033417 0.035714034 -0.005957664 0.049775433 0.032592576 0.07942839
299 -0.057431187 -0.0059317425 -0.057642594 0.08654928 -0.0077369018 -0.026806142 -0.024707116 0.06750003 -0.09495968 -0.06482067 0.055931546 0.058312424 -0.025324011 -0.011049217 -0.0019312813 -0.081443876 0.101702 0.050779503 0.023573242 0.004695671 0.0752264 0.07544024 0.005998452 0.09398138 0.017806362 0.06680774 0.008706107 0.010329352 0.047772847 -0.0024631773 0.08594461 -0.09087284 0.06262027 -0.086946726 0.05038821 0.0921817 0.09883169 -0.055849653 0.09911446 -0.0042453837 -0.02050229 0.07051209 0.0024581628 0.013071115 0.09729497 -0.0036544595 -0.057203665 0.01956977 0.012312265 0.06816649 -0.09515035 -0.05047408 0.09603754 0.05472397 -0.017316645 0.088816784 -0.08815679 -0.0068265973 -0.045355424 0.09843441 -0.05401295 0.041229784 0.0039721243 -0.0032587058 -0.02630901 0.0110024605 -0.056885447 0.05244486 -0.05635849 0.09932474 0.01518305 0.008164143 -0.001145348 -0.01873754 -0.001258245 -0.0059040696 0.050100066 -0.03290725 -0.0018453271 0.10516291 -0.047947295 -0.019784788 -0.08018868 0.08586014 -0.018643372 0.08365739 0.041110978 -0.020832345 -0.04972932 -0.020185843 0.086556576 0.03765297 0.0066509363 0.05247587 0.043322265 -0.008215646 -0.052862015 -0.06312781 -0.04131872 0.07618662 -0.045981124 0.018534148 -0.032089062 0.002589481 -0.030606976 -0.004748799 -0.09750012 -0.06433744 0.014298372 0.06357743 -0.021186495 0.04290907 0.058869842 -0.09370176 0.07563636 0.074788116 -0.088160336 0.031273644 0.006502253 -0.0017778656 0.007337259 -0.04293404 0.05354588 0.0084139 0.06983371 -0.042742137 0.07769767 0.025769709
296 -0.05490078 0.06074089 -0.056390442 0.04920174 -0.034424413 -0.032440074 0.063871056 -0.027155628 0.039961766 -0.02210947 0.060035016 0.086655945 0.016836455 -0.040075734 0.060309354 0.008917607 -0.019620584 0.040061764 0.099791884 -0.015593409 0.04502172 -0.07616492 -0.05684161 -0.081385605 0.10206256 -0.0135640865 -0.05964387 -0.05266838 -0.039647464 -0.09869002 -0.050405394 0.056167815 -0.081385925 -0.07151071 0.0083618555 -0.05390997 -0.067445435 0.061666977 0.029220482 0.060742825 -0.06459772 -0.009019098 -0.057969477 -0.00515721 -0.010798325 -0.013278067 -0.0012880497 0.06642987 0.036029723 -0.0026068143 0.06915983 0.021004317 -0.10236597 -0.032511365 0.06683467 -0.09805111 0.015716985 0.10253625 0.06719364 0.05004657 -0.014410372 0.10025833 -0.009778196 0.08624457 0.04185799 0.025287522 0.0539894 -0.03322444 0.045104854 0.053075876 0.027481072 0.04050397 -0.05604899 -0.010695636 -0.033979878 -0.0074127344 -0.034476683 0.062419698 -0.014353118 -0.09770512 -0.050950393 -0.041335825 0.013581757 -0.03752345 -0.102674395 -0.02431414 -0.015989691 0.060539145 -0.089022435 -0.054799616 -0.033022333 0.08374712 -0.0042435816 -0.034028456 -0.09935508 -0.013334308 -0.057352312 0.021460488 -0.05748971 -0.007096535 0.016808357 -0.05738098 -0.05562914 -0.03305478 -0.069314025 -0.0056641437 -0.069105625 0.09966251 -0.06445245 -0.011727791 0.011977612 0.05889943 -0.05442583 0.026233947 -0.07173911 0.054890312 -0.072021306 -0.021712339 0.049244054 0.034987513 0.08538555 -0.0468435 -0.022823885 -0.033369403 0.033464238 0.023515971 0.03769285 -0.009491381
297 0.05208284 0.042330954 0.027964031 -0.0577474 0.05111631 0.053191666 0.082127474 0.10310485 -0.028659131 -0.0369981 -0.015722895 -0.0477808 0.06859591 -0.026063481 -0.021273077 0.031518802 -0.046318293 -0.033062182 -0.07327824 0.008978761 0.0043108035 -0.07425831 -0.06558775 0.04779692 0.060744632 0.044291813 -0.063685104 0.036483735 -0.061761074 -0.038302395 0.076855846 -0.04741779 0.008933763 -0.008798941 0.028310563 0.022058781 0.09752294 0.023472037 -0.06835321 -0.056984305 0.047215383 0.10413395 -0.056957163 0.07948453 0.06253337 -0.070893005 0.052170716 -0.013643065 -0.090688586 -0.024079012 -0.04419981 0.0063706846 -0.033321094 -0.01711719 -0.06348052 -0.008434764 -0.0010795894 -0.058538333 0.014555315 0.020435952 -0.026768653 0.027372042 0.017057527 -0.017113138 -0.0443978 -0.04869962 0.09606674 -0.0051951637 -0.08852037 -0.014254828 -0.08203246 -0.05424443 0.02368558 0.009801174 -0.07405237 -0.042640254 0.054831494 -0.022348858 0.06888856 -0.0014384286 0.09065032 -0.08163111 -0.008542787 0.0038262298 -0.046904225 0.06584736 -0.041486852 -0.045465846 0.008390246 0.023539016 -0.017872976 0.050867885 -0.028926581 -0.019218046 -0.057000756 -0.032125622 0.0014957224 -0.056101296 -0.07479395 0.075088955 0.034513276 -0.045224514 -0.04461093 0.043583583 0.010785429 0.05323026 0.02515977 -0.0431041 0.023233533 0.058362596 -0.0024376945 -0.05681975 0.048725013 0.057802323 -0.10546764 0.057827953 -0.07758457 0.10340067 -0.040193725 -0.00515499 0.07822473 -0.060544107 0.034523837 0.072168685 -0.08512158 -0.04198096 -0.011049271 -0.045455616
294 -0.03838999 0.084872976 -0.07031469 0.06671237 -0.02628009 -0.0798478 0.002956693 -0.06951804 0.02968181 -0.010276256 -0.102914914 0.09899665 0.065968804 0.06424323 -0.042601913 0.027451726 0.028011844 0.029453643 -0.012555738 -0.016375154 -0.09925334 0.056391068 0.02366971 0.06426067 -0.04339969 0.0665728 0.031442713 0.021532398 -0.025888873 0.0027832536 0.038021427 0.05943406 0.01584852 0.023731709 0.051157814 0.0814005 -0.08055998 -0.026693188 0.003874894 0.04869467 0.017278308 0.08854427 0.0071730614 0.062093817 0.0974471 -0.098308645 0.030194849 0.05447052 0.021138925 -0.019427039 0.07658811 -0.07482262 0.050471257 -0.019402707 -0.0053992467 0.040695053 -0.0075123236 -0.0713326 0.033014033 0.0412183 -0.0067170793 0.012594634 -0.07804253 -0.042511117 0.040441565 -0.038117602 0.07314464 0.086400606 0.05012857 -0.07396218 -0.098185256 0.04019108 0.09557251 0.0068486505 0.057996534 0.08914958 0.06277858 0.09645117 0.02212755 0.09394763 0.005584157 0.025495598 -0.012549077 0.03936911 0.054768343 0.053006887 -0.08136755 0.009996953 0.08433201 0.06844107 -0.030762138 -0.07469339 0.046641625 0.03336785 -0.1022214 -0.045585025 0.026066136 0.017999936 -0.061462745 -0.046927467 0.014010323 0.06707012 -0.06767823 -0.029965663 -0.08582811 -0.092121676 -0.035350572 -0.019480001 -0.0724366 -0.052620113 -0.018653113 0.039738715 0.039402913 -0.025485113 0.09407047 0.09939387 -0.02669323 -0.038135663 0.05859427 -0.052055255 0.030950705 -0.00013327456 0.0053012352 0.03311655 0.0037412276 -0.008122821 -0.01597893 0.057153266
295 0.0020588133 -0.011074746 0.032199495 0.016322874 0.0165408 0.050165754 0.006328784 -0.093086146 -0.069827154 0.07080812 0.0073408796 -0.05047233 -0.016575934 0.01752427 0.044272926 0.0396355 -0.06885102 0.004794997 0.09170103 -0.09196499 0.033853523 -0.10216522 -0.09708173 0.038709715 -0.054579105 -0.04084048 -0.042843394 0.07336134 -0.090373956 0.08571636 0.09385615 -0.061317716 -0.01257563 -0.007300312 -0.071526274 0.06348507 0.05803541 0.06718311 -0.06272418 0.05201275 -0.054484677 0.052730817 0.030017916 0.01036213 -0.024514027 0.014608424 0.033750277 0.019792149 -0.08179446 -0.031440895 -0.038102556 0.08706226 0.06819768 -0.00077216676 -0.04978344 0.07240972 -0.04397501 0.055701017 0.0035598914 -0.055890262 0.032392483 -0.024111338 -0.012607386 0.071984544 -0.03972962 0.07895871 -0.019609507 0.0011468697 0.015569861 -0.08370352 0.07991857 -0.018266724 0.0026702164 0.073600255 0.020992134 0.088586114 0.022496954 0.090231255 -0.003928127 -0.026661998 0.032830216 0.038331345 -0.017231654 0.100219205 -0.062341757 0.042908307 -0.048598398 -0.0038957705 -0.047018614 -0.025844097 -0.097410135 0.017189292 -0.047579963 0.01856728 -0.054486938 0.0068899044 -0.056708187 0.09990799 0.03878536 0.06018244 0.03669188 -0.012582511 0.02307916 -0.05337844 0.004253271 -0.10233539 -0.054877676 0.057594746 0.021756876 0.020580016 -0.08373 -0.031875223 0.0006898483 -0.07131591 0.011982635 -0.07386909 -0.05567258 -0.01795204 -0.023389703 0.03706289 -0.0060406723 0.032362763 -0.01261747 0.00092559075 0.08036707 -0.03723777 0.061665706 -0.051841076
292 0.021323055 0.010285519 0.076993056 0.028256774 0.095098145 0.084458366 0.002574033 -0.03842514 -0.015853489 0.06101058 -0.07788036 -0.034124628 0.027554348 -0.056223895 -0.038995985 0.07565076 -0.08757729 0.10428155 0.09367327 -0.09911342 0.0052131433 -0.035783768 -0.029887717 -0.019500544 0.033050347 0.07025598 0.08487203 -0.042273283 -0.07761114 0.050872203 0.01876096 -0.08710781 -0.05635415 0.031231591 -0.078025244 0.05690321 0.011967744 -0.0053828256 -0.056438215 0.04871513 -0.022869904 -0.038961746 0.044135705 0.003925274 -0.08895504 -0.076582044 0.0076803435 -0.007221345 0.052832358 0.105642945 0.07253128 -0.016786434 0.009941325 0.039494406 -0.016636314 0.034989692 0.10188903 -0.03185789 -0.07900009 0.06400539 -0.016651027 0.077724785 -0.056125935 0.008603512 -0.09984196 0.06274492 0.008032981 -0.09703556 -0.08159904 0.09134924 -0.09743128 -0.06405714 -0.0754795 0.050522007 -0.024608605 -0.0040254467 0.06367424 0.103528485 0.08228416 0.042655837 -0.017868768 -0.027204614 -0.06579654 -0.0293006 -0.024547419 0.015825517 -0.006196457 -0.0040229517 0.037993487 -0.044469506 0.078951165 -0.07019727 0.040786613 -0.03312239 -0.0023612778 0.011197445 0.036591873 -0.05986957 0.054513518 0.042653307 0.050283965 -0.07246305 0.05852267 0.060036726 0.0754739 -0.03261267 -0.028638814 -0.029859576 -0.04455582 0.04240201 -0.020774096 0.017567238 -0.0034875874 0.019925915 -0.00048185862 0.04828268 -0.09635331 0.042800356 0.047339223 0.04259577 0.042255994 -0.060733136 -0.07847827 -0.045565948 0.00118958 0.057201438 0.031228699 -0.058404885
293 0.07964307 -0.0076281233 -0.04621865 0.098691374 -0.00047926581 -0.0010715148 -0.05390918 0.016917309 0.08385002 0.035532113 -0.05366677 0.02311581 0.063316084 -0.032524835 0.026781509 0.039000373 0.10185182 0.081270166 0.0033797282 0.023769911 0.057834923 0.05447083 0.057138078 -0.07370955 -0.020734835 -0.010775936 -0.04305228 -0.039417915 0.059781875 0.044479616 0.012797256 0.0803586 -0.053267952 -0.016420795 -0.019619728 -0.06864586 -0.021942511 -0.03853499 -0.025562182 -0.015835172 0.037274137 0.0180003 0.06373242 0.057177823 0.05066697 0.06634737 -0.0908781 0.10458879 0.028150214 -0.006561023 -0.07482226 0.053357285 -0.058238156 0.0031478754 0.051378623 0.044670306 0.10135 -0.1041152 0.054008882 0.033143107 0.05809259 -0.026316145 -0.055235725 -0.030002166 -0.05812004 0.031807348 -0.00088516134 0.052535035 0.050670817 0.05531244 0.027543128 0.02762247 -0.071596034 0.041179456 -0.060529046 -0.0062540257 0.048161086 0.04328902 0.052746516 -0.018631151 -0.011257226 0.008321833 -0.012242287 -0.048257265 -0.09144499 0.05401055 -0.078673966 -0.02073735 0.0136219645 -0.08352119 -0.029155126 0.050564215 0.0577484 0.024246754 0.045386724 0.084098354 0.07500041 0.00015015784 0.037126005 -0.056479286 0.0382258 -0.04475654 0.037451643 0.04160732 0.033661503 -0.052334007 -0.059934545 -0.051191952 0.043695867 -0.021806497 -0.041650053 0.013984502 -0.050938763 -0.078054525 -0.014087174 0.027198765 0.094594054 -0.038540438 -0.036436886 -0.09499873 -0.0036822865 -0.014316391 -0.05159569 0.09237439 0.020329393 -0.07576294 -0.10279412 0.015430397
290 0.06422744 0.033892922 -0.006192615 -0.059796195 -0.03362811 -0.06418503 -0.008340933 -0.00041270113 0.055734176 0.04445542 0.0018983309 0.047869463 0.055533256 -0.020254603 0.011600515 0.039785776 -0.020223793 -0.0025467887 0.0015189211 0.040944308 -0.03436522 -0.019667285 0.00850878 -0.057541177 0.02627422 0.06476643 -0.04853743 0.0070375786 -0.0115014175 -0.03985248 0.00097080634 -0.048803538 0.01579405 5.327073e-07 -0.009358405 -0.001992629 -0.0067640166 -0.03665114 -0.011425728 -0.0027251674 0.03975967 0.055265415 0.031215342 -0.0025471107 -0.059274435 -0.031178256 0.018902292 -0.0463268 0.054199606 0.0605857 -0.02926381 -0.050399464 8.711539e-05 -0.05983247 0.023196992 0.0013020937 -0.036322173 -0.0021726044 -0.060913183 0.0331525 0.012688032 0.007518881 0.023723459 -0.05856151 0.0006344087 -0.0048764097 -0.060069185 -0.061960336 -0.0026794907 -0.0001852379 -0.020921404 0.057610903 0.001556658 -0.0063132695 -0.03394534 -0.046952605 0.0012382618 -0.00028075383 0.000801228 -0.016116163 -0.01448579 -3.0574356e-05 0.018980071 0.044690944 -0.00026358437 0.055508133 0.00076026196 0.00047978183 0.021005211 0.0014215775 -0.010351956 0.00019588138 -0.05054447 -0.00022711711 0.01864057 -0.062269613 -0.025121218 0.022679439 0.0026058767 -0.0014087729 -0.0024434638 -0.05554311 0.015893167 -0.009009326 -0.04264346 -0.016130757 -0.0009141238 -0.057067882 0.0007323643 0.06402218 0.0363716 -0.04201364 -0.03380898 0.017371964 -0.01883435 -0.0010251572 0.0009380856 -0.052841205 0.034682304 0.0044865278 0.0015467475 0.021901963 -0.00032703896 -0.02458024 -0.0016027368 -0.029622208 -0.0012635406 0.05552477
291 0.04062809 0.002150052 0.0055631576 0.04754133 -0.00059722015 0.04346429 0.00092040625 -0.06257582 -0.0025704917 -0.046254087 -0.0029791305 -0.05928998 -0.054563593 -0.01333036 0.013971298 0.030881198 -0.048558515 0.008958812 0.062308002 -0.04061984 -0.032065988 -0.014178436 0.017591951 -0.03648664 -0.0009872523 0.0020724542 0.053517636 -0.001065436 0.018671738 0.062080998 -0.049659662 -0.041722644 -0.046142794 -0.013267318 -0.00017433544 0.02899225 0.06395778 0.049354322 -0.0025506439 0.0006381578 -0.00021749703 -0.064304784 0.02691345 -0.015593784 -0.019533664 -0.021681836 -0.0025346063 -0.0026419898 0.0084556425 0.03606611 8.8817615e-07 -0.059988417 -0.0010922103 -0.02998914 0.026677752 -0.0013955117 0.05180514 0.044519737 0.01725948 0.06303991 0.019415764 -0.035726577 0.035884812 -0.029402405 0.03876607 0.06460483 2.066683e-05 0.0009056711 -0.0026819971 -0.035649814 -0.027905064 -0.0035231733 -0.005020325 0.002493359 -0.05083615 0.0045295567 0.027096974 0.047144447 0.042942 -0.0023095624 0.0058869664 -0.058424562 0.017967874 0.04907879 -0.01775168 -0.056211095 -0.028395208 -0.0404433 0.0026880053 -0.027790394 0.001298061 -0.04618113 0.0524194 -0.01110502 0.00090172875 -0.007967063 -0.02172535 0.031997405 -0.003378895 0.044725917 0.033811774 0.049613684 0.023836236 0.00017699564 -0.0024053722 0.007976336 0.0018888441 0.047646783 0.043523032 -0.0063551744 0.06019105 0.05356574 0.0013551166 -0.019971231 -0.0017075234 0.0019319989 0.060972158 0.057896264 -0.062080275 -0.0030730828 0.057870265 0.01418534 -0.0030591993 -0.0003108186 0.06102971 0.020397658 0.026961815 0.0027049182
591 -0.062306557 0.064722806 0.05027317 0.044882175 -0.05155347 -0.06347537 -0.096846744 -0.037173927 -0.01559647 -0.040710807 0.05082233 0.04354076 0.051630888 -0.0007487872 -0.053618107 0.00763025 -0.072964154 0.032924693 0.004813548 -0.0946499 0.07079407 -0.05616718 0.012585227 -0.004194874 0.015194068 -0.012117775 -0.047240693 0.0799799 0.089275464 0.051805142 0.02796077 -0.035689652 -0.056904774 0.09683071 0.026901182 0.0703238 -0.049878914 0.04703988 -0.008465864 0.0016656797 0.058882043 -0.014383447 0.070489846 -0.052603472 -0.052238178 0.06838906 -0.017853072 -0.10160299 -0.028871264 0.034594014 -0.02356117 0.0011030326 -0.003301682 -0.052163098 -0.012317117 0.07903479 0.062400267 0.09920804 -0.048717935 0.042939365 -0.011995542 -0.016716605 0.024098087 0.10363337 -0.021405794 -0.037712917 -0.035156745 0.043921 0.036835708 0.0049091275 -0.009626227 0.056746867 -0.0002021523 0.09353336 -0.0612297 0.04206379 -0.0048816265 0.03930262 -0.03941222 -0.042356737 -0.05591516 0.017136425 0.07001407 0.025552455 -0.06458286 -0.07930373 -0.061539724 -0.008907226 -0.048051216 0.060550142 -0.01386301 -0.040964857 -0.045456752 0.089222655 0.057954505 -0.008754555 -0.08089715 0.016870698 0.014666232 -0.0625352 0.0036228602 -0.0184848 0.027023908 0.06143993 -0.053119544 0.039987624 0.057450764 0.038072724 0.0078011253 -0.011782141 -0.08869793 -0.019808339 0.06267956 -0.049657602 -0.09988801 -0.038998798 0.032221474 -0.065171346 -0.006053215 0.033137836 0.03489536 0.04042452 0.051030036 -0.038490187 -0.01304836 0.044138156 -0.025835129 0.07809048
590 0.0007427122 -0.061292756 -0.017625758 -0.0019744835 -0.05325681 -0.0010234967 0.0024814392 -0.05203622 -0.05649214 0.03780357 0.03777913 -0.0030622124 -0.00049050554 -0.033926874 0.056049667 0.00066291605 0.008070613 0.0056656967 0.011072754 0.0005297191 0.00033156367 0.034121346 0.012873498 0.0002976216 -0.007918602 6.294111e-05 -0.032888465 -0.0035767462 -0.054565053 0.010359004 -0.00079442223 0.0008451018 -0.0020417606 -0.023131134 0.012868958 -0.056058433 -0.001638497 -0.0020908196 0.011968266 0.053907912 -0.015288303 -0.05550166 0.055094834 0.029265592 0.0021337133 0.05321675 0.03252651 0.0029623923 -0.014141267 -0.00097313256 -0.06432517 -0.037056293 0.05835541 0.00022454016 -0.024746498 -0.04900962 0.0012096112 -0.054611105 0.055172097 9.418852e-05 -0.018919595 0.025553763 -0.0021718042 0.00016709956 -0.0014910568 0.03743282 0.0023481739 -0.062744446 0.030914672 0.042030998 -0.06252119 0.054295775 -0.053785834 -0.011221713 -0.04104093 0.057720456 -0.026835905 4.2050342e-05 0.005736032 -0.034205504 -0.041110475 0.05410699 -0.03854895 -0.0044098366 0.041702267 -0.06314448 -0.0009067269 -0.017832808 -0.01975279 -0.022553155 0.0011220167 -0.0319646 0.016980818 0.039804704 -0.0024073706 0.010713971 -0.012009743 -0.00016791286 0.002482524 -0.016858796 -0.013516672 0.06500457 -0.00073781004 0.05301974 -0.02961968 0.0026994443 0.012550335 -0.051852174 -0.0006360852 0.022289604 -0.022488054 -0.028229043 0.0007326748 -0.0026857767 0.05437971 -0.04662833 -0.006467132 -0.00891968 -0.022957854 -0.040720943 0.022475366 0.002625641 -0.058940914 -0.0029882162 -0.0005626341 0.04369068 -0.029476695 -0.045353904
593 0.039702546 0.044705894 -0.046919264 -0.06961912 0.034917884 -0.05952635 0.016485585 -0.044347722 -0.012693242 -0.04042589 0.08236288 0.07410385 0.07487858 -0.06474836 -0.043583527 0.002321553 -0.07930381 -0.04955074 0.013342667 0.05555265 0.010380886 0.02663403 -0.09501009 0.09773235 -0.030945126 -0.062454976 0.05291019 -0.0054598493 0.06326761 0.08159345 0.05547982 0.00014101819 -0.08172254 0.09372608 -0.0290271 0.019583138 0.07996698 -0.028762447 0.043854482 0.0747588 -0.03689375 -0.059362195 0.013995715 0.06479864 -0.08490283 0.034790345 0.027901191 0.058048926 0.04991276 -0.017375436 0.029930877 0.025704166 0.068880096 0.05790487 -0.041025814 -0.061694726 0.04199442 -0.0746071 0.04141122 0.041495938 -0.015903588 0.045218192 -0.003863297 -0.10292216 0.021801045 0.032150377 -0.03231171 0.02081388 -0.03689576 0.08831986 0.030087562 -0.025031222 -0.051569074 -0.04684417 -0.024937462 0.06314238 0.03967073 -0.105254374 0.041792482 0.07686643 0.03498218 0.063255005 -0.009682937 -0.071281604 -0.061965566 -0.027755795 0.054363023 -0.0763447 0.07395485 -0.051305518 0.052709743 0.036751147 0.0047123856 0.0623882 0.040592287 -0.004014855 0.0058426885 -0.034655463 0.012878341 -0.054874416 0.09491897 -0.08486974 -0.056181416 -0.051965952 -0.06441674 0.034874413 0.014261426 -0.07385125 -0.08376122 -0.064765655 -0.059002712 0.0721695 -0.0497721 -0.057459872 -0.09370314 -0.041979432 0.04638758 -0.03391621 0.018383872 -0.08842864 0.0033994964 -0.045523603 -0.061966047 0.0368723 -0.03980397 -0.06905743 -0.09101272 0.08100998
592 -0.06012677 -0.054819826 0.100428544 -0.044861693 -0.053967554 -0.03884164 -0.038845915 -0.02267816 0.00273332 0.006659401 -0.10257908 0.057491664 0.072818026 -0.013390601 -0.0942325 -0.01557109 -0.07949954 0.06712619 -0.0664328 0.045385685 0.04523005 -0.07513569 0.06258716 0.028185412 0.010746068 0.03750659 0.06281781 0.0723567 -0.04014076 0.035034396 0.037546642 -0.070237115 -7.844879e-05 0.08043188 0.01126793 -0.02617341 -0.065367244 0.024358945 -0.07387347 -0.10133406 -0.031445637 0.043343447 0.014253659 0.04263219 0.094695486 -0.05775168 0.040710207 -0.05336821 -0.061916713 0.09552775 0.08904684 0.013486768 0.053529117 0.07533799 0.045744553 0.054989602 -0.055284556 0.019103859 -0.06744036 0.10105257 0.009666923 0.016256984 -0.10127205 0.09790121 0.011832323 0.050465528 0.10475394 -0.037438523 -0.005898643 0.0054565407 -0.06626975 -0.0129850665 0.04444378 -0.019230936 0.06592974 0.054726332 -0.03376404 0.10168763 -0.00041076168 -0.033452738 -0.033728667 -0.09238277 -0.09933414 0.088293225 -0.049682513 -0.029665628 -0.061884623 0.016531006 -0.023399798 0.059939258 0.015478311 -0.05530934 -0.08483333 0.08142675 -0.06921131 0.017943546 -0.075699866 0.064524405 -0.09925876 0.030954547 -0.06831503 0.06255534 0.06676936 0.08396791 -0.048142966 0.040156107 -0.055858187 0.06356907 -0.064494915 -0.009011888 0.06493114 0.030936612 -0.06481512 -0.01964974 -0.09239102 0.10476834 -0.0015944749 0.072538815 -0.0841774 -0.013299457 -0.009775713 0.006982546 -0.05838665 -0.05618166 -0.07079528 -0.05703799 0.08892314 0.055095457
595 0.010453325 -0.027748317 -0.008134215 0.018379815 -0.045874026 -0.01608492 -0.038854606 0.0013268541 0.02230305 0.024854373 0.0020091634 0.0030589325 0.023921376 -0.05127065 0.041901253 -0.018682856 -0.03417119 -0.0006560062 0.0026993237 0.00535509 -0.0011251527 -0.036385164 -0.0016992679 0.062795274 0.00017515966 0.058842506 0.0005728295 0.038726434 -0.002695108 -0.05725947 0.042229615 0.01587739 -0.023658324 -0.00012381133 -0.000572282 -0.0042681633 -0.00031642214 -0.03473717 -0.0026454078 0.057558857 0.0005700193 0.0015024868 0.013386212 -0.0010669262 0.0090310145 0.041231472 -0.047717646 0.05072971 -0.0040467405 -0.0005860226 0.017676232 0.052070513 -0.061352972 0.0015933263 -0.009668221 -0.046305984 0.00051755906 -0.06305382 0.04419826 0.02580473 0.015131271 0.05646981 0.0022658675 0.04345799 0.00022739143 0.0009240691 -0.0017974644 -0.03455208 0.024751013 0.0020425427 -0.027744565 0.020539153 0.05793774 0.044239003 -0.041321367 -0.0027274485 -0.041207764 0.039623704 0.04047586 -0.0013715518 0.044776395 -0.0039968523 0.00032462104 -0.017577501 -0.040875852 -0.031960286 -0.0011745682 0.01563345 -0.038367506 0.0034275264 -0.0024296264 0.061527144 0.0026453168 -0.044106007 -0.0026959605 0.017766729 -0.022193165 -0.011289677 0.034448743 0.01495244 -0.0009002038 0.01297829 0.003745639 -0.010038884 0.05479311 0.034978844 -0.0126343435 0.028643254 0.03599258 0.0017710379 3.9117615e-05 0.002160987 0.055923313 0.049579687 0.0003082059 0.017107546 -0.032773655 -0.050523195 -0.024004802 -0.0003626966 -0.030577606 -0.015733315 0.00014787521 -0.0007181758 -0.041493963 -0.05414615 -0.002742936 -0.03391335
594 -0.0399419 0.037763927 0.039966173 0.022520553 -0.05832495 0.035833858 0.03398288 -0.07270926 0.008172107 0.06103162 0.07879807 -0.091594055 -0.04492968 0.0937865 -4.8802118e-05 -0.044145476 0.0016245311 0.06272896 -0.04845485 -0.02933912 -0.077887304 -0.031581055 0.005017193 -0.005694304 0.023393348 0.011258416 -0.032723166 -0.01489599 -0.081029065 -0.051589657 -0.055939153 -0.02702961 -0.105022214 0.022227403 0.070811816 0.08358713 -0.0032570171 0.08475754 0.078174114 0.021679852 -0.05605227 -0.05633316 0.0184232 -0.051490825 -0.0476622 0.0010195107 0.017741764 -0.027025685 -0.005558367 0.0050702794 0.005554511 -0.01676189 -0.09939231 0.038751233 0.043117817 -0.07673714 -0.016248953 -0.052591667 -0.077418044 0.10158902 0.09763293 0.015337301 -0.057967965 0.014851039 -0.059459317 0.042732038 -0.025683763 0.04532242 -0.05472277 -0.03301963 -0.06414388 -0.05481864 -0.08332644 -0.036518868 0.07196445 -0.05768497 -0.043630134 0.046702635 -0.09493946 -0.04041919 -0.025623653 -0.0479772 0.04999912 0.06533135 0.005938565 0.05117175 -0.059346244 0.0014162112 0.0676183 -0.014971366 0.07699413 -0.023477057 -0.005061535 0.05262866 -0.020754352 0.100450166 0.049282357 0.0893032 -0.07685604 0.027157929 0.040132664 -0.0996757 0.04264355 0.034842607 -0.017683968 -0.01207171 0.021586668 -0.029157812 0.084271714 -0.102332905 0.009739945 0.06508812 -0.06264581 0.037078682 -0.028080298 -0.0901828 0.080187954 0.023113044 -0.103717856 0.00915926 0.0035407015 0.07337423 -0.06751661 0.042763963 -0.041994307 0.012933127 0.094893605 -0.022004018
597 0.04040962 -0.017511606 0.043776345 -0.07465792 0.020044358 -0.011447371 0.04240913 -0.058652103 0.019963164 0.02179568 0.009456379 0.1026163 0.0073246197 0.075155765 0.020786244 0.046735067 0.0383668 0.07786367 -0.06035427 -0.103872694 -0.08817227 -0.026194043 -0.053374056 0.04354002 0.05382841 0.011245869 -0.05127356 0.06259943 0.009508244 -0.04752145 0.0004667379 -0.09649948 0.04280425 -0.07308939 -0.060084615 -0.039132312 0.012638377 0.05229025 -0.037028268 -0.087543175 0.10320505 0.00022318598 -0.058999702 -0.10101986 0.040874697 0.07759671 0.051024605 -0.03836814 -0.005912013 0.0699033 -0.085330084 0.004511769 0.020627802 0.033262488 -0.10148857 0.07139445 0.042567085 0.023360042 -0.036899935 -0.0024109313 -0.033088844 -0.081581794 0.03698438 0.06894781 -0.08122747 0.0817312 -0.009759734 0.047134604 -0.060309883 0.048848152 0.10531384 -0.050405547 -0.06511865 -0.015362017 0.03470147 -0.09065199 -0.024552863 -0.0904175 -0.033995822 -0.030463412 0.007952091 -0.046949506 -0.00144839 0.0011717065 -0.04632918 0.07649419 -0.07707742 0.056583833 -0.026542062 -0.07483143 0.033815313 0.03749428 0.021372396 0.026221933 0.033412036 0.043392595 -0.09290974 0.09505135 -0.03466883 0.08587234 -0.005179189 0.047473606 -0.05619198 -0.010681464 0.005748703 -0.08348757 0.046630006 -0.06976455 0.028568937 -0.075199634 -0.05256697 0.04268016 -0.021539483 -0.07315354 0.058091495 -0.0045901854 0.04432941 0.08921084 0.06553481 0.077738784 0.009024022 0.02838435 0.026522825 -0.009006269 0.052590575 -0.030222658 0.07753931 0.04429032
596 -0.05457114 0.06429887 0.039416853 -0.01769168 0.000117458636 0.08688178 0.057580672 -0.093997955 0.03418651 -0.044614542 -0.008491972 -0.045894857 -0.080629915 0.025852725 -0.08370761 0.067215115 -0.002038651 0.075934894 0.08165205 -0.0015652734 -0.036791667 0.021430247 -0.02989608 0.005673088 0.04523092 0.05102938 -0.047899824 0.016306276 -0.06871722 -0.010781045 0.09559773 0.0602515 -0.04389423 -0.10083026 -0.10118263 -0.014407933 0.045223996 0.09319191 -0.03812746 0.05252874 -0.057225127 -0.026813593 0.016267138 -0.09815795 -0.036375046 0.015255693 -0.06646096 0.04910731 -0.019337215 -0.02217593 0.0632338 -0.038077183 0.042977534 0.034306586 0.028211063 0.10464923 0.009822828 -0.022828119 -0.02085077 0.019765306 -0.04930621 -0.037080377 0.0037582952 0.0007209433 0.026492573 0.052928373 0.0045491764 0.024817416 -0.014933782 0.040317815 -0.024630042 -0.07235332 0.058353152 0.008464209 -0.091829546 0.0828521 -0.06689239 -0.042586997 -0.0033491384 0.10448236 -0.047255285 -0.01843512 -0.042773757 -0.004830021 0.048527446 -0.03027381 -0.057708006 0.043477904 0.03360009 -0.015186848 -0.011386906 0.08317313 0.03639251 -0.019904219 -0.021253351 0.068009555 -0.006788825 -0.036197335 0.029249331 -0.04884234 0.023663934 0.0037702182 -0.076755755 -0.032178324 0.08917404 -0.007649462 0.047816418 0.05827808 -0.05510248 0.09927626 -0.038975623 -0.04266644 -0.0023218635 -0.040124718 -0.020960111 0.034175098 -0.050230365 -0.07288477 -0.054517567 -0.036590423 -0.025060514 -0.037881717 -0.0012385647 0.0414411 0.052133445 -0.070980236 -0.02128428 -0.00036459032
195 0.042821698 0.041108828 -0.06362455 0.027108913 0.05023446 0.0682969 -0.033392597 0.018131234 -0.011879979 0.05387415 -0.061683234 -0.042998265 -0.05511972 0.013889305 0.06203261 0.09687037 -0.074502215 0.095931605 0.10209186 0.019754538 -0.042367585 -0.09594967 -0.008273345 -0.039741494 -0.020573592 -0.022823006 -0.051342513 -0.042010497 -0.09596064 0.032195877 0.08140173 0.05278847 0.02064616 -0.011005973 -0.05601287 0.02651955 0.07097586 0.022799326 0.05993081 0.025771499 -0.04555783 0.01950319 0.034791704 0.03918245 0.06070713 0.029701367 -0.06952704 -0.01079868 0.021002961 0.016014418 -0.07646121 -0.007720309 -0.1032632 -0.05120696 -0.020916661 0.0737595 -0.062541835 -0.038281552 -0.06934343 0.0937001 -0.009610247 -0.0833217 0.04981319 0.044355724 -0.08224171 0.026055934 0.04477862 0.077658266 -0.09236105 0.009350181 0.09086626 -0.018697197 0.057137646 0.08842246 0.03292261 -0.006041448 0.007806069 -0.10007653 -0.024937518 0.05128754 -0.02983862 0.0269544 0.018897587 -0.032941237 -0.008060389 -0.079927266 -0.08514663 0.04045645 0.07072786 0.03544701 0.10035585 -0.083158694 0.011972728 -0.10451642 0.014611874 -0.010195556 -0.022485197 -0.02773169 -0.02880832 0.05680157 -0.019595819 -0.10207893 -0.010447387 0.022086939 0.07732706 -0.027764505 -0.044494946 0.009232281 -0.09464301 -0.052188717 0.097613655 -0.076850235 -0.071117714 -0.06400961 -0.034651484 -0.039969046 -0.08014969 -0.091168396 -0.061691802 -0.05040196 -0.056462724 -0.020677874 0.048027556 0.09419272 -0.054962438 -0.06193378 -0.059869427 0.03802242
194 -0.02615243 0.03368365 -0.056135155 -0.05294308 0.060569257 -0.09105408 -0.051142275 0.042630497 -0.019729616 0.08526402 0.047877684 -0.04777252 0.06686885 0.018902067 -0.099752784 0.012059314 -0.10244572 -0.04226057 -0.021448003 -0.08581483 -0.0909836 -0.026452145 -0.06433847 0.038251985 -0.081185475 0.03260955 -0.040363204 0.006129082 0.008190802 0.047102544 -0.056710817 -0.01934329 0.0315483 -0.050298568 -0.08408975 0.05734222 -0.039810505 0.083080806 -0.06672817 0.0047552534 0.03232918 0.024464346 0.09976635 0.089170754 0.10490331 0.012270198 -0.07087294 -0.0042267186 0.053831737 -0.02579583 0.083294325 -0.059095815 -0.020315431 -0.047276717 -0.076440975 0.08187294 -0.0053559192 0.05328127 -0.009030154 -0.057892222 -0.05159229 -0.029186737 0.021377705 0.06927741 -0.094699964 -0.021083498 0.056681197 -0.013153188 -0.023745293 -0.082716 -0.07404078 -0.020858627 -0.058870893 -0.054492716 0.08230418 0.062409554 0.09495426 -0.0070166793 -0.04298649 -0.0048833527 0.031198217 -0.051364228 -0.02295158 0.04895983 0.02644115 0.025972245 0.085040644 0.026364876 -0.059339765 0.058896244 0.0045819096 -0.04772251 0.05536334 0.048157644 -0.08567772 -0.006163587 -0.09413208 0.021143638 0.05205066 0.0042083976 0.010779178 -0.008068049 -0.075704604 -0.095282085 0.0044862637 -0.03730434 0.04003157 -0.09066088 -0.043989714 0.064606816 0.05192115 -0.035677176 0.0781632 -0.028930213 0.042525664 0.02923653 -0.09291254 -0.047628373 -0.065537244 -0.00557271 0.08547505 0.004379331 -0.029950153 0.085795835 -0.01060419 -0.019322358 0.094621606 0.0011036864
197 0.0038764065 -0.061676405 -0.099435106 0.04329241 0.043482475 0.07485769 -0.10345923 0.043264695 0.006608824 0.099977694 -0.033214502 -0.047708757 0.032007717 0.022090938 0.094899334 -0.079126716 0.049557187 -0.10464778 -0.017584294 0.046687067 -0.05620662 -0.03204469 0.08071336 -0.08449874 -0.09211436 0.07780367 0.029663507 0.005663767 -0.07709935 -0.047009833 0.081996724 -0.1004704 0.046728916 0.09744097 -0.090632856 0.083776675 -0.030056607 0.08678869 -0.09879065 -0.028461797 0.05972227 -0.0038144547 -0.09123966 -0.012578392 0.04829445 -0.0022641863 -0.010461053 -0.057123214 0.089646906 0.067636006 0.04983948 -0.06393769 -0.039968684 -0.007407774 -0.018370103 0.04069354 0.028538305 0.013317924 0.01585096 -0.005755255 -0.06132132 0.053840093 -0.021121917 -0.009059619 -0.025991574 0.097323775 0.10264279 -0.041015033 0.07690912 0.06771195 0.058363646 -0.05154503 0.02867109 0.036891133 0.0454089 0.006734963 0.057313424 0.019232227 0.044796433 -0.04650031 -0.0980253 -0.0025903182 0.0573527 -0.050321266 -0.08673655 -0.09952796 -0.05364353 -0.07909692 0.10067535 -0.042198356 0.079036474 0.04315432 0.04600215 -0.0020042784 0.032453388 0.038537357 0.05579988 0.09102756 -0.02020987 0.02313359 -0.04284597 -0.052495725 0.070734 -0.0026605348 -0.021791782 -0.087933965 -0.1000119 -0.06682956 -0.022137402 -0.0019257251 -0.07379385 0.014971481 -0.035225496 -0.04269544 0.04727422 -0.009592364 -0.021682302 -0.04376849 -0.039728776 0.068511136 -0.017006338 0.055505283 0.043806497 0.06109957 0.049630262 0.097241856 -0.04425024 -0.07867557
196 0.0019908363 0.06452374 0.041549787 0.04591972 0.009470113 -0.057154115 -0.0024890222 0.00045635214 -0.008803347 -0.025905807 -0.02519335 0.04132743 -0.03420138 -0.031137567 0.03467214 -0.002324377 -0.010488599 -0.008968569 0.00016935267 -0.02177644 -0.018842544 0.05857632 0.029231302 0.048990794 0.03287573 -0.008519819 0.028766243 -0.04302171 -0.0067457543 0.056348585 0.011716621 0.014690123 -0.0017615567 0.006155499 0.049180638 -0.0027894718 -0.009556285 -0.033669803 0.031983286 -0.026597036 0.027517537 -0.0021536185 -0.002707613 -0.020175332 0.015185017 -0.05170387 0.031104911 0.0027170388 -0.00033569481 -0.050643176 0.046238847 -0.0060049174 0.015268782 -5.185578e-05 0.05859045 0.00081239 0.037832722 0.010598018 -0.025263319 0.03279503 -0.06343911 -0.052519463 0.029328568 0.059997655 -0.046682943 0.03518871 0.06327095 -0.010540239 -0.00042531098 0.020000499 -0.02279504 0.013249062 -0.06321499 0.00912385 0.038882744 0.027720297 -0.0428906 -0.018729202 -0.0026023297 -0.0008121972 0.05446575 -0.029534163 0.05920484 -0.0412577 -0.0027285998 -0.00466077 -0.04315883 -0.0009289115 3.6880127e-05 -0.052202784 0.0019923367 0.02582949 -0.0048691384 0.032140914 -0.0020122163 0.031744532 -0.018020405 0.024488837 -0.002271264 -0.023470936 0.012842372 0.005131883 -0.0005059451 -0.038865708 0.0072765173 -4.160806e-05 0.0011000005 -0.018826826 -0.02532734 -0.033323452 -0.030425074 -0.06394426 -0.0027196342 0.007551555 0.009478383 0.00093928626 0.0022400566 0.007883782 0.034619093 0.0016976502 0.008967316 0.0226909 0.023001716 0.0045132507 0.0014313874 -0.019738898 -0.031862896 0.0010910516
191 0.03618507 0.039416883 0.011957418 -0.049823448 0.049125224 -0.077713884 0.039910685 -0.038292553 0.0381065 0.0696966 -0.053326383 -0.04545252 -0.09869633 -0.09620557 -0.012681417 -0.0039843125 0.014430234 0.037703276 -0.051591504 0.016977977 -0.03856021 0.06882472 -0.07313005 -0.10106906 0.08925561 -0.06104153 0.0014883217 -0.098583356 0.0025980384 0.018025918 0.01833315 0.021253401 -0.033826448 -0.046576075 0.007934 -0.016395768 0.055494834 -0.039063066 -0.054794062 0.006098369 -0.069294006 0.05583552 0.04319932 -0.021950778 0.04949998 -0.055017024 0.055278562 0.07102589 -0.050157234 0.02396056 -0.07625381 0.0064895973 0.06244519 0.02147544 -0.00028065185 -0.0582242 -0.07926671 -0.023299221 -0.023954477 -0.020012831 0.05975825 -0.029865826 0.024308898 0.04574379 0.01683829 0.020370089 -0.005015447 -0.055675738 0.08235378 0.023958009 0.09300164 -0.094795555 0.068519466 0.05295212 0.030216495 0.09321825 0.08886747 0.02784151 0.10345092 -0.0632548 0.06140074 -0.047741037 0.015424246 0.09160753 -0.09595981 0.046031713 0.030207634 -0.023823733 0.02870758 -0.032808978 -0.019544682 -0.040044677 0.019524632 0.007147555 0.0038905898 0.08224235 -0.055847365 -0.025212117 -0.056314204 0.0006146465 -0.04402473 -0.089394405 0.058351286 0.09111687 -0.05589275 -0.04041838 0.02428188 -0.052165102 -0.027784422 0.02240765 -0.0320521 -0.0154209435 -0.049189694 -0.058080185 -0.031686354 0.013851403 -0.06469515 -0.0014201519 -0.040852636 -0.00013028731 -0.01508367 0.026773438 -0.013166876 -0.021354275 -0.04606782 -0.049799874 -0.06234304 -0.05060138
190 -0.029615942 0.044913564 -0.035746135 0.07531637 0.017902693 0.05180016 0.0007590611 0.06346116 -0.002581786 -0.015860267 -0.0501795 -0.04413701 0.017073072 0.07863901 0.02590491 0.053856727 0.021748425 0.084649555 0.036610894 -0.057676163 0.04004718 -0.023888933 0.04304984 0.082909495 -0.06348789 0.053471252 0.0015768748 0.05475348 -0.040646613 0.041699257 -0.013696709 -0.048974298 0.062016767 -0.050261542 0.002487805 -0.0818984 -0.04612815 0.045202814 0.00051694317 -0.03790331 0.0070129284 0.101561785 -0.00018307555 0.048284136 -0.033838183 -0.03376609 0.032811947 -0.03741179 0.021881405 0.04703842 0.027114455 0.045718476 0.08765075 -0.02693014 -0.07176423 -0.05306942 0.10180891 -0.068017215 -0.057186265 0.05327413 0.017114472 0.079437345 0.015623941 0.030335927 0.036105145 0.08045111 -0.0748902 0.09984694 0.06556035 -0.024621947 0.045201156 -0.017405512 0.054425806 -0.05361532 0.0004478147 -0.04995163 -0.011897232 0.085866764 -0.05063883 -0.020858103 0.070326336 0.0038974672 0.0008489833 -0.030861657 -0.10084732 -0.039134398 0.048916157 -0.09152234 0.04609326 0.011203943 -0.05923018 0.011139033 -0.09602409 -0.038273938 0.042496853 0.06841681 -0.098306 0.08663539 -0.06103329 -0.015131369 0.038975306 -0.031920917 0.06518134 0.06444275 0.03090249 0.008483336 0.03264206 0.0187542 -0.024755495 -0.023565555 0.032208763 -0.09849983 -0.087967545 0.047808588 -0.019289967 -0.0631839 0.048744693 -0.004922226 0.049481228 0.08169532 0.09154175 -0.012050976 -0.07040823 -0.03393394 -0.012566421 0.053682584 0.09832126 -0.011732565
193 -0.0008907858 0.047059942 0.029276872 -0.03920372 0.002021084 -0.052495196 -0.03573264 0.0012306923 0.056643736 0.015116442 -0.0012369943 0.063687384 0.053996593 0.05771285 0.040585868 0.049750283 -0.029698536 -0.035054002 0.0017628962 -0.00042878534 0.051655605 0.0469377 0.021749951 -0.033317775 0.0031658404 7.6344004e-05 0.017421944 0.008476113 -0.009589449 -0.009684119 -0.038634952 -0.0010617601 -0.019365212 0.0025297657 0.019317763 0.0062494488 -0.019551609 0.004779343 -0.00023856599 -0.00046982564 -0.00065090944 0.021977168 -0.023844846 0.0010150555 0.0053350725 -0.023255661 0.033399515 -0.012374819 -0.019054767 0.010944316 -0.011083364 5.9067534e-05 0.044912834 -0.05301696 0.017247079 0.04857449 0.004214062 -0.025944468 0.05704626 -0.05768881 -0.019954573 0.05469599 9.788613e-05 0.0021352263 0.052277867 0.04267231 -0.023741722 -0.01890826 0.02408603 -0.03837178 -0.014745389 0.04385513 0.034687623 -0.0057088924 -0.038513925 -0.00016237161 0.010678076 0.015516764 0.002216442 -0.019306388 -0.039717846 -0.043920174 0.023285069 -0.03057665 0.053571343 0.00071738026 0.031940944 0.017809361 -0.037556 0.031446297 -0.00972258 -0.03373733 0.045400757 0.0347756 -0.01659402 -0.047714155 -0.05646083 -0.03181204 -0.05066031 -0.02621796 -0.04069199 0.0004117797 -0.044722933 0.040130567 0.005190605 -0.022044575 -0.02904645 0.06406427 -0.0063659362 0.01887672 -0.00013633916 -0.06287818 -0.03815936 0.05830542 -0.006542922 -0.05771504 0.04302829 -0.011686981 -0.00094279455 -0.00085940503 -0.00069569575 0.000915369 0.027305426 -0.038848143 -0.03649381 -0.047973994 -0.0095104035 0.03817347
192 -0.042361736 0.022597333 0.011028509 -0.040650703 -0.028922465 0.011948757 -0.06063773 -0.015279696 0.07023457 0.04606265 0.06951464 -0.025219113 0.103637934 0.091417775 0.05586465 -0.01746336 0.014344755 -0.022654623 0.054309316 0.002474159 0.058148142 0.02251826 0.0030159997 -0.082394846 -0.050583884 -0.041411996 0.08626371 0.0014846885 0.06344009 0.049078554 0.0720875 0.10196808 -0.082516 -0.05294744 -0.0746818 0.020604935 0.051778667 -0.0047959397 -0.07393686 0.08819143 -0.01883494 0.049300548 -0.053831223 0.047639653 0.011358416 -0.020720366 -0.10088877 0.009748654 0.0059708892 0.026938217 -0.07037493 0.045330137 -0.0808613 -0.093613975 0.008428059 0.021379229 -0.044227116 0.023066577 0.043554682 0.054988604 -0.022764849 0.032449737 -0.076308325 0.056354076 0.011442152 0.06759698 -0.10418168 -0.018110922 0.022092806 -0.09042458 0.0967401 -0.02389527 0.038929302 -0.051796153 -0.01105313 0.061732125 0.062622905 -0.022297524 0.036749095 0.014532652 -0.01788052 0.09161821 0.032879077 0.022644652 0.020493407 -0.07390676 -0.040986504 0.033692863 0.01777355 -0.025363969 -0.00033827848 -0.030750243 -0.08217217 -0.031243104 -0.07418689 0.007341782 0.06074573 -0.033643305 -0.045750085 0.009692619 0.0011341868 0.04846446 -0.063154764 -0.043398686 0.06064841 0.0035994444 -0.035311885 -0.041853532 -0.011301706 -0.035898283 -0.050805878 -0.05651129 0.026274234 -0.071160376 -0.029784366 0.023678986 -0.031704575 -0.009336466 0.082740255 0.041269954 0.067371756 0.055890102 -0.057961054 0.042453 0.055406068 -0.086827554 -0.10019955 0.026673572
270 -0.037279937 -0.039661214 0.091630414 0.0058061797 -0.083375104 -0.048491117 -0.04063704 0.007216162 0.0060626073 0.023547553 -0.038786195 -0.018007847 0.057569016 -0.03128629 0.0078520505 0.008293439 -0.009979984 0.0026272112 0.058567476 0.09357493 0.019312782 0.059858315 -0.07761587 0.046240952 -0.100523286 -0.009739138 0.01025516 -0.040464737 -0.063959 -0.03443293 -0.02157731 0.026404751 0.008296659 0.015643023 0.08520696 -0.02693675 -0.091821626 -0.008079484 0.05703181 -0.0012117774 0.068485096 0.023829041 0.056085426 -0.058390625 -0.087737575 -0.0505112 -0.05526961 -0.09714356 0.020527007 -0.040777944 0.002405605 0.009792325 0.031951424 0.06939352 -0.0075812005 -0.006600057 -0.071471184 0.09515781 -0.039825235 0.07888613 0.0126099875 0.019002624 0.027452566 -0.0902499 0.077465534 -0.10240475 0.05306163 0.041714955 -0.07453694 -0.08320232 -0.089075774 -0.0375955 0.057851844 -0.0050889123 0.01505525 0.005768283 0.011804949 0.0877716 0.03773931 0.013099046 -0.05880351 0.071129404 0.076132074 -0.04058825 0.10281021 0.05068049 0.033844966 0.09703601 -0.00668804 0.009152388 -0.053158324 0.030936388 -0.095975466 -0.071453825 -0.10493143 -0.10036271 -0.050773118 -0.02096346 0.050112415 0.052854925 0.046297204 0.099997036 -0.033701845 0.082040854 -0.0020324402 0.062947825 -0.029299028 0.04004077 0.03690849 -0.07470731 -0.049167357 0.07656543 -0.08867535 0.015181823 0.055474084 -0.02879144 0.035677984 -0.101340026 0.022565091 -0.045740962 -0.0059925336 0.025357539 -0.00019305781 0.023976661 0.06836189 -0.086194344 -0.023365177 0.10109493
271 0.079493135 0.029154867 0.08841624 -0.009940975 0.04461512 -0.011308536 0.043044653 -0.08232666 -0.07297677 -0.029685128 0.05069054 0.06938658 -0.054567683 0.021402728 0.038625866 0.059215188 -0.023181979 -0.0013908169 -0.0038593812 0.060244918 0.050468974 -0.0649412 0.051652595 0.024217786 -0.078518234 0.031150138 0.046391442 0.06066116 -0.029058306 0.092432864 0.022840057 0.021581661 -0.02044104 0.039281018 -0.027011659 0.09693176 -0.061956313 -0.019322166 -0.024506884 0.01620128 0.035883732 0.040601905 0.105162404 -0.08451045 -0.028095862 0.003828031 0.00888048 -0.09041598 -0.028328393 0.0033518402 -2.6441994e-05 0.031471223 0.059058655 -0.03938043 -0.08989187 0.035353016 -0.016780868 -0.003188888 0.032820784 -0.0123930145 0.05955793 0.07652755 -0.040925033 0.07183129 -0.06878313 -0.051461753 0.06002425 -0.04834213 0.006424875 0.03163147 -0.09142639 0.010774052 -0.0607535 -0.0057429797 0.018817319 -0.040155333 0.050552867 -0.022054095 0.09230162 0.040205795 -0.034537204 0.027377043 0.01698909 -0.0339695 -0.062441472 -0.017830905 0.0028815854 -0.0699533 0.095342785 0.013857833 -0.05761641 0.064250454 0.010597094 -0.03402102 -0.074473605 0.087680094 0.040309638 -0.01266769 -0.07579541 0.071737975 -0.059023835 0.00019030983 -0.061715335 -0.061656225 0.09795297 0.049313795 0.000614393 0.02752735 -0.036399808 0.019329315 -0.028514136 -0.09477266 -0.03480424 0.022284169 0.048945524 -0.050592653 -0.097357534 0.051346164 -0.07292456 0.03991774 0.017138926 0.0763526 -0.08096687 0.027659358 0.10435461 0.075302854 0.050446507 -0.043782763
272 0.03237385 -0.033263974 0.011984072 -0.0097141275 0.07261744 -0.027106429 -0.024714988 0.0634023 -0.079144366 0.0052356566 0.07508831 0.06865105 -0.009069922 0.09776447 -0.07025513 0.047389768 -0.052514333 -0.018564487 -0.06862057 -0.029927062 -0.074301794 -0.02355687 0.029671961 0.064521395 -0.06284935 -0.043662947 0.01906563 0.050290365 -0.05427606 -0.058143362 -0.083790615 0.025291355 -0.019489594 -0.064272165 0.039523475 -0.08838458 0.029425323 0.057404496 0.0041459315 0.04694454 0.016785085 0.100236274 -0.06643053 -0.07433907 -0.06480368 0.08604126 -0.04733291 -0.09558988 -0.0066478555 0.04886967 -0.06502611 -0.032609396 -0.04622652 -0.062902726 -0.026557775 -0.08029733 0.0027502275 0.042649616 0.0142250005 -0.08532537 0.027187949 -0.04802178 0.09318968 -0.04598535 0.044938423 0.05406182 0.09791012 -0.012697209 0.0064442707 -0.041071966 -0.013253611 -0.094804846 -0.09551476 0.040068228 0.078363314 0.0074870414 0.04005134 0.037268728 0.054082304 -0.052178256 -0.04765119 -0.05129846 -0.05122007 -0.043149885 0.053358294 0.011163048 -0.067725144 -0.02974993 -0.057483517 -0.05721967 0.035014194 -0.07327094 0.07645048 0.040953822 -0.044726204 0.00983762 -0.015168432 0.09534323 0.08119296 -0.027590768 -0.06052646 -0.03351138 -0.022272918 -0.048117813 0.0038639705 0.033710938 -0.0101854615 -0.029260011 0.024288345 0.026812745 -0.050792143 0.09046162 0.026344988 0.0298511 0.082835115 -0.058533415 -0.10490387 -0.020912578 0.0594952 -0.018965328 0.01936938 0.08178076 0.021985391 -0.08055191 -0.08524812 -0.023292823 0.089642234 -0.00989661
273 0.034112196 -0.081040666 -0.017044455 0.05556079 0.00026677042 0.07788279 -0.02776531 -0.03362539 0.021335885 0.015922429 0.018493209 -0.0044417554 0.04459137 -0.056022767 -0.08143125 0.059305307 -0.06333309 0.028043065 0.018934673 0.036745246 -0.030264283 0.022860972 0.016658321 -0.038054332 -0.05738887 0.057224333 -0.0029584041 0.10415798 -0.09104632 0.0952431 -0.08786314 -0.03900442 0.02030473 -0.1005068 0.02863906 0.033430066 -0.063210085 -0.010602974 0.0507624 0.048403975 0.00877661 -0.012694962 -0.048425153 0.016417492 0.042094354 0.02478129 0.005620532 -0.096408926 -0.01591271 -0.06904884 -0.008737488 0.07984095 0.0055273413 -0.059298065 0.09479146 0.090912335 -0.03480937 0.033079296 0.07120999 0.07723103 -0.05538327 0.06478772 0.07772257 0.015464029 -0.09792521 -0.07932305 -0.042897936 -0.047427133 0.02296806 -0.07259809 0.008149083 -0.07432446 0.04006434 -0.043591443 -0.03187544 0.06289275 -0.058197126 0.0457611 0.081584506 0.027509565 0.08527142 -0.03925534 -0.0042541036 -0.052639607 0.027700668 0.093890354 0.03497193 0.0034413603 -0.0374491 0.052142378 -0.045176752 -0.082219735 0.050136685 -0.10373145 0.038271155 -0.07224807 0.00846927 -0.046194077 0.054082666 -0.017461956 0.010456279 -0.03313317 -0.012431537 0.07343343 0.046659965 -0.05252191 0.049441922 0.05480275 -0.0002406676 -0.091249056 -0.081056744 -0.057449132 0.038207605 0.022208417 -0.018703107 -0.015704526 -0.08528438 -0.018079117 0.0112170335 0.081573814 -0.015274389 0.0070447684 -0.0040577324 0.09923374 0.077638604 -0.09974025 0.05307718 -0.03009164
274 -0.095218465 0.046292953 0.010129651 -0.06744577 0.022811603 0.038402595 0.04876273 0.024629664 -0.053291954 -0.008157447 -0.09124802 -0.014789069 -0.012228414 0.009136911 0.056106694 -0.086763665 -0.032466583 -0.0492655 -0.02021606 -0.008549116 -0.07021062 -0.101690106 -0.01640343 0.006064089 0.016079156 0.08816195 -0.04207244 0.014167707 0.039419856 0.047754608 0.018601824 -0.045537453 0.04254116 0.06887541 0.010890929 0.06326481 -0.08420611 -0.042538464 0.08651182 -0.039658435 -0.10510422 -0.06856945 0.09729474 0.071704894 0.04592491 -0.058013566 -0.04856129 -0.034485865 0.0073028062 0.09398799 -0.0047062836 -0.01492126 0.014289321 0.02817103 0.0288316 0.07761681 -0.021852497 -0.02930193 0.049605854 0.07482306 -0.011167175 0.008365163 -0.035537347 0.055031516 -0.015739134 0.032408364 -0.010166277 -0.06303426 -0.019157192 0.0010240575 -0.0015242498 -0.060759403 -0.07464404 -0.028432615 -0.08186564 -0.022000408 0.0030865148 0.05921593 0.019317364 0.07557921 0.005952647 0.089963645 -0.038787786 -0.01134109 -0.06638371 -0.050352864 -0.047446225 0.028616153 -0.015085223 -0.027443098 0.036078785 0.0049992325 -0.06013616 0.020781225 -0.080842055 -0.0059393467 0.035816595 -0.014096718 0.055078667 0.07493011 -0.06691709 0.012808909 0.027677663 0.071880125 0.065212674 0.06186581 0.022764778 0.08757194 0.009398469 -0.06107925 0.035468146 -0.10399366 0.083933614 -0.057760626 -0.08947396 -0.0036460306 -0.079723544 -0.05770945 -0.06221092 -0.06489745 -0.07398249 0.08309297 -0.08653569 -0.028724853 0.052167356 0.0152062485 0.06011358 0.08461064
275 0.051242832 0.08362316 -0.034992807 -0.008008621 -0.010504502 -0.027301207 -0.06472102 0.10412034 -0.00066046475 0.0131613985 0.09342781 0.008045348 0.079140775 -0.0069680884 -0.040229682 -0.081450164 -0.047692563 0.03418531 0.01739108 0.064542755 0.028067453 0.06318784 0.062494513 -0.091116406 0.06693289 0.011897411 0.029452525 -0.0018641566 -0.038397476 -0.027797887 -0.041223843 -0.09020116 -0.04340113 0.08663622 0.0017196402 -0.08808181 -0.05213347 0.07114482 -0.055504728 0.038297135 -0.052503802 0.033710383 0.06365097 0.04687276 0.07645047 0.049808107 -0.045079492 0.000403056 -0.04598597 -0.008242848 0.05344805 0.032372784 -0.004182498 -0.014306679 -0.09735088 0.086639 -0.025453936 0.02131633 -0.06071434 -0.039441843 -0.0013690558 0.042574685 -0.02590476 -0.017470846 0.04112841 0.08520764 0.02049819 -0.04101064 -0.056297705 -0.08541363 -0.02947957 0.03179875 -0.08157501 -0.07597988 -0.10395741 0.051063634 0.026014978 0.038561963 0.05855907 0.023478566 -0.0077406922 -0.024605352 -0.040206734 0.035530504 -0.017935934 0.025941933 0.0057989666 0.044081215 0.07700585 0.002710831 -0.07259686 0.03842717 0.09014443 0.0007832018 0.029000971 -0.01925783 0.0007934137 -0.079326384 0.06737456 0.008573964 0.026414352 0.008428796 -0.059660546 0.010837093 0.046511192 0.011882444 0.024301305 0.061177064 0.09134235 -0.038546648 0.06897688 0.05430432 -0.052099794 -0.09183129 -0.0039748186 -0.06403862 -0.08367276 0.046550684 -0.09324564 -0.036679927 0.08871451 0.057880417 -0.013582785 0.02544961 -0.053653676 -0.05637763 -0.053910285 -0.07883199
276 0.047380973 -0.035689324 -0.08755101 -0.09370843 0.06287562 0.04616834 0.0525979 -0.07500778 -0.014351838 0.07632547 -0.02379529 0.021675734 0.056012753 0.068148464 -0.04752309 0.05353691 0.07667795 0.07009843 0.04370686 -0.10296683 0.080121204 -0.019250853 -0.018809255 -0.10254133 0.05125413 -0.0021858353 -0.0028168308 -0.03552991 -0.08424425 0.08369395 -0.0412324 0.00629085 -0.08363317 -0.06575731 0.01893133 0.05940428 0.09844999 0.061619163 0.05890189 -0.0059764357 0.024074279 -0.01056353 -0.052879047 0.06389322 0.06630903 0.024499496 0.07091524 -0.09453268 -0.10129305 0.045077953 0.061977316 0.024137532 -0.09892636 -0.010054229 -0.029959032 -0.0113938 0.044455178 0.07114984 0.04385062 0.09918063 -0.029907623 -0.07332157 -0.0060517853 0.07317209 0.08420835 0.103333734 -0.08821551 0.06990353 0.049649492 -0.014099263 -0.067717716 0.03127779 0.010571088 0.011908446 0.08189559 0.05166424 0.08701555 -0.045229755 0.09603379 0.020094717 -0.06058982 0.09779541 0.0659457 -0.0152626345 0.041228417 0.054642018 -0.06019152 0.10056622 -0.008849496 0.0034173892 0.034934115 0.09222208 0.008717226 0.027829181 0.0024781195 -0.038642924 -0.008116869 -0.015326088 0.04621999 0.022550443 0.02791853 -0.01254429 0.07639912 0.05799437 0.07550011 0.06618999 -0.013274106 -0.023371745 0.04478953 0.034242254 -0.03994219 0.0029337422 0.0029780536 -0.010754618 -0.039752368 -0.047155447 -0.03933266 0.057757154 -0.091056764 0.032558702 0.04139232 -0.09493111 0.054141626 0.012520055 -0.08948536 0.026600398 -0.046303343 0.08120102
277 0.009450532 0.06647698 0.0033487019 0.057263125 0.0121075045 0.03433439 0.05983054 0.0015335075 -0.06825196 -0.0025752368 -0.010981416 -0.03775143 -0.096245565 -0.05143629 -0.072642446 0.017969325 -0.034119006 0.042870764 -0.06388279 0.069787756 -0.0327332 -0.039568547 0.064588375 0.052793205 0.044145666 -0.029164033 -0.06360582 0.015310264 -0.08789133 -0.07156431 -0.0016237686 0.036692273 -0.10060034 0.068932556 0.044706322 0.10027646 0.018679589 0.010122025 -0.0296094 -0.0333891 0.056318216 -0.10166418 -0.002677808 0.09261656 -0.040331896 -0.0128418 -0.03143013 -0.046790536 -0.10124652 0.079738885 -0.029298062 0.016818982 -0.068377025 0.010075702 0.044332124 -0.029880812 -0.021235839 -0.062385764 -0.039408106 0.027705526 -0.019395862 -0.05102487 -0.09968012 0.0604488 -0.03395034 0.09932202 0.052782804 0.0885042 -0.034354515 -0.012597336 0.031460583 -0.053275954 -0.07632351 0.056761544 -0.030455692 -0.06452673 0.010900063 0.015318947 -0.039011266 -0.03464521 -0.090220004 0.0034395093 0.056081355 0.0014683125 -0.10400053 0.05111744 0.0756198 0.00013124745 -0.083184734 -0.0063323155 -0.05162514 -0.005395325 0.018608062 -0.032189216 0.06324509 -0.04464526 0.094483145 -0.053171955 -0.056242127 -0.031626817 0.045858093 -0.032931834 -0.05873025 0.033730432 -0.035836462 -0.0802574 -0.04688834 -0.069636315 -0.035536017 0.007188589 0.058973752 -0.00063147466 0.0036187428 0.087302394 -0.08780746 0.040961098 0.047144417 -0.061276283 -0.05382184 0.0901939 -0.09355491 -0.048137233 0.07920966 0.060393535 -0.016913379 0.068880476 0.014632126 0.09204885
278 0.085483044 -0.024222894 -0.046663437 -0.06395255 -0.05177397 -0.007408315 0.04338274 0.029854577 0.047772404 0.026994789 -0.021249644 0.027092455 0.021489024 0.053556565 0.0656032 0.016762378 -0.07165601 -0.028477171 -0.05644795 0.027657371 0.026673123 0.049397442 -0.051158622 -0.017969513 -0.06495211 -0.096605904 0.003450106 -0.054433692 -0.08544958 0.085729 -0.07535524 0.076149225 0.05259844 -0.019467536 0.02749163 -0.018773962 0.010492973 0.035249136 0.06369334 -0.034944262 0.016842116 -0.078694254 0.079131715 0.0271499 0.040229112 0.023461955 0.0545727 -0.07578118 0.060839698 -0.015655762 0.010056553 0.10395796 0.05683892 0.06052601 0.040205147 0.02533815 -0.05232849 -0.010352963 0.07078907 0.025305687 0.09037349 -0.026922831 0.04372318 0.06523229 -0.09039133 -0.009335128 -0.03377566 -0.0029050736 0.038059287 0.006417286 0.045198333 -0.050821237 -0.04715306 -0.04517321 -0.034625825 -0.010896716 -0.071380235 -0.021744296 0.068836525 -0.05100717 0.05166034 -0.03315422 0.037358895 -0.043796856 0.07786177 0.035537455 -0.03821019 -0.054409776 0.080303535 0.083383754 -0.011500104 -0.023895241 -0.09611526 0.00597536 -0.06504795 -0.061372597 0.009263849 0.055394754 0.04639527 -0.010817249 0.040090673 -0.05066574 -0.08322608 0.008535793 -0.008755764 -0.015087017 0.08540416 0.004193337 0.09518245 -0.072327666 -0.10294824 0.039199755 0.011797595 -0.052050557 0.06778856 0.045430347 -0.047374025 0.0924877 0.03337723 -0.03914014 0.040836193 0.0032677897 0.0051791943 0.068990186 0.104865424 -0.092500046 -0.06873188 0.08474039
279 -0.052803617 -0.044962693 0.038748845 -0.09591099 0.06621046 -0.047683895 -0.07484928 -0.042808365 -0.035324503 0.032815333 0.0025854483 0.03339736 -0.04797568 0.0028522224 0.0079123825 0.016319782 -0.042321067 0.044485148 -0.020050514 0.04008335 -0.08782345 0.05120496 -0.07516928 -0.03711986 -0.06579902 -0.009136407 0.05835841 0.06200854 0.052856408 -0.019719556 0.002752936 -0.029920459 0.07147186 0.02987429 -0.05073681 0.043841526 -0.04194044 0.013513665 -0.0015773586 0.04063109 -0.008598261 0.066771515 0.08555803 -0.02704521 0.0066170385 -0.059681 -0.077794455 -0.035246342 0.049420185 0.0023550845 0.057307687 0.060305886 -0.048777934 0.07698808 -0.022050645 0.055557422 0.05938584 -0.07917533 0.037815727 -0.058960088 0.07074124 0.0072179534 -0.010076088 -0.07712603 -0.06965721 0.05397301 0.034715477 0.05924877 0.036417004 0.08986245 -0.0034394276 0.056071542 0.0610059 -0.025443638 0.045296583 -0.07162651 0.02028295 0.07402489 -0.044992726 -0.07197872 0.054882593 -0.009165016 -0.029290142 0.06829221 0.014049678 0.027484182 -0.045892216 -0.041347947 0.05514252 -0.019034682 0.034808096 -0.01936585 -0.0034654583 -0.041502804 0.0588061 0.0005430331 0.06605132 -0.1040141 -0.056025542 0.019146511 0.050137036 0.016304877 -0.053868204 0.023446057 0.05995517 0.027174909 -0.07405023 -0.023640772 0.043505497 -0.056617774 0.024686057 -0.07927406 -0.04940543 -0.0921816 -0.086696975 -0.05933866 0.029620389 -0.024364462 0.018728431 -0.013313108 0.00021007337 -0.02588577 -0.059106197 0.03118901 0.023495443 0.0565246 0.02280387 0.058760278
524 -0.0006487655 -0.04546307 0.057990737 0.005878208 0.097445324 -0.10137005 0.096394636 -0.0051736953 -0.08670865 -0.083894156 -0.052378774 -0.057387017 0.01720373 -0.06783128 -0.09242364 0.0073166927 -0.030177271 -0.0075303083 -0.063454844 -0.05539451 -0.060403865 -0.027666252 0.02897597 -0.03233542 0.016138546 0.0008537434 0.060325257 0.08097779 -0.0647698 0.011710327 -0.018439012 -0.061941557 0.025976466 -0.009340004 -0.073741175 0.06572779 -0.010227716 0.06343971 -0.008501512 -0.04666804 0.0927139 -0.01679205 0.03726284 -0.011558516 -0.044043027 -0.03993298 -0.08810161 -0.041216586 0.039690334 -0.056694537 -0.039618332 0.067108534 0.09197935 0.053003028 -0.09005196 0.040883917 0.052846454 -0.013377083 -0.08436386 -0.0401483 -0.008571735 -0.07040193 -0.046935063 0.058263253 -0.07502104 0.09470898 -0.0012418971 0.09117246 0.04432372 0.074688286 -0.023002278 0.015145922 -0.010416644 0.07663197 0.032372158 0.049897637 -0.01545147 0.0064986628 -0.050954677 -0.074132636 0.005610305 0.045815866 0.008718303 -0.05813187 0.0075610112 -0.0072837155 0.027561365 0.027013509 -0.06242717 0.014432021 -0.06446311 0.030005712 0.01998684 -0.03676091 -0.049563374 -0.027325323 0.041539885 0.088899344 0.053878967 0.04590283 0.0466593 0.052219994 -0.029522432 0.07566854 -0.013067922 -0.026130656 0.08927765 -0.083492585 -0.07212481 -0.021446116 -0.0618467 0.029170617 -0.0046306266 -0.08589639 -0.048856545 -0.030295305 -0.07520282 0.06725414 0.09320992 -0.03258425 0.0051896987 0.025937986 0.09502785 0.09228342 -0.014919792 -0.054721918 -0.024837166 -3.229908e-05
525 0.08068367 0.03677802 -0.02202307 0.022823295 0.048786286 0.014661486 0.026003048 -0.086270556 -0.09915958 -0.0017614322 0.060719844 0.07634479 0.046681784 -0.04492251 0.030981366 -0.012605572 0.014464094 -0.003935878 0.09115522 -0.04554715 0.048114017 -0.073258616 0.0063881576 -0.019469973 -0.0825618 -0.033592016 -0.08631067 0.06466923 0.0048063537 -0.020968927 0.07245263 -0.016144596 -0.0450592 0.094425894 -0.023674848 0.059633646 -0.055595357 -0.025906783 0.087159865 -0.062549 -0.08839913 0.027586814 0.011519099 0.0048875296 -0.053096812 -0.0058647743 -0.062374327 -0.08537338 -0.048737895 0.08897088 0.039234895 -0.007194663 0.07238708 0.037192795 0.073264755 0.0953329 0.014625359 -0.021643184 -0.061901845 0.008297839 -0.009773507 0.06923828 0.03028167 -0.060095616 -0.08520751 -0.050075814 0.012298588 0.0004333005 0.048705798 0.0147212995 -0.08845008 -0.06641019 0.011706207 0.10110851 -0.059822522 -0.0049109343 0.037599813 0.08234732 0.05323747 -0.038824856 -0.0295135 -0.049229182 -0.099354185 0.080970414 -0.071715094 0.009267144 0.022654872 0.09358516 0.06282851 0.098843135 0.10098297 0.05804139 -0.023179714 0.0590719 0.019996129 -0.037277877 -0.047256958 -0.08210478 -0.06681999 0.08163241 0.0153843425 -0.037767313 -0.02168524 0.08268167 0.035944164 -0.09058661 0.0050684665 -0.057569895 -0.059662182 -0.027864877 0.035622444 -0.059765548 -0.08065465 -0.046924777 0.061210517 -0.02447575 -0.05821194 -0.05072211 0.08105315 0.060769685 -0.09714342 0.09641008 -0.021816054 0.022598546 -0.03085548 -0.08299554 -0.023957787 0.025569256
526 0.057553187 0.068291284 -0.029132139 -0.052076012 -0.0005962943 0.06401059 0.01394286 -0.0083039645 -0.04064533 -0.01339557 -0.011669753 -0.00055787386 0.007250282 0.025205001 -0.049664024 0.043012753 -0.046231043 0.052527267 0.026226085 0.05904198 -0.010835702 -0.0065035205 0.0012891542 0.044269916 -0.033799347 0.023324093 0.06650245 -0.038030498 0.044853542 -0.03365841 -0.029004814 -0.08243194 0.035205346 -0.013606464 0.09748551 0.1017591 -0.019441983 -0.00076759275 0.00012874242 0.0001497328 -0.065669134 0.08284011 -0.053626277 -0.035878036 0.008124537 0.037154328 0.019346906 -0.080497876 -0.06324787 0.06582947 0.019100046 -0.018596115 0.0032149367 -0.054970194 0.05216816 -0.010690711 0.04502923 -0.022951515 0.017909018 0.07930785 0.04454335 -0.025337227 0.092593774 0.05130935 -0.0017232392 0.04024421 -0.094928846 -0.032648433 0.08496951 0.0894527 -0.041713774 -0.003165207 -0.103077866 -0.022149095 -0.02325397 -0.0733886 0.026395407 -0.0656396 0.019348932 -0.0824887 -0.029980414 -0.011198559 -0.041102 0.054063145 -0.050123382 -0.044530887 -0.018838223 -0.019806327 0.101697326 0.049828567 -0.040616516 0.011053136 -0.0030610394 0.061026357 -0.007464733 0.0019007293 0.043790888 -0.040500026 0.080116056 -0.064862475 -0.008717394 -0.022161266 -0.06779584 0.002812159 0.040344406 0.07698538 -0.00025744468 0.044237334 -0.0048973644 -0.073679164 -0.0501218 -0.025931267 0.046020545 0.0461596 -0.06409652 -0.04476979 -0.02722492 0.0763303 0.03611976 0.06496599 0.05963219 0.09896542 0.026664633 0.09948735 0.057902593 0.0343431 0.018266808 -0.001748387
527 0.05198128 0.0061643287 0.0684789 -0.072377644 0.0375948 -0.04819357 -0.07908263 0.0038918331 -0.035420775 0.020454902 0.07860592 0.024974158 -0.05019935 -0.0052523543 -0.01055343 -0.0119960215 -0.048973404 0.07961465 -0.05024692 -0.031456813 0.066768184 0.08035824 -0.095278226 0.009141145 -0.018790117 0.005965745 -0.102699526 -0.055433493 0.029632697 0.022046054 0.054485675 -0.08170034 0.04715432 -0.062745 -0.06476395 0.017951552 0.04204841 -0.06705797 -0.023129959 -0.08640609 -0.06286902 0.069288924 -0.041997667 0.044310376 0.001356199 -0.035339862 0.08418854 -0.040574867 -0.08168176 0.020127427 -0.0011784387 0.036988497 0.07901699 -0.057487126 0.04751535 0.0508942 -0.08788829 -0.05077053 0.054736607 0.065279245 0.003596503 0.003840524 -0.0041572754 0.07197272 -0.080073096 0.06797398 -0.038417723 -0.015443861 -0.046998937 0.0003500206 -0.023085345 0.0550799 -0.013543504 -0.060507026 0.009290427 0.06845357 0.07020861 0.050212037 -0.030709762 0.079344496 -0.041414347 -0.0528465 0.014898717 0.033223875 0.07782797 0.05965136 0.06548487 -0.065418355 0.03853064 0.01480205 -0.018178057 0.013072422 -0.033595916 -0.05771252 0.05900136 -0.0319562 -0.016592234 0.090965174 0.008506622 0.01629015 0.039363313 0.023823805 0.009885743 -0.043395303 -0.10211373 0.0077077057 -0.048706565 -0.0052206046 -0.024528587 0.093054436 0.060612034 -0.002438134 0.029128572 -0.032238707 -0.021524262 0.0017856015 -0.041432068 0.058940504 -0.05220873 -0.04294379 -0.0017723304 0.09834552 -0.017574547 -0.08136316 -0.050086625 0.022862101 0.06742295 0.004949238
520 0.033858433 -0.042173475 0.024483461 -0.008868027 0.033403125 0.008976039 -0.05983317 -0.015695935 -0.100002445 -0.05224731 0.061726168 0.07298301 -0.009968613 -0.025457788 0.018664198 0.06542011 0.07893325 0.018427456 -0.018739678 0.055097267 -0.04588467 -0.03595486 -0.004335198 -0.06232265 -0.09150499 -0.027399093 0.02480657 -0.05271276 -0.008748716 -0.08671817 0.02606668 -0.080903895 -0.054345075 0.057247013 0.061612457 -0.050633255 0.086976066 -0.023349114 -0.04135535 -0.057503466 -0.088396676 -0.00939931 -0.028336717 -0.08453681 -0.054277167 0.049036156 0.07699607 -0.07672759 0.014266137 0.043416455 0.029538209 0.09751252 -0.04136909 -0.0611567 -0.060278967 0.09610826 -0.04491752 -0.00021805882 0.055183653 0.044707436 0.03365119 -0.044581596 -0.051590573 -0.06826448 -0.093434826 0.103751995 0.008811755 0.01915397 0.009087457 0.06401251 0.01270846 0.0215642 -0.064414024 0.053573467 -0.054806307 -0.0701988 -0.013654693 0.054889508 -0.081971146 0.0121703595 -0.034406174 0.06854831 -0.1024869 0.034611527 0.07512035 0.04947227 -0.072153755 0.061905444 0.005993087 -0.093228765 -0.028418047 -0.0016996505 0.07929742 0.008958466 0.070906885 0.009271779 -0.08515183 -0.053830955 0.037303705 0.011925742 -0.09948117 0.021527763 -0.017865466 0.014078776 -0.04886111 -0.04313405 -0.105059944 -0.009270314 0.032284446 -0.03975958 0.00917105 -0.019645752 -0.0462808 -0.081051975 0.07150546 -0.014871793 0.027574833 0.0497991 -0.07381537 -0.0102466205 -0.027073108 0.06776745 -0.037105408 0.05631384 0.034541264 0.011288355 -0.019114552 -0.1009341
521 0.051213857 0.05021757 0.057732295 0.011079837 0.011071173 -0.033577073 -0.0154723255 0.059174728 -0.015839016 -0.013832646 0.04952082 0.09607471 0.03888712 -0.06713873 -0.063612774 -0.09365413 -0.03710775 0.0021938803 0.005512654 -0.013886496 -0.032493725 -0.056352258 -0.034422036 -0.0867724 -0.047078244 0.06959059 0.06795241 0.0074453685 0.002906309 -0.028657803 0.04012452 0.047850613 -0.07899039 -0.010351282 -0.06449387 0.062153503 -0.058378518 -0.045065887 -0.045751955 0.051071506 0.062018715 -0.041564472 -0.060353547 -0.022797521 -0.003452463 -0.08958171 -0.039181516 0.087161034 -0.043801486 0.044053547 0.03162064 0.065986514 0.027331205 0.073617466 0.024708059 0.061459225 0.04943938 -0.0041968618 0.0393746 -0.011199538 0.090309635 0.011801111 -0.07280026 0.09217082 -0.07099255 -0.019830879 0.040987454 -0.014271045 -0.013767586 -0.05197654 0.05497665 -0.054414935 -0.016234828 -0.007954988 -0.04969938 0.10320918 -0.07037519 0.0464751 -0.0067990446 0.026801316 0.037981052 -0.032554682 -0.025585774 0.07745026 -0.06900689 -0.041803386 -0.049987845 0.030952148 0.06646016 0.0959879 -0.09353434 0.037280127 0.057348322 -0.052195486 -0.026366398 0.04244845 -0.0010640899 0.08339251 -0.105283886 0.009812666 -0.065223604 -0.063340425 0.0026912086 0.04823969 0.04778318 -0.088509545 -0.06559481 0.016905028 0.018754892 -0.014242688 -0.043372907 -0.07374417 -0.08454284 0.005902999 -0.07709118 0.015901845 0.029155537 0.045025267 0.05008775 -0.07489273 0.021418676 -0.025913943 -0.05927947 0.09903888 -0.025642933 0.028806448 0.08809785 0.093216166
522 -0.10210984 0.06021577 -0.051128734 -0.009466868 0.015752668 -0.009009119 -0.020794075 -0.0048320405 -0.021721838 -0.06864581 -0.06673199 0.008963687 0.010359201 -0.0075515253 -0.08411954 0.08387038 0.040684175 0.08161332 -0.0074553643 -0.018149642 -0.05207367 0.046117827 0.05661227 0.007922221 0.062307924 -0.06640738 -0.03480556 0.04077428 0.010986606 0.03501141 0.07428488 0.019280324 0.04857841 -0.045902245 -0.08251858 -0.079157814 -0.01249412 -0.05197948 -0.020202277 -0.002912588 0.051612396 -0.0070645446 0.016097147 0.09837452 0.022804834 0.0051276404 0.025382228 0.02827155 -0.002116764 0.0025731414 0.053841524 -0.024232334 -0.040465456 0.09521042 -0.0060502104 0.07414192 0.052318394 0.043305073 0.047749154 0.00082737 -0.011557371 0.09695096 -0.10053422 0.06411145 0.04252503 0.071998335 0.046592604 0.04261598 -0.08718144 -0.08388816 0.033749424 -0.030357504 -0.06458841 0.07212208 0.023985688 -0.027984913 0.048426293 -0.057952195 0.03560134 0.040176053 0.004493246 0.06302911 -0.056222364 -0.048136044 -0.015101903 -0.07106516 -0.015334287 -0.031056965 -0.031393815 0.088481106 -0.0068128565 -0.027882835 0.0371307 -0.006551062 -0.004183824 0.09178499 -0.07742339 0.05365581 0.0074821236 0.043810062 0.03621483 0.06664162 -0.030178266 0.059930455 -0.10248615 -0.048723064 0.033862296 -0.019970512 0.05679746 -0.054986678 0.03771839 0.043078642 0.014453838 0.005675358 -0.09597919 -0.0008662781 -0.06173487 0.102740355 -0.08006583 -0.0923355 -0.012907573 0.089591704 0.008181703 0.009451583 0.01743532 -0.06380657 -0.043538548 -0.038155068
523 -0.08883123 0.0587162 0.07689717 0.06357188 -0.03422049 0.062507756 0.041473176 0.033289187 -0.09553401 -0.007770659 -0.07914587 0.04133706 -0.013929647 0.035543844 -0.04115482 0.018775543 -0.014588013 -0.04802039 0.06587879 -0.095544286 0.041954394 0.0032507188 0.036626123 0.0880316 0.035653837 -0.053495586 -0.02533535 -0.005419407 -0.04886703 0.047283627 -0.05484838 6.91968e-05 -0.0067569707 0.092789486 0.01881822 0.06237115 0.026665596 -0.0025201945 -0.047899872 0.00087194145 -0.036351368 -0.016146017 0.030598966 -0.0838431 -0.008302778 0.006967121 -0.021078732 -0.066837564 0.045767237 -0.03115552 -0.0744853 0.06960713 -0.06426272 0.048145104 0.056005523 0.10231066 0.021657454 0.03199055 -0.039920487 -0.06891748 0.03056524 -0.06114915 -0.100381814 -0.04474505 0.019466896 -0.012076933 0.040927853 0.018362585 -0.055415723 0.023100656 -0.09114199 -0.048851218 -0.054585077 -0.033166878 0.09599595 0.028088102 -0.03999667 -0.0998716 -0.008024068 0.016857322 -0.0615937 0.03637008 -0.005814624 -0.066588044 0.04990411 0.04374099 -0.1000119 -0.034661323 -0.023910904 0.08725758 0.07680023 0.038976993 -0.08135973 0.05117144 0.06294705 0.056082334 -0.06385739 0.07642892 -0.085823685 0.07372117 0.006614768 0.024188383 0.021409208 0.0041316766 0.036883913 0.038165666 -0.015307525 -0.030666223 -0.035850316 -0.0064546093 -0.018139943 0.026877327 -0.065849595 -0.08051222 -0.06638619 0.0040439554 0.04203647 0.05171577 -0.089855626 -0.024814894 -0.049512222 0.016609386 0.06493959 0.022912743 0.040464655 -0.060397338 -0.07424963 -0.100817144
528 -0.0033471696 0.05568267 0.0075326683 0.0056638145 0.010904278 0.05225287 0.10321603 0.043447204 0.060357027 -0.019115878 -0.0067744623 0.0031042574 -0.05440473 0.06325232 -4.763098e-05 -0.018198844 -0.04815871 0.09721798 -0.018217813 -0.046761353 -0.091066174 -0.10244195 -0.018410094 0.08395889 0.08447798 0.07231639 -0.03213457 -0.01800655 0.045242656 0.0732334 0.068790935 0.0062646177 -0.04700905 -0.022374097 0.02903973 -0.045663327 -0.053394448 0.10278691 -0.022384826 -0.0808443 -0.055283926 0.050772537 0.07652491 0.000968553 -0.09873761 -0.07656632 -0.014042064 0.058442265 0.034778513 0.06692968 0.05325466 -0.02074088 -0.029984461 0.048924655 0.04333165 0.05248038 0.0941595 0.01648063 0.006816638 0.02704052 -0.08572509 -0.048296753 -0.02266718 0.088735625 -0.06608009 0.027002195 -0.082608595 -0.09631906 -9.77912e-06 -0.0043697944 0.042110015 -0.01539955 0.02688613 -0.06369765 -0.102225944 0.06045892 -0.081115074 0.09758307 -0.06320749 -0.0016065539 -0.046680965 0.058622934 -0.056593843 0.017205883 0.0487225 -0.030145617 0.059354275 0.0132272625 0.07570803 -0.054662455 0.0742356 -0.095012225 -0.041648787 -0.002257934 0.050413173 0.06587631 -0.034839384 -0.016271863 -0.081534445 -0.05224777 -0.0048611267 0.027868856 0.053212013 0.056802522 -0.029797673 0.080302544 -0.06904341 -0.039127696 -0.039072633 -0.038588136 0.047815572 -0.045225125 0.070724495 -0.09182221 -0.031032912 -0.014889814 -0.085998036 0.046228766 -0.0005507516 -0.036520965 -0.0062172352 0.080370225 0.00081827573 -0.006412579 -0.007281017 0.0020646034 -0.044698108 -0.04206532
529 0.05652834 0.051146 0.011667404 -0.0544714 0.049564537 -0.053284824 -0.032706033 -0.060774658 0.0011391658 -0.03494976 -0.00022854398 -0.01589975 -0.023151267 0.024046818 -0.05333378 -0.0026850575 0.04608126 -0.023039704 0.020098781 -0.006715767 0.054382026 0.06342744 -0.0005082573 -0.057512555 0.010068862 -0.03435161 -0.05262348 -0.031092912 0.0021821205 -0.004407646 -0.03390881 0.01455646 0.030038755 0.012481958 -0.04094112 -0.0075965617 0.0009022972 0.005055385 -0.042383425 0.032830983 -0.020004123 -0.00026800402 -0.0109992735 -0.029839357 -0.001450936 -0.0036034132 -0.019243186 0.044496242 0.043820657 -0.0026727803 -0.05680059 0.0008646308 -0.0025533175 0.06480815 -0.054679915 -0.059494395 -0.06493061 0.0047151092 -0.038440175 -0.016051719 -0.023586374 0.04764426 0.03664145 -0.005075905 0.0399747 0.0027138332 -0.035175346 0.0034510156 -0.010730384 -0.033218693 -0.0293799 -0.0026059004 0.0023603202 0.041619506 -0.0026056732 -0.02647217 -0.029645419 0.0021530204 0.013587298 0.057775985 -0.04733912 -0.0052835965 -0.0016758884 0.052772418 -0.025480228 -0.012310309 -0.023268826 0.055236213 0.0004262434 0.05128317 -0.054390017 0.042439334 0.015291079 -0.00040370598 0.0005522322 -0.0016451451 0.011756615 -0.015524608 0.028872473 -0.04974519 0.025416167 0.050788045 0.045319572 0.030689457 -9.1924674e-05 0.01976874 0.01071997 0.0091289785 -0.0016726092 -0.0026894987 -0.05695731 0.0235532 0.0013099688 -0.00818788 -0.008726986 0.008356148 -0.0002955986 -0.0049367636 0.004645349 -0.05632978 -0.002653644 0.0009228242 -0.0011147422 -0.04366767 0.0023092134 -0.05116941 0.052915536 0.00046987075
449 0.023651546 0.0927042 -0.012833246 0.00044024026 0.016983991 -0.0012485576 0.025803916 0.023877203 0.038560484 -0.02786946 -0.02001941 -0.06926208 0.080265746 -0.06483927 0.0037808334 0.04954962 0.009369018 0.09608506 -0.07859236 -0.022414627 -0.00034966494 -0.022787932 0.01533681 0.10027336 0.09776838 0.04989797 -0.029192692 0.07158915 -0.084859714 0.026243344 0.061046574 0.03428871 -0.07223683 -0.07912734 -0.076220065 -0.014990932 0.0853711 0.034055047 -0.06248288 -0.059901204 0.025879722 0.08952402 -0.022929704 -0.05564718 -0.06367076 -0.005733604 -0.06364001 -0.09939347 0.050571665 -0.03521877 0.038281146 0.07735628 0.041137245 0.040678065 0.06309692 -0.10073836 0.019197043 0.07049643 -0.08813552 -0.04987999 0.05451225 0.02086024 -0.00162704 -0.005827821 0.01964391 0.085462905 0.056841776 0.10512251 0.090822935 0.007524233 -0.023150045 0.08153825 -0.0656883 0.07902005 0.0114683015 -0.048498675 0.08778982 0.054945078 -0.024424296 -0.003576519 -0.025960809 0.029426351 0.039359424 -0.018803652 0.06719345 -0.027463973 0.038997374 -0.014065095 -0.037670255 0.065308474 -0.030009564 -0.008860054 0.035486925 0.013295035 -0.09568763 -0.010434042 -0.011332019 0.043452516 0.03106362 -0.012172483 0.01916652 0.08827475 0.050313186 0.04812168 0.03113354 -0.0042173583 0.024433985 -0.02794921 0.07983175 -0.064579576 -0.011515827 -0.041923486 -0.09475119 0.06264362 -0.048019655 -0.03303917 -0.06024266 -0.026979778 0.061901245 -0.0064201606 0.010661589 0.050965395 0.04028856 0.057473812 -0.0035678882 0.031014515 -0.062856525 0.06233684
448 -0.04156936 0.05291933 -0.088652715 -0.068674766 0.050769508 -0.09998835 -0.08402315 -0.08610583 -0.020255363 0.043118622 0.04422651 0.03505257 0.05265834 0.058883633 0.0321424 0.060804896 -0.057316694 0.1002332 -0.0047649047 -0.10079951 -0.077593 0.08110056 -0.04324109 0.052846648 -0.008970154 -0.056534424 -0.027263334 0.041461658 -0.05006484 0.033731986 0.049294967 0.0055365777 0.00018449558 -0.093901 -0.022388058 0.0918806 0.0907145 0.02351614 -0.083822064 -0.022452917 0.036317043 0.05266419 0.07717117 0.008495381 0.08759744 0.03910344 0.004649138 -0.05792178 0.021225091 0.01980691 -0.07258727 0.06619254 -6.329175e-05 0.055335723 -0.012646598 -0.06806126 0.036118727 0.017724901 -0.08388363 -0.028201608 0.020780308 -0.01628828 -0.054574396 0.06026611 -0.09852377 -0.017316956 0.06408272 0.08352824 0.02204701 -0.011372709 -0.017593473 -0.006607632 -0.014826065 -0.06755477 0.061663672 -0.017272359 0.0919946 -0.061208468 -0.050571952 0.06658868 -0.078103475 0.1051625 -0.04218786 -0.0065499838 -0.021975785 -0.025871893 -0.0024552252 -0.0844999 -0.00050355645 0.04552282 0.06686778 -0.06242939 0.012188365 -0.06757347 0.054172974 0.01632001 0.012238474 -0.038344108 -0.018610362 0.10530218 0.014223604 0.049650006 -0.0967542 -0.10274967 -0.051203147 -0.069602616 0.072182134 -0.08054766 0.059198484 -0.0054035373 0.06775215 -0.073025875 0.0087285815 0.04645346 -0.08324315 0.06944164 -0.07885902 0.05780744 0.012632865 0.014609276 -0.055921096 0.008406632 0.0040438557 0.005110101 -0.048944607 -0.06456594 0.064411335 -0.062520936
443 0.041172776 0.029336868 -0.02814084 0.0027279076 0.016467687 0.097236395 -0.06277302 0.02919916 0.041207515 0.078620456 0.0170327 0.031878687 -0.06657841 -0.09800109 0.009773731 -0.041358016 0.0019031398 -0.03241323 -0.028942125 0.05082593 0.0051106904 0.01104634 -0.051518336 -0.03377552 -0.06860269 0.07601842 -0.017521715 -0.030089607 -0.08267818 0.072348386 0.054094277 -0.056345016 -0.033077814 -0.0041541383 -0.10236388 -0.011367425 0.06559215 -0.071744815 0.020962186 -0.057083845 -0.07206227 0.05935071 0.014275952 0.057501394 -0.08245024 0.0621539 0.01656988 -0.04942957 -0.014497992 -0.0773968 -0.090982385 -0.07306191 -0.034420326 -0.03428509 0.043033693 0.013000783 -0.07549632 -0.025594678 -0.04842351 0.08267241 0.060822617 -0.009321033 0.07306286 -0.045632765 0.0147219505 0.0066293012 0.0024671154 0.043086547 -0.050979678 0.10107815 0.005719486 -0.020508792 -0.061607752 0.062221516 -0.061760716 0.060812984 0.034198113 0.00032820867 -0.05521712 0.04094963 -0.0649806 -0.07398619 -0.0952324 0.09638453 -0.058820557 0.04417954 -0.03412996 0.058383353 -0.010783049 0.046510343 -0.028851714 -0.043277778 0.014775647 0.053213775 -0.05498667 0.079299286 -0.077428386 -0.0022053986 0.026576798 -0.02992083 0.06252758 -0.08914373 0.035923466 0.015804214 -0.05181769 0.08129592 0.01738543 0.028511662 0.06387643 -0.028562684 0.031340312 0.008637506 -0.008291847 6.754021e-05 -0.02475053 0.01890596 -0.083921336 0.06291627 0.027885014 -0.060907885 0.054712765 0.03805081 -0.03197799 0.05688852 -0.07610712 0.0455788 -0.0071206517 0.055277597
