2220 128
344 -0.055063166 -0.070383556 -0.051721662 -0.019999694 0.030415647 -0.07830912 -0.057446808 0.058907304 0.019869436 -0.09717845 0.023445645 0.023276856 0.057952084 0.04929474 0.08922171 -0.09558943 0.019453231 0.063602895 0.05196759 0.06650856 0.03596194 0.0391558 0.019204628 0.0187826 -0.015005334 0.091972746 0.087047726 0.0135295065 0.011863921 0.047843877 0.012634726 0.024942286 -0.010574971 0.079026364 -0.011076303 -0.05464594 0.059358638 -0.09359596 0.098655514 -0.03709147 -0.061537687 -0.008745923 -0.017272424 -0.045502886 0.037327036 0.036756128 0.005049769 -0.042963736 0.02855812 0.063603304 0.008147884 0.09644366 0.021343192 -0.030086685 0.09050485 -0.06184141 0.047565024 0.08053604 0.09531705 0.05964459 0.034966007 -0.015807567 0.04619911 0.00572747 0.076747105 -0.07050327 -0.09499631 0.028260771 0.05744645 -0.043657172 -0.063172996 0.012365755 -0.042299 0.07408882 0.074664906 -0.072685696 -0.08167585 0.034446843 0.025119156 -0.039734274 -0.0001640683 0.0787146 0.09513741 0.0076495335 0.05224808 -0.08889419 -0.04657423 -0.045497216 -0.095417134 -0.036228597 0.02256575 0.0800287 -0.008041262 -0.03285524 -0.07805239 -0.011712342 0.036021028 -0.09024725 0.042664833 -0.042457655 -0.0074827345 0.019093074 0.017597688 0.04259539 0.058190864 -0.035629418 -0.058333762 0.057281565 0.07808029 0.091037996 0.032943886 -0.04334324 -0.0431088 -0.027828088 -0.02194238 -0.0778771 0.096432246 0.08470818 -0.031387683 -0.08565165 0.03593694 0.087747805 0.06246595 -0.09007634 -0.015443343 -0.043598056 -0.053901877 0.037713468
345 0.07309993 -0.08398533 -0.010714931 0.0023059752 0.02786816 0.010693474 0.006969801 0.05624471 0.03925953 -0.017880319 -0.036784418 0.011243391 -0.00848764 -0.009637272 -0.04240647 -0.033033654 -0.02183956 -0.06983399 0.08246483 -0.040515266 0.08394625 -0.051982425 0.069582246 0.010811733 0.021180602 -0.07622499 -0.06761428 -0.06463102 0.06215785 0.09107765 0.04895215 -0.050760657 0.029628754 0.05032101 0.06022317 -0.05874994 -0.07173897 -0.044632174 -0.07671633 -0.050419096 -0.038425334 -0.06926342 0.099113055 -0.051684767 0.07980204 -0.025695164 0.06580662 0.06149461 -0.07499646 -0.032723647 0.047724973 0.017137926 -0.05786527 -0.0058070095 0.04280176 -0.0439393 -0.056724884 -0.0037340894 -0.032354612 0.045832314 0.06257271 0.073489085 -0.08357546 -0.04400026 -0.026960995 0.008601969 0.025975548 0.024722688 -0.069136284 -0.07223309 0.06988365 -0.028092097 -0.09800315 0.07830853 -0.02515121 0.047011055 -0.03795898 0.06539169 -0.0649436 0.06392172 0.015400512 -0.029463412 0.022991695 -0.09884277 0.056874275 0.086656146 0.07106663 0.0059963847 -0.06262171 -0.057214085 0.08568768 -0.06266163 0.054786235 0.077922024 0.019917175 -0.049582474 -0.019656349 -0.019213913 0.012637707 0.029805806 -0.023907807 -0.02068066 -0.06693596 -0.044955634 0.010877046 -0.09996 0.020608211 0.039995834 0.0034399955 0.022507805 0.04180537 -0.07462034 -0.05812139 0.006212461 0.02226406 -0.017283898 -0.04525062 0.01168883 -0.008888926 0.07299286 -0.0007975828 0.05609812 -0.0047484464 0.0038686744 -0.0024124542 0.050617017 -0.0019586068 0.052064046
346 -0.083775885 -0.03055068 -0.03570731 -0.06667749 -0.086549014 0.050820902 0.003282764 -0.03163843 0.013496174 0.04918834 -0.012806613 0.05735573 -0.08003844 0.0137909 -0.059693806 -0.005800353 0.010551287 -0.08090145 0.09240412 -0.04031647 0.009394785 0.0058007403 0.058483876 -0.07551134 -0.07517604 -0.019438539 0.06026396 -0.057389542 0.0026061242 -0.0145399915 -0.013199473 0.05110824 0.05729325 0.00031240052 0.08095103 0.029915795 -0.010826213 -0.025469419 -0.055432744 -0.056184817 0.053019132 0.09179013 -0.062251225 -0.013230923 0.041144 -0.06611119 -0.08281226 -0.02986402 -0.04213391 0.011622311 0.08215962 -0.06002365 -0.048015915 0.07206633 -0.019420179 0.00504147 -0.016184535 -0.049388878 -0.03907361 0.034320805 0.08352358 0.029788155 0.016695088 0.04119503 0.07685217 0.0027809492 0.09583673 -0.009593794 0.001006837 0.005279378 -0.07554497 -0.045901768 0.0071536433 -0.035788495 0.020554058 -0.0016740272 -0.07524857 -0.02549158 -0.008662856 -0.0021504965 0.006467511 0.07119356 0.01310623 -0.045980223 0.09573321 -0.06538613 0.06810011 0.047654163 -0.032444596 -0.023551181 -0.082755305 -0.059237383 0.006196418 -0.005436456 0.045654546 0.06888428 -0.021182152 -0.028704405 -0.07491796 0.07158989 0.0016194163 0.07199991 0.08237506 -0.034081876 0.03906203 0.0026742578 -0.035867207 0.023029504 0.019507773 0.035666518 -0.044669364 0.011787145 -0.08709046 0.09777203 -0.08938995 0.06893262 0.062458694 0.020987898 0.0015195496 0.06383338 -0.059416257 0.054973457 0.049947817 -0.058685042 0.06692827 0.025643094 0.0012701601 0.017148
347 0.080863096 -0.064399056 -0.031490333 0.025658522 0.052429467 -0.049871214 -0.06643401 0.09809328 0.074813604 -0.06287363 0.023994565 -0.053111188 0.07199103 -0.025891842 0.06968408 -0.03222157 0.049268827 0.054960612 -0.030581642 -0.007699968 -0.081723 0.06868204 0.01453484 -0.042810544 0.07882568 0.04688766 0.041478448 -0.03065892 0.059681155 0.014127154 0.007833957 0.07800652 0.032209285 -0.026546448 0.08327742 -0.016683407 -0.023348494 -0.06991783 0.0569023 -0.051698137 -0.0046041915 -0.056604024 -0.009014234 -0.08126494 -0.04965149 -0.02093653 0.026503118 -0.07579677 0.06979157 -0.060495332 -0.01391713 0.087044515 0.038191028 0.06922039 0.04891704 -0.007527262 0.021522366 -0.016538858 -0.080591336 0.018499084 0.013104368 -0.026690278 0.08165663 0.097859435 0.07163743 0.032789405 -0.00063943584 -0.010420863 0.038299166 0.007493385 -0.0115892785 -0.04806334 -0.015439624 0.07743619 0.050577357 0.060386654 0.058056254 0.041006453 0.037328728 0.03199347 0.02959947 -0.05095363 -0.05206372 0.045800462 0.06113165 -0.08901844 0.03536691 -0.03383172 0.0008517908 -0.024413723 -0.080608875 0.030951548 -0.0060602394 -0.016521202 0.010377624 -0.056350112 -0.06201515 -0.010621222 0.00039375667 -0.07429856 0.04234424 0.0015119109 -0.024574475 0.09524696 0.06919051 0.042074066 -0.0926556 0.0247696 0.100658156 0.081914 0.092918515 0.008786613 -0.04697097 0.023020925 0.063155785 0.083482645 -0.048513845 -0.014216685 0.04771448 -0.019677766 0.090004906 -0.052533016 -0.020728894 0.088933334 -0.0157034 -0.03497102 0.040350612 0.09365536
340 0.032037802 -0.087559134 -0.09233493 -0.07400094 -0.03761342 0.08219268 -0.06785886 -0.011847338 0.09210946 0.06107921 0.057612494 -0.029655894 0.016983755 0.0036627566 -0.013736811 0.07471861 -0.0790547 0.05420774 -0.010341911 0.00034024753 0.07731331 -0.092454724 0.070360966 0.05348614 -0.0053660125 -0.066983595 0.071874894 -0.013836744 0.018306583 0.009284388 -0.040894844 0.06423382 0.003547418 -0.0060153417 0.042837862 -0.018953525 -0.061574053 -0.04731647 -0.057535358 -0.043470018 -0.0069137653 -0.057104215 0.016664486 -0.053048767 0.053349473 0.034730688 -0.070751294 -0.017435648 0.07387956 0.06709941 0.06728158 0.0003077723 -0.09465702 0.06216927 0.054157093 0.079299755 -0.00012789038 -0.041802168 0.07669462 0.03117779 0.064211264 -0.052063324 0.04495575 0.09450497 0.04524002 0.036360245 0.062553 -0.0266561 -0.08999029 0.0766927 -0.08477938 0.076595396 0.06697988 -0.015694965 0.03809432 -0.031668 -0.026143976 -0.0976686 -0.082449086 -0.054765925 0.0573565 -0.020742996 0.0009223677 -0.0015259814 0.0018291529 -0.08291069 0.078766756 -0.020096678 -0.006202642 -0.03821933 0.012728007 0.06219067 0.046222482 -0.0030913688 0.0019833297 0.08061815 -0.004000877 -0.018580176 -0.0065200618 0.094445914 -0.0040629944 0.02247304 -0.0005409345 0.09661936 -0.010899022 -0.044103432 -0.007790812 0.007918219 -0.007831257 0.016474206 -0.08723723 0.09496406 -0.018521104 0.051371273 -0.013654385 -0.020538013 0.03745883 0.03139692 0.011940274 -0.032704882 0.032682523 0.0073841354 -0.0011955351 -0.050525866 -0.012645709 0.044129044 0.09689304 0.08026202
341 0.006259228 -0.036638208 0.015230449 0.061999857 -0.021617793 0.037386075 0.06477082 0.022842558 0.080700554 -0.011101516 -0.0047388272 0.019420836 -0.0822582 -0.077780105 -0.023278696 -0.066362016 -0.00057779375 -0.0010857312 0.009283922 -0.018801317 -0.009285328 -0.081373714 0.1001836 0.010263199 0.07970964 0.063290685 -0.086312614 0.0456658 0.037326403 0.033979677 -0.051697515 -0.083814934 -0.07958781 -0.0152930645 -0.010619465 -0.04468023 -0.08177253 -0.021650422 -0.07009517 0.0051434613 -0.060208537 -0.056711815 0.0020481786 -0.049339265 0.039964665 -0.056175295 0.027358696 -0.08620598 -0.03340668 0.039950825 0.03048233 0.091830365 0.029637786 -0.06388883 -0.09584547 -0.07673246 -0.07476529 -0.058470216 0.009443587 0.056991402 -0.09147256 0.030401845 0.08064019 -0.005574899 -0.09538366 -0.055518992 -0.04801513 0.0154995 -0.08535405 -0.016368251 0.043675542 0.034731444 -0.051573228 -0.07176624 0.09614187 0.043539163 -0.053802367 0.039442506 -0.011877272 0.009875841 -0.046203606 0.067252 -0.04695956 -0.04958202 0.051438615 0.06700961 -0.041331038 0.05712285 -0.018133946 -0.07326744 0.07939319 -0.031532392 0.075418726 0.004688129 -0.014155058 -0.047521688 -0.010803645 -0.052003212 0.09417855 0.07046343 -0.07889822 0.049343437 -0.024372958 -0.083355986 0.0696069 -0.08886123 0.07816759 0.012403008 -0.022927232 0.04944825 -0.06836967 -0.07439629 -0.0113476 0.0943809 -0.05759335 0.08048664 -0.0074039004 0.047301885 -0.017709317 0.082775764 -0.08706845 0.08347288 0.03832024 -0.022899581 0.006623596 0.07165961 0.03267377 0.09331526
342 -0.0031044777 -0.006417272 -0.009989604 0.008965865 -0.003967177 -0.0035392477 0.0067351493 -0.0031630201 0.0020024441 -0.003381073 -0.0051579755 -0.001217124 -0.0014124403 -0.0016732281 0.012621008 -0.0020887572 0.012576125 0.012627133 0.011880599 0.0035690858 -0.009897162 -0.012387341 0.007342776 0.011112435 -0.0024313591 0.0055454136 -0.012484999 0.0008552007 -0.010999398 0.009047814 -0.011673128 -0.012629232 0.0051745162 -0.00025992747 -0.008777857 -0.0032493118 -0.010455497 0.0031339442 0.002606569 0.012301203 0.0048598 -0.012608953 -0.006043 0.002797498 -0.012515552 -0.0038802647 0.008588556 0.003029381 0.010904633 0.009502223 0.005279311 -0.012478409 0.01181758 -0.00191749 0.010753725 -0.0015242267 0.011633581 0.012289917 0.0038747955 0.0049659098 -0.003713035 -0.011257457 0.011630623 0.012624297 -0.009622868 -0.007265463 0.0029360738 -0.002319598 6.5721804e-05 0.007765978 0.006844352 -0.006538024 -0.008219512 -0.001660387 -0.0003963001 0.0035312602 -0.0031323386 0.0040581315 -0.0034346115 0.002266279 0.0041837296 0.009196282 -0.0026917532 0.002550504 -9.8198885e-05 0.004685379 -0.011710054 -0.0043423595 0.009691112 -0.003559703 0.0089014545 0.001169529 -0.0037390916 -0.011241217 -0.008406159 -0.006988109 -0.00090491306 0.0030690245 0.00849233 0.011866416 0.005152332 -0.012054493 0.008098023 0.010717593 0.003212484 0.012540234 0.00027322117 -0.0034828705 0.007230304 -0.0030609644 -0.0049740085 0.002119329 -0.00852308 -0.0013499223 0.0076891473 0.0017791158 0.010803245 0.0031368884 0.00050596613 0.0109736435 0.00830968 -0.0065804925 0.0031999927 -0.0045888503 0.011603424 -0.011850126 0.0070584216 -0.0045232032
343 -0.07542294 -0.004016821 0.054062393 0.051291466 -0.0728063 0.009800857 0.01614534 0.06544547 0.035162285 0.05715587 0.023483947 0.02185044 0.044641543 0.0914375 0.026459407 0.008749375 -0.05935732 -0.057785388 -0.019678725 0.046051405 -0.094446845 -0.015300089 -0.057093203 -0.08351923 -0.002344015 -0.05988046 0.07756035 0.07194796 0.034471974 -0.06886488 -0.07963203 0.04756479 -0.056498118 -0.06335993 -0.011832239 0.03861208 -0.08790369 -0.025671765 -0.06090799 -0.021498308 0.047222048 -0.07800582 -0.030727882 0.0671844 -0.026189912 0.026133068 -0.050820872 -0.0043697134 0.08916474 0.008084897 -0.032976486 -0.072319284 -0.0996699 -0.00013267063 -0.05911065 0.015389786 0.0056825196 -0.08342454 0.033224165 -0.046601877 -0.069621034 0.052251775 0.01870462 -0.05642924 0.035422042 -0.022828015 -0.06751481 0.057715226 -0.097049184 -0.026267707 -0.0051219855 0.060714036 0.050540175 -0.06900829 0.04325299 0.03833501 0.066785574 -0.047019765 -0.06483501 0.06972822 0.039545022 0.062979616 -0.06917878 -0.08286789 0.014144249 -0.02060398 -0.015907254 0.04378614 -0.0048658103 0.034720466 0.03848194 0.021199716 -0.056680653 0.05237715 0.08093985 0.058779158 -0.08139604 -0.08399767 0.04131001 0.076323144 -0.030011028 -0.0021900386 -0.06438855 0.083322056 -0.012097299 -0.010967089 0.0032018432 -0.094420396 0.088493384 0.060276236 -0.07266584 -0.009154603 0.059836034 0.01175963 -0.0004739454 -0.086394675 0.031091858 -0.0051184744 -0.007924111 -0.042429574 0.07356309 -0.08869933 0.07645947 -0.05168265 -0.09178384 0.033405177 -0.020456128 0.0012564594
348 0.02023141 -0.009113536 0.0012600813 0.06410208 0.082495935 -0.0035440074 0.033473972 0.07411153 0.0670776 -0.029605206 -0.05652269 0.09835404 -0.088184014 -0.0006166231 -0.0005166698 -0.04533503 0.030939702 -0.068251334 0.0841876 -0.002326455 0.0678035 -0.0966296 0.013265573 0.027349522 0.0626079 -0.052330233 -0.021573054 -0.042799257 0.027976077 0.08014702 0.08896454 -0.06909827 0.06990378 0.08149125 0.057042535 -0.040770855 -0.086982414 -0.09347147 -0.00024698302 -0.09374573 -0.029453136 -0.06251342 0.0425659 -0.023230612 0.08780485 -0.07135758 -0.013179741 0.039620224 -0.047617014 -0.0691201 0.088350065 0.011264516 -0.054147497 -0.03402798 0.05915426 0.024381507 -0.004075624 -0.0018526763 -0.009289405 0.06119796 0.049708508 0.06214551 -0.05108872 -0.095762506 -0.07896168 0.059175055 0.054995466 0.038923014 -0.018627986 -0.056755774 0.07934465 -0.05662237 -0.010571834 -0.0010602418 -0.021723622 0.0028351555 -0.024433933 0.035212882 -0.033094242 0.07350837 0.0595011 -0.03724924 0.016967943 -0.0784721 0.059077702 0.017834704 0.07162219 0.053523246 -0.08311748 -0.088817775 0.040229674 -0.086866625 0.023771273 0.052331984 0.035229497 -0.079146065 -0.087107785 -0.06819631 0.014095204 0.030797865 -0.05199591 -0.07316122 -0.03116719 -0.063774355 0.022813631 -0.05728628 0.09304948 0.0801901 0.018167835 0.087335475 0.050778866 -0.09906752 -0.050714593 0.018613342 0.047610283 -0.0050464207 -0.018718911 0.0035491644 0.024900861 0.054099496 0.09961292 0.03760598 -0.04021565 -0.0050509637 -0.037047334 0.05622994 0.061698917 0.045662172
349 0.046490695 -0.057499923 0.08562854 -0.016709033 -0.057565883 -0.057811234 -0.05945251 0.065274075 0.04995545 0.054308683 0.0650848 -0.08555403 -0.0021796667 -0.058307186 -0.015766926 -0.0344305 0.053251658 0.015733443 0.031604197 -0.09896041 0.06238813 -0.026528573 0.010785572 0.038671255 0.023454867 0.009625521 0.09596543 0.06493405 -0.018814467 0.050712842 -0.064665705 0.074698284 -0.084909424 0.06608166 0.02529939 -0.044647317 -0.011558728 0.013120005 0.088628545 0.09480076 -0.08926423 -0.06564594 -0.08209935 0.01987971 -0.09193139 -0.007731806 -0.008157154 -0.030250274 -0.073813975 -0.059325095 0.070879556 -0.0062174676 -0.08249185 -0.049928553 -0.09231945 -0.06898395 -0.026720863 -0.057883635 0.013295843 0.05260886 -0.09315711 0.02753932 0.0007696026 0.051739838 0.025037792 -0.07110299 -0.09616312 0.031075768 0.05952442 -0.008062306 -0.0075772027 -0.014191464 0.06739464 -0.09385252 -0.09090853 -0.050504908 0.09396854 -0.0865703 -0.07675099 0.06869454 0.010387932 0.06044359 0.047856163 0.053015843 0.08841731 0.05213583 -0.0011462651 -0.047582053 0.036455832 0.04076582 -0.0038052087 0.031087702 0.019413766 0.08993045 0.061611906 -0.0720724 -0.094553836 -0.025126396 -0.061284605 0.026757713 0.037553754 0.081254475 -0.08377368 0.058791883 0.05854183 0.06496267 -0.019049289 0.012904674 -0.0758834 -0.06980271 0.068630315 -0.05263454 0.001994714 0.003881057 0.06943237 0.008865837 0.0046122666 0.012259031 0.049589347 -0.053178415 -0.0923647 0.04501029 0.021093467 -0.09177752 -0.07846609 0.018122211 0.04897196 -0.016291533
1653 0.012630774 -0.0065623764 -0.0027624392 0.0026505766 -0.0019500449 0.0116211185 0.009795935 0.009531533 0.0008738688 -0.0108206775 0.0037507713 0.0008960385 -0.007823413 -0.010218667 0.009272727 0.006593417 -0.009824838 0.007815453 0.0065632933 -0.0011169435 0.009359793 -0.002351868 0.004057977 0.00294535 0.011473497 -0.003664213 -0.011307481 0.0036937853 -0.0016828179 0.012550103 0.011332142 0.011559649 0.0106767565 0.0042447867 0.01085866 -0.009788962 0.0032918951 -0.003919008 0.012523503 -9.302329e-05 -0.0027116537 0.0019884203 0.0073300633 -0.00072951894 -0.0053664627 -0.011239221 -0.01151672 0.0029499948 -0.012378776 -0.003460108 -0.0029597955 -0.007824679 0.012293805 -0.0063024154 -0.00079085655 -0.0010335909 -0.012015147 0.01207966 0.0026814928 0.010023339 -0.009162857 0.0038611405 -0.005011915 -0.0121001 -0.0031102425 -0.010253482 0.00342539 0.011837543 -0.0122890305 -0.006511107 0.011664107 -0.012496123 -0.0023230803 0.011655066 0.010844829 -0.009205891 0.0065620085 0.009470067 0.01250045 0.0004554456 0.002466293 -0.008596815 -0.0015405575 -0.010371423 0.0005225055 0.008477593 0.011239694 0.0069153677 0.012326406 0.003453941 0.0034662639 0.011348149 0.0035794834 0.003057137 -0.0031457418 0.0023447163 -0.010833525 0.0053221025 -0.011606169 0.003669748 0.011758211 0.0075663733 -0.012629443 0.012601818 -0.0014644382 -0.0030840929 0.0021691846 0.00010558963 -0.0073266216 0.005102163 -0.002851639 0.010203652 -0.0028993653 -0.011595482 0.009800358 0.0054535726 -0.011451676 0.010494314 0.008456077 0.010532642 0.0018927706 -0.0119246915 0.000893916 -0.0033523603 0.009515604 0.0034160605 -0.011331188 0.010212897
298 0.036440738 -0.0006250683 0.0092092445 0.02055053 0.043710448 -0.014307725 -0.04725435 -0.07878074 -0.008970149 0.09661648 -0.045750134 0.019881237 -0.07312447 -0.041268934 -0.07174119 0.07113807 -0.0756021 -0.09532224 0.0920611 0.07956795 -0.08060453 -0.05363157 0.02754768 0.036494482 -0.009090339 0.011478094 -0.030298706 0.005831589 -0.009748848 0.10035412 -0.033714965 -0.09875488 0.0031108744 -0.04417225 -0.08851029 -0.0017068867 0.018139074 0.04001896 -0.032434147 0.00959755 -0.0713408 -0.09447296 -0.07262541 -0.09077279 -0.06836456 0.022153793 0.049149152 -0.0007865217 0.087542966 0.076689966 -0.025343422 0.036050104 0.0272545 -0.06590097 0.04424178 -0.07195634 -0.0068539456 0.011453609 0.010768754 -0.029862847 0.06913923 0.01941794 -0.05992547 -0.042924765 -0.05382485 0.090566665 0.00042150496 -0.012724644 -0.0009800429 0.062190544 -0.035548117 0.037697677 0.079865344 -0.0621848 0.032136545 0.07107481 -0.08883586 -0.049174286 -0.026011858 0.015397918 -0.041549828 -0.032447156 0.03603991 0.08650179 -0.08300886 0.06839933 -0.031433344 0.020029606 0.08894498 -0.06314444 0.09057661 0.016561026 -0.08189349 -0.09060833 -0.031347264 -0.068041734 0.04184854 0.073321514 0.01045663 0.058104828 -0.04822185 0.07094013 0.039893866 -0.02082048 0.058109425 -0.04772403 -0.013898095 0.05067047 0.02120183 -0.0019817483 -0.078762956 0.09631461 -0.078769445 -0.07817731 -0.058657844 0.014741335 0.06940314 0.016186964 -0.04769021 -0.061910033 0.09541914 -0.09381128 -0.089515224 -0.07832695 0.09995131 0.063392185 -0.021604683 -0.024191359
299 0.05000604 0.05988393 -0.06488119 0.0044429516 -0.083784215 0.019930135 -0.029426582 0.03962987 -0.039213806 0.027501374 -0.08827615 -0.0536543 0.04551425 0.0040601008 0.020260576 0.015875494 -0.06832189 0.041533336 -0.004048877 0.055946656 -0.08208022 0.091627926 -0.035387672 -0.014928228 -0.066852845 -0.09038059 -0.095268935 -0.037140395 0.08393221 -0.022150531 0.03954702 0.054903332 0.0145731205 -0.015365407 -0.048256632 -0.08758478 0.03073971 0.03664843 0.071317315 0.03659285 -0.0672474 0.06177356 0.035898216 -0.041841768 -0.06001746 0.061772216 0.02566501 0.0609418 0.05310274 -0.03657962 0.047217518 0.062188223 -0.09771712 -0.055539317 -0.07961851 -0.02972957 -0.08797557 0.07322456 -0.09835349 0.067813 0.048705608 0.01828652 -0.06393536 -0.09532502 -0.04143424 -0.06651089 -0.012943703 0.013321909 -0.06499474 -0.056992784 -0.08050229 0.012173338 0.041256662 -0.08545237 -0.10008107 0.0671946 0.008596616 -0.0735485 0.024671879 -0.041447267 -0.09617618 0.004036014 -0.0014528763 0.06355209 0.0619478 0.032516886 0.06863179 -0.048945647 0.061325345 0.05524414 -0.05565986 -0.0673818 -0.008488751 0.07963239 0.07652271 -0.024220496 -0.09270529 0.036753353 0.08291102 -0.0795183 0.044419512 -0.030564936 -0.07924438 0.07553866 0.0540447 -0.091636 -0.031154064 0.050135426 -0.057647303 0.021798152 0.08748802 0.01964965 0.040284228 -0.004617475 -0.016467124 0.08562885 -0.05492536 -0.019342829 0.08771571 0.076522574 -0.007602117 0.03149655 0.07835321 0.053879544 -0.05665683 0.057381645 -0.05186333 -0.05002062
296 -0.012405293 -0.011915952 -0.012543925 0.012607964 0.011927847 0.012630257 0.011098225 0.0033480888 -0.012396276 -0.007606673 0.0019015332 -0.012548629 -0.011667494 0.0074957707 0.009758063 -0.0032238392 -0.012260515 0.011462666 0.011287311 -0.00378314 -0.008962072 0.0014095155 0.003224321 0.012400552 0.0125692645 -0.0031683154 0.0046317475 -0.003476167 0.0123417545 0.0034119126 0.009988857 -0.008743964 -0.012040327 -0.004430086 0.012494959 -0.007792551 0.0005561542 -0.0039996244 0.008111627 0.0020868592 -0.0019494016 -0.01192862 -0.0038537816 -0.011134911 0.002909664 0.009207172 -0.00047727302 0.01042681 -0.012600064 -0.008285923 0.011907851 0.006676004 0.0027028657 0.009247866 0.012428306 -0.0048942403 0.0014755623 0.0035052032 0.0126113575 -0.0048867776 0.008791852 -0.0018929495 0.010812132 -0.010776658 0.00748125 -0.010798762 -0.00376448 -0.00064296555 -0.0115257315 0.0037691907 -0.008046384 -0.0030234563 0.00045102742 -0.0030776802 0.003717298 0.0060951854 -0.0066447686 -0.0037220975 0.004179682 -0.007659345 0.012250999 -0.005585928 -0.009656532 -0.0030913479 0.011690367 0.006847811 0.0074981335 0.0010877447 0.011172904 0.0018086787 -0.009593824 -0.008017197 0.0065570925 0.00953624 0.008651311 0.012077474 -0.004817497 -0.012598523 -0.011274045 -0.0039783586 -0.0031340495 -0.0016845255 0.009603849 -0.0032204622 0.009182557 -0.012547833 -0.011508269 0.012243263 0.00033434853 -0.0031595286 -0.012559258 0.010024518 0.00044759456 -0.012535179 0.0029410366 -0.009455591 -0.0019755382 -0.011441138 0.011087438 -0.010315013 -0.0097456565 -0.0070699565 0.011666768 -0.0021560704 0.010828592 -0.010993667 -0.0037550097 -0.001959945
297 0.07965313 -0.0739342 -0.037257817 0.042632498 -0.077478096 0.016445115 0.016758945 -0.045932837 0.07615803 0.006565153 -0.08320404 0.09826943 0.0038364688 0.030322691 -0.050240587 0.03208505 -0.025945134 -0.04807494 -0.046387866 0.002223635 -0.00012704614 0.0027910667 -0.07628973 -0.047041636 0.056829564 0.0145605635 0.051224858 -0.06026198 -0.094082184 -0.0023313006 0.010008699 0.06641418 0.084599644 0.008313187 -0.007937363 0.025699632 0.035520747 -0.019560967 -0.015866932 -0.07971927 0.06625538 -0.022537261 -0.0038052541 0.0518893 0.0753957 0.00039149076 -0.08066155 -0.009166343 0.0171462 -0.05712887 -0.09186236 -0.0016236203 -0.09124725 -0.07006329 0.06668736 -0.019586463 -0.057158448 -0.013401187 -0.054863732 -0.08002314 0.098200575 0.004638297 -0.09455626 -0.082791366 -0.08347382 -0.049103703 -0.03885252 -0.07854235 0.0433493 0.048618127 -0.022880293 -0.040758245 0.05251401 -0.048867304 0.047890253 0.043298956 0.06475041 -0.05028394 0.0011586263 0.062155493 0.070673496 0.015150551 -0.07499407 0.050388172 -0.080129296 -0.047965378 -0.03545715 0.04166123 0.0598097 0.08939743 -0.005223533 -0.05508543 0.0044784867 -0.03666293 0.076393686 0.02712961 -0.08466807 -0.022328872 0.02220682 0.0307433 0.016296709 0.04362595 -0.042422105 0.041890115 0.09396684 -0.08431902 -0.066036105 -0.021356147 0.07241993 0.025238883 0.016992424 -0.041783653 0.045702524 0.011955869 0.0009881938 0.065149054 -0.08909747 0.04840891 0.052721977 -0.030224897 -0.07518161 0.005545494 0.06344015 0.0657184 -0.03059416 -0.08283763 0.021670457 0.06468382
294 -0.031100055 -0.08385463 -0.0005198573 -0.09510398 -0.046068367 -0.0015559159 -0.0867922 0.071827486 0.0410813 -0.030757057 -0.06263316 0.08385004 -0.029364135 -0.060258456 -0.078795664 0.06889224 -0.0007748911 -0.07077044 0.050170388 -0.013860964 -0.05836729 -0.010614316 0.035846807 0.07780804 0.049674958 0.0016467143 0.035069607 -0.0007573054 -0.0031778691 -0.03412135 -0.08262428 0.050484214 -0.086572625 0.031112833 0.0034799417 -0.048300512 -0.06970836 -0.06519863 -0.032870736 -0.06361163 0.059090562 -0.043787293 0.052540414 -0.01561061 -0.08166817 -0.0807804 0.006964878 -0.05748353 0.0537785 0.0120920595 -0.013542756 -0.048024777 -0.048668407 -0.090369545 0.024410002 0.050698124 -0.02560343 -0.07756782 0.02973315 0.008570389 0.095784746 0.037736863 0.024225637 0.05975638 0.08191317 -0.059093654 0.08087237 0.003148551 0.016240876 -0.0906059 -0.02204056 -0.049506318 -0.0041596787 -0.010722112 0.0777532 0.04223122 0.0926542 0.007840694 -0.047741767 -0.04497564 -0.047130316 0.037437957 -0.049394205 -0.07127133 0.0051376354 -0.012364344 0.07527053 0.08190194 -0.09015221 -0.06549738 0.041249666 0.09232554 -0.05138286 0.059721764 -0.011114598 0.02743614 -0.012238387 0.029849868 0.044752225 0.05287238 -0.07850948 -0.00012036692 0.024954675 -0.024788532 0.0336993 -0.007019696 -0.029895946 -0.099052675 -0.01062494 0.0052350117 -0.009777868 0.08639657 -0.031805456 0.00869716 -0.07827537 0.072804466 -0.03758423 -0.010906845 0.020751864 0.07665166 0.054793455 -0.029231938 -0.0386592 0.042922452 -0.014953421 -0.038511276 -0.016421832 0.03802547
295 0.087521546 -0.011665102 -0.07553312 0.015893575 -0.08984804 0.0990597 -0.052530915 0.07836161 0.0027040439 0.019916145 0.09418148 -0.062222745 0.09479693 -0.022853805 -0.0039378977 0.040479124 -0.04518001 0.042496137 -0.08226691 -0.045359462 -0.01881399 -0.042023946 0.06560063 -0.052412912 -0.09411165 -0.08724815 -0.028291741 -0.022229888 -0.026423149 0.024723385 -0.0134673435 0.07368696 0.0064874142 0.027677849 0.09958406 0.05842404 -0.09830828 -0.056159545 0.021367587 0.096833505 -0.026340507 -0.053753655 0.004262423 -0.06703949 0.0958075 0.039793126 -0.007751301 0.09224726 -0.06408535 -0.08328211 0.058419522 -0.041691713 0.019216549 0.09693988 -0.009290228 0.067922205 -0.052243154 0.061870493 0.0020841388 -0.070352525 0.013948749 -0.05634237 0.09373085 0.07908802 -0.068009764 0.008424711 0.05230625 -0.020497138 0.09515602 0.012155401 -0.009590816 -0.080385864 -0.0021363657 -0.02730684 0.043346837 -0.06067809 -0.017606009 -0.056810465 -0.057366222 -0.018586548 0.014507848 -0.020770377 -0.00738921 -0.048128355 0.018780338 0.083918765 0.07406309 0.076040246 0.009167537 0.070674464 -0.0050417706 -0.044688627 0.059365284 0.04135482 0.04867162 0.07441644 0.054701276 -0.0009088926 -0.07650614 -0.039307788 -0.0044084582 -0.075782984 -0.07963404 0.08217092 0.026996203 -0.002481945 0.062482424 0.092856705 -0.015093985 0.052127264 -0.03267134 0.03944835 -0.02910463 0.013374068 -0.09608349 -0.049984597 0.06849759 0.032083426 0.089411825 0.041434187 0.05923012 0.075011 -0.06775191 0.0056563267 -0.00074488204 0.021946827 0.024686718 0.078810215
292 0.041965246 0.06754978 0.04726946 0.042648464 0.027276976 0.056151707 -0.07584969 0.031176882 0.055792805 -0.08982125 -0.07240948 0.094780914 -0.013430939 -0.054017138 -0.08596888 -0.059006043 -0.06755783 -0.070814 0.08234856 0.014693981 0.018243108 -0.061832234 -0.07864204 -0.051154166 0.03997274 0.018730119 0.018274877 0.030362219 -0.028722938 0.0402174 0.044282548 0.080539204 -0.06179361 0.085468926 -0.02412106 0.021226143 0.061796743 -0.09336771 0.054248564 0.023186054 0.06443007 -0.06858344 0.0062935096 -0.07921779 -0.063053854 -0.0070733745 -0.0184751 -0.04537635 -0.029614385 -0.03793034 -0.04282648 0.0711956 0.04787658 0.096788734 0.03551361 0.0013480168 0.07170227 0.056613874 -0.026087325 0.0066069243 0.07834144 0.00042463932 0.04020718 -0.056985077 -0.06780812 -0.061927587 0.07213828 -0.038437515 0.049724087 -0.039289042 0.067785405 0.041414946 -0.084904805 0.04391118 -0.07523098 -0.062253848 -0.04117313 0.07322954 -0.07526222 0.0020536957 -0.06599555 0.09466025 -0.040761665 -0.0789368 0.049653552 -0.030429624 0.07073712 0.021161573 -0.0924716 -0.06087235 0.05319696 -0.039204177 0.035213288 0.047904905 0.007420747 -0.07083822 -0.050234772 0.0067785266 -0.015028821 0.08749136 -0.037489876 0.051065452 0.008791085 -0.07961764 -0.007880598 0.04591655 -0.075441144 -0.086555414 0.023616143 0.044134945 -0.07744332 0.0072395056 -0.0030591306 -0.06625718 0.03547693 0.024554301 0.07563868 -0.004274159 -0.06451613 0.06889432 0.07375929 -0.014882835 -0.089537986 -0.043559335 -0.07753858 0.071645044 -0.027145842 0.068165764
293 -0.037550516 0.029605031 -0.023534214 0.10004596 0.005058634 0.053411342 -0.012961614 0.03776883 0.07566449 -0.04573972 0.045501858 -0.07261973 -0.08238812 0.09868574 -0.0831245 -0.022822991 0.058975436 0.09186926 -0.015355181 0.10040257 0.05641766 0.008190088 -0.04036546 -0.080940366 0.07280436 0.054990835 -0.03492673 -0.040887624 0.07630064 0.060286034 -0.0118486555 0.05302265 0.05415444 0.09282237 0.008713514 -0.018979676 0.09137008 0.02685251 0.024477663 -0.009286148 0.06312309 0.003328316 -0.019848658 0.07742766 -0.06119389 0.09101735 0.015663888 0.04855088 -0.040581148 0.062287405 -0.059710495 -0.08684675 -0.014066845 0.043023694 -0.053096693 -0.009491792 0.014664879 -0.07471125 0.051697966 -0.069109604 -0.009739547 0.020486802 0.017849501 0.016247302 -0.08822727 0.08735079 0.016778056 0.05407353 -0.090937 0.062633656 0.063478395 0.070697345 0.013564052 0.042458773 -0.0128414845 -0.062232584 -0.0034911586 0.015874784 0.00029514357 0.09227115 -0.0045029735 0.058942728 -0.057516817 0.029432757 -0.075330615 -0.0055121584 -0.05956676 -0.019669693 0.047550403 -0.06947701 0.009515808 -0.03490089 -0.038345017 0.03409967 -0.039851643 0.0004927453 0.014349348 -0.036647875 0.060145263 0.099096 -0.0043965084 0.04139321 0.09991106 -0.026778612 -0.05253891 -0.015995894 0.047313027 0.010515902 0.05371125 0.001136451 -0.025920425 -0.0020413501 -0.06400097 0.08431827 0.07603879 -0.05681094 -0.072052434 0.076336905 0.0009088656 -0.038855832 0.09455168 0.025637371 0.08555147 0.06626174 0.050012983 -0.07851201 0.024051432 0.0566854
290 -0.04949335 0.0056938617 -0.035890367 -0.08364648 0.06255731 -0.056987904 0.086422935 0.026575472 -0.045658782 0.08233023 -0.0288486 -0.07708746 0.0021692328 -0.010515437 0.049511585 -0.034511335 -0.07557986 -0.04470362 -0.086455874 0.00080100354 -0.05228816 0.029676117 -0.0346909 -0.05467837 -0.054651342 -0.08487779 -0.009160925 -0.033131067 0.049022406 -0.056986965 0.0816566 0.0041868743 -0.057948157 0.0414701 -0.07651598 0.06121342 -0.07307656 0.043398805 0.012884483 -0.043982152 -0.02606707 -0.08692073 0.0480488 0.0033497317 -0.052862845 -0.017616002 -0.04042685 0.08353056 0.01894069 0.089021884 -0.043394446 0.06142219 -0.054719254 -0.022425476 0.0670213 -0.025710749 0.023547392 0.025616944 -0.007058315 -0.08346598 0.0711042 0.030784212 -0.0021695495 0.021746093 0.05827194 -0.0059921956 -0.06467168 -0.069219545 -0.09590756 0.032152724 -0.02226738 -0.027265765 0.07556673 0.029797086 0.09738765 0.043952744 0.06340503 -0.053446632 -0.083835945 -0.06488133 -0.03229296 -0.023249734 -0.069431946 0.013163374 -0.08613074 0.040571056 -0.07842957 -0.02888538 0.05414016 0.092042506 0.024584793 -0.06513643 0.036192812 0.016698398 0.098042324 -0.02436775 0.008956878 -0.054677483 0.0031876324 -0.03565438 0.041178066 -0.008569516 0.0806011 -0.0434971 0.09570252 -0.04282544 0.052208304 0.07115636 0.033269685 0.055797018 0.08948416 -0.06878358 0.046822585 -0.09140252 -0.08424719 0.046591014 -0.07900111 -0.0040740734 0.055348 0.0649986 -0.032753594 0.019253492 0.040807657 -0.020310124 -0.089624695 0.051285602 -0.03485098 -0.062838525
291 -0.013823289 -0.07160781 -0.0059986236 -0.04941375 -0.07956076 -0.059033886 0.052621 -0.014874962 0.038787343 0.07328252 0.061922133 -0.09658321 0.06409764 -0.0580776 -0.05764126 -0.05044171 -0.060712717 -0.052032467 0.047762163 0.030357108 0.04652361 -0.039467063 -0.06492467 -0.024264216 -0.023632146 -0.051675558 -0.068965085 0.035164785 -0.022458911 -0.02729673 0.07800399 -0.08171408 -0.038303547 0.05414556 0.08294884 0.009490786 0.08381863 -0.079001255 0.070485175 0.0022846106 0.021517903 0.07442633 0.083422594 0.007920639 -0.02253602 0.02756523 -0.026182972 0.059957586 -0.048687555 -0.082815446 -0.097697675 0.053619124 -0.030139264 0.084574975 0.04748123 -0.0052586026 -0.007560974 0.044163264 0.08760955 -0.068592474 -0.06791273 -0.010952199 -0.08173095 0.04203328 -0.05667709 -0.03280735 -0.08646151 -0.0070712 0.053051583 -0.07855257 0.06813602 -0.017827189 -0.011194609 -0.024215674 -0.010711307 0.04146321 0.064294204 0.042082388 0.014931006 -0.030786123 0.07489208 0.079143256 0.051582042 -0.08961735 -0.05121486 0.015743753 0.08778149 0.084715 0.042008687 0.027841646 0.029314924 0.05328873 -0.02566189 0.028604228 -0.060123947 -0.08861522 -0.06887887 -0.094295934 0.0719915 -0.042030968 0.016673468 -0.051110573 -0.07515372 0.06333063 0.068536825 -0.04597372 -0.06717568 0.08199122 -0.06929361 0.09665944 -0.009883107 0.06592959 0.057155795 0.04628629 0.070582144 -0.047160037 -0.026472175 0.050735917 0.0013170983 0.038572945 -0.0006831221 -0.051975 0.07164567 -0.0664414 -0.07718 -0.051596593 0.08018072 0.07598158
270 0.016916607 0.067981474 -0.020514337 0.03216147 -0.03701282 0.07982766 -0.09754816 0.04396849 0.0826573 -0.03792529 0.05957473 -0.063051775 -0.029177248 0.06412082 -0.031621914 0.0059670084 0.06882726 0.073440105 0.03692884 0.098979086 0.07605444 0.06706031 0.0022691488 -0.009131674 0.012653764 0.026076246 -0.08591927 -0.09114626 0.062030315 0.032944866 -0.052263346 0.074568726 0.025458101 0.019183397 0.03274182 -0.05836951 0.0909453 0.03338898 0.0032328945 0.009823186 0.045306858 0.05555268 0.010803027 0.02996909 -0.07911678 0.01596142 0.0911778 0.05466988 -0.0047678584 0.035794944 -0.051118016 -0.09824534 0.0035353238 0.01742579 -0.09433799 -0.023843769 0.048822705 -0.033742387 0.06098013 -0.071016975 0.06610466 0.06610673 0.05729534 0.083283365 -0.053060643 0.09973437 0.088745706 0.07645231 -0.032350946 0.006814814 0.025192132 0.023644032 0.012579939 0.07790664 -0.062748246 -0.041779958 -0.09285404 0.080312826 0.01598509 0.00976239 0.022537924 3.356859e-05 -0.0027695852 0.079295844 -0.08417615 -0.01740222 -0.08764932 -0.07679432 0.08650276 -0.05249307 -0.021600408 -0.04358972 -0.09597785 0.06789747 -0.077667974 0.053484887 0.06982466 0.009979745 0.04173997 0.061934687 -0.031022038 0.087503865 0.08711767 -0.10050013 -0.039502155 0.027628157 0.086296335 -0.017578432 0.0037310775 -0.06892453 -0.011697255 -0.079304494 -0.026399998 0.007622157 0.049739175 0.008614966 -0.09165965 0.039602414 -0.023540867 -0.089975975 0.039414503 0.0076800706 0.05864713 0.08555512 0.08155773 -0.09828776 -0.038990825 0.071825676
271 0.062254734 0.049555752 0.09760568 0.029772885 -0.050016552 0.08467231 -0.026740223 -0.08154087 -0.08059413 -0.06270033 0.011542108 -0.006105247 0.082100205 0.074364565 -0.011567028 -0.055891633 0.07616018 -0.048450932 0.06073967 0.021735769 -0.08179889 -0.058351353 0.038237758 0.055488937 0.017618971 -0.075801566 0.055407867 0.04487778 -0.092335746 -0.034942605 -0.075374365 0.0739529 -0.038386155 -0.044687778 0.026832895 0.0051275175 -0.060995944 -0.074294634 -0.09047426 -0.027019493 -0.04393865 -0.09243389 0.04572241 -0.024785638 0.025314046 -0.05182775 -0.08589275 -0.04823558 -0.012423633 -0.04690422 -0.08043931 -0.08500169 0.00027136202 0.0064186547 -0.09490894 0.042690583 0.06849163 -0.060050555 0.056918927 0.009623154 -0.031111192 0.05828343 0.09649266 0.004827233 0.09069084 0.08125028 0.046253674 -0.04134444 0.0436163 -0.017169423 -0.0071561392 -0.04475693 -0.09177001 0.030100202 0.06345607 -0.0462 0.0607337 -0.0011119731 0.028454222 0.005726875 0.08917603 -0.016058555 -0.063086085 -0.04486946 0.09330045 -0.062222425 0.078976244 0.015866742 0.08935959 -0.028400507 0.009652999 0.03581008 0.08019947 0.058130037 0.0028004195 -0.06623005 0.030528946 -0.013114937 7.645227e-05 0.04093601 -0.02183783 0.06524953 -0.025637832 0.05459201 0.08375045 0.08359433 -0.07009748 0.028639136 0.054431986 0.06147376 -0.06766524 -0.053487074 0.023424327 0.015496194 -0.010859508 -0.024196092 0.08446605 -0.023535714 0.025564045 -0.049433842 0.08355421 -0.038316052 -0.0326571 -0.0054825284 0.04265301 -0.09737154 -0.02342631 0.03284595
272 -0.018445184 -0.07983542 -0.059419855 0.056789905 -0.008630026 0.07315689 -0.007534544 -0.025244389 -0.0011743614 0.07130876 0.03434775 -0.021003693 0.02681138 0.010686208 0.03403777 0.00064846873 0.058468327 -0.006873402 -0.00024208473 -0.07054126 0.082244754 0.017064784 0.08463157 -0.09145464 0.042315256 0.09695233 -0.024282306 0.033088483 0.079459935 0.043287907 0.07670257 0.045636002 -0.008491711 -0.089984015 -0.07193945 0.071366474 0.05295656 -0.06478665 -0.005990252 -0.100118585 -0.07022166 0.015579806 -0.05277912 0.037056208 0.01898219 0.03803231 -0.026676029 -0.074758336 0.06774518 -0.038622107 -0.035111565 -0.023721624 0.09853549 -0.06941706 -0.052600294 -0.08273272 0.004225537 0.011839195 0.0768248 -0.008021341 -0.053636257 0.042752285 0.05856664 0.09146053 -0.006957717 -0.015471017 0.0931203 -0.0020974139 -0.07803256 0.015187173 -0.09666288 0.092763565 -0.060747784 -0.0403234 -0.013226378 -0.008585491 0.014537645 0.0054027466 0.01722676 0.016385265 -0.035171777 0.0031345948 -0.005483892 0.041810784 -0.0023751445 -0.016528115 0.07009201 -0.09562544 0.09347422 -0.03520231 0.087761894 -0.07488308 0.012219453 0.02720309 0.030104555 -0.097484894 -0.039017126 -0.0023333495 0.008299166 -0.04878281 -0.048605718 0.057976786 0.06667674 0.027069855 0.00042314176 0.001368897 -0.045447856 0.012667775 0.0023695128 0.04733512 -0.0015206458 0.0934024 -0.06155475 0.04360589 0.02171977 -0.093713954 0.08344596 0.00907216 -0.06182524 -0.018786527 -8.9475885e-05 -0.01827409 -0.055912226 -0.056710437 0.009574833 0.021434154 0.098865315 0.04469569
273 0.049066033 0.0732664 -0.0018892895 0.025152279 -0.06599823 -0.0047753174 -0.074383534 0.08829878 0.07416573 -0.039534207 0.004985121 -0.024911033 -0.026828136 0.030858196 -0.03770122 -0.046966746 0.008519379 0.06003259 -0.02044462 0.037496164 0.044108696 0.073107935 -0.021923833 -0.04075642 0.096588224 -0.0020335047 -0.089403115 -0.055449378 0.04949961 0.008810752 -0.046251684 0.045380354 0.049097564 0.06240196 0.07297155 -0.06734508 0.08602515 0.027068373 0.011055658 0.026046377 0.035892293 0.031777926 0.071942426 0.085771225 -0.038137324 0.025995567 0.022071794 0.020420164 -0.051561855 0.011449327 -0.09248053 -0.052390542 0.04104422 0.08814057 -0.032225344 -0.051617473 0.09303738 -0.070725456 0.042182446 -0.04657785 0.008659375 0.08860881 0.013128517 0.079089925 -0.03802918 0.038753636 0.08279672 0.031572737 -0.09419637 0.0032062852 0.09141275 0.027792942 -1.7576473e-05 0.05193325 -0.0061960556 -0.06689075 -0.0214433 0.085925415 0.09024777 0.06913772 -0.026104042 0.03637812 -0.029948954 0.05087587 -0.088668 0.03028312 -0.100173816 -0.041496366 0.07906707 -0.012380088 -0.019613117 -0.01872934 -0.042984895 -0.025130954 -0.08480699 0.03856784 0.04853164 -0.04880406 0.010956668 0.09586536 -0.020386532 0.04387092 0.023299498 -0.046370614 -0.036911257 0.05666336 0.07128286 0.021166964 0.06266613 -0.03749055 -0.09880679 -0.02853737 -0.061180323 0.04042964 0.045516632 -0.008032074 -0.08878837 0.038726747 -0.08387794 -0.086148575 0.07140755 0.06316867 0.06778853 0.08463445 0.088088654 -0.018771503 -0.042589948 0.01834495
274 0.0007850549 -0.0006471798 0.0034324364 0.0029520513 0.00794253 0.0019775815 0.012355592 -0.0028756484 0.0031887225 -0.0030517972 -0.0015372525 0.003916681 0.012424922 0.011350142 -0.0121614775 -0.012480933 -0.002657544 -0.002678248 -0.0020762298 -0.0021407045 -0.004648942 -0.01122322 -0.0019641798 0.007690968 0.003582015 0.0060952487 -0.0024090474 -0.00043618772 -0.007960353 -0.0044874125 0.012070054 0.009772914 -0.006766081 -0.0014318957 0.0028728193 0.008541037 0.01196748 -0.012343746 -0.0015418557 0.0084356945 0.0065291603 -0.011993327 0.010353576 -0.0050733173 -0.0116594555 0.002195651 0.0054950803 -0.00052419025 -0.010391613 0.0037157733 -0.0047283545 -0.0042106924 0.0094628325 -0.010804006 -0.004571506 -0.004419191 -0.005771519 0.0044760182 -0.0033322065 0.006155588 -0.012598155 0.008147486 -0.0018075211 -0.007899792 0.012046214 0.002633219 0.003303906 -0.00055090245 0.009370378 0.012387481 -0.011516493 -0.0072528585 0.012283929 0.0028486624 0.011423104 0.0123722125 -0.00438143 -0.0016243171 -0.0035766615 0.0028860169 -0.0028964186 -0.012599786 0.012181402 0.0027259665 0.008959962 -0.003117505 0.012459774 0.007098999 -0.0036157968 0.007623371 -0.010903064 0.011148065 -0.006012863 -0.0048738346 -0.012321646 -0.0112427045 0.0032357036 0.012619329 -0.0068874983 -0.0039747283 0.0027777208 -0.006216774 -0.012624435 0.0016535362 -0.0036058018 0.008867374 -0.01257451 0.0065158517 -0.0027885986 0.011731452 0.0036615157 -0.012630411 0.012313483 0.009000747 0.011840454 -0.012318866 0.004873491 -0.0022720122 0.012626239 0.0043440005 0.004218888 -0.010411123 -0.003774939 -0.012069472 -0.0035036597 0.0031276848 -0.0031601153 0.0034691328
275 -0.070502125 -0.024491418 0.06647337 -0.0043629394 -0.052073453 0.055482134 0.056844134 -0.023018695 0.058348566 0.03043282 0.05173696 0.0086483145 -0.020828929 0.042945407 -0.029674683 0.06288952 -0.097155936 -0.045803558 -0.06148977 0.05541227 -0.054184042 0.0012294715 0.012549702 -0.016660836 0.024598975 -0.05975622 -0.033369515 -0.039831672 0.09934101 0.076855525 -0.012219211 -0.010573875 -0.060353845 0.058354262 0.06372289 0.053976364 0.017217312 -0.06131298 -0.06493364 0.08137563 -0.06895683 0.002981714 0.08071406 0.08984471 0.05302514 -0.09940152 0.025733592 -0.01128371 0.033551037 -0.043110043 0.05099605 -0.06657651 0.0043607214 0.019445278 -0.0949749 0.09581529 0.062778495 -0.018128764 0.08367142 0.07168777 0.091251105 0.046190158 -0.036148854 0.04733038 0.054379962 0.023972286 -0.0017118556 -0.03633546 0.078164816 0.05061432 0.06566097 -0.059012048 0.04496616 0.099160545 0.08032733 -0.061363243 -0.04019572 0.09110146 0.04555825 0.0274127 0.008802035 -0.0030143673 -0.073883474 0.09536547 -0.04435082 -0.047528844 -0.059112065 0.07966803 0.054861143 -0.056086607 -0.0960671 -0.009215036 -0.042350613 0.0744828 0.013611216 0.065499276 -0.051750842 0.022930792 0.055478837 -0.025724052 -0.08257112 -0.039895624 -0.028436475 -0.050045256 -0.0144845005 0.033049736 -0.06563699 -0.08980721 0.09185949 0.07256639 0.0648315 -0.029993998 -0.084503934 -0.035007503 -0.012405223 -0.05700429 0.012873081 0.059931193 -0.06404577 -0.001296449 -0.03298434 0.04543194 -0.038198978 -0.012756072 -0.002832003 -0.07515009 0.042746138 0.019292735
276 0.052062683 0.010285478 -4.6194764e-06 0.002193789 -0.042996198 -0.011537948 0.027569808 -0.095968604 0.075472794 0.029093906 0.02267716 -0.051458105 0.055207063 -0.074951425 -0.026862523 0.037820574 0.0794206 0.085715234 -0.08349626 -0.085495636 -0.030513298 -0.016714022 -0.046296954 -0.0866899 0.007743417 0.072297156 0.0014660377 0.049498703 0.07321635 -0.047239557 -0.07769884 -0.06414568 -0.098584056 -0.071882375 0.04237372 -0.014132852 0.045551736 0.00070390967 0.021092255 -0.0063573644 0.033889398 -0.06942488 -0.0004087584 0.07073699 -0.02589753 0.09316081 -0.02924567 -0.06732581 0.07302554 0.085448585 0.003841109 -0.07853829 0.047621287 0.09629803 -0.017704464 -0.04851765 0.0040564598 0.031966563 0.09930183 0.073031336 0.057114433 -0.04045578 -0.070008494 -0.013820438 0.05031172 -0.061829768 0.06185161 0.0712775 0.062499665 -0.09177908 -0.0828595 -0.06040457 0.026800184 -0.04569464 -0.0906503 0.07271401 0.053817526 0.052420698 -0.010602732 0.040737346 -0.005250575 -0.008351766 0.09743893 -0.0233422 -0.037443407 -0.010481295 0.07041985 -0.06810219 -0.010382792 0.018294875 -0.0141660785 0.04429885 -0.07648984 -0.001073583 -0.051561333 0.035817333 0.08335629 0.08917522 -0.05745048 0.015175165 0.0072996584 -0.030900922 0.057177074 0.06828857 0.08633583 -0.04386265 0.04846968 -0.00078337826 -0.065493055 -0.012442093 -0.050962508 0.010608845 0.01712811 -0.034719497 -0.044668015 0.03473952 0.00035292283 -0.07980978 0.07048333 0.03631392 -0.0639771 0.011496659 0.036807694 -0.045195 0.056577154 -0.07907228 0.038270455 -0.097401485
277 0.050876476 0.00026747212 -0.030073225 -0.001986417 -0.033767935 0.0010585459 0.07588632 0.0226777 0.005277197 -0.025534907 -0.060899213 -0.00092601497 -0.04690274 0.035500627 0.07158891 0.036597036 0.065220244 0.01707336 0.001592001 -0.049993303 -0.07543032 -0.046908274 0.06284775 -0.064837195 0.093050115 -0.03751846 0.08674012 -0.006376869 0.024231497 -0.050557084 0.0120026525 -0.024457388 -0.047343932 -0.062236857 0.017153129 -0.023593305 -0.03391749 -0.085321315 -0.03320719 0.0007879436 0.028960358 -0.033943474 0.035213314 -0.026194815 -0.059671886 -0.0615113 -0.09728097 -0.0014078263 -0.029967088 0.08510989 -0.039522145 -0.08393668 -0.05680091 0.04923027 -0.009955729 0.027655989 -0.07708991 -0.02500368 0.09201912 0.020337604 0.08778924 -0.006916669 -0.043879263 -0.021174386 -0.02402364 -0.07279193 0.09165088 0.045347452 -0.003921405 -0.00899926 -0.0141692795 0.031538054 0.08291543 -0.042448975 -0.0063987384 -0.08634274 -0.09398647 -0.020194497 -0.04990743 -0.08485124 -0.0314446 0.079473324 -0.07535835 0.046574526 0.089113824 0.026305597 0.058517054 0.06624491 0.0064156204 -0.025027452 0.07374881 -0.069860555 0.084930874 -0.027952991 0.05102911 0.040257316 -0.028402809 -0.097902335 -0.0043039816 0.0645034 -0.095036454 0.038520936 0.051295772 -0.04140891 0.038733996 -0.003206863 -0.07975398 0.019356081 -0.055210616 0.09118639 -0.056154154 0.065547414 -0.06884346 0.009756192 -0.043058086 0.0910846 -0.039841488 -0.02980672 0.09709523 0.09151732 -0.05155449 0.0062097516 -0.061911818 0.079818696 0.0037497496 0.04164109 0.092213556 0.047209274
278 -0.088933244 0.00026472937 0.02353629 0.096129455 0.074253425 -0.0066023367 -0.035890065 0.011512794 0.0031340765 0.00044792844 0.08811263 0.063892454 0.03794205 0.08434712 0.06279387 -0.091034964 -0.0053434568 -0.09504574 -0.0037943935 0.01781324 0.014821542 -0.025540173 -0.08604234 -0.008251843 0.020206938 -0.027303256 -0.01604551 0.04891131 0.06812168 0.059964985 0.03822159 0.03479801 0.04946467 -0.03600891 -0.04432184 -0.003726405 0.0761339 0.035344116 0.04701054 -0.00036457367 -0.053816225 0.006680455 0.017255649 -0.00712712 -0.035136666 0.031254537 0.014683148 0.008325113 -0.024588097 0.00046719518 0.035195436 0.075700514 -0.04139015 0.032556873 -0.031500436 -0.06156408 0.08667701 0.03411375 -0.04912966 -0.046091612 0.061953023 -0.094422 -0.07193357 0.00064724823 0.051403016 -0.050798874 0.029424362 0.056572374 0.036877804 -0.07831779 0.040435813 0.01027062 -0.018209564 0.07336884 0.0043227077 0.042576123 -0.015024779 -0.038503308 -0.018302437 -0.0062572043 -0.024530876 0.06875485 -0.011952889 0.005185493 0.08279467 -0.07838533 -0.07968133 0.055239633 0.08249693 0.059600603 0.083121255 0.049798857 -0.08789189 -0.024959635 0.07878142 -0.0538735 0.022094302 -0.03562457 -0.051968485 -0.06849854 -0.031789996 -0.05130113 -0.053936355 0.013222097 -0.008564262 -0.041945145 0.06589669 -0.050982207 0.001749035 -0.06476901 -0.08178859 0.06529657 -0.018781848 -0.09597739 -0.09427246 -0.056915753 0.018519636 0.081016146 -0.03236353 0.002238891 -0.021436386 0.047896314 -0.02590219 0.059534017 -0.03910372 -0.032732245 0.0037566125 -0.06465187
279 0.0008737873 0.09143155 0.014010017 0.006295815 0.07786902 -0.058796532 -0.0041066967 0.07352802 -0.036446944 -0.050960526 0.05958088 -0.047411095 0.0790772 0.008984281 -0.029082185 0.054684747 0.047213767 0.064531855 0.0044374717 0.008513313 0.02142518 0.083945304 -0.086317465 0.053707376 0.0051028794 0.0738818 0.0542281 0.031033708 0.026966944 -0.02591969 -0.070589 0.010049913 0.052313708 -0.061184503 0.029913869 -0.016578391 -0.08418548 -0.03024679 0.034862533 -0.070169605 0.045805685 -0.060437575 -0.037854742 0.0060808132 -0.043511868 0.005292607 -0.079864696 -0.083061025 0.09323716 -0.08380947 0.043288276 -0.07315372 0.030715348 -0.09494862 0.0023149233 -0.08320187 0.035253473 -0.025052143 0.088071615 0.05549093 0.093025476 0.08647707 0.0344846 0.016655335 0.031276353 -0.09738933 -0.056859903 -0.011824805 -0.06406705 -0.05100338 -0.06758107 -0.050947204 0.03051475 0.08966 0.028539106 0.003719592 -0.04136644 0.05179028 -0.08548799 0.07116763 -0.04312129 0.042698648 -0.01914769 0.04385021 -0.068723045 0.024481911 -0.02348736 -0.018564634 0.08397319 -0.08616897 0.03763634 -0.082606114 0.0920182 -0.0110714445 -0.013201705 -0.072429396 -0.08731864 -0.008283319 0.081885785 0.050983507 -0.08864193 -0.033191565 -0.055966467 0.09072494 -0.08476409 -0.07253884 -0.097585365 -0.0065881014 0.09961517 0.07119003 0.007542016 -0.047490817 -0.068477355 0.08839133 0.01851434 0.05493626 0.03281566 0.040465288 -0.0848576 -0.058727697 -0.08673048 -0.02379826 0.022252673 -0.04082494 -0.015215505 -0.032901376 -0.093838096 -0.09624455
1004 0.09925932 0.07945777 0.06446422 0.005900828 -0.0022830213 -0.048935346 0.06355292 -0.093533926 -0.017104838 -0.05223732 -0.05013936 -0.091053426 -0.03240489 0.021429162 -0.012529775 -0.028129665 0.02109192 0.015624585 0.092365995 -0.039189447 -0.028372666 0.06535934 -0.07310451 0.08821584 0.089233115 -0.053216927 0.09287389 -0.057318106 0.04337539 -0.018345729 0.0504651 -0.010401459 -0.011700749 0.0029552896 -0.0065141944 -0.016483856 0.008472065 -0.005380237 0.04579271 -0.0041154106 0.04618007 -0.0645556 -0.06412822 0.023642458 -0.08361345 0.07339667 0.06270374 0.026984252 -0.007559543 0.028434575 -0.030538179 0.04979652 0.0941022 0.045617424 0.060858376 -0.089557774 0.0045484127 -0.06641421 0.034306828 -0.009648477 0.047368035 0.01177894 -0.01383303 -0.027855996 -0.09022034 0.03584125 -0.012129372 -0.09984325 0.06454152 -0.00838 0.054006316 -0.007522903 -0.018029902 0.057297014 -0.01784275 0.03438338 0.0022792227 -0.07962489 0.05249296 0.015458034 0.051953427 -0.08928596 0.04295082 0.0010595899 -0.05299478 -0.06628783 -0.07498697 -0.057239205 -0.02841708 -0.015010789 -0.08022487 -0.08928921 0.01971652 -0.08890782 -0.013427035 0.061207693 0.03376776 -0.07833899 0.026964296 -0.046930306 0.070579864 -0.04908803 0.047447868 0.08513703 -0.020840405 -0.019147698 -0.08562698 0.028987527 0.06261714 0.08413295 -0.093315646 -0.03937594 -0.090199426 -0.037440207 -0.09124277 0.09021966 -0.086570084 -0.06605441 -0.0001796037 0.0630165 0.07906688 0.0128864795 0.091492325 0.009000881 -0.049057454 0.0001331889 -0.07911588 -0.08932096
108 0.098379254 0.03333912 0.054068122 0.06007123 -0.034267806 -0.039047677 -0.06385215 -0.04258916 -0.017222421 0.044376645 -0.09471823 0.012155092 0.010411466 0.016379636 -0.03839267 0.04781517 0.09232146 -0.0015044452 0.091532685 0.041480716 0.060991354 -0.003383248 0.09237218 0.025139935 0.034665965 -0.040410567 -0.09186329 -0.021854289 -0.03588303 0.066630736 0.075315624 0.08650557 0.08011706 0.027317882 -0.006210382 -0.06369052 0.018066978 -0.016517922 0.0043981727 -0.019371364 0.04641571 0.051285557 -0.03089777 -0.062249534 0.08345272 0.01568042 -0.06689947 -0.08859449 -0.08162696 0.10028352 0.0667097 0.08536194 -0.029582042 -0.007042027 0.00013139658 -0.023449425 -0.026081402 -0.03561801 0.045288738 -0.05216867 0.028019762 -0.05109103 0.057261553 0.0015506884 -0.002954729 0.00079053733 -0.09918728 -0.05803009 -0.028181775 0.0465534 -0.09385611 0.015944391 0.029180469 0.047461487 0.05507077 -0.040307924 -0.03086097 0.08152989 -0.006295941 -0.055976827 -0.096001424 0.048388503 0.036947258 -0.029302271 0.040463626 0.018784953 -0.033403806 0.012031648 0.040536556 -0.034947187 0.06540497 0.030219518 -0.01980865 0.09785716 -0.0108309155 -0.017201202 -0.08479318 -0.08329186 0.0010937024 -0.035054617 0.05878199 0.015628885 0.071401685 0.02040106 -0.029365815 0.034708083 0.013531864 -0.040157113 0.08102018 0.048835002 -0.03555836 -0.07690223 -0.038719174 -0.044001035 -0.067851596 0.09111217 -0.062282827 -0.07740286 -0.06955005 0.054108907 0.00076351874 0.05596384 -0.05235959 -0.04634978 -0.08823654 0.01612994 -0.029464765 0.052435346
109 0.058401525 -0.002810129 0.047184378 0.050234005 -0.013430081 0.029676892 -0.058775056 0.03745012 -0.046710495 0.04901382 -0.05538322 0.014710915 -0.01834918 -0.06310229 -0.044901486 -0.0048889164 -0.045259267 -0.03839194 0.057364985 -0.019290037 0.041747045 -0.08846019 0.017674249 0.050229847 -0.08573162 -0.025436407 0.058867637 0.08459073 -0.08819958 -0.0013678025 -0.088605694 0.024415068 -0.032692857 0.013419645 -0.044298783 0.06905492 -0.037122883 0.040489618 -0.06806773 -0.0545381 -0.01766586 -0.050483137 0.021042472 0.035417687 -0.09061811 0.0045865737 -0.0072713722 -0.07130383 -0.03555654 0.013719368 -0.051606543 -0.057900663 -0.0026122779 -0.0130407605 0.0023666173 0.016404562 -0.08491519 -0.06321381 -0.05706546 0.039476868 -0.03547683 0.016777739 -0.0078090974 0.04089033 0.063538514 0.05464521 0.019616758 -0.026891619 0.026570069 -0.07240782 -0.028541207 -0.026491554 -0.017112803 -0.017098654 0.052390825 0.09061264 -0.08892931 0.093642764 -0.05295902 0.07682885 0.074711904 -0.010702208 -0.027000617 0.007400494 0.032997742 -0.08273929 -0.040263448 0.007226228 -0.06425297 -0.047429334 0.06017349 0.028150834 -0.0118676815 0.049870417 0.09049722 0.036280263 -0.070402466 -0.0956075 0.099898584 -0.054971386 -0.023266958 0.024290282 -0.0067905895 -0.05642912 0.009570841 0.011640862 0.024984222 0.005012881 0.015397888 0.0061776983 -0.00958052 -0.08262055 0.044793032 -0.033445824 -0.08852685 -0.015725037 -0.05413445 -0.012998344 -0.037995648 -0.06930969 0.01572546 -0.01232021 -0.04761031 0.012650108 -0.068360396 -0.038957663 -0.0040091206 0.012432597
102 0.07588366 0.069787726 -0.014815941 -0.029709985 0.080563225 -0.0026740255 -0.0006551543 0.089821905 -0.047814462 -0.044180527 0.09101705 0.035649862 -0.07109839 -0.03409841 -0.09092324 0.047838815 0.074612394 -0.051880926 -0.000640532 -0.05792731 -0.011069829 -0.042275053 0.0041241352 0.062333062 0.07228391 -0.078747705 -0.029329903 -0.032674108 0.02090953 -0.04509151 -0.08816284 0.025066644 0.017594164 0.03377551 -0.05408699 -0.069672704 0.016544921 -0.014215098 0.033539034 0.0032744305 0.0555408 0.005670663 0.0536787 -0.09060894 0.061542597 0.07594139 -0.04157769 -0.03625565 -0.0387085 -0.035403136 0.047738515 -0.016975787 -0.09973919 -0.08532447 0.017349182 -0.0075301654 0.045217425 -0.008483106 0.011788342 0.009949165 0.05690828 0.013255965 -0.014292279 0.012247904 0.09415966 -0.015620379 0.04612842 0.019205084 0.06706663 0.030733295 0.008992266 -0.0021677287 -0.07808733 -0.07516906 -0.07567645 0.07937196 0.07181099 -0.004143563 -0.043338556 -0.077528074 -0.02398623 -0.02861067 -0.051828302 -0.019545984 0.027708346 -0.05010636 -0.047826968 -0.030547103 -0.070306785 -0.04743972 0.0012986399 -0.032030933 -0.037350193 -0.009153048 -0.03693957 -0.060357567 0.044148847 0.069759294 0.057150975 0.05447191 0.004793936 -0.00021980144 -0.0056135086 0.038015522 -0.021410495 0.06972201 -0.07893675 -0.015908733 -0.060335416 -0.00026463158 0.09975789 0.04057977 -0.010701405 -0.076055564 -0.01287818 0.05098521 -0.09415878 0.0019518035 0.008824256 0.053865504 -0.039002273 0.07637854 0.021170685 0.039804883 -0.05781041 -0.09477556 -0.006754173 0.069918826
103 0.0932077 -0.08469481 0.091174826 0.036119573 -0.06563702 0.081472516 0.073201545 0.020811774 -0.096719205 0.011756534 0.007318342 0.004097429 -0.07835636 -0.04384305 0.03380059 -0.050038856 0.058387112 -0.048979014 0.051081885 -0.021939801 -0.019581024 0.073696606 -0.007747675 0.063635185 -0.03538772 -0.09576897 0.051815286 -0.00031204894 0.02904369 -0.062465608 0.055178616 -0.04855278 -0.0032806657 0.020614546 -0.08559461 -0.0648625 -0.043783817 0.0401061 -0.051527437 0.0849876 -0.054737587 0.011628543 -0.0993763 0.06005428 0.00031004567 0.014276477 -0.06320438 0.05940963 -0.05070844 0.045320585 0.071231455 0.07111663 -0.015155407 -0.07481895 0.04464382 -0.015343748 -0.013971287 0.08075615 -0.07898887 -0.06747254 -0.048979748 -0.09598871 -0.038991503 0.09015835 -0.054250795 0.00082741166 0.04950723 0.079863 -0.07909323 0.009541584 -0.019633025 0.057792477 -0.019665487 -0.065958984 0.07395896 -0.083039925 0.061243873 -0.050462134 -0.06800157 -0.013438405 -0.09698473 0.077159844 0.078965425 0.042973492 -0.07637661 0.0052894643 0.09262732 -0.07936673 0.065966666 -0.063677505 -0.09990341 0.09810093 0.009375581 0.08968808 -0.025869703 0.050517008 -0.05505988 -0.08355705 0.048539314 0.08299643 -0.068474576 -0.08184838 0.07473381 -0.023718398 0.034939308 0.08686005 0.010454853 -0.0133190295 0.00962459 -0.028846 0.00079901516 0.033197895 -0.0856534 -0.07469213 0.041016642 0.099955805 0.07984084 0.03553117 0.008760058 0.003415426 -0.022824582 0.07749305 0.05350856 0.021728769 0.048267744 -0.076106355 0.08757708 0.05184499
100 -0.07083195 0.054194197 0.069581494 0.06530127 -0.074251786 0.027053855 0.08593488 -0.03411818 -0.025712103 0.023555629 0.025460154 0.051600035 -0.012830541 -0.08741751 0.062031604 -0.08863164 0.0715406 -0.03715475 0.000119797885 0.05361009 -0.076014996 -0.044478267 -0.053615198 -0.0700378 -0.014271965 -0.025836727 -0.05408166 -0.04813064 -0.051998124 0.010757922 -0.03617134 -0.0470193 -0.011999007 0.054802556 -0.084364176 -0.059321027 0.09443478 -0.070930086 -0.0117775705 0.083232485 -0.024910808 -0.06730717 -0.010922332 0.052202564 -0.0070529366 0.0048838607 0.0029574493 0.00030350313 -0.04331272 -0.076012924 -0.0077018016 -0.025653008 -0.013168626 0.07613149 0.023912143 0.09644885 -0.04681301 -0.05288475 0.05026529 0.0419373 0.057130136 0.057446815 -0.06759762 0.008037963 -0.04779937 0.0062211724 -0.0524835 -0.0078079253 -0.034819365 0.03074527 0.015314731 -0.015240223 0.010013463 0.03540523 -0.060859714 0.070497796 -0.056184027 0.044306517 0.04249435 -0.03210418 0.08071808 0.026051633 0.08576697 -0.030836357 0.062258475 0.08140521 -0.044016674 0.02472641 -0.0124079315 -0.04870125 0.029994082 0.03319728 -0.039642926 -0.06661429 0.0005489476 -0.048077382 -0.090214774 -0.041347504 0.01638366 0.011078088 0.03865741 -0.013770093 0.025053484 0.056529127 -0.037833836 0.0056926403 -0.09712217 0.013240874 0.04131966 9.546336e-05 -0.050224215 0.033474207 -0.050136957 -0.021631632 -0.03970633 0.08109327 -0.03966744 -0.0288749 0.03149847 -0.069323294 -0.078218 0.05126399 0.025384512 -0.06947259 -0.011197676 0.06201162 0.009741103 0.015217369
101 -0.0022917166 -0.09339433 -0.0784222 0.039112225 -0.02195259 0.09775414 -0.08195765 -0.076267816 0.06990725 0.00044974126 -0.01739356 -0.06047397 -0.055679947 0.005232067 -0.049718782 0.096769564 -0.052525677 0.04733049 0.07086637 0.008540193 0.01513342 -0.008216113 0.0517572 -0.052308124 -0.053189646 0.049318805 0.009672311 -0.084372506 -0.008155566 0.036710106 -0.061554402 0.09500329 -0.015595189 0.008793758 0.08659536 0.00076152943 -0.07702133 -0.034950964 -0.08738865 -0.035960108 -0.05376473 -0.04951936 0.09061814 0.0018705474 0.034337536 0.036033254 -0.037129737 -0.034905367 0.062083405 0.061064005 -0.021098671 -0.073034704 0.020608032 0.060792156 0.010664883 0.052367352 0.052761354 0.056349713 0.0678941 0.06762516 0.01057011 0.012361452 0.00080196187 0.056542184 0.05761576 0.09414524 0.045425117 -0.07038705 -0.05189514 -0.016530255 0.009943529 -0.07118772 0.066151045 -0.033067837 0.05284923 -0.082699545 0.048646044 -0.08794468 -0.02599712 -0.036170483 0.045368563 -0.029019123 -0.04422454 -0.0828944 0.05269527 -0.025166959 0.0062940074 0.03630754 0.067205004 0.0075261835 0.0819734 -0.0097437445 -0.019081838 0.02756055 0.08096278 0.029353652 0.03180375 -0.09124921 -0.090480745 0.059467115 -0.0056793215 0.008657615 -0.038884573 -0.00065800827 0.092955016 -0.044719726 -0.089868575 0.009034075 -0.02394353 0.06550239 -0.0902806 0.07857197 0.012641335 0.06817552 -0.060089644 0.08355469 0.060938496 -0.014030785 -0.050744515 -0.06719056 0.053408638 0.093269035 -0.091857225 -0.06441517 0.038638644 0.00026680762 0.0018601101 0.07152903
106 -0.0125826355 0.0027027219 0.01174362 0.010492862 -0.0019977128 0.0121802315 -0.0045160586 0.011545943 0.0092203505 -0.01026804 -0.010121401 -0.011463157 -0.0027009184 0.0112843625 0.002704868 0.0035710274 0.0027834475 0.010562507 -0.001087199 -0.0019831308 0.007193322 -0.008061925 -0.0036115358 -0.011965448 0.005669983 0.012487864 -0.002903171 -0.012256002 0.010600956 0.0034566098 0.008756481 -0.008351717 -0.0029565492 -0.009517398 -0.0020408798 -0.009476815 -0.0018104305 0.0037561578 0.00041772402 -0.001460219 0.011762454 0.00075591635 0.0039800736 0.0030807077 -0.009819842 0.01059739 -0.011832425 -0.0121274395 -0.012431941 -0.0029014554 -0.0015895711 0.0014165742 -0.0022910899 -0.012152015 -0.0057876697 -0.009280854 -0.011284624 -0.006845422 0.012483644 0.008948279 0.0036780033 -0.012174812 -0.0009508573 -0.0048766406 -0.0048602745 -0.011442571 -0.00037662964 0.00811329 -0.0065923017 -0.0037559604 0.007846743 -0.002919645 -0.005087919 -0.0035097834 0.0010900674 -0.005897701 0.0026040496 -0.0009053387 -0.009211069 -0.002788419 -0.002197919 0.012626727 -0.012434625 0.0037071772 0.0012309467 0.012448868 8.5122883e-07 -0.012007464 -0.012606743 -5.6634657e-05 0.0018062722 -0.012622781 -0.00016050413 -0.012180749 0.005265563 -0.0036602677 -0.00052251434 -0.012409948 0.0027376222 0.008903255 0.0074358033 0.012402306 -0.0049940427 -0.008771675 0.0033831203 0.0027137548 -0.010260324 -0.0033381272 -0.0015995502 0.0064873206 0.0037617744 -0.0018017823 -0.012269261 -0.0052263993 -0.0039887764 0.0060166176 0.012525409 -0.010019077 -0.005428842 -0.012460213 -0.003638566 -0.0037038077 -0.011981349 0.009983445 -0.0038059172 0.012602704 0.0126215685 -0.0033468006
107 0.007457235 0.012581284 -0.003872708 0.0011680219 0.011287649 0.0037479508 0.0023484481 -0.011290329 -0.0003762825 0.003311671 0.009736218 -0.012274477 -0.010677851 0.0014678901 0.0064527914 -0.0063420404 -0.006528354 -0.0012971545 0.0033391835 -0.0012650457 0.012284266 -0.011961277 -0.0036807104 0.0004775005 0.00911576 0.012131797 0.0050195097 0.006393627 -0.012258594 0.010693309 0.005525976 0.0014711786 -0.012416277 0.00021730457 0.0126290135 -0.0032525342 0.0037723314 -0.010312777 0.011125679 0.0118399095 0.003772602 0.0110669 -0.00062850676 -0.0034092786 -0.0020637773 0.0050333226 0.01120979 -0.011367391 -0.008669592 0.008202009 -0.007550608 -0.0033413356 0.007591847 0.00722152 -0.011924034 0.011520763 0.0018686308 -0.0021469546 0.008199368 -0.0031830017 -0.0029970186 0.0018063306 -0.010908937 0.0031653047 0.011234823 0.01137152 -0.0038238848 -0.0046582576 -0.0030239504 -0.010298148 -0.0033043073 -0.0027131154 0.012172936 0.0098354025 0.012598427 0.009152237 0.005839691 -0.0046829944 -0.010983445 -0.011856032 -0.010835525 0.0018223624 0.011095135 0.0126160085 -0.0037601753 0.0034145138 0.010748332 0.010930005 0.0041532353 0.007450047 -0.011629069 0.011960681 -0.012563974 -0.0038868042 0.01148334 0.0085919425 -0.011344058 -0.0031519225 0.0030278675 0.0052474993 -0.0014719488 0.0045918524 0.0071375286 -0.0012671871 0.001880077 0.010397349 0.0017689087 -0.0005706595 -0.011770739 0.004295076 0.00675687 0.011454943 -0.010182098 -0.002576392 0.0026926415 -0.0018071131 0.012530053 0.011989377 -0.0034033682 -0.0022306289 0.012504271 0.012146714 0.011709182 -0.011198521 0.009393832 0.0027175434 0.011887187 0.0067226347
104 0.0085967155 -0.0126295 0.011621287 0.011304717 -0.0046038777 -0.0020706966 -0.004909557 0.012586733 -0.0018663425 -0.0121462 -0.0033014829 0.007631937 0.0019519031 0.002657643 0.0008436311 0.0025715344 -0.00029955222 0.009160098 -0.0040125144 -0.009666882 0.0107453475 0.0027909898 -0.0022977213 -0.012580384 0.0004746262 -0.0032033431 0.01197887 0.012626316 0.0083608525 0.00681201 -0.010357683 -0.010733178 -0.0055194916 -0.00024578348 -0.012178209 -0.00809348 -0.011075977 0.01135603 -0.0020321256 -0.0064474097 0.0016215609 -0.008459073 0.0035610166 0.0031634073 -0.00062629767 0.00068985973 0.012437096 0.011822468 0.00947931 -0.008014019 -0.0073482157 -0.011618951 -0.004269895 0.0036784431 0.010476016 0.007497299 -0.003167781 0.0036415004 -0.0021532197 0.0055639828 0.0126306815 0.012453686 -0.0018053963 -0.0069110254 0.0027878038 -0.009564168 -0.0036392957 -0.010298226 0.008238187 -0.00630268 0.0094965035 -0.011481424 -0.0024351238 -0.012606427 -0.010483848 -0.0036860618 -0.0053664586 -0.003417726 0.0014802627 -0.0012126435 0.010534784 0.01138217 -0.00042317994 -0.012299899 0.003572692 -0.0011274314 -0.0019222768 0.0012057037 -0.0028706565 -0.0034678876 0.005849872 0.00828748 -0.0025851727 -0.012613319 -0.008856382 -0.009469608 0.0035264494 -0.0013166498 -0.007680685 0.0017075427 0.0029991788 0.011237668 -0.0004791075 0.000116720796 0.0011433121 -0.0031615268 0.012630797 -0.012002802 -2.2253022e-05 -0.0075167962 -0.012556724 0.0069121877 0.00011217687 -0.0062290514 -0.003940378 0.00052469876 0.005013334 0.012596478 -0.0021111467 0.0024657098 -0.0062221433 0.011428406 -0.012333812 0.0025985518 0.011924315 -0.0024038092 0.0126036 0.00013026688
105 0.011215256 -0.00377256 0.0013321408 0.000502696 0.012531366 -0.007909514 0.0036360044 -0.01029867 -0.004074389 0.01247744 -0.0020871153 0.00784476 0.0110088885 0.009914921 0.0016818428 0.012419265 -0.010619086 -0.012119621 0.012451965 0.0024528555 0.0023627682 -0.0031352846 0.007892663 0.003710141 -0.010572892 0.004137815 0.0086933635 -0.008608759 0.012129808 -0.0035869442 0.0012946378 0.0010727923 -0.009800849 -0.009615807 -0.012425194 0.0012587886 -0.003186616 0.001064946 0.0009466568 0.0011854856 -0.011921203 0.0064499765 -0.0018797414 -0.012229836 0.0017829658 0.0058727805 0.0053478056 0.009711558 0.01179808 -0.00017395406 -0.0066996384 -0.012193137 0.0049093063 -0.0045219865 -0.012595693 0.0019389505 -0.0032693911 -0.0048281713 -0.011456235 0.005895937 0.012418928 5.444279e-05 -0.00034992862 0.007902467 0.0051995 0.0019172167 -0.01220496 0.0020940444 0.008482919 -0.0020883519 -0.0019796481 0.011525464 -0.012403565 3.8939528e-05 -0.0032509938 0.012618836 0.0033577988 0.012548794 -0.0033588537 0.0029092187 -0.0032793377 0.003239206 0.012250712 -0.0007269371 -0.011643472 -0.003752755 0.012401117 0.0075999503 -0.009714007 -0.006226126 -0.003727086 -0.012226274 0.0076658498 0.00043343287 0.0029747682 -0.012105632 -0.011312647 -0.003220981 0.011930113 0.00792672 -0.0050358763 0.0037692066 0.0068367184 -0.008959973 0.011913417 -0.0032431642 -0.0013038339 0.0072296388 0.00079996395 -0.0028506815 -0.009257505 -0.003098017 -0.004461528 0.010909228 0.0054614586 0.012541047 0.012570176 0.002645851 0.011874973 -0.0058981813 -0.012272274 0.0036151006 0.0023095517 0.0009095324 0.00093313376 0.0039874767 0.003770546 0.011997851
2046 -0.009492635 0.0096887555 0.0115944 -0.003522019 -0.008913233 0.0013833474 -0.004691771 0.0015374094 0.0035754861 0.01202004 0.0090866005 0.011571208 -0.00061419513 0.0027182405 0.0032210576 -0.0016505748 0.0011729889 0.0125668105 0.004331108 0.0069507733 -0.012252353 -0.00015935977 -0.002056145 0.0074682804 0.011469616 0.0037715149 -0.00925255 -0.011398993 0.009350229 0.0031649293 -0.010380678 -0.009590645 -0.0016044313 0.003167941 -0.0037697447 0.0031971615 0.003260063 -0.0095083 0.0035935761 -0.002239341 -0.003501878 0.000110179186 -0.0027244561 0.009870645 0.011700811 0.00938304 -0.009826409 -0.0015828591 -0.0010277927 0.0059855995 -0.0021086559 0.010986024 0.0021107034 0.00063696597 0.008013405 0.0024112086 -0.012621824 -0.00036149472 -0.003756428 0.009950844 0.012623305 0.0024056109 0.0124865975 -0.008022934 0.007089823 -0.00946898 -0.010520052 0.0019838996 -0.0023362674 0.0063616442 0.0022335956 -0.0124041755 -0.0025546208 0.0036557536 -0.011724142 0.003017291 -0.002211229 -0.00880022 -0.0008212263 0.011410331 0.0022666452 -0.011140604 -0.011269482 -0.011327561 -0.0001519816 -0.0018661283 0.0016685431 -0.010258144 -0.0014247103 -0.0031035887 -0.008193052 0.0055079935 0.00096197054 -0.012627838 -0.0019190283 0.005805077 -0.012170464 -0.0008816072 -0.012489005 0.0004865192 -0.010553822 -0.004276281 0.007848636 -0.0036900127 -0.008430042 0.003187432 0.0037664585 -0.012463058 -0.0059340564 -0.0006988337 0.0028057138 0.0031519947 0.007262765 -0.004850802 0.012483474 -0.003524327 0.0021267403 -0.011688337 0.007778185 -0.0123307565 0.0032859293 -0.010920911 0.004662169 0.009989585 0.010481355 -0.0035804203 -0.0065447898 -0.012455219
2047 -0.0032198105 -0.009539574 0.0010129884 0.010940669 -0.011047399 0.012615876 -0.011667823 0.0031028125 -0.008855551 0.012165012 0.011684663 0.0071948264 0.010626088 -0.009196104 -0.0004346266 -0.010779444 0.0063265963 -0.0045896014 0.0097149825 -0.007856455 -0.002511037 0.0012422146 0.00947687 -0.008814764 0.002334446 0.009251915 0.0073367003 -0.010527192 -0.012237761 0.004556802 0.006531451 -0.01127038 0.0036877873 -0.0012444323 -0.0008151941 0.0009443534 0.009231448 -0.000112425536 0.0004733745 0.0039310204 -0.004532934 -0.00022477843 0.0059940554 0.011005308 -0.0012065074 0.011532717 0.0011608554 -0.008106697 0.000710669 -1.3828278e-05 -0.012471827 -0.009837181 0.00929664 0.008666657 0.012628701 -0.00059992913 0.00965438 -0.0013764019 0.00032956223 -0.009219194 -0.007131081 0.0006129504 0.00093246065 6.338023e-05 -0.0071772016 0.012528241 0.009994401 0.0062993634 0.0076945494 0.0018986606 -0.0061909985 -0.010119261 -0.012615232 -0.003470499 0.0031024464 -0.005688216 0.009788169 0.004531868 -0.0032239472 -0.00071469415 -0.0033048065 -0.0005626108 0.011219485 0.010843036 0.0033962727 0.009063043 -0.00045695435 -0.011577621 -0.0044733207 0.010010911 -0.0009886599 0.012214206 0.0005320073 -0.0077470997 -0.0069122743 -0.0009449455 -0.0019213716 0.010209527 -0.0078591565 -0.0123925805 0.0060611917 0.009260806 0.012201452 0.00861996 -0.0031059799 -0.0038505506 0.010861219 -0.006626266 -0.011748933 -0.0018567778 -0.0009808629 -0.012466334 0.003978938 0.0014552474 -0.0034784093 0.012424481 0.0074633704 -0.0062958035 -0.01118296 -0.0036038794 -0.0007599322 -0.012448262 -0.00014013145 0.011232482 0.0064204833 0.0024432102 0.009318588 -0.0030268985
2044 0.010602218 0.012499508 0.01012554 0.006323929 0.0024150226 0.010448143 0.0019766025 -0.011957667 -0.0032258055 -0.009761189 -0.0003837645 -0.009384194 0.00039632246 -0.012385306 -0.009473318 0.0063669174 -0.010307475 -0.0014223342 0.0104467105 0.0018313844 0.0094446745 0.007238391 0.0026518935 0.0029354766 0.0069386773 0.012494053 -0.0059729195 -0.012579294 -0.004674577 -0.008144316 -0.011852609 0.008959094 0.0053962367 0.0037285364 -0.008057273 0.0037418762 0.012308368 0.0096821245 0.005678758 0.0019859886 0.003038361 0.0004128213 0.010984773 -0.0044821817 -0.012434269 0.011322128 0.009243058 0.0015346566 0.010058915 -0.0011935281 0.008958433 0.001829708 -0.00064772554 0.002953014 0.0031883246 0.002043631 -0.0067107044 0.0078622885 0.010521505 -0.0003691779 -0.011336651 0.009576976 -0.0010770189 -0.012627151 -0.012151134 0.0055219145 0.012622159 -0.012580548 0.0125646 -0.010482277 -0.0016020075 -0.0021966686 -0.0011653397 0.0040954114 -0.010186084 0.012545427 0.011018377 0.006260528 0.0023339768 0.008097414 0.010092859 -0.0037726145 -0.0056912275 -0.011193841 0.0056355214 0.00485865 -0.0035992267 -0.011274952 -0.007704356 0.0034073563 -0.008764412 0.010610564 0.009840768 -0.0033509908 -0.011825833 0.009450712 0.0024878867 0.0018650452 -0.0030854282 -0.0030792877 -0.0023943936 -0.009323735 0.00894958 -0.012437779 0.0037232228 0.007238604 -0.0028451784 -0.012018705 -0.00043119676 -0.011411047 0.0031065396 -0.01260662 -0.0072635356 0.0036886556 0.002986514 -0.011818286 -0.010821792 0.009046325 0.0021493805 0.0039973096 -0.0032814005 0.0045588035 0.005386143 -0.009549667 -0.011984721 0.0001211178 -0.012204931 0.008194697
2045 -0.0066359644 0.006861749 0.012549494 -0.012195742 0.0015665512 0.011275049 -0.0011475217 -0.012370235 -0.0006420305 -0.00068596005 0.011429359 2.0247884e-05 0.0027521444 0.0023669638 -0.011668176 -0.0033397088 -0.0025040973 0.00088099716 0.005128077 -0.008756137 -0.0072745094 0.0016186321 0.011658657 -0.004021367 -0.0013577854 -0.010689026 0.0010211533 0.009358924 0.0035864944 -0.010795593 0.00054319296 -0.008497195 -0.0030354743 0.0037428495 0.011308032 -0.0107951965 -0.011714055 0.0037707156 -0.004138353 0.003389882 -0.006500245 0.010891664 0.012333306 -0.008293448 -0.009691782 -0.0037626508 -0.010259927 -0.008664131 0.002314956 0.003391858 -0.009914901 0.004691897 0.012430058 0.007416989 0.0032406354 -0.012528012 0.0027739853 -0.00072575826 0.010946946 0.00072467374 -0.012445683 0.0095681595 -0.0106490115 0.009403251 -4.2653643e-05 0.012070565 0.0054959687 0.011818954 -0.002086589 -0.009530968 -0.007183917 0.0068790643 0.0067207566 -0.008280281 -0.006232002 0.002093214 -0.004833604 0.0018743072 -0.0007307483 -0.011658235 0.00021945685 -0.003755909 0.0015315106 0.0021193596 0.0065907845 -0.011504131 0.011724565 0.003771699 -0.0053474284 0.012390496 -0.0032671262 -0.009848338 -0.0019454171 -0.00022659427 -0.012564348 -0.0037479494 0.008179491 0.00013444945 0.0016714567 -0.006064508 0.0031411932 0.011189029 -0.012546338 -0.0064086113 0.0034428304 0.0017385471 0.0059241094 0.003620045 0.0034594245 -0.0038989736 0.00017506815 -0.00836986 -0.003886435 -0.0052470993 0.003772587 -0.010726632 -0.011446381 -0.01155828 -0.005323287 -0.007966483 0.012346278 -0.0104838 -0.0031863535 0.010993371 -0.0011828907 0.010698743 0.009502528 0.008596569
2042 -0.0035226983 -0.01150546 -0.0030065516 -0.00020489935 -0.0016319084 0.012104622 -0.011130134 -0.012574982 -0.012424002 0.010887618 0.0028667618 -0.0022877303 0.010280315 -0.0041687787 0.010809982 0.00043426082 0.00057831407 -0.006627147 0.009394389 0.0007949453 -0.008019656 0.0065667126 0.0025999926 0.01263049 0.0037474085 -0.008751774 -0.002558805 0.010830656 0.010669904 0.001775194 0.012227111 -0.011187952 -0.0023568403 -0.0031166454 0.012445218 0.010783415 0.0046145986 0.012629355 0.0073892092 -0.0035368493 -7.5097196e-05 0.0033047118 0.01230734 0.0011675525 -0.010275543 0.009743139 -0.012529642 0.0033017788 0.01236624 -0.007777186 -0.0059842365 -0.0058048815 0.00088307355 -0.002274503 -0.0040851934 0.0018320149 0.012587773 -0.0071034287 0.01245928 0.0061668195 -0.008224305 -0.0028012088 -0.011536114 0.0065054107 0.008850477 -0.004239538 -0.010376553 -0.012463789 -0.012624257 0.011065797 -0.0099338 0.008987661 -0.012338965 -0.0020127802 0.0020207167 -0.0035556427 -0.0015322692 0.000113227405 0.009605343 0.0036021734 0.0066686952 0.002103961 0.008688544 -0.0027324557 -0.012599733 -0.01244355 -0.002470607 0.0021548108 0.0022193464 -0.012195847 -0.002461479 0.011452619 0.011010808 -0.0053926124 0.0037670466 0.006531641 -0.010120364 0.0087635815 -0.002779182 -0.01093628 0.0051465174 -0.012172844 -0.0125165135 -0.005724405 0.001930912 0.004338192 -0.000715483 0.0035078048 -0.012405187 -0.0016563563 -0.002676407 0.0012919651 -0.008658046 0.009351858 0.006897753 -0.0035620406 -0.0030329924 0.00304079 -0.0059052245 -0.0077492096 0.0027729974 0.012391206 0.007341749 -0.004449342 0.0031630904 -0.0017778855 -0.0075101755 0.0042296895
2043 -0.0058862693 0.011219351 0.0018828493 -0.007459512 -0.0031728297 -0.0017502091 -0.0031922315 0.010711392 -0.0040096743 0.011716957 -0.0030275518 0.0011058878 0.008606945 -0.005684959 0.00059752166 0.009230467 -0.008569682 0.0029099938 0.0056536766 -0.003140345 -0.00749443 0.0093021095 -0.009592865 0.011570414 -0.0026436439 -0.012163704 -0.002216931 0.012125 -0.0019527525 -0.0021021648 -0.0038290066 -0.002571349 -0.008143175 -0.0028861265 -0.0076551083 -0.0122970035 -0.008828466 -0.007489659 -0.0013470994 -0.0024477832 0.00055647455 0.0026324196 0.009167812 0.01215231 -0.0052687107 0.0019255634 -0.007462555 -0.00912457 0.0037816318 -0.0021383401 -0.009712977 -0.012072681 0.0031818808 -0.011308935 0.00143479 -0.010265026 -0.012577543 -0.0012084246 -0.012238857 -0.011260338 -0.0035883668 -0.01231601 0.0045260275 0.0020520864 0.0031200042 0.012537621 -0.011716761 0.0068165152 0.003761535 -0.010885075 0.0057810727 0.0037110026 -0.0052477843 -0.002310833 0.010644064 -0.003283717 0.002559011 0.0025563259 0.008987491 0.010156217 0.0011948021 -0.0058430494 0.004081966 0.008830609 0.0022414261 -0.000789864 0.010911473 -0.01150956 -0.00809231 0.00078483555 -0.011050111 0.0054093665 -0.011027373 -0.012281857 -0.009584976 -0.0004006005 0.0023021395 0.01010338 0.003096249 0.004160031 -0.0125988405 -0.005830896 -0.007053055 -0.0024188142 0.010675453 0.0033349236 -0.002433936 0.0033746816 0.010621604 0.003289649 -0.004964066 0.012628747 -0.008943268 0.009458505 -0.012267496 0.0027940194 -0.00058276556 0.0013448121 0.0005062774 0.0068019 -0.012610396 -0.009469864 0.007824006 0.0043104175 -0.0029512567 -0.002303848 0.003350568 0.01127398
2040 0.00245882 0.012008633 -0.0016133715 -0.012234874 -0.012334279 0.00488289 -0.00919958 0.0041527804 -0.01143066 0.0010569703 0.0028812739 -0.001604049 -0.009659847 0.0021660866 0.011764379 0.010226279 -0.0070212246 -0.003110669 0.0034918273 0.0052198833 0.0036461195 0.0029859766 0.01258814 -0.006146871 -0.01204384 -0.011534278 -0.010758493 8.188654e-05 0.0009774836 0.012250812 0.010810357 0.00034261588 -0.0022483673 -0.001779994 0.0061546704 -0.0032672933 -0.00048553012 -0.0023691216 0.0033963532 0.012629899 -0.0030542836 -0.012531856 0.0011680063 -0.012448546 -0.0070856945 0.00111668 0.008498953 -0.007572623 0.0063452637 -0.010364136 -0.0037519266 -5.1575713e-05 -0.001664592 -0.0010153959 -0.010251058 0.0018144315 -0.011161357 -0.003078187 0.009855027 -0.003086253 -0.0068103164 -0.0031917202 0.0037526167 0.012465045 -0.012227133 0.01048051 -0.0031520827 0.010080523 0.007558982 -0.007310519 0.012630494 -0.012442091 -0.0026587034 0.0018298323 0.007177165 0.0008533057 -0.002006527 -0.011735316 0.0012678029 -0.010228764 5.7681464e-06 0.0037345863 0.008865917 -0.0036288393 -0.012513311 0.008739805 -0.0037716287 -0.0016541313 0.0036865685 0.012625919 -0.0030789752 -0.0015080543 0.0016577439 -0.011303343 0.002741444 0.0014600614 0.0064622937 -0.003039993 -0.009860346 -0.0030388131 -0.008615717 0.012049664 0.009624129 0.011189339 0.0071058753 0.0023933183 -0.0036029788 -0.001659153 0.0001749359 0.010159809 -0.012629643 0.0013926188 -0.009513114 0.012019187 -0.00873246 0.0022651851 0.012492361 0.0021380894 0.002058439 0.008870723 -0.010269257 -0.00091676763 -0.003342082 0.012032349 -0.010563035 -0.010840543 -0.003525201 0.012559998
2041 0.011132658 -0.0076683173 0.0041762423 0.012487292 0.0033859452 -0.009492911 8.524861e-05 0.0006177339 -0.0035097236 0.011786763 -0.009988971 0.0074547147 -0.0117003955 -0.0030591427 0.011383187 5.9686136e-05 0.003420108 0.005329302 0.001940968 -0.0065909913 -0.012554523 0.010478511 0.0012598631 -0.0086114835 -0.0030712644 0.004842325 -0.008456813 -0.0025185896 -0.012460421 -0.0124437725 0.007252051 0.012504485 -0.012630018 -0.0016714884 0.0024746263 0.0034286696 -0.010302346 0.0016157739 -0.0013130484 0.010387925 -0.001537021 -0.009239592 -0.009157251 -0.0051213442 -0.012375362 -0.01247897 0.0034132197 -0.005442786 -0.0036745875 -0.012412359 -0.012073925 -0.009644119 -0.001301188 0.0037420087 -0.012369042 -0.0008432246 0.00537745 0.005708988 0.00881689 0.0057711424 -0.011473887 0.011058018 0.0011476744 0.011883868 0.004079419 -0.01249503 -0.0032993108 -0.00015350617 0.005470228 0.0025673714 0.010002647 -0.012482481 0.006531796 -0.0103055965 -0.012428502 -0.0016849199 0.012033349 0.011433737 -0.011983878 -0.0018910873 0.009113327 0.010710662 0.01261401 -0.0029737856 -0.006615089 0.007427455 -0.006952969 -0.0009966446 0.003969999 -0.00029528886 0.008222319 0.007487045 -0.0049219914 0.0077567743 0.0032455325 0.007761581 0.008378972 0.0017519118 -0.00364899 -0.0021348307 0.0039110538 0.008322313 0.002515488 -0.010916089 0.0033326608 -0.009225544 -0.004716534 0.0031730605 0.012612143 -0.0075140228 0.011787074 -0.005087082 0.0035400502 0.011777859 0.012448705 -0.0034862563 -2.4698675e-05 0.009852793 -0.0010443339 0.007496234 0.0037083325 -0.0052094627 0.00043985248 0.012629721 0.00064313784 0.009098464 -0.011288762 -0.012627481
2048 -0.0057275826 -0.012600484 -0.0032509957 -0.010438718 0.00056168996 0.0032220494 0.00087943766 -0.010242764 -0.004179292 -0.00029223645 0.005729625 0.0073449006 -5.788915e-05 0.009570278 0.012567655 0.0026332194 0.009475358 0.009120408 -0.005213799 -0.0078552775 0.002785892 0.008296542 -0.012117379 -0.0007162262 0.00035108207 0.012543239 9.879097e-05 0.008725809 -0.0022262004 -0.0006262921 -0.0058673024 -0.01081989 0.0043568225 -0.011491796 0.012630453 -0.0018346095 -0.004334705 -0.0002448894 0.010971325 -0.009939225 0.003472431 0.012175576 0.0045573935 -0.0115711205 0.0037044713 -0.010973828 -0.0007775482 0.003365666 -0.011889642 -0.012571444 -0.01167152 0.010811743 0.002647169 0.012315831 -0.00075805583 0.012140672 0.010334833 0.0075219017 -0.012317869 0.009518799 -0.002686262 -0.012512051 0.011756147 0.012622185 0.012583302 0.009756882 -0.0031312143 0.009757835 0.0030035474 0.006499587 0.0033408722 0.007977542 0.012227396 0.009235049 -0.0033052908 0.0027402039 -0.0019462751 -0.010962269 0.0029050536 0.012630538 0.0076754205 -0.008345846 0.0008665109 -0.01237775 -0.0016573486 0.0011842458 -0.008559102 0.011946447 -6.141281e-05 -0.006573435 0.0063179405 -0.0046012127 -0.012613719 0.005225733 0.00017628726 -0.0117273815 0.0062482883 -0.012614019 -0.0015988657 -0.0030948224 0.006298454 -0.0045709116 0.008297091 -0.00935139 -0.012254283 0.00376432 0.0003258381 0.005729679 0.0036822017 0.0042961286 0.010875446 0.0007543517 0.010739456 0.008221196 -0.010835853 0.0037152132 -0.0012165233 -0.0044615357 -0.006145957 -0.0015668047 0.0010438748 0.0029597478 0.0016053861 -0.008655959 -0.012187177 -0.011040783 -0.0008057272 -0.007168111
2049 0.012417549 0.009561406 -2.3495406e-05 -0.011778483 0.0009844727 -0.0034127324 -0.0023909518 0.012347074 -0.0038430672 0.0005033845 -0.0035235377 -0.0035602117 -0.0009250138 -0.0007481361 -0.0029027346 -0.0055403784 -0.007619173 -0.0024871565 0.012492461 -0.008872314 -0.012604518 -0.007837488 0.00049059745 0.011184745 -0.0036576728 0.011325987 -0.0029224418 -0.005951874 -0.0013747085 -0.0029982582 0.012491216 0.0031085466 0.0087514855 -0.0037524241 -0.011988772 -0.01201295 0.0080471365 -0.0025149777 0.0122496225 -0.008908763 -0.0010079546 -0.0057142638 -0.003025406 0.0032325871 -0.0009736726 0.012297519 -0.002222903 -0.008672142 -0.011918347 -0.0021182904 0.012190284 0.006000424 0.0038933964 0.009962946 -0.00049791764 -0.0040524583 -0.0019638697 -0.003223648 -0.0056168004 -0.0011628643 -0.012630523 0.008048687 -0.012052776 -0.004935517 -0.01255432 -0.00052625383 -0.0063949623 0.01262858 0.010262385 0.008344609 -0.00162258 0.0033782388 0.012408219 -0.0060256114 0.0021585282 0.007821539 -0.012585132 -0.0031034297 0.0004450297 -0.008811514 0.011571984 -0.012305185 -0.010340337 0.0098356595 -0.0028835943 0.004608595 0.008061997 -0.009741489 -0.005463354 -0.00258142 -0.009454655 -0.005117546 -0.003770629 -0.01030886 -0.0017181477 -0.003011026 -0.0011081521 -0.003048434 0.012602329 -0.0035779444 -0.0027467255 -0.0040486115 0.012017999 0.010356955 -0.012360736 0.011594877 0.009010246 0.012024658 -0.011152086 0.007470716 0.007484739 0.0016468759 0.012122128 0.0027016383 -0.00043801684 0.0011006314 0.0067746937 -0.011109393 -0.00079238554 0.00307032 -0.009276512 -0.007163696 0.002697358 0.012582932 -0.009730302 -0.010751426 0.007726148 -0.010754789
1655 0.0031412877 -0.0073624323 -0.0032990861 0.007871235 -0.003016702 0.0030530556 0.0074415472 0.0038809306 -0.012137568 0.0015035728 -0.005852694 0.0021999814 -0.010870821 -0.0098344255 -0.0072096824 0.0008026676 -0.012355179 0.011430548 -0.01074174 0.012122983 0.004149376 0.0031279046 -0.00028563663 -6.337208e-05 0.0059142676 -0.008165238 -0.003056948 0.0065144217 -0.0022178395 -0.0041437102 0.0031683412 0.0037716082 0.003198758 0.012582768 -0.005973652 -0.008304877 0.0048282496 0.000384463 0.0050064186 -0.012130633 -0.012557315 -0.005522138 -0.0030541352 -0.011933824 0.0037522733 -0.008968968 -0.0021971539 0.0021727781 -0.012106839 0.0073556625 -0.011933304 -0.012333492 0.0028490007 0.0009772796 0.010372672 0.012530015 -0.007933826 0.0024463115 -0.010032049 -0.0016414518 0.0037351435 0.0037709672 -0.0031883987 0.011474585 -0.011806963 -0.012434746 0.003053973 -0.003181514 0.012626805 0.0014466988 0.0120617375 -0.0036309413 0.0020308187 0.0030429587 0.009335871 -0.0013296711 -0.007130973 0.01247074 0.010744203 -0.012600775 0.012508956 -0.01171776 -0.0111651495 0.0031030262 0.00027446286 0.010262106 0.012624238 -1.5136786e-05 -0.008015415 0.0066547142 -0.0012431701 0.0031408137 -0.005744992 -0.0065539936 0.012387928 -0.0025360805 -0.0011497792 -0.002948176 0.0009849679 -0.005901137 0.004535979 0.0006863503 -0.008677708 -0.007971408 -0.0027363773 0.0012198887 0.0018584318 -0.0073440326 -0.00039809453 -0.00016651582 0.0023672096 -0.003111944 -0.011757147 -0.00025969 -0.00053647626 -0.006180632 -0.0123455925 0.003949335 -0.0035691687 0.012627145 0.010122144 -0.006470591 0.001294706 -0.009902908 0.0009554473 -0.00025704224 0.0024098093 0.0015138742
99 0.07608091 0.09452191 -0.07844593 0.046496183 -0.0847337 -0.09858141 -0.046286337 -0.086014256 0.011936611 0.10066717 0.0388795 0.044871654 0.0931212 -0.04042213 0.051170547 -0.07193299 -0.057646137 1.2196484e-05 0.008084124 0.06637605 -0.06765877 0.056009505 0.012374099 0.0099699795 0.08000209 0.017489292 0.0011818092 -0.016717143 -0.06497059 0.070455775 -0.026825052 -0.0148452 -0.033064526 -0.05239701 0.0032678377 0.029406898 0.0061579933 0.020389635 0.0044859806 0.034034718 -0.064644516 -0.026184505 -0.01969035 -0.06612529 -0.08565255 -0.062223244 0.006986365 -0.03943456 0.03229589 -0.06509244 -0.07228699 0.09447253 -0.073810525 0.005070448 0.015541407 -0.051629152 -0.0131051345 -0.06510543 -0.089230984 0.08567487 -0.044217978 -0.088149555 -0.096111484 -0.08749794 -0.04373032 -0.09598081 0.015722133 -0.0054931794 -0.05571446 -0.0005314038 -0.04705447 -0.09069818 0.0800659 0.08542428 0.013014113 -0.079271406 0.088849604 -0.026177753 -0.09676722 -0.09572452 -0.079539284 -0.09088924 -0.05122689 -0.019064996 -0.027700951 0.055865902 0.002759634 -0.026023798 0.010874307 0.059640262 -0.06281121 0.039079607 0.08519131 0.048688803 0.014236346 0.0045049973 0.0814663 -0.03466682 -0.07436217 0.085717455 -0.08294749 -0.08609534 0.0058497954 -0.0026663486 -0.0538761 0.07224296 -0.022782702 0.07938945 -0.0038992949 0.08883625 -0.05281146 0.03769858 -0.0035664022 0.062581904 0.0540765 0.041557863 0.028763209 -0.0828645 0.098429136 -0.0926491 0.006749143 0.011677494 0.048413794 -0.056076966 0.094082035 0.09282001 0.08067128 0.07964088
98 0.0025130939 -0.012499402 -0.0015748478 -0.002917636 -0.0005779229 0.00985788 0.0024590297 -0.0027206508 -0.011165198 0.012515902 -0.011754385 -0.010355447 -0.008248727 -0.010752862 0.00016951934 -0.010016052 -0.004981539 0.006697231 0.012076153 0.0015698969 0.012133477 -0.010426414 0.0114373565 -0.010917533 0.0002001822 0.010842802 -0.010069912 -0.006218237 0.008758167 -0.012376709 -0.002377063 0.011573989 0.004923325 0.0022420362 -0.00376113 0.00852461 -0.011427738 -0.0043815053 -0.0124739325 0.012557313 0.0047858427 0.011711221 -0.0006526145 0.0052911 0.007615856 8.6518005e-05 -0.011798786 -0.0067666913 -0.011025326 -0.0054142773 0.007862937 0.0030054005 0.003919919 -0.0060405415 -0.002944632 0.00096952915 -0.0037471051 0.0069350977 0.011172048 0.002152142 0.0012682714 -0.009074904 0.0028286723 0.0022569548 0.0027734053 0.0034845944 0.009566121 -0.0035374113 -0.0038081827 0.0013635468 -0.011973448 -0.0124926455 0.0053556473 -0.008004475 0.0067440784 0.00010288949 0.012462714 0.010579502 0.011099242 0.0069999616 0.0034189955 -0.0062171565 -0.0033410818 -0.003772607 -0.012616269 -0.0015723575 0.012029725 0.008997789 0.008477297 -0.012409684 -0.0032243014 -0.002819904 0.0116031775 -0.011802402 -0.012475885 -0.0076177744 -0.010027521 0.0034116143 0.0042226813 0.012411921 0.012615418 -0.0032490145 -0.0125750145 -0.0060997847 -0.011909634 -0.0030921136 -0.003590676 -0.0035469248 -0.0043490184 0.012232171 0.010446051 0.0031264396 0.0106091015 -0.011225937 0.002526573 0.010552096 0.009555458 -0.0006304337 -0.0039086537 0.008554698 -0.008031024 0.010554919 0.012629942 -0.003081985 0.0074511436 -0.012052359 -0.008521706 -0.0018029083
91 0.0077169924 0.010396514 0.0014453281 0.011887312 -0.012300763 0.012018648 0.0034032632 -0.010293777 -0.0040018917 0.0037279201 0.012626756 0.003199393 0.0015022606 -0.0038749361 0.006074234 -0.0015458188 -0.002584748 0.006870727 -0.01220944 0.003998033 -0.011601396 0.001959797 0.0024390835 -0.001130241 0.004365006 -0.010772048 0.011254912 0.007482826 -0.01091114 -0.0036399553 0.0030468935 -0.0050493507 0.010565671 -0.0035024462 -0.0028486038 0.00558702 0.0022709735 -0.011780629 0.0008003621 0.00080023403 -0.011828907 0.0022653877 0.0121064205 -0.0054147635 0.0024433818 0.008409228 0.0094614765 -0.0031335093 0.012249361 -0.00092833024 0.0012168363 0.009284387 0.009769792 0.003938063 -0.012555011 6.080512e-05 0.0035497409 -0.0031664919 0.006928529 -0.007815553 -0.0032228678 -0.011455345 -0.0012418323 0.003459305 -0.0034380907 -0.0033142706 -0.0029895864 0.0121939555 0.01226327 0.010282249 0.011704192 -0.010212604 -0.0004100306 -0.0077884416 0.012403988 0.0017793085 -0.003172868 -0.009270433 0.012456245 -0.01065991 -0.012470855 -0.011861142 -0.0009172219 0.0015546521 -0.010699023 0.00196979 -0.00059025805 0.0045992685 0.012630442 0.011708399 -0.007007811 0.0113624865 -0.0061857854 -0.0051726466 0.010726127 0.003117425 -0.011342833 0.0026312862 -0.0084438985 -0.007682952 0.012164939 -0.0043929834 0.0075546876 0.008979773 0.0017225689 0.007500441 -0.0013473602 -0.008052416 -0.009773875 0.010002904 -0.0012131426 -0.011616485 -0.00051028933 -0.008700425 -0.0021851454 -0.011078279 0.011328154 0.0015103605 0.011660213 -0.010529915 0.0011536423 0.003118327 0.011504035 -0.0056240545 -0.01263083 -0.004880812 0.0011577234 0.007354424
90 -0.08563356 0.03949786 0.06432621 0.021934766 -0.046802204 0.06057216 0.030031605 -0.024372354 -0.07152756 0.0250089 0.006528914 -0.014751412 -0.003710555 -0.0634339 -0.08752712 0.014579971 -0.056470245 0.016268931 0.055194773 -0.023092665 -0.019547256 0.051203504 -0.06392017 -0.04965718 -0.00043350644 -0.08186236 -0.015925283 0.06739345 0.06741701 -0.026838759 -0.025190843 -0.06223856 -0.06015709 0.031469695 -0.04598401 0.03247902 0.03704183 -0.08633539 -0.04573462 -0.029539093 -0.010823405 -0.05643854 -0.09215569 0.046432357 -0.06167058 0.0016914196 0.045357343 -0.08367432 -0.08415984 -0.00016219215 0.079916276 0.08041307 0.026718674 0.006363892 0.07655125 0.017795809 -0.03409511 -0.06538959 0.027854862 0.06653788 0.0073623285 -0.018479593 -0.055701286 0.07332624 -0.070740506 0.030927531 -0.0021888362 -0.089659706 -0.06942514 0.03753628 -0.04174432 0.014640939 -0.09769867 0.08040109 -0.065339714 0.016572587 0.038847808 0.02177108 -0.054812826 -0.06642818 0.017524682 0.09630687 0.021616828 -0.07458163 -0.0013122298 0.0608 0.07084293 -0.018222492 -0.0013521453 -0.05429625 0.058609262 0.031032374 0.014764147 -0.086537495 0.03869663 -0.08848408 -0.07039161 -0.036610197 0.023151493 -0.033519372 0.029932676 -0.087258235 -0.054700702 -0.08743563 -0.053176302 0.06622213 -0.08121301 -0.058298513 0.02005604 -0.06317533 -0.033767708 0.07477972 -0.06374964 0.036063053 -0.0028884658 -0.038472228 -0.0004725242 -0.06114459 -0.07871536 0.010786134 0.06432245 0.048746537 0.059843443 -0.058786757 -0.05552162 0.0012513604 -0.037415463 0.09353037
93 0.07851561 0.044216532 0.0779171 0.03839936 -0.005028366 0.032544225 -0.095793396 -0.0313138 -0.098043844 0.039424013 0.005870244 -0.0766747 0.0028205626 -0.015433392 0.058375806 0.06328766 0.020534392 0.07275818 0.0967416 0.067967206 -0.015191762 -0.020362332 0.056596532 0.082422726 0.029794283 0.030099116 0.05776835 -0.011727401 -0.007597929 -0.086200885 -0.015224146 0.070898995 -0.0854683 -0.04959929 -0.002033301 -0.008293399 0.021289105 -0.006458206 -0.00063443277 -0.0704838 -0.0866748 -0.011888015 0.079698354 -0.09694938 -0.05272896 -0.005645846 -0.07725727 -0.017073736 -0.06859421 0.045087375 0.020008694 0.02178141 -0.05786993 0.07447233 -0.068661556 -0.0076728594 -0.06771657 0.07252529 0.027563088 0.088217005 0.098053455 0.007178245 0.037070982 0.0037556896 -0.08427165 0.06412918 0.06632806 -0.05033846 -0.01513236 -0.032786753 -0.0940078 -0.0842086 -0.05612739 -0.03996165 0.0822382 0.02863434 0.041789316 0.09775477 -0.034247335 0.002601941 -0.028454961 0.09386456 0.06285201 -0.058862876 0.095098555 0.025523886 0.085100666 0.027960176 0.02452267 0.0022266172 0.07703039 0.025199495 0.025830243 -0.03181275 -0.052517574 0.0823373 -0.01301031 -0.077613145 0.085049465 0.05965349 0.07912722 0.033954687 -0.015774388 0.054728508 0.06343071 0.07072095 -0.030320171 0.04269496 0.07058741 0.054579455 -0.07696539 -0.043110017 -0.010648485 0.06716983 -0.038784824 0.0638939 0.04861708 -0.051194914 0.08362928 -0.051948324 0.036084045 0.04543123 0.056375068 -0.06689783 -0.042625614 0.026603214 0.00980343 0.09363893
92 0.030136216 -0.037945107 -0.0009879163 0.07992009 -0.089195095 0.042224936 -0.0024233516 -0.0029489358 0.03540594 -0.05658923 0.014422849 -0.09849988 0.026629344 -0.026037619 0.029812586 0.06548012 -0.04764002 -0.08006428 -0.018537711 -0.0038592902 -0.067945436 -0.040349867 0.02871443 -0.045663066 -0.044092707 -0.0061152102 0.0074026724 -0.033360366 0.050720084 -0.047312237 0.00809706 -0.02747548 -0.09575805 0.053898126 0.07162766 0.050285086 -0.03800599 0.0598467 -0.006329514 0.0172466 -0.08645233 -0.04456336 0.09902154 -0.042419843 -0.03206429 0.05481421 -0.025969354 -0.014028035 0.02789778 0.0123089235 0.092133954 -0.06297008 0.002826408 0.08286455 -0.08436477 0.071780846 -0.037827864 -0.011985451 0.02569059 -0.043492023 0.014734548 -0.08610827 0.045739442 -0.060984842 -0.059454564 -0.019238316 0.0201772 0.05185399 -0.03659694 0.03333968 -0.050143406 -0.012738405 0.066619985 -0.045076318 0.016725797 -0.07905762 -0.056667015 -0.07497166 -0.02826857 -0.08162813 -0.06038593 0.031296052 -0.095015876 0.00016982388 0.084469154 0.09255934 0.088287026 0.08763976 -0.012863893 -0.016394852 -0.024657086 0.022004923 0.033278815 -0.09461388 0.07248218 0.054078188 -0.037174694 -0.064341515 -0.024800051 -0.0009875121 -0.016156532 -0.08635178 0.035787657 0.09658809 -0.015698448 0.004691422 -0.05157567 0.024253827 -0.06847319 0.022440765 -0.032554206 0.058582578 -0.06874446 0.021161132 -0.030181859 -0.09199569 -0.012317659 -0.022117903 0.07822521 0.06706408 0.058546223 0.0051734643 -0.06067867 0.061059922 -0.021934703 0.024892818 0.06945885 0.014896233
95 -0.038852885 -0.05969235 0.022421544 0.055991016 0.048430312 -0.050711695 -0.025938204 -0.012465863 0.08341897 0.01491981 0.047546417 0.06299982 0.028815366 0.047693186 0.07947029 -0.086383775 -0.056491837 -0.022980127 0.020020278 0.046455957 0.046564624 -0.01503109 -0.039051495 -0.08900261 0.02609919 -0.049463995 -0.042814128 0.047436036 0.015573582 0.030666003 0.08965941 -0.006352899 0.014018148 -0.059299093 -0.044775665 -0.04616934 0.04306753 0.0059820563 0.043428898 -0.10046196 -0.0063239625 -0.03630175 0.024219304 -0.0099065825 -0.08770663 -0.00031380635 0.03894849 -0.024502097 -0.06324525 0.026099343 0.064087205 0.04380282 -0.021690728 0.0138543155 -0.07481159 -0.055571686 0.09824917 0.014914252 -0.07513606 -0.012450997 0.09407874 -0.043189377 -0.012498154 -0.0035232008 0.08342413 -0.08950561 0.083793 0.010943653 0.0047580386 -0.001242145 0.07099031 0.0075364504 -0.033499636 0.019452102 0.08266959 0.07030987 -0.033509415 -0.07176243 0.0012968429 -0.03082433 -0.01910216 0.06317668 -0.013860123 0.0035931417 0.03599602 -0.07728308 -0.07647014 0.041113887 0.0058240695 0.0005101245 0.033354048 0.07338833 -0.027366554 -0.089016154 0.052725784 -0.08930924 0.039998423 -0.046017542 -0.073827334 -0.07092204 -0.06771048 -0.048696473 -0.019644503 0.0032883584 -0.08965537 -0.023852196 0.012956563 -0.03331443 -0.0016077319 -0.056897346 -0.04877217 0.07198078 -0.049087096 -0.08655797 -0.014515563 -0.09411929 0.06357086 0.093386985 -0.009498508 0.036056243 -0.043084454 0.07276621 -0.004469609 0.093056485 -0.043497115 -0.060238298 0.050512493 -0.09054052
94 -0.044910625 -0.09068005 -0.08887945 -0.020012401 0.00882485 -0.095489874 0.047070336 -0.061976396 -0.028701063 0.085622236 -0.09625329 0.08306366 -0.033101447 -0.04785461 0.012077166 0.056116685 -0.08537976 0.046153747 -0.009177866 0.05144678 -0.050639946 0.036987238 -0.07281056 -0.01880419 -0.052923832 -0.013244989 0.031914257 0.0109917335 -0.072962336 0.0021151565 -0.059271064 0.06521355 0.09176395 -0.030259948 -0.062861875 0.014562357 0.054286983 -0.057494957 -0.05955162 0.08812389 0.033381462 -0.036153987 -0.045985136 0.08519158 0.02559471 0.04275361 0.079128064 -0.03832522 -0.04904435 0.08254184 -0.06165346 -0.07699001 -0.09033282 -0.06004467 -0.00251594 -0.0028465379 -0.031077273 0.09806621 -0.055565085 0.00058203575 -0.03224965 -0.00864161 -0.05020692 -0.01277052 -0.0664085 -0.07070237 -0.055538632 0.0047054132 -0.08406052 -0.02488336 0.09880513 0.038597275 0.07872537 0.0146372225 0.044586994 -0.0025382186 0.08965839 0.057243284 -0.0015791878 0.07570887 -0.08550758 -0.08269616 0.092833824 0.011816225 0.050311774 0.03247331 0.002438034 -0.07460685 0.05149875 0.053329837 -0.07452119 0.02431508 -0.039859265 0.044329137 0.02050486 0.030831158 -0.09175951 -0.08270161 0.0783519 0.01471095 0.0014332235 -0.06538692 -0.008159207 0.09050727 0.06622581 -0.012556545 -0.040611655 0.0648271 0.019650664 -0.08090599 -0.0012818379 0.0012023799 0.05981595 0.05201973 0.003365362 -0.039829455 -0.05952086 -0.09336729 -0.09378755 -0.02480862 0.06991415 0.086654074 0.051858976 0.006385303 -0.01105126 0.020153021 -0.06758436 0.043217406
97 0.041072275 -0.053723276 -0.091151826 -0.050770063 0.09516011 -0.017275501 0.09923271 0.060088653 0.09260769 -0.0021033175 -0.048699226 0.097262956 0.08575835 0.06275193 0.0396173 -0.044625964 -0.05747118 -0.05512733 -0.03172168 0.09380983 -0.037161242 0.02662605 0.094776385 -0.045677636 0.07174546 -0.09080991 0.06590518 0.06410872 -0.0732945 0.057619758 -0.023893945 -0.050979182 -0.06472516 0.09594075 -0.08560322 -0.042891923 -0.08470662 0.08411356 0.03292813 -0.08945517 0.005492271 -0.01405866 -0.013428341 0.012851417 0.06921562 0.046750225 0.011568377 0.06530297 -0.035668846 0.005608009 -0.09507648 0.047077514 0.022392204 -0.086093836 0.03963009 -0.06395041 -0.074252784 -0.08694863 0.07994057 0.039733984 0.0056932094 -0.0120840855 0.03785757 0.022043472 0.027409539 -0.009694672 -0.038306646 -0.07225914 0.04761451 -0.0085543655 -0.048911825 0.010389946 0.038834874 0.0913883 0.07583237 -0.018164854 0.072601005 0.033685513 -0.061917886 0.067780815 -0.009002898 0.054768756 -0.06548796 0.06299427 -0.037630666 -0.051690042 -0.08079218 0.06662055 -0.0005141869 0.07621107 0.038090844 0.08024045 0.011774297 -0.033388007 -0.029723158 -0.04761172 0.06687102 0.07214311 0.025566366 -0.03799296 -0.075008616 0.055862695 0.017039137 0.08706799 0.06934263 -0.04846878 -0.06420131 -0.034637082 -0.083746046 -0.095163174 0.006383674 -0.038482614 0.030634776 0.090882614 0.06325577 -0.05138308 -0.08060349 0.038260404 0.019488592 -0.07058684 0.011488514 -0.0026947649 0.014873666 -0.086446755 -0.06358976 -0.07023972 0.061000712 0.059905473
