1512 128
344 -0.018542558 0.03688247 0.023653222 0.039044242 -0.02495934 -0.06872988 0.036282714 -0.01940169 -0.0053512603 0.07947927 0.07373807 -0.065956846 -0.02460748 0.044063553 0.01810272 -0.010103824 -0.015606593 0.015066329 -0.06333199 -0.06962216 0.0011042046 0.03270721 -0.04084933 -0.012436231 0.034665205 -0.032948583 0.032564703 -0.024400841 -0.030121442 -0.029229848 -0.034960456 -0.016143553 -0.00041553308 0.07293682 -0.027502632 -0.013573309 0.023047052 -0.011152008 -0.010087655 0.062310234 0.045527518 -0.061067928 -0.04608283 0.058732595 -0.02281919 -0.05823691 0.04868041 0.028421799 -0.017117525 -0.011101044 -0.016216297 0.017827066 0.036155336 -0.02229991 -0.03352358 -0.032201268 -0.03492869 0.009770283 0.027567798 -0.0041149333 -0.031323303 -0.008097 0.010511727 0.04285256 0.02974156 0.027820205 0.029100649 0.044747747 0.053066272 -0.06531878 -0.0018430306 0.005670175 0.00057743734 0.0278181 0.015567604 0.0703172 0.06660004 -0.0223074 -0.013363827 0.0140248565 -0.027385797 0.046314538 0.054091502 -0.0115889935 0.0584868 0.020805972 0.027408484 0.04271544 0.036421485 -0.056330707 -0.0015768033 0.02099299 0.01850891 -0.011870375 0.03841941 0.07799638 -0.028097412 0.0026089442 -0.04697953 -0.050189365 -0.050318033 0.033775963 0.07061189 -0.06500638 -0.073056914 0.07199617 -0.04337839 -0.015539604 0.053459942 -0.063767046 -0.012046787 -0.027358979 -0.022553243 -0.0043941904 -0.07325758 0.011605629 -0.029625101 -0.04028144 0.02455376 0.043234166 0.026541587 -0.06722669 -0.028896287 -0.059562992 0.01495585 0.011868529 -0.074260354 0.007917786
345 -0.023334898 -0.06490042 -0.0334543 -0.005884207 0.0050648814 0.0018008958 -0.035893377 0.016782997 0.0037610987 -0.025438178 -0.0047380263 0.0002842897 0.06300657 0.017324591 0.024151223 0.050614238 -0.034122333 0.045778606 -0.08113439 0.030252367 -0.010444822 0.007079647 -0.0803734 -0.053598523 0.074756354 -0.06983382 -0.074339665 0.0069974125 -0.0488138 -0.0021366205 -0.074193135 0.0013840502 -0.032946818 0.036824252 -0.016921619 0.013855606 -0.052110612 -0.027306205 -0.025528803 -0.017824888 0.021146346 -0.057261042 0.030507267 -0.03930496 0.07842799 0.03051854 -0.024202328 -0.056731947 -0.026668439 0.029781226 -0.01524244 -0.031345937 0.03576292 -0.02705283 0.044167418 -0.038345095 -0.07382235 0.04191471 -0.05040022 -0.044505917 -0.015573852 0.06761955 -0.05305023 -0.0060827816 0.02380316 -0.0484166 0.02640879 0.023557946 -0.007871204 -0.01225641 0.07853617 -0.0160626 -0.0689779 -0.05514461 0.07887994 0.0769197 0.044442218 -0.008296986 -0.037347756 0.062898666 0.043137345 0.0051153307 0.019396964 -0.02489102 0.0021010335 -0.072531395 -0.023674045 0.020085027 0.017213695 -0.02005157 0.0027274163 -0.018599546 0.039362427 -0.0060588485 -0.048172586 0.0075255744 -0.04875151 -0.059119474 -0.017721651 0.034763675 -0.019219536 0.069365054 0.02777173 -0.0386553 -0.015175077 0.06212316 -0.076147415 -0.08038905 0.04394706 0.00214341 -0.034541402 -0.021347834 -0.0018945355 0.048944756 0.012747211 -0.010550363 0.01725919 -0.034753375 -0.08029577 0.009710486 0.0020137643 -0.05105189 0.03336189 -0.07627944 0.0027028266 -0.057111647 -0.07103576 -0.009847031
346 0.021077465 -0.028407255 0.07077388 0.011476221 -0.060698554 -0.026691668 0.033145797 -0.009582428 -0.02133352 -0.022335578 -0.030232232 -0.05420368 0.04602019 -0.07556643 -0.019203912 -0.043486062 0.031029154 -0.019067027 0.013770713 0.015279809 0.010113571 0.033345204 -0.066929445 0.00033324864 -0.028139172 -0.021041298 -0.07023836 0.069683015 -0.016551739 0.02827975 0.0049189157 0.011203226 -0.025461383 0.016354539 -0.03779184 0.008322149 0.00037063588 -0.035124112 0.049372815 0.023470603 0.00473914 -0.07493567 0.04269015 -0.013292046 -0.030009832 -0.0008452642 0.0073968717 0.013385063 -0.07104591 0.042031854 0.026555799 0.01672059 0.018911324 -0.021818595 0.0013170884 -0.0428337 -0.03196091 0.035745718 0.022469833 -0.007961194 0.022415154 -0.03719673 0.017271832 0.07600832 -0.06622175 0.010222465 -0.034627676 0.023531707 0.025268884 -0.0663345 0.07700988 -0.0028255163 -0.004541531 -0.06467077 0.013371903 -0.030769918 0.0076759486 0.008529855 -0.051809214 -0.0065967035 0.025558304 -0.008995733 0.049703196 0.008007428 -0.027345246 -0.025866698 0.06498676 -0.000326609 0.070138335 -0.005079183 0.0156502 -0.016453605 -0.008593991 -0.037086133 0.036582664 -0.014795773 -0.050916124 0.025208604 -0.05553396 -0.050733957 0.017057737 0.07464081 0.030306173 0.011022777 -0.049257316 0.038799264 -0.02263116 0.030788226 0.017394263 0.011459827 0.033919457 0.06566813 -0.038045127 0.0644189 -0.0801947 -0.035363678 0.056352805 -0.06955476 0.0085568195 0.023413109 0.026482023 -0.037713245 -0.020359425 -0.01253317 -0.012121494 -0.041986525 -0.058548957 -0.08084781
347 -0.0013989416 -0.06592657 0.06241554 0.029546773 0.01513556 0.015911316 0.045778774 0.025151232 -0.021518594 0.046938293 0.05951401 -0.042000897 0.07278866 -0.030856907 0.0028276416 -0.027688809 0.026801981 0.053983424 0.012957836 -0.04970421 -0.010718553 -0.05205265 -0.027080985 -0.07462838 0.073386446 0.006073811 0.01628621 0.025653435 -0.033927217 -0.0048075505 0.0073795146 -0.007767263 0.06134209 0.037007704 -0.022121117 0.057674244 -0.055208333 -0.059531044 -0.00038979354 0.050687045 0.046636324 -0.022723638 0.021973507 0.043280065 -0.04477357 -0.05209463 -0.027659489 -0.029975308 -0.016656691 0.06623563 -0.061526015 0.028039284 -0.022409437 -0.0036733116 -0.016354425 0.02893021 0.042827558 0.030606162 -0.065004975 0.013988585 -0.06516814 0.06417734 -0.037381437 0.010266809 0.030261789 -0.01422572 -0.027754625 0.055241935 -0.028341457 0.02694735 0.025035443 0.036080014 0.034522805 -0.05550347 -0.012423815 0.061987467 -0.026727198 -0.07044618 -0.033336747 0.011273836 0.054691758 0.017336624 0.04320595 -0.019303896 0.02543867 0.009199118 0.07978009 -0.028989283 -0.025328066 -0.0025753798 0.046886466 0.036396515 0.057678957 0.023746565 -0.07537135 0.019947197 0.0060747624 -0.020566816 -0.03246455 -0.08012967 0.027734574 -0.0145532405 -0.0017381822 -0.016311511 0.030218864 0.020237125 -0.050438963 0.024027683 0.026547818 -0.04165909 0.029467901 0.03348742 0.03666551 0.0077911704 -0.044791147 0.038035154 0.048855722 -0.042486764 0.032729447 -0.01042806 0.02424569 -0.0061605563 0.035448305 -0.070567414 0.0718104 -0.012471314 -0.06604946 -0.0008346627
340 -0.0028423094 -0.05964223 -0.0019867667 -0.028377432 -0.0714136 -0.06759958 0.010711668 0.051551636 0.016385445 -0.012003952 0.058743704 -0.03781638 0.046710394 0.028924106 -0.0696834 0.009053335 0.0014658018 0.055165634 -0.025426595 0.042320754 -0.021864925 -0.007091323 0.00038904487 -0.0787519 -0.029908504 -0.012158219 -0.07814734 -0.04185109 0.00032397674 0.037621118 0.026077831 -0.024333222 -0.020131003 0.008640512 -0.003054838 0.018157493 -0.020878859 -0.055763967 0.07912062 0.052446995 0.03769277 -0.0667173 -0.06163828 0.047909956 0.08052801 -0.01226416 0.0011749672 -0.0011325693 -0.05374221 -0.019536896 0.02945344 0.051476225 0.034308475 -0.026057696 0.067960255 0.012895515 -0.00062763377 0.0009310611 -0.034291666 -0.022990992 0.037598602 0.072236165 -0.07728981 0.014133666 0.037728723 -0.029115668 0.013251346 0.002541966 0.070962094 -0.028099552 -0.029420245 0.0169236 -0.036661092 0.024944963 -0.03879118 0.03900515 0.014369931 -0.018049404 -0.02247464 0.044776917 0.05598731 -0.0040808762 -0.025920393 -0.009048301 -0.008804155 -0.0005992915 -0.026215699 -0.018184798 0.0051777093 0.02339984 0.0042671114 -0.011323684 -0.022478687 0.011136083 -0.0037037341 0.047761954 -0.051705167 0.036543027 -0.055989254 -0.007241595 -0.07068605 -0.024549564 0.02223444 -0.0052557746 -0.054893047 0.014604308 -0.014924817 0.002052202 0.06595475 0.005297718 -0.02873664 0.04011002 0.04304404 -0.0027276187 -0.053935274 -0.03352655 0.07310021 -0.05799237 -0.050912645 -0.024658643 0.039902557 -0.030855995 0.024240822 -0.023684729 0.0115146795 -0.07456953 0.0013383565 -0.02637378
341 0.018752532 0.0009411959 0.06693117 -0.053206548 0.006784492 -0.051945064 0.06920827 -0.032603607 0.039330542 0.021473741 0.066066355 -0.04777477 -0.01404328 -0.042738214 0.02339189 0.045622703 -0.0113333445 0.028489448 -0.025133815 -0.050256334 -0.015248818 0.013410093 -0.04142556 -0.07574953 -0.0035189928 -0.079317234 -0.00981939 -0.031740118 -0.045768823 0.048667666 -0.011814643 0.019052165 -0.016618775 -0.041522246 -0.014529081 0.03966062 -0.060128458 -0.0066070026 0.040221974 -0.011869592 0.0743861 -0.02278356 -0.0012643682 0.07554021 0.0023408737 0.014668408 -0.018540366 -0.070740454 -0.057728227 0.007665125 0.021120448 0.046083253 0.0738804 -0.0033102538 0.03419678 0.0059327586 -0.052182626 0.028254151 0.018046556 -0.07295097 -0.007314433 -0.0014091987 0.022269523 -0.036918342 0.031766865 -0.040205732 -0.038051642 0.041700058 0.02591912 0.017984856 0.014660881 -0.029658161 -0.06424892 0.02708124 0.07078829 -0.006048643 0.044053663 -0.074133486 0.011617131 -0.030305352 0.034349717 0.029338216 0.07584456 -0.03310488 0.00783001 -0.054834135 -0.009163073 0.0061968924 -0.029627247 0.026855826 0.042853378 -0.028621472 0.07711022 -0.0034356841 -0.06694304 -0.018985119 -0.070429385 -0.01406876 0.012798349 -0.046699934 -0.04772274 0.039491083 0.016153082 0.037479274 -0.041279048 -0.01829909 0.019991297 0.039117243 -0.028315278 0.0029736173 0.023778273 0.01392665 0.06592007 0.061643165 0.018864756 0.025631132 -0.02414399 -0.023005178 -0.08054494 0.009961547 0.056509968 -0.060658835 0.011564135 -0.069766805 -0.03236662 0.028188754 -0.08111938 0.00031391974
342 -0.06853605 0.00937959 -0.00392174 -0.018641816 -0.028194476 -0.0516944 0.008676209 0.061945647 -0.020983113 0.046389885 -0.014686587 -0.051067423 0.060521413 -0.06283462 -0.03738671 0.026680293 -0.018472271 0.039705995 -0.018994238 -0.009771066 -0.0050783106 0.00501135 -0.07165096 -0.014238686 -0.018520307 -0.04520894 -0.061456606 -0.025036383 0.028171534 0.051919363 -0.016529813 -0.03902237 0.010647515 -0.03123463 0.0052572587 0.059154294 -0.055824038 -0.064861536 -0.009065655 0.052136034 0.05872351 -0.017685112 0.0035069378 -0.0065845656 -0.04123169 -0.07813689 0.031073758 0.03282427 -0.026138619 0.023179013 -0.030854367 0.07252456 0.052373137 0.020015778 0.024093635 -0.08022847 0.02190326 0.040883366 -0.0063861036 -0.004356976 -0.043095525 -0.037692666 0.0056175226 -0.014982194 -0.08059242 -0.04008619 -0.033342935 -0.010212432 0.07442943 -0.0056869853 0.0752016 0.020980442 -0.0358349 -0.07908049 -0.013982029 -0.005918135 -0.035539906 -0.036628418 0.004550273 -0.006067361 0.028428756 0.052162196 -0.02387245 -0.016940892 -0.010678619 -0.04043576 0.023370469 0.04198004 0.059173618 -0.031286255 0.011599778 -0.025459437 -0.026250446 -0.052224394 0.027673833 0.06881541 -0.058975324 0.03881379 -0.030494248 -0.07034995 0.018937875 -0.012399483 0.048378922 0.015191132 -0.03316623 0.079354025 -0.07865506 -0.07201298 0.022523414 -0.071792655 0.024251372 -0.02451444 0.02139123 -0.031825498 0.013108673 -0.005660336 -0.03821017 -0.06030678 -0.011636629 -0.0029706128 0.03118393 0.035065793 -0.041993428 -0.0025118794 0.0671253 -0.08118648 -0.0070783435 -0.020715082
343 -0.059998028 -0.006302012 -0.032615803 -0.07800015 -0.064970225 -0.029756851 0.03516429 0.07088321 -0.05017517 0.0002227414 -0.031149538 -0.023918493 -0.037740797 0.0015382045 0.00953359 0.045186456 -0.017999109 0.04827998 -0.05251384 -0.016993467 -0.012338623 -0.07563609 -0.048619945 -0.033614695 0.008507283 0.009979931 -0.034466095 0.06600049 -0.050866608 -0.0064399755 0.034947056 0.005072017 0.027030379 0.023982706 -0.07570013 0.06223434 -0.04553716 0.035670944 0.058565803 0.05523339 0.0043011457 0.0072177905 0.037333395 0.040611006 0.0039758547 -0.0014615112 0.016375558 -0.07463793 -0.07427639 -0.015137175 -0.0148905385 0.0751866 0.08000879 -0.035918217 -0.037368055 0.01025047 0.00033936836 0.061189074 -0.015679238 -0.0121332 -0.021856496 0.08103981 -0.039073545 0.062235083 -0.059040684 -0.0308567 -0.0054014153 0.034897048 0.061513986 -0.077271074 0.06359455 0.0046442747 -0.026306316 -0.007926501 -0.012904067 0.052826677 0.04741502 0.023145406 0.0012372516 -0.03894188 0.026255846 0.07857222 0.04887419 0.0026261667 0.03872953 -0.045118827 0.06657541 0.04338775 0.01684141 0.020382613 0.045058027 0.07664738 0.057801012 -0.019447874 0.022545207 0.05377639 0.0039055315 0.027725838 -0.051640786 -0.03456159 -0.08006878 -0.0016594507 0.018774778 -0.040619113 0.011989421 0.07370021 -0.072798245 -0.003205698 -0.038266513 -0.06723434 0.006243569 0.073846094 -0.011473809 0.027388511 -0.068067655 0.04757623 -0.03729941 -0.076172665 0.0082570985 0.042966153 0.07562594 0.021948105 -0.038962025 -0.037113983 -0.03975912 -0.044154935 0.009942142 0.030909743
348 0.01626423 0.035070203 0.07232065 0.02902881 -0.027337044 0.024215695 -0.026583306 0.06603518 -0.07004358 -0.031076403 0.00396237 -0.039130095 0.018161867 0.021309588 0.034802057 0.05951355 0.035731304 0.07642683 -0.023828091 0.031532362 -0.027916541 0.007821318 -0.009851395 0.036510393 0.048613098 -0.03505693 0.016074128 0.062823296 -0.07935027 0.07471315 0.017633207 -0.041820902 0.061853036 0.08063914 -0.05741551 0.027610589 -0.08060757 0.03656001 0.057308413 0.070238575 0.07904243 -0.033068363 0.03586383 0.046328988 0.051876634 -0.033114858 0.033681888 -0.050047122 -0.053719636 0.04415029 0.020786107 0.047491156 0.07571058 -0.032184735 0.0035697217 -0.0018805114 0.02673824 -0.02974757 0.017884843 0.04228302 -0.05559441 0.010895214 0.027194118 0.05619052 0.0017254743 0.020207282 -0.055355284 0.04882277 0.06911856 0.012235921 0.0316011 0.0011419638 0.026038216 -0.03453015 0.015178392 0.020306682 0.05433965 -0.06547099 -0.06598384 0.038493495 0.01862935 -0.027080033 -0.033699464 0.0023457669 -0.02505135 -0.04816228 0.07971905 0.020365285 0.018226689 0.037714995 0.07765774 0.08030829 -0.009692753 0.030351711 -0.07408968 0.04142517 -0.04930186 -0.025307667 -0.057614956 -0.050280537 0.030720517 0.060211204 0.051321287 -0.061420616 -0.0057375953 -0.012162933 -0.034034275 -0.0592535 -0.010583261 -0.014436475 -0.015583133 0.026083888 0.07201775 0.01393405 -0.06138578 -0.029099088 -0.029251654 -0.019802408 -0.05726759 0.04813692 0.061400253 -0.012366446 -0.028018706 -0.070427366 -0.03615372 -0.03702368 -0.07081291 0.039102502
349 -0.07547406 -0.07199221 -0.028059829 -0.030519312 -0.048691668 -0.04005497 0.06554498 0.056445234 -0.024567863 0.075590506 0.012253046 -0.015256386 0.07457638 -0.05617596 0.0023430372 0.04444016 0.016710164 0.062405124 -0.05782036 -0.033627316 -0.036434222 0.038966455 -0.06451678 0.02284194 -0.017076213 -0.06622257 -0.00058828073 0.056804936 0.019857008 0.05922321 0.03110882 0.02492539 0.005870266 -0.026516542 -0.0015766937 0.04350347 -0.04806818 -0.045268424 0.06877881 0.017007394 -0.0387231 0.034060992 -0.07867276 0.043134242 0.019105367 -0.065574184 0.058249153 -0.04140958 -0.0079593295 -0.011724585 -0.029792065 -0.015570313 0.06679986 0.021509154 -0.028261336 -0.075361356 0.04531046 0.030419819 0.033947397 0.00023934525 -0.08022229 0.0075417478 -0.051012546 -0.015912218 -0.042909887 0.0030189317 -0.06446664 -0.038857333 0.006935767 -0.011729936 -0.013224794 -0.02642245 0.0017085904 0.026737403 0.05638813 0.0020212897 -0.0022452115 0.010071904 0.011611498 -0.007408423 0.015696902 0.026428316 -0.03215193 0.017699983 -0.031726327 -0.023935704 0.03666192 0.06415026 0.04179633 -0.027022133 -0.032770764 0.05032795 0.020519847 0.023340538 -0.016883204 0.00028104172 0.039034348 -0.059257347 -0.06822641 -0.060709607 -0.0131862685 -0.02749696 -0.032527544 -0.032794844 -0.031355694 0.036653217 -0.06963124 -0.01967128 0.017199744 -3.367185e-05 0.008735618 -0.022379335 0.008556155 -0.0082048755 -0.059531353 0.0117343785 0.01069661 -0.018218273 -0.045202505 -0.035714086 0.013658392 -0.042863853 -0.045888204 0.010533584 0.04427921 -0.039239805 -0.028478272 -0.07452699
298 -0.026624247 0.024299987 -0.018050082 -0.08004438 0.0038531562 0.023171943 -0.022826098 -0.03988461 -0.076803476 0.05120122 0.075688824 -0.039339166 -0.0073736813 -0.052515805 -0.06835809 -0.035610426 0.0005686948 -0.002248864 -0.019203415 0.015581971 0.01695265 0.01738776 -0.079835065 -0.024305092 0.06479976 0.026958723 -0.056897175 0.016254872 -0.07593291 -0.016341507 -0.044025566 0.01481499 -0.026961818 0.019560747 -0.074884884 -0.00045970664 -0.030997522 -0.0011284436 -0.004011309 -0.027715981 0.044547856 -0.033008207 -0.0044203536 0.07952048 1.833192e-05 -0.001003451 0.0022259115 -0.055427305 0.007048947 0.04623177 -0.061096653 0.0011767364 -0.009424248 -0.016541747 -0.041226026 -0.006334793 -0.039596032 0.041400284 -0.026133262 0.009512989 -0.032308597 -0.03546518 0.01623742 0.011089451 -0.015252844 0.004810953 0.025311643 0.021955322 0.01736342 -0.024222126 -0.030597208 0.07385085 0.032115843 0.0040198383 -0.04266233 0.07004947 -0.011275269 -0.03540078 0.034834642 0.07221087 -0.027177142 -0.024670899 0.055985548 -0.06263993 -0.004598338 -0.07316066 -0.0011416131 0.066430725 0.064547285 -0.02515425 -0.032395326 -0.03519874 0.06510769 -0.06509627 0.008182441 0.0033908635 -0.079083 -0.02412407 0.0388663 0.0037065917 -0.055057492 0.07592991 0.07019351 -0.06807159 -0.045518037 -0.026645722 -0.020634817 -0.044709086 -0.0014086616 -0.078497894 -0.012884346 0.016999984 -0.017868178 0.040080603 -0.0067473752 -0.034470614 0.007587407 0.013458195 0.016313972 0.079426855 0.011153973 -0.036163907 0.020824432 -0.03954989 0.072184645 0.028485686 -0.07747149 -0.06103081
299 -0.028578296 -0.0020164887 0.07721209 0.031589802 -0.06798528 -0.079641856 0.039847232 0.034464482 -0.014125649 -0.019478038 -0.0014187378 -0.04637537 0.022427324 0.009027118 0.039166074 -0.03827005 0.02445712 -0.03337711 0.033039603 -0.029036738 -0.026561597 -0.06304939 -0.06413288 0.017445074 0.047743678 -0.055051222 -0.05007258 -0.039748367 -0.07640587 0.02415962 -0.07000431 -0.0699096 0.048259057 0.05978939 0.012083198 -0.030337641 0.015253993 0.026585031 -0.041938048 -0.000736973 0.050710924 -0.035826564 -0.023795007 0.013566531 -0.01861588 -0.07996854 0.016085403 -0.07457879 0.035373937 0.055185303 -0.029990934 0.05534198 0.075163424 0.057574466 0.04554408 0.03344803 0.03494522 -0.025906695 -0.06182588 -0.07484499 -0.023509052 0.08032396 0.0061286436 0.02832365 -0.002004742 0.019286208 0.0057280306 -0.00011967833 0.0072368914 -0.026197663 -0.009662247 0.022884687 -0.03180961 -0.04269093 0.065693475 0.04182222 -0.004192308 0.01553279 -0.063216925 -0.002699079 0.052708667 0.07688556 0.06135799 0.0055577685 0.074121535 -0.077693015 0.009653186 -0.007109589 0.068965934 0.02945552 0.068494685 -0.034357354 0.08117935 0.038881723 -0.0001574948 0.073355414 0.010504119 0.024303667 -0.07202052 -0.02118561 -0.021021271 -0.008541597 0.03658367 -0.072124824 -0.034784775 0.047222443 0.026227485 -0.009330664 0.031674523 -0.018921062 0.021228379 -0.010349309 -0.025756309 -0.02350111 -0.04810978 -0.02128637 -0.006016337 -0.019942496 0.024752123 -0.032908075 0.057590753 0.0024544434 0.05068961 -0.06264228 0.021381535 0.021922164 -0.06768089 -0.02377866
296 -0.00506661 0.013823388 -0.042497728 -0.074641846 -0.00065764005 -0.07309611 0.031673595 0.010399476 0.024207149 0.073594436 -0.008220275 -0.06282492 -0.030901892 0.029344816 0.033877335 0.014564787 -0.05750967 0.053547706 0.021824311 0.028448997 -0.044446178 -0.0037981593 0.02067985 0.005542692 0.037677743 -0.0385444 -0.057190076 0.030971505 -0.07696448 0.034581184 -0.029662356 -0.068046145 0.039873086 -0.040032748 -0.028292712 0.016297163 -0.049219303 0.0062010237 0.03587729 0.012920039 0.015381727 -0.05737367 -0.061805457 0.06892989 0.029135507 -0.0734265 0.037904046 -0.07806224 -0.013249803 -0.013814368 -0.066094674 0.048544265 0.0761495 -0.016917638 0.036415014 0.010446177 -0.07255697 0.033286627 0.028720846 0.0100659635 -0.021524396 0.038978897 0.018691538 -0.01340922 0.0048139878 -0.04116176 -0.05470753 0.051153913 0.013656028 -0.0014336419 0.041058417 0.011157488 -0.01007212 -0.035793696 0.07760981 0.019039601 0.040786196 -0.047031976 -0.08087384 0.009512901 0.07261536 -0.015425579 0.07133118 0.033542197 0.04266733 -0.027359305 -0.037200168 -0.029285181 -0.012732771 0.022141067 0.07728651 -0.003929714 -0.022347277 -0.057469394 0.011023507 -0.028791359 0.031620413 0.0025339618 -0.06383596 -0.049974557 -0.074191734 0.058945984 0.0077140843 -0.07087779 -0.07814732 0.072534606 0.0032401327 0.013688568 0.018767888 -0.03232989 -0.07583703 0.017547535 0.04856959 0.0029954407 -0.011850156 0.054035224 -0.004683718 0.0015516056 0.028469957 0.025191147 0.07966652 0.0069030924 0.067197 -0.031494312 0.068175994 -0.061783113 -0.04696829 0.033992562
297 0.01502165 -0.06837234 0.07419901 -0.059726004 0.00033698545 -0.04502789 0.029326307 -0.003155112 -0.00030699407 -0.028036527 -0.013038561 -0.06965072 0.024527209 -0.054806247 -0.037649512 -0.04494534 -0.030578032 -0.010338493 -0.04591441 0.035448503 0.03478453 -0.07233456 -0.0069628274 -0.0070213797 0.054709427 -0.016454604 -0.02848303 0.049024086 0.0018537521 0.01872405 -0.053319346 0.02301141 0.010702798 0.06355245 0.033532016 0.079078995 0.010373128 -0.008673826 0.06542889 0.05434981 0.036209647 -0.06756155 -0.048326626 0.06455508 -0.025601903 -0.05593782 0.06019214 -0.074248224 -0.031751152 0.0019864305 0.011980115 0.04294036 -0.028246086 0.060125314 0.006367818 -0.02953189 0.026034275 0.058665223 -0.04805111 -0.018562078 0.023944788 0.034374356 -0.050019443 0.040977646 -0.06796198 0.032671638 0.010430404 0.030012302 -0.039344892 -0.039197866 0.028021019 -0.019658634 -0.042634666 -0.027758416 0.014401189 0.01414818 0.08112981 -0.07307971 -0.063883364 0.032169715 0.022438932 -0.0027801495 -0.016541103 0.03718976 0.06284723 0.010926063 -0.017245451 -0.038298484 0.027048588 0.03952472 0.033423223 -0.013079282 0.050747372 -0.061914217 0.02753691 0.080833524 -0.047575735 0.02525571 0.026647724 0.013677093 0.001153755 -0.024479607 0.004231932 -0.01533905 -0.043058835 -0.038195875 -0.08078979 -0.03184945 -0.03138814 0.0060101952 0.013045895 0.07656906 -0.012958663 -0.0029518532 -0.02816592 -0.03831128 0.0055247336 0.022479339 -0.054714918 0.037224837 0.015514465 -0.08017981 0.07690353 -0.043753434 -0.006051865 0.01155072 -0.057465304 -0.014954655
294 -0.02647966 -0.05609181 -0.025380148 0.00334277 0.022626596 -0.06943644 -0.018468104 -0.017194614 0.017126018 0.050825603 0.050736323 -0.040324166 -0.005453546 -0.078169994 0.022279678 0.0073714824 -0.07936304 0.009201247 -0.035935696 0.024349816 -0.006533962 0.023773734 0.0182585 -0.043628354 -0.017433036 0.014315171 -0.0063635334 -0.0180619 0.030225711 -0.024606613 0.021025244 -0.012799409 0.027161827 -0.03325279 0.031516686 -0.0044618924 -0.041166157 -0.06668548 0.06382882 -0.025580931 0.03747695 -0.013213299 -0.0034320187 0.033706926 0.079154104 -0.04387696 0.034094557 -0.03873192 -0.028890016 -0.001609679 0.0058501638 0.023974964 0.03172816 0.03796574 0.041798223 0.013992263 -0.014925822 0.054819304 0.018699603 -0.01086383 0.003058012 0.061920054 -0.047864277 0.00080695027 -0.019656949 0.015736897 -0.014769698 0.047582034 0.060903456 -0.065520555 0.03261867 0.03931737 0.012999438 -0.0024369098 0.011718259 -0.007715159 0.065971054 -0.006683225 0.03666968 -0.020891933 0.059224956 0.06994731 0.003305384 -0.07682324 -0.021287886 -0.07103049 0.0163063 0.06145394 -0.026418203 -0.073358215 -0.030006304 0.06347658 -0.01125729 0.02266905 0.0011851012 0.055506483 0.02450357 -0.04069875 -0.0697638 0.026180476 -0.050514568 -0.038686976 0.03208524 -0.06461633 0.028260605 0.07966362 -0.0053367903 0.025340006 0.045716006 0.024620192 -0.054018375 0.05426994 0.028153803 0.0036709337 -0.04086777 0.035049763 0.015249905 0.01482263 0.0029933413 -0.006650616 0.041766696 0.019080989 0.015281695 -0.04733093 -0.009922161 0.027400294 -0.003595545 0.02613926
295 -0.06670634 -0.040688403 -0.042782538 -0.046632554 -0.030405672 -0.03102976 -0.037318643 0.074257284 -0.055432398 -0.03685153 0.039833672 -0.04777724 0.06334711 -0.0254204 -0.05089082 0.07623154 -0.045790732 -0.013982924 -0.080061115 -0.070059724 -0.033317994 0.03133027 -0.02131891 0.03478218 0.055053752 -0.05996377 0.008197732 0.06543035 -0.041703697 0.05110654 -0.047504973 -0.0691782 0.056993462 -0.016095316 -0.03645173 0.04108072 0.02477859 5.6865974e-05 -0.023357635 -0.03332143 -0.029920882 -0.048431568 -0.06501333 0.022116559 0.03445171 0.03097715 0.030740442 0.0033081453 -0.07673962 -0.024594096 0.0320765 -0.010989964 0.05261757 -0.01698593 0.055191793 0.035399497 0.0019928357 0.079470396 -0.023471484 0.02510898 0.035839204 0.014787607 -0.02889811 0.07084761 0.028640954 -0.012340863 -0.020194551 0.0070744273 0.036679532 -0.020374553 -0.014608482 -0.006744413 0.032150224 -0.052551966 0.02907167 0.0123456875 -0.029705377 -0.06268062 0.011659107 0.025066838 0.067769155 0.03735204 -0.037241027 -0.06103728 -0.0019940194 0.031866416 0.079046294 0.04981896 0.061710615 -0.06719644 0.03967729 0.049607106 -0.03548019 -0.027683627 -0.04813006 0.067310065 -0.0018202371 -0.0020253703 -0.06758521 -0.061559543 -0.051357195 -0.00046092796 0.031214913 -0.015774231 -0.07625201 0.03035575 -0.008767735 -0.03134015 0.030156786 0.009602039 -0.05206891 0.030338805 0.07999924 0.015400198 -0.0363267 0.07365203 0.061922614 0.037479933 0.032040946 0.03548776 0.023783099 -0.08065145 0.026085796 4.7710608e-05 0.07724573 0.025239207 -0.023846868 -0.015456164
292 -0.051533256 -0.043567106 -0.026634589 -0.04045545 -0.0321369 0.01838049 0.012535601 0.067973405 0.01280221 0.0741745 0.049723413 -0.054852504 0.02205028 -0.028112106 -0.024394555 0.03274341 0.03722657 0.07235586 -0.040878244 -0.068994835 0.025325319 -0.051886857 -0.008999622 -0.08078642 -0.015316622 0.0125614405 -0.051795408 0.010385185 0.029227171 0.016627988 -0.05267954 -0.004685411 0.07717709 -0.038300697 -0.018453721 0.034766376 0.022437345 -0.018790472 -0.0006406583 0.040436223 0.03384348 -0.059780817 -0.062140014 -0.016024938 0.03100256 0.035227098 0.016610138 -0.035932943 -0.053820197 0.052866008 -0.058122706 -0.025487505 0.07402118 -0.0106914975 0.04355657 0.014994871 -0.071464755 -0.003393644 -0.016585654 -0.021584267 -0.036363162 -0.012399025 -0.07146926 0.055667255 0.020911537 0.017508583 -0.06538117 0.016027668 -0.027241524 -0.0813691 0.05361929 0.06732041 -0.03618494 -0.044572357 0.014382531 0.013729162 -0.024428893 -0.011012774 -0.07908446 0.054595884 -0.038423583 0.06794594 -0.008115911 -0.008782136 0.033133246 0.024296679 0.036962207 0.015766542 -0.010829841 -0.040009823 -0.009285785 -0.0008666229 0.040531233 -0.036281943 -0.04411772 0.014397007 -0.047059666 -0.047376912 -0.055862818 -0.078573465 -0.032641858 -0.020294266 0.0083083995 -0.053354964 -0.06184278 -0.015643438 -0.02571626 -0.07939369 0.040231284 -0.052017067 0.01274809 0.054250307 0.021761296 -0.038192846 0.021906553 0.08053476 0.063402504 0.029864406 0.0012721563 0.021200294 -0.039907947 0.012009385 0.02832115 -0.045873184 -0.016750423 -0.031169692 -0.060454752 -0.029217117
293 -0.054540236 -0.0678919 -0.011448324 -0.035881337 -0.06772194 -0.06408016 -0.016538488 -0.011065149 -0.06503446 0.005172161 -0.026308207 -0.001265747 0.010067538 -0.078243956 0.0055973395 -0.024958793 -0.050378792 0.046843644 -0.03525754 -0.073445864 0.024636272 -0.0408506 -0.0110165635 -0.075198814 0.046019055 -0.027664324 0.0007560636 0.035343528 -0.039388012 0.07437218 -0.019481866 -0.01092859 0.03092167 -0.02942893 -0.013501397 0.07267761 -0.06609994 0.03281027 -0.020886658 -0.02387084 -0.02464919 0.009364197 -0.057755932 0.0491501 -0.018360784 -0.050434384 0.044158816 -0.03614066 -0.039472654 -0.037186686 -0.05434346 0.060189005 -0.0051051006 0.06434728 0.036630936 -0.009696929 -0.045718014 -0.024195189 -0.019574808 -0.06886281 -0.01811127 -0.023740498 -0.06488328 0.056812547 -0.07807633 -0.007732621 -0.07170057 0.0130977705 -0.022740036 0.021687977 0.058812276 0.07471978 -0.070517115 0.039504036 0.0340649 0.02272222 0.06298416 0.013884654 -0.022966426 -0.004077522 0.047338255 -0.012183661 0.054252032 -0.065856405 0.052736618 -0.036676086 0.074182265 0.07520591 -0.029034242 -0.017653333 0.038783465 0.055734087 0.052826125 -0.07982135 -0.06067903 0.059743315 0.013004983 -0.008516831 -0.072355285 -0.07808448 -0.07883057 -0.011250218 -0.02218953 -0.069265366 -0.053654693 -0.018308435 0.009396977 -0.05914049 0.049318936 -0.07795854 -0.066241466 0.008459416 0.07590261 0.0035744552 -0.054603375 0.027969524 0.07239989 -0.04483803 -0.08112387 -0.03509078 -0.027082393 -0.03269594 -0.024970572 -0.05677265 0.07884763 -0.03863198 -0.06943815 -0.064149186
290 -0.041133378 -0.06789234 -0.017587401 -0.035673827 0.011528683 -0.06710942 0.032284893 -0.029268539 -0.07216658 0.00857109 0.072591476 -0.032813437 0.013981161 0.029390968 -0.04371643 0.07170475 -0.0038213073 0.051462095 -0.03196773 -0.05708251 0.000531613 -0.047224272 0.028097887 -0.00062924577 0.007236706 -0.05255138 -0.06263441 0.05973632 -0.061224155 0.046215348 0.017983625 -0.07972001 -0.029640755 0.042212017 0.02335403 0.05823479 -0.06035331 0.019945478 0.005869628 -0.020589067 0.00030504342 -0.06764879 -0.038383823 0.0014816995 0.05477524 0.024207886 0.0019132121 -0.004427962 -0.0048566265 -0.04002023 -0.0047162953 -0.0015284399 0.006285001 0.0011642176 0.071147114 0.036777463 -0.040706456 0.040881194 -0.04296751 0.03879476 -0.024586808 0.06714325 -0.013623958 0.067886315 -0.032625582 0.0026098804 -0.053937893 -0.0020498303 0.07040198 0.014507873 -0.014052671 -0.019842044 0.013033431 -0.04902888 -0.02626589 0.014463498 0.07776648 -0.0049029943 -0.078031965 0.04793465 0.04425798 -0.012697053 -0.01203255 -0.027837573 0.020164454 -0.032511596 0.07865681 0.058860883 0.028002564 -0.06703858 0.0742358 0.025416773 0.08139688 0.031731743 -0.02535022 0.06983951 0.007503719 -0.08071093 -0.049038667 -0.0208984 -0.016938098 0.065727 0.018200018 0.018547855 -0.045009036 0.020805273 0.01259059 0.011946579 -0.017033858 -0.04145884 -0.030270841 0.039509945 0.058847573 -0.019298468 -0.024516871 0.024455251 0.07514899 -0.041999064 -0.058462396 0.041998163 0.0477641 -0.05928058 0.022965604 -0.0025002386 0.06808356 -0.06217931 -0.004573599 0.03729128
291 -0.001592916 -0.06519406 0.056010284 -0.020032728 0.00072955305 -0.07637823 -0.02488632 -0.02845719 -0.05192334 0.07483959 0.029582677 -0.024980953 0.08002825 -0.07555388 -0.06764487 0.0030455177 -0.019158415 0.050907873 -0.06822703 0.0362614 -0.059941318 -0.056717068 -0.07625902 -0.016710447 -0.020728812 -0.028480854 -0.0038863497 -0.018952172 -0.0131735895 0.011658594 0.031618655 -0.07942588 0.0019970064 0.027880996 -0.058560688 -0.035366252 -0.04474581 0.031371538 0.020316752 0.018984327 0.01536626 0.0066483733 0.02517949 0.016938686 0.01217648 -0.033080503 0.06072789 -0.03948806 -0.054697037 0.07974828 0.015538108 0.057633877 0.02673103 -0.0002861179 0.06956644 -0.07431776 -0.050812654 0.01454554 0.0038712102 -0.06178881 -0.07891426 0.033432964 -0.015703242 0.010019692 -0.04544062 0.032690696 -0.0054149777 0.03551837 0.07425957 0.03460338 0.0536167 -0.019740075 -0.00830854 0.011778705 -0.00047617045 -0.035768084 0.025427386 -0.06528126 -0.008468554 0.04976177 0.026955266 0.0708432 0.07779749 0.0017569644 0.07172713 -0.013494878 -0.022869658 0.07375306 -0.036621448 -0.026356077 0.05377957 0.024161415 -0.020671515 -0.060761265 -0.020682063 0.08037638 0.009216827 0.009291551 0.033429228 0.018764026 -0.06856161 -0.0016955435 0.040914074 -0.07084802 0.0022317423 0.06438678 0.038538266 -0.07802616 0.044120822 -0.004319855 0.022633554 0.039341915 0.08087948 0.07674461 -0.02987496 0.015252052 -0.03672376 -0.0003639398 -0.028080478 -0.0050684838 -0.0017710662 -0.03721796 0.06594417 -0.04207529 0.0196356 -0.0129795 0.0052050166 0.042919695
270 0.026751133 0.019535199 -0.022567982 0.011366254 -0.05621984 0.024745082 0.045957766 0.013991282 0.010030789 0.04416183 0.04658555 -0.06398161 0.023612361 -0.023639554 -0.066265546 -0.022283383 -0.05502354 0.048810333 -0.0017000233 0.0013567967 0.026621511 -0.042884436 -0.007283472 0.009117491 -0.03919093 -0.07429896 -0.03570578 0.019443695 -0.026390169 0.033303354 -0.07455694 0.0060023833 -0.029350314 -0.04073187 -0.02178996 0.0048960997 0.039554678 -0.02639132 0.017694745 0.045738026 0.04160717 -0.04733266 0.029307937 0.036239427 0.074641496 -0.05666922 0.061988015 -0.048778586 -0.028995432 0.03160852 -0.012825787 0.06066995 -0.0034037293 0.018510155 0.02368948 0.006875171 -0.034423478 -0.007103519 -0.017968923 -0.043611567 -0.011418877 0.05631017 0.012939486 -0.038596068 -0.033446893 -0.035874408 -0.032976355 -0.010564797 0.016440656 -0.01664093 0.056409378 0.04031864 -0.072093986 -0.042926487 -0.01922815 0.049264576 0.027302986 -0.05807672 -0.0755334 0.06485512 0.06662818 0.017766664 -0.007240063 -0.0413452 -0.021206997 0.013122254 0.019614879 0.07126345 -0.0008768842 0.03256383 0.022338368 0.07172645 0.0018192045 -0.056909714 0.023447366 0.052436553 -0.0751982 -0.013068629 0.031490095 -0.028934255 -0.047108762 0.061696768 -0.0026954203 -0.06284675 -0.0486398 0.02527602 0.026017902 0.01675529 0.042270128 0.009534786 0.03441356 -0.01549942 0.044949576 0.020236388 -0.017087849 0.02143383 0.04745714 -0.018023983 -0.06514239 -0.032008164 0.07253226 0.009042369 -0.030399548 -0.047150094 0.047942247 -0.04635981 0.02373698 -0.058109943
271 -0.022150833 -5.7751313e-06 0.02632579 -0.04858467 -0.06320637 -0.074995354 -0.026912678 0.013788542 -0.070605054 0.06909764 0.0093756085 -0.042377632 0.017962968 -0.019046506 -0.07993093 0.05657162 -0.0386746 0.012642332 -0.042460162 -0.07375578 -0.012001526 -0.030557955 0.03273832 -0.003829695 -0.00013876136 0.040030614 -0.07153876 0.018565498 0.01246837 0.07531914 -0.0086968765 -0.04588915 0.0074005593 0.06887342 -0.007582906 0.002223148 -0.037384912 0.017227089 0.052941915 0.07239646 0.0032628705 -0.02770111 -0.002887207 0.050505046 -0.033526946 0.02766801 0.080851614 -0.035407532 -0.018903451 0.0005969384 -0.028900735 0.024802754 0.031092718 0.040509947 -0.008711785 -0.06393575 -0.058896404 -0.022826103 -0.061324462 -0.0469381 -0.06837547 0.05213743 -0.033685002 0.07073973 -0.049116883 -0.008832085 -0.043365445 0.062320746 0.052265078 0.014883069 0.04146473 0.039453913 0.007314114 0.028941125 0.0331329 -0.008362138 -0.0065493765 0.036108937 -0.03299329 0.062433347 0.07185755 0.007564405 0.01696994 -0.017582383 0.009346556 0.033092383 -0.014992011 0.0489478 0.08080211 -0.0043419884 0.04325873 0.057064813 -0.038505007 0.028952338 0.03405645 0.038318664 -0.064529695 0.02496058 0.025822187 0.0072390977 -0.005422255 -0.021394031 0.042073447 -0.08040425 -0.057286493 0.0652094 0.023231436 0.041146584 -0.005446426 0.038365047 -0.035863098 -0.003532344 0.042782474 0.062908895 -0.055851392 0.035277925 0.054654986 0.0066821678 0.022014992 0.061820924 0.028739702 0.02828338 0.05402581 0.01796256 -0.021238785 -0.0044053667 -0.0022100597 0.033525467
272 -0.01101152 0.032447245 -0.0372971 0.011892827 -0.038531292 -0.0057814233 -0.024903655 0.07988715 -0.05462844 0.07832666 0.06997838 -0.014524981 -0.025357407 -0.033424176 -0.08070625 0.022095853 -0.013098603 -0.018085092 -0.0007096558 -0.064425446 0.016340772 -0.043689173 -0.063362874 -0.0015339829 0.07203108 0.00054914167 0.007662237 0.037638217 -0.055509396 0.028319532 0.026829455 -0.012549899 0.07051742 0.017281672 0.003447908 0.06300881 -0.07112455 0.018529363 -0.02145948 -0.006563481 -0.016959032 -0.011584011 -0.047248013 0.057667095 0.001920337 -0.021447977 -0.03000775 0.024818588 -0.027577044 0.07426165 0.024723422 -0.0051694917 -0.037302274 0.061729897 0.007519856 -0.0038529406 -0.0784584 0.079194486 -0.027644305 -0.008595675 -0.0101481015 -0.035639033 -0.012094882 0.0013755282 0.014989706 -0.05728096 -0.03026622 0.037913725 -0.032122076 0.0038516722 0.047950972 0.0670044 -0.07654404 -0.056120303 0.065682866 0.014267958 0.051346645 -0.020070728 0.0005656774 0.015108642 0.056552246 -0.00754761 -0.008588955 -0.041453425 0.008563864 0.03174297 0.00045107352 0.04698185 -0.012604165 -0.04537835 0.002866363 -0.032380298 0.017343104 -0.048223592 -0.03815947 0.059166316 -0.0011842829 -0.01887947 0.029127132 -0.075267 0.030240009 0.05531225 0.05927491 -0.012807723 -0.015333422 0.011533434 0.027105594 0.028789416 0.06073045 -0.007859611 -0.04790687 0.018690316 -0.02238759 0.07706828 -0.032804355 -0.012734622 -0.014317764 0.029335935 0.03995183 0.00040966552 0.006439188 -0.053169113 0.013541149 0.041767426 0.059754558 -0.04496316 0.0039861235 -0.016746178
273 0.021315303 0.00017003831 0.068322174 -0.01862506 -0.0808962 -0.024447735 0.006830199 0.025993502 -0.058748875 0.061589237 0.07040271 0.036553863 0.063090086 -0.052008346 -0.057431538 -0.04005077 -0.07762307 0.0491421 -0.0755307 -0.037728325 0.0014478103 -0.026397845 -0.024058348 -0.030736817 -0.0057529276 -0.03750644 -0.05538273 0.0045353286 -0.0133754965 0.067762606 -0.0683584 -0.0010670896 0.036233198 0.034452584 0.0011647602 0.042954456 0.029246785 -0.05274128 -0.038726546 0.02863395 0.0073252292 -0.03464154 0.009132538 0.004515818 -0.022415577 -0.05729249 0.015259608 -0.06501635 -0.023226604 -0.0019901544 -0.021655645 -0.006801144 0.069880016 0.015254347 -0.026339171 0.0023553176 0.029766243 0.069133855 0.006532485 -0.0781226 0.023353266 -0.029213931 -0.073829375 0.026985535 0.039389223 -0.03844094 -0.07803749 -0.028955195 -0.001974145 -0.07851449 0.010427888 0.047331143 -0.07457114 -0.06840461 0.05526724 -0.015451933 0.0029636298 -0.03239809 -0.031320684 0.017012572 -0.012059488 0.0067712814 0.046425536 0.0049664024 0.064925626 0.020272495 -0.0040199873 0.06447966 0.04335666 -0.011200229 0.046370067 0.04749677 0.07117051 -0.07786894 0.03323195 0.06367267 0.005564731 0.027238443 -0.013469897 0.0391746 -0.05036629 -0.0032098272 0.066725835 -0.01765545 0.03281979 0.03524194 -0.061606213 -0.0647624 -0.02002617 -0.06266035 -0.03780407 0.07079506 -0.032423798 0.04114939 -0.029191982 0.07359466 0.032770045 0.03448695 0.03630673 0.03575545 -0.011089272 0.014407665 0.009672287 -0.04769216 0.043028887 0.016971763 0.0013571777 0.01798354
274 -0.06272276 -0.06983817 0.027899763 -0.057522878 -0.06002379 -0.003775445 -0.015642587 -0.01030349 -0.038554363 -0.030960722 -0.008879635 -0.04401353 0.0006396042 -0.022499908 0.010791101 -0.038673174 0.033343315 0.0729568 0.009664319 -0.023470068 0.035851274 -0.023911096 -0.03968504 -0.079759225 0.044951625 -0.0023394828 -0.041558474 0.009898575 -0.07280872 -0.036280084 -0.057115074 -0.015884027 0.078711934 0.0076695196 -0.0547289 0.023671646 -0.040695388 0.035164464 0.024966858 -0.009975219 0.029075535 0.016602464 0.018948248 -0.010145527 0.030411107 -0.05676127 0.05085081 -0.023001254 -0.01993964 0.026038114 -0.029573524 0.05905074 0.03849887 -0.030572634 -0.027068555 -0.008101931 -0.05573199 0.06682517 0.03478517 0.0014080721 -0.013466944 0.0053604757 -0.06586605 0.072161704 -0.005839078 -0.04768305 -0.038093284 -0.01730235 0.01969223 -0.01356722 0.027262775 0.07680662 -0.053064264 -0.020973245 -0.0256217 0.079906754 0.0077296817 -0.048136186 0.03976614 0.00693616 -0.023847748 -0.016839493 -0.029020172 0.03274704 -0.021870872 -0.037159666 0.025786918 -0.0052420245 -0.016107941 -0.008256413 0.024730982 0.057185404 0.07007983 -0.035640817 -0.062213544 0.05036949 -0.0010227661 0.017147295 -0.01717276 -0.051540654 -0.079822354 0.06596005 -0.034443486 -0.039565023 -0.03213734 -0.017854596 -0.04075369 -0.05617836 -0.0075282655 0.037050884 -0.062369887 -0.010608036 -0.02112223 -0.023254307 0.027778449 0.044281565 -0.02500927 -0.0698038 -0.035970826 0.02952292 0.034272827 0.03702203 0.04178783 -0.06335755 0.05441776 -0.041650683 -0.054747786 0.039297678
275 -0.024317814 0.028356608 0.054896995 -0.022239378 -0.07682003 -0.07849742 0.061783344 -0.027317947 -0.036326762 0.07971411 -0.005901254 -0.019847123 -0.02480315 -0.058269963 -0.008522914 -0.01580831 0.004753413 0.052057605 -0.07476422 0.029159734 -0.0057525174 -0.049868885 -0.034697827 -0.0668955 0.07952753 -0.019595906 -0.043458298 0.003957747 -0.03547998 0.033555765 -0.046972133 -0.07845079 0.01407711 0.009714988 0.030241199 -0.009521693 0.011550725 0.014637694 0.04974718 0.028249709 0.031741187 0.03334636 -0.00067724835 0.07460119 0.06435197 -0.044576406 0.042277966 0.0052399067 0.026456848 -0.003746254 -0.054658853 0.019383749 0.043545097 -0.011015044 0.03916055 -0.024402322 -0.02417601 -0.010625235 -0.037146416 -0.018356284 -0.0051955874 0.007552096 -0.037070207 0.046634153 -0.064148426 -0.06384587 -0.07076483 0.0063467855 0.03564586 -0.034883104 0.057718504 -0.0055573424 -0.05272256 0.008520235 -0.03971395 0.055145595 0.01719332 -0.043965857 0.024805257 0.07425299 0.064777434 0.07351399 0.039866097 -0.0068399752 -0.009810313 -0.060716808 0.07430759 -0.035095092 0.042341467 0.011347972 0.075723834 0.0254589 0.025664628 0.037347656 -0.032980826 0.021445157 0.030804604 -0.07229096 -0.02930358 -0.060595434 -0.02367852 0.027963413 0.0707811 -0.0069289473 -0.055828556 0.0065287137 0.026625546 -0.0049314946 0.032618865 -0.005930673 0.0024446505 0.030122833 0.040669143 -0.0049490742 0.03411351 0.024157785 0.0025983015 0.0062771477 0.014769319 0.03543244 0.05680496 0.019168604 0.04308372 -0.04119505 0.018399311 0.034400262 -0.054411355 -0.045061033
276 -0.0170059 -0.07450007 -0.020415748 0.018721864 -0.019746698 0.006188957 0.006349453 0.025633482 0.02218417 0.046958722 -0.036684245 -0.054995395 -0.018861463 0.019677684 -0.043372005 0.065945685 -0.036793653 0.036672562 0.009963679 -0.07025607 -0.016192421 -0.035824906 6.786734e-05 -0.080858275 -0.0070179827 -0.08112815 -0.059398927 0.043439545 -0.07885045 0.06398356 0.031691562 -0.039875973 0.024836775 0.061882067 0.012520962 0.01795832 0.039399114 -0.02918347 0.07077989 -0.003071629 -0.028724315 -0.08031491 -0.021959253 0.02516631 0.052511606 -0.039410695 -0.033854544 -0.04882229 -0.042210173 0.015875204 0.010748666 -0.021584503 -0.0076014763 0.03512702 -0.023208484 0.0023746444 -0.079759985 -0.010254237 -0.03127453 -0.024323681 -0.07071649 0.059802163 -0.035517525 0.024305493 0.037344232 -0.07097316 -0.00058865664 0.06332715 0.05841111 0.020825574 -0.024691174 -0.03952292 0.03363141 -0.042825654 0.013627252 0.004840115 -0.006757143 -0.032372996 -0.041093446 0.039883364 0.07772503 0.06187731 0.074263565 -0.017553372 -0.026871659 -0.05650812 0.041133534 0.03622711 0.05874465 0.0019906946 0.009607753 -0.0031783767 0.020022629 0.021661274 -0.02836875 0.06117895 -0.009642389 -0.052419722 -0.077459455 -0.030612001 -0.025724025 0.025792915 0.026822409 -0.0055665807 -0.07358133 0.026449736 -0.055529933 -0.058468334 0.050781902 -0.062052358 -0.0054621277 0.07033355 0.072997846 0.06425312 -0.07382874 0.007311427 -0.035923485 0.027844982 -0.03995257 0.030509759 0.022377286 -0.056456227 0.05990664 -0.03292427 0.001893475 0.021543037 -0.0623408 -0.06629472
277 -0.044732004 -0.05690607 0.06862398 -0.050181568 -0.0474275 -0.045342777 -0.039342202 -0.009917319 0.0035048942 0.0018066154 0.044462204 -0.031013152 0.001860912 -0.059275698 -0.012879253 0.059543185 -0.06695286 0.07930505 0.03307593 0.0057945666 -0.037413646 -0.064483896 -0.059125848 0.02090078 0.046536922 -0.06088072 -0.040170398 0.012395924 -0.026105884 0.03840536 -0.0026901653 0.017973095 0.004862992 -0.0146594 -0.060164914 0.03477926 0.0028985082 0.021053886 0.06584879 0.046032064 0.023091227 -0.005490669 -0.03371607 -0.028156897 0.055488467 0.038503118 0.065822266 -0.04251571 -0.04457485 0.014116424 -0.0053847423 0.051914696 -0.019847251 -0.028701482 0.013439275 0.009079257 0.02863029 0.030659623 -0.026165841 0.022585763 -0.031963192 -0.02880787 -0.020841263 0.079577535 0.0383193 -0.025697025 0.006904778 0.031157404 0.008725703 -0.03372449 -0.039281175 0.040198967 -0.014510359 0.026619596 0.014173386 0.04659639 -0.009782885 -0.014453092 -0.029420307 0.064174116 -0.028816788 -0.00027844182 0.051499553 -0.02944944 0.01469026 -0.03178424 0.067954496 0.06878201 0.06581083 -0.0006177102 0.010982202 0.01017365 0.02364979 -0.049190413 0.015879167 0.018049072 0.004444925 0.033237047 -0.02943729 0.002049827 -0.026771111 0.07454022 0.06815407 0.03254517 -0.07255081 0.07435292 -0.07051364 -0.020457393 0.022820419 -0.059614275 -0.00049841916 0.047991674 -0.02599261 0.066936456 -0.036197174 0.032512333 0.07716202 -0.021649832 -0.02959859 0.018716002 0.069318615 -0.023094019 0.053063694 0.0070514805 -0.017545974 0.035462234 -0.01344597 -0.0013085324
278 0.031011347 -0.07680793 0.07918738 0.020276304 -0.017180018 -0.07922119 0.027565353 0.050982464 0.021921858 -0.0058290483 -0.008364763 0.033488803 -0.033386428 0.0039005354 -0.07124877 -0.00358799 0.014400056 0.00019916939 -0.059760097 0.02816952 -0.05132518 -0.01581772 -0.016458113 -0.03596429 0.062751636 -0.03368967 -0.059323013 0.06131253 -0.060409177 -0.026193656 -0.020438664 -0.06769849 -0.008641188 0.064310364 0.0018937846 0.03933554 -0.07877301 0.002820653 0.04237673 -0.033231262 0.044933822 -0.03268851 -0.00079436426 0.024907643 0.048570916 -0.049930513 -0.025780248 -0.07669438 0.0037475661 0.053796917 -0.0282821 0.049545262 -0.040085252 0.02084264 0.08022582 -0.053121727 -0.012155483 0.07970442 -0.03280204 -0.03172028 0.017007751 0.0098468745 -0.07609547 0.036932483 -0.00879372 0.006701725 -0.05603693 0.01160043 0.033368126 0.0018407461 -0.022671415 -0.0007974219 0.018488044 0.013877508 0.02441117 0.011022511 -0.035751697 0.0037897825 -0.030477388 0.054664545 0.06220668 0.06970122 0.042744998 0.006730562 -0.028739123 -0.06316901 0.0021346356 0.00013867253 0.017097028 0.023833165 -0.039650884 0.01277706 -0.0069050016 -0.0093801785 0.010018867 0.03908009 -0.062357273 0.017707977 -0.04858459 -0.03701164 -0.050296627 0.0041515324 -0.010439213 -0.0171018 -0.06871348 0.054258008 0.0106392605 0.039891303 -0.005251355 0.017169494 -0.030436695 0.0050931773 0.0047499416 0.07058291 -0.007589461 -0.02368337 -0.02583006 -0.07659543 -0.007682987 0.054618504 -0.035500538 -0.074100755 0.009459234 -0.0059335325 0.07120675 -0.068836294 0.019996256 -0.056763973
279 0.016709933 -0.06937658 0.02687428 -0.047080126 -0.030690417 -0.027760653 0.040529206 0.07311575 -0.0275086 0.02278976 0.025684439 -0.028938314 0.06004562 -0.022912303 -0.04490904 -0.026641216 -0.02610971 0.027685858 -0.047739234 0.01222761 0.013275347 0.005671694 -0.073189944 -0.015347993 0.04936895 -0.028767282 -0.034190357 -0.03219108 -0.06995947 -0.0016789875 -0.07567893 -0.06136329 0.007786057 0.022819158 -0.049936768 0.075017385 -0.0740551 -0.038524844 0.03635933 0.029646954 0.062503956 0.0039479616 0.02721142 0.038245015 0.018051472 -0.064794816 0.016830375 -0.03685006 -0.074423656 -0.029793236 -0.041226007 0.066984616 0.047191728 0.05006791 0.056145154 0.007445977 -0.0493829 0.031553343 -0.005204753 -0.0047538243 -0.022807665 -0.02284562 -0.050446186 0.006121828 -0.051543664 0.021798376 0.009293568 -0.01280465 -0.0385458 -0.060419973 0.06472941 0.03431054 -0.0545928 0.004217137 -0.010605427 0.025325425 -0.019990137 0.046431478 -0.0023653912 -0.0023975796 -0.011308351 -0.02683657 0.042652342 -0.05941179 0.03455642 -0.0809467 0.033653166 -0.026008522 0.013823947 0.0008698936 -0.0044038575 0.017476548 0.016980652 -0.049548227 -0.0007145599 0.0074093645 0.01903943 -0.06894188 0.038590044 0.03789587 -0.04882585 -0.031440925 0.03961851 -0.0054066153 -0.06197539 0.059194893 -0.07307052 0.041950416 0.04850178 -0.057223134 0.024611168 0.052395128 -0.026867092 0.021691985 0.01977978 -0.0015049571 -0.03264943 -0.00449056 -0.049572904 0.032039937 0.043657735 -0.024290023 0.012635724 -0.046580594 0.034740247 0.0017784412 -0.0034696972 -0.060243838
108 -0.007226065 -0.014096641 0.072506934 -0.021655189 -0.038223684 -0.027176503 0.06590008 0.0042931726 -0.07407498 0.075421825 0.054963 0.028014129 0.0020083063 0.015875824 -0.037111353 0.0062555135 -0.060324177 -0.020881532 -0.03361078 -0.07379117 -0.01997945 -0.052750673 0.019755691 -0.026203573 0.017316485 0.0017663492 -0.04689345 -0.022109695 0.017205445 0.059938066 -0.00089481845 -0.028378416 0.073329836 0.05334453 -0.08098719 0.0002016098 -0.06562621 -0.021720046 0.059862774 -0.03269891 0.01926636 0.018144932 0.04104884 -0.009903329 0.03511966 -0.037930984 -0.027941318 -0.02083054 -0.034221523 0.030575996 -0.01177004 -0.01128755 0.06878741 0.053438827 0.073663086 -0.039218396 0.005521134 -0.035055883 -0.033523705 0.030042743 -0.05592104 -0.01570702 0.018800301 0.019326383 0.028580993 -0.03126447 -0.030348811 0.004147002 0.06636558 0.0011583079 -0.008928114 -0.02076798 -0.035239596 -0.028266162 0.070623584 -0.0205906 0.0653267 0.03872502 -0.010309892 0.003411423 -0.015545078 0.023626573 0.06387314 -0.050318662 6.5867556e-05 -0.018815022 0.018136343 0.052591853 0.036013428 -0.055748627 -0.03958902 0.024471622 0.07223301 0.019689033 -0.04550077 0.06428814 0.029543923 0.024174979 0.03787705 -0.023429025 -0.065380156 0.0025290735 0.029697826 -0.021725237 -0.03441024 0.063267924 0.03214858 -0.04056886 0.061474014 -0.020536864 -0.04621584 -0.039234765 -0.017780427 0.018167175 -0.0804365 0.04354892 0.07064122 -0.044009227 -0.03512075 0.05737827 1.3771467e-05 -0.04871862 -0.019457161 -0.06306043 0.068766676 -0.018612403 -0.077386715 -0.021393023
109 -0.009358875 0.034037333 -0.017443612 0.01445327 -0.014568324 -0.022166008 0.0058193253 -0.023714194 -0.0047420156 -0.014217651 0.02471506 -0.020193186 0.02563512 -0.046930335 0.037118614 -0.00142923 0.021785865 -0.017445832 0.014474324 0.006425336 0.026790423 -0.043319315 -0.039822165 -0.06571928 0.0002373677 -0.05776099 -0.017414108 0.023294896 0.0390084 0.025502805 -0.003720264 0.039087404 -0.03013197 0.040964052 -0.07079081 0.066224195 -0.0401228 -0.048415426 -0.0038822861 0.038160667 -0.012185982 0.03576132 -0.06292009 0.005507546 0.07455275 -0.05689619 -0.022135083 -0.016601447 -0.00088389986 0.06789174 0.01009848 0.07576828 -0.0105782235 0.07936594 -0.0026951644 -0.027021118 -0.060583364 0.013145618 -0.054312658 0.0103857545 -0.007724268 0.038103692 -0.04049792 0.052658487 0.0013461142 -0.01601139 0.014014009 0.071718514 0.023136754 0.003498276 0.0024656565 -0.0053165015 -0.059435282 0.0059795678 0.0706436 0.018631294 0.073734745 -0.07551666 -0.036536127 0.011088428 -0.018162195 -0.0012504907 -0.014914511 0.009703069 0.05132842 -0.05012225 0.03612276 0.01996981 -0.0005399198 -0.05259502 0.016244752 0.030036848 -0.0021992342 -0.03558073 -0.06350976 0.052388303 -0.059577893 -0.037672818 -0.055997465 -0.040193107 -0.06046901 0.022392724 0.05376869 -0.06902557 0.016770704 -0.0339519 -0.06259346 -0.028897608 0.025045216 -0.06225165 0.039813627 0.063255675 0.056053482 0.024766434 -0.06031606 0.06666598 0.07949759 0.01246327 0.009945566 0.029911121 -0.029892286 -0.028303387 0.045612406 0.026023531 0.07442376 0.021110665 -0.07861137 0.024337996
102 -0.0112093575 0.0022937201 -0.03756256 0.0075168055 -0.052340083 -0.03511523 -0.0022421116 -0.035791695 0.017839078 0.07475323 0.005156777 0.033334304 0.01341971 0.041098587 0.041062802 0.019594094 -0.045610648 -0.012255956 0.030300204 5.916902e-05 -0.059200656 -0.023722373 -0.0324286 -0.04778673 0.073919 -0.03469649 -0.038999368 0.035204697 -0.06887543 -0.010374068 -0.018233685 -0.045294292 0.02996913 -0.02929707 -0.074284166 0.01761652 -0.014754167 -0.07321129 0.032791715 0.07388462 0.008887652 0.0164643 -0.0052832714 -0.023073852 -0.027381802 0.0021798126 -0.010509114 -0.06377218 0.009855684 -0.0131921405 0.0010002512 0.02559068 0.060137432 0.020741677 0.025204826 0.011680545 -0.07008919 0.07069641 -0.04800201 -0.036747046 -0.067929916 0.034665357 0.034617588 0.0038948925 0.02615108 -0.07563437 -0.009514905 0.059320167 -0.032610416 -0.02396158 0.004625559 -0.009117469 -0.030505504 -0.07731375 0.03089728 0.013882027 0.036594614 0.024402717 -0.0060871043 0.044461783 0.038892515 0.022585431 0.008500328 -0.033687618 0.0031562955 0.0036663874 -0.0071313805 -0.012780208 -0.0389128 -0.06720731 0.046219286 0.031402923 0.0136236735 -0.023350108 -0.0690442 -0.009661441 -0.0456799 -0.009160693 -0.04894901 -0.018835489 -0.006135928 -0.011006709 -0.027391814 -0.04885162 0.035882615 -0.034186635 -0.06446646 -0.063666224 0.048987955 -0.03414904 0.03747375 0.0567794 0.0247903 0.06223044 -0.024281006 -0.01747591 0.060367506 -0.0046387124 -0.071940064 0.075386524 -0.015803836 -0.035278056 0.02029905 -0.03898876 -0.031583227 -0.044758275 -0.018995147 0.009747352
103 -0.07630354 -0.018518046 -0.012259534 0.0410454 -0.021703225 -0.003760281 0.008524296 -0.0072561363 -0.02954423 0.044102322 0.059575956 -0.037836246 0.0072841663 -0.03919878 -0.0037027136 0.02209629 -0.004569471 -0.029942308 -0.07626654 0.014180242 -0.029174274 -0.027000876 -0.045692183 -0.0025487468 -0.037005767 -0.04972975 -0.065021135 -0.016683329 -0.040103953 -0.0020877032 -0.064509004 -0.036829613 0.058570802 0.04465679 0.028645657 0.060982894 0.015053111 0.00011443824 0.04291386 0.0008159728 0.011875182 -0.062996805 0.005202413 -0.016579313 0.034216553 -0.037083384 -0.026319534 -0.022906639 -0.07182117 0.012168645 0.006716959 0.023803238 0.04953457 -0.03987672 0.017243512 -0.06896423 0.017195802 -0.0010149409 0.026795236 -0.022327999 -0.05552765 0.065483965 -0.03893109 0.05467612 -5.054765e-05 -0.06713539 -0.0136520695 -0.01638357 -0.012528207 -0.042525336 0.036502633 -0.0328525 -0.067653075 0.0008394887 0.043726448 0.060976237 -0.020599559 -0.06154606 -0.010883149 0.028505417 0.04968808 0.06762242 -0.018417558 0.031056898 0.07336755 0.0032840706 0.06574151 0.046668973 0.057539728 0.002629163 -0.03681649 0.01620347 -0.039045587 -0.04623728 -0.044584703 0.031204106 -0.022527864 -0.04123371 0.0101487655 0.012326915 0.024094345 0.05541016 0.037761275 -0.05474264 -0.05720013 -0.014932422 0.018497497 0.021723695 0.07910127 -0.0155692715 -0.0650842 -0.024431802 0.06064337 0.0799359 -0.06502118 -0.0063734553 0.06511221 -0.05494322 -0.033866968 0.07411869 0.018901274 -0.07717794 0.05107477 0.013373491 0.063895985 -0.0069230716 -0.024923516 -0.06076027
100 -0.013125604 -0.0604143 0.036064506 -0.02885364 0.022069212 0.019568162 -0.03019 0.057905667 0.0055869846 -0.031708933 -0.031729024 -0.06052689 -0.0355263 -0.005470401 -0.006554758 0.055188987 -0.058967043 -0.01620843 -0.07390851 -0.015396812 -0.048106574 -0.06246387 0.008655174 -0.008583097 0.0786278 -0.006557456 -0.02357264 -0.0060114367 -0.0584657 -0.021344066 -0.04046064 0.0069591673 0.038823545 -0.027882306 -0.058311548 0.029124055 -0.06450837 0.030165305 0.075267814 0.028312586 -0.010055745 0.039911248 0.018602774 0.04893154 0.05520691 -0.038109418 0.07603546 -0.022392318 0.032953545 0.020009486 0.022677487 0.0056967847 0.076167606 0.020993521 0.041496616 0.033751417 -0.077907234 0.012778768 -0.031632803 -0.07292375 -0.04502172 0.07044668 0.025961792 0.06181249 -0.080839396 0.020118548 -0.0053542336 0.025066517 0.06485216 -0.015096772 0.028902613 -0.014445502 -0.01972136 -0.029491281 0.04709479 0.0119449515 -0.028805953 -0.010365024 -0.04719731 0.030155553 0.04927513 0.07109314 0.059678823 -0.016072484 -0.0020575882 -0.017697655 0.025738573 0.012913153 -0.024616584 -0.047020085 -0.0026602773 0.01558472 0.011285999 -0.047024675 0.026057752 0.023785053 -0.02985487 0.012486547 0.0013207893 -0.011842521 -0.060039766 0.0148844 0.023906872 0.0018284422 0.006860193 0.04566894 0.0038177676 -0.051224217 0.011160553 -0.043666687 0.0019300939 0.04861198 0.018752035 0.061852414 -0.055690806 0.0667174 -0.021621063 0.037539396 -0.06330375 0.054291442 0.06433197 -0.039254956 0.06888668 -0.04498624 -0.04161086 0.011018424 -0.03162578 -0.079576895
101 0.039515186 0.030872377 0.01600971 -0.03966047 -0.03975894 -0.08124083 0.0051715486 0.027664589 0.020020388 0.0153256785 0.04641194 -0.0733398 0.012893747 -0.006606898 0.030306125 -0.038879752 -0.026964137 -0.04290268 -0.028788522 -0.03133567 -0.0058634793 -0.032566905 0.015992498 -0.0040466855 0.0011431889 0.0150415655 0.0078752255 0.07212991 0.00011874002 -0.032305278 -0.06589902 0.019807719 0.056653056 0.04075762 0.03428742 0.04215208 -0.006433462 -0.0669608 -0.024915516 0.07337452 0.07292822 0.0144087 -0.04421559 -0.0175912 0.03593415 -0.030505046 0.057548102 0.034705166 0.010695798 -0.02053806 0.038618743 -0.008752319 0.036746643 0.07879876 -0.03704972 0.012381129 -0.048819087 -0.008760313 -0.040879942 -0.036523394 -0.065874666 0.034367986 0.029377433 0.07245449 -0.035221033 -0.026471954 -0.036952414 0.07307902 0.0066039828 -0.041301634 0.032166388 0.060064595 0.034576505 0.038438525 0.014594956 0.028967917 -0.010512409 -0.059415326 -0.063596725 0.04196878 0.0021744887 -0.03017955 0.067283705 -0.025748383 0.009714394 -0.030685686 0.042150624 0.045534916 -0.02024115 -0.035601903 0.055934243 0.0576974 -0.0012139541 -0.06885767 -0.008626693 0.011875746 0.019243915 -0.026368199 0.013943588 -0.026638722 0.017319856 0.05601704 0.014527073 0.0041622072 0.035781894 0.021576418 -0.06059161 0.030166518 -0.015278889 -0.029214555 -0.020905506 0.023275755 0.012697631 0.039381955 -0.07036434 0.07855599 0.054646358 -0.07018488 -0.062052716 0.06400415 0.039887868 0.0017373454 -0.0060215965 -0.028536266 0.038954634 -0.04649338 0.018046046 0.014356428
106 -0.040285982 -0.002574558 -0.021319387 0.005300437 -0.080357514 -0.053727746 0.021647068 -0.032465316 0.03127695 0.036619633 0.0065763653 0.02743942 0.006392028 -0.027380366 -0.061045624 0.05078414 0.0176184 -0.0020576848 -0.031316787 -0.026730105 -0.080204055 -0.051267885 0.021668592 -0.02413549 0.0004808415 -0.046698727 -0.08090786 0.027624069 -0.004822461 0.020381987 -0.052276026 -0.058927167 0.06402314 0.05518502 0.004114199 0.06232878 -0.07796756 -0.010329084 0.0071586045 -0.014188684 0.012690866 0.0025295229 0.031624846 0.06769383 0.041363686 0.00966109 0.02895137 -0.007931328 0.010662422 0.05925591 -0.056620236 0.065245055 0.0046207383 0.041455492 0.034876667 0.008089339 0.038716078 0.013945235 -0.07982006 -0.033921044 -8.697377e-05 0.048625752 0.016275123 0.022250414 0.0035457117 -0.065817386 -0.062771015 0.008756699 0.0032125828 -0.031411164 0.021040509 -0.021415487 -0.080342926 -0.031085126 0.079331584 0.013980893 -0.038787484 -0.06984313 0.021592282 0.015498647 0.03055597 0.056187347 -0.03358972 -0.009697646 -0.017606756 -0.05740078 -0.010469958 0.013829201 -0.030470977 -0.050844833 0.012233608 0.035055514 0.02892765 -0.008762468 0.035892636 0.07002854 0.013013852 0.013953163 -0.0054297294 0.027548362 -0.05825431 -0.009683022 -0.0069614174 -0.007398357 0.02465313 -0.020329438 0.0042686285 -0.014308764 0.008226511 -0.03222826 0.022425782 0.013557332 0.037644047 0.026363283 -0.07296016 0.030123523 0.05404681 -0.06883117 0.0058358903 0.0017460978 -0.026530081 0.013105088 0.04825973 0.035690494 -0.019657258 0.022147734 -0.03579441 -0.018466998
107 -0.010863862 0.039798126 0.026260085 -0.015544186 -0.023766909 0.028488697 -0.019381497 0.05227655 0.00075797597 -0.020964999 0.04003978 0.026971709 0.025242856 0.035736825 0.0022826414 0.05851892 -0.060133904 0.044938102 -0.077245206 -0.0702641 -0.038757756 -0.060201608 -0.027502354 0.016898077 0.016457384 -0.04644953 -0.03855664 -0.006020278 -0.047796294 0.027449114 0.033984482 -0.06488102 0.05799008 0.060185835 0.01786825 0.06024545 -0.012945948 -0.03546601 0.00017299771 0.068897866 0.06080377 -0.042958207 -0.061605465 0.039521843 0.031086981 0.011339193 0.058896266 -0.022774406 -0.031321697 0.06622572 -0.021347621 -0.015523587 0.06296249 0.021746827 -0.0010617961 -0.01657742 0.0024250885 -0.015010254 -0.022354303 -0.0514678 -0.05368044 0.017210739 0.018290188 -0.028777437 -0.0023096106 -0.0049091596 0.028534247 0.055814676 0.0033251601 0.020847075 -0.020454617 0.030976698 -0.030723346 -0.05722927 0.02288785 -7.2668656e-05 0.06980439 -0.028671177 0.03810707 0.07707247 0.062729195 0.0040860493 0.029665576 -0.0058220616 0.048604436 -0.043950874 0.06808163 0.023549583 -0.0008413866 -0.05725901 0.023559887 -0.025352612 -0.02909438 -0.029375644 -0.0019702544 0.07821215 -0.01661898 0.035235338 -0.0027825686 -0.045477055 -0.025861481 0.061858043 0.05013102 -0.032266088 -0.048955027 -0.029204078 -0.08058085 -0.07482628 0.012487928 0.0076670893 0.017925536 0.0061541805 0.07180232 -0.021535154 -0.031765 0.009333981 -0.027799433 -0.044808287 0.022869106 0.048140693 0.04843679 -0.049470678 0.027171994 -0.026195662 0.034501724 0.036122777 0.03492887 -0.06480096
104 -0.023680214 0.0036956922 -0.015543968 -0.00784839 -0.0087515265 0.030466769 0.048575882 -0.016759038 -0.0017054843 0.06883104 0.043072358 0.018518254 0.03393362 -0.04671592 0.031550042 0.0452698 -0.039832566 0.015414552 0.030038046 -0.048765566 0.018659802 -0.013639513 -0.028942674 -0.055010792 -0.011662822 -0.06011223 -0.021986248 -0.023501104 0.035362322 0.07486439 0.0008253226 -0.03091956 -0.02253957 0.0726191 -0.07666693 0.06558024 -0.057074655 0.0049692513 0.06354975 -0.022293054 0.036740694 -0.04114694 -0.080217086 0.052124646 0.05666071 -0.043447535 0.0719502 -0.06723064 -0.065528296 0.06131536 0.004250249 -0.012896174 0.039753877 0.08077809 0.011300561 -0.06442508 -0.037016563 -0.017181033 -0.0063667744 -0.041912764 0.028399685 0.0012907299 -0.061237767 0.0516423 -0.04601451 0.03523614 -0.0020095524 -0.020188183 -0.0402614 0.037987076 -0.00323088 0.0329698 -0.01815633 -0.034839608 -0.008091873 -0.0075048404 0.06612013 -0.028219853 0.03449008 0.03611226 -0.0040733013 0.0053572333 -0.006097683 0.015675928 -0.007322641 -0.0046127047 0.056902695 0.011696905 -0.00925536 -0.05579598 0.065310225 0.008700428 -0.03552444 0.024636956 -0.046460968 -0.0012342102 -0.0648839 -0.037915558 -0.03665739 0.0061506424 0.015118705 0.0074420213 0.03566906 -0.045632433 -0.017346455 0.017862676 0.040156763 -0.004410074 0.005188613 -0.040512286 -0.055637095 -0.021683484 -0.0012387366 0.033410374 0.022022296 -0.031129988 -0.004616807 0.0067062667 -0.06817853 0.0549587 0.031810977 -0.0354508 0.03077987 -0.034706853 -0.038264725 -0.0036646412 0.012973233 -0.0034391223
105 0.025257533 -0.00044995744 0.013861587 -0.07647086 0.022684708 0.039963644 -0.030996438 0.00661323 -0.00937691 0.07043226 -0.030415097 0.03926517 0.05618807 -0.050238054 -0.038527198 -0.010023759 -0.042225074 -0.002338207 -0.024992555 -0.0433761 -0.06255839 -0.013455685 -0.029542923 -0.07145614 0.056355983 -0.0004499259 -0.05351689 -0.021484327 0.028310109 0.023692837 -0.077307455 -0.049290553 -0.026287876 -0.038080007 -0.0016622181 0.07389673 -0.068170525 -0.027594166 0.018007036 0.03596479 -0.0023378818 -0.05450154 -0.077484705 -0.015918504 0.031899974 -0.00012541271 -0.032102056 0.030464644 -0.017122349 -0.006693232 -0.072345234 0.045276023 -0.023373673 0.07474498 0.061161146 -0.010244398 -0.063983634 0.06466236 -0.045440417 -0.03210467 -0.0055884533 0.03918707 0.003761788 0.053945083 -0.045958158 -0.043033652 -0.048407 0.05899977 -0.025419883 -0.04159806 0.07109369 0.080349274 0.013011595 0.0037630978 0.077246964 -0.015014196 0.043100603 -0.050483327 -0.025499387 0.023018915 0.028363872 0.07033537 0.04563143 0.017247621 -0.02080929 -0.052584793 0.033382896 0.07581025 -0.019156855 -0.04180499 -0.026880864 0.04299366 -0.012761785 -0.023859626 0.008717136 0.06501936 -0.048889525 -0.019803576 -0.004008032 -0.048182063 -0.010640207 0.07793061 0.052736394 -0.054800354 -0.068903685 -0.016154941 0.04085783 0.036178894 0.06683017 -0.07779075 -0.005308107 0.062275246 -0.0074519715 0.039384816 0.0147284465 0.061368823 0.077125415 -0.017894581 0.035909366 -0.023755081 0.064127676 -0.0748303 0.07341088 -0.045587465 -0.010890558 -0.015319137 0.008415857 0.007508001
1212 0.025872558 -0.027385332 -0.010777022 0.0059465496 0.020787211 -0.07855028 0.080492295 0.03661498 0.021262648 0.03003378 0.03587123 0.020578472 0.0054540094 -0.017812885 -0.06961922 0.0037326112 -0.07159026 0.036911722 -0.034470234 -0.011344869 -0.025144335 -0.011955937 0.018052213 0.024164774 0.01240079 0.0065817484 -0.06272104 0.071233615 -0.06282414 0.009167238 0.004332729 0.016816182 0.01655642 0.064410225 0.017727735 0.04267097 -0.022789836 0.020114783 -0.013873529 0.061653048 -0.029082043 0.031265527 -0.003845146 0.004674737 -0.029884359 0.013950502 -0.0331911 -0.044608783 -0.07460887 -0.026433319 0.032456797 0.0009350672 0.00094501115 0.07456608 0.065758646 0.01725866 -0.0040716724 -0.0046399543 -0.05999516 -0.04575719 -0.057924144 0.016750919 -0.032653593 -0.036566664 -0.035422917 -0.045714237 -0.06910368 0.020604052 0.05444587 -0.077472284 0.05626694 -0.021629699 0.02500653 -0.047782768 0.042192213 -0.03680388 0.057937067 -0.026142197 -0.01687717 0.025567262 0.050645396 -0.027586898 0.07903392 -0.026341079 -0.0047844443 -0.03501769 -0.01322837 -0.020602897 -0.0046432796 -0.04072915 -0.009467703 0.057105497 -0.013011996 -0.03084047 -0.043836117 0.019134514 -0.0798856 0.032578707 -0.04058159 -0.05086856 -0.06781333 0.045477506 0.009151079 0.0019124852 -0.06671769 0.05596923 0.0075131105 0.010775645 -0.0021538083 0.0068898764 -0.034585193 0.035942525 0.060276117 -0.03568477 0.01261101 0.038006283 0.07202478 -0.068426 -0.032686114 0.07880997 -0.0035876033 -0.027107796 0.0471861 0.003714929 0.06622078 0.0061778394 0.036200996 -0.06935989
1213 -0.021476442 -0.0645962 -0.03176832 -0.071243346 -0.03003063 0.017221756 0.052394226 -0.036421757 -0.03593868 0.07731985 0.020129023 0.014083664 0.0640267 -0.019159041 -0.015573121 -0.011703998 -0.008588332 -0.036533095 -0.019119566 0.0025000349 0.040718395 -0.026366388 0.0003703829 -0.0053996257 0.06499498 -0.02849825 0.031107109 -0.001150578 -0.068235874 -0.029078923 0.034307092 -0.02700485 -0.039571803 0.021635225 0.033153202 -0.03966612 -0.0060554883 0.0010533457 0.009358269 0.060832508 0.033611406 0.009809143 0.007315146 -0.04200104 0.04695479 -0.07081529 0.0026271283 -0.0082763005 0.015808908 -0.011529556 -0.032237317 -0.03312109 0.057323974 0.04397837 0.0069996715 -0.020496033 -0.04679671 -0.0134219695 -0.021099575 -0.016913988 -0.0010978875 -0.028751442 -0.04778511 0.010575046 0.035087872 0.004280803 -0.07840515 0.008748078 0.019866941 -0.016721655 0.07900363 -0.0008023771 -0.08068108 -0.0017990249 0.057255317 0.059872046 -0.034149166 0.029441407 -0.03848332 0.03750118 0.046988036 -0.02467797 0.03128542 0.032586172 -0.030565219 -0.075273655 0.05698179 -0.03360632 0.04772338 0.029313851 0.07509326 0.035540327 0.014317112 -0.008750867 -0.030974152 0.0113728065 0.011825071 0.00859166 -0.080084935 0.0030949288 -0.049429882 0.016539479 0.0770891 -0.05287931 -0.05537113 0.052846357 0.0095263 -0.066099785 0.061740465 -0.014184574 0.020757427 -0.009203192 0.0225532 -0.009090892 -0.032520875 0.079041645 0.02719397 -0.004602065 -0.04863888 -0.018720383 0.011923416 0.0064749066 -0.024722388 -0.033092465 0.06604296 0.029889073 -0.006630755 -0.046084326
1375 -0.06892181 0.039831538 0.0035587435 0.03602115 -0.03387968 0.025029669 0.051533245 0.05438501 -0.058409363 -0.023300996 0.076114215 -0.074712075 -0.014734653 0.035144545 -0.010577739 0.06372158 0.025395367 0.059047665 -0.045342207 -0.03888077 0.01848862 0.027827099 -0.04237463 0.027619796 -0.0072838697 0.011584168 -0.038095742 0.046684243 -0.0491494 -0.009698512 -0.030220669 0.036600884 0.01679405 0.040780198 0.02673751 0.03827023 -0.067479864 -0.036702894 0.013191176 -0.011358561 0.05477969 -0.028755646 -0.07983511 -0.03295441 0.040362477 -0.06776008 -0.018139012 -0.04903177 -0.069678485 -0.0066525713 -0.015036628 0.081301786 0.035060078 0.0016834472 0.011248211 -0.048075978 0.04619138 -0.03573733 -0.036256794 0.02543611 -0.030458547 0.023572186 0.038447965 -0.025808875 0.029085593 0.01519535 -0.073282495 0.020505821 0.04578165 -0.08133353 -0.02565469 0.075675644 -0.04919688 0.023105003 -0.02151387 0.074491195 0.030127313 0.035986546 -0.022412054 0.018108409 0.073933855 -0.03812798 0.034924503 -0.026772065 -0.008424031 -0.012704387 0.06244518 0.019186882 -0.011003071 -0.07223238 0.04783043 0.001378893 -0.007345328 -0.02786946 -0.031958017 -0.02876656 -0.08014152 -0.040758193 0.011138616 -0.039453637 -0.013661609 0.013522899 0.01798939 -0.011121666 0.03890145 0.002208617 0.025484871 -0.05702234 0.0036154736 0.00611689 0.017204769 0.06703374 0.043597095 -0.008077874 -0.07273905 0.0010219727 0.06460354 -0.07917667 -0.08006975 -0.025689494 -0.02969458 -0.027371839 -0.006504559 -0.026654363 -0.019540286 0.02168741 0.0353265 0.0036365825
99 0.009371202 -0.06763374 0.047884606 0.0032950514 -0.003405012 -0.029195903 0.000528364 0.045149997 -0.06726079 -0.021823697 0.0680946 0.025516303 -0.037618887 -0.01535369 -0.04318107 0.06939234 -0.051925603 -0.019351821 -0.04977864 -0.036095366 0.024034012 -0.020897495 0.004597323 -0.05381012 -0.02315623 -0.071272634 0.011941605 0.006288523 0.018398864 0.0027158721 -0.03951679 -0.063604236 0.019289587 0.05478569 -0.050121475 -0.040233463 -0.012674801 0.003533336 -0.01244756 0.0011385252 -0.03714015 -0.066190206 -0.061204918 0.043816447 -0.0134226065 -0.04058625 0.06266377 -0.06209977 -0.036706943 -0.03189474 0.0019827462 0.04496511 -0.042616725 0.063265376 0.027561998 -0.013672042 0.04756789 0.058220915 -0.0666711 -0.013694496 -0.08085143 0.067944996 -0.07990243 0.0701833 -0.05921673 -0.016629415 -0.003561738 -0.0138099715 0.038372964 -0.026403327 0.04041891 0.040505968 0.004643985 -0.009754004 0.020056816 0.028567126 0.02563447 -0.07368509 -0.0749827 0.06287461 0.043952454 0.013037169 0.030908398 -0.025866639 0.05673232 0.000329111 0.05474176 -0.00086070586 0.04804898 -0.021415688 0.027992412 0.05338734 0.009767592 -0.05164806 0.006594535 -0.010164718 -0.04017908 -0.012859997 -0.015834257 -0.016480086 0.0076762326 0.075263895 -0.0347517 0.0038716313 -0.011873562 0.0028994388 -0.063742206 0.021849575 0.061019734 -0.033552315 -0.04029805 -0.027467797 0.027580341 -0.03743671 -0.008420924 -0.011976086 -0.039389875 -0.004128608 -0.059207246 0.028757792 0.004617181 0.018551435 -0.04331295 0.034391727 0.060920764 -0.010521288 -0.02514812 -0.04354292
98 -0.009971502 -0.07692302 0.033015523 -0.03842519 -0.0065404335 0.013504786 -0.0020633687 -0.028385825 -0.027681699 -0.004089974 0.030854229 -0.022278467 -0.012941976 0.022684025 0.02535941 0.025311956 -0.03632236 0.051571302 -0.06349223 -0.05378659 0.03278218 0.0157621 -0.051210284 0.03137893 0.032440983 -0.030135185 0.004868548 0.06232932 -0.057090532 0.021410821 -0.049602393 -0.0073396396 -0.0044116834 -0.022798829 -0.007078397 0.04894511 0.033849742 -0.08016387 0.01860238 0.015850756 -0.02277334 -0.044947688 -0.041100115 -0.021622801 0.022934772 -0.07544369 0.0544967 -0.022373617 -0.05797495 -0.019620663 -0.054383807 0.025855813 0.038300008 0.010758216 0.03524951 -0.04270172 0.04899577 0.07162658 -0.066679105 0.012363824 -0.06937289 0.032993034 -0.038408745 -0.015219852 -0.04880597 -0.03362028 -0.038669515 -0.026995933 0.01687953 0.023196012 0.00076215144 -0.037359286 -0.0052395696 -0.025080875 0.0506423 0.06399755 0.07483067 -0.014256272 -0.00568598 0.059028216 -0.020243006 0.030260332 -0.011113173 -0.06396885 0.056068514 -0.022239564 0.062112488 0.06215329 0.036793772 0.013105588 -0.0010104658 0.020510275 -0.026941728 -0.07507441 -0.012189195 0.049653172 -0.005447046 0.0379034 0.039592005 -0.07302156 0.013555999 0.01582453 0.04429096 -0.036414765 -0.05078199 1.5523168e-05 -0.004168058 0.02676663 0.05850108 0.00015053223 0.018963063 0.00747933 0.07365119 -0.034798075 -0.03397725 0.07551343 -0.037973113 -0.030169848 -0.010492114 -0.011019043 0.06826541 -0.02239638 -0.0010548419 -0.016215617 0.059214253 -0.047666334 0.029461885 0.034477863
91 0.03599725 -0.06711904 -0.0012916944 0.039345846 0.022212075 -0.07095589 0.04053425 -0.024267133 -0.030807018 0.025025062 -0.0019371291 -0.016756011 0.074012876 -0.003583883 -0.052938644 0.0036180215 -0.007846149 0.07275061 0.018102445 -0.005865168 0.031795844 -0.03848543 -0.011378621 0.003304732 0.0658091 -0.013813007 0.03553209 0.018277716 -0.07089997 -0.032430764 -0.019156085 0.007950321 0.070337966 0.049311925 -0.0011035299 0.058017757 -0.06617128 -0.08013736 0.024137009 -0.03380891 0.06622206 -0.03991356 -0.011530861 -0.01720781 -0.030606331 -0.06982126 0.0014904679 -0.029154727 -0.075791694 -0.0034659053 -0.041827727 -0.015957545 0.07544325 0.05068621 -0.038142107 0.0043946235 -0.03700357 0.018685237 0.035697866 -0.04644732 -0.025872905 0.025528608 -0.025790632 0.03759932 -0.06571468 -0.0040164823 -0.03149594 -0.002436204 0.059825934 -0.017929684 0.040051542 -0.032112 -0.014015951 0.016348412 0.058391877 0.07006419 -0.030930154 -0.028198536 -0.043471284 0.04799683 0.025893757 0.036058534 -0.033336032 -0.04235688 0.030828465 -0.058873992 0.0465403 0.007378234 0.03788024 0.0012793085 0.053280305 0.021996543 0.00302782 0.027228365 -0.0811938 0.03442344 0.004688179 0.0037706234 -0.027094379 -0.0101225795 -0.053388726 -0.013715599 0.07185945 0.00074719335 -0.0565539 -0.00031304685 -0.031703416 -0.01227257 -0.0052976715 -0.0654729 -0.018963484 0.0020997594 -0.036099613 0.04138729 -0.07429427 0.022787848 0.054145735 -0.062742 -0.02371665 0.026495697 0.076513566 0.037568554 -0.017680468 -0.07189884 0.043741398 -0.070612565 -0.03100097 0.02951574
90 -0.015096765 -0.060227837 0.06302085 -0.011974382 -0.00025401847 -0.009570022 0.030922173 -0.020421218 0.0029825643 -0.033713486 0.028230557 -0.05279656 0.068214744 -0.020464486 -0.010192929 -0.0010503646 -0.065055236 0.0069349427 -0.016241405 0.016011884 -0.04461697 0.017139597 -0.053080726 0.022215625 0.0475366 0.014209848 0.0023914743 0.07397398 -0.062128983 0.07757815 -0.06464298 0.03116306 0.038965303 -0.0028321706 0.03819966 -0.009980274 0.007157703 -0.038426686 -0.02839392 0.0027153902 0.029588798 0.033548016 0.014045853 0.011912179 -0.034682706 -0.040100295 -0.012883278 0.013505725 -0.0019324868 0.03469055 -0.06647032 0.059065387 0.042739723 0.05534404 0.0072518815 -0.006486215 -0.058197707 0.07564855 -0.07609717 5.80498e-05 -0.012059256 0.06603815 -0.019015348 0.04642189 -0.07588728 0.022544956 0.030132223 0.05456338 -0.018125845 -0.04921749 0.042969454 0.0216323 0.021020167 -0.043902434 0.017373977 0.048073873 0.005748386 0.03169048 -0.038550552 0.039075498 -0.016371148 -0.009625338 -0.033295866 -0.06611668 0.022485724 -0.056079917 -0.008197686 0.059438866 0.014069959 0.016341573 0.07272503 0.015612566 0.037817504 -0.07338632 -0.07661164 0.06855467 0.025448542 -0.0053250818 -0.059756402 0.037124913 -0.06408045 -0.023342209 0.067931496 -0.063016176 -0.010480402 0.02557577 -0.061360333 0.022485748 0.07858579 -0.07790103 -0.0415263 -0.03685386 0.03268596 0.008510438 0.003184472 0.07955594 0.041122116 -0.04385111 -0.012698006 0.0011380266 -0.025330141 -0.057230573 -0.0071620718 0.009279312 0.044785768 0.005789071 -0.047043692 -0.021468647
93 0.01947142 0.04002576 0.06671449 -0.045161735 -0.07251689 -0.008813104 -0.03373049 -0.0025276951 -0.052005123 0.05544156 -0.01860248 0.021778032 -0.0063540465 -0.00084361073 -0.04442149 0.07102865 0.015233719 -0.037767846 -0.075195596 0.030167462 0.036817785 -0.060100272 -0.024699947 0.020739252 -0.014876093 -0.038193062 -0.044388954 0.009380497 -0.0053945663 0.070728734 -0.0062862295 0.015317939 -0.022767711 0.025685929 0.013244176 0.061130553 -0.06186487 -0.06922377 0.00821295 0.047464557 -0.033502046 -0.066760726 -0.014531519 -0.045069274 -0.0066072624 0.01667899 -0.033647876 -0.023240129 -0.016271373 0.00070042687 0.01498455 0.002656179 0.06518322 -0.037504565 0.006520151 -0.08127907 -0.043603286 0.03145145 0.022129193 -0.018987257 0.007814217 0.056404587 0.025872983 -0.013716641 -0.07246047 -0.014522302 -0.038453866 0.06885257 -0.002661171 0.028586714 0.056425963 -0.008620715 -0.058309514 -0.05641985 0.026367437 -0.03447726 0.053857636 0.002734433 -0.07393871 0.0040509067 -0.032232273 0.051567018 0.06781785 -0.04370712 0.059576213 0.028109174 -0.030156523 0.053598553 0.06623538 -0.0021976233 0.011469301 0.017188739 -0.024457589 -0.06305343 -0.04256836 0.052394755 0.005941868 -0.007137086 -0.033928502 -0.07897597 -0.055944677 0.0111116385 -0.039678063 -0.0724719 -0.02377918 0.019989917 -0.06734785 -0.03565318 -0.016605338 -0.034949414 -0.0005869961 0.039610464 0.051943075 0.0045701 -0.0501484 -0.03518013 -0.02535959 -0.037674837 0.036821984 0.015554112 -0.02262508 0.02547879 0.03173477 -0.011456615 0.012024019 -0.0105688125 0.0118755195 -0.021487232
92 0.028378276 -0.035408005 0.03450306 -0.023659606 -0.07592728 0.023154292 0.07889181 0.015506167 -0.065433614 0.05982837 0.07119139 -0.022467026 0.072945185 -0.011752777 -0.07910161 0.007434204 -0.0056644795 0.08062323 0.01729959 0.017110996 -0.033789534 -0.05954449 0.0015421144 0.0066410443 0.06924698 -0.023531092 -0.03200037 0.0025600241 0.00872134 0.02326804 -0.0015357127 -0.06765797 0.07458588 -0.01453661 0.03228865 0.055482365 -0.03972437 -0.009171292 0.06853499 0.023753893 0.013652355 -0.022451507 -0.00020719203 -0.016563099 0.045400433 -0.06100772 -0.029138897 -0.0441055 -0.029341474 0.038171526 0.0018526383 0.06490657 0.07081933 -0.00869307 0.08072303 -0.04644559 0.022893535 0.045011334 -0.019656245 0.01014021 -0.04178079 -0.0116674425 -0.02706115 0.03744179 0.020222703 -0.026420226 -0.02647452 0.074542396 0.074663654 -0.06873288 -0.023854237 0.0644142 -0.012107464 0.040240362 0.009277898 0.007569029 -0.036233146 0.033246517 -0.033347 0.0009315527 -0.011218336 0.05345685 -0.0038228033 -0.08128818 0.06062842 0.03885825 0.053070538 0.036933586 0.040433455 -0.05779469 0.042193573 -0.0030524144 0.02444004 0.0017439487 0.006220056 0.05939061 0.013889069 -0.030701667 -0.027634801 -0.06673263 -0.005690675 -0.0013144055 -0.017132144 -0.07003639 0.008016077 -0.006041749 0.018242214 0.022031229 0.018960252 0.016987989 -0.037613887 0.04708374 0.06347757 -0.024229547 -0.0098715965 -0.037471984 -0.009239244 -0.01909735 -0.010156717 0.024370408 0.00029995863 0.017318882 -0.020785177 -0.026577303 0.038190283 0.036875315 -0.038965408 -0.044905093
95 -0.022261301 -0.024168877 0.034912046 -0.04663213 -0.020003924 0.025639066 0.015967846 0.04843752 -0.06674658 0.035475407 0.044654086 -0.0038563758 0.056447506 -0.007085776 0.006038117 -0.04104367 -0.041529052 0.032230467 -0.022571607 0.039047483 0.036560103 -0.062475186 -0.018850585 -0.028865693 -0.017384006 -0.04705815 0.03265874 0.07270131 -0.0156242475 0.037158184 0.013205035 -0.04198661 -0.0025604782 0.018191686 -0.002605492 -0.009791318 -0.030057473 -0.06855197 -0.00300278 -0.019970724 -0.02828126 0.0034907968 -0.050792556 -0.02353778 -0.002647953 -0.07971972 0.03625179 -0.071871504 -0.011825611 0.06516617 -0.021088405 -0.01125466 -0.0012263586 -0.03154127 0.07695688 -0.060768466 -0.024368774 -0.020009404 -0.06104007 -0.02313373 -0.0213413 0.07784818 -0.06403814 -0.033274397 -0.05988458 0.027380655 -0.011325593 -0.02941641 0.05494161 0.020034472 0.06106607 0.033136982 -0.032635134 -0.03292399 -0.036086716 -0.0016331108 0.07477254 -0.046899404 -0.06657249 0.06305314 -0.007912621 0.06693941 -0.0170809 -0.0029966603 0.03148312 -0.07802207 0.066169284 0.03656631 0.020286674 0.036438897 -0.0028165788 0.0524377 -0.0053169266 -0.04302372 0.026609262 0.05439632 -0.05515705 -0.03743667 -0.012531524 -0.0021310735 -0.027525853 0.054655906 -0.00016676588 -0.01794445 -0.06188338 0.07736663 0.04057623 -0.036728896 0.07328588 -0.07759697 -0.061654247 0.05442802 0.07478153 0.07016442 -0.02415491 0.016044945 0.057719883 -0.080266975 -0.06673431 0.020296244 0.043110933 -0.07824997 0.048661802 0.03260531 0.03507951 0.018594658 -0.07296259 -0.07840586
94 0.032555055 0.00034667505 -0.027432483 -0.0055240323 -0.05110909 -0.072663605 -0.013223822 0.07033703 0.004452943 0.004080838 -0.038016167 -0.05255031 0.07395603 0.03381323 -0.009110719 -0.007071288 -0.027866337 0.051020153 0.025908308 0.006138166 -0.055377692 -0.04757574 -0.016524808 -0.01191919 0.055012483 -0.011341935 0.024085054 0.076911844 -0.043634254 0.0013058602 -0.01736648 0.032914516 -0.024209896 -0.021846492 -0.018023951 -0.035731368 -0.05536223 0.0055201417 -0.025412278 -0.013654531 -0.0018066874 -0.044450384 -0.017350273 0.015526749 -0.039782386 -0.04297277 -0.025955077 -0.025266634 -0.07701329 -0.013935221 -0.0015992805 0.033981167 0.07043307 0.053106666 0.0010013774 -0.02895556 -0.0048227254 0.007044326 0.028923256 0.004819057 -0.033545155 0.04581482 -0.020044852 -0.021570515 -0.01060956 -0.010843971 0.010958718 0.031028932 0.029334888 -0.07262098 0.03190499 -0.03363465 -0.021713726 0.039288424 0.030922057 0.06506887 -0.03140764 0.0154095115 0.037221715 0.019172877 0.040642317 0.02608487 -0.034771547 -0.056266353 -0.0075098453 0.03295147 -0.034743316 -0.0366226 0.0006940379 0.018292919 -0.027139219 0.007614188 0.058600254 -0.0790308 -0.04083908 0.08075607 -0.061887182 -0.026003607 -0.07839196 -0.063703984 -0.071382254 0.06506471 0.031393602 0.025952715 0.001504271 -0.039580155 -0.06668687 -0.06475731 0.00311928 -0.043735653 0.0018539928 0.028436227 -0.017619444 0.066774346 -0.005278171 -0.0032848532 0.041263826 0.0021306612 -0.046300657 -0.017780857 0.010334769 0.03568613 0.0255007 -0.028476708 0.037342854 -0.01408398 -0.07706466 -0.032105476
97 -0.03475499 -0.016195014 0.013153338 -0.0445421 -0.0012846324 0.035668384 0.002651216 0.06810765 -0.037319954 -0.028280675 0.06931172 0.00081589376 0.012514743 0.014349402 -0.017535428 -0.017449776 0.034250915 0.030536601 0.024877043 0.03167272 -0.076737404 0.01523485 0.02703074 -0.046511017 0.013492004 -0.070321575 -0.006005626 0.052609287 0.031868692 0.0805478 0.034883615 0.00017499004 -0.013599564 -0.039560042 -0.048175704 0.0038767825 -0.028507134 0.007903654 0.009257416 -0.030163098 0.00861468 -0.04032536 -0.027255911 0.046607498 -0.03375809 0.0026200954 0.065643094 -0.045069247 0.031934522 -0.030792195 -0.026688108 0.056308843 0.0076811877 -0.01468901 0.078219205 0.038017415 -0.07926031 0.02468113 -0.065982886 0.037322715 -0.014313608 -0.041862175 0.00880871 0.07408853 -0.04912537 -0.026433315 0.0133400895 0.015851842 0.07324981 -0.031031795 -0.016490603 0.061672352 -0.021549912 -0.010494195 -0.036944047 0.06544576 -0.0020911796 0.019738466 0.03333721 -0.0013585716 0.0325513 0.06956256 -0.010693199 -0.068464436 0.017982442 -0.030775534 0.029211458 0.014190135 0.06603109 -0.04480155 0.052271254 -0.043543123 -0.0092252325 -0.021322653 -0.081126414 -0.02859777 -0.019804554 0.013526734 -0.003829998 -0.012269689 0.015133457 0.067556694 0.06633809 -0.021510683 -0.06800025 0.018611452 -0.026676018 0.039253708 -0.03158228 -0.03337327 -0.05338429 -0.0096287485 0.06276862 0.04445448 0.02490511 0.009370079 0.05748079 0.025915608 0.025627857 0.004518522 -0.00779137 -0.044357184 0.021444732 0.0047090277 -0.011015331 -0.00783417 -0.07459432 0.025119213
96 0.015948197 -0.07376616 -0.025722058 -0.07096785 -0.016546302 -0.06573845 0.03265245 -0.030986894 -0.032850944 -0.03375213 0.025498364 -0.02375368 0.037549622 -0.013024649 -0.043986164 0.030978542 -0.014510198 -0.039573338 -0.042349584 0.020598743 0.025436817 -0.055848584 -0.05151244 -0.060037885 -0.03495553 0.017291162 -0.006570009 -0.039244343 0.022658063 0.043369286 -0.022163365 0.003147042 -0.012446281 -0.03155924 -0.024494307 -0.03273459 -0.015687231 -0.04394412 0.0112981135 0.07039518 0.02915242 -0.053012688 -0.074720144 0.003936976 0.05130593 0.038722526 0.074202776 0.020906627 -0.054444585 0.062827595 -0.036527645 0.07655315 0.07871111 0.051297657 -0.028659876 -0.015824689 -0.057973165 0.0026339376 0.04006007 -0.07580595 -0.0468799 0.040523708 -0.06194585 0.021652814 0.010217167 0.013010776 0.027713899 0.05924261 0.0014866132 -0.077279344 -0.031028591 0.07560658 0.024412138 -0.045371506 0.07555179 0.008653164 -0.034435555 -0.036501233 -0.05810449 0.032930117 0.035961237 -0.005383519 -0.035363916 -0.007747005 0.0352157 0.014666698 0.014151626 -0.03876392 0.067631766 0.0022642692 -0.03153038 -0.040329363 0.01012256 -0.023052484 -0.07886353 0.018836118 -0.066017546 -0.05382574 -0.058188535 0.021144291 -0.021161938 0.066558674 0.0058656316 0.028161537 -0.062205214 -0.03985482 0.0006301454 -0.0067411503 0.03730196 0.003163427 0.037536237 0.05718701 0.048108406 0.010784854 -0.019277193 0.051945157 0.0303571 -0.0066220034 -0.038275473 -0.0037043653 -0.029198369 -0.010024156 -0.038210656 -0.034667294 -0.032786082 0.024539504 -0.03255063 0.040619064
559 -0.029930199 -0.029651022 0.0044417046 -0.05905227 -0.07157229 -0.023195935 -0.017040828 0.0478597 -0.059387915 0.025319828 0.05964908 -0.078960694 -0.014679877 -0.068195894 -0.019832605 0.06117862 -0.03312935 0.067133434 -0.07746831 0.021888368 0.03478076 0.006042372 -0.06021697 -0.015379264 0.004693186 -0.021250278 0.038948864 0.024354847 0.029029723 0.056101758 -0.07070834 -0.06664301 0.025868703 0.029825913 -0.007119204 0.029937817 -0.030013341 -0.04121846 0.04221529 0.014901616 0.038143374 -0.04464652 -0.046421356 -0.021688523 0.07207634 0.023359753 0.06412459 -0.072046615 -0.04670569 -0.020636406 0.01721239 0.06522424 0.04858585 -0.010796762 -0.011529006 0.023917438 -0.016023414 0.06532191 -0.06322069 -0.012853702 -0.018832037 -0.008167147 -0.0065168627 0.008588992 -0.07544499 -0.05559908 -0.03728818 0.058746498 0.046033096 -0.01661561 0.063768 0.074047565 -0.076711975 -0.036354907 0.046882555 0.07668856 0.042833116 -0.0050779404 -0.049012266 0.024308357 0.039712653 0.015510811 0.05302467 0.038270347 0.013993648 0.026292486 -0.023192443 0.0082449885 0.02073071 0.008451074 0.030116005 0.0786636 0.061980348 0.03072556 0.036881004 0.021578254 -0.03169717 -0.05799512 -0.031402547 0.036183912 -0.069761895 0.04190146 0.046382435 -0.07627897 -0.017046012 0.055309724 -0.036682572 -0.035324585 0.07203987 -0.03240154 -0.01247256 0.062378593 0.030059442 0.0027573325 -0.05223218 0.070814855 0.008549421 0.02169619 -0.059315298 0.048364535 -0.03693112 -0.0077606332 0.06121777 -0.043837726 -0.027604334 0.0074194344 0.016220551 -0.037617013
558 -0.045463745 0.016067237 0.0056739175 -0.077440165 -0.07416369 -0.007236046 0.028518366 0.06719979 -0.061250743 -0.0063112993 0.03887595 -0.054472793 0.060458947 -0.019435072 -0.019633245 -0.035994988 0.029241167 0.030748999 -0.060246423 0.034375675 -0.07463711 0.008474799 -0.030578593 -0.07418859 0.027466308 -0.0034829695 -0.016524369 0.008933318 -0.063609876 0.012297583 0.022012854 0.014210554 0.0032431672 -0.032903392 -0.0005879216 0.050528407 -0.006942696 -0.043874975 0.005151786 -0.019980531 0.032364216 0.013346485 0.016696306 -0.038828872 -0.0050728614 0.0133700725 0.037405882 -0.044886343 -0.017707264 0.015921578 -0.052045375 -0.011053078 -0.02318744 0.025464667 0.07068771 -0.054079697 -0.03297508 -0.010215942 -0.046327922 -0.033660747 -0.023392603 0.05155817 0.037154954 -0.018304115 0.0040836465 0.035333227 -0.0378295 0.05710553 -0.02167099 -0.04526543 0.06259179 -0.011624261 0.027558563 -0.05782451 0.07638464 -0.028084207 -0.011318277 -0.038042556 -0.03732008 0.072544746 -0.01573341 0.015682224 -0.008866833 0.010306589 0.037199188 -0.013453966 -0.020559788 0.0418255 0.034895446 -0.020970603 -0.008974149 -0.03645023 -0.010709677 0.031675063 0.019342445 0.011332762 -0.004642485 -0.029089365 0.025284119 -0.054187577 0.030156536 -0.03385594 -0.012662736 0.0021900912 -0.022074752 0.05364965 -0.055258837 -0.060731858 0.06333457 -0.019792367 -0.017083783 0.009476569 0.07917958 -0.038243055 -0.06956151 0.055387318 0.07835753 -0.016645497 -0.0429197 0.03263335 0.025663134 0.007931594 -0.01022058 -0.019834602 0.052280795 0.009251765 -0.06462827 -0.07309816
1217 0.018684128 -0.025538031 0.0016231559 -0.0138322795 -0.07859754 0.017283523 -0.012886902 0.04434542 -0.019468244 0.01733113 0.080769874 -0.026156982 0.0013180744 -0.03717081 0.03628029 0.014426127 -0.012104314 0.062303387 0.014637901 -0.004138443 -0.00016785611 -0.04509714 0.02042902 -0.0536282 0.07018901 0.018383455 0.028047273 -0.0057187853 -0.061320014 -0.0015269916 -0.046479367 -0.0193718 0.045941032 0.018397084 0.022258693 0.014980742 -0.025762156 -0.07543998 0.06727364 -0.010299582 -0.012509379 -0.0010332225 0.016547719 0.047236413 -0.03541745 0.00548827 -0.019260898 -0.012204087 0.014455538 0.08012254 -0.0738554 0.033341575 0.041917738 0.029420285 0.03254322 -0.055291317 -0.042356625 0.065789215 0.041976005 -0.010833831 0.026377842 0.07904386 0.022348965 -0.004685144 0.017695794 0.014294006 0.0042220014 0.012263099 0.011668166 0.0095485095 0.017138494 0.05233359 -0.08097482 -0.019631349 0.034774482 0.025163302 0.016468566 0.027417092 -0.058509037 0.037478026 -0.005596088 0.05636385 -0.022025403 -0.046986297 0.017011832 -0.06325035 0.08065511 0.06864131 0.02395019 0.03012699 0.037547003 0.07499145 -0.03511243 -0.063505605 -0.011256603 0.0700703 -0.07780154 -0.0044063763 0.027492914 -0.048261113 0.018516496 0.060898717 0.057336096 -0.018014194 -0.02934391 0.048345555 -0.010960515 -0.07085128 -0.0022998028 -0.073050015 0.008145257 0.07160453 0.075849995 0.03875651 -0.07540424 -0.027665423 0.07905353 0.009232876 -0.026033044 -0.024941092 0.054121632 -0.015984107 0.010672315 -0.06568937 0.045881033 -0.04172937 0.036411542 -0.07404444
555 -0.028621357 -0.0026427945 -0.02817943 0.010072032 -0.010611447 0.013884844 0.06267911 -0.026046649 -0.011936241 -0.022654464 0.06746814 -0.0021462613 0.031824417 0.029899664 0.038439862 -0.0033123957 -0.03556537 -0.026396692 -0.048807304 -0.02955615 -0.061465934 -0.019830205 -0.07348032 0.024571845 0.052321374 0.04006888 -0.004841809 0.022714742 0.023332091 -0.027799081 -0.034698308 -0.0022504418 -0.0033199661 0.0161774 0.010973943 0.030580854 -0.07439795 -0.071456276 0.072156265 0.003498449 -0.011471968 -0.07515698 0.007839717 -0.030203527 0.07351324 -0.01665145 0.00045392965 -0.07827636 -0.08107769 -0.03743481 0.01610953 0.034170065 0.026190462 0.063372366 0.07282904 -0.022550467 -0.032016546 0.025786359 -0.027936397 -0.016177822 -0.022659581 -0.030953862 0.006904834 0.070212774 -0.008353341 -0.01783345 0.03725829 0.057099372 0.018910134 -0.07406214 0.063401006 0.07481821 0.02871869 -0.048928674 0.028619794 0.025743665 0.061131816 -0.03016125 0.03128717 0.0074495114 0.011106866 -0.016297653 0.020960595 0.012582854 -0.037336167 -0.034922186 0.0028680654 0.046946358 -0.00763387 0.013152907 0.019077847 -0.012694655 0.04916588 0.03867187 -0.02201298 0.044363517 -0.013479886 -0.0020931666 0.038703453 0.02029959 -0.010034545 -0.019725291 0.056437265 -0.06953236 -0.04874484 0.06600901 0.0040678084 0.01889692 -0.003289783 -0.06628719 -0.04292123 -0.03159998 -0.02023721 0.03914817 -0.051179595 0.051233888 -0.036176544 -0.017237635 0.032109283 0.06575165 -0.009739382 -0.017003795 0.058388494 -0.063203074 0.057509344 -0.0038446302 -0.0591653 -0.044893354
554 -0.051157936 -0.07152535 0.028513148 -0.01263788 -0.049268417 -0.035313804 0.032761585 0.081082545 0.025145197 -0.03803214 0.06922115 -0.05117141 0.03920974 -0.0005283712 0.044069096 0.00951707 0.034880403 0.03678897 -0.015187818 -0.012293749 0.022910016 -0.024518987 -0.03318416 -0.052957766 0.06990939 -0.07097134 -0.059916344 0.042834617 -0.028689789 0.048408236 -0.040460866 0.032497264 0.02435126 -0.0015089831 -0.07001819 0.046200566 -0.03681201 -0.018112777 -0.04347677 -0.004578462 0.024156883 -0.010171269 0.0068938388 0.0310696 0.07634745 -0.042185444 0.024762115 -0.06552996 0.035064306 0.016479164 -0.06875972 0.021067996 -0.01559713 -0.037762996 0.05879433 0.0050625377 -0.035277106 -0.02313733 0.042712368 0.008203832 0.032573257 0.0049203546 0.030462697 -0.01640508 0.030398937 0.03432409 -0.0142613705 0.0515684 0.054877494 0.035895888 -0.038541917 -0.008126351 0.030299094 0.009300382 0.034815434 0.020604558 -0.013950601 0.0071595744 -0.025835607 -0.0370833 0.010240497 0.075411536 -0.027571985 0.010587747 -0.0056660906 0.038035534 0.05396114 0.01537047 0.06896716 -0.017540168 0.04917249 0.0027731163 0.064548075 0.0059441696 -0.035167646 0.009873542 -0.0059020407 -0.050226223 -0.05702479 -0.038793713 -0.0111266915 0.075477965 0.04496508 -0.07000024 -0.05153598 0.010987503 0.025670642 -0.030554025 0.057284687 0.00036626204 -0.07869428 -0.015109791 0.027266653 0.053767636 0.005923724 0.05445799 -0.027071018 -0.074838646 0.031974025 -0.023241945 0.08070238 -0.06264732 -0.019481305 -0.047720306 0.06990498 -0.06947906 -0.0061961333 -0.072385326
557 0.03170327 0.019428598 -0.012641998 -0.07205786 -0.018505696 -0.080137156 0.030335 -0.00047627068 0.029530646 0.026030399 -0.03731874 -0.078366496 -0.036117718 -0.009736472 0.022171773 0.0324459 -0.001705953 0.043908834 -0.065342024 0.0054891203 0.038068287 -0.043777775 -0.0124551365 0.01636742 0.039038427 -0.038520005 -0.06796702 0.005264068 -0.006975584 0.021208402 -0.057577644 -0.0061366186 0.0048122695 0.061368797 -0.0077251703 -0.019547248 -0.04595104 -0.048972946 0.040630933 0.07787172 -0.028821988 -0.016787035 -0.01265242 0.07714209 0.048289303 -0.013516086 0.07924539 0.030249644 -0.059640005 0.05870772 -0.00603223 0.006184678 0.03978661 0.077507585 0.07742933 -0.007236771 -0.05302396 -0.0027001174 -0.0036818036 -0.024867948 0.03124139 0.0037837 0.030824022 0.015018236 -0.0228629 -0.04814877 -0.054125633 0.012918709 -0.03279834 0.026940845 0.0052568614 0.027863707 -0.07363016 -0.03634798 -0.003969161 -0.036585685 0.0301513 -0.035488524 0.034644917 0.028301308 0.053120185 0.05513092 0.05988612 -0.056471184 0.05972026 -0.03310924 0.06399471 -0.0045539765 0.05004026 -0.034064785 0.010580503 0.014280848 -0.010289029 -0.07232688 -0.017010476 -0.026491078 -0.02562553 -0.05555548 -0.06947252 0.005839889 0.028587766 0.0047260197 0.063870244 0.020262945 -0.04753181 0.01600183 0.015949748 0.02313052 0.0019142281 -0.061708916 -0.00851032 -0.018676303 0.04504452 0.02785087 -0.06284003 -0.008741412 0.05691448 0.023294834 -0.075235195 0.006202994 0.029713204 0.027128305 0.066223495 0.025820056 0.040964086 0.00703839 0.00088926835 0.04376869
556 -0.035454344 0.017202869 -0.032632284 -0.008174459 -0.05979005 0.019101987 0.04519324 0.024818348 -0.008289371 -0.010231236 -0.034871608 0.01886387 0.0685065 -0.07485576 -0.007376969 0.06537191 -0.017117588 0.03325416 0.0066770734 -0.060378544 0.027131772 -0.07525202 -0.026676701 -0.018470243 0.0568774 -0.0050643412 -0.005678131 -0.010736101 -0.005721705 -0.03657661 0.00121199 -0.033085294 0.009453377 -0.03275761 -0.08080808 -0.006198959 -0.0737957 -0.012033004 0.03417255 0.05549638 0.064835764 0.038816445 -0.059210602 -0.043803904 -0.014433514 -0.025027841 0.035296768 -0.06957958 0.021049866 0.029797856 -0.0022902312 0.0030232489 0.031708065 -0.0054184073 0.073189825 -0.024520513 -0.0060990294 -0.039521474 -0.051471494 -0.012275858 -0.03077328 0.0789964 -0.07795313 -0.0099587 0.028597202 0.041566156 -0.040911898 -0.0041405815 0.014022375 0.006422387 -0.020962438 0.015294903 0.001994681 -0.0026764483 0.040592935 -0.032138422 0.020251093 -0.0035902332 -0.05538332 0.06652374 0.037984405 0.010086225 -0.032891523 -0.022766102 0.06682706 0.0076031894 0.07834055 0.069023244 0.0559417 -0.018760184 -0.0029126112 -0.023366665 0.067627475 0.0062178387 -0.057473414 0.030619057 0.01667871 -0.040273696 -0.011167811 0.03403058 0.011411214 -0.012989552 0.059768576 -0.05942806 -0.009108737 0.061088115 -0.04455226 0.029917104 0.003032018 -0.06266542 0.01308484 0.051545437 -0.037270464 -0.017199876 -0.0684077 0.04064983 -0.027919639 0.03812782 -0.007867197 0.019360993 0.07755546 -0.031549275 0.0675402 -0.0038910243 0.028787527 -0.061687656 -0.07194643 -0.00810572
551 -0.0396106 0.013822211 0.014339178 -0.065874785 -0.020101141 -0.06773513 -0.010102756 0.04812194 -0.04560696 0.06707747 0.057891823 -0.050062325 0.07653165 -0.031964194 -0.026235217 0.0050643673 0.02043644 0.06922535 -0.05040582 -0.007929492 0.014048199 0.022315828 -0.051989067 -0.009952602 -0.014515726 -0.059635557 -0.00013143581 0.07622098 0.034904774 -0.010212608 -0.00040268537 -0.036150914 -0.013984759 -0.016652046 0.0363446 0.0428721 -0.08012155 -0.0727439 -0.019309042 0.019702183 0.010113105 -0.060412366 -0.011175773 -0.01867202 -0.026394948 -0.01784522 -0.008415377 -0.044002905 0.01421598 0.022193221 -0.040401347 0.062124904 0.020693073 -0.012115506 0.06489157 0.029942257 0.01470652 -0.004091691 -0.06865481 0.025415715 -0.07482565 -0.007141335 -0.034963332 -0.004093994 -0.03462917 0.033031985 0.019801807 -0.0020001745 -0.00089769193 -0.06468707 0.07365309 0.016963977 -0.07997002 0.01274925 -0.030609742 -0.006813514 0.037663467 0.020304441 0.005659462 0.037994128 0.04191991 -0.032142192 0.048337962 -0.0427301 0.04050751 0.032721154 0.009780956 -0.03551803 0.04223417 0.036420446 0.048339013 -0.03405078 0.03524104 -0.045091752 -0.006731799 0.02623824 -0.049135648 -0.070262015 0.0016908385 -0.0018119592 -0.05782806 0.039694466 0.013381552 -0.06349062 -0.046129122 0.015238459 -0.036976293 -0.026392454 0.02385399 -0.017979892 -0.06560467 0.028266044 -0.03179895 0.024130436 0.038923685 -0.025037525 -0.016877148 0.008143408 0.010492047 0.055342346 0.033148594 -0.053777717 -0.026486058 -0.013369696 0.0363263 0.020112291 0.014750591 -0.051868
550 -0.07376404 0.003154371 -0.00032344076 -0.02289533 -0.017527629 0.02243419 0.07840573 0.04219451 0.0062659057 0.07270248 0.0230669 -0.06954769 0.068620004 -0.05795632 -0.07603718 0.052515168 -0.08067684 -0.03481437 -0.040854774 0.000412227 -0.052079204 0.039078444 -0.047654536 0.008159001 0.03921557 -0.07386749 0.0011068291 -0.007972242 0.021566764 -0.015194624 -0.020498095 0.001934739 -0.0190989 0.06826052 -0.063751236 0.036655106 0.011272831 -0.059016578 0.025753275 -0.01899565 0.006709001 -0.013990207 0.0032821626 0.030251762 0.02203664 -0.008770746 0.031564694 0.004184464 0.027310403 0.07587447 -0.0774517 0.062162075 0.0087271 0.024666034 0.013348411 0.01854824 0.02375644 0.0032932214 -0.045802373 -0.07984881 0.019225636 0.008815984 -0.026711863 -0.019454699 0.029579243 -0.012444956 0.024106108 0.05003892 -0.003964718 -0.015400128 -0.0051311543 0.029313466 -0.027063396 -0.019971145 0.065500475 0.024600904 -0.002946876 -0.0041765072 -0.031547595 0.064278066 0.04421528 0.017584464 0.071803324 -0.07459013 0.016808987 -0.01837448 -0.025852984 -0.031078659 0.06052757 -0.07629877 0.01642375 0.047289006 0.032827925 -0.021804923 -0.012024434 0.051079944 0.027426502 0.016848786 -0.049114924 -0.0048517883 0.024509117 0.02914339 -0.008872487 -0.053242236 0.039175928 0.06053478 -0.0105416 0.028521387 0.069797814 -0.042259306 0.003646621 0.0653645 0.031814158 0.059296194 -0.022325221 0.04648652 0.029513758 -0.0297959 -0.06386304 0.048372813 -0.002041562 0.005104573 -0.04312633 -6.304588e-05 -0.0015382922 -0.0696033 -0.005217199 -0.013195046
553 -0.017027076 0.014737304 0.033157144 0.0027873064 -0.03350801 0.009022253 -0.0046126395 0.053509172 -0.08133946 0.037008245 0.043105528 -0.044887524 0.06456238 -0.00324092 -0.077070154 -0.04128589 -0.004783985 0.05577232 0.0069102673 0.028724333 -0.05900891 -0.025964275 -0.07459246 0.019510502 -0.0024141134 0.03573768 -0.07683879 0.036619265 -0.057643287 0.009762713 -0.05626598 -0.017502509 -0.021558397 0.06751261 -0.076647185 0.072037436 0.02240024 -0.040611584 0.060039356 0.06983409 0.03694225 -0.060972635 -0.06537666 0.0065302323 -0.014514476 -0.046283167 0.0015317636 0.019040491 -0.06301254 0.023412133 -0.0010675878 -0.03725609 -0.01751757 0.036116354 -0.0294163 0.028875427 -0.015606338 0.039196398 -0.001393144 0.032137174 -0.02910203 0.019599965 -0.057662923 0.062008943 -0.023757635 0.03589365 0.0235921 0.0649909 0.012189008 -0.017495746 0.042277884 -0.0035402346 -0.0045074555 -0.0054600714 0.00040318014 -0.0009837119 0.058900643 0.027861334 -0.0076952204 0.00441177 0.07998327 0.055089243 0.052596927 -0.07014695 0.038860936 0.0069215344 0.005423638 0.07666435 0.052853987 0.022683721 -0.00578819 -0.008944066 0.037052374 -0.07131004 0.036926366 0.049851764 -0.03232324 -0.057713423 0.014454764 -0.01688293 -0.068670146 0.016539205 0.033487942 -0.00814325 0.025081398 -0.023286788 0.027924797 -0.07120731 -0.039435983 -0.034174472 -0.064530544 0.07341454 0.07965454 -0.035791565 -0.057795767 0.010980879 0.05232976 0.0146700945 -0.033211917 -0.035587784 0.044030257 -0.057956297 -0.0237541 -0.0742042 0.07372896 -0.054524433 -0.022711866 -0.037954282
