709 128
199 -0.086119846 -0.024581552 0.084611386 -0.08314542 -0.07552131 0.034120884 0.05799533 -0.018230945 -0.009592408 0.015597715 -0.04423743 0.02333113 0.009244443 -0.08310626 -0.030608293 0.06335796 0.033712655 0.05844734 -0.019177888 -0.07076341 0.09536492 -0.053191155 0.06926014 -0.05555623 0.08302616 -0.025386456 0.023157692 -0.081281915 0.04077635 -0.028002016 0.063200206 -0.02929259 0.043722156 0.09897903 0.08359202 0.05905101 0.093861416 -0.024556452 0.0549098 0.01865911 0.065889575 -0.049380887 0.08051404 0.07597971 -0.0029331683 0.020125557 0.038476788 -0.018364921 0.07845712 -0.00669176 -0.091419674 0.04929069 0.045332957 -0.06607106 -0.014971805 0.009172675 0.02088328 0.014665477 0.06083318 -0.08460671 -0.010088881 -0.002545914 -0.0091952225 -0.06043247 -0.00576771 0.019567896 -0.041340932 -0.0011857814 0.008462111 -0.031423524 -0.09157753 0.040375877 -0.09227355 -0.08711242 -0.05272699 0.06519627 0.0617975 0.024457388 -0.011412846 -0.054535344 -0.036059387 -0.022723697 0.030743856 0.0067009362 -0.014171336 0.02409344 0.07625469 -0.039667685 -0.021616993 0.026083546 -0.09322619 0.038982425 -0.08555852 -0.05067813 0.06362568 -0.00416301 -0.021104565 -0.0045481785 -0.03357866 0.00409306 0.08866947 0.0013418427 0.0623967 -0.00651404 0.05205046 0.057330616 0.09962426 0.05118106 0.09011811 -0.053041898 -0.045606617 -0.00055646244 0.05724043 -0.06783327 -0.03871592 -0.02354148 -0.036792476 -0.060383674 -0.0367699 -0.037567522 0.022276185 0.085517615 0.05668941 -0.005032995 -0.03481621 0.062082488 0.04279217 0.09287081
198 -0.05115379 -0.039438426 0.0064256685 -0.081471495 0.04844921 0.10163969 -0.029242154 -0.058110964 0.09066876 -0.01296691 -0.020135745 0.029367601 -0.031225335 -0.0014043574 -0.0133986175 -0.094808586 0.06106474 -0.000121354824 -0.062174845 -0.0964044 -0.056123193 0.01147748 0.09212498 -0.029020147 -0.0518186 -0.04805275 -0.019408133 -0.05043765 0.021888394 -0.03796192 -0.087816626 0.07355843 -0.026152892 0.051572073 0.07062546 -0.02729096 -0.05275859 0.00845584 0.014518919 0.005447439 -0.058178853 0.096837714 0.022576945 0.076693386 0.059285954 -0.041934997 0.012325438 0.015448912 -0.04032682 -0.020496294 -0.055480376 0.09899764 0.035272285 -0.008713949 -0.08468976 0.019520344 -0.09195889 -0.060471516 -0.08484686 0.025778938 0.060708947 0.04748384 -0.052364744 0.011787281 0.060921527 0.0022706953 -0.020384254 -0.08850529 0.05075332 -0.030897401 -0.01188294 -0.105462074 0.05219116 0.049330156 0.040494613 0.02986003 -0.07903689 -0.01925587 -0.046093 -0.024864204 -0.094705515 0.048401162 0.009987726 0.02489129 0.039642166 0.056206647 -0.045360938 0.005013517 -0.06337425 0.045408096 -0.034910582 -0.014994845 -0.0327764 0.10136761 -0.07782924 -0.09817808 -0.054581564 0.019287903 -0.0034294734 -0.037063975 -0.004099493 -0.03032652 0.049551584 0.006787208 -0.057533175 -0.007681908 -0.0064736833 -0.0066514406 0.070414715 -0.034432497 0.017406764 -0.033660218 -0.06363886 -0.018227348 0.06571471 -0.096372925 -0.074857146 0.005589953 0.03517331 0.06927856 0.032060843 0.08595477 -0.06369721 -0.08454248 -0.054458316 0.054233532 0.021047862 0.00036233105
344 -0.034804698 0.0026142576 0.042742748 0.02817672 -0.01683814 0.07880822 -0.065727785 0.047298986 0.02128473 -0.09294555 0.00513075 -0.007562957 0.0062627 0.0011656656 0.0492352 0.04756444 0.07323455 0.10068745 -0.06267132 0.040968683 -0.018486775 -0.003020164 -0.058140077 -0.010354439 -0.047041073 0.08085212 -0.056003224 0.0397863 -0.05839457 -0.08384541 -0.015745174 0.09009702 -0.05727423 0.041038107 0.093778014 -0.018842388 -0.01249609 0.06149985 0.025182502 0.09415008 -0.008694953 0.048339967 -0.0067644594 0.017729305 0.04717039 -0.09614593 -0.050142318 0.029259194 0.09870751 -0.024077903 -0.036049362 0.058197822 0.09304507 -0.038956232 0.0023371493 0.059308674 0.028753225 0.020463403 0.043954164 0.0032132743 -0.013834586 0.026104575 0.020395799 -0.006236771 0.03141456 -0.016302958 0.03011844 0.021320729 0.036544915 0.07496853 -0.028974105 -0.08879928 0.026892643 -0.08547185 -0.069552444 0.031759493 -0.005396909 0.02251337 -0.06637609 -0.10341689 0.041522667 -0.026162677 0.014805074 0.08488109 -0.024865922 -0.028967455 0.06600503 0.035111096 0.0536007 0.035579134 0.049684335 -0.004565077 0.029157093 0.029627554 -0.020518227 -0.06933389 0.0711891 0.027145308 -0.0012976741 0.0033282628 0.03541096 0.06257207 -0.08085054 0.019835206 -0.052034028 -0.104635835 0.07932311 0.101804495 0.04128032 0.0129116075 -0.041625023 0.0024303393 0.08848209 -0.019936392 0.08079795 -0.076201305 -0.08492447 -0.034375947 -0.06299152 0.085239366 -0.017222457 -0.035014305 0.021191046 -0.0020592879 0.007522964 -0.06810025 0.03681807 -0.045578122
0 -0.06837414 -0.021110907 -0.03925184 0.055229224 -0.0338516 0.0056425915 0.0092159845 0.0480361 0.08141002 -0.098789915 -0.08014103 -0.02892107 0.024182858 0.033020068 0.015112209 0.048429098 0.045347545 0.031034026 0.03312022 0.023939865 -0.04885946 0.057646118 0.066568136 -0.08842645 0.06471648 -0.017357742 0.062251646 -0.045926552 -0.0029110978 -0.088518366 -0.10218621 0.03205119 -0.09829366 0.07612708 0.08616865 -0.103614636 0.07320081 -0.10152546 0.05647592 0.0035839947 0.026894817 -0.036652774 0.01717291 0.0025162245 -0.016651576 -0.090713866 0.0358863 0.07875592 -0.062124085 0.013310349 -0.014330279 0.097175114 -0.028763102 -0.044969335 -0.09902789 0.07716988 0.045236856 0.025657855 -0.0398699 -0.011196064 -0.038129903 -0.055968188 -0.04367093 -0.061622962 0.062089093 0.01635693 -0.00050781365 -0.08899524 -0.013605585 -0.053469315 0.033901382 -0.039244156 0.057553843 -0.077760786 -0.014056651 -0.053174283 -0.051154923 -0.0012270709 -0.049214795 -0.092818126 0.058338284 0.04156312 -0.0058556395 0.0768022 0.009416075 -0.03131757 -0.0032792406 -0.070042916 -0.027176004 -0.02065693 -0.09559684 0.075117335 0.019537453 -0.042386808 -0.06849098 -0.036484595 0.08807827 0.09735083 0.018817775 -0.034318525 0.07519021 -0.011745643 0.057839505 0.015162811 -0.047814447 0.0023727887 -0.03900775 0.007039939 -0.061888643 0.08582744 0.0032864418 0.10132167 0.03590586 -0.025725627 0.051793486 -0.045858983 0.06012792 -0.052109968 0.033313103 -0.018432599 -0.070053264 0.087965466 -0.016261417 0.025179232 -0.025661005 0.054566074 -0.032893218 -0.044865184
346 -0.01027075 -0.023403654 -0.04380083 0.038614076 0.056061275 0.012133261 0.030240623 -0.005115687 0.08909024 -0.06742951 -0.05205866 0.0504486 -0.059572823 -0.044061102 0.06353344 0.017440898 0.0398153 0.07591498 0.036741458 -0.007533376 0.037312374 -0.0947412 0.09226255 -0.04619756 -0.021130629 0.03243678 0.021800578 -0.019080957 0.056957494 -0.07426477 -0.038505387 0.014870736 -0.063249975 0.0039970544 0.062360045 0.040744133 0.031996842 0.04862548 0.06567224 0.01844114 -0.045830563 0.10174913 -0.010672265 0.07364046 -0.047234036 0.044154696 -0.03649853 0.012643363 -0.051371813 -0.043197334 -0.008854492 -0.010221117 0.09478697 -0.040514644 -0.03711372 -0.025678528 0.001899302 -0.09142674 0.013042001 -0.08907643 -0.05733353 0.020745173 0.017875489 0.065973945 0.07258595 0.047091614 0.0035624285 -0.021214554 0.073008984 0.010271844 -0.073726565 -0.06539364 0.048912868 -0.03766132 0.013211008 0.07303194 -0.0921516 0.09316884 -0.013988451 0.0072464994 0.01953422 -0.020750508 0.094188 -0.027637959 -0.051170025 0.00431868 0.076426536 0.04913935 0.034261227 -0.047405723 0.04868697 -0.0060279407 0.01913797 0.040885087 0.06180334 0.0047943415 -0.058069907 0.071833104 -0.0012765143 -0.008436753 0.09757091 -0.0058065136 -0.095053636 0.05287825 -0.08735885 0.03786898 0.036006175 0.00762159 -0.0359077 -0.0146551365 -0.09735275 0.046607755 0.024274712 -0.10361376 -0.048558254 -0.08259402 -0.029697742 0.0070622624 0.06975629 0.041629534 0.023736443 0.04517144 -0.053508587 -0.07612341 -0.010369438 0.05770936 -0.102201305 -0.022999007
347 -0.017225016 -0.054445222 -0.061261155 0.03805185 -0.06090662 -0.017922867 0.049336135 -0.0616713 -0.06623339 -0.06905798 0.04392209 -0.00066047267 -0.014125701 0.017451072 0.0001835894 0.055811547 0.08994411 -0.04802495 0.04836839 -0.071061745 0.08313648 -0.014865317 -0.07630084 -0.022836348 0.0874163 0.011362658 0.05891854 -0.07049797 0.048395284 0.05810407 0.0058274777 0.031342573 -0.032022305 0.023056619 0.018847898 0.020165408 -0.044214096 0.043256603 0.03221056 -0.055300314 0.020306045 0.06129056 0.055535875 0.045881554 -0.02003686 -0.05487948 0.069969766 -0.059957195 0.018857071 0.04337666 -0.10377159 0.0040081674 0.08233579 -0.05247999 -0.073466875 0.06464301 -0.06049818 0.04802419 0.021432253 0.058246635 -0.018351143 0.04779755 -0.04242549 0.028632412 0.007868876 0.062548906 -0.038939625 0.025529576 -0.016695585 0.056336764 -0.08600379 -0.041553408 -0.001669419 0.020373745 0.047973927 -0.039148036 0.057685368 0.049624525 0.040241607 0.052761633 0.02231835 -0.050435238 -0.049282454 0.018648492 0.00047208066 0.062539525 0.02070806 0.04780587 0.056746814 0.06121437 0.050724987 -0.030996658 -0.0036443463 -0.09492572 0.016133653 0.061337616 -0.015088224 0.08694392 -0.05892171 -0.040439703 -0.047465976 0.0471101 0.07835682 -0.07213922 0.03493084 -0.013279809 0.090783775 0.04734461 0.04045497 -0.028900648 0.026971038 0.06612304 -0.021496292 -0.066342816 0.034895994 0.046753198 -0.010175103 0.062656544 -0.05120155 0.060282204 -0.07849601 -0.023583254 -0.0722345 0.042824663 0.034050096 -0.028035745 -0.008027145 -0.030311085
340 -0.09501986 0.027573332 0.063322335 0.003014852 -0.015848534 0.062212635 0.04030518 0.03002452 0.03361431 0.028025053 0.012163245 0.10290666 -0.09405962 -0.086945474 -0.009594146 -0.07639263 -0.01154386 0.083048396 -0.01169454 0.027431995 0.00028403278 -0.06839505 0.06555509 -0.06290802 -0.009760002 -0.04253995 0.040330064 -0.044146203 -0.04026607 -0.0794384 0.058756225 0.0497848 0.06040402 -0.057196975 0.03379872 -0.09508936 -0.05119837 -0.019030023 -0.055657826 0.06778708 -0.056108434 0.009661705 0.020596191 -0.0056355703 0.039322138 0.04788887 -0.022248937 -0.027716786 -0.039994594 -0.020180294 0.048904225 0.09011104 0.036966354 -0.02542491 -0.089772716 0.020608308 -0.071752004 -0.03330263 -0.010223438 0.005983376 -0.0398409 -0.09857602 -0.014914715 -0.04575836 -0.0032996808 -0.048191722 -0.026963368 -0.10170044 0.08654316 0.090473615 0.052466724 -0.04807414 0.029112667 -0.015037526 -0.030304607 0.025608208 0.023361811 0.081970066 -0.08519691 -0.005534661 -0.026931224 -0.079221115 -0.01464875 -0.009331194 -0.0052985423 -0.07978843 0.098213926 -0.052275836 0.032060526 -0.057276443 -0.05782186 0.079084456 0.025385614 0.021831606 -0.015336319 -0.066041686 0.017644225 0.067173354 -0.019004788 -0.05104499 -0.002077796 0.048055574 -0.021972796 0.037912942 -0.023519862 0.053257894 -0.0034788158 -0.015142057 0.08074631 0.030775309 -0.039731637 0.028644875 0.053694114 0.05739056 -0.013975516 0.039254405 -0.09483844 -0.061253224 0.014561436 0.039987847 -0.050146226 0.031250056 -0.02669716 0.018702367 0.0911581 -0.07619436 -0.037545536 0.10138992
341 -0.019648274 -0.03249475 -0.04113315 -0.07801515 -0.0911481 0.011833051 -0.071959645 0.090590835 0.06914385 0.045561556 -0.10133248 0.013460755 0.029569197 0.03223086 0.019803116 -0.056807134 0.074963026 -0.06146488 -0.0065457923 -0.026854446 0.04992019 -0.05707669 0.068016 -0.0141778365 0.029530825 -0.0587882 -0.026524775 -0.025986409 0.038360838 0.06106577 -0.0490237 -0.04055293 0.006110287 -0.040653095 0.07737766 -0.05691331 0.021831289 -0.04325951 0.039180074 -0.05991646 0.0046337843 0.075668156 -0.007716626 0.054375306 0.085548155 -0.09885767 0.02065937 0.041915376 -0.049921595 -0.018492868 -0.06568415 0.0661894 0.057380557 -0.0561087 0.050896734 0.082816906 0.029649341 -0.047360417 -0.072494835 -0.017669467 0.0123478295 -0.06351013 -0.013983709 0.07873826 -0.0055632726 -0.048441358 0.03169299 -0.05448681 0.07675954 -0.04253015 -0.067780256 -0.024264475 -0.015893325 0.046144225 -0.079602875 -0.03023679 -0.081132054 -0.014466779 -0.06190749 -0.08452717 -0.027185462 -0.098812446 0.02390846 0.07257234 -0.023795145 0.0351472 -0.028544948 0.0071340255 -0.023640234 0.03020144 0.073496826 -0.029653808 0.01284186 0.05792861 -0.0039888434 -0.044013467 0.08975222 0.028426493 0.013779771 -0.06323582 0.07946221 -0.008315699 -0.07974398 -0.06142964 -0.020090202 0.033294577 0.051651973 -0.053695135 0.058313474 0.10094084 -0.000563683 0.04189255 -0.0459842 -0.00019999372 -0.008319036 -0.07948743 0.05348364 -0.00552131 -8.29061e-05 0.07758695 -0.029261552 -0.023073576 -0.03344769 -0.01448422 0.04200357 -0.010326998 0.00069475686 -0.039356895
342 -0.05169227 -0.0036659143 -0.055559527 0.04121035 -0.043786276 0.08431067 -0.060816538 -0.039766368 -0.018830046 0.05976503 0.052066 0.008197335 0.023802673 -0.007940549 0.058520693 -0.0028800848 -0.009823988 -0.00057168095 0.07919702 -0.034998156 0.09402646 -0.0776012 0.07258016 0.049415484 0.031939067 0.08063689 0.046961214 0.047509458 -0.0017716038 -0.024719397 -0.029800659 0.024581287 -0.010157324 0.013736691 -0.030384015 0.05702145 0.10342525 -0.03879152 0.07842818 -0.024548749 0.052226614 -0.04868592 0.09810768 0.064588346 0.09341412 0.009662821 0.050019864 0.07983616 0.021220203 0.050881155 -0.06582774 0.10292781 0.055663068 -0.059240047 -0.08357982 0.023933023 -0.016004017 -0.08634967 -0.033247646 0.005110279 -0.052330162 0.01630586 0.06081802 0.074952655 -0.039973155 0.044131145 0.078534625 -0.09068947 0.0075915 -0.014567673 -0.063806035 0.0035750428 0.026946666 -0.016745515 0.037773833 -0.045397297 -0.08261711 0.08306375 -0.008443057 0.040076714 0.0041740835 -0.060634706 -0.037816357 -0.019420587 -0.060421545 0.0055713565 0.045669477 -0.013914002 0.06817665 0.006957732 -0.026794637 -0.05784074 -0.058605857 0.097359344 -0.03622855 -0.010667476 0.029353404 0.033150345 -0.057431627 -0.07545748 -0.052836787 0.017355645 0.00016082701 0.09149122 0.049768794 -0.059164345 -0.030559666 0.008744726 -0.057941437 0.07000843 0.019921571 -0.062061574 0.0016415281 -0.021957655 0.08039609 -0.057311933 -0.043579202 0.023211885 0.04060035 0.021700049 -0.05399029 -0.015518563 -0.08251749 0.039179917 -0.032104604 -0.07484208 -0.009407486 -0.012455002
343 -0.06766308 -0.00012924429 0.0390415 -0.039576005 -0.015629927 0.099832796 0.057511818 0.014181242 -0.021915646 -0.05348275 -0.1040916 0.10115031 -0.043183714 -0.046363533 -0.10542234 -0.04499119 0.021820964 0.03492036 -0.03021901 -0.048361562 -0.038204834 0.007085321 0.06208473 -0.06769577 0.09268561 0.09037353 0.039249204 -0.01677504 0.06877226 -0.023816347 0.025623593 0.070915915 -0.057314016 -0.038883116 0.079190634 -0.068061456 0.057863835 0.058611944 0.009210708 0.006187191 0.10231287 -0.054052602 -0.019071607 -0.0015721321 0.06909732 0.021934496 0.0025891298 0.07365973 -0.028290205 -0.031042319 -0.015361531 -0.038475964 -0.0042624893 -0.037256487 -0.03867367 -0.02140266 0.025786128 -0.059194323 0.04369039 0.026409889 -0.010240703 -0.047349006 -0.0022066026 -0.03915882 0.0693132 0.045217782 0.031738777 0.059166204 0.08842246 -0.0033136702 -0.00011446932 0.05342356 -0.03908256 0.021205194 0.020041099 0.09661598 -0.05936023 -0.009060563 0.016646659 0.046189174 0.046032224 0.02280857 0.03391283 0.08292823 -0.090153344 0.045500595 0.02342256 -0.058668163 -0.018333785 -0.059287943 -0.033119578 -0.04985656 -0.05000062 0.0072270497 -0.085078955 -0.057308815 0.086700425 0.045522932 0.015305307 -0.04051698 0.086105414 0.010167282 0.06180404 0.015879521 0.06337079 -0.0838081 -0.016965838 0.066911146 -0.0166765 0.10372233 0.051210538 0.053658526 0.08722866 -0.00021960225 0.0010788218 0.042994834 -0.016847475 0.07659728 -0.052400198 0.05231203 0.042573877 -0.03101411 -0.015222676 -0.03938223 0.09595038 0.03691677 -0.036487117 0.0585614
348 0.04108394 0.06946235 0.06400358 -0.071668595 0.031543538 0.07499729 -0.06105925 -0.0044208365 -0.02099849 0.011334758 -0.058477737 -0.013915741 0.04639205 -0.09305318 -0.09875303 -0.05018271 -0.05202522 0.014867364 0.043311086 -0.034756824 0.0056897867 -0.049430415 0.021680642 -0.09269237 -0.05447382 0.097719625 -0.08220114 -0.10051274 0.07731411 -0.03535894 -0.09572093 0.09682249 0.014520607 -0.054499462 -0.054435648 -0.1046421 -0.052068695 -0.006497679 0.036180664 -0.036501024 0.08674819 0.048040394 0.06410388 0.07320824 0.008424452 -0.055921488 0.087887496 -0.016381674 0.0035045631 -0.09852697 0.051774763 -0.039249614 0.10205595 0.02745861 -0.09699645 0.07937861 -0.05432989 -0.07218362 0.034523677 -0.06379931 0.09773161 -0.10276689 0.017732562 -0.063300155 -0.030835941 -0.07911734 0.08737721 -0.09874587 0.082542054 0.103997126 -0.05625055 -0.089848146 -0.10451373 -0.010017203 -0.013682483 0.09318921 -0.042920724 0.03126639 -0.02717664 0.039949197 -0.043889888 -0.036468502 0.060778037 -0.059014373 -0.0039198967 -0.04753746 0.022280056 -0.024034612 0.0829581 0.016097603 0.053701732 0.015784867 0.010303563 -0.042360682 0.062143303 -0.014536317 0.01103996 0.047615983 -0.040925138 -0.044698138 0.08765258 0.056363042 -0.0831596 0.0012791487 -0.04836529 -0.044617265 -0.062596716 -0.0030070478 0.040376373 0.07314353 -0.030453874 -0.038697224 -0.018682681 0.025720594 -0.060564246 -0.08597871 -0.026043871 -0.01092011 0.029627819 -0.0052064573 -0.10252453 0.039841134 -0.035300586 0.008109083 0.09294193 -0.10345876 0.019204617 -0.030354436
349 0.0257529 -0.012511883 0.013045644 -0.09469144 -0.04343195 0.007827694 -0.021401616 0.01557126 0.071569175 -0.064411305 -0.056234717 -0.052841906 -0.05679974 -0.06262784 -0.058126442 -0.033009283 -0.047682468 -0.0010678057 0.096064426 0.054104924 0.06923041 -0.04858479 0.060504213 -0.07536828 -0.030178513 -0.054604992 -0.06506 0.052554432 0.023707269 -0.09546199 0.022480961 -0.018424736 -0.054634046 0.104801394 0.019273728 -0.0360223 0.07897381 0.034174375 -0.05687368 -0.03192974 0.054296702 0.046387702 -0.016354933 0.103850804 0.0438476 -0.02646854 0.0044672713 0.033603154 -0.020477444 -0.0591603 -0.058624644 0.09999356 -0.04256841 0.028676275 -0.07376823 0.057006486 0.020003086 0.029702764 -0.008071439 0.018195134 0.040873703 -0.100892164 -0.061245903 0.045493513 0.10114695 -0.031566273 0.09757126 -0.06802076 0.08584606 0.02859439 -0.019854918 -0.08736954 -0.034866966 -0.10044897 -0.06358853 -0.020629827 -0.038321994 -0.035287388 -0.082182415 -0.050453812 0.0062926547 -0.042579364 0.0955132 0.06326927 -0.0048265643 0.04656278 -0.02420695 0.02802617 -0.033341907 0.02998737 -0.054562315 -0.04394349 0.037818827 -0.090994366 -0.06825708 0.03661364 -0.016372884 0.00266056 -0.025265973 0.02267755 0.0807529 -0.012515361 0.04235034 -0.04322533 -0.099329054 -0.009395583 0.05527202 -0.036463793 0.068526424 0.077674024 -0.041694872 0.08118038 -0.057293937 0.026333118 0.024365487 0.009313008 -0.029139228 -0.020691764 0.0608527 -0.006199458 -0.08422145 -0.046389733 0.021584233 -0.0095061585 -0.035072174 0.05233435 -0.016191095 0.076918766
129 -0.057487305 0.0058184005 0.040693864 0.059108607 0.018914646 0.077208646 0.020468945 -0.035128698 -0.059719577 0.031454824 -0.006757453 -0.0008347082 -0.042895302 -0.050499983 -0.017023634 0.044572398 0.05791468 0.07521256 -0.058678553 -0.08273364 0.10515373 0.05789949 0.09368997 -0.06592213 0.08799729 0.08551648 -0.017179573 0.05866979 -0.059459906 -0.009368418 -0.03643275 -0.037725333 0.03696797 0.01496009 -0.005306093 -0.020561598 -0.010128376 0.05898957 0.056492377 0.005776455 0.05902913 -0.03256196 0.019710325 0.053296044 -0.016214896 -0.07139744 0.09121345 -0.038406134 0.063425556 0.015669368 -0.044958252 0.05265593 0.014824539 0.010872641 0.015414566 0.009621366 -0.03869611 -0.02991928 -0.0831632 -0.095982514 0.06564205 -0.04505867 -0.10106675 0.06466784 0.015280001 0.05877696 0.033190805 0.030617937 0.040808726 0.01399863 -0.05764069 0.025257537 -0.06900354 -0.0092171375 -0.04976182 -0.014134302 -0.04381316 -0.016248055 -0.061248735 -0.060904477 -0.035745617 -0.043473072 -0.04974452 0.07760661 -0.038394485 0.0032174313 0.075729355 0.0077076554 -0.028040174 -0.01733238 -0.040704407 -0.021690534 0.011636468 -0.009099234 -0.036137104 0.023481565 0.054090474 0.0032358551 -0.022435736 -0.060904972 -0.01009903 -0.061488904 0.008864318 0.010119389 -0.011271142 -0.06722189 0.06153032 0.0933469 -0.03785618 -0.049151637 0.037797615 0.04802041 0.06586959 0.032498393 0.060196508 -0.00958492 0.0010672071 0.07343972 -0.021079078 -0.022178547 -0.090436466 -0.021426352 0.024248866 -0.06367928 -0.01571056 -0.019722652 -0.06202121 0.019932246
619 -0.061905794 0.05439847 0.07252331 -0.013424755 -0.060192496 0.06633992 -0.09484737 0.0121052945 -0.004127906 0.051969755 -0.0028099893 -0.050515793 0.0058831647 0.01233761 0.052500688 -0.07270001 0.03353609 0.021486588 -0.037871297 -0.055681907 0.007404626 -0.0021266567 0.025907498 -0.06778258 0.068773806 0.09813082 -0.062220894 -0.044502623 -0.023679003 -0.010945311 -0.020571616 0.006903069 -0.101634994 0.09477812 -0.010087161 -0.039312474 -0.01207172 0.038454242 0.05071932 0.09890983 -0.005202921 0.049898893 -0.0035594734 -0.043949656 0.035510033 0.019706689 0.027464364 0.0010644785 -0.043571085 -0.062077757 -0.008106261 0.036973543 0.100095145 -0.06863795 -0.017925717 0.10332902 -0.057379074 -0.013079109 -0.100533605 -0.09570392 0.055064492 -0.05064735 -0.0031426868 -0.019176131 0.08134606 -0.018748166 -0.020054486 0.039557185 0.05113596 0.098784834 0.003628776 -0.09520659 0.001920476 -0.042704783 -0.027894545 -0.05930045 -0.06757854 0.072843075 0.0272291 0.015177907 -0.074200936 0.016090294 0.021687623 0.0085313395 -0.03706907 -0.08542492 0.008844303 0.020849854 -7.7797566e-05 -0.040670916 0.0810097 0.09289847 -0.09818811 -0.05652501 -0.08575065 -0.09913644 0.09500629 0.053061314 -0.05108038 -0.04936347 0.022744589 0.018806327 -0.08588006 0.0061162454 0.027478369 0.00871606 0.07442392 0.10450138 -0.054229118 0.02761709 -0.00897953 -0.005414775 0.10243363 -0.10230569 0.018869396 -0.07457036 -0.08254167 -0.006695013 -0.046893533 -0.05165147 0.026941424 -0.035771433 -0.033364765 0.0063516265 0.04959812 -0.09918366 0.019572334 0.06490692
298 -0.01747105 0.005131346 -0.012424227 0.0103607625 0.055281676 -0.019154996 0.06317469 0.030826967 0.08872661 -0.10074529 0.04192733 -0.021033354 -0.026605045 -0.030889109 0.053760074 -0.091059655 0.034610584 0.091983415 0.08404566 -0.019453267 0.03541338 0.059139214 -0.05444362 0.033729684 -0.03084142 -0.059130594 -0.08953415 -0.02170531 0.029945679 -0.0662614 -0.06300642 0.0611836 -0.0048553674 0.004474712 0.028516069 0.038607113 0.08250728 -0.09156532 -0.011761781 0.065067336 -0.06385818 -0.06234969 -0.04634688 0.042631432 0.014309422 0.031101543 0.08652804 0.08147017 0.08510953 0.052755922 -0.01994535 -0.051251117 -0.00917995 -0.024654562 0.037239578 0.10530687 -0.08170319 0.038461793 -0.10418117 -0.101814255 0.01484533 -0.0728124 -0.087825224 0.09537053 0.09671744 -0.063638926 0.09699332 -0.043071795 -0.007276793 0.05442323 0.03085633 -0.04301491 -0.10071038 -0.044413637 -0.032336283 0.07188469 -0.02106764 0.031148935 -0.032768037 0.0035185965 -0.032408506 -0.076261565 0.093569 0.027996495 0.025585916 -0.0167014 0.06274122 0.05011772 0.09232477 0.0011736046 -0.024010073 0.027491713 -0.09875787 -0.008441324 -0.03636289 0.019606883 -0.012300256 0.10203942 0.029600907 -0.06664986 0.06692809 0.048486266 0.024659082 0.017926358 0.042426754 0.004586313 0.09744197 0.016357627 0.07226088 -0.053124636 0.05377044 -0.012417925 0.05221195 -0.08127709 -0.0070627714 -0.021521192 0.059994824 0.08344673 -0.035950918 0.078591846 -0.08362732 -0.002364932 -0.09480143 0.042792983 0.010151004 0.022107132 0.013728889 0.07626224
299 -0.012089279 0.07411952 -0.03667234 -0.07313289 -0.055525392 0.049280923 -0.08562122 0.051377866 0.04980428 -0.05926434 0.003265418 -0.0263801 -0.033941552 0.032579407 -0.038426176 -0.00126729 0.03576122 0.053602364 0.08670005 -0.021171203 -0.003945775 0.051299334 0.044365205 -0.02550445 0.05685943 -0.028433053 0.023940185 -0.0029344596 -0.0424051 -0.012277964 -0.02225227 0.101486035 -0.05256963 -0.027689436 -0.005682912 -0.06804518 0.059277285 0.048150513 0.043532718 0.041417275 -0.04899552 -0.032174196 -0.00028440612 0.044344805 -0.052214928 -0.04258503 0.03897371 0.053472385 0.09274407 0.026461327 0.039866112 0.05207027 -0.036341105 -0.023043409 -0.068742335 -0.038674198 -0.009791235 0.03138472 -0.08627114 -0.05674757 -0.017795837 -0.022059843 0.002405853 -0.056399934 -0.051740874 -0.06660879 0.042302918 -0.061714776 0.048245665 0.008733924 -0.017541163 -0.054415137 -0.0030819892 -0.100629605 -0.04403819 -0.027877653 0.03213354 0.03455424 0.060394432 0.033922236 0.06295969 -0.07071917 0.10198383 -0.04653715 -0.05699087 -0.047024954 0.016705032 -0.104817 -0.032986965 -0.02637091 0.042080335 0.07329197 0.043392174 -0.026686259 0.06288715 -0.08911448 0.06295588 0.08975518 0.035893902 -0.07751219 0.06887597 0.09338628 -0.059768703 -0.035067942 -0.06331654 -0.06572967 -0.035587773 0.051034972 -0.057805054 -0.022312269 -0.072556734 0.100694776 0.095157675 -0.02081593 0.0054405103 0.01656217 -0.09965288 0.05761643 0.04955172 0.039273504 -0.09216081 -0.0013136611 -0.05604988 0.0055237105 0.09240741 -0.012248183 -0.04344843 -0.038415607
296 -0.05099752 -0.027795104 -0.033706643 -0.02701733 -0.06592294 -0.025967086 -0.038085118 -0.021563012 0.03073211 0.056265738 -0.033020042 0.057061635 0.045222037 -0.10251256 -0.08051424 -0.02030694 0.004026896 0.045703903 0.0028896998 -0.067476675 -0.060400803 0.061151866 0.080686904 -0.087950885 -0.056261707 0.085086614 0.061293207 -0.015492922 -0.030485837 -0.04916864 0.04477874 -0.042981654 -0.06090156 -0.061601873 0.009597929 0.021136587 0.057403177 0.059346516 0.030067572 0.057552416 -0.01659301 0.007860643 -0.056000937 0.052771416 -0.034232195 -0.012136553 0.050561897 0.06223696 -0.029613217 -0.06396793 -0.06124206 0.06629159 0.014244767 0.06299294 -0.07282383 0.030627724 -0.012507508 0.0032056598 -0.081163 0.007618296 -0.018744545 -0.05033462 0.038409714 0.009413775 -0.04869136 -0.082198136 -0.0054558036 -0.036780052 0.009066764 -0.012533587 -0.046368178 -0.035222013 -0.014336752 -0.0013953124 0.019865701 0.08989666 -0.010082719 0.104446344 -0.07440374 -0.0018417722 0.015663859 -0.06322937 0.018859902 -0.012895618 0.027531054 -0.095233046 0.05469459 -0.007923145 -0.040253837 0.00025018223 -0.018106934 -0.016810346 -0.044837374 0.00083229924 -0.07198122 -0.06471109 -0.06373918 0.08721754 0.07296086 -0.020204097 -0.029703472 0.025159437 0.033128053 -0.03172162 -0.08168786 -0.00042524037 -0.008269799 0.033627488 0.043687392 0.059704512 0.011604723 -0.05036912 0.06929813 0.05436542 -0.037321605 -0.069924526 -0.057775974 -0.05818861 0.050895702 -0.0051180106 -0.102015175 -0.015470725 0.034111634 -0.082730584 0.08947014 0.06192109 -0.09442232 0.09872204
297 -0.0045679384 -0.023601767 0.083488286 0.05182203 -0.048757307 0.06451291 -0.07162422 0.0627749 0.023084214 0.05303995 -0.080067135 -0.049548883 -0.03591424 -0.025880218 -0.015950102 -0.012529217 0.074142456 -0.03728049 -0.0019846512 0.023530511 0.047082372 0.02374363 0.03285794 -0.072478116 0.008970923 -0.007291041 -0.043315213 -0.08720625 0.089625634 -0.059400864 -0.009982699 -0.0038198861 -0.0046738284 -0.0036602174 0.059712145 -0.04110866 0.070048556 -0.068587996 0.006035459 -0.011391731 0.022472413 -0.00997724 -0.0038950008 0.021217573 0.0053243474 -0.009730417 -0.03987577 0.036189392 -0.06094958 -0.03340344 -0.09919701 -0.057189178 0.032730132 0.020362295 -0.081366695 -0.040247608 -0.0102210045 -0.09584379 -0.018547239 -0.015680514 0.007219263 0.035737976 -0.0063053346 0.004078054 -0.023492763 0.034604635 0.06775811 -0.09000983 0.096881926 0.073720135 -0.06370558 0.03562241 -0.05733322 -0.10220572 0.0444428 0.07460389 0.033103794 0.0589825 -0.09187645 0.0390003 -0.06375738 -0.0040894337 -0.02374476 -0.050583255 0.011567556 -0.027107438 -0.003934279 -0.071804956 0.03938383 0.06342019 -0.067130096 0.065085836 -0.007711155 0.05919363 -0.03963939 -0.024027562 0.04569089 0.04462698 -0.013560982 0.0022960426 0.017389843 0.0032047334 0.049636632 -0.028671246 -0.0031040064 -0.04069788 0.0006388577 0.06850243 -0.006412938 0.03953868 0.02079522 0.059631318 0.08437322 -0.0072607035 0.01805325 -0.043707374 -0.005105047 -0.021444015 0.01871853 0.08075669 -0.023315087 0.07260977 0.03480889 -0.091178335 -0.054153398 0.053476963 0.037605103 0.021635016
294 -0.053807393 0.011119639 0.027101975 -0.0028164657 0.06075717 0.08674771 -0.079722725 0.05726525 0.09188128 -0.068953656 0.0463883 0.026729828 0.027864324 -0.035937402 0.024632609 -0.07993985 -0.042197384 -0.031137062 0.061431978 -0.024313692 0.08265151 0.04374304 -0.0067618117 0.04471787 0.08385973 0.017887391 0.008804638 0.062004223 0.06343009 0.029232604 -0.029175324 0.08619214 -0.06421467 0.0048631737 0.008877821 -0.000923796 0.09953993 -0.08816996 0.048467096 0.05266161 0.10289153 0.02597118 0.083225116 -0.048425734 0.055025894 0.002264056 0.047433913 0.038548592 0.046592154 -0.037374895 -0.090242654 0.026642252 0.06382716 -0.024633307 -0.07702688 -0.055493057 0.018010804 0.037148934 -0.027983818 -0.076740324 0.019967683 -0.021199616 -0.065564506 0.056936566 0.0062718745 0.012558259 0.011606235 -0.03349048 0.0838599 -0.030488376 0.03878351 -0.062586166 0.03625617 0.0073242877 -0.030350048 0.020137787 0.031801417 0.014429296 0.053056028 -0.041431986 0.0064690816 0.029266577 0.0057993857 -0.03245065 0.0419214 -0.0144354515 -0.0036115844 -0.071314886 0.048514146 -0.0041804076 -0.10042898 0.009020579 -0.010802948 -0.0015023521 -0.035716508 0.05834154 0.013241453 0.023266293 0.03774516 -0.059694953 -0.01641136 0.041548528 0.011376612 0.047552083 0.035403915 -0.028336002 0.045201346 0.056545414 -0.023104383 0.023264179 -0.044685587 0.09117759 0.07992806 -0.079601616 -0.036948834 -0.046665322 -0.07709572 0.10434332 -0.008222055 0.03944875 -0.05960862 -0.03673636 -0.044342358 0.010262631 -0.056558415 0.03898544 0.05392486 -0.014159574
295 -0.04246545 0.050416876 0.04577088 -0.057339743 0.045794014 0.01983916 0.0033164877 -0.0029980352 -0.021490598 -0.07666523 0.0110653825 0.011427278 -0.040275853 -0.057241734 -0.08330608 -0.014898897 0.022465076 0.03931653 0.02863649 -0.065522425 0.103856854 -0.03544322 0.10323861 0.05502396 -0.008617902 0.054013517 0.004869976 -0.09871876 -0.0070433966 0.03295068 0.010960791 -0.041234322 -0.08872418 0.0430664 0.06482905 -0.023507247 0.060293194 -0.05984325 0.03303517 0.043375123 0.066191666 0.035049018 -0.022153892 0.03585989 -0.028104573 0.05420341 0.063082084 -0.042671982 0.033453606 0.04407553 -0.102174245 0.098556146 -0.040336438 0.049820207 0.017585147 0.08009202 0.031298373 -0.08961892 -0.0956787 -0.06596336 0.0973133 0.059184935 0.015873596 -0.030495545 -0.027533807 -0.04620462 0.08305906 0.025040707 -0.013690758 0.078812264 -0.091726676 0.024362708 -0.054268066 0.060845807 -0.06225412 0.008811204 0.006607418 -0.048818022 0.06268427 -0.023794288 0.013661425 0.0044416515 -0.011837637 0.105231136 0.037640586 -0.07717315 0.011223402 0.05214653 0.050964374 0.099484265 -0.07546632 -0.01941529 -0.05742061 -0.041559253 0.015199805 -0.066082336 -0.063184686 0.075630374 -0.01825273 -0.063888066 0.0938895 0.10282433 0.018394018 -0.025940156 -0.008023249 -0.00122058 0.025122046 0.04903716 -0.013102585 0.06805284 0.056462012 -0.014228658 0.055346664 0.040295172 -0.019981489 -0.05066809 0.058096066 0.012867864 0.10112886 -0.033170693 -0.019973494 -0.014241667 0.0048559946 0.005401831 0.05390426 0.029706422 0.02613544 0.04932149
292 0.03523648 0.029184164 0.040253248 -0.03056605 -0.09035907 0.062980674 0.056474946 0.0069242734 0.09246007 -0.0312402 0.035543326 -0.011850271 -0.058000743 -0.101829454 -0.036157835 -0.0035574783 -0.032949947 0.013907379 0.09958048 -0.08455871 0.045750875 0.05215643 -0.0011939879 0.0170386 -0.05288921 -0.022817105 -0.03381608 0.06035559 -9.875407e-05 0.03857494 -0.019368805 -0.0034997496 -0.10178594 -0.0397768 0.04654274 0.05508459 0.053726546 -0.093105406 -0.05970349 0.06486331 -0.023126885 -0.01161899 0.0154029485 -0.023296913 0.0327887 0.016393933 0.014907818 -0.0073443633 0.088306405 -0.09102504 0.041376863 -0.0051180976 -0.004039477 0.06286659 -0.062015075 0.043809965 -0.08722421 -0.030594077 0.019978657 -0.013562681 0.096316144 -0.08561359 0.009833627 -0.01629572 0.040646967 0.030521234 -0.018263426 -0.05977842 0.09629557 0.026250038 -0.014869294 0.02769344 -0.029843142 0.05658392 -0.08324667 -0.017245265 -0.07312846 0.02945654 0.05843 -0.030566024 0.03441368 -0.070669085 -0.020099021 -0.062234085 0.03712379 0.038603507 -0.0040712385 -0.07571641 0.055279363 0.04640494 -0.042257346 0.008466335 -0.02653881 0.049722802 -0.032038793 0.037649013 0.03149792 -0.030011244 -0.011655481 -0.08706492 -0.017853726 -0.014344631 0.012132265 -0.04636461 -0.057725396 -0.040458895 -0.03690229 0.05003146 0.0711421 0.06132924 -0.09002215 0.02989767 0.058839973 0.008225421 -0.0331924 -0.03249742 0.032657813 -0.008550768 0.09678898 0.04379125 -0.095173426 -0.059492663 0.058562305 0.039534934 0.021094508 -0.008502554 0.0024139006 0.06741546
293 -0.014174354 0.08401551 -0.019729381 -0.008860393 -0.04996311 -0.048590086 -0.07378155 0.07761411 0.06557702 -0.09498784 -0.025680574 0.06542587 -0.07587819 -0.05729192 -0.03865265 -0.036493413 -0.015571281 0.03290139 0.06366741 -0.051940866 0.075797796 -0.057036236 0.0038375836 -0.043240897 0.021259218 0.06779276 -0.023337169 0.023295784 0.0036062342 -0.059690557 -0.0512449 -0.005718396 0.05675016 0.008609131 0.013210483 0.0041284384 0.042993996 -0.053268366 -0.04929334 0.08897678 -0.040939696 0.0037673474 0.06707985 0.025970718 -0.02645737 0.03626618 0.08850811 -0.011737745 0.098076105 -0.07070676 -0.097867005 -0.05858109 0.09398405 0.04667664 0.013352565 -0.057103988 0.032916807 -0.009884622 -0.09014712 0.018607926 -0.020993492 0.043706946 0.023976706 0.05379289 -0.03353582 0.0039958586 -0.058260396 0.022011546 0.04026601 -0.026109044 -0.055158384 -0.06702535 -0.036890775 -0.01686739 0.04794276 0.03921683 0.01942814 -0.019004704 0.04620099 -0.04874151 0.050630588 0.005700542 0.06881881 0.0038309554 -0.04749183 -0.09122051 -0.046963237 0.041108444 0.009984591 -0.014645357 0.026225843 -0.029281436 -0.076219246 0.022165889 -0.011331497 -0.00675567 -0.03484629 0.059912026 -0.06176088 -0.053225715 0.013092843 0.0055556158 -0.079686046 -0.061069958 -0.024710603 0.008671118 0.04014253 0.05009931 0.022464884 0.07764144 -0.067603014 0.084014125 -0.0028585414 0.018952586 0.0333663 -0.08156053 -0.0882504 0.0735054 0.0141889425 0.074043706 0.021497827 0.103796646 -0.015980482 -0.06556647 0.08271557 0.03148872 -0.10312293 -0.028633302
290 0.0146769695 0.028673653 -0.05133768 -0.0690297 0.013803646 -0.032212958 -0.07913863 -0.006937068 -0.048241526 -0.046727728 0.018307347 0.0052700853 -0.081213064 -0.007272535 0.0089159915 0.042610776 0.03841713 -0.038365334 -0.029037273 -0.03318156 -0.038506083 -0.08407795 0.081506506 -0.09042176 0.038141686 0.0046787574 -0.012159459 0.01696864 -0.038320154 -0.07360211 -0.037740108 0.04860443 0.028698308 0.002966472 0.036128476 -0.073076464 -0.023777945 -0.028336123 -0.020872064 -0.0014970222 0.015614764 0.07197672 0.08222508 -0.03940524 0.080057755 -0.03134441 -0.028563509 -0.053590283 0.024382044 -0.06008743 0.025815705 0.064568736 -0.00085300405 0.00012794218 -0.0025853668 0.009053357 -0.029031402 0.06358755 0.0066545457 0.027724508 -0.035721194 -0.07793611 -0.015603282 -0.06264391 0.011847282 -0.03545111 0.09347702 -0.021660307 0.07189547 -0.029737318 -0.0517582 -0.073755845 -0.04335939 -0.079622015 -0.00088210416 0.044964243 -0.05294861 -0.052498177 -0.0012695682 -0.018741766 -0.017753657 -0.011920673 0.0018003995 0.08144859 0.012486195 -0.08805713 0.05420255 -0.08059091 0.0028660027 -0.047184117 0.04361523 -0.039537586 -0.03987721 0.037143186 0.05532029 -0.041867554 -0.00074202754 0.08177681 0.0970307 -0.060063142 0.00092989067 -0.0625123 0.043394897 -0.05884077 -0.016980771 0.036176007 -0.052934926 -0.047690913 -0.043349292 0.05861188 -0.020526122 0.001047452 0.048174486 -0.009608836 -0.0565686 -0.05795779 -0.083755806 0.024065126 -0.0027344106 -0.0011605086 0.0064870785 -0.063224785 0.038691364 0.0067685326 -0.014068248 0.055117313 -0.05285167 0.1040119
291 -0.068483286 -0.05756498 -0.04272098 0.012259701 -0.09587916 0.073451124 0.022722254 -0.060204577 -0.03913253 0.015951242 0.04855714 -0.043235134 -0.067258425 -0.014753431 -0.048514377 0.073651075 0.08881358 -0.031757798 0.054727074 -0.074998915 -0.025460098 -0.06672996 -0.028776186 -0.06192814 -0.021429196 0.017948827 -0.050689768 -0.040388547 -0.05860978 0.0030464688 0.03855737 0.030939925 -0.053785115 0.044196416 -0.03972837 0.013221987 0.028743269 -0.072208755 0.023630584 0.09269494 0.035837747 0.060831606 0.067424715 -0.007847076 0.027586587 -0.07451327 -0.039523393 0.018432379 0.010998485 0.07881614 -0.049428243 0.0780217 -0.020018926 0.048298802 0.018456193 0.005547331 0.034786105 -0.012720666 0.044023387 0.011653617 0.006647642 -0.07998363 -0.05689381 0.0019511752 0.065462746 0.011767707 0.068827376 -0.09585406 0.0483795 -0.015683042 0.030101575 -0.027433533 -0.10497875 0.011111018 0.002682596 -0.0005771121 0.020917986 0.014650803 0.06214423 -0.065370806 0.011520215 0.051230103 0.09817088 -0.055151943 -0.0006164714 -0.10271681 0.03612463 0.014791647 0.020222457 0.10239579 -0.010058512 0.08428878 0.009692554 0.09604505 0.045794584 0.023538543 0.06693493 0.0030505941 0.0024872706 0.024074487 0.030463642 0.015913282 -0.081287034 -0.06067317 -0.031428188 -0.06393144 0.08579503 0.053241286 -0.010995496 -0.038710807 -0.10095101 -0.05765072 -0.0066011907 -0.043146897 0.09070907 -0.042908825 -0.031619277 0.03710578 0.04281879 0.030192833 -0.042312346 -0.018105447 0.048004765 0.046513025 0.09120089 -0.09972249 -0.10175934 -0.015094051
591 0.0122918645 0.08904941 -0.035301417 0.06073334 -0.075449556 0.047066063 0.055093877 0.0329843 0.053911567 0.042764354 -0.059387937 0.077962905 -0.010454552 0.02180096 -0.00018952927 -0.05931299 0.021620378 0.0006215945 0.004807489 0.02649017 0.057718303 -0.041709084 0.024757843 -0.0051711258 0.071555674 -0.04948889 0.04614345 0.026733316 0.031826563 -0.022309894 -0.046710037 0.032532346 -0.049042497 -0.016837167 -0.044385564 -0.06429431 -0.02114704 0.0038642762 0.028854752 0.041247245 -0.0039859917 0.066882245 -0.006373471 0.09496095 0.09221427 -0.052138094 0.020114053 0.06725348 0.0942032 0.08677374 0.01948315 0.028964747 0.08633322 0.0813779 -0.043310564 0.09626408 0.019244732 0.05168432 -0.0672615 0.045210127 0.09343502 0.041358184 -0.013057549 -0.021714682 0.06194193 0.062775254 0.03905681 -0.05540399 0.033601005 0.047078583 0.042227667 -0.052929178 -0.09038726 0.037472043 -0.039084323 -0.0035729161 0.059342142 0.054085303 -0.07868494 0.016880693 0.028981484 0.0629633 0.00437739 0.08392027 0.029191654 0.017596152 0.017655864 -0.0875118 0.08799676 -0.028789995 0.017354187 0.015892247 0.063125126 0.072773054 -0.012271425 0.0076920604 -0.048644684 0.057322297 -0.018329352 -0.033562638 0.06965554 0.023587223 -0.04337871 0.056280285 0.03183374 -0.09916586 0.08843829 0.004009418 -0.0011187441 0.015159714 -0.023618305 0.0026788362 0.024205728 0.026225045 0.045703042 0.043217458 0.037923902 0.031712472 -0.015830755 -0.028692871 -0.0061539384 0.03695745 0.049264412 -0.037913684 -0.05546656 -0.10048875 -0.10331107 -0.048891537
590 -0.019147923 0.0021654984 -0.008013173 -0.014570709 0.040624868 0.009883786 0.04417338 -0.025578862 -0.057412695 0.024636183 -0.06113333 0.09148459 -0.067149766 0.007897747 -0.07350915 0.078892484 0.060010333 0.010239954 0.025471123 -0.083223276 0.052732762 -0.047529876 0.043440245 -0.07788351 0.040811077 -0.013844061 0.09342224 -0.017878879 -0.022756329 0.09203426 -0.022129038 0.05753405 0.029759033 -0.055580027 -0.014489941 -0.09462135 0.00029821333 -0.038642906 0.05079762 0.057890575 -0.022568494 0.030256175 0.03150074 0.04732268 0.0012715787 -0.030058913 0.066845916 0.07120495 -0.018371278 -0.025600277 -0.013786451 0.006975414 0.069633454 -0.104341425 0.012896531 -0.013607477 0.040921014 -0.008857108 -0.08776714 -0.030961664 0.048101325 -0.01069718 -0.0708768 0.0057134577 0.028391175 -0.06140149 -0.040670425 -0.06627228 0.048536785 0.033741158 0.040477388 0.006180637 0.06753417 -0.018725844 0.08456655 0.0511014 -0.000111804984 0.009188523 0.05942627 -0.026002666 0.036052898 -0.101433486 0.0531255 -0.0005185394 -0.06670858 -0.032488458 0.037093744 0.023220748 0.05324859 0.08909904 -0.0043901717 -0.031905387 -0.017874757 -0.04782728 -0.08790803 0.06302948 -0.06287185 0.088061534 -0.0411819 -0.0151021285 0.05469601 0.07158392 -0.035470627 -0.043383684 0.0230351 0.006496237 0.04146018 -0.011936365 0.029782197 0.032124896 -0.025120506 0.05919437 0.038855862 -0.08029075 0.038379952 -0.026744355 0.022276856 0.10204317 0.009434988 0.054238558 -0.090427265 -0.054009825 0.005493583 0.0029641734 0.08987097 0.0085929325 -0.05882089 0.08880545
593 -0.035708837 -0.0342931 -0.028775498 -0.03364383 -0.008011915 -0.06261427 -0.09458247 -0.03499723 -0.057232134 0.033411197 -0.07431392 -0.059246693 -0.048735593 0.015849886 0.06307139 0.06098867 0.10314409 -0.05938697 0.061379842 0.00866448 -0.027714616 0.0064464086 0.07463054 -0.07823965 0.060544886 0.08027109 -0.023804395 0.031084053 -0.0465597 0.022244787 -0.038755752 0.004667859 -0.054275762 0.0018875756 -0.026492693 -0.1033145 -0.033739798 0.030130101 -0.05040838 0.04625851 -0.039544918 0.08302118 0.04201401 -0.009376313 0.044734586 0.0045035444 0.041680623 -0.0012676213 0.054191902 0.06854869 0.009075352 0.024180938 0.03986279 -0.03989159 0.020486653 0.08168492 0.0071311016 -0.028626634 -0.032343023 -0.015487598 -0.056656975 -0.0097119305 -0.060500924 0.0050899796 -0.050551247 -0.10364215 -0.02059672 -0.0096685765 -0.031605985 0.081271164 0.029376036 0.035485033 -0.07831014 -0.05280697 0.06145646 -0.010183545 -0.06777625 0.095406055 -0.06491802 -0.04506064 -0.04637566 0.053421292 -0.04724298 0.07702334 -0.023690872 -0.07943842 0.016627926 0.036446374 -0.0332489 -0.04849583 -0.05647708 0.08390026 -0.02770577 0.058761705 0.03889766 0.017931527 -0.021366198 0.053010438 0.061189476 0.025849544 -0.048358127 -0.02611779 0.06407902 -0.055122606 -0.08602758 -0.07090519 -0.027382633 0.0061239037 0.05151876 0.07225843 -0.019625537 0.005512966 0.025394268 -0.050393417 0.02698205 -0.06595551 0.007492589 0.039187923 -0.031799007 0.040947597 -0.07755725 -0.04691488 -0.019800294 0.031130036 -0.00042481453 0.012390405 0.011037481 0.09304911
592 0.012553483 0.07082615 -0.013618705 -0.062432602 0.050906695 0.0781463 0.034771457 0.08526591 0.0680182 -0.032109477 -0.008135228 0.058776 0.04619358 -0.045028634 -0.039608587 0.050221737 -0.033042077 -0.033561055 0.013616769 -0.066591345 0.002874916 -0.0190518 -0.048296757 0.04474181 -0.035474416 0.07783296 -0.075449936 0.047142915 0.008531169 -0.05921871 -0.09034539 0.049669076 0.03328896 0.04941461 0.078003995 -0.062792294 0.07866299 -0.08623292 0.09933493 0.049778894 0.04599125 0.039289415 -0.05377717 0.057693366 0.0022526379 -0.014826847 -0.017121503 0.061966047 0.05096882 0.070525534 -0.019489987 -0.0143752005 -0.060043022 -0.037501693 -0.015048809 0.09208701 -0.05824527 -0.0940469 -0.025699982 -0.030956239 -0.0010473297 -0.06273619 -0.089865774 0.07770358 -0.027612533 0.026417749 0.017403638 0.054529145 0.08019449 0.039394606 0.01010685 -0.028888488 -0.00662974 0.02560251 -0.019947372 -0.023451295 -0.018518584 -0.030407602 0.044309694 -0.058599386 -0.09372506 -0.05043436 -0.019610552 0.052021407 -0.023217646 0.04924538 0.041427333 0.031186825 0.08386056 0.07404724 0.03577139 0.05696922 0.04203792 0.078232095 0.026745936 -0.012505807 -0.042287756 0.05419242 0.08295762 0.056677945 -0.041914783 -0.034594018 0.05840305 0.09827485 -0.046760097 -0.042776313 0.050088543 0.073410474 -0.016348906 0.009260229 -0.08514659 0.0011572337 0.05361627 -0.072033666 0.011701154 -0.05572778 -0.03992487 -0.048167653 0.057551734 0.073128805 0.007573569 0.029664163 0.017135253 -0.049354967 0.008805856 -0.056145273 0.055966176 0.020550802
595 -0.03924762 0.064925164 0.06775411 -0.05740536 -0.062938996 -0.0023216903 -0.067972526 0.08704861 0.044150766 0.029723922 -0.035833314 0.07576393 -0.00067787885 -0.0018111647 -0.048350208 -0.046674207 0.015066057 0.016720193 -0.011149343 -0.023744386 -0.0061992095 -0.06907198 -0.030865293 -0.062627256 0.021580718 0.016131226 0.013085983 -0.056119192 0.07678984 -0.0038540652 -0.09595996 0.075600125 0.053396422 -0.05223859 0.027882138 0.052776344 -0.03440063 -0.07310904 -0.042898145 -0.044760697 0.017407408 0.004472882 0.08984558 0.047009204 0.0034271958 0.057842225 0.08731624 -0.05070298 0.024688996 -0.04855942 -0.10048313 0.056787692 -0.0576614 -0.051182713 -0.042412788 0.017922668 0.03602546 -0.007182886 -0.07294726 -0.06302259 -0.009033848 -0.071293876 -0.10456017 0.0141070485 0.07619353 -0.093106434 0.061069913 -0.020557206 0.07155523 0.0135664 -0.080770686 0.025151834 -0.06908833 -0.0915899 -0.045674898 0.0123327365 -0.028636448 0.09921324 -0.058978066 -0.020078594 0.031093001 0.031559486 -0.06117584 0.06424219 -0.071638726 -0.049083516 0.0073633874 0.038390264 -0.027056813 0.052613243 -0.050466783 0.09023006 0.013221745 0.034189712 0.043217115 -0.052318502 -0.052628998 0.0418296 0.058851983 -0.02882326 0.09041546 0.019900417 -0.06057283 0.06687887 -0.048304897 -0.041955642 0.09063113 -0.051566757 -0.03234576 -0.003929013 0.053440265 -0.061139368 0.06125856 0.024076423 -0.05001131 -0.089000754 -0.011318195 0.0112547735 0.037475526 -0.02121707 0.038951173 0.019755159 -0.088075064 -0.09566495 0.06615389 -0.07079203 -0.0569886 0.017606283
594 -0.075317584 -0.019310884 0.07475547 0.013768297 0.028797679 -0.04076729 -0.104825795 0.059540942 -0.015035361 -0.03391097 -0.01744367 0.017837876 0.020296797 -0.029959895 -0.051253174 -0.006753913 0.060107633 -0.034172412 0.07759745 0.02704769 0.080145076 -0.02367865 0.08211388 -0.09691531 -0.0012215177 0.014566233 0.048968058 -0.08200139 -0.003088713 -0.039146643 -0.07577707 0.06331032 0.027202234 0.07015321 0.01860009 -0.021583041 0.09823171 -0.047876388 0.09212101 0.06168334 -0.0010434639 0.07610246 -0.061777055 0.04874014 0.073184796 -0.04462872 -0.024934692 0.0148499 -0.019030437 -0.047415882 -0.042265765 0.057601247 0.105030976 0.010500185 0.0038589027 0.04361121 -0.06306386 -0.048621025 -0.06692236 -0.0893782 -0.037375376 -0.022830866 -0.03755489 -0.028308349 -0.033122644 -0.0572703 0.10401683 -0.0878608 0.042470176 0.04842491 -0.031444337 0.05254124 0.055635884 0.020382512 0.0057890797 -0.046976484 -0.05410685 -0.016118515 -0.035711914 0.0024206918 0.028338207 -0.004017416 0.07277826 -0.05358298 0.052310932 0.020472448 0.057791658 0.014264363 0.08448593 0.092368826 0.05791016 0.03539707 -0.052936375 -0.0073319552 -0.018365053 0.041640513 0.047096394 0.084305875 0.09110529 0.009634069 0.043227307 0.02651524 -0.024471398 0.048752703 -0.0121313 0.04349626 0.06885834 -0.023255926 0.08193757 0.066045485 -0.0009189226 0.022769064 0.07411016 -0.013123125 0.0027095925 0.026953386 -0.045226913 0.025201635 -0.049493812 -0.026086073 0.018440748 0.030354312 0.00058641634 0.019447861 -0.031261764 0.0367242 0.061460063 0.07761066
597 -0.061812565 0.054029133 -0.002888353 -0.043353457 0.01656438 0.06764528 -0.0035933368 -0.056354914 0.0024230103 -0.039932515 -0.043509927 0.020287177 -0.078507744 -0.041802224 -0.041269053 -0.00621434 -0.007841571 -0.02313625 -0.024529282 -0.050941773 -0.035873562 -0.09165422 0.09160374 0.0044778627 0.08397993 0.05061896 -0.079662025 0.025085174 0.0040154075 -0.07172906 0.021540249 0.04422664 0.045755617 0.087182485 0.0018808917 -0.027119862 -0.05495966 -0.007973671 0.037879776 0.08793229 0.017389558 0.10021688 -0.009450692 0.03171956 0.011109521 -0.10505153 -0.049919475 0.05294035 0.03333725 -0.057538856 -0.026021319 0.05282183 0.022298949 -0.01841613 -0.06395748 0.07446687 0.05005343 -0.040161014 0.04640473 0.013225898 -0.017572083 0.02175535 -0.101765186 1.9435189e-05 0.034667037 0.037357092 0.049697496 0.011857027 0.018589389 -0.0037303925 -0.043834027 -0.06805727 -0.10173846 0.015378531 -0.042229116 0.050263993 -0.04616073 0.078391105 0.020499222 0.03183953 -0.0570099 -0.0033210237 -0.051212493 0.028468052 0.0018584804 0.011798957 -0.060011286 0.017636424 0.062463466 0.031672172 -0.00892246 0.06390067 -0.059413206 0.020106137 -0.021296794 -0.07851799 -0.04537173 0.027807802 -0.01107845 -0.07126038 0.035172436 0.032553546 0.014120447 -0.006387445 0.04824692 0.031612005 0.046710193 -0.055472385 0.09526443 0.09713625 0.061009064 0.058733597 -0.0066109276 -0.04843907 -0.01965799 -0.097053535 0.021341028 0.079824254 0.0622491 0.00751815 -0.042923283 0.024382055 -0.059778396 -0.064145416 -0.008389029 -0.05568669 -0.036228072 0.022977158
596 -0.019335229 0.071796104 -0.034818787 -0.1006775 -0.04885615 -0.054193854 -0.016659465 0.060695127 -0.0525284 -0.013040867 0.008348965 0.061007157 -0.07723129 -0.051054418 0.022019418 0.0126124965 0.07897015 0.048878837 -0.059006166 -0.042744923 -0.04991229 0.0109537225 -0.039197944 -0.03835604 0.03191865 -0.05351097 0.04794765 -0.08527315 0.028777534 -0.056559324 -0.05775694 0.0033575264 -0.017195785 -0.034626365 0.02753111 -0.07103628 0.047733404 0.054914214 0.06088517 -0.007032671 0.034032352 -0.011491813 0.09566602 0.026813818 -0.014085218 -0.0151192285 0.068422765 0.081421494 -0.04696501 0.017326351 0.040810544 0.09763626 0.08223022 -0.074317396 0.0033094012 -0.031993024 -0.004701445 0.031122398 -0.086325586 -0.03656035 -0.014627321 0.022959068 -0.08208726 0.055985488 0.00795513 -0.010453563 -0.0007245572 -0.048211712 0.08670681 -0.04830383 -0.06068197 0.03870715 -0.037750293 -0.09403859 -0.07872753 -0.057388548 -0.08903163 -0.009342652 -0.07255109 -0.06302663 0.060858775 -0.075373314 0.005483313 -0.019202959 -0.059795648 0.019796498 -0.03114205 -0.10423124 -0.059999477 0.03248421 -0.031639896 -0.017962053 0.029111605 -0.026235523 -0.003124829 -0.0015325816 0.07343475 -0.025466101 0.022510046 0.053876553 -0.013428367 0.016703196 -0.059126 0.030505544 0.021162564 0.04442368 0.05998434 0.0081597185 -0.045267846 0.030180285 -0.0182139 0.034230538 0.026258431 0.032411695 -0.002986972 -0.09081738 0.024472196 0.013334911 0.05279135 -0.0027679298 -0.084252596 0.0919941 0.03394905 0.04909782 0.01194332 -0.049033485 0.012154455 -0.044490077
195 0.01566397 0.08098805 0.05417211 -0.097870305 0.035328697 -0.04685943 0.021822754 -0.039355934 -0.0074001485 0.038461473 0.056890324 -0.04539367 -0.04202338 -0.04021989 0.015865281 -0.046280053 -0.055612106 0.04628249 -0.029633893 -0.037771996 -0.04891695 -0.04504888 -0.04178482 -0.07179958 0.07708315 -0.0039617904 0.062463276 -0.03697388 -0.041123528 0.023395238 0.050577942 0.055501644 0.00058667886 0.06821929 -0.0596716 -0.0137075605 0.09964617 0.051233552 0.10262158 -0.00078986085 0.023728088 0.056280274 -0.027563864 -0.051876467 0.080030814 -0.004181451 -0.040389452 -0.003298956 0.04741934 -0.039571967 -0.019056046 -0.042555552 -0.060338445 -0.024552159 -0.042666476 0.044570547 -0.04154538 -0.07606377 -0.052240513 -0.05210545 0.05144607 -0.086146526 -0.06857855 -0.014656767 -0.016785948 -0.08384456 0.03164199 0.018258875 0.073940806 0.08543956 -0.0009209099 -0.0039820857 -0.05213882 0.017123975 -0.023947189 -0.0013975715 -0.028394537 -0.063221164 -0.07861081 -0.0740325 -0.068132326 -0.10184595 0.04731624 0.0151700955 -0.010477973 -0.012015459 -0.017050164 -0.059725575 0.019062418 0.07624783 0.040821504 0.06909972 0.059691537 0.034319066 -0.10119224 -0.07707356 0.09116891 -0.033774108 0.08589726 0.06165682 -0.060673658 0.039793923 0.041549645 0.037353106 0.010614987 -0.1000091 -0.013695194 0.08579287 -0.009406058 0.06439873 -0.067278326 0.06813524 -1.2397068e-06 -0.0829537 -0.0016281693 0.027381897 -0.085451156 0.029273394 -0.0443348 0.02556155 -0.004487224 0.09306341 -0.09432864 -0.061801553 0.06717637 -0.01847655 0.015231853 -0.010185821
194 -0.09466596 0.055978578 -0.041917603 -0.0034594934 -0.056731876 -0.03498029 -0.07226687 -0.017600907 0.04646107 0.0008375747 -0.057455536 0.067088276 -0.048755433 -0.09583294 0.041452605 0.06033987 -0.044920184 0.102707304 0.032443028 -0.048734885 0.08927425 -0.08756253 0.06588705 0.009745654 -0.012380555 0.09111734 0.03675372 0.0015361321 0.040148284 0.015112115 -0.033656828 0.03285627 0.06100855 -0.03265711 0.051120516 0.042366147 0.055694334 -0.10148207 -0.005314664 0.05273941 0.075344086 0.045085866 0.103186846 0.09950247 -0.037633084 -0.03452874 0.014698238 -0.03432804 -0.054997284 0.0076090395 -0.046408057 0.04715227 0.09619905 -0.05230263 0.05087687 0.06041729 0.0553747 0.03464972 -0.058035847 -0.09567644 0.083685465 -0.043183 -0.09682844 0.027431024 -0.015137913 -0.030058755 -0.0057435 0.035038684 -0.03641271 0.051964693 -0.044512264 -0.04042221 -0.010899634 -0.06094002 -0.018231876 0.048777457 -0.05543108 0.075456396 -0.033903077 -0.10333965 0.007516407 0.007922721 0.028356962 0.07422854 0.04724018 -0.060532443 0.05586385 0.050763253 0.030062318 0.0024434952 -0.03511085 -0.017193377 -0.08987396 -0.041882653 0.053696718 -0.08407143 0.084843114 -0.05638636 0.0487974 -0.08035354 0.037431724 0.028105706 -0.07002232 0.10065545 -0.07113535 -0.057805322 0.086109646 0.06562375 0.009346761 -0.023181023 0.021840695 -0.022548776 0.04332249 0.056662217 0.0546306 0.010169062 0.041673157 0.07479885 0.078790374 0.013008615 -0.062439788 0.0059692366 0.026055984 -0.041808598 0.01666402 -0.0052851774 0.011759927 -0.019889386
197 0.014035997 0.05207202 0.09875004 0.012769891 0.036924582 0.016883409 0.022026978 0.09092585 0.06828978 -0.0966948 -0.0059216255 0.07031619 -0.08700581 0.007773661 -0.07653067 0.024958419 0.053724013 -0.05097918 -0.0034904387 -0.029846888 0.09591663 -0.06340644 -0.046939883 0.03325205 0.031646747 0.06730555 0.0011958751 0.039420426 0.088945806 -0.04095442 0.043257732 0.03614152 -0.074502796 0.041643634 0.03127048 0.02474665 0.011424399 -0.006617042 0.09331233 0.015261977 0.057971183 -0.058488242 -0.0010610616 0.05489306 0.05705008 0.031049663 -0.03471694 -0.022239577 0.012389404 0.03212478 -0.0029853634 0.040228706 0.099401735 -0.033555157 -0.0824154 0.0029440657 0.024155414 0.012941264 -0.05913635 0.020608973 0.007946479 -0.04975481 -0.027070224 0.042586047 -0.0576938 -0.0018399162 -0.05037335 -0.1022051 0.047818698 -0.062742665 0.015222665 0.04904912 -0.101657905 -0.081339784 -0.010476907 0.08221398 -0.05719531 0.05432093 0.055018872 0.0476393 0.06246 0.059623037 0.031823415 0.00030284165 0.0454786 -0.038702026 -0.037929133 0.023141995 -0.0458283 0.038677808 0.0074159536 0.05121555 -0.10006658 -0.028195698 -0.026050357 -0.09794483 -0.01546287 -0.018850258 0.04615008 0.022397326 0.012978783 -0.044716284 -0.09891211 0.055818893 -0.09857195 -0.035465106 -0.049932938 -0.04714363 -0.020550404 0.040490046 0.045135718 0.07603966 0.02429938 -0.02566833 0.04691421 -0.040516347 0.047263503 0.05871121 0.029193489 0.04288365 -0.05124617 0.0897713 -0.01682517 -0.038421743 0.021598138 -0.06597541 0.02820218 -0.006804333
196 -0.03459439 0.07004187 0.021254884 0.03633739 0.04361724 0.027447976 -0.057398964 -0.0480197 -0.054687962 -0.012446815 -0.034420986 0.06260836 0.019979011 0.054579616 0.04931547 -0.048676234 0.044617698 0.006380483 -0.012225121 0.010391783 -0.026879 0.0059005357 -0.062237397 0.016730241 -0.004568026 -0.03520062 0.021501815 0.03686237 0.021948647 -0.07477481 0.024511574 -0.037955556 -0.046558607 0.024821177 0.06920386 0.014654474 -0.00172772 0.031168368 0.0727279 0.019937785 0.017595585 -0.007777071 -0.03298236 0.09241355 0.003961921 -0.05733882 0.095728055 0.0057231374 0.09095117 0.038397428 -0.017231097 0.07654441 0.09766719 0.020411197 -0.030979462 0.030600423 0.043283492 -0.0048462735 -0.01040381 0.033870615 0.046414495 -0.050856255 0.036106832 -0.034460675 -0.061533656 0.04517234 0.046647094 -0.059651677 0.057231396 -0.047927976 0.0055724843 0.04332686 -0.075548366 0.022502018 0.02824374 -0.04900046 -0.009465385 0.022128727 -0.09263216 0.030516751 0.049560804 0.045975454 -0.009776225 -0.01562577 0.0126356855 -0.08870105 0.06664071 0.029321276 -0.051170167 -0.030273724 -0.097001106 0.006935139 -0.07605955 0.020944929 -0.055202655 -0.09704548 0.06946854 0.035204224 0.07540211 -0.08601405 0.047857862 0.0655482 0.060814038 -0.0277728 -0.049005788 0.05985956 0.052967794 0.05768358 0.021896943 0.035361674 -0.009217289 0.025763618 0.014187547 -0.053618897 0.025491694 -0.08470553 0.05186906 0.03004376 -0.033871915 0.05644575 -0.016757919 -0.053078458 0.039228838 0.020556986 0.06061668 -0.054901235 -0.055912 -0.029741785
191 -0.06167461 0.077885985 -0.050337687 -0.062393893 -0.044615187 0.049246956 -0.085899234 0.056016196 0.0061157225 0.04673056 -0.05946917 -0.048258215 -0.028652415 -0.05379482 -0.023401892 0.03995437 -0.0032055713 -0.022758065 -0.031309366 -0.08537281 0.0046832827 -0.028401243 0.0009382684 -0.04932482 0.050363954 -0.0009020985 0.042434033 -0.039487228 -0.0014358909 0.045923654 0.0103662005 0.006341369 0.06262825 -0.021846706 0.06795577 0.019684233 -0.005267565 0.016062899 -0.060752463 -0.04397283 0.012310183 -0.045283083 -0.016337965 -0.020347461 0.05840458 -0.012957751 -0.03199766 -0.061437022 0.0012839196 0.05646569 -0.05795555 0.06252843 0.04926917 0.027185151 -0.01367816 0.06159073 -0.009331746 -0.07159036 -0.017930092 -0.076217085 0.07509834 -0.040033504 0.061913006 0.033478584 -0.040875584 -0.028480673 0.042310044 0.04345171 0.06824494 -0.030122614 -0.034075983 -0.061726376 0.05344561 -0.09040907 -0.056040816 0.008152251 0.030557297 0.0887642 0.026590459 -0.04464799 -0.06023532 0.016483007 0.005165106 -0.05441375 -0.059203733 -0.09036699 -0.0027521192 -0.057188578 0.068473026 -0.042961244 0.03855259 0.07860294 0.01514833 -0.02674748 -0.02383782 -0.007362983 -0.03301207 0.024328606 0.04106141 0.01563136 -0.01499996 -0.00884159 -0.00624441 -0.038940236 -0.0466041 0.0155166015 -0.055146534 -0.0029654629 -0.054616533 0.054955505 0.036025014 0.098457076 -0.050611563 0.016349662 -0.005303052 0.034470703 0.035276387 -0.020344634 0.07004319 0.032248728 -0.01454154 0.040275734 -0.08516177 -0.026583128 0.024160415 0.011588017 -0.039131925 0.04244091
190 -0.10552276 -0.059305023 -0.057028342 -0.066534385 -0.01975159 0.019691698 0.012387376 -0.019943405 0.028854098 -0.087116115 -0.07045405 -0.011055135 0.014780001 -0.04636665 0.03868761 -0.003943809 0.027387977 -0.0508982 0.009145831 -0.039069496 0.06803426 -0.07262124 0.057692215 0.007742688 0.059602633 0.06976927 -0.08829238 0.050979678 0.05236522 0.047807503 0.039427035 0.08768619 -0.09183269 -0.03696937 -0.0085813375 -0.08424794 0.034381296 -0.07723071 0.038282376 -0.007748178 -0.04944461 0.040943336 0.0886916 0.018865181 -0.05443184 -0.06619995 0.050405145 0.0145150535 -0.03625109 -0.0036116731 -0.05963446 -0.023348302 0.05286325 0.0138487145 -0.102630764 -0.046384018 -0.06360737 -0.029059201 -0.07488277 0.031921655 -0.04455483 -0.06979535 0.061664943 -0.048452426 -0.010001858 -0.07354771 0.050548065 -0.09239276 0.09787333 0.07063773 0.036525622 0.05176121 -0.09516187 -0.017482512 0.047219675 0.0523648 -0.083909355 0.05423607 -0.06581397 0.027555017 0.024965629 0.036844127 0.08399218 -0.0038354564 -0.044191834 -0.027519988 0.082979426 -0.10466968 0.0026640773 0.06158789 -0.042561848 -0.035666175 0.032680824 0.005709846 0.050464157 -0.09032254 -0.059908357 0.056135006 -0.010217055 -0.0100589115 0.06587451 0.067207694 0.042734098 0.08059933 -0.09091494 0.009205626 0.036401726 -0.021716483 0.021616837 0.026145091 -0.0005122835 0.060426828 -0.04447946 0.063633025 0.09780995 0.002625262 -0.048418783 0.014118401 0.042412117 -0.009412654 -0.09749611 -0.02595163 -0.100293085 0.027847117 0.012323812 0.048414648 -0.017098889 -0.06225136
193 0.057916243 0.053308435 0.0313112 -0.07703863 -0.07323015 0.038909674 -0.068045884 -5.1127747e-05 0.07559724 0.038493443 -0.06513757 -0.058252115 -0.08660387 -0.036214 0.04381181 0.013740587 0.029557874 0.070105985 0.06675301 -0.021314904 -0.060909428 -0.00413863 -0.044624656 -0.017445233 0.08160383 -0.037792012 -0.047696277 -0.10050209 0.0012459852 0.03539866 -0.096325725 -0.020242035 -0.077311456 0.025211396 -0.02084894 -0.047408454 -0.037489016 0.00067465845 0.0684074 0.08927019 -0.0077813435 0.089454725 0.04350524 0.10361593 0.02379774 -0.09653758 -0.025768124 0.0948392 -0.055523872 0.021761108 -0.046085633 -0.053032532 0.06836985 0.018020594 0.01856293 0.007148199 -0.01382936 0.017916812 -0.080641985 -0.023481192 -0.040512018 -0.0899167 0.00091626286 0.050837524 0.09748896 -0.07995651 0.01957393 -0.07223108 0.024178473 0.046595704 -0.091784924 -0.07063152 -0.020051468 -0.05152879 0.01035514 -0.05228671 0.0408435 0.10298714 0.018126508 -0.08984969 -0.07987829 -0.09764891 0.0300712 0.008520549 0.026828386 -0.017060034 0.00087365706 -0.07593888 0.0037180614 0.089590475 -0.07593461 0.008646976 -0.08960707 0.038721394 0.035301886 -0.052289676 0.037992664 0.04358526 -0.028916422 0.04508086 -0.020792598 0.045527615 -0.09514063 0.008305751 -0.08330926 0.008888213 0.07481597 0.025996009 0.0740971 0.050128866 -0.06618172 0.07907135 0.050781615 0.034340244 -0.04263211 -0.016234657 -0.053476762 0.087835714 0.07144066 0.049361598 -0.09876561 0.0838683 -0.043887306 0.011524301 0.003574092 -0.0046294257 0.040019687 -0.020852026
192 -0.06313494 0.07290918 -0.05729772 -0.084786266 0.030860214 0.07295212 0.025627537 -0.011568357 -0.01758808 -0.0419147 -0.08107934 -0.029931474 -0.072159685 0.023594776 -0.07719485 0.04361516 -0.06042946 0.10205567 -0.0022505466 0.06288163 -0.01656165 -0.058830995 0.09325405 -0.015693428 0.029802155 0.043014072 0.019935874 -0.08683691 0.020161027 -0.054438964 0.03698799 0.08201794 -0.05511145 0.00046579412 0.046686135 -0.052448515 0.0023606713 -0.040500194 0.038389914 0.09897831 0.056426596 0.011440377 -0.047759112 -0.061210837 0.017152382 -0.0747759 -0.048105124 0.035600573 -0.047676336 -0.05169774 0.051920805 0.05878966 0.049111597 0.07198475 0.062167652 0.06878391 -0.03214166 -0.096554115 0.045121655 -0.057298433 -0.014001749 -0.055313822 -0.10164217 0.028357813 0.027813781 -0.047738 0.04372531 -0.041899253 -0.04005518 -0.0060852934 0.047268763 -0.07033274 0.04057246 0.027589433 0.0066582053 -0.009660954 -0.026374713 0.03824817 -0.0722234 0.04558044 -0.045982286 -0.058650054 0.050455518 -0.006663504 0.052770164 -0.028706867 0.0050260243 -0.04849338 0.07669165 -0.06325365 0.045159888 -0.026189784 0.020940134 0.06053817 -0.0510618 -0.017717203 -0.047859695 0.07561261 -0.024298709 -0.029760538 -0.061326977 0.07036935 -0.041177694 -0.03513218 -0.0010984297 0.04751283 0.09508714 0.10454611 0.017205123 0.08827301 0.021251567 -0.0026504125 0.004062034 -0.0026855357 -0.019821415 0.006945814 0.03377377 0.054370113 0.030527411 0.06728243 0.0026384075 0.075084016 0.029188585 -0.036820494 0.10322893 0.05935056 -0.03687581 -0.048179585
270 0.011386665 0.006205472 0.04549396 0.022113737 -0.084706105 0.03222526 0.012967326 -0.038744655 0.011258599 -0.054023523 0.015008477 -0.009265236 0.058757663 -0.0034154009 0.005896096 -0.07371118 -0.0018108276 -0.023706801 -0.054789055 0.01768245 0.06760231 -0.01783449 0.052726343 -0.060130566 -0.049407784 0.061356053 0.011537382 0.050496116 -0.022040742 -0.036482804 -0.060656942 -0.038974166 0.008297368 0.064046174 -0.006776779 -0.0037675183 0.06972068 0.01643974 0.091319375 0.06331321 -0.030121177 0.031791132 0.04020644 0.058906462 -0.041148838 -0.076995134 0.057984058 0.09318929 0.07551103 0.05868128 0.056076884 0.105100766 -0.03937353 -0.039942116 -0.036435846 0.081686884 0.048324846 0.025318215 0.0059062447 -0.08594439 0.06544205 0.016300626 -0.082565054 -0.020934835 0.05898306 -0.040856462 -0.006746141 0.040971152 0.08814882 -0.050767977 -0.06725048 0.04106367 -0.026715072 -0.08865136 -0.023800131 0.049628038 -0.08660027 -0.016346611 0.029395754 0.029346745 -0.07978653 -0.039052278 -0.02388785 0.04798676 0.056944992 -0.10283182 0.03440595 -0.03841641 0.07350374 -0.034368634 -0.030146034 0.00847612 -0.0017510469 -0.049666334 -0.05514017 -0.049850516 -0.016057868 -0.05357144 0.0021696538 -0.00854512 -0.00182752 -0.022833433 -0.099545226 0.037021898 -0.032050334 -0.1017462 0.054357268 -0.012153672 -0.021360533 0.032772638 0.04344142 -0.00378589 0.09706174 0.05889256 0.04027508 -0.043557324 -0.045481164 -0.002620339 0.093432486 0.011814361 0.052293826 0.0055215894 0.003859865 -0.05569824 0.09289754 -0.024848113 -0.071535625 0.09968878
271 -0.09122502 -0.03353045 0.045834262 0.061972354 -0.05453119 0.09353135 -0.0710252 -0.05561974 -0.007840729 -0.040889848 -0.043133546 0.061190557 -0.043335475 -0.088860765 -0.014543492 -0.011367317 0.05459468 0.105040856 0.028008059 -0.06607761 0.019715123 0.011533799 0.012598663 0.015905693 0.040917918 0.059827276 -0.076052986 -0.07812456 -0.020898068 -0.07348301 -0.06728339 0.075333975 -0.07956613 0.0068979785 -0.013325063 -0.014494155 -0.0035388013 -0.051709175 0.064739734 0.008932714 0.05315324 0.006070314 0.05853497 -0.02896873 0.004215735 0.023521673 -0.010207538 0.020354228 -0.03527142 -0.07677096 -0.02623536 -0.018113557 -0.023186013 -0.03212863 -0.083245754 0.048024535 0.015333784 -0.08298679 -0.089884624 0.026637224 0.054228384 -0.00922782 0.052514616 0.09765954 0.059216898 0.031630516 0.04471464 -0.022742825 0.09489474 0.0083508445 0.045089 -0.05181904 0.0364534 -0.093831085 0.053370565 0.0606812 -0.01483349 -0.03189696 -0.10233031 -0.01815217 -0.05033945 -0.07426185 -0.0013270217 -0.034719046 -0.07043543 0.032858904 -0.050164334 -0.039045595 -0.028674424 -0.034804285 0.005506967 0.04066524 -0.06255924 0.060685378 0.032784414 0.05108073 0.004878775 0.036548067 -0.03631584 0.035326652 -0.00863394 -0.032254428 -0.009868661 0.079306014 -0.0915274 0.011732684 0.04858066 -0.019632345 0.02312202 0.07629387 -0.040440302 0.07687407 0.06114611 0.019472016 -0.021900207 0.054847535 -0.07355746 -0.025157603 -0.042967413 -0.03563948 -0.0678053 -0.052723467 -0.032103 -0.008260206 0.08253359 -0.015553038 0.041786786 0.040287606
272 -0.0898876 0.08742195 -0.047809068 0.03469051 -0.040161178 -0.0027292087 -0.010808842 0.014760984 -0.005968268 0.0036337455 -0.08146056 0.08452633 -0.07291375 -0.04525161 -0.08403942 -0.025483435 0.0953312 -0.009251417 0.051686075 -0.0872303 -0.04548895 -0.0077501684 0.010150273 -0.028904382 0.005500925 0.0029538777 0.020928994 0.039041024 0.080469355 -0.06778409 0.024748383 0.06110502 -0.058438536 -0.026796242 0.017854692 -0.10529132 0.102643535 -0.09110273 0.04348972 0.075978115 0.005553959 0.013635785 -0.059687696 0.054073706 0.015589734 -0.076251425 0.025804903 0.04767782 0.046772227 -0.04370285 -0.0708656 -0.011733392 -0.056507196 0.0022607702 0.03967342 -0.04128424 -0.002279047 -0.09199366 0.06248969 -0.06768491 0.036429893 0.04033133 0.04816005 0.10147008 -0.034371763 0.025888264 0.003976663 -0.10062779 0.0072958763 -0.026703335 0.04860448 -0.09118199 -0.0015388621 -0.06393016 -0.041714516 0.07961166 -0.09214354 -0.008183859 0.03409866 0.034789357 -0.09332865 0.010413964 0.007864302 -0.05608149 0.017811298 -0.095095545 0.023906946 -0.002940028 -0.024212724 0.084676914 0.028414015 0.04000689 -0.030268261 0.04856505 -0.09278145 0.0039547887 0.008364862 0.007729486 0.057286393 -0.02269793 0.08575879 0.094209336 0.022509014 0.030603606 0.03699765 0.004054958 0.047902927 -0.06075315 -0.047158767 0.03495674 0.04442776 0.029370317 0.06397974 0.057030365 0.09160326 -0.028542446 -0.07179548 0.09764028 -0.059249543 -0.014450628 -0.03322511 0.06938373 0.051142156 0.0005811822 0.020920439 -0.042702213 0.0631967 -0.009410034
273 -0.0019256646 -0.020271774 0.07300172 -0.020244606 -0.100214146 0.017319918 -0.063907176 0.07647995 0.038914796 -0.052473404 0.060504902 0.05871164 -0.09674984 -0.031714506 -0.04911298 0.030738583 -0.044662923 -0.004072453 0.07141252 0.0072690323 0.025627233 0.012816429 0.018952597 -0.018749977 -0.028772492 0.030387294 -0.019498887 -0.07357188 0.03262635 0.0076751173 0.02757291 0.07254228 -0.04662901 -0.024541734 -0.006083239 -0.016796868 -0.0059118075 -0.10371268 -0.0023847013 -0.034011453 0.07633991 -0.032169517 0.0010111504 -0.048853576 -0.019546622 -0.077632815 -0.010269659 0.038672462 -0.04024715 0.066669755 0.059480578 0.08441729 0.079990886 -0.000822167 0.0032927855 0.09448316 0.044420246 0.021563618 0.008129915 -0.026464906 -0.05434641 -0.06934251 -0.061307877 -0.05470399 -0.010544695 -0.0007880252 -0.035887647 -0.06053419 0.04283756 0.03793348 -0.012557946 -0.09374713 0.02492015 -0.034084726 -0.0902901 0.030038973 -0.053216457 0.061391555 -0.006596879 -0.019832399 -0.001069844 -0.011612659 0.092682436 0.029538462 -0.003311421 -0.04649132 0.07745577 -0.0129388245 -0.020538019 0.034586072 -0.05155348 -0.027155785 0.004681991 0.0081629045 0.047194455 -0.05565404 0.040405832 0.05607328 -0.026494024 -0.024162104 0.10439153 -0.048792116 -0.09488632 0.026900394 0.04794616 -0.031801842 0.07146683 -0.020563528 -0.020758772 0.064843364 -0.035553657 0.025278984 0.010343548 0.043887064 0.06512566 0.018497009 -0.0673 0.051348686 -0.016263563 0.020706095 -0.09756047 0.09939246 -0.07086815 0.025271907 0.017514685 0.03418647 -0.00084085576 0.07030027
274 0.035213906 -0.06091 0.09669594 -0.02932155 -0.030289985 0.02390221 -0.1014312 0.0830606 -0.06157407 0.021089545 0.048378006 0.0339733 -0.05348515 -0.008761585 0.00847802 -0.09441215 -0.020877734 -0.034423754 -0.010562609 -0.079282954 -0.029849015 -0.05461583 -0.014314695 -0.08121519 -0.023296276 0.008060072 -0.041532926 -0.08508059 -0.030020464 -0.08860733 -0.09583896 0.013801089 0.018001394 0.025522072 -0.0050110547 0.048342124 0.011520254 0.0027735978 0.072981484 -0.031073673 -0.024104591 0.078543305 0.06073585 0.08962544 -0.022822352 -0.09962435 -0.059768293 -0.006989772 0.05882125 -0.041803315 -0.024733586 0.07871779 0.06870573 -0.022489188 -0.041300938 0.09024707 -0.09321309 -0.080907516 0.020767026 0.041417446 0.081956 0.041925237 -0.07328878 0.03112058 -0.006953 -0.028283667 0.056735933 -0.03723557 0.064689234 0.07999179 -0.08273112 0.013160419 -0.024804318 -0.08699123 0.004734538 0.08830638 0.037038077 -0.03977441 -0.05519449 -0.041145682 0.050406236 -0.047004398 -0.021496216 0.09862005 0.01315216 -0.035457183 0.057860017 -0.07999581 0.055762567 0.07639976 0.035239205 0.016487004 0.0057881046 -0.0053173243 0.055240028 0.048185527 -0.042311825 0.04201852 0.049192637 -0.06260528 -0.023484934 -0.041642345 -0.012325748 -0.0072817965 0.061213825 -0.063318744 -0.017494189 0.0245802 -0.04545749 -0.034988057 -0.0009957764 -0.02402771 0.024659745 -0.05671204 0.0246608 -0.002156165 -0.057864197 -0.026235119 -0.05956566 0.009270943 -0.09598408 -0.038660567 -0.0014702791 0.057151098 0.10068319 -0.031974353 -0.04220158 0.06060287
275 -0.040786304 -0.0348539 -0.005344362 -0.038785603 -0.09355198 0.092615515 0.03368492 -0.012610239 0.04716196 -0.03856253 -0.08444365 0.0261131 -0.025552267 -0.031186037 0.03029759 -0.087100066 -0.037634637 -0.056057487 -0.009928243 -0.098643795 0.05603353 -0.025468443 0.090516254 -0.086820096 0.008953328 -0.03785388 0.05734739 -0.019461485 0.054346245 0.048093267 0.02620648 -0.019167462 -0.062533155 0.043618422 -0.026523383 -0.092633985 -0.033259843 -0.067909256 -0.010347171 0.07695227 0.06884796 0.09014088 0.038422704 -0.0060528195 0.019463189 -0.095275484 0.039550684 0.074440524 0.0012135459 0.0033914498 -0.08426493 0.013003828 0.0921119 0.04272934 -0.052928817 0.091565624 -0.000755145 0.047678433 0.043605264 -0.035262894 0.05763457 0.009915095 -0.06882628 -0.022555102 0.057536047 -0.053858947 -0.04936278 0.029575862 0.096691534 0.009064406 -0.065917335 -0.09451846 -0.078556694 0.06381752 -0.0062663215 0.045486175 0.011477719 0.05331578 0.0073175183 -0.05484487 0.0065732924 -0.009418895 0.08349276 -0.017324314 -0.097504705 -0.04137923 0.098153405 -0.029794525 0.06691982 -0.049149387 -0.088439584 -0.019953886 -0.027284708 0.065533936 0.008127802 0.05992318 0.048413146 -0.050071817 0.026191551 -0.09814976 -0.044825014 -0.058889743 0.06274675 -0.045870572 -0.09644844 0.042921986 0.040494468 0.024760282 -0.036923982 0.08480268 -0.011538009 0.03720222 0.069677085 -0.0063433037 0.027633896 0.014559168 0.057938524 0.046352644 -0.028519243 0.08475435 -0.092801616 -0.014579146 0.001181385 0.06290315 -0.047204174 0.04664944 -0.090504944 0.083401516
276 -0.043183573 -0.016873984 0.077442415 -0.09249912 0.055167124 0.089663096 0.028737195 0.042586 0.0572204 -0.088035606 -0.07615145 -0.034542773 0.05718555 -0.036487803 -0.016808357 -0.018088399 0.088101745 0.054862488 0.035294667 0.016493322 0.067408 -2.1396321e-05 0.03791876 -0.08310168 -0.050392125 0.03726255 0.009649318 -0.04711152 -0.0016059056 -0.097867675 -0.06502311 0.010558752 0.027975604 0.100270204 0.016897172 0.0514473 -0.016049273 -0.07148541 0.013647353 -0.00794151 0.051120166 -0.04685488 0.04910937 0.09569534 0.08326492 0.059208512 0.025189547 0.078257404 -0.026566809 -0.035753086 -0.08288801 0.04504344 -0.023711998 0.09870942 -0.028996786 -0.022554545 0.023036843 -0.09649414 -0.06598181 -0.022242004 0.014394429 -0.019556394 -0.024388228 -0.028381387 0.06783886 -0.08411311 0.03801764 0.05916805 -0.010872769 -0.045428943 -0.017439906 0.01167675 -0.025019463 0.021408336 0.0350213 0.043093976 -0.09455054 -0.025168976 -0.015279915 0.05444115 -0.07988342 0.046116237 0.07040227 -0.017674854 -0.034861684 -0.089111224 0.07112443 -0.037099965 -0.0028187856 -0.035820268 -0.018198846 -0.037280064 0.048446696 0.018080087 -0.060237717 -0.08495916 0.01924278 0.035150312 -0.06255686 0.021115877 -0.052477848 0.057639867 -0.07430602 0.037698966 -0.0120620765 -0.09091909 0.008496558 0.071927264 0.052974567 -0.028325118 0.0480396 0.035423685 0.06491171 -0.044084996 0.056637414 -0.104729824 -0.04650478 -0.0614257 -0.02546059 0.10352872 -0.023002459 0.09711756 -0.08404676 -0.018967567 0.03829043 -0.047033273 -0.06371623 0.016354067
277 -0.009041853 0.081100136 -0.051519755 0.061939996 0.015030272 0.055545762 -0.026844662 0.06712775 -0.0146982735 -0.0029711933 0.050663076 0.10059957 -0.042222124 -0.05900186 -0.04450415 -0.050822206 -0.034896504 0.08216369 0.07956597 0.024917876 0.07682597 -0.06691637 0.025155336 -0.0006747487 -0.035627116 0.07595021 0.06258275 -0.0038445373 0.021439265 -0.022709483 0.0002636077 -0.011161734 -0.10056649 0.031445734 0.0069506373 -0.0022069209 0.00011619856 -0.00467784 0.0435642 -0.04971729 0.08786991 -0.0035320623 0.08360368 0.047159813 0.011854843 -0.030487282 0.034575913 0.08471191 0.043342248 0.013187359 -0.056482542 0.06103337 0.011943382 -0.038395327 -0.03345076 0.099042915 -0.061508365 -0.054924496 0.048376504 -0.00013300905 -0.051884677 0.028589545 0.0471905 0.06442119 0.06144547 -0.030633733 -0.0334845 -0.0782495 0.046935976 0.068140544 -0.06623868 -0.07817395 -0.030023348 -0.05376544 -0.032120723 -0.049779426 -0.05118748 0.029598283 -0.071757175 -0.028868176 -0.050979026 -0.0773998 -0.02750568 -0.03847567 -0.008492483 0.059509087 -0.014379068 -0.04563994 0.079778895 -0.051604096 0.040521923 -0.019644795 -0.1015998 -0.06884726 -0.00045230496 -0.05288167 -0.044634916 0.10521873 -0.007848034 0.015172774 0.10321807 0.051251918 0.016906235 0.06994199 -0.0653737 0.048182286 0.08426465 -0.02336155 -0.040149286 -0.06360994 -0.10292156 -0.013589323 0.08424147 -0.016222652 -0.031200772 0.03113853 -0.09999501 0.021206269 0.034185283 0.07049502 -0.07927886 0.051112864 -0.021953218 -0.08809537 0.07443357 0.02822883 -0.036083203 -0.029669752
278 0.0065517984 0.073886044 0.054887153 0.015676567 -0.033908617 0.052001193 -0.0376332 0.0804253 0.09585004 -0.07243017 0.048279855 0.050501045 -0.019246038 -0.04143224 -0.03146027 -0.04576813 0.08875651 0.088982694 0.04742243 0.061706476 0.057425547 -0.04713148 0.047095794 -9.306788e-05 0.030485779 0.014916374 -0.084221944 0.048874144 0.06440911 -0.10367307 0.0017564286 -0.062553905 -0.1012552 -0.026456557 0.060898133 0.016280917 0.066701785 -0.005216107 -0.039211288 -0.021960579 0.03239725 0.097498916 0.020159882 -0.0031324702 -0.011978943 -0.029113278 0.059792925 -0.020888438 0.018178482 0.07111572 0.009043873 0.09812943 -0.030725596 -0.011250776 -0.06740147 0.054221705 0.031877466 -0.08706961 -0.063511916 -0.08158222 0.0039059327 0.017396409 -0.055428278 0.0611078 -0.03519185 -0.04797978 -0.045438867 0.05492346 -0.062640175 -0.0017411306 -0.08193262 0.061188895 -0.033816308 -0.022522349 0.035857257 -0.029490981 -0.054230697 -0.0021357073 -0.07045096 -0.10442246 -0.08315644 0.04774143 0.0034525134 -0.006519728 -0.09339463 0.019230595 0.00014465989 -0.10527823 -0.0050634868 -0.059343264 0.034017537 0.09660426 -0.013063525 -0.021032792 -0.06371183 0.015805067 0.038183093 0.026194999 -0.0069149863 0.0016128055 -0.03696503 -0.030035831 -0.055785406 0.024539895 -0.048361182 -0.081719905 -0.03410257 -0.04837503 -0.028834134 0.051893264 -0.047137074 0.096853495 0.014415581 -0.04023528 -0.039576095 -0.004244566 0.004137232 -0.054602016 0.06484709 -0.04282984 0.06278012 0.037044726 -0.041151833 -0.08246304 0.065294504 -0.0064596096 -0.01772348 0.03943121
279 -0.071695246 -0.033374097 -0.05896329 -0.050787557 0.03885151 -0.023434445 0.023557935 0.08587243 -0.020529058 -0.023699125 0.016439252 -0.017367486 -0.08832186 -0.030918058 -0.044509284 -0.06400976 0.0501482 -0.061591543 -0.048280798 -0.09227388 0.078562036 -0.011347253 0.029212661 0.039118472 0.062185127 -0.021849852 -0.040478118 0.053587113 -0.03382762 0.031287383 -0.08249975 0.089369915 0.02303198 -0.0010316694 -0.009253753 -0.07935636 -0.019731425 0.036332592 0.07861364 0.018103704 -0.0076435413 0.032571204 0.060340095 -0.015724171 0.09544467 0.06330615 -0.03863447 0.09465025 0.010492813 -0.028313914 -0.02048873 0.07973168 -0.052638672 -0.05141612 0.06334654 0.058848694 0.03938482 -0.07454477 0.04203016 -0.005679709 0.076852255 -0.024338609 -0.08016156 -0.0032509034 -0.03597071 0.03630573 -0.05111139 0.019929608 0.08699775 0.02157562 0.030375058 -0.054378055 -0.09041206 -0.1046635 -0.00042490906 0.0531872 -0.029344637 0.018769661 0.061685763 -0.011077066 0.04151608 -0.07507394 -0.0051437505 0.101450086 -0.011519167 0.005830119 -0.028657885 0.046155613 0.011812762 0.06794215 0.039825905 -0.03415196 0.028886875 0.06816586 0.010311309 -0.07090491 0.031127296 -0.043708026 0.059851233 0.026297916 0.057286028 0.02305372 -0.05206423 -0.045619365 0.006327029 0.014276609 0.032338534 0.054084845 -0.025612768 0.09225979 -0.07966774 0.011310751 0.089177705 -0.064499184 -0.041910976 0.014551175 0.05143746 -0.03638063 -0.051524352 0.08790982 -0.040951665 -0.040487874 0.03786577 -0.09073491 -0.020843687 -0.090928786 -0.010613347 0.011596155
524 -0.06601665 0.06633703 0.076285735 0.02471867 0.009041065 0.10435596 -0.00925468 0.056778923 0.047111947 0.062444426 -0.06862289 -0.013838081 -0.073318675 0.026558787 -0.043950684 -0.06760503 0.06024432 0.07214049 0.051438786 -0.034845177 0.099588536 0.0059653157 0.095425025 0.013355842 -0.033201396 -0.049490985 -0.019944724 -0.034123685 0.08487926 -0.050364766 0.008272158 -0.055123545 0.022899011 -0.0077863904 -0.04071235 -0.022692822 0.060532004 -0.07423535 -0.07313027 0.029235572 0.037559733 0.051792342 0.08235517 0.07171022 0.054872736 0.032660566 0.017925894 0.012664583 0.028058961 0.039956976 0.028011106 0.05069335 -0.01982805 -0.09099242 -0.090748444 0.05232903 -0.060040195 -0.03740492 0.009681164 -0.04695905 -0.012935588 -0.104606256 -0.06797179 -0.04754428 0.030399494 -0.006329338 -0.049875442 -0.011868997 0.03393217 0.09000777 -0.041971836 -0.07031249 0.057107426 0.028398044 -0.03456761 -0.043713678 0.021377517 -0.014586687 -0.09364322 -0.038966864 -0.05199301 -0.033853028 0.0750803 0.025621299 0.03084234 0.01789005 0.08943704 0.0048242 0.0931581 0.038861286 0.062115233 0.05813007 -0.0025068694 -0.10337121 -0.051128082 -0.0036713004 -0.04170484 -0.05402 -0.030922955 0.010339847 0.07810623 0.0032488375 0.053916313 -0.043801658 -0.01806661 -0.032493863 -0.012528086 0.04088261 0.06917721 0.09215427 0.045953333 0.012405293 -0.011653386 -0.07686142 0.050623283 0.062983796 0.010799146 0.082876466 0.08444561 -0.006036062 0.0014716544 0.06702749 -0.045534715 -0.10545975 -0.05520023 0.00830219 0.022604285 0.095635645
525 0.038863786 0.055628326 -0.01184645 -0.049419664 -0.08687924 0.08907856 -0.06415759 -0.056981664 0.057791717 -0.06159533 -0.068088956 0.052672666 0.0578294 -0.02629035 -0.09555939 -0.009824036 0.047737043 0.097485214 -0.011611653 -0.10323597 0.031902254 0.007635955 0.0013551118 -0.062413897 -0.019721095 0.0604455 0.022946645 -0.099385135 -0.025319956 0.061207954 -0.04353627 0.08601924 -0.1048148 -0.04182032 0.097233705 0.04566148 -0.062262997 0.059795022 0.013764803 0.050854627 -0.044069756 0.03993448 -0.011598423 0.06735879 0.052496612 0.041189674 0.038352463 0.016810585 -0.013360314 0.043818608 0.029992016 0.06871429 -0.004463947 0.027196424 -0.017331146 -0.05118651 -0.053230185 0.033460442 -0.02865515 0.05220531 -0.06260263 -0.085698955 -0.06200709 -0.061232924 0.053442266 0.009526547 0.07343365 -0.09363378 -0.061942562 -0.0080173025 0.042096175 0.0055285688 -0.09551805 0.008338217 -0.021688916 -0.003948177 -0.014682261 -0.031372886 -0.038105115 -0.07877077 0.0106451735 -0.05326393 0.09620752 0.08066852 -0.08299276 0.05959038 0.07496124 -0.069271974 0.07177038 0.07061492 -0.09372297 0.07524389 -0.058090657 0.07639197 -0.035370804 -0.02918846 -0.03400865 0.09932339 0.049215585 -0.02619645 0.07177981 0.047273293 0.05567117 -0.011345537 0.027598262 -0.034242783 0.031972714 0.08022539 0.04968625 -0.0025226187 0.04401625 0.0030798991 -0.05995943 -0.09904375 0.0778265 0.002244872 -0.035125177 -0.016893106 -0.052626934 -0.059995532 -0.038011152 -0.050406847 0.016768882 -0.08552839 0.06795412 -0.09147214 0.044418465 0.09296594
526 0.03509427 -0.05659523 -0.046194352 -0.07346351 -0.019750247 -0.020623721 -0.08810556 0.074957915 0.042901877 0.021661418 -0.09557224 0.04628711 -0.081768386 -0.069734685 0.032485712 0.050618306 0.023446951 0.02436673 -0.062316693 -0.027852785 -0.0102078505 0.051173113 -0.042767894 0.06313443 0.08418179 0.006911183 0.059871625 0.047438376 0.03274904 -0.012628015 -0.0023977607 -0.015915 -0.0039357506 0.021715455 -0.06251866 0.046580657 0.0742245 -0.067910366 0.041711405 0.011832769 0.018712055 0.011633972 0.03774142 -0.034991115 0.009846399 0.033417314 -0.051824097 -0.03286872 -0.047599044 -0.005763697 -0.008381341 -0.042744715 -0.037954457 0.06980212 -0.083946235 0.007102101 0.027035994 0.033039123 -0.050665718 0.036353976 0.03500408 -0.0984683 0.012698566 -0.04115155 0.067473896 0.061766937 0.046090215 -0.09863515 0.006732275 0.014312475 -0.052739292 -0.043425787 -0.037281923 -0.058176406 -0.052100997 -0.0066185487 -0.017901605 0.092831306 0.02080687 -0.062190644 -0.069821425 -0.048049692 0.046620015 -0.03503421 -0.08467453 -0.096437335 -0.01788772 -0.08886992 0.016942866 0.07659945 0.031346425 -0.03254453 -0.055694252 0.07546473 -0.017450692 -0.0476359 -0.018394778 0.038663786 -0.00032653078 -0.028277133 0.08603946 -0.008254844 -0.09308803 0.02677307 0.03847357 -0.067540005 0.034291483 0.07729988 0.065661296 0.07774067 0.038501434 0.08606224 0.052054413 -0.029958485 0.056590885 -0.10159866 -0.04972701 -0.035761166 0.0064195357 -0.029609341 -0.07240664 -0.047012694 -0.0031193006 -0.053663734 0.019514747 0.002747723 -0.044239465 0.082449645
527 -0.035878565 -0.047531474 -0.0066044442 0.0424681 -0.001593621 0.08502034 0.007147007 0.008647138 0.05657022 -0.044505112 -0.046829857 0.016538842 0.057940926 -0.06142604 -0.013170732 -0.052024085 -0.06034238 -0.002748176 -0.06151059 0.033260502 -0.010057211 -0.07895066 0.09699152 -0.03800129 0.07183482 0.07878275 0.010770822 -0.0667823 0.09262464 0.05832873 0.036062293 0.09549966 -0.050180968 -0.040708896 0.06869221 -0.03512458 0.07289095 -0.093656234 -0.057140637 -0.010098464 -0.06365236 0.06826637 0.10552396 -0.011345747 -0.010962874 -0.027336147 0.07951363 0.05089414 0.0564392 0.019554105 0.017943367 0.052499764 0.01793587 0.056126446 0.049085733 0.0924285 -0.07436866 -0.07638881 0.059402745 -0.054054786 -0.026649969 -0.058939274 0.04931699 -0.0011547877 0.0012364939 0.016268881 0.045960635 0.03216205 0.03702359 0.016938446 -0.036090374 -0.041756283 -0.0612168 0.016285837 -0.021223458 0.09993673 -0.012479022 0.02837112 -0.06939128 -0.041914 -0.010568601 0.028141439 0.0815962 0.01718216 0.0448549 0.031416856 -0.048412804 0.015390079 0.08372862 -0.052297533 -0.052540507 -0.01903461 0.055699866 -0.046102304 -0.08860821 0.059003703 -0.042281475 0.06696924 -0.016714746 -0.025984325 0.020400373 0.0054424647 -0.0816399 -0.035089396 -0.011431007 -0.009448598 0.021578334 -0.05302627 -0.006358233 -0.048464846 -0.04757697 0.019502046 -0.05661039 0.007353081 0.0024169174 -0.011112347 -0.026306933 -0.05961387 -0.061389912 -0.061598852 -0.033132844 -0.0016455547 -0.0220321 -0.017096361 -0.041332696 -0.024761254 -0.023275452 0.027238881
520 0.025399776 0.015017131 -0.037829753 0.010122258 -0.023745213 -0.0006850794 -0.07714327 0.023018086 -0.029005198 -0.015867546 -0.09558179 -0.02725132 -0.039851125 0.03717656 0.028056577 0.012902253 -0.011769289 0.013699014 -0.043975554 -0.030628417 -0.025107611 -0.02257226 0.02581116 -0.091461696 -0.0024802554 0.051040836 0.055891864 -0.102328815 0.0139886495 0.044000853 -0.053448983 -0.023358636 -0.054603223 -0.041684736 -0.024548376 0.011544251 0.037041534 -0.0146787735 -0.0373116 0.08061158 0.06523721 -0.022398181 -0.054949768 0.0993717 0.024254078 -0.07584305 -0.037422366 0.054398384 -0.021212304 -0.027415385 0.038339414 0.09649229 0.028992774 -0.07859313 0.061069593 -0.0044360952 0.05446105 0.025905624 0.04424869 -0.06247732 0.06425071 0.029217847 -0.06294744 -0.016361078 -0.043534894 -0.060725056 0.08927408 -0.036223985 0.008097424 0.00841934 -0.08019108 -0.023415785 0.037565146 -0.069688216 0.020722369 0.08107593 -0.02031907 0.023463327 0.020169226 -0.081036866 -0.05761583 -0.053784303 0.07534465 0.07775313 -0.10076988 0.03772558 0.037744913 -0.046684805 -0.008348346 0.09015893 -0.05874984 -0.052184105 -0.042757966 0.06407288 -0.04331112 -0.08886094 -0.004750615 -0.0013443107 -0.014683038 -0.05211735 -0.061949704 0.098115064 -0.07701999 0.05936024 0.00011287455 -0.0077682505 0.034198355 0.079651006 0.08488038 -0.04774791 -0.04937117 0.08421293 -0.03405431 -0.092731975 0.019601464 -0.093515866 -0.05897305 0.013109894 0.061346605 -0.06056043 -0.0068531083 -0.03983205 0.015962167 -0.025435738 0.08803067 -0.029588636 -0.10217741 0.04420836
521 -0.055868573 -0.057399344 0.04629509 -0.0051994496 -0.010969758 0.0029461838 -0.046559364 -0.056439616 -0.009859001 -0.00043564942 -0.054965694 -0.023276877 0.036464754 0.006639575 -0.0011449248 -0.06742827 0.057367936 0.030551936 0.008783999 0.0004824357 0.0948358 0.036271885 -0.011825597 0.057355262 -0.051513683 0.07190651 0.048249 0.0270858 0.08036077 0.046168838 0.0067854165 0.07850614 -0.0131823355 0.0383971 0.018658288 -0.09510789 -0.04270581 -0.07173639 0.06348542 0.021858033 -0.03655977 0.07155525 -0.05624224 0.05097952 -0.063254304 -0.0056675174 -0.05635105 -0.047381368 -0.011182103 0.010561403 -0.095168486 0.08958591 0.09342893 0.053668167 0.035017278 0.09993644 0.045317646 -0.08107485 0.048775584 -0.10492636 -0.058432244 0.0026602398 -0.040718462 0.102344885 0.026168523 -0.07609234 -0.042011667 0.012093206 0.07400129 -0.02055038 -0.04057302 0.06122929 -0.009305652 -0.08682821 -0.0960093 -0.0027620203 0.044288177 0.07739487 -0.03717378 -0.05560524 0.060260553 -0.07734252 -0.019923829 0.042499106 -0.09933162 -0.0005324291 0.007468541 -0.088349 -0.059585057 0.017107772 -0.047419 -0.051221512 -0.038109902 0.058926355 0.041115418 -0.052214038 -0.008956322 0.04185403 0.06395318 -0.032359872 0.07136058 0.091261 0.035624616 0.08171992 0.043953788 -0.0797484 0.02283753 -0.05646493 0.09355549 0.10323049 0.024304388 -0.04986262 0.09515036 -0.011164217 0.0359295 -0.04352395 0.037025 -0.04558399 -0.062817246 0.045836255 -0.07016502 0.07578969 -0.09469694 -0.07352605 0.023645638 0.009235202 -0.09913991 0.09999972
522 -0.09560746 0.095850505 -0.00939647 -0.10062649 -0.005849844 0.09062751 -0.046262544 -0.013895298 -0.00055618666 0.028036954 0.0018397159 0.008843752 0.047356315 0.05451355 0.04192098 0.050310187 -0.04556941 0.04883142 0.05791205 0.042366 0.043820057 0.040131204 0.046425663 0.051592294 -0.041614305 -0.037928287 0.052243564 -0.04160002 -0.057160698 0.0058008274 0.03465173 0.022253167 0.039594375 -0.03938546 0.09800246 0.030740174 0.002962736 -0.073560655 -0.030364307 0.095149934 -0.010879494 0.017005997 -0.053238977 -0.05055455 0.029894337 -0.08515331 0.07116636 0.007565365 -0.02467187 -0.06853876 -0.10397763 0.012111399 0.09494472 -0.0023003798 -0.019215824 -0.029303703 -0.011533201 -0.09154502 -0.059666518 -0.061078735 0.06655572 -0.02144188 -0.0128655555 0.03578176 -0.05427656 -0.09904295 0.071059175 -0.08167897 0.08616939 0.085896365 -0.07580118 -0.0380225 0.061803993 -0.054235615 -0.07638319 0.08779292 0.012383014 0.034275815 0.036441054 0.059816845 0.013156506 -0.05359984 0.10364779 -0.02573098 0.04451723 -0.025619334 0.055636454 -0.071643986 0.023160627 -0.049222417 0.060038045 -0.034746874 -0.020624695 0.079859495 -0.018732598 -0.0668961 0.028408818 0.07936441 0.102014855 0.039970946 0.03398853 0.039522763 0.00088575087 0.043369666 -0.04636932 -0.06604992 0.06167055 -0.017048799 0.043334726 0.016912717 -0.10395401 0.036626082 0.025232062 -0.074400745 0.028147731 -0.01668933 -0.013322556 0.07899221 -0.019212924 -0.020422934 -0.05709956 -0.009660267 0.045064252 0.060132924 0.0075678336 -0.06854577 0.011151934 0.07016123
523 0.017775787 0.08381549 -0.009362896 -0.099921964 -0.09989838 -0.05071735 0.018459339 -0.012642338 0.025173087 -0.045553353 0.051969957 -0.016436294 -0.09746292 -0.069688454 -0.015662245 -0.07650412 0.038437534 0.06646886 0.091706015 -0.08405467 0.022452785 -0.03824024 0.039308958 0.05204403 -0.043380808 0.08623086 -0.06972373 -0.012766829 -0.050550148 -0.08077273 -0.021361727 0.09078383 -0.0680306 0.06748653 -0.01050935 -0.058132816 0.078167066 0.04621418 0.0069056423 0.054189313 0.069763534 0.040527716 -0.04629181 -0.0055480925 0.02283864 -0.0022011865 -0.0047694016 0.07297193 0.016741471 0.008259975 -0.08701226 0.005785878 -0.06102061 -0.080292545 -0.037053496 0.07191344 -0.051229365 -0.055466384 0.037184216 0.059352435 -0.053250942 -0.097049005 -0.028844517 -0.036783602 -0.044460036 0.047423035 0.059000418 0.031645656 0.08647784 0.079426125 -0.036939893 0.033307295 -0.02983716 -0.049899735 -0.102056 -0.04837431 -0.030990759 0.092795156 -0.07604016 -0.015882345 -0.08830424 0.037342697 0.10315991 -0.0045014913 0.04828958 -0.051370606 -0.003996584 0.021709176 0.05247733 -0.008721466 0.062122606 0.023065737 -0.08818119 -0.07785217 -0.08357402 0.024305679 0.08518255 0.09851557 0.08323614 -0.0014886146 0.033796333 0.06287142 -0.10467257 -0.009341694 -0.0500389 -0.03800183 0.08560953 0.015779752 0.015564856 0.010519404 -0.10385316 0.092904836 0.09491303 -0.08688227 0.05575542 -0.07902689 -0.0053139604 -0.041523702 0.0022994797 0.095584676 -0.0034969475 -0.026734024 -0.021348434 0.011657947 -0.019614581 -0.08701102 -0.053077128 0.09544175
528 0.015389571 0.048993718 -0.06027651 -0.0061113387 0.022831686 -0.009672175 -0.06561864 0.07392143 -0.0015211755 -0.03856472 -0.089242645 -0.05566708 -0.0113834115 0.016441794 -0.0012030558 -0.03426391 0.08841396 -0.038732655 0.017472241 0.021949543 0.01976979 -0.091048844 -0.036983594 0.06293657 0.03622211 0.04947961 -0.011802718 0.054348987 0.068172425 -0.0046211015 -0.041296564 0.049769122 0.021850858 0.02478387 0.09948794 -0.048959345 0.03870675 -0.09910278 -0.00814983 0.032786477 0.09234562 0.034014396 0.059702296 0.023145946 0.076920904 0.036390703 0.07261836 -0.048699558 0.00080676074 -0.03684415 -0.05993651 0.09801812 -0.06262217 0.046536 -0.08220614 0.08161927 0.04061819 -0.087095045 0.011218521 -0.045706253 0.06283233 -0.017509496 -0.011153664 -0.0036960717 0.046322133 -0.013682187 0.08826706 0.020474073 0.0057304287 0.10340822 -0.05063168 -0.08654413 -0.09085234 -0.016111653 0.06352153 0.06951095 -0.035369672 0.032523792 0.013012858 0.020240745 0.05922696 -0.050288785 0.01201094 -0.03266335 -0.060041122 -0.07338106 0.09251839 -0.09036499 0.0724671 0.08995441 -0.044297487 0.10396846 -0.0620085 -0.038122505 0.034372106 0.027494539 0.041044872 0.007966035 0.030923339 -0.023432003 0.094114386 0.026566464 -0.09969353 0.03525701 0.0069923135 0.02914867 0.02188888 0.062217746 0.053397123 -0.040904365 -0.05010444 -0.0124243535 -0.05119706 0.0253975 0.060938746 -0.030203028 -0.009798075 0.07983828 0.019838493 0.057336524 0.010899061 -0.011656782 0.042900417 -0.04707706 0.038233165 -0.07553262 -0.0668617 -0.031009555
529 -0.019785991 -0.059669416 0.03240917 -0.080186784 -0.037389107 -0.046101324 -0.061375506 0.04954039 -0.040121414 -0.06405996 -0.036859535 0.092532635 0.027560093 -0.09275531 -0.079897 -0.023952207 -0.049318578 0.06772115 0.08947139 -0.0048907003 -0.04465773 -0.05467644 -0.025678745 -0.050965283 0.027484577 -0.024959056 -0.06564169 0.05162589 0.07562874 -0.028708477 0.032200627 0.071865484 -0.062069196 0.079059094 -0.0013654047 -0.10315489 0.05855922 -0.08730244 -0.05132054 0.08073387 -0.006175099 0.073993035 0.09571206 -0.023718964 0.050563317 0.042230666 -0.0057527423 0.023296488 0.053393304 0.047098704 0.03507564 -0.0056353966 -0.05151984 -0.090586044 -0.06787798 0.038262118 -0.021151282 0.009749539 -0.09722825 0.03240666 0.03374884 -0.007631502 0.03641939 0.012600902 0.07901887 0.010070317 0.10260694 -0.1005293 -0.006894072 0.044634182 0.020114385 0.028512873 0.05906349 0.046994995 -0.038351722 -0.037242137 0.03413095 -0.060181413 -0.032078527 0.04948205 -0.09098691 -0.007514707 0.03816196 0.01813659 -0.016300404 -0.023194853 -0.02865888 -8.969789e-05 0.052603595 0.02771907 -0.071678266 0.002128954 0.051297884 0.018542686 0.060343888 -0.09479655 0.07265138 -0.01222476 0.051453996 -0.0024926965 0.08451803 -0.02369084 0.014509738 0.007658689 -0.02092381 -0.05217915 -0.032943282 0.025440428 -0.021249156 0.030148875 0.04693481 -0.03300937 0.0626506 -0.03725235 -0.019030452 -0.010453338 -0.0829332 0.10290796 -0.04891545 0.057900187 -0.02900962 0.061408207 0.040890563 0.055330962 -0.042545088 -0.08009527 -0.061938956 0.102459736
449 -0.029385196 0.013868853 -0.034080952 -0.024519045 -0.09404773 0.101309024 -0.025077773 0.096634485 0.020928742 -0.0094006965 -0.08715094 0.04384911 0.012878086 -0.038522676 -0.08872725 -0.025330786 -0.030156028 0.07538304 0.037173778 -0.015340732 -0.017379671 -0.022868067 0.0068060854 -0.0040667094 -0.014976053 0.07451407 0.032020856 -0.045026053 0.050257266 -0.0710364 -0.069848865 0.06765295 0.049531803 -0.021554599 0.018590156 -0.05300447 0.08754743 -0.08177216 0.026644602 -0.04611471 0.0373953 0.041105725 0.078346245 -0.048610035 -0.06278608 -0.08267086 0.041492797 -0.0323332 -0.012907328 0.05990675 0.034764443 -0.039340474 0.034056414 0.03831071 -0.04328831 0.07365044 0.0472328 -0.07912512 0.029272266 0.063565195 -0.04272481 0.023884801 -0.08070098 0.06298417 0.057372127 -0.08683352 0.01674661 -0.038734425 -0.023135925 -0.033208825 0.04972216 0.04184195 0.06240506 0.06259679 0.04514193 0.029587407 -0.044462815 0.0041426835 0.061724305 -0.06372921 -0.07284469 0.04295767 0.08605934 -0.0077795004 -0.08242384 -0.06333244 0.013826692 -0.07786794 0.0631657 -0.057386793 -0.062578015 -0.037217036 -0.052718572 0.08392175 0.05821546 -0.019218512 0.029399384 0.07357315 -0.029720526 0.056012996 0.029874077 0.028014444 -0.036319964 -0.018224083 -0.021039288 -0.05587631 0.068921775 0.09063474 0.0395861 -0.044721257 0.055919863 -0.051713295 0.081200205 -0.085089006 -0.0068957815 -0.018869843 0.062132686 0.08575019 0.07879824 0.07502883 -0.07018708 0.029774902 -0.008845447 -0.087661564 -0.006955504 0.020335807 -0.036792554 -0.061780307
448 -0.03870407 0.0018495478 0.0900556 -0.07297316 -0.06846282 -0.024435831 -0.07356705 -0.058816515 0.10281163 0.015239479 -0.00065090926 0.037881278 -0.04440198 -0.0882778 0.008053209 -0.0771299 -0.06058511 0.023954667 0.062403105 0.0050328798 -0.063060604 0.028621603 0.01096065 -0.013563774 0.053187016 0.09457168 0.025986504 -0.092677265 0.10030604 -0.0046839253 -0.09946055 -0.06252185 0.039034516 0.06881575 0.036266975 0.0076162736 -0.011100485 -0.010204907 -0.0071746595 0.06966549 -0.027975313 0.10485059 0.021634396 0.04945608 0.04132778 0.011301671 0.07608554 0.019346874 0.07457922 -0.025813635 -0.07606328 0.019747823 0.02873351 -0.03807286 -0.06626953 0.10223316 0.059958894 0.025471121 0.020465361 -0.08366784 0.014039773 -0.057359427 -0.028772347 0.07119031 0.08937669 -0.017402126 0.06666698 0.024741873 -0.036369167 -0.028391473 -0.033764698 -0.01365365 0.017889665 -0.09645226 -0.1049744 -0.051001113 0.004718128 -0.0043731076 0.035186045 -0.054764867 0.045839075 0.029766578 -0.05675215 0.0012243994 -0.015080155 -0.08926022 0.01562682 -0.03077355 0.060896568 0.032611437 -0.014776126 0.014829294 -0.0035401145 -0.09099838 -0.07052857 -0.08990432 0.014048386 0.0414382 0.07264954 -0.037512224 -0.017293978 0.06628015 0.027541166 0.07405044 0.013936721 0.015897864 -0.059200287 -0.024885708 -0.01688731 0.040791143 -0.05671965 -0.0435258 0.078329995 0.060913425 0.028593061 -0.048052836 -0.004753864 0.0013827231 0.017590724 0.046616368 -0.044303305 0.056427687 -0.011036352 -0.012182438 0.075147316 -0.060722396 -0.021009719 0.03409857
443 0.05491004 0.011695344 -0.008944429 -0.0192205 -0.016660597 0.02855736 -0.029897045 -0.050153077 0.006858903 -0.087044805 0.009898584 0.085946545 0.005264011 -0.0660278 -0.05389632 -0.031003164 0.057498757 0.08605235 -0.023900373 0.012608796 -0.002901725 0.05452623 0.02875477 -0.01263953 0.0096944 0.02093301 -0.046114195 -0.059870265 0.092551395 -0.053660773 0.027969312 0.026857097 0.05226202 -0.056599114 -0.012081243 0.00023820915 0.060711887 -0.035898123 0.021786064 -0.053538922 0.016538663 0.044090986 -0.013892349 0.08380101 0.08613806 -0.023664398 -0.04602637 0.0141848605 0.066284575 -0.060788006 -0.015105318 -0.040320337 -0.04269092 -0.03221432 -0.058824267 0.077662766 0.0351899 -0.062454086 -0.005583621 -0.040034432 0.055723585 0.053398393 -0.030964497 0.094069004 -0.04932987 0.054810517 -0.03974742 -0.020015974 0.03540469 -0.05762477 -0.093371764 0.017607091 -0.09784247 -0.090413384 0.044227406 -0.026243178 0.0449897 -0.056822814 0.06275951 -0.020606454 -0.009715884 -0.048036344 0.105579145 0.029293044 0.054046147 -0.079888664 -0.058989022 -0.005250768 -0.03621927 -0.024911342 0.045161687 0.0811941 -0.049977675 0.0530849 -0.04845199 0.060655843 0.09770181 0.045546636 0.038554274 -0.052100923 -0.021163631 0.0645658 -0.10088534 -0.056666 0.04218124 -0.051402934 0.10164654 0.020479333 0.036232404 -0.03076698 -0.04993869 0.055613812 -0.030691843 0.021617368 0.0064725503 -0.020084996 -0.087168075 0.08511424 0.082745254 -0.05788854 0.02622603 0.0705647 -0.09551541 -0.057587497 -0.0113869915 -0.040199723 -0.0051182183 0.098501414
442 -0.07664008 0.09060215 -0.017685823 0.020789668 -0.01307093 0.041008834 -0.0627275 -0.008160144 0.04101948 0.021636015 -0.015977366 0.024293255 -0.07560538 0.007364875 -0.066270754 -0.05133181 0.083224915 -0.048944283 -0.062366 -0.048037767 -0.042391293 -0.038898975 0.06096514 0.045312222 0.030787662 -0.03328511 0.005535867 0.04626101 0.07346395 -0.09451173 -0.10423259 0.029686956 -0.023021571 0.06820293 0.030171763 0.03454243 -0.012922315 -0.01971314 -0.03831067 -0.05704593 0.085697874 0.017710865 0.008929315 0.014896083 -0.0070972573 -0.062391307 0.040522072 -0.02293653 -0.0040619737 0.027760955 -0.020064913 0.09804771 0.071795404 0.00181366 0.02986582 0.055377804 -0.028849225 -0.06137233 -0.081856616 -0.073627904 -0.049906578 -0.0066202027 0.00082866324 -0.06373389 0.092673436 -0.09919699 0.0889667 -0.0037682154 0.04527913 -0.020734552 0.028946005 0.02452714 0.010063898 -0.0065037026 -0.020382581 -0.043968022 -0.040744018 0.0016961357 0.032881 -0.042585917 -0.023227418 -0.09878038 0.025876665 0.02368108 0.00017944921 -0.05153287 0.077078454 -0.022041177 0.09556029 0.07298164 0.013575436 0.015612368 0.027679453 0.038172115 -0.058452167 -0.07795268 0.08850465 -0.047566585 -0.024348492 -0.09418676 0.03143921 0.07989427 0.051179312 -0.05240956 -0.100647256 -0.074014224 0.037383627 -0.037283573 0.04172261 0.022695275 -0.060311433 0.058107227 0.06399831 0.024850434 0.0020210883 -0.05725421 -0.038915806 -0.061206874 0.0105383955 -0.0633161 0.062460158 -0.024601107 0.060204577 0.0007341526 -0.034241404 0.0075818636 -0.073283695 -0.0025907308
